{"arch": [768, 256, 64, 16, 1], "scale": 600.0, "layers": [{"w": [0.237836, -0.962594, -0.804566, 1.591894, -0.130596, -0.239802, 0.087974, -0.073559, 1.554581, -1.763991, -0.980961, 0.855974, 1.601412, -1.032659, 0.839137, 3.336779, -1.71748, 0.56687, -0.061718, -0.438352, -1.363822, -0.593952, -0.794859, -0.689942, -0.49731, 0.089545, 0.706819, -1.693008, 1.157246, 1.374501, 0.138966, -1.329703, -0.898524, -0.465132, -0.215729, -0.844233, -0.138528, 0.76324, 0.091848, -1.490025, 1.079971, -0.681169, 0.114014, -0.306869, -0.320185, 0.111102, -2.024386, 0.612314, 1.860129, -0.726772, 0.202471, -0.70837, -0.258397, -0.569699, -0.859986, -0.718611, -1.315106, 0.129545, -0.5822, 0.254975, 1.278276, 1.668271, 1.608918, -0.038628, 0.635303, -2.289875, 0.321442, 1.123274, -0.930556, 0.517183, -0.913323, 0.421781, 0.09452, 0.235273, -0.288379, -1.229587, 0.128298, -0.50392, -0.789442, -0.919753, 1.832451, -1.030825, -0.331193, 0.34864, 1.21821, -0.392165, 1.151904, 0.703484, -0.044078, 1.376948, -1.735905, -0.167674, 0.677091, 0.954939, 0.824786, -0.295417, 0.052421, 1.21902, -0.403283, -0.040778, -0.367521, 0.085993, 0.519259, 0.231581, 0.666008, -1.617367, 0.895084, 0.20879, -0.61188, 1.05542, 2.339942, -0.079712, 0.77695, 0.668754, -0.335706, 0.116594, 0.865173, 1.092939, 1.280553, 1.911729, -0.542161, 0.755891, 0.138275, -1.320572, -0.521106, -1.322436, -0.150699, 0.228958, 0.466207, 0.950658, 1.450332, -2.288854, 0.087143, 0.682104, 0.304851, -0.58609, 0.744559, 0.480007, -1.501335, 0.269127, -0.131065, 0.729651, -0.662167, 0.086234, -1.928571, 1.369028, -1.013628, 0.90035, 0.199799, 0.656024, 0.671718, 1.159526, 0.609628, -0.851529, -0.43999, 1.520452, -0.882036, 1.139966, -1.114102, -0.279636, -0.573717, 0.868839, -0.887551, -0.803753, -0.044562, -2.014517, -0.224546, -1.317231, 0.662637, 1.037444, -1.320648, 1.199736, -0.432962, -1.289383, 0.642142, -0.666798, 1.841864, 0.996134, -0.224887, -0.097298, -1.776564, -0.532061, 0.730653, 0.732796, -1.421815, -0.956778, -0.302663, -0.562745, 0.042826, -0.073464, -1.226047, 1.323438, 0.287798, -0.036479, -0.40777, 0.869568, -1.330199, -0.670948, -0.415069, -0.610046, -0.706755, 1.323513, 0.366222, 1.527374, -1.423521, 0.13654, -0.615259, 0.286204, 0.797121, 0.242687, 1.58661, 0.280637, -0.108836, -1.128013, -0.069713, -0.293443, 1.346915, 1.018347, 1.533574, -0.895181, -2.166015, 0.228643, -1.268853, -0.77114, 1.261544, -1.770303, 2.516128, -0.632796, 0.752985, 0.102533, -0.895182, 0.560688, -1.890962, -1.584999, 1.064563, -0.546037, 2.182137, -0.040287, 1.224094, 0.372455, -0.792665, 2.298109, -1.351482, 0.442441, 2.051804, 0.510295, 0.754359, -0.734054, -0.039989, -0.994618, 0.283408, 1.345068, 0.05179, 0.773055, 1.772639, -1.456043, 1.516049, 0.55949, -0.090121, 0.361227, -0.30659, 1.2575, 1.321564, 1.25601, -0.404044, 0.782359, 1.247727, 2.337457, 1.107742, 1.210011, 0.698731, -2.283656, -1.200645, -0.622346, -0.709733, -0.811151, -0.146867, -1.212296, 0.353297, 1.369317, 1.069963, -1.951653, 0.745999, 1.441189, 0.046654, 0.656988, 1.019958, -0.212369, 0.168264, -1.857334, -0.799773, -1.933046, 0.135008, 1.73835, 0.486129, -0.149079, 1.968798, -0.12299, 0.006187, 0.242271, -0.552055, 0.977259, 0.971086, 1.032199, 0.139796, 0.399241, 1.494797, -0.937679, -0.308734, -0.187029, -1.651338, 0.115025, -0.352581, -0.601877, 1.162516, -1.042135, 0.543862, 0.259227, -0.889453, 0.033336, 0.431102, -0.574033, 0.964327, 0.416657, 1.124219, 1.099603, 0.769804, -1.672598, 0.332804, 1.383048, -0.121848, 0.269179, -0.252956, 0.457766, -1.323418, -0.620985, 0.461219, -0.047534, -1.170992, -1.03245, -1.583244, -1.3823, -0.49722, -0.057121, 0.708198, 0.974982, -0.928972, 0.469729, -0.171348, 2.267903, 0.145393, -0.994609, -1.308321, -0.398515, 0.684224, -0.272063, 0.608529, -0.327643, -0.302517, 0.403231, 0.420521, -1.561745, -0.01312, 1.400434, 0.059694, 1.292547, -0.85663, -0.758826, -1.882716, -0.938095, 0.603947, -0.548373, -0.610432, -0.566619, -0.67344, 0.788353, 0.256424, -0.515185, -1.14485, 2.201631, 0.301046, 1.33845, 0.328737, -0.726454, 3.22029, 0.627801, 0.094663, 1.641774, -0.557231, -0.213147, -1.305518, -0.177375, 0.022442, 1.232398, 0.902713, -0.092472, -0.354826, 0.604265, -1.30056, -0.952943, 1.152996, -0.341235, 0.631983, 1.440622, 2.415413, -0.462687, 1.049201, 0.503591, 0.640785, 1.242775, 0.69598, -2.063863, -0.084234, 0.423313, 1.113124, -2.074083, -0.992113, -0.892827, 0.575813, 0.154158, 1.606703, -0.096161, 0.173732, 0.888339, -0.690597, 0.833564, -0.508401, -0.860603, 1.17769, -1.508036, -0.978247, 0.797649, 0.173393, 0.905186, 0.607222, -1.11297, 0.748546, -0.189266, -0.287226, 1.114132, -1.169931, 1.055391, -0.89085, 0.66015, -1.201375, 0.314025, -0.434702, -1.061405, -1.532496, 0.208346, -0.157583, -0.369655, -1.182924, -0.388553, 1.443171, -0.842709, 0.703991, -0.081414, -0.964386, 0.156121, 0.678261, 1.122292, -0.612151, 0.245737, 1.156879, 0.495126, 0.812182, 0.847536, -1.477224, 0.310541, -0.654557, 0.56742, 0.465181, -0.03012, -2.003297, -0.187553, -1.173219, 0.062244, -0.207346, 1.242441, 1.734157, -0.28959, 0.992164, 0.512046, -0.71926, 0.305843, -0.417992, -0.950622, 0.706885, 0.351584, 0.221628, -0.121987, 0.038964, -1.352294, 0.503405, 1.876932, -1.506125, 1.461159, 1.236734, -0.347058, 0.936585, -0.702895, 1.10788, -1.548645, -0.852415, 0.207406, -0.142043, -0.127801, 0.672804, 0.310017, -1.946446, -0.49113, -0.123994, 0.736436, -2.001267, 0.814901, 0.179372, -0.306639, -1.302769, 1.451872, -0.66939, -0.283235, -2.408534, -0.591086, 1.285087, 0.085567, 0.152801, 1.269711, 0.633969, 0.064237, 0.97278, 0.346183, -0.20084, 0.438383, 1.077477, -0.415961, -0.691616, -0.596307, 0.869004, 0.595437, -1.247894, 0.48959, -1.74281, -1.747674, -0.493681, 1.047826, -0.304329, 0.094857, -0.345318, -0.09692, -0.880902, -0.860113, -0.184307, 1.011937, -1.6056, -1.829436, -0.118836, 0.966539, -0.65998, 0.124122, -0.429319, 1.493464, 0.160802, 1.400167, 0.546282, 2.257515, -2.246215, 1.395371, 0.338603, -2.336422, -0.173304, 1.427865, 0.772883, -0.908156, 1.51736, 0.157065, 0.645998, -0.112985, 0.121976, -0.73893, 0.058475, 0.56092, 0.811537, 1.354645, -0.129774, 0.950212, -0.229377, 0.464549, -1.473411, -0.228686, 0.629258, -0.3162, 0.471406, -0.259649, -0.001503, -0.862272, -0.720505, 0.621637, 0.091507, 0.863837, 0.492802, 0.215672, -0.829664, -0.425752, 1.078081, 0.632691, -0.001339, 1.087334, 0.872397, 1.804483, 0.589066, 0.57681, 1.362375, 0.375388, 0.856932, -0.343744, 0.892822, -0.504838, 0.796333, -0.587837, 2.648226, -0.101249, 0.471605, 0.36772, -0.201875, -0.076357, -1.047318, 0.817302, 1.090343, -0.889179, 0.039351, 1.168267, -2.134161, 0.332445, -0.509191, 1.286433, -1.179709, -0.626845, 0.720451, -0.034088, -1.469274, 0.498679, -0.138011, -0.626273, -1.60388, 0.133558, 1.852531, 1.629779, 0.868513, -0.041629, 1.464578, 0.115464, -1.750941, -0.527607, -1.637079, 0.348051, 0.57546, 1.226753, 0.893193, -1.270471, 0.986685, 0.306191, 0.908376, 0.042608, 1.248952, -1.529391, -0.111329, 0.586019, -0.643906, 1.073872, -0.628433, -0.26971, -0.13029, 1.128219, -0.608162, -0.240258, 0.723451, -0.216578, 1.824461, 0.324747, 1.448127, -0.089705, -0.910494, -1.612424, -0.758105, 0.590263, -0.154305, 0.54075, -1.093525, -0.431715, -0.388437, -0.983223, -1.184336, 1.707056, 0.476775, -1.060859, 0.566934, -0.337429, 0.259913, -0.815949, -0.011561, 0.738142, 0.179458, 1.05928, -0.079615, -0.963056, 0.369639, 1.927959, -1.182157, 1.281876, -0.004965, 0.818122, -0.00103, 0.217155, -1.639323, -0.59784, 0.485273, -0.437109, -1.73619, -0.71293, -1.355598, -0.699763, 1.120897, 1.285241, 1.182725, -1.869117, 0.202303, 1.497911, 0.378946, 0.844913, 1.752978, -0.622592, 0.056682, -2.040166, -0.88212, 0.122129, -3.000558, -0.511924, -1.591356, -0.575578, -0.610517, -0.26708, -1.068742, -0.847298, 0.581458, -0.199441, -0.442493, -1.490561, -1.033843, -1.407083, 1.213107, -1.738054, 0.479307, -2.81771, -0.004269, -1.042163, -0.873034, -1.509106, -0.223278, 0.128299, -0.891804, 0.583403, 0.05754, -0.000467, -0.574612, 0.391047, 2.555387, -0.651287, -0.630426, 0.538727, 0.334272, 1.393476, -0.6416, 0.183287, -0.036236, 2.005031, 1.432543, 1.43872, 1.097285, -0.069288, 0.611476, 0.587384, 0.592424, -0.670182, 0.058214, 0.021587, -0.252284, 1.593259, 1.871474, -0.408507, -1.075235, 0.016097, -1.147675, 1.738733, 1.673135, 0.114437, 0.636613, -0.09996, -1.371955, -2.025608, -0.042481, 0.47789, -1.044934, 0.913482, 2.5041, -1.301161, 1.223642, 0.75591, -1.222732, -0.550522, -0.477553, 0.891845, -0.433019, 0.77356, 0.430882, 0.77076, -0.018862, 0.679944, -0.678713, 0.285163, -0.256731, 1.027426, 0.959691, 0.411231, -0.354706, -1.333807, 1.988237, 0.503017, 0.785478, -0.616247, -2.173491, -0.815916, -0.361707, 0.960876, -1.025064, 1.190408, -0.364176, -0.814294, 1.340565, 1.177268, 1.179816, 1.327938, 0.066097, 1.4232, -0.132539, -3.060605, -0.576238, 0.661936, 0.661352, 1.49483, 2.364104, 1.399847, -0.072632, -0.616867, 0.191406, 1.760383, 0.280995, 0.827482, -1.103002, 0.748281, 0.695057, 0.644389, -0.623375, -0.185479, 0.245166, 0.298832, -1.295514, 0.693385, -0.983732, -0.824494, 0.430447, 1.32787, 0.625806, -0.421541, -0.489086, -1.258211, 1.480704, 1.550825, 0.473069, 0.274986, 1.052103, 1.369388, 1.452463, -0.393179, -1.620813, -0.014516, -1.375929, -0.303164, 1.521014, 1.304034, 1.380687, -0.019291, -0.346292, -0.054527, 0.715886, -2.320012, -0.623568, -0.63109, -1.093953, -1.072211, -0.857814, 0.367286, -0.000102, 0.934717, 0.505962, -0.045348, -0.302159, 2.304585, -1.384752, -0.064065, -1.103497, 0.741313, 0.95786, -0.677461, -1.001262, 1.340823, -1.17494, 0.216786, 0.689022, 1.2788, 0.467784, 0.55747, -0.475369, 1.135196, 0.978778, -1.246811, 1.222891, -0.571865, -0.736878, 0.450666, -3.039677, 0.114264, 1.889483, -0.984079, 0.67973, -0.298295, -1.39156, -0.224745, 2.801241, -0.909687, -0.469007, 1.228505, -0.059736, 0.577769, -0.364703, 1.907433, 0.367035, 1.249945, -0.528978, 0.856538, 0.109379, -0.442179, 1.130063, -0.640135, 0.650924, -1.290438, -1.024954, -1.124056, 0.559092, 0.934531, 0.279193, -1.311463, -0.628552, 0.239769, -0.498075, -1.786732, -1.213362, -1.382111, -0.164658, 1.702559, -0.789266, 1.831603, -0.690745, -1.482959, -0.59613, 0.173902, 0.794151, 0.225387, 0.595125, 0.575717, -0.774077, -0.128523, -0.285679, 0.506664, -1.443608, 0.860138, -0.383209, 0.772286, 1.388103, 0.345593, -0.759042, -0.117485, 1.480309, -0.839189, 0.552834, -0.440532, 1.357277, -0.377399, -0.170265, 0.634758, -0.329813, -0.907175, 1.419507, 0.083298, 0.156349, -0.456549, -0.642613, -0.235715, 0.589395, 0.057385, -0.273227, -2.058237, 0.571699, 1.972112, -0.664077, 1.700512, -1.418433, 0.382623, -0.972165, -1.46908, 0.60637, -0.025624, -1.290661, 0.66981, 0.188952, -0.262238, 0.332407, -0.573616, 1.159576, 0.337063, 1.045893, -2.554026, 0.735084, -1.258366, 0.190095, 0.028395, -0.479903, 0.364036, 0.339986, 1.256727, -0.821297, -1.637331, -1.097101, -0.397001, -0.343171, 0.396273, 0.454952, 1.919237, -0.812888, -0.164611, 0.479822, -2.554829, 1.818468, -0.727914, -0.461701, -0.024677, 0.099651, 1.390831, 0.474166, -0.088064, -0.386808, -0.284703, -1.177537, -1.942573, 1.652814, 0.138825, -0.567468, 1.011646, 0.588744, -0.82034, -1.213201, -0.599008, -2.551652, -0.371935, 0.296451, -0.632078, -0.663962, 1.278862, 1.213408, -1.323876, 2.121583, -0.228326, 0.8054, -0.926418, 0.753907, 2.697769, -0.232808, -0.436238, 0.939891, 0.269551, -0.147982, -0.427624, 0.19876, 0.67621, 0.962316, -1.032443, 1.164902, -0.895639, -1.238356, -0.171011, -1.274371, 0.8319, -0.381911, 1.045083, 0.328909, 1.158733, 1.096071, 0.153191, -0.801492, 0.027393, 0.403725, 0.216561, 0.607282, 0.24845, -0.506345, 1.366439, 0.708617, -1.412565, 1.313492, 1.035592, 0.497683, 0.972891, 2.701842, 0.062745, -0.955909, -0.398353, -2.219858, -0.003638, -1.182221, 0.706933, -0.277131, 0.080862, 0.634531, 0.406368, 0.226634, -0.773422, 0.292138, -0.283338, 1.465424, -0.352205, 0.498464, -0.827074, -0.236482, 0.389004, 0.366644, -1.399227, -0.907339, 1.633549, -0.668117, 0.88836, 0.03981, 0.129702, -0.71482, 0.233532, 0.807628, 1.602062, 1.58754, -0.616818, -0.099951, 1.159839, 0.496898, -0.96345, 0.665693, 2.04937, 1.052701, 1.388344, 1.29725, 0.219359, -1.853615, 1.764221, 0.741223, -0.296195, -0.25451, -1.787862, -1.310469, 0.569659, 0.906139, -1.051309, -0.118903, 0.249904, 1.000946, 1.638983, 0.333467, -0.249548, 0.242289, 0.190751, -0.3762, 0.241957, 1.838248, 0.388664, 0.154856, 0.122358, 0.472589, -0.403849, 1.070775, 0.147184, 2.595287, 0.864407, -1.229131, -0.339572, -0.943513, 1.73004, -1.847128, -0.874882, -0.357894, 0.966429, 2.304668, 1.503579, 0.854767, -0.219149, 0.703639, -1.170674, 1.144837, -1.075387, -1.135455, -0.715786, 0.691535, 0.192267, -0.381746, 0.536506, -0.653179, 0.220019, 0.429347, 0.974297, 0.117921, -0.458345, -0.015779, -1.344112, 2.66398, 0.74036, 0.849354, 0.073686, 0.013622, 1.879955, -0.517936, -0.484557, 1.098366, 0.883418, -0.744561, -0.463104, -0.21597, -0.673589, -0.682566, 1.685313, -1.533118, -0.218232, 0.02251, -0.451005, -1.012317, 0.910427, -1.125449, 2.326231, 1.111918, -0.699317, 0.167232, -0.713111, -0.559109, 0.461624, 0.570792, -0.295161, 1.386836, 1.050606, 0.926254, 0.278724, -1.04873, -0.691054, -0.513705, 1.206741, -1.22217, 0.456842, 0.653172, 0.769701, 0.362184, -0.453854, -0.258718, 2.220681, -0.652817, -0.339875, -0.772527, 1.121091, -0.815675, -0.231046, 0.496168, -0.929624, 0.806175, 0.297483, 0.376767, -0.030941, -0.011687, 0.912212, -1.367516, -0.307021, -0.013468, 0.820452, 1.268202, 1.062898, -0.941537, -0.942682, -0.682478, -2.356953, 1.076606, 0.053828, -1.163114, -0.372654, -3.14941, -0.189931, 0.503707, -0.528485, 1.108594, 1.504411, 1.623176, -0.530712, -0.205568, 0.121722, -0.947827, 0.632694, 1.619565, -1.589612, -0.616872, -0.78973, 0.82413, -0.539529, 1.277761, -0.304672, -0.393369, -1.713097, -0.795752, 1.076362, 1.725103, 0.186534, 1.018742, 1.834604, 1.141257, 0.479937, -0.672686, 0.173263, -0.342278, 0.264974, -0.843564, 1.035121, 2.014907, -0.596458, -0.485535, 0.78522, 0.81933, -0.04014, -0.643454, 1.320335, 0.515239, 1.379831, 0.147897, 0.760673, 0.538953, 0.11978, -1.16726, 0.069247, 0.421608, 0.976826, -0.907743, -1.858851, 0.331806, 1.134552, 1.291909, 0.783217, -0.714212, -0.458107, -0.501307, 0.239025, 1.371438, 1.213402, -0.479024, -1.428289, -1.414079, -0.089997, -0.50165, 1.818015, -1.459959, 0.39455, 1.051869, 0.770993, 0.028583, -0.631507, 0.274125, -0.942446, 0.749968, 1.374216, -0.334503, -0.612622, -1.1749, -0.915193, 0.584263, -1.875427, 2.054815, -1.546979, 0.520795, 0.210909, 0.018116, -0.294297, -1.743453, 0.909106, -0.132509, 0.392966, -0.726676, -1.170843, 0.281585, 0.006564, 0.314691, 0.248615, -1.198515, -0.043218, 1.035501, 1.668542, 0.431646, -1.849435, 0.656497, 0.298483, 0.176061, -0.133679, -0.729568, 1.060883, -0.838919, -1.671492, 0.660586, -1.529896, 0.926517, -0.281195, 1.056343, -0.567214, -0.002548, -0.385476, -2.171921, -0.870035, 1.384231, -1.342735, -0.576733, -0.450788, 0.004778, 0.1713, -0.402064, -1.380743, 0.267176, 0.197608, -0.227106, 0.632843, 1.374441, 0.030577, 1.28759, 1.973977, 0.334235, -0.157643, 1.333767, -0.410133, 0.738561, -1.624306, -0.609442, -1.14527, -1.056217, 1.70649, 1.080313, -0.361382, 0.840907, 3.277342, 0.867339, 0.433956, -0.286196, 1.304292, 0.086039, -1.333454, -0.123617, -0.261915, -0.144001, 0.012557, -1.928476, -0.799744, -1.148121, 1.194998, 0.991086, -0.276934, 1.441598, -2.477472, -1.330027, 0.536629, -0.725064, -2.698615, 0.56297, 1.500786, -0.529175, -0.637019, 1.542793, 0.808697, -0.471547, 2.266291, 0.095234, 0.236314, -0.844099, -0.414623, -0.903247, 0.294303, -0.567928, -1.729133, 0.212796, 0.894226, -0.532841, 0.141065, 1.357188, 0.304144, -0.130342, -1.360782, 0.172632, -0.220796, -0.11838, 1.787557, -0.427163, 0.341328, 0.321413, -1.961229, -0.703384, 0.09516, -0.34332, 1.310833, -0.206837, -2.037028, 0.137692, -1.016421, -1.499656, 1.893766, -0.87562, -0.595183, 0.661436, 0.114988, -1.385954, 0.013376, -1.885736, -0.834969, -1.467101, -0.12615, 1.640866, -0.410168, -0.987686, -1.052869, -0.032849, -0.937021, 0.38203, -0.824112, -1.131728, -0.020278, 0.176603, 1.630262, -0.497229, 0.616367, 0.677423, -0.488701, -0.135073, 0.301153, -0.871699, 1.347927, 0.343002, -0.622619, -1.693399, 0.187399, 1.36812, -1.699782, -0.700942, -0.330699, 2.03383, 0.621226, 1.282898, -0.557164, -0.883786, -2.155215, -0.831011, -0.154566, -0.475462, 2.122043, 0.514243, 0.944429, -0.245858, 1.278376, 0.408839, -1.644793, 0.889808, -0.032551, -1.720262, -1.149848, -1.677499, 0.374019, -0.970372, 0.569428, -0.381185, 0.778178, 1.018735, -0.79182, -0.35907, 0.428022, -1.465524, -2.702509, 0.900008, -0.920376, 0.756372, 0.244302, -2.001526, 1.135204, -0.144345, 0.156792, 0.966749, -0.358205, -0.553782, 1.417391, -1.557077, 1.554599, -0.945466, 1.483203, -0.048943, 1.673315, 1.860393, -0.762224, -0.382516, -0.761951, 0.344683, 0.183343, 0.578657, -0.762106, 1.813845, -0.301052, -0.711457, -1.061571, -0.492946, -0.38651, 1.121575, -0.54273, 0.056734, -0.711503, -0.708265, -0.391297, 1.43623, 1.795176, -0.647782, 0.863809, -0.228082, 1.08221, -1.503044, 1.222319, 1.168778, 2.042208, -0.074105, -0.588784, -0.38261, 0.157787, -1.265601, -1.007538, -0.154498, -0.624095, 0.704284, -0.243443, 0.303399, 0.749883, -0.676225, -1.168647, 0.0243, -1.269348, 1.725634, 0.521207, 0.097814, -0.01127, 0.095873, 1.133933, 2.362808, 0.832052, 0.298874, -0.600904, 0.271641, -0.999564, 0.836877, 0.277697, 1.098848, 0.385174, -1.418859, -0.426147, -1.203591, 0.622369, -0.102937, -1.77157, -0.494646, 0.09596, -1.698534, -0.324281, -0.613164, 0.71654, -0.895687, 0.191008, -0.014017, 0.718007, -1.692582, -0.59427, -0.90462, 1.012602, 0.390871, 0.765422, -0.253094, -1.019311, -0.409773, -0.52678, 0.246983, 1.048747, -0.077142, -0.433176, 1.176846, 0.217557, -0.001477, -0.968238, -1.851942, -0.164106, -1.894418, -0.75128, 0.290512, 0.208136, -0.090491, 1.756948, 0.024209, -1.403627, -1.377557, -0.558248, 1.590572, -0.761092, 1.535832, -0.205542, -2.35696, 0.180357, 0.294198, -0.079248, -0.309243, -0.046302, 0.179199, -0.552858, 0.185987, 0.437085, -1.197916, 0.177291, -0.231115, -0.016567, -1.48841, -0.423009, -0.794991, -0.827017, -1.147605, 1.677222, -1.398867, 0.604878, 0.115134, -1.604062, -0.135867, -1.08674, -0.261166, 1.184304, -0.972554, 1.207999, 0.192243, -0.323374, 0.671876, 0.866536, 0.727979, 1.118532, -1.55506, -1.494282, -0.081868, -0.65275, 0.44489, 0.112666, 0.20662, 2.073746, -0.435275, -2.068233, 0.669622, 0.54943, 0.890151, -0.668141, 1.069385, 1.416688, 1.308466, -0.288528, 0.420296, -1.760223, -0.064085, -0.607421, -1.153519, -0.00631, 0.900885, -1.544973, -0.995148, 1.699521, 0.323809, 0.331665, -0.182935, 0.638084, -0.329441, 0.503473, 0.926036, 1.42197, 1.703626, -1.04714, 0.545935, 0.324286, 0.246279, -0.180821, -1.691067, 0.31598, 0.844266, -0.609459, 0.472786, 0.257973, -0.663042, 1.296773, -0.131599, -0.29143, 0.337245, 1.050443, 0.523746, 2.007361, -0.477928, 0.607113, 1.091004, -0.61738, 1.392441, -0.266907, 0.611468, -1.248411, 0.809439, 1.895827, 0.03986, 0.017334, -0.027073, -2.239491, -0.276768, 0.307055, 0.078171, -0.092524, 1.418435, 1.605143, -1.2518, -0.76193, 0.229464, -0.373279, 0.354807, -0.827367, 0.359673, -1.004029, 0.288162, 0.419506, -0.610617, -1.200485, 1.762619, 0.278702, 0.49883, -1.099743, 0.699454, 0.130612, 0.406303, -0.905444, -1.015185, 0.006771, -0.336056, 1.051568, 0.978166, -0.531848, 0.706929, 1.02077, 1.246113, 0.422341, -0.744525, 0.856744, -0.025726, -1.570343, 0.601568, -1.352699, -0.10836, 0.104036, -0.14517, 1.725905, -0.643628, -0.912872, 1.06006, -1.490754, 1.164174, 0.153258, 0.785519, 0.20242, -0.819489, 0.396658, -1.400709, -0.332258, -0.084625, -0.707733, 0.033913, -1.88024, 0.158014, 0.509677, -1.25689, -0.714139, -1.787709, 0.583735, -0.371508, -0.917511, -0.826195, -0.076587, 0.507254, 0.325389, -1.237457, 0.684875, -0.774231, -1.862453, 1.184699, 0.530525, 0.948725, -0.962287, 1.283813, -0.202718, -0.317289, 1.245234, -1.409916, 2.609069, -1.661273, -1.476919, -0.131769, -0.357797, -1.017316, -0.882476, -0.469669, -0.052302, 1.110825, -0.515731, 0.214557, 1.591347, 0.417401, -0.357913, 0.659607, 0.158698, 0.061122, 1.811118, -0.017112, -0.937161, -0.838645, 0.025858, 0.787306, -1.210945, 0.465445, -0.637016, 0.046573, 0.721722, 0.914593, -0.309156, 0.391394, 1.265553, -0.949634, -0.496597, -0.026246, 0.427968, 0.656068, -1.797704, 2.028284, -2.357674, 0.753401, -1.445621, 0.002551, -0.491678, 0.323812, 1.705683, -1.065713, -0.170359, -0.970744, 0.225382, 0.859885, -0.280315, 0.120222, 0.790211, -0.057811, 0.094878, 1.113606, 0.284431, -0.162561, -0.283447, 1.448017, -1.0762, 0.119004, -0.962993, -1.06342, -0.464395, 0.171789, -0.198257, 1.045923, 0.725451, 1.574312, -0.600004, 0.445565, 0.493819, -1.540375, -0.038516, -0.733614, 3.262576, 1.497161, 1.055362, 0.985173, -1.653828, -1.203911, -0.485522, 2.045938, 1.345802, -0.25054, 1.209786, -1.664048, 0.838968, -1.226605, 0.26547, -2.456411, -1.251141, 0.125958, -0.950754, 0.517551, -0.548395, -1.596892, 1.5091, 1.169375, -0.918796, 2.038346, -0.716018, -1.290169, -0.796862, -0.170535, -2.145554, 0.714171, 0.980975, -0.182428, 0.421761, -0.104923, 0.282328, -0.084728, 0.866625, 0.442842, -0.286367, 0.898906, 1.467023, -0.92045, 0.489648, -0.061837, 1.276514, -0.938206, 0.758891, -1.00545, 1.337146, -0.91313, 0.262056, -0.202206, -1.656621, 0.191044, -0.963893, 0.58246, -1.665091, 1.735963, 0.678115, -0.485437, 0.109371, 0.288871, 0.705867, 0.907976, 0.506597, 0.696327, 0.344061, -0.110216, 0.976291, 0.446656, -0.279343, -0.322766, -0.808601, 0.168593, -0.851272, 2.227322, -0.504047, 1.164835, 0.07894, -0.625769, 0.021374, -1.059764, 0.900125, 1.008775, 1.077996, 1.376454, 0.804683, 0.824359, 0.568441, 0.10166, 0.492027, -1.211296, 0.411221, -1.000998, 0.434441, 0.348678, -1.2703, -1.21021, 1.070516, -0.78913, -1.091771, -0.071442, -1.033583, 0.483711, 0.004243, 1.293925, -1.246165, 0.249447, 0.096031, -0.95642, 0.564516, -0.677187, 0.19901, -1.052353, -0.69274, -0.308267, 1.253243, -0.104404, 0.68257, 1.156375, -1.109679, 0.577499, 1.11976, -1.875221, 0.245624, -0.353875, 1.079636, -0.136763, -0.035084, 1.090484, -0.493285, -0.267696, -1.597531, 0.365575, 0.684367, 0.006595, 0.673989, -0.506562, 0.100754, 0.953574, -0.73395, -1.47094, 0.214122, 2.261016, -1.114707, -0.93476, 0.624646, -0.94043, -0.283123, 0.945834, 0.219142, 0.220366, -0.542486, 1.163076, 0.611017, 0.718101, -1.551927, -0.695915, 0.515926, -0.149494, 2.292083, 0.375703, -0.484527, -0.295043, 0.940531, 0.380288, -0.329643, -0.453429, -0.786726, 1.304619, -0.813961, 0.432674, -0.634752, -0.05904, 0.12803, 0.446833, 0.158743, -1.001821, 0.793052, -0.316901, -1.201514, 1.285731, -0.847728, -0.252429, -0.168518, -0.097147, -1.09032, 0.757582, -1.791245, 0.433201, -0.697535, 0.335935, 0.24576, 0.683565, -0.93408, 0.618651, 2.044902, 0.013898, 0.067228, -0.356906, -1.267301, -0.663715, -0.505414, -1.277819, 1.372197, -0.346707, 1.327335, -0.10005, -0.069887, 1.765758, 0.328097, -0.093363, 1.012753, 0.857135, 0.373881, 0.911451, 1.162105, 0.669848, 1.243308, -1.451524, 1.525983, -0.23742, 0.526577, -0.574572, 1.221539, 0.961122, 0.92583, -1.064947, -1.07862, -1.206295, 0.620665, 0.190199, -0.364256, 0.668633, -0.976971, -0.727066, -0.813432, -1.85516, -0.749544, -2.474929, -0.721712, 0.811686, 0.690725, 1.447451, -2.439904, 0.440545, 0.087233, 0.069816, -0.307396, 1.070557, 1.11741, 0.965349, 0.351632, 1.136971, -0.130051, -1.466742, 1.680718, 0.831502, -0.016058, -0.495167, 1.303576, 0.3881, 0.055073, 0.464286, -0.672399, 0.22757, 0.373747, 0.317255, 0.325367, -0.950178, 0.895467, 1.115748, 0.238657, -0.266214, -1.95218, 1.780211, -0.500692, -0.377882, -1.323788, -0.189101, -0.675625, 0.386226, 0.385432, 0.616654, -1.050753, 0.484547, 0.810464, 0.297797, 2.008813, -0.983688, -0.355729, -2.027815, -0.813197, 1.699809, 0.281313, 0.576874, -0.481493, 0.984821, -1.141917, 0.391946, 0.432216, -0.317515, -0.041115, 1.341652, 1.192176, 2.339068, -0.023433, 0.904759, -0.503014, -1.520241, -0.806892, -0.241891, -0.66968, 0.317274, 1.013564, 1.045629, 0.675677, 0.018648, 1.730173, 0.681955, 1.14762, 1.266126, 0.601139, 1.371056, 0.682978, 0.463214, 0.617258, -0.155432, 0.721508, 0.5623, 0.205896, -1.763966, -0.220013, 1.009882, -0.096329, 0.083857, 0.062814, 0.232076, 0.378361, -0.631025, 0.173059, -1.625582, 0.045789, -0.491032, 0.95579, 0.402608, -1.352281, -0.865194, -0.094089, -0.502802, -1.064375, 1.80703, -0.24027, -0.558724, -0.035861, -0.465927, -0.589172, -0.367659, -0.876214, -2.299663, 0.399799, 1.65934, 0.026017, -0.381621, 0.559713, 0.691467, 0.762762, -0.819641, 0.790687, -1.987196, -0.833461, -1.638516, 0.307827, -0.58134, -0.604866, 0.191527, -0.53451, 1.421941, -0.47588, -1.189953, -0.870679, 0.919168, 1.130949, -0.170206, -1.177892, 1.325715, 0.1937, 0.478203, 0.200273, 0.928117, -0.546965, 1.615001, 0.451908, 0.49313, 0.693675, -0.481729, -0.713985, 1.356392, -0.457284, 0.928972, 0.37381, -0.873726, -1.45902, -0.464813, 0.927392, 0.697344, 1.382511, -0.825719, -1.557813, 0.291054, -0.00708, 1.089041, -0.551454, -1.077899, 0.391573, 1.272524, 0.246235, 0.970114, -0.368864, 2.502092, -0.580646, -0.047235, -0.260657, 1.662477, -0.853271, -0.999087, -0.572219, 0.3936, -0.867721, 2.409757, 0.622742, 1.019927, -0.898672, -0.602997, 0.657552, 0.321393, -1.230416, 0.67443, 0.113458, -0.771839, -0.568676, 0.8999, -0.792824, -0.499884, -1.637285, 1.906915, -0.682614, 0.972668, 0.094128, -0.661164, 0.52932, -1.012125, 0.726146, 0.246629, 0.134396, 1.07069, -0.55563, -0.951463, 0.179211, -0.081772, -0.259385, 0.694688, -1.303945, 0.40971, -1.28271, -0.363302, -1.121599, -0.440227, -0.690343, 2.715779, 0.788015, -1.130683, 0.227611, -0.25408, 1.600569, 0.463596, 0.967001, 0.624041, 1.218084, 0.206747, -1.33722, 0.659292, 1.461786, 2.350638, -0.813483, -1.404021, -0.235293, -0.446407, 0.569385, -0.176205, -1.216694, 0.566783, 0.197057, 0.451338, -1.548695, -0.323405, 1.427207, 0.298019, 0.489866, 0.958525, -0.55224, 0.192394, -0.74461, -0.575749, -0.142085, 0.20262, -0.753745, -0.533777, 0.345384, 1.593023, 0.454263, 0.593155, -0.747979, -0.581445, -0.707872, -1.341607, -0.887785, -1.684035, -0.079178, -1.332827, -1.062798, 0.610861, -0.081948, 0.806559, -0.280014, -0.520185, -1.15576, 0.019337, 0.315702, 0.865557, 0.04313, -2.253262, 1.387881, -2.059671, 0.383689, -1.809653, 0.368702, -0.924444, 1.321061, -0.717412, -0.508801, 0.268362, -1.610125, 0.711494, 0.498816, -2.202978, -0.770502, -0.733076, -0.118078, -0.663558, 0.244284, -0.330409, -0.195813, 0.912396, 0.273565, -2.486594, 1.192464, -0.525705, 0.11798, -1.462731, 0.484258, 0.027877, 0.40784, -2.030984, 0.317279, 0.148696, -1.173698, 0.093055, -0.928185, -1.610981, -2.377044, 1.22424, -0.443709, 0.310729, 0.903862, -0.462226, -0.395671, -2.155381, 0.868949, -1.684402, -1.328707, -0.631153, 0.195789, -0.472621, 1.196674, -0.499431, 1.64699, 0.356371, -0.29485, -0.722614, -0.820181, -1.722028, 0.123661, 0.259457, 2.07444, 0.0288, -1.114799, -0.982136, -0.898495, -0.094766, 1.411576, 0.463251, 0.032744, 0.295074, 1.146028, 0.213909, -1.099164, 0.520424, -0.3936, 0.162916, -0.577353, 1.569336, -0.213094, 0.222229, -0.844281, 1.405725, 1.691677, 0.761969, -0.813697, 0.349863, -0.017278, 0.476252, 1.581998, -2.619103, -0.382411, -0.4722, 0.367855, 0.162197, -0.779131, 0.023566, -0.60736, -1.657298, -1.163149, -0.320906, -1.65934, 0.085572, -0.827271, -1.538842, 0.029767, -0.026635, -1.791175, 2.508379, -0.270653, 1.733518, 1.45023, -0.135668, 0.698697, 0.355623, -0.564936, -0.609921, -0.072614, 1.334367, -0.64885, 0.708692, -1.189137, -1.038396, 0.568203, 0.49963, -0.557674, 2.024746, 1.030887, -0.365778, 2.010298, -0.114374, 0.724996, -2.119669, -0.867137, 0.08852, -1.361063, -0.004648, -0.024615, 1.04414, 0.833764, -0.481161, -0.002868, 1.387471, -0.689327, -0.308911, -0.894987, 0.764029, 1.058897, 0.916618, 0.702501, -0.122436, -0.177162, 0.280965, 0.672077, -0.299574, 0.816313, -1.334925, 3.44283, 0.226907, 0.712012, -0.941449, -1.694176, -0.598856, 2.034665, 1.516426, 0.133803, -0.839564, -0.04333, 1.315034, 1.464699, -0.716858, -0.880702, -2.075239, 0.566686, 1.920828, -0.009849, -0.308959, 0.754892, 1.340534, -0.522836, -1.30983, 0.519013, 0.966883, 1.014852, 0.713152, 1.208533, 1.499114, 0.507182, 1.120096, 1.056538, 0.653204, -0.213064, 0.171782, 0.623875, -0.347511, 1.883351, 0.741252, -0.196103, 1.210827, -0.837736, -0.288024, 0.897597, 0.126815, -0.056101, 1.243888, 0.085511, 1.302783, -1.546319, -0.670568, 0.365655, -0.46103, -1.32443, -2.824637, 0.218049, -0.212575, -1.086344, 0.396648, -1.757962, -0.809864, 1.423903, -0.481468, 1.547775, 0.216337, 0.289661, -0.835225, 0.809026, 0.509889, 0.756476, -0.665833, 1.595415, -0.574833, -0.125037, 0.634755, 0.0698, -1.391757, 0.719147, -0.803781, -0.201018, 1.198452, -1.240055, -0.24199, 2.702518, 0.550337, 0.110754, 0.153507, -0.547459, -0.203664, -1.069876, -0.136848, 1.441153, 0.556701, -0.371737, 0.46485, -0.501552, 1.448622, -0.001272, 0.490425, 1.354452, -1.347385, 1.562099, 0.641404, -0.51795, -0.412817, -0.274199, -1.192298, 0.693044, -0.916118, -0.130432, -0.062633, 0.595922, -0.011708, -0.097125, -0.885424, -1.215011, -0.007735, 0.378544, 0.918885, -1.270906, 1.700767, 1.272957, -1.469347, -0.259249, 0.337978, 1.0277, 0.509354, -1.599519, -0.831782, 0.027479, 0.579997, -0.834445, 0.238184, -2.101354, 1.135853, 0.454632, 0.902091, 0.778296, -0.142391, 0.192324, 0.783964, 1.385913, 1.346813, -0.370605, -0.088975, 0.354236, -1.029034, 0.81475, -0.76306, -1.374099, 1.600899, -0.660761, -0.162252, 0.547435, -0.137941, -1.187918, -0.50696, 0.540206, 0.681948, 0.663715, -0.724844, 2.106224, 0.80454, 1.960767, 0.318888, -0.318506, 1.599758, -2.081243, -0.582769, -0.634453, -0.367056, -1.208985, 0.444042, 0.33978, -0.642576, 2.019951, -0.588967, -0.114058, -0.978795, 0.766315, 0.171346, -0.53379, -0.698741, 0.274969, -0.485073, 0.217673, -1.135316, 1.327309, 2.51517, 0.757912, -0.919744, 0.010564, -1.802356, 1.572268, 0.183716, 1.183724, -2.457695, 0.840517, 0.890428, -0.984071, -0.184583, 0.626084, 1.051817, -0.329841, 0.523108, -0.055344, 1.425553, 0.421008, -0.113121, 1.163733, 0.124056, -0.024596, -1.182184, -0.907995, 0.84373, 0.872117, -1.214112, 1.347873, 0.350837, 1.547015, -0.354424, -0.417888, -0.472906, 1.117267, -2.551553, -0.618273, -0.680321, 0.600817, 0.965418, 1.537887, -0.291027, 0.250754, -0.037421, 0.671325, 1.109755, -0.059503, -0.690164, 1.632774, 0.935218, -1.315806, 0.542456, -1.032153, 0.301072, 0.697418, 1.266403, -1.333347, 1.673203, 0.256631, -0.008951, -1.096872, -0.458187, 0.712005, -0.513126, 0.344978, -1.295446, -0.084731, 1.795699, -0.441909, 0.955476, 2.481231, -0.794219, -0.358417, -0.22993, -0.076721, 1.120678, 1.282427, 0.287258, -0.382806, -1.801174, 1.122836, -2.006356, -1.074054, -0.287853, -0.609719, -2.09599, 0.388995, -1.215856, 0.312653, 0.774547, -1.301541, -0.159145, -0.2707, 0.152097, 0.773716, 0.702847, 0.956852, -1.438289, 0.506554, -0.325067, -2.046213, -0.766567, -0.946838, 0.024262, -0.194951, -0.928027, 1.037376, -0.178995, -0.626955, 0.029545, -1.276211, 0.117773, 1.802976, 0.399024, -2.361046, 0.631078, 0.21075, -0.341715, -1.241614, 1.354073, 1.637617, 0.81946, -0.13617, -0.375029, -0.725161, 0.95284, 1.510645, -1.459284, -0.547289, 1.097794, 0.775324, 0.601272, 1.555522, 1.665343, 0.858399, -1.29843, -0.128735, -1.791445, -1.009665, -1.51049, 0.768923, 0.007961, 0.104166, -0.401164, 0.982242, 0.295928, -0.781465, 0.47465, -0.949441, 1.65927, 1.807572, -1.111319, 0.714357, -0.928491, -2.437102, 0.444003, -0.72384, 1.212016, -1.211252, -0.497135, 1.705148, 0.98953, 1.171556, 0.683563, -0.276427, -2.162201, 0.09064, 0.487898, 0.571719, 1.32166, -0.760705, 0.615485, -0.886775, 0.929276, 0.695464, -1.125564, 0.880096, -1.076625, -1.243154, -2.053397, -2.15734, -1.147567, -1.077935, -0.144992, -0.551738, 0.528393, 1.305605, -0.213927, -1.449353, 1.023821, -1.549774, -0.169184, 0.604533, 0.963756, -0.299316, 0.494653, 0.996666, 1.113348, -0.677271, 1.168872, -1.102697, -1.127606, -0.540937, 0.58201, -0.019875, 0.44296, -0.54404, -0.050591, 1.31197, -0.508548, -0.337145, 0.194979, -0.473749, -1.235318, -1.119869, -0.756669, -0.362893, 1.202213, -0.887151, 0.198188, 2.643088, -0.688918, -0.148759, -0.284844, -1.861581, 0.004102, 0.921814, 1.016302, -0.996017, -1.294848, 1.120055, 1.813221, 1.172003, 0.063137, -1.272408, 1.109869, -0.686211, -1.207872, -1.884782, -0.008501, -1.371282, -0.812061, 0.514925, 0.255292, 0.860557, 0.048547, -0.321511, 0.791591, -0.792801, 0.473978, 0.645845, -0.361174, -2.124177, -0.148012, 0.184758, 1.054581, 1.09916, -2.112659, 1.383663, 2.111486, 1.594363, 2.01438, -1.549467, -1.092351, 0.507791, -1.052953, 0.535614, -0.655735, 0.656133, 1.617835, -0.967328, -1.010691, -0.961482, -2.213418, -0.129365, 0.040969, -0.232021, 1.816406, -0.574754, -0.735699, -0.376558, 0.212358, -0.130801, 0.492128, -0.513225, -1.0925, 0.43136, 0.192731, -1.021945, 0.68469, 0.696267, 0.296653, 1.434669, 0.370609, 0.443547, 0.242975, -0.392516, -0.00204, 0.66346, -0.103577, 0.555658, 0.203962, 0.989165, 0.004287, 0.533423, 0.971215, -0.192637, 0.510313, -0.444909, 0.332345, -0.393548, 0.887815, 1.207288, 0.531837, -0.62991, 0.078497, -0.594353, 0.99665, 0.21199, 0.803848, -1.231248, -0.33159, 0.102514, -0.116503, 0.282622, 0.166468, 0.74839, 1.500657, -0.342106, -1.090342, 1.30078, -1.043391, 0.233697, 2.275863, 2.578861, 0.937775, -0.128439, 0.679221, -0.308876, -0.776181, -0.301598, 0.106985, 1.596943, 0.25395, 1.523071, 1.236255, -1.323663, -0.796212, -0.841408, 1.769599, 1.452009, 1.99571, 1.414066, -0.08939, 0.810614, -0.800709, 0.570484, -0.435545, -0.276422, 1.592425, -0.882042, 0.959197, -0.94823, 2.090245, -0.341554, 0.009908, 1.321591, 1.152027, 0.745423, 0.378643, -1.309961, 0.212708, -0.022876, 0.485451, -0.237633, 0.653809, 1.136701, 0.270317, 0.179266, -1.832975, -0.208571, -1.426761, -0.950072, 0.094241, -0.345381, 0.406692, -0.504068, -0.551583, -0.716508, 0.620669, -0.206151, -1.691029, 0.385444, -0.121896, 1.086852, -1.861406, 1.353527, -0.814636, -0.223334, 0.55981, 0.637713, -0.08713, 1.922117, 0.006317, -0.994507, 0.65571, 0.785894, -1.191442, 1.108911, -0.712708, -0.598719, -1.10055, 0.010921, 1.059352, 0.274808, -0.597187, -1.68717, -2.250731, -2.740065, -0.846966, 0.472011, -0.057245, -0.240897, -0.994035, -1.119737, 0.99928, 1.596887, 1.423401, -0.387661, 0.426802, 1.214742, -0.216841, -0.085869, -0.718177, -1.600136, -0.672677, 0.530826, 0.07815, 1.180039, -1.272223, -0.254907, 0.200923, -0.079742, 0.16876, -0.550713, 0.133322, -0.352247, -1.317384, -0.60522, -0.978645, -0.590804, -1.866719, -0.100459, -0.011941, -0.203686, 0.708533, -0.89444, -0.157605, -1.288364, -0.517964, -0.35411, -1.466848, -0.010139, 0.074632, 0.562954, 1.380283, -0.651645, -0.336374, 0.381165, -1.097095, -0.005644, 1.071555, 0.490541, 0.137381, -0.92266, -0.192874, -0.660728, 1.08877, 1.518457, 0.572786, 0.765252, 0.142813, 1.507612, 1.001263, 0.213946, -1.492015, 0.731986, -0.831282, -0.453647, -0.433049, -0.269428, -0.314356, 0.04716, 0.108414, 0.793124, -0.791588, 0.322394, 0.268921, -0.476136, 0.696482, 0.411732, -0.31818, 0.546267, -0.177439, -1.78036, 1.31358, -1.25958, 1.219785, -0.892151, 0.649168, -0.209486, 0.475008, 1.052948, -0.760566, 0.427281, 0.739831, 1.216685, 0.266997, -1.368659, 0.075266, -0.208666, 1.647249, 0.978466, 0.579682, 0.471331, -0.391857, -0.057086, 1.165735, -0.302633, 0.710618, 0.962676, 1.443977, 0.216581, 0.157389, 1.345343, -0.711618, 1.553229, -0.440307, -1.144586, -0.991334, -2.819668, -0.99409, 0.846748, -0.327963, -1.131622, -1.237373, -0.542829, 0.64254, 1.986507, -2.807881, 1.252818, -0.661625, -0.30186, -0.523938, 0.559574, 0.233775, 1.211496, 0.353911, -0.827131, -0.149832, 0.210203, 0.087728, -1.254675, -1.435212, 0.69387, 0.986312, -0.5021, 3.064118, -0.738349, 1.502591, 2.242537, -1.362658, -0.433883, -1.303734, 1.270627, -0.723315, -1.704547, 0.801519, -0.339841, -0.415069, -0.9358, -2.242493, 0.781967, -0.138042, 0.547102, 1.794609, -1.569522, 0.927146, -0.010367, 0.172848, -0.114718, 0.51026, 2.402705, 0.649243, -0.528896, 0.164456, -0.852681, -0.603392, 0.783361, -0.080312, -0.443852, 1.38722, -0.585267, 0.464539, 0.629492, -1.493616, 0.559048, -0.895104, -0.082335, 0.917776, 0.783109, -0.34317, -1.310152, 1.045671, -0.450254, -0.655751, -0.540107, 0.333656, -0.071365, -1.890625, 1.550944, -0.600684, -0.009536, -1.3395, 0.112657, 1.942057, 1.282012, 1.273681, -1.362372, 1.547787, 0.815352, 0.478049, 0.536843, -0.932377, -1.487116, 0.116734, -1.158241, -0.525531, -1.814256, -0.969199, -0.603076, -0.170078, 0.734405, -0.937627, 1.134816, -0.350048, -1.124363, -0.393523, -1.022192, 0.341586, -0.397752, -2.019432, 0.517641, -0.636266, 2.543975, -0.776605, -1.081574, -0.649391, 0.476635, -1.937873, -1.1898, -0.296731, -1.972358, 0.495031, -2.264822, 1.551646, 0.832028, -0.419158, -1.290892, -0.14351, 0.645429, 1.250509, 0.643752, 1.922483, 0.482159, 1.856104, -0.378167, 0.175561, -0.671208, 0.188603, 0.239399, 1.055971, 0.279614, 1.11524, -0.938967, 0.938522, -0.362529, -2.406757, 0.289554, -0.234492, -0.541091, -0.243665, -1.243394, -2.510682, 0.785435, 0.33694, -1.569338, 1.6952, -0.392499, 0.256172, -0.609017, -0.151361, 0.742438, 1.245602, 0.646273, 0.334692, -0.718704, 0.632923, 0.283875, -0.837207, -0.419742, -1.608157, -0.244034, -0.421838, -0.352556, -1.104364, -0.899349, -0.959873, 0.489518, 0.46972, -0.259696, 2.14478, 1.307945, -0.575308, 0.47119, 0.407014, -1.032293, -0.07639, 0.917027, -1.021224, -1.016982, 0.949704, -0.329114, -1.468243, 1.311792, -1.521518, -0.749637, 0.746496, -0.600191, -0.85305, 1.21328, 0.760222, -0.312859, 0.879721, -1.598636, -1.281528, 0.30727, 0.042482, -0.001044, 0.69192, 0.406179, 0.252081, 0.722471, -0.116259, 0.512138, -1.282849, 0.127389, -1.496691, 0.647634, -0.581437, -1.190426, -0.508869, -0.159264, 0.42288, 0.763039, 0.300544, 1.746628, -1.02642, 0.319299, 0.114466, 0.157575, -0.388992, 0.131338, 0.202377, -1.716832, 1.415595, 0.38968, -0.215942, -0.204642, 0.550444, -1.781752, -0.541973, -0.511526, 1.133099, 1.17459, -2.09194, 1.094944, 0.885236, 0.487345, -0.408385, -1.054997, 0.254983, 0.298231, 0.626162, 0.334478, -0.297529, 0.143559, -1.543865, 1.51759, 0.841923, 1.640607, -1.357959, 0.433662, 1.221978, 0.58095, 0.534421, 0.950224, 0.398665, -1.893663, -0.172537, 0.978862, -0.064543, -0.603665, 0.59309, 0.871998, -0.597543, 0.461638, 0.724175, 0.195158, 1.530792, 0.924272, -0.811292, -0.588446, -1.128745, -0.105547, -0.04635, -2.348745, 0.334503, -2.250809, 1.187165, 0.230081, 0.855647, -0.214158, 1.091299, -0.674825, 0.455519, 0.62353, -0.110813, 2.185005, 1.370583, -0.942985, -0.655403, 0.068676, -0.234714, 1.743567, 0.279983, 1.321678, -1.973338, -0.496703, 1.593041, -2.183128, 1.256556, 1.151669, -0.83403, 0.619618, -2.763931, 2.655224, -1.47686, 1.503563, -0.898502, 0.218624, -0.541669, -1.094662, 0.33658, -2.438702, 1.000032, 1.710509, -0.141026, 1.332518, 1.50918, -0.44571, 0.498793, 1.320188, -0.144825, -1.065443, 0.282707, 0.88757, 0.060521, -1.602761, -0.739601, 0.368954, 1.317591, 0.087305, -0.147552, -1.031497, -0.54867, 0.54708, 0.554047, 1.186328, 1.087108, 0.08407, 0.942333, 0.631104, -0.293562, 0.83211, 0.223224, -0.087414, 1.77212, -0.123726, -0.926366, -0.291663, -1.605316, -0.062909, -0.105486, 0.397051, 0.164031, 0.025998, -0.051721, -0.808752, 1.454927, -0.244609, -0.626206, -1.102668, 0.124991, -2.081849, 1.177417, -0.149911, -1.281208, -0.35565, -1.485608, 0.251402, -1.415009, 0.206165, 1.585249, 0.950676, 1.403908, 1.460607, 0.249505, 0.514169, 1.895489, 0.309994, 1.049745, 0.992136, -0.331355, 0.055946, 0.802478, 0.248307, 0.535024, -0.600906, -0.798425, 1.307508, 1.58804, -0.205316, -0.161787, -0.074997, -0.930259, -0.255109, 0.546836, 1.711241, 0.243996, 0.912529, 0.094061, -0.103615, -1.168408, 0.344199, 0.236338, 1.510165, -0.283343, -0.427952, -0.402421, -0.424485, -0.001846, 0.880196, -1.317384, 1.455894, 0.522949, -1.015855, -0.650487, -0.326764, -0.425584, 0.332057, -0.212144, -0.511872, 1.005476, 0.908986, 0.547249, 0.860448, 0.379537, 0.749311, -1.29062, -0.776381, 1.498916, 0.713473, -0.368454, 0.098587, -1.662025, 1.296035, 2.439823, 0.554466, 0.260313, -1.112653, 0.577577, 0.265296, 0.274659, -0.762544, 0.858138, -0.923561, -0.29881, -1.328472, 0.245279, -1.190197, -0.248123, -0.962592, 0.989485, 0.705686, 0.811874, -0.550491, -0.849918, 0.433505, 0.763173, 0.46479, -1.403556, -0.607304, -0.692502, -0.845164, -0.747625, 0.345518, -0.478661, 0.776186, -0.635354, -0.824719, 1.040089, 0.706852, 0.236687, -1.305301, 0.098031, 0.016342, 0.731848, 0.242409, 0.166343, -0.637672, 0.230699, -0.644068, 1.159698, 0.060634, 0.803696, 0.850404, -0.881759, -0.083934, -1.072346, -0.685965, 1.788196, 1.542144, -1.804888, -0.87249, 0.094236, 1.994172, 0.325791, 0.734871, -0.487199, -1.88093, -0.79292, 0.041693, 0.966349, 0.038926, 1.729684, -2.096886, -0.509929, 0.806357, 0.473593, 0.371968, 0.247721, -0.949917, 0.797284, -0.735238, -0.726777, -0.020382, 0.085705, 1.416744, 0.933667, -1.252084, -0.343798, -0.453938, 0.806244, -0.081361, 0.460964, 2.193488, 2.274533, -0.04367, 0.204135, -1.469807, 1.271704, 1.962406, -0.349, -1.887552, 2.179073, -0.539102, 1.295364, 0.701667, 0.182919, 0.607383, -0.610307, -0.110261, -0.746115, -1.502645, -1.128761, -0.409884, 0.049977, 0.128941, 0.686031, -0.478232, 0.465798, 0.392636, 1.145044, -0.122083, -1.558185, -0.709081, -1.03364, 1.010037, -1.937611, 0.330961, -1.917857, 0.291083, -1.66802, -0.389631, 0.402765, 2.795304, -0.213994, 0.626949, 1.471953, -0.699784, -1.150397, -0.010456, 0.584862, -0.926314, 1.646939, 0.380178, -0.532616, -0.211021, -1.32541, -0.73966, 1.624282, -0.563865, 1.015915, -1.809405, 0.648601, -1.417562, 1.595409, 0.642794, -0.239285, 0.334217, -1.078603, -0.005149, 0.307639, 0.033483, 1.416965, -1.428271, -0.115804, -0.153186, -0.163126, -0.073419, -1.733791, -1.017007, 0.562351, 0.087288, 1.047325, 2.35586, 1.252742, 0.960191, 0.837485, 0.066605, -0.618447, -0.274342, 0.307226, 0.717749, -1.354586, -0.405431, -0.273697, -1.865452, -0.0537, -1.181035, -0.183027, -0.106864, -0.75556, 1.418538, -0.137578, -0.631279, 0.961766, 0.848671, -2.180088, 1.235076, 0.135342, 0.786555, -0.226923, 1.345359, 1.20894, 1.935866, 0.29532, 1.205644, -0.698158, 2.606414, -1.189237, -0.406391, 1.086488, -1.117329, 0.703877, 2.528397, 1.399392, -0.013701, 0.000943, 0.021669, 0.90677, 1.137477, 0.195437, -1.443717, 0.722165, 0.221438, 0.611422, -0.325818, 1.065012, 0.393601, -0.514392, -1.302891, -0.640954, -0.425953, 1.942222, -0.288293, -0.693031, 1.427782, -0.503548, 2.027931, -0.162781, 0.611355, -1.034215, -1.273667, -0.441446, -1.117423, -0.308776, -0.826232, -0.943857, 0.050744, 0.179595, 1.530255, 1.877848, -0.582291, -1.210117, 0.518708, -0.138108, 0.585683, 0.382683, -0.731179, -1.646632, -1.846541, -0.546326, 0.042942, 0.941814, -0.082068, 0.722291, -0.292849, 0.146789, 1.36879, 1.431482, 0.587893, 0.833522, 0.220899, -0.661651, -0.362041, -0.635279, 0.72912, 0.104161, -1.498038, -1.238937, 0.283811, 1.399601, -1.180694, -1.226153, -0.242156, 0.536002, -1.49846, -2.422271, -2.184502, -0.486645, -2.376951, 0.337423, -0.174106, 0.389699, 0.3658, 0.330444, -0.992561, -0.44241, -0.122295, 1.220013, 0.906564, 0.17146, 0.776514, 0.292077, 1.294106, 0.439822, 1.458326, 0.005605, 0.926253, -0.230546, -1.585192, -0.276522, -0.773324, 0.307508, -0.151023, -0.302013, -0.382694, -0.691885, 0.265942, -0.521235, -2.010063, 0.1885, -0.247209, 0.835876, -0.614128, 1.206103, 0.944959, -0.932936, -1.577121, -0.765304, 0.190057, -0.69649, 0.759804, 1.803567, -0.685388, 0.981161, -0.28103, -0.101781, -0.670445, -0.991836, -0.213108, 0.706512, -0.27202, -2.28444, 0.994876, 0.279826, -0.59039, 1.424412, 1.919744, -1.592456, -1.056879, -1.075172, -0.220422, -0.431286, 0.911811, 1.078843, -0.28659, -0.973819, -0.450344, 1.342469, 0.637849, 0.198815, -1.604716, -0.265341, -0.09361, 0.089573, 0.078368, -1.519935, 1.223459, 1.9315, 1.103158, 0.307588, 0.812024, 0.157121, -1.26808, -0.621038, -0.077778, 1.174836, -0.961945, 0.82749, -0.412472, 0.914102, -1.19087, 0.458843, -0.956152, -0.008597, 0.296378, 0.097922, -0.087436, 0.997147, -1.03179, -0.053569, -0.458669, 0.328062, -1.443917, 1.289982, 0.562383, 1.86573, -0.475404, 1.44436, 0.206885, 0.796764, -1.269639, 0.971663, 0.813924, -0.343486, -1.256365, 1.360617, -0.438876, 1.669306, -0.219793, -0.350591, 1.088517, 0.431673, 0.617603, -0.942426, -0.728362, 0.838733, 1.280051, -0.144125, 0.153374, -1.262322, 0.962316, 1.101649, 0.584986, 1.033275, 0.936605, 0.966331, -0.151637, -0.057983, -0.768102, -0.243814, 0.064267, -0.214128, 1.049795, 2.161388, -0.65968, -1.265121, 0.265263, 0.054308, 0.461045, 1.657729, 0.561005, 0.544877, -2.220375, 1.509867, -1.691619, 0.258187, 1.270916, 1.311025, 0.694044, -0.063715, -0.082399, -0.450342, 1.611907, -0.87544, 0.020584, 0.020794, -0.166564, 1.407219, -0.963477, 0.851227, 0.807113, 1.147588, -0.375269, -1.43473, 0.288977, 0.935753, 0.010871, 0.835874, 0.106073, -0.97433, 0.59382, -1.361946, -0.108409, -0.005723, 0.254413, 0.010012, -0.311298, 0.569497, 0.194166, 0.562522, -1.616639, -0.180229, -1.714381, -1.713233, 1.790273, 0.828326, 0.501987, 0.533981, -1.457453, 1.090713, 0.14606, -1.587951, 0.549077, 0.438423, 0.229138, -1.468285, -2.728322, -1.227209, 0.189992, 0.334823, 0.514079, 0.702321, -1.712898, 0.703961, -2.433165, 0.599763, 0.652295, 0.896278, 0.750433, 1.374218, 0.274076, 0.729103, 0.717399, -0.010378, -0.290769, 0.666968, 0.754309, 1.036774, 0.146515, -1.614974, -0.8482, 0.352821, 2.050497, -0.601176, 0.75555, 0.973831, 0.139335, -0.018619, -1.188348, 0.140931, -0.322467, 1.333944, 0.344898, -1.533506, 2.093422, -0.575601, 1.081526, 1.665787, 0.6336, -0.420837, -0.901491, 0.763352, -1.224423, 1.362537, -0.997667, -0.773376, 2.221934, -1.56936, -1.366237, -1.615063, 0.016115, 1.885078, -0.283964, -0.437337, 1.847303, 0.700326, -1.453457, -0.688449, -1.424825, -0.479008, -1.16441, -1.221468, -1.575558, 0.293716, -0.247911, -0.818361, -3.051631, -0.63033, 1.444891, -0.739329, 0.319242, 1.929062, -0.081671, 0.237366, -1.319011, -0.668579, -0.165643, -0.086316, -0.327148, 0.892066, -1.479726, 0.24718, -0.661885, 0.515911, 0.272099, 1.469603, -0.733743, 0.738115, 0.474254, 0.258343, -0.5397, -1.692092, 0.379384, 1.035438, 0.801806, -0.376141, -1.746309, 0.577147, 0.83338, 1.496671, -2.279339, -1.11762, -0.613182, -1.500003, 0.180282, -0.84397, 1.425782, -1.620557, 0.090571, -0.372572, -1.387846, 1.111718, 0.668242, 1.088699, 0.607126, 0.153164, 0.529039, -0.676212, -1.005747, 0.131393, 0.725638, -1.162574, 0.22851, -0.188766, 0.908203, -0.046571, 0.752663, 0.295697, -0.939439, -0.719942, -1.781156, 0.526626, 0.906197, 1.339716, -0.432677, -0.201202, 0.512215, 1.786132, -1.158856, -2.179848, 0.872178, 0.138039, 0.869289, 0.128948, -0.107918, 0.143386, 1.172487, -1.298543, -0.820911, 0.222001, 0.957876, 0.523213, -1.072553, -0.243149, 1.763219, -0.501174, 1.921879, -0.478086, 0.98296, -0.62734, 1.163593, -0.073867, 0.203747, 1.757858, -0.384744, -0.888079, 0.405002, 0.719546, 0.559148, -1.156437, 0.919044, 0.692825, 1.803469, 0.339621, 0.826794, 0.078172, 0.033897, 1.062632, -0.125152, 0.766392, 1.44311, -0.754414, -1.483319, 0.824409, -1.382928, -1.11814, 1.401788, -0.635665, -1.06191, -0.21481, -1.020803, -0.411861, 0.798614, 0.18169, -1.344192, 0.520706, -0.266447, 0.054631, -0.798346, -0.062337, -0.299356, 0.694259, 0.161958, 1.421696, 1.233575, 0.600058, 0.628181, 2.064496, 1.124277, 0.357295, -2.023264, 0.611759, 0.501555, 0.056603, 1.306465, -0.654555, -0.439011, -2.725465, 0.218591, -0.657796, 0.901679, 0.324648, 1.787112, 0.90038, 0.825802, 0.282729, 0.90617, 1.887218, -0.196614, 1.947824, -0.036789, -0.836282, -1.79206, -0.515065, 0.19363, -0.95054, -1.466149, -0.678072, 0.266653, -1.097426, 0.565339, 1.446744, -1.462843, -0.60385, -0.115007, -0.226093, -1.449191, 2.430657, 0.593523, 0.597344, 0.363077, 1.218065, -0.643894, -0.134916, -0.063119, 2.313677, 0.851064, 0.030001, 1.182234, 0.606221, 0.763914, -1.673742, -0.413508, -0.510232, 1.403434, 0.515494, -1.006481, 0.125778, 0.809379, 0.632276, 0.094818, 1.399171, -1.222884, -1.106822, -0.866941, 1.233104, -0.831271, -0.474145, 0.51325, -1.139016, -0.288937, 0.111697, 0.129733, -0.139368, -0.539652, -0.621768, 0.012285, 0.827933, 1.131557, 1.005477, 1.385391, 0.766517, 1.775919, 0.212933, -1.015223, 0.597762, 1.137131, 2.541453, -0.10595, -0.338309, 0.101557, 0.575234, 0.92259, -0.457941, 0.516005, -0.438488, -0.017434, 0.851382, 2.210984, 0.298437, -0.243358, 0.788522, 1.026271, 1.056299, 1.248787, 0.120745, 0.262681, -0.163824, -0.445017, -0.945237, -0.230892, -0.268267, -0.940116, 0.476783, -2.295943, -0.457434, -0.182962, 0.608956, -0.650466, -0.918424, -0.437468, -0.686865, -0.260068, -0.029858, -1.175535, 0.562168, -1.068927, 0.099955, 0.86669, -1.406879, -0.870425, -1.054713, -0.139293, 1.004891, -0.237964, 0.159601, -0.749473, 0.943806, -0.498998, 1.477838, -1.179871, -1.229861, -1.334192, -0.444768, -0.632003, -1.17628, 0.339185, -1.811769, 0.248351, -0.806167, 0.034649, -2.519962, 0.744577, 0.485026, 0.050215, 0.141909, -0.684083, -0.439721, 1.301249, -0.269691, -0.3266, -1.067032, 0.579303, -0.789681, 0.185087, 0.44442, 1.013466, 0.173949, 0.507227, -0.25226, 1.024743, 0.229441, 0.776995, 2.697794, 1.054821, -0.518646, 0.641236, -0.090456, -0.160349, -1.322365, -0.195741, -1.046658, -1.553077, 0.748137, 1.237022, -0.015482, 0.493735, -1.219364, -0.93842, 2.181103, -0.016468, -0.023062, -0.894422, -0.865595, -1.740411, 0.073986, -0.947769, 0.955391, 0.262674, 1.467865, -0.069489, -1.571512, 0.03411, 2.049224, 2.060947, 0.512828, 0.19795, -0.568467, 0.414354, 0.98917, -0.358134, 1.946869, -0.753849, 0.948414, -0.118179, 1.114046, -0.361564, 0.707842, 0.302961, 0.201025, -1.303325, 0.219816, 0.725795, -0.138592, 0.689252, 1.048613, 1.320522, 0.92753, 1.796924, -0.759797, 1.53423, -0.148815, 0.230786, 0.527716, -0.847482, -0.570155, -0.249984, -0.016448, -0.20338, 0.003032, 0.145197, 1.057558, -0.472949, -0.584557, 0.541602, 0.830218, -1.522251, -0.706795, -0.053532, 1.006269, -0.070706, 0.195801, -0.730098, -0.30784, 1.479947, 0.896503, -1.63398, -0.098506, 0.547283, 0.678263, -0.777758, -0.599735, -0.011634, 0.135327, 0.423883, -1.184877, 1.136678, 1.845943, -0.158797, -1.722905, 0.19299, -0.747032, 1.934553, -0.349157, 0.759153, -1.130193, 0.636345, 1.939789, 1.88113, -0.250864, -0.95384, 0.248043, 1.368179, 0.056632, -1.435214, -0.662412, -0.662232, -1.309628, -1.354116, 1.118978, 0.075042, -0.576495, -0.517579, 0.133626, -0.990738, 0.619927, 0.091651, 1.23183, -1.054541, -1.857825, 0.787924, 0.202676, -1.976035, -0.734196, -0.205274, 0.616097, -0.221791, -1.085158, 1.230315, -0.941131, -1.515988, -1.58011, 0.498114, 0.082893, 0.700438, -0.120596, 0.795368, 0.507822, 0.092479, 0.312121, 0.695172, -1.669762, -2.641064, 1.345236, 0.410377, 0.73395, 2.329837, 0.339437, 1.046297, 0.799001, 0.631061, -1.289784, 1.866255, -1.32057, 1.473617, -1.327859, -0.642074, 0.534833, -0.26335, -0.356255, 0.690573, -0.097855, 0.098068, 1.284159, 1.998127, -0.14772, -0.510725, -0.36418, 0.915791, -1.260437, -0.432916, -0.086491, -0.503556, 1.411246, 0.149856, 1.386741, 1.161875, -1.072671, 0.05544, 0.899343, -3.112691, -0.441237, -1.980075, -2.094663, 0.488738, -1.15654, -1.743226, -0.341781, -1.095334, 0.326743, 0.621382, 0.047889, -0.847055, 0.637306, 0.107327, -0.152168, 0.775275, -0.944561, -0.268504, -0.385868, 0.205859, -0.755321, -0.050034, 2.303126, -0.501177, -0.200103, -0.528818, -1.760808, 0.459867, -0.338469, 0.19009, -0.602405, 0.347286, 1.268134, -2.704949, 0.404078, -0.962267, 1.26714, -1.75537, -0.630127, -0.144166, 0.529467, 1.098871, -0.576948, 2.237087, 0.81253, 0.553699, 1.772903, 0.248799, 0.396462, -0.511753, -0.063697, -0.102021, 0.959621, -0.952867, 0.759629, 0.022384, 0.590068, -0.794324, -0.635055, 1.202153, 1.249114, -0.173094, 0.156422, -0.83455, -0.431945, -0.569522, 0.43385, -0.043202, 1.692432, -0.452193, 1.397144, -1.262475, 0.323137, 0.421103, -0.102302, -1.984267, -1.201049, -2.145489, 1.217267, 0.751453, -2.390599, 0.980231, -0.623985, -0.91356, 2.038033, -0.497798, -0.214351, -0.811439, -0.085828, 1.106855, 0.486798, -0.997274, -0.499132, 0.815378, -0.322062, 0.067421, 0.592418, 0.722874, 0.706316, 1.274813, 1.262537, 2.391397, 0.214942, 1.037166, -0.261283, -0.278063, 0.025049, 0.202964, 0.416166, -1.331677, -0.45892, 0.267775, 1.837514, 0.98536, -0.312545, -0.114612, -0.736478, -0.575118, 0.00524, -1.633666, -0.219351, -0.362409, 0.571273, -2.112294, -0.712207, 0.85888, -0.28957, -0.004814, 0.170693, -0.86289, 0.106881, 1.061748, 0.104768, 0.031865, -1.876362, 0.220125, 0.986753, 2.273983, -0.30673, 0.803553, 0.61978, 0.256874, 0.286561, -0.230292, -0.018528, 0.308095, -0.887416, 0.089937, 1.533502, -0.714326, 0.407917, -0.856113, 0.514049, 1.411617, 0.305073, -1.807639, -1.134459, 1.52953, 1.873412, -1.281573, 1.129576, -0.841846, -1.696518, -0.758017, -1.430543, -0.791364, 0.062985, -0.135346, -0.553016, -0.352667, 0.47384, 1.010977, -1.043941, -0.194995, 0.698532, 1.666913, 0.0204, 0.805065, -0.877, -0.844381, -0.644035, -0.481856, -1.336297, -0.605104, 0.258143, 1.492858, 0.394564, 0.292727, 1.955706, 0.540568, -1.383868, -1.907783, 0.63135, -0.006566, 0.106656, 3.094985, -1.604929, 0.305074, 1.590984, -0.399659, 1.190819, -0.522141, -0.943282, 1.178656, 0.999789, -0.688463, 0.259393, -0.069731, 1.268652, -0.150805, -0.157245, -0.09185, 0.054706, -0.013352, 0.620951, 2.656972, -0.380899, 0.414995, 1.287744, -1.230269, 0.112138, 0.472881, -1.743014, -1.708381, 0.749482, 1.241411, -0.266932, 0.272421, 0.47966, 0.161069, -0.080439, 0.668107, -0.105186, 1.299022, 1.811665, -0.353495, 1.908013, -0.914752, -0.556709, -0.47608, 0.76794, -0.51207, -0.10402, 0.57318, -0.778164, 0.032174, 0.13686, 0.940975, -0.299006, -1.100563, -0.705947, -1.609672, 0.445764, -0.54373, 0.431241, 1.21429, -1.075883, 1.102971, 0.979493, 1.833543, -0.206608, 0.401829, -2.077919, -1.969378, 1.045014, -1.268714, -1.333483, 1.258456, -1.108554, 0.405618, -0.874593, 0.781188, 0.04322, -0.878336, -2.190591, 0.054237, 0.465176, 0.546119, 0.191468, 0.598908, 0.850668, -0.312959, -0.989342, 0.06788, 0.889965, 0.652136, -1.259069, 0.413307, 1.459816, 2.063551, 0.151471, -0.462959, -0.451933, -1.526814, -0.338731, -1.060634, -0.654961, -0.516579, -0.806091, 1.221477, -1.014442, -0.906762, 0.049338, -0.313528, 0.686736, -0.715467, 2.34332, -0.413343, 0.439625, -0.604077, 0.93795, 0.953454, -0.810322, -0.590048, -0.601133, -0.774148, 1.054551, -0.207136, -0.153685, 0.698423, 0.228911, 0.183837, 1.073293, 0.284218, 0.007201, -0.987283, 0.939451, 1.536996, -0.604547, -0.557912, -0.696435, -0.313037, 0.656323, 0.473083, -0.611746, 0.153287, 1.04429, -0.444211, 1.604775, -1.425595, -0.335477, 0.719758, -0.632121, -0.594451, -0.635671, -1.389948, 0.214705, 0.79155, -0.10435, 0.636199, 1.852507, 0.101995, 0.208282, -1.254933, -1.970758, 1.629625, 0.044299, 0.62502, 0.714262, 0.204104, 0.025259, 0.10975, -0.618754, 0.605646, 0.028887, -0.306571, 0.351191, 1.040577, -0.702905, -0.527514, 1.391477, -0.174572, 0.91535, 0.392726, -0.42046, -2.541862, 0.832968, 0.492804, -0.364351, -1.771221, 0.06516, -0.022991, -0.667225, 0.499524, 0.647656, -1.357503, -1.368163, -0.061823, -1.326311, 0.71379, 2.325835, 1.594116, 0.663656, 1.598642, -0.831427, 0.235486, 0.094522, 0.86157, -0.820297, 0.334833, 0.261371, -0.567861, -0.220176, -0.668854, -0.174019, -1.430966, -1.343616, -0.135351, 0.743023, 0.330072, -0.798176, -0.043307, -0.150222, -0.15028, -0.296281, 0.372559, 0.77911, 0.543088, 1.504142, 1.506653, 0.107626, -0.64464, -0.339514, -1.551521, 0.717881, 0.349485, -0.295966, 0.101827, -0.125261, 0.917052, 1.506734, -1.203124, 0.337628, -1.026003, -1.671644, 0.724851, 0.451902, 0.099509, 0.268766, 1.5734, 1.230344, -0.079825, 1.277711, -0.488223, -0.937105, -1.585465, -1.283998, -1.259962, -1.623335, -0.507495, 0.290135, -0.907595, 0.706571, 0.399058, 1.30519, -0.081643, 0.953397, 0.844035, 1.642184, 0.13694, -0.442855, -0.779465, -0.675985, 0.273493, -0.908404, -0.130761, -2.369574, 1.626668, 0.706792, -1.674539, 0.269863, 0.364289, -0.000507, -0.32436, -1.129081, -0.201788, -0.621341, -0.645767, 0.318146, 0.228514, -0.711701, 1.024487, 0.998706, -1.010756, 1.679116, -0.205603, 0.682635, -0.403201, 0.335442, 0.113177, -1.236088, -0.192224, 0.506937, -0.444899, 0.358796, 0.862271, 0.102457, -0.436922, 0.732036, 0.170698, 0.096215, -0.732155, -1.69266, 1.735295, 1.137212, -0.573406, -0.990061, 0.551925, -0.668173, -1.746338, 0.569987, -0.195766, -0.616277, 1.753134, 2.060645, 0.796981, 0.35547, 1.919967, 0.37031, -0.444314, 0.381608, -0.459699, -0.05639, 0.911036, 2.61476, 0.16559, 0.349534, 0.773959, -1.367709, 0.656669, 0.261374, -0.060185, -1.070287, 1.79406, -0.388139, 0.33667, -1.073572, -0.732292, -1.208808, 0.059271, -1.229997, 0.760373, -0.996574, -2.039082, 0.063506, 0.604811, 0.302233, 1.654089, 1.035975, 1.209999, -1.276672, 0.095801, 0.068867, 0.064464, 0.050869, 1.772231, 0.875696, 0.319828, 0.496566, 0.329859, 0.38722, 1.407042, 2.615638, 1.131767, 1.066752, -0.44882, -1.14321, 0.5997, 0.191732, -1.848998, 0.034291, -1.438814, -0.048468, -0.785567, -0.400547, -0.975581, -0.148136, -2.292276, -0.847076, -1.124353, -0.280863, 0.497302, -1.13943, 0.846664, -1.340854, -0.941167, -1.231971, -1.49654, -1.168893, -0.848459, -0.924125, 0.413833, 0.89899, -0.491322, -0.50887, 0.978701, 0.069289, -0.347529, 1.408841, 0.285931, -0.118971, -0.235914, 0.203758, 1.899276, -0.888807, 0.481079, -0.909552, 0.003761, -1.554702, 0.751646, -0.352224, -1.177119, -0.33304, -0.44618, -0.51449, -1.312654, -0.585724, 0.519519, 0.21474, 1.179078, 0.44517, -0.436507, 0.278668, 0.27425, -0.566417, 0.002239, 1.341271, -0.261247, -0.973892, -0.83678, -0.358736, -0.849217, -0.21008, 1.628825, 0.703699, 1.178339, -0.512, -1.511384, 0.614624, -0.240881, -1.497926, -1.756522, 0.215264, -0.264922, 0.158813, 1.243371, 0.807126, 0.909334, 1.662921, 0.850636, 0.942967, 0.486889, 0.216788, -1.065838, -0.225118, 1.284381, 0.179881, 0.760673, 1.906992, -0.331625, -0.301073, 0.789462, 0.350907, -0.594527, 2.714376, -0.07682, 1.353206, -2.288656, -0.206247, 0.703107, 0.234766, -0.214842, 0.33188, -0.713755, -0.098395, 1.371005, 0.955753, -0.629974, -0.520198, 0.220825, -0.176844, 2.424244, 1.226424, -1.348209, -0.360723, -0.506064, -1.673915, -0.370062, -0.010165, 0.300018, 0.302275, 0.387439, 0.4254, 1.415834, 0.311688, -1.133176, 0.55001, 1.512405, 0.110092, 0.180167, 0.931266, -0.544761, 1.587168, 0.520931, -0.155439, 1.36574, -0.507497, -1.670827, 0.441144, -0.27241, 0.045691, -0.190741, -0.264529, -0.627147, 0.531603, -0.179491, 1.041935, -1.007159, -0.456712, 1.488048, 0.186882, 1.428974, -0.029775, 1.566447, -0.554559, -0.018162, -1.630324, 0.290287, 2.155731, -2.072643, -0.000967, 0.248431, -0.117498, 0.246334, 0.030061, 0.332892, 1.205895, -1.351725, -0.934697, -0.744153, -1.336802, -0.127126, 1.428688, 0.035192, -0.18333, -0.178385, -0.272483, 1.019433, 0.946561, 0.641792, -0.356677, -0.321961, 0.552887, -1.498287, -1.003877, -0.099178, -0.612517, 0.786368, 0.076756, 0.213686, 1.625229, 0.676425, 0.036686, -0.149105, 0.080016, 0.066259, -1.239733, -0.342363, 0.145851, 0.231592, 0.254091, 0.083816, -0.26779, -1.426894, 0.773122, -0.110219, -0.439922, 0.055806, 3.292424, 0.2622, 0.564867, 1.409406, -0.08386, -0.178956, 0.712408, -0.377039, -0.591117, -1.223206, 0.991409, 0.086763, -0.038958, -1.000959, -0.897354, 2.123668, -0.144988, -1.096381, 1.160787, 0.880062, 0.898199, 0.154377, 0.156317, -0.069201, 0.96624, 0.222211, -0.472666, -0.669696, -1.034268, -0.977151, 1.210129, 0.595361, -0.185431, -0.538238, 1.390447, -1.252351, 1.096796, 0.516736, -0.55753, -0.221912, -0.634237, 0.779473, 0.756259, -1.039668, -0.938164, 0.979101, 0.235239, 0.300453, -0.34728, 0.592926, 1.068623, 0.106404, -0.168516, 0.288564, 1.102596, -1.202124, -1.432346, 1.984293, 0.190095, 1.352059, -0.511876, -0.799938, 0.449394, -0.240288, 0.20919, 0.371133, -0.40675, 1.041981, -0.308471, 0.62248, -0.33307, -1.064644, -0.20832, 0.621797, 0.780141, -0.363909, -1.658073, -0.933395, -0.419452, -2.221891, 0.399192, 0.043699, -2.058114, 0.631672, -0.057732, -1.164223, 1.99597, 0.43387, 1.896107, 0.706196, -1.241286, 0.669883, -0.13262, 0.353536, -1.921713, -1.594565, 1.031693, -1.80493, 0.572232, 0.286129, -0.378001, -0.319053, -0.859491, -0.487165, 1.044196, 0.550298, 0.521441, 0.674268, -0.755582, 1.222753, -0.454516, -0.35647, -0.015015, -0.588281, -0.395129, -0.593083, 0.082658, 0.023352, 1.011665, 0.79068, -0.781932, -1.532777, -1.531876, -0.136671, 0.114272, 0.033846, -0.389742, -0.413405, 1.124781, 0.136181, 0.543825, -0.775678, -1.350194, -0.590897, -1.505246, 1.809184, 0.826831, 0.448244, 1.231016, 0.575257, 0.175087, -0.055851, -0.746266, 0.506331, -0.543801, -1.089785, 0.232247, 0.97105, 0.321244, -0.756425, 0.256023, 2.00911, 0.744229, -0.842149, -1.162368, -1.098618, 0.957597, -0.692215, -1.781883, -0.871246, 1.638085, 0.208627, 1.437984, -1.644595, 0.433586, 0.867504, -0.089024, -1.253667, 0.00344, 0.547233, 1.946483, -1.290483, -0.846765, -1.78864, -1.127988, 0.271075, -0.375094, -0.068286, 0.972699, -0.115817, 0.074863, -0.933677, 0.872152, -1.341089, 0.134928, 1.135869, 0.345671, 0.283677, 0.534308, 0.778003, 1.43876, 1.199695, -0.739371, 0.838316, 0.542282, -1.024784, -1.536307, 0.899033, 0.804875, 0.100688, -1.653238, 1.059933, 0.48977, 0.467409, -0.540463, 1.395001, -0.886139, 0.821925, 1.04013, 0.021562, -1.049417, -1.196932, 0.911544, 1.390455, 1.000912, 0.906864, -0.288381, -0.638496, -0.517513, -1.493847, -0.107107, 0.155204, -0.113769, 1.085072, 0.511539, -0.329872, -0.664077, 0.211858, 0.519296, -0.298519, 0.872779, -0.794147, 1.160753, 0.561411, -1.782824, 0.374075, 1.784107, -0.485364, -0.351649, 0.939735, 0.279028, -0.05198, 0.917347, 0.858046, 0.194009, -1.345263, -0.197782, -1.697786, -0.046851, 0.431924, 0.744714, 0.719784, 0.311953, -0.233879, -1.838464, -0.427053, 0.937859, -1.100246, 0.883614, -0.672582, 0.000588, -0.730197, -1.092831, 0.565367, -0.174546, -0.30586, -1.370804, -0.176083, -0.697786, -1.527395, 1.900069, -1.206146, 0.298721, 1.033323, -0.37061, -1.124613, -0.031176, 0.512317, 1.723478, 0.023831, 0.131798, 0.420886, -1.045153, 0.048135, 0.862707, -0.227559, 0.316236, 0.173978, 1.476516, -0.924486, 0.153339, 0.227076, 1.633808, 0.410204, -0.351386, 1.632703, -0.934024, -1.352175, 0.826618, -1.046162, 2.41701, 0.559349, 0.677697, 1.141045, 1.153227, 0.012715, -1.117787, -0.568079, 1.07796, -0.682457, -1.59954, 0.614348, -0.464816, 2.041576, 1.838186, 0.146899, 0.536291, 0.343617, 0.437733, -0.958345, 1.217507, 1.388714, -0.090438, -1.386275, 0.413308, -0.518468, -1.24272, -0.19263, -0.322539, 0.985239, -0.42048, -0.349534, -0.402131, -0.430025, 1.060406, 0.393596, -0.647159, -0.42544, -0.839922, -0.026519, 0.458898, -0.074955, -0.168283, -0.247335, 1.572764, 0.523684, 0.197675, -1.436558, 0.6857, 1.366034, 0.383975, 0.755631, -1.093301, 1.173809, -1.719293, -0.488251, 0.271587, -0.609568, 1.134851, -0.077345, 0.133318, 1.137202, 0.736836, 0.799753, -1.582296, 0.575355, 1.117281, -1.134221, 0.708867, 1.274989, -1.106485, -1.080748, 0.82634, -0.080737, -0.223176, 0.754549, -0.162919, 1.924473, 0.648739, -0.937486, 0.12517, 0.488292, -1.796794, -0.421442, 0.00901, -0.145281, 0.913686, -0.544959, 1.059666, -1.148002, -0.470742, 0.047264, -0.182505, -2.044155, 1.254387, -0.459021, -0.281354, 0.077122, 1.342421, 0.449072, 0.443125, -1.639995, 0.17183, 0.194809, -0.397302, 0.348606, 1.647341, -1.729403, -0.016959, -0.847162, 1.148102, 0.565871, -0.185685, 0.522834, -0.4952, -1.611149, 0.422622, 0.381157, -2.254827, 1.378022, -0.350914, 0.907783, -0.263372, 0.308045, 1.285903, -0.9039, 1.15994, 0.170012, 0.350435, 0.563424, -0.888788, 0.681443, 1.636434, -1.530193, -0.605012, -0.641937, -0.356803, -1.24646, 0.208329, -0.542872, -1.739486, 1.190235, 0.657051, 0.473568, -1.122404, 0.180207, 0.74683, 0.009963, -1.169328, 0.17272, 0.242319, -0.002301, 0.484809, -0.902939, 1.203894, 1.004003, 1.169459, 0.534037, -1.191182, 0.661814, 0.021361, 0.260122, -0.903225, 0.961374, -1.355132, 0.696288, -0.442798, -1.15359, 0.02651, 0.819544, 0.493067, -0.825941, -1.573061, 0.423654, 2.027776, 0.441229, -2.120311, 0.499551, 1.078534, -1.483386, -0.53597, 1.252227, -1.29912, 0.790488, 0.280715, 1.277543, -1.655015, 0.684073, 0.919826, -0.55886, 0.211523, 1.08032, -0.806474, -0.516323, 0.233541, 0.750407, -1.055218, -0.265198, -2.319332, 1.113652, -0.750365, -1.224483, 0.908721, 1.245722, -1.092299, -0.42947, 0.583309, -0.373038, -0.324344, 0.018145, -0.336014, -0.453373, 0.296297, -1.393561, -0.924021, 0.591761, -1.097228, -0.290085, -0.775767, -0.499035, 0.699773, -0.071245, -1.447763, -1.095219, -1.411583, 0.940142, -0.583288, 0.733321, -0.33154, 2.165884, -1.024191, -1.062214, -0.458116, -1.827583, -0.178078, -0.300768, 0.937232, -0.173399, -0.730956, -0.575533, -0.535499, 0.212267, 0.307832, -0.26447, -0.175804, 0.940887, -0.420516, -0.128925, -0.459034, -0.509507, -0.914618, -0.002464, 0.76452, 0.065775, -1.22621, 1.033015, -0.054525, -0.133362, 0.321961, -0.303375, -0.018228, 1.543818, 0.201619, 0.415453, -0.985284, -0.48279, -0.217026, 1.189579, -0.753352, -0.027035, -0.995494, 0.541037, 0.368443, -0.957488, 2.873638, 1.213793, -1.145885, -1.038525, 0.320079, 0.260463, -0.442174, -0.057496, 0.308698, 0.200523, 2.415239, 1.914646, -1.11149, -1.017812, 1.231363, -0.91454, 0.636572, 0.029774, -0.262631, 0.128481, -2.689936, -1.953157, 0.54855, -0.097324, -2.086167, 0.637512, 0.382589, -2.56397, 0.746851, -1.431059, 0.371646, -0.191674, 0.76222, -1.035495, 0.066264, 0.975892, -0.666554, 0.155009, -1.09009, -0.681391, -0.013689, -0.816888, 0.08718, -1.560492, 0.04135, 0.840904, -0.118376, 0.843083, 0.98334, 1.241211, -0.796047, 0.132434, -1.005284, -0.824819, 0.411271, 0.424779, -0.194619, 0.299028, 1.164241, -0.551109, 0.100558, -0.129606, -0.124275, -0.106643, -0.141888, 0.496879, 2.017858, 0.721641, 1.852151, 0.07277, 0.467992, 0.016229, 0.967228, 1.438407, -1.302593, 1.234879, -1.290992, -0.143015, 0.639048, -1.433983, 2.020814, -0.015731, -1.561619, 1.042438, 1.098355, -0.150952, 0.827712, 0.521968, 0.23995, -0.630067, 2.413645, -0.09114, -2.700763, 0.503715, 1.030907, -1.184296, 1.592631, -1.347522, 0.182359, 0.064771, -0.023551, -0.22598, -0.507052, -0.914546, 2.836105, -0.491436, -0.007075, 0.331782, -0.616399, 0.085887, 2.403338, -0.946573, -0.68148, 0.799988, 0.303623, -0.182441, -0.11575, 0.099521, -2.565118, 0.625612, -0.089149, -1.646738, 0.637635, 1.938385, -0.892881, -0.502753, -0.498092, 0.256808, 0.130212, 1.233728, 1.820148, -0.219605, 0.089087, -0.685628, -0.289053, 0.11777, -0.858109, 0.41444, -2.883104, -0.273703, -0.150089, -1.109904, 0.323236, -0.552987, 0.724083, 0.155403, 0.744473, 0.594847, -0.373254, -0.293548, 0.170222, 0.795217, -1.648269, 0.314594, 0.08817, 1.442302, -0.038324, 0.077633, -0.731942, -0.553682, -0.718542, 1.147136, -1.198787, -0.424127, 0.104859, 0.821552, -0.023428, -0.20021, 0.075779, 0.433629, -1.201687, 1.074285, -1.055362, -0.860199, 0.137315, 1.224744, -0.464626, 0.064176, 1.263173, -0.02457, -2.112452, 0.593297, -0.171557, -0.142558, 0.481708, 2.818665, -0.187421, 0.217108, -0.106491, 0.083563, -1.150626, -0.174403, -1.72189, 0.603818, 0.926659, -0.769618, 1.167428, 2.492145, -0.31106, -0.980932, 0.428801, -1.499877, -1.08482, 1.126109, 0.856845, -0.313621, 0.002592, -2.47515, -0.277203, -0.806839, -0.800495, 0.111654, 1.450594, 0.217625, 0.024188, -0.501927, -0.055443, -1.066186, 0.433826, -0.456144, 0.354542, -0.050733, -0.411202, -0.266456, -1.317125, 0.524057, 0.387794, 0.484664, 0.542744, -0.900675, -0.980139, -0.177188, 0.46665, -1.242733, 0.263508, -0.368419, -0.702213, 0.764744, 0.791881, 1.900087, -0.469204, -0.588756, -0.934993, -3.237675, -0.151029, 0.289436, 0.389478, 0.16705, -0.165253, -0.059659, -2.711025, 0.135848, -1.041122, 1.097872, 0.233485, -1.349245, 0.425075, 1.733788, -0.06022, -0.668374, -1.314013, 0.092528, 0.37408, 1.015609, -1.17954, -0.694453, 0.128047, 0.493836, 0.667928, -1.074743, -0.706139, 0.997281, 0.076261, -0.911019, 0.84114, -1.027125, 0.876709, -0.261774, -0.128307, 0.654328, -0.20398, -1.148287, -0.28432, -0.055723, 1.439847, 0.917615, 0.054473, 0.440965, 0.112888, -0.272653, -0.900993, -1.161634, -0.240604, -0.214284, -0.261933, 0.852381, 0.94474, 0.023329, -1.134572, -0.762142, 0.635299, 0.167623, -0.547837, -0.057439, 0.396237, -0.836458, -0.398253, -0.884942, 0.364292, -1.632625, 0.686627, -0.479744, -1.993808, -0.064038, 0.793099, -0.88185, -0.389923, -1.821894, 1.426457, 0.568858, -1.045954, 0.819606, -0.406029, 0.268999, 0.367758, -0.285024, -0.064817, 0.820932, -1.064275, -1.128321, -0.343064, -0.117612, -0.580335, -0.90674, -1.32031, -0.67504, -0.265608, -0.704907, 0.433492, 1.28007, 0.885117, 0.301817, -0.505925, 0.22138, 0.192539, 1.026168, -0.821266, -0.801842, -0.257907, 2.057334, 0.344089, 1.994771, 0.300452, -0.283919, -1.063365, -0.117307, -0.271423, -1.351574, 1.044498, 1.463215, 0.065299, 0.989069, 1.653648, -0.825683, 0.483894, -1.907559, -0.486177, -1.021949, -0.7973, -0.40632, 0.829912, -0.181906, 0.372441, -0.202769, -0.026908, 0.903574, -0.525227, 0.391913, -0.478323, -0.491941, -0.219921, 0.200696, -0.692579, 0.086634, -0.679015, -0.572912, 1.009885, -0.134865, 1.529138, -1.834066, 1.020291, 1.19424, 0.545252, 0.456529, 0.226917, 1.343001, -0.834916, -1.01644, -0.038032, -0.857063, 0.54288, 0.477646, 0.403814, 1.224821, 1.793323, 0.207976, 0.181078, 0.416229, -0.564324, 0.643902, -0.2777, 0.184296, -0.932522, 0.541713, 0.491529, 1.094361, -0.268788, 1.298197, 0.449673, -0.657828, 0.048352, 1.560154, -0.037758, 0.970953, 2.204076, -0.221221, -0.221931, 1.21231, 1.23895, -0.092841, -0.001993, -1.19787, -0.364678, 1.074801, 0.601794, 1.405807, -1.29301, 1.436636, 0.895317, 0.733416, -0.566441, 0.946312, 0.574356, 0.775966, -1.16877, 2.329256, -0.422988, -1.305741, 0.700094, -0.848149, 0.321868, 0.885517, -0.066476, 0.509585, -0.991897, -0.695096, 0.230224, 0.634976, 0.387399, 1.128392, -0.991636, 0.502479, 0.680802, 0.362992, -0.88393, -0.285205, -0.423795, 0.579664, 1.528377, 0.250584, -0.527189, 0.435941, 0.924198, 0.641857, -0.088838, 0.621828, -0.365141, 0.264744, 0.507769, -1.049317, 0.119287, 1.439431, -0.052831, 0.313429, 0.924378, 0.457246, 0.179164, -0.65441, -0.952736, 0.441082, 0.980879, -0.107574, 1.451055, -1.177688, 1.474594, 0.445459, 0.523818, 1.09677, 2.671967, 0.866988, -0.299947, 1.337716, -1.207799, 1.693298, 0.519861, 0.196302, -1.586134, -1.625045, -1.612665, 1.571934, 0.873416, 0.413618, 0.341951, 0.733774, -0.509967, -0.824719, -1.76263, 1.006102, 0.742315, 0.011233, -1.754439, -0.081737, 0.755041, -0.933044, 1.126877, -0.53716, -0.35506, 0.094262, -0.649549, -1.963758, -0.881622, 0.800617, 1.916185, -0.021489, 1.896201, -0.96386, 1.338923, 0.14377, -1.68671, 0.121872, 1.674163, -1.06476, -0.387355, 1.396128, 0.394881, -2.030094, 0.776065, -0.515262, 0.175268, -0.200388, -0.878031, -0.440294, -0.030468, -0.637991, -0.293589, 0.996843, 0.206043, -2.392745, 0.556767, -0.337335, 0.875236, 0.760814, -0.076418, 1.679111, 1.426552, 0.167962, -1.057852, -0.292454, -0.265415, -1.247296, -0.816068, -0.624178, -1.218027, 0.724523, -0.549933, 0.721388, -0.70124, -0.7412, 1.247279, 0.878068, 0.055229, 0.612259, -2.581594, -0.10941, 0.114017, 0.831656, 1.900068, -0.607552, 1.272727, -0.839919, 1.749351, 0.356436, 0.502453, 0.520413, -0.148056, -0.104601, 1.475287, -0.099422, 1.066143, -0.359894, -0.091561, 0.65094, 0.469564, -0.184535, 0.211009, 1.485013, -1.675128, 0.324137, 0.357651, 2.21173, 1.556032, 0.343013, -1.527275, -0.168228, 0.434737, -0.309124, -0.416548, -0.754837, 2.417991, -1.629166, -0.951225, -0.974503, 1.379222, 0.469363, -0.393213, 0.343218, 1.231578, -1.376944, -0.407944, 2.549327, 2.053186, 0.66894, -0.226489, 0.723435, -0.341224, 0.64198, -1.020212, 1.451765, -0.884375, -0.354642, 0.128874, 0.404468, -1.603444, 0.518374, -0.057192, 0.890485, -1.36501, -1.287038, -0.579951, 1.567042, -0.029649, -0.16702, 0.56467, -0.291653, 0.364773, -1.07879, -0.416628, -0.324494, 0.667813, -0.254528, -1.153079, 0.725256, -0.116436, 0.425051, 0.059801, 0.146267, 0.484031, 1.052848, 0.135963, -0.026364, -0.261927, -0.533354, -1.023176, -1.438403, 0.003705, 1.140021, 1.522046, 1.292037, 0.611484, 0.040902, -1.080657, 0.55092, -1.37848, -0.167357, -0.176773, 0.646041, 0.606894, -1.007473, 0.992586, -0.854074, -1.184497, -0.765729, 0.068966, -0.045147, 0.840507, 0.192786, -0.917929, -1.649108, -2.159924, -0.495044, -0.070123, -1.51199, -1.342637, 1.295391, 0.138513, 0.308689, -2.168503, 0.354672, 0.901475, -0.06212, 2.634353, 0.078613, -0.149838, 0.788197, 0.327618, 1.038922, 1.296853, 0.379771, 1.557024, 0.557415, -1.105497, 1.942702, 1.057036, -0.251315, -0.073099, -0.50635, 1.185216, -1.232169, -1.057644, 1.346946, 0.518131, 0.776138, 0.259546, 1.043784, -0.216787, 1.286217, -1.291913, -0.659397, -0.425375, 1.429708, 1.178516, 1.279651, -2.315079, 1.793059, -1.403801, -0.446805, -1.215786, -0.534217, -0.400102, 0.547462, 0.626341, -1.441457, -1.484631, -0.25502, -0.275932, 1.096441, -0.720124, -1.705164, 0.241418, -0.266372, 0.883867, 0.223858, -0.461326, 1.247869, -0.340777, 1.714333, -0.846317, 1.926127, 0.471601, -0.561594, 0.380239, 1.360712, -0.499532, -1.216243, -1.382906, 0.959583, -0.397731, 0.335737, 0.004612, 1.569955, 0.086404, -1.111128, 1.172842, -1.821993, 0.555418, -0.566349, 1.201917, -1.369117, -0.904252, -1.206174, 0.722452, 0.382748, 0.37059, 1.538783, 0.700587, 0.371995, 0.469198, -1.509826, -1.094263, -0.015855, 0.528236, 0.769595, 0.222649, 0.274755, 0.796954, -0.627274, -0.027759, -0.933683, 1.809777, -1.989389, 0.317062, -1.159498, 0.36497, 0.279863, 0.0065, 1.903058, 0.82594, 0.943143, 1.115738, 0.899227, -0.081798, 0.200933, 0.39747, -1.388611, -0.465459, 1.550885, 0.566448, 1.069443, 0.120795, 0.016899, -0.834682, 0.369848, 1.111769, 0.919369, -1.67522, 0.017763, 1.122392, -0.240639, 0.196815, 2.113031, -1.016369, -0.369453, -0.736646, 1.000216, 0.490073, 0.596373, -1.170762, -0.866685, 0.280757, 1.282707, -0.723913, -0.64608, -1.721637, 1.030978, -1.936829, -1.344873, -0.926613, 0.047329, 0.411661, -0.012698, 1.960559, 0.372995, 1.054811, 1.413244, 0.743186, 1.080453, 0.086069, -0.317073, -1.305171, -0.415429, -1.055417, -0.906724, -0.03798, -0.320218, 0.083611, -0.253278, -1.137173, -0.627072, 0.436167, 0.706077, 1.426772, -0.215363, -0.109271, 0.503646, 2.018029, -1.456106, 0.94258, -0.942365, 0.132442, 0.933795, 0.893764, 0.053677, 0.394316, -0.397207, 1.299275, -2.059698, 0.568261, 0.597074, -1.341424, 0.030524, 0.933997, -0.269833, 0.78573, 0.487478, 0.931917, -0.04431, 0.723485, 1.326133, 1.028656, 0.278189, 1.130062, 0.457499, -1.333795, -0.578734, -0.586179, 0.254087, -0.585215, -1.342168, 0.459028, -0.254429, -0.96994, 0.803589, -2.303276, -0.335622, 0.070545, 1.064862, 0.108411, 1.651267, 0.070362, -1.059453, -2.323805, -1.000104, -0.391801, -0.074451, -1.11556, 0.280471, 1.597774, -0.321839, -0.452971, 0.504764, -0.221494, 0.268156, -0.336096, -0.571318, 1.158896, -0.215245, 0.342221, 0.000636, 0.100817, -1.765982, 1.791174, -0.000201, 1.636159, -0.77138, 1.780139, -1.338118, -0.670413, -0.185759, -0.033795, -1.325685, 0.254675, 1.865909, 0.61208, -1.000136, -0.696903, -1.604024, -0.548134, -0.201089, 0.043079, -0.079962, 0.17807, 0.171511, -0.404075, 0.733068, 0.147443, -1.231021, -1.225273, -0.290555, -0.810848, 0.553645, -0.28357, -0.635648, 0.306443, 0.170586, 1.585515, 0.007669, -0.828119, 0.425613, 1.13923, 0.983463, -0.831304, -0.290337, 0.143162, 0.990022, 0.110476, 0.766254, 1.336933, 0.938883, -0.620223, 0.548321, -2.565844, 0.571568, 0.849158, -0.186315, 0.18672, -0.274485, 1.085874, -1.662765, -0.024815, -1.327037, 0.983774, -1.411989, -0.078302, -0.265882, 0.826764, -0.148285, -0.809393, 1.117573, 0.160056, 0.711045, -0.675141, -0.992968, 0.196175, 1.394086, -1.206876, 0.541814, -1.560543, 0.690628, -0.278294, 0.520235, 0.567766, 0.957151, 0.611301, -1.751089, 0.516647, 0.497815, 1.671179, -1.64369, 0.155114, -0.467135, 0.117822, 1.556636, 1.35408, 0.82181, 0.793872, 1.120304, -0.970577, 1.09295, -0.856876, -0.245311, 0.748818, 1.281606, 0.756368, -1.063445, -0.984851, 1.293684, -0.354622, -0.321078, -0.832208, 1.062508, -0.588895, 1.169713, 0.700914, 0.858342, -0.180333, -0.910882, 0.761779, -0.503633, -1.738534, -1.130723, 0.449137, 1.335062, 0.378184, 2.016779, 0.894614, -0.24358, -0.123529, -1.184273, 0.424443, -0.9477, 0.247254, -0.075785, -0.902022, 0.356037, -0.829065, -0.892221, -0.355883, -0.297112, -0.131466, 0.072652, -1.024122, 1.477372, 1.02354, -1.975766, -0.239436, -0.514113, -0.815291, 0.590934, 0.419729, 0.677771, 0.39555, -0.129577, 1.119282, 0.807093, 0.618246, 0.085207, 1.110906, -2.022761, -0.529363, -0.795141, 2.049387, 0.434296, -0.352253, 0.259124, 0.220039, 1.261841, 1.287198, -1.066928, 0.799712, 1.815123, -0.437483, -0.768343, 1.732601, 1.210684, 0.584187, 0.302423, -0.557889, 1.853501, -0.470876, 1.097296, 0.642319, -0.232886, 0.62111, -0.215827, -0.070525, -0.078042, -1.72282, 0.734556, 0.243303, 1.456614, 1.22082, 2.109597, 2.530349, 1.210243, -1.735169, -0.466713, 0.564398, -1.751345, 0.256888, 0.097127, -0.705795, 0.359935, 0.395008, -0.050949, -0.319759, 0.690639, 1.751378, -0.198096, -0.475877, 0.761173, 1.750718, 0.680405, -0.354697, 0.564735, 0.580498, -1.358053, 0.269237, -2.467294, 0.591934, 0.657102, 0.234896, 1.429563, 0.690697, 0.970359, -0.187753, 1.376457, 1.434923, -0.859013, 1.084089, 1.475251, 0.133036, 1.282774, -1.201227, 0.233723, -0.081182, 0.154947, 0.530589, 0.932918, -0.113792, 0.703197, 1.424814, -0.988912, 2.3367, 0.466697, 1.202501, -0.219467, 0.45391, 1.425902, 0.325511, -0.441683, -0.335739, 0.474155, -1.419896, -2.304958, -2.825071, 1.397259, 0.67477, 1.963472, -0.305287, 0.217647, 0.217424, 0.682548, 0.622186, -0.466718, 0.143923, -0.648877, 1.320954, -0.203934, 0.747182, -0.493163, 0.473974, 0.616225, 1.342885, 0.489047, 0.166133, -0.43061, -0.44389, 1.114165, -0.336559, -0.148569, 0.392367, -0.444539, -0.040235, -0.289278, -1.210361, -0.656722, -0.198465, -0.25093, 0.591259, -0.213319, -1.860316, -0.43179, -1.806302, 0.311871, -1.619387, 0.629928, -0.526064, -0.468435, -0.357789, 1.688527, 0.68368, 2.10181, 0.277868, -0.177876, 0.294565, 0.433185, -1.016397, -2.449042, 0.315275, 1.338463, -0.776027, 0.191002, 0.69239, -0.234619, 1.317335, 0.270377, 1.745588, 0.100131, 0.306577, -0.20693, -0.535197, -0.295132, 0.199582, -1.252663, -0.637201, 1.002412, -0.024776, -0.811901, -0.595115, 0.125199, 0.526261, -1.210185, -0.573058, 0.078306, -1.53225, 1.550152, 0.415704, -0.322412, -1.459398, 0.375981, 0.600918, 1.054194, -0.750225, -1.083536, 1.29631, -0.011302, -1.606023, 0.55603, -0.992128, 1.386194, 2.122623, 1.079028, 0.538621, -0.364604, 0.246028, -1.156237, -0.573073, -1.492246, -0.395391, 1.956586, 0.792365, -0.43444, 1.380973, 0.5046, 0.210257, -0.363962, 1.997752, 1.232101, 0.231838, 1.110477, 1.071589, 1.529138, -0.254264, 2.129539, -0.610085, -1.082272, 0.002604, -0.601195, -0.28096, -0.646351, -0.087744, 0.434423, 0.07069, 0.337075, -1.040532, 1.266585, 0.721028, 0.512829, -1.433328, 1.081314, 0.858608, 0.991439, -0.337964, -0.652656, 1.017546, -0.133162, -0.756424, -0.528024, 0.900415, -0.199229, -1.947562, 1.249708, 0.967437, 1.705469, -0.416168, 0.361263, 1.806302, -0.887576, 0.809867, -0.033151, -0.392142, 0.895146, 0.923964, -0.423712, 1.030173, 0.461379, -1.265982, 0.665799, -0.333696, 0.785412, 0.59387, -0.845584, 0.442465, 0.018368, -2.071347, -2.835886, 0.599513, -0.93318, 0.713054, -0.390639, -1.721931, 0.924685, 0.109237, -1.941491, 0.990795, 0.22172, 0.355528, 0.756369, 0.08862, 0.420657, 0.530481, 1.013551, -0.289069, -0.079871, 0.075924, -0.699546, -0.270107, -0.877182, 0.060416, -2.25558, 0.922507, -0.229089, -0.403209, -0.410429, -0.371334, -1.725528, 2.472688, -1.433227, -0.078735, 1.626279, 1.361183, 1.737619, 0.140589, -0.357889, 0.639961, 1.276036, -0.273211, 0.061587, 0.502744, 0.110774, 0.388008, 0.742354, 0.401553, 0.506432, -1.36731, 0.753191, 1.820949, -0.866635, 1.332551, -0.380148, 0.349364, -0.128809, 0.007187, -0.05517, -1.098218, -0.382394, -0.253106, 0.205402, 0.241702, 1.774743, -0.266004, 0.268419, -1.452899, 0.12881, 0.472103, 0.311371, -0.488811, -0.264921, -0.83678, 1.223977, -0.372441, 1.725759, 1.911425, 0.424313, 1.798946, 1.058279, 1.265786, -0.469345, -0.552574, -0.48852, -1.426442, 1.977604, 1.102043, 0.424668, 0.954093, -0.320538, 0.800354, 0.990301, 0.396974, 0.469952, -0.039018, -0.392508, -0.529775, -0.25071, 0.146426, -1.273398, 1.837123, -0.472114, -0.469525, -0.079299, 0.268846, 0.844444, -1.407927, -0.775669, 0.566, -0.053658, -0.040354, 0.707054, -0.38185, 0.678132, 0.337292, 0.126492, 1.05595, 0.799326, 2.058088, -0.138031, -0.205213, -0.53636, -0.287463, -0.556073, -1.072278, 0.313741, -0.70709, 2.203647, -0.628581, -0.941369, -1.125002, -0.10752, 0.081851, 0.276262, 0.772027, 2.063603, -1.674107, 0.067242, 2.248353, 1.238147, 1.036629, 0.968942, -0.043057, -0.19361, -0.69095, 0.076797, 0.188489, -0.510877, 0.885354, 0.462691, -0.701694, 1.719914, 0.410935, -0.359514, -1.387033, 1.382346, -0.39398, 1.134795, -0.920581, -0.79439, -0.713499, 0.413364, -0.8193, -0.948583, -0.042396, -0.580152, -0.944744, -0.26866, -0.852787, 0.025849, -0.732597, 1.611921, 0.236746, 0.367559, -0.459938, 0.488411, -0.634721, -0.669585, -0.221189, 0.750462, -0.074875, 0.773059, 0.609066, -1.258717, 0.856953, 0.154528, -0.140076, 1.537422, -0.153171, 0.480617, 1.098654, 0.134164, 0.628827, -0.126779, 0.185231, -0.543045, 0.689633, 0.567984, 0.709215, 0.854258, 0.335584, -0.354947, 0.187364, -0.010454, -1.395221, -0.057337, 1.640094, 0.652555, 1.564582, -0.894793, 0.351107, -0.224018, -1.218595, 1.496488, -0.541559, 0.288369, -1.169276, -0.554184, -1.589425, -0.474647, 0.259369, 0.412654, 0.944186, -1.070492, 0.033442, -0.690715, -0.201326, 1.13792, 0.704994, -1.267544, 0.883157, -0.669072, 0.211613, 1.122263, 1.023338, -0.707401, 0.285547, -0.396925, 1.624286, 0.793913, 0.003224, 0.834249, -0.589972, 0.005998, 0.700461, -0.105099, 0.119889, 1.690035, -0.077491, 0.472938, 0.723071, 0.083477, 0.821855, 0.422446, 0.422583, -0.429369, -0.393633, -0.284344, 0.399284, 0.383899, 0.863888, -0.514271, -0.307446, -0.561501, -1.063528, 0.073563, 1.201252, 0.712081, -0.092377, -0.102982, -2.109241, -1.578684, -0.722883, -1.880874, 2.27355, 0.269814, 0.040484, 0.044714, 1.369066, -0.877889, -0.249513, -0.136417, -0.364902, -0.83055, -0.360117, -0.25855, -0.573585, 1.125113, 0.188521, -0.346457, 1.73878, 0.23552, 1.571467, 0.560154, -1.127829, 1.597756, 0.966042, 0.337888, 2.266988, 0.236401, -0.352655, 2.466979, -0.690086, -0.082371, -1.28685, -1.310076, 1.638068, 0.404168, 1.235117, 1.375369, -0.117138, 0.1776, -1.004717, 1.044176, 0.755626, 0.462148, -1.391101, 0.526898, -1.645626, 0.781071, 0.412799, -0.826886, -0.481797, -0.554091, 0.50355, 1.426177, -0.078079, -0.857072, -0.853403, -2.364996, -0.806162, -0.402987, 0.515386, -2.05891, -0.144562, 1.5419, -1.816506, -0.389627, -0.654861, 0.882414, -1.841716, -0.046948, 1.948284, 0.873741, 0.015823, 0.848276, 0.151984, -0.714798, 0.219002, 1.822881, 0.423201, 0.450249, 1.13615, -0.130962, -1.349449, 0.04152, -0.084392, -0.572042, 1.20951, 0.512584, 0.899729, 1.751071, 0.27531, 1.203277, -0.016632, 0.732953, -0.970332, -0.108769, -0.766225, 1.57322, -0.786726, -0.397895, -0.229733, 0.144072, -0.450574, 1.925313, -0.016685, 0.096228, 1.200257, -0.124652, -2.064003, -0.122454, 1.074944, -0.721477, -0.772776, -1.216887, 1.76915, -0.971939, 1.545979, 1.149607, -0.011012, 0.354374, -1.678287, 0.414988, 0.136895, -1.192536, 0.870055, -0.732572, 1.006742, -0.377804, -0.381809, 1.175366, -0.915868, 1.404551, 0.4263, -1.565426, -0.258023, 0.024728, -0.312121, 1.130662, -0.826049, -2.081507, -0.472185, 1.473334, 0.845626, 1.340132, -0.479783, -1.091888, 0.197748, -1.615758, 0.86251, -1.607816, -0.360453, 0.775971, -0.560474, -0.572592, -1.498634, -0.755838, -0.075503, 1.276872, -0.029545, 0.458657, 1.950495, 1.071443, -0.500103, 0.018713, 0.586011, 0.91685, -0.165125, -1.948545, 0.250926, 0.876424, 0.212172, -0.407991, 1.200194, -1.148657, -0.565386, -1.172732, -0.427189, 0.134898, 0.114826, -0.235596, 0.617974, -0.159866, 0.119777, 0.542454, 0.273472, -0.530754, -0.064985, -0.620687, 0.781763, 0.541616, 0.390838, -0.509663, -0.701774, 1.54887, 1.164008, -0.005214, -1.057114, 0.997097, 0.730031, 1.190315, -0.70301, -0.565357, 1.138999, -0.102919, 0.063603, -1.334738, 0.191033, 0.700749, 0.149756, -0.611314, 0.929894, -0.292256, -0.241442, -0.144854, 0.916492, 0.623583, -0.507849, 0.931083, -1.249873, 0.473249, -0.203322, -0.806214, -0.553804, 1.107189, 1.022818, -0.722324, 1.713793, -0.213644, -0.04277, -1.191946, 0.296218, -0.595051, -0.598722, -0.304095, 0.345008, -0.601995, -0.759572, 0.81381, 1.953833, -0.042396, 0.166703, -0.258765, -1.144798, 0.301461, 0.296883, 0.665834, -1.373937, 0.716015, -1.215155, 1.02293, 3.205731, -0.09393, 0.705769, 2.250056, -0.489255, -0.967783, 0.827021, 1.766124, 2.323594, 0.878049, 1.408764, 1.224039, -1.147502, 0.771092, 1.576202, -2.488167, 0.516024, 0.502133, 0.599649, -0.137465, -0.8479, -0.715471, -0.82191, 2.199515, 1.534859, 0.835418, -0.263281, 0.020298, -0.029668, 2.555356, -0.10466, -0.668794, 0.609501, 0.561971, -0.02195, 0.600422, -1.371653, -0.912521, 1.923266, 0.789711, -0.405705, 0.516128, -1.130572, -0.232541, 0.574706, -1.465501, -0.701768, 0.103596, 1.883475, 1.495246, 1.107541, 0.075639, -0.476693, 0.611222, -0.303015, -0.214927, -0.866329, 1.180858, -0.934661, -0.676874, -0.836897, 0.274743, 1.335494, 0.539281, -1.503816, 1.185938, 0.253768, 0.463786, -0.52947, 0.448714, -0.088284, 0.222878, 0.004085, 0.520006, 0.121397, 0.47743, 1.741596, -0.555212, 0.424785, 0.623986, 0.025106, -1.855076, -0.33415, 2.144988, 0.458869, 0.874045, 0.136912, 0.356576, -0.347915, 0.096364, -0.386509, -0.548653, 0.228332, -0.686402, -0.493106, 1.181431, -0.687089, 1.760715, -0.459204, 0.276286, 0.143633, 0.395389, -1.187342, 0.110417, -1.047932, -0.773724, -0.892333, 0.636585, -1.463054, -1.551434, -1.324761, 1.240764, 0.499252, 0.999063, 0.347919, 0.654406, 0.049519, -0.286085, 0.496197, -0.185105, -1.461396, 1.476427, 0.84434, 0.641978, -0.051292, -0.414582, -0.895208, -1.087489, -0.639415, -0.49858, -0.65779, -1.792252, 1.813065, -0.583923, -1.005007, -1.390053, 1.574284, 0.52713, 0.995007, -0.604284, -0.862432, -1.400418, 0.464672, -2.127783, 2.78709, -0.106053, -0.375138, 0.239747, 0.787726, 1.042203, 0.81022, 0.376064, -0.362593, 0.612656, 0.80757, -1.729187, 0.066965, -1.238475, -0.104707, 0.909044, -0.660991, 0.576686, 0.73229, -0.629138, -0.184347, -1.229736, 0.818201, -0.622996, 2.418287, -0.039113, -0.331513, -0.175725, 1.993539, 0.628108, 2.410306, -0.194442, 0.630436, 1.385289, 0.200837, -2.986709, 1.149952, -1.560083, 0.847005, 0.394383, 1.147854, -0.528479, -1.680211, 0.507038, -0.071574, 0.662256, -0.7305, -0.707504, -0.061519, 0.414659, -1.365844, -0.362231, 0.835951, 0.677094, -0.912455, -0.188445, 0.819014, -0.552444, 1.458748, -0.245277, -0.449537, -1.635238, 0.768485, 2.19648, -0.717322, 1.12632, -0.303161, 0.747281, -0.448482, 1.751338, -0.670266, 1.109802, -0.224713, -0.447327, -0.653316, 0.427728, 1.155297, 0.37455, 0.561199, -0.059254, -0.201192, 0.005241, 1.821317, 0.750778, 0.490321, -1.61055, 0.820403, 0.278618, 1.242205, 0.28226, 0.113913, -0.159221, 2.06804, 0.586801, -1.206847, 0.665081, -0.78193, 1.345034, -0.023853, -0.379453, 0.734609, 0.863707, -1.082214, -0.185146, -0.465053, 0.987611, 1.678589, -0.577964, -0.740635, 1.252202, 0.313004, 1.078394, -0.039561, -0.054011, 1.89252, 0.963546, -1.617287, 1.030374, 1.327967, 0.991912, 0.945641, -0.378629, 1.228411, -0.287161, 0.694489, -0.407333, -0.819317, -0.200617, -0.735454, -1.766101, -1.101356, -1.186108, -0.30212, -1.087715, 1.057445, -0.45911, 0.190331, -0.186716, 0.311357, -1.141205, -1.972793, 1.71522, 0.908032, 1.217667, -0.263582, 0.570297, -0.514861, 0.263356, 0.34685, -1.322049, 0.311857, 0.111115, 1.704298, 0.636277, -0.91221, -1.273214, -0.483895, 0.500226, 0.584532, -0.227595, 0.821784, -0.377942, -0.54699, 0.621218, 0.972238, 0.439919, 1.084362, 0.764755, -0.175511, 0.466775, 1.290924, 1.116035, 1.555916, -0.165786, -1.532325, 1.26979, 0.864273, -0.37475, -0.039547, -1.681123, -0.514232, 0.937922, 0.483728, -0.364007, 1.217503, 0.007224, -1.239539, -1.100761, 1.521206, -1.244994, -0.107554, -0.524457, -0.880028, -0.738993, 0.315612, -0.060385, 1.150781, -1.266231, 0.012405, -0.235608, 0.618051, 0.043831, -0.844324, -1.330481, 0.058977, -0.968917, 0.233286, -0.884321, 0.691645, -0.409513, -0.370472, -0.612815, -0.117895, 0.096863, 0.640614, 0.416836, -1.445764, -0.978299, -0.179007, -0.37001, -1.196997, -2.428105, -0.098087, 0.166864, 0.01418, -0.865913, 0.186634, 1.259937, -0.476338, 0.863667, 0.224906, -0.231922, 0.216211, 0.029476, 0.347319, 0.947776, 0.088012, 0.582014, -0.997988, 2.026916, -0.570029, -0.041638, 0.328615, 1.243245, -0.506498, 0.059438, 0.310044, 0.478647, 0.942847, -0.555613, -1.470033, -1.593246, 0.787016, 0.359257, -1.370839, -0.60915, 3.563194, 2.203568, 1.245412, 0.684916, -0.783445, -0.769394, 1.121553, 1.168085, 0.713088, 3.295034, -2.51089, 1.151505, 0.320795, 0.034483, -0.483671, 1.189355, -0.797029, 0.049334, -0.227651, 0.969386, -1.063342, -1.794513, -0.029197, -0.0711, -0.177075, 0.51828, -0.170146, -0.783098, 0.483516, 0.105502, -0.223879, -1.242965, -0.239811, 0.898048, 1.84116, -0.397813, 0.286465, -1.020515, -1.853356, -0.317424, -1.23146, -1.736135, 0.015545, 0.555241, 0.867018, 0.708157, -0.414943, 0.462267, -1.502422, 0.125747, 2.315643, -1.111118, -0.206977, 0.314813, 0.471796, -0.785625, -0.042667, 0.420848, 0.924923, -1.389328, -0.186818, -0.313109, -0.34358, -0.166078, -0.808735, -0.272389, -1.20779, 0.362328, 0.495859, 0.178625, 1.642198, 0.269738, -0.062203, -0.316989, -1.124245, 1.672445, -1.102996, -0.0156, -0.893479, -0.909415, -0.644482, 0.752993, 0.628147, 1.261562, -0.214833, -0.558841, -0.931166, -1.314042, -0.877777, -0.239913, 0.899097, 0.21094, -0.56149, 0.297633, 0.282839, 0.039209, 1.035442, 1.256062, 0.434477, 0.728982, 0.536071, 1.934838, -0.495419, 0.342582, 0.574897, 0.699702, -0.043599, 1.351892, 0.887898, 2.138638, -0.370358, -0.460653, 0.949698, 1.442107, 0.195504, -0.105736, -0.658826, -0.914672, 1.061496, -0.746657, -0.012282, -0.839279, 2.192572, 0.593037, 0.057504, 1.263894, 1.274966, -1.71688, -0.648162, -0.547224, 0.173636, -0.119989, 0.120207, 0.517319, 0.442172, -1.357632, 0.86265, -0.638692, -0.181693, -0.579577, -1.094923, 0.998393, 1.649246, -0.139193, 1.142097, 0.822556, -1.749735, -1.16509, 0.772148, -0.076819, -0.75334, 1.407227, 0.473155, 0.87969, -0.854291, -0.3556, 0.057474, 0.742683, 1.150661, -1.092653, -2.136387, -1.872269, -1.629954, -0.753448, 1.462826, 0.406771, 1.2642, 0.94245, -0.087171, 0.359399, -0.943314, 0.144195, 2.30258, 1.337394, -0.756862, -0.058637, -0.355771, 0.728779, -0.856639, -0.164001, -1.331712, 0.421705, 1.689525, 0.531908, 1.347422, 0.180605, 1.700514, -0.446996, -0.282581, -1.226277, 0.111611, 0.122802, 1.002871, 0.837771, 0.068069, -0.455031, 0.926867, 0.654683, -0.449311, -0.911544, -0.619806, 0.744254, 0.630946, -0.882155, -1.898299, -0.64535, -0.487244, 1.230688, 1.84539, 1.167809, 2.541221, 0.647707, -0.566396, 0.080111, 0.194766, -0.734764, -1.116216, 0.345442, 0.083928, -0.474505, 0.628647, 0.347834, 1.986158, -0.161721, -0.320634, 0.639309, -0.485144, -0.915729, -1.144438, 2.079962, 0.356523, -1.651225, 0.855085, 0.640175, -2.363252, 0.766832, -0.959988, 0.781727, -0.012457, 1.172117, -0.050053, 0.375915, -0.643568, -0.984387, -1.542074, 2.140836, 0.407231, 2.206014, 1.198982, 0.256591, -0.588652, -0.434077, 0.746572, -0.816942, 0.242812, -0.023963, -1.303264, 0.753929, 1.230758, 0.616785, -0.134828, -1.749495, -0.672811, 1.309549, -0.30014, 2.217152, -1.829868, -1.725088, 1.068452, 1.417258, -1.587752, -0.72492, 0.116716, 0.185424, -0.164124, -0.133055, 1.361974, -0.775078, 0.352627, -0.379431, 0.01396, 2.110985, 2.168954, -1.477374, -0.527696, 0.761994, -0.391623, 0.874702, -0.871959, 0.239417, 1.511122, 1.881255, 0.235076, -0.649333, -0.418369, -1.160994, -0.29377, -1.109212, -0.80615, 1.543121, 0.614543, -0.188768, -0.296957, -0.779105, 0.252277, -1.751547, -2.13647, -0.771444, -0.950504, -2.853752, -0.867694, -0.755026, -0.867868, -0.904261, 0.630333, 0.272762, 0.766631, -1.285678, 0.145683, -0.608143, -1.445335, -0.019652, -1.556386, 0.651866, 0.331309, -0.321894, -0.569935, -0.130684, -0.111392, 0.29417, -1.159128, -0.890664, 1.156281, 0.300956, -0.635275, 0.51698, -0.37752, 0.534208, 0.509249, 0.76463, 1.001308, -0.708192, -1.51093, 1.083872, -0.424124, -0.502685, 0.249936, -1.120178, 0.553126, 1.535008, -0.910446, 1.286202, 1.2461, -1.294596, 0.246433, -0.557062, 0.808233, 1.161708, 0.607313, -0.321596, 0.722434, 0.723714, 0.451687, -0.252214, 0.805413, 0.026413, 0.61259, 0.162371, 0.230002, 0.259335, 1.004918, -0.415987, -0.623192, 0.576026, -1.259192, 0.126608, -0.36437, 1.385384, -0.337377, 0.472233, -0.792254, -0.756449, -1.327394, 1.16979, 0.408843, 0.738812, 1.179628, 0.725974, 0.786256, 0.7662, 1.331638, 1.210461, -1.326846, -0.984758, -0.972093, -0.554912, 0.931025, 0.824916, 0.546451, 1.229781, -0.501968, -0.469372, -0.004519, 0.449851, 1.07425, -1.266575, -1.242448, 0.557791, -0.948099, 0.618983, -1.252209, 0.201005, -0.519001, -0.323888, 1.09515, -0.46711, 0.425885, -0.039304, 2.200683, 0.877449, -0.148087, -0.391626, 1.427707, -0.503149, -0.4011, -0.397486, 0.399567, 0.947742, 0.771937, -0.616097, 0.272583, -0.55694, -0.211548, -0.156353, 0.164443, 0.740409, -0.728468, -0.396512, -0.50584, 0.199285, 0.258092, -0.187532, 0.886183, -0.717755, 0.368874, -0.11937, -1.167557, 0.957197, 0.206862, 0.174058, 1.677314, 0.601737, 0.9878, 0.162416, 1.218779, 0.834983, -0.605283, -0.035056, 0.385803, -0.003069, -1.835411, 1.848546, 0.001083, 1.055057, 0.158736, 0.413884, -1.795536, -0.12405, 0.455731, 0.079852, 0.454024, -1.633191, 1.845142, 1.185834, -0.9969, 2.134773, -0.521291, 0.21386, -0.08175, -0.18132, 0.126376, 1.69193, -0.286503, 1.508843, -1.592803, 0.726224, 2.822805, 0.832074, -0.481859, -1.114144, -0.351885, -0.364875, -0.039181, 0.556435, 1.623451, -0.961242, 0.354336, -0.188296, -0.425122, 0.225144, 0.877926, 0.677267, 2.441064, -1.047181, -0.060799, 0.607804, -1.151579, 1.459055, -1.082044, -1.30477, 0.051617, -0.196905, -1.0854, -0.136105, -0.646338, 1.439502, 0.5724, 1.656244, 0.789026, 0.680969, 0.684239, -1.14998, -0.342826, 1.505095, 0.224463, -1.455226, 0.633306, -1.03747, 0.33392, 0.323278, -0.470954, 2.294905, -0.622933, -0.070474, 1.884465, -0.484783, 0.274398, 2.699692, 0.503919, -0.033313, -1.16337, 0.958014, 0.970182, 0.049266, 0.951249, -2.383053, -0.065478, 0.767821, 0.174792, 0.725533, -0.301989, 0.883043, 0.531162, 0.055611, 1.223513, -1.582731, 0.252615, 0.515954, 1.516682, -0.14688, 0.365708, -0.820038, -0.670569, 0.301371, -0.061636, -0.756742, 1.216545, 1.208029, 1.745056, 0.799934, -1.220487, -0.246397, -1.232553, 1.453848, 0.707093, 0.089861, 1.851464, -0.283261, -1.608684, -0.566018, 1.972463, 0.294569, -0.230435, 0.200346, 0.719459, 0.157078, 1.938259, 1.264136, -1.012716, -1.702449, 1.03213, -0.164773, -0.455328, 1.011123, 0.589519, -0.484246, -0.011542, 0.631396, 2.027843, 1.022066, -0.124022, 0.608634, 0.422113, -0.183121, -0.346877, -0.058448, -0.512385, 0.285709, 0.81188, -1.146651, -0.114619, -1.664732, 1.312686, 1.063402, -0.421117, -0.069404, -1.353554, 1.851157, 1.256234, -1.049401, -0.2201, -0.161628, 1.356579, 0.372464, 0.870572, -0.785018, 0.461274, -2.61889, -0.442062, -0.308049, 0.513349, -0.70161, 0.882812, -0.221456, 0.527291, 0.886027, 1.009005, -1.306741, -1.057071, -1.049577, -2.219452, -0.072251, 0.589094, 1.610867, 1.105148, -0.933134, -0.187623, 0.503891, 0.788955, -0.897465, 1.379907, 0.774444, 0.167313, 1.445744, -0.926567, -1.356244, -1.246734, 0.566762, 0.604183, 0.040618, 1.64377, 0.153326, 0.714543, 2.124338, 1.178868, 1.014937, -0.191405, -1.864176, 1.382159, -1.967049, 0.852722, 0.93743, 0.687225, 1.217063, 0.481724, -0.74493, -0.045238, -0.146844, -0.124429, 0.743757, 0.974281, 0.159589, 0.431183, -1.260852, 0.050753, -0.083939, 1.08803, -0.422868, 0.341677, -1.267802, -0.613073, 1.345802, -1.052086, 1.080472, 0.222416, -1.985728, -0.051402, -0.556029, -0.512633, -1.081283, 1.152888, -0.341941, -1.064547, -0.093767, 0.511388, 1.751155, -1.554386, 0.023165, -0.212992, 0.984858, 0.015123, 1.380493, -0.645311, -0.277582, 0.00581, -1.446955, -1.03416, -0.952277, -1.199855, 1.336009, 0.032238, 0.092, 0.728959, 0.738421, 1.392895, -0.536346, 1.457871, 0.811868, 0.822785, -0.266704, -0.699553, -0.564646, -1.279398, 0.170158, 1.126422, 0.009271, 1.592853, 2.494753, -2.012672, -0.858476, -1.060369, -0.487765, -1.685153, 0.172791, 0.462776, 1.954078, 0.168918, 0.588564, 0.769829, -0.459072, 0.024598, -1.57323, 0.23794, -1.62699, 0.239023, 1.234777, -0.076149, 0.45142, 0.459282, 1.899317, -0.191046, 1.50413, -0.824928, -1.523136, 0.894637, -0.783811, 0.052331, 0.832531, 0.050702, 0.403635, -0.142504, 0.165882, 2.008523, 0.467373, 2.252296, 1.277468, -0.960272, -0.100055, -0.395334, 0.254642, -0.762796, 0.303451, 1.177183, 0.769785, -0.271041, 1.117455, 0.216703, -0.36172, 0.396593, 0.149242, 0.306388, 0.403611, 1.176559, 0.024933, -0.603076, 0.099075, -0.915621, -1.520539, 0.74535, 0.004663, -0.324391, 1.128058, 0.13835, 0.229514, 0.548567, 1.538209, 1.05403, 0.3722, -1.490224, -0.392981, 0.824567, 0.227215, 0.545832, -0.541598, -0.725939, 0.734308, 0.373117, -0.564402, 0.776989, -2.397091, 0.466229, -0.304443, 0.168405, 1.339769, 2.046345, 0.497159, -0.531017, 0.100734, 0.142108, 1.032392, -0.374686, 2.272521, -0.442127, 1.445718, 2.121046, 0.280573, -1.617552, -0.63369, -0.796374, -0.246475, 0.402763, 0.630474, 0.61393, -0.418571, 0.897464, 0.685621, -0.362715, 1.206592, -1.202232, -1.969171, 0.632871, 1.100804, 1.697838, 1.247463, 0.568176, 0.288832, 0.968039, 0.440072, -0.411227, 0.167686, 1.546702, 0.744685, -1.228414, -1.232915, -0.695414, -2.696778, 1.117547, -0.763097, -0.71071, -0.367674, 0.129671, -0.930357, 1.124359, 0.555433, -0.607238, 0.376285, -0.38143, 0.242426, -0.702509, 0.112129, 0.517886, -0.251126, 0.457625, -1.784925, 1.533635, 0.491584, 2.231725, 0.586434, -0.759475, -0.799222, 0.750889, -0.100607, -1.276242, 0.093798, -0.686934, -0.241558, 0.798901, 0.592242, -2.654212, 0.145524, -0.406991, -0.092924, -0.557358, -0.052017, -1.224492, 0.27723, 1.717465, 0.364876, -0.259901, -0.161697, 0.01524, -1.364519, 0.09519, -0.81987, 0.651974, 0.57714, 0.881487, 2.130743, 0.368741, -0.855506, -0.33196, 0.176281, 1.161504, -1.040639, 0.597242, 0.447302, -0.254672, -0.415686, 0.600569, 1.407906, 0.65311, -0.160437, 0.973723, 1.332028, 0.185178, -0.986884, -0.096587, 0.712843, -0.224544, -1.056901, 0.383723, -0.032197, 1.210546, -0.14193, -1.362912, -1.665031, -0.114718, 0.101816, 2.238909, 0.074716, 1.64741, -0.02055, 0.363536, -0.021617, -0.066635, 1.171212, 0.500265, -2.250335, -1.492618, 1.756532, 0.231699, 0.86079, 0.436182, -3.481208, -0.351394, -1.147803, -0.209374, -1.092373, -0.319092, -1.132507, 0.552902, 1.163645, -0.423018, 3.572766, 1.222031, -0.810549, 0.512894, 1.542317, -0.856829, -0.673562, 0.00078, -0.523805, 0.869709, 1.671418, -1.093324, -1.058966, 0.098817, 0.532558, 2.170473, -0.804891, -0.14638, -0.141104, 0.946313, -0.074952, 1.128879, -1.153248, -1.138116, -0.884556, 1.056547, -0.422547, 0.27832, 2.358086, -0.498829, 0.564034, -1.067884, -0.555281, -1.853767, -1.643489, 0.490776, -1.288207, -1.175174, -0.132529, 0.158074, 0.664756, -0.169225, 1.108908, 0.369768, 0.70348, 0.304275, -0.159878, 3.396417, -0.476259, 0.929339, 0.249048, 0.453179, -1.264195, 3.25301, 0.211042, 0.174326, 0.083026, 0.211839, -1.281008, 1.575955, 1.735718, 0.223927, -1.329187, -1.15622, -0.433551, -0.399814, 1.821892, -0.754977, -1.418629, 0.132705, 0.902808, 0.62857, -0.282848, 1.44607, 0.583821, -0.303132, 2.311449, 0.247059, 