{"arch": [768, 64, 32, 16, 1], "scale": 600.0, "layers": [{"w": [-1.860341, -0.815512, -0.389314, -1.493222, -1.592525, -0.354018, -0.56976, 0.0528, 1.273835, 0.526887, -0.138157, -0.563613, 0.519292, -0.507922, -0.432932, -0.847987, 0.002975, 0.294583, -1.728991, -0.227906, 0.953397, -0.148401, 0.5152, 0.869234, 0.586338, -0.379967, 1.595554, 1.237217, 0.306149, 1.535191, -0.860058, -1.650956, -0.517955, -0.043854, 0.964558, 0.299279, -1.035451, 0.178116, -0.682365, -1.957443, 1.938787, -0.392491, 0.221794, -0.464615, 0.759944, 2.784629, -0.209177, 0.603709, -0.172449, 0.003179, 0.038071, -0.535929, -0.211435, 0.431271, -1.055801, 0.710987, 0.715174, 0.28968, 0.435284, -0.232499, 1.316918, 1.10655, 0.773398, -0.86751, 0.668429, 0.43644, -0.019072, -0.577071, -0.958938, -0.390143, -0.287282, -1.392634, 0.903945, -0.509414, 0.794114, -0.512709, -1.019931, -0.024366, -1.655356, 0.117463, -0.491645, -0.253217, -0.381203, -0.648838, -2.161778, 0.685972, 1.5766, -0.889015, 0.259475, -0.932515, -0.170062, 1.172045, -0.560498, 1.577349, -0.815069, -0.149319, 0.819465, -0.148647, -1.095666, 0.586538, 2.578016, 0.162271, -0.602702, 1.875973, -0.128388, -0.887358, -0.225166, 0.754292, -0.743456, -1.090792, -0.75424, 0.142055, -0.154359, 0.734033, -0.960141, 0.792554, 0.825838, 0.523471, -0.805469, -0.241162, 1.158462, -1.625647, 0.318237, -0.844213, -1.088701, 0.014533, 1.055946, 0.601289, -0.732203, 1.273957, -0.110288, -1.963335, -1.053449, 0.07504, 2.997626, -1.780211, 1.429524, 0.005304, -1.446432, -0.5201, -0.882582, -0.903004, 0.226045, 0.511155, 1.388671, -1.965123, 0.693414, 0.391876, -0.128787, 0.045178, -1.347483, 0.567952, -0.859976, 0.197523, -0.313302, 0.022324, 1.283872, -0.135386, -1.136563, -1.280049, -0.135137, 0.241101, 1.013058, -1.120179, -0.871451, 2.196745, 0.282061, 1.18184, 0.842619, -0.592663, -0.110471, -0.53081, 0.328413, -0.826251, 2.008687, -0.339273, -0.274956, -0.153841, -1.409204, -0.462947, -1.890103, 0.458178, 0.79834, -1.101207, -0.826584, -0.152579, 0.70567, -0.540612, 0.026621, -1.052743, 0.826904, -0.285805, -0.505129, 0.173535, -0.628805, 1.081714, 0.125941, -0.456369, -1.112491, -0.985828, -0.316702, -0.830851, -0.845064, -0.219366, -1.49894, -0.119847, 1.591773, -0.281938, -0.377119, 0.227004, 1.599421, 0.529961, 0.885777, 1.042462, 0.500881, -2.163475, 2.383542, -1.239521, -0.075906, 3.333694, 0.587298, -0.14039, 0.917509, -0.763656, -0.82968, 0.041981, -0.224347, 0.945231, -2.697733, -0.199297, -0.177994, -0.054197, -0.51361, 0.003757, 0.312028, -0.050868, 0.095782, 2.652756, 1.705099, -0.229438, -0.222031, -0.160495, -0.354933, -1.302265, -0.639708, 0.2481, -0.370747, -0.39948, 0.003561, -0.077161, -1.406466, -1.123907, 1.093705, -0.055203, 1.98176, 0.188178, -0.132258, 0.840288, 0.511916, 0.780013, 0.869984, -0.312569, -0.185585, 0.074389, -0.692579, 0.67737, -0.600023, -1.036063, 3.308414, -1.196127, 1.611929, 0.968582, 1.188262, 1.096728, 0.560888, 0.338272, -1.194937, 0.702974, -0.876545, 0.053072, 0.792866, 1.636999, -0.358773, 1.160874, -1.144105, -0.774924, -0.976818, 0.866735, 0.173734, 0.570098, -0.963743, 0.959958, -0.380286, -0.108927, 1.149719, 1.933885, 0.024889, -1.075155, 0.04828, 1.513698, 1.182705, 1.145017, 0.462631, -1.497489, 0.900472, 1.370319, 0.199997, 0.686204, -0.652046, -1.166198, 0.174635, 0.004152, 0.724673, 1.422717, 0.395238, -2.065769, 0.092591, -1.391967, 0.111642, 0.920721, 0.353487, -2.369212, -0.582383, 1.733242, -1.011831, 1.413862, -1.034307, 1.823336, 0.768988, -0.230154, -2.674852, -0.357246, -1.062695, 1.494127, -1.089146, 0.44011, 0.404912, 1.481081, 0.17154, 0.175056, 0.425357, 0.189798, 1.50805, 2.281878, 1.053133, 2.266878, -0.407328, 0.638447, 0.657621, 0.282317, 0.285931, 0.339125, -0.375754, 1.082489, 0.291658, -1.515576, 0.368404, -0.986745, 0.834486, -0.93281, -2.145862, 0.496326, -0.15446, 0.472756, -0.563447, -1.644636, -1.530905, -1.31918, 0.827202, 1.108856, -0.515929, -0.718894, -0.434821, 1.519356, 0.499578, -1.691147, 0.258192, -1.108852, 0.329624, -0.795545, 0.597676, -0.004511, -0.673478, -1.084958, -0.26186, 0.866051, -0.857752, -1.727868, -1.289185, -0.983834, 1.216625, 0.142107, 0.386777, -0.923813, -0.460363, 0.019215, -0.078582, 1.103082, 0.37152, -0.746471, 1.271065, 0.182109, 0.767302, 0.363793, 0.251127, -0.069469, 0.624645, 1.543215, -0.080054, -0.472915, -1.135714, 0.372592, -0.930417, -0.77389, -2.136496, 0.888174, 1.006126, 0.058629, -0.619234, -0.885712, 0.897711, -0.182047, -2.098054, 1.195831, -0.846304, -0.077363, -0.047797, 0.470443, -0.024885, 0.798665, 0.58045, -0.240925, 0.957933, 1.338575, 1.247845, 2.414184, 0.769974, -0.119405, 2.280457, -1.062425, -1.492406, -2.066931, -0.477436, 0.110465, 0.000795, 0.751012, 0.950501, -0.728303, -0.716815, 0.549088, -0.231922, -0.644021, 0.051853, -0.386859, -0.230433, -0.240343, -0.745994, -0.02443, 0.762497, -0.853674, 0.406032, 1.493709, 0.461711, 0.056748, -0.447149, -0.656393, 0.127511, 1.178331, 0.563515, 0.196563, 0.153149, 0.140904, -0.791574, 1.17677, 0.663118, 0.43304, -0.209964, -1.007975, -0.225089, -1.71643, -0.800892, 0.067636, -0.973746, -0.932241, -0.701525, 0.421353, 1.345793, 1.206718, 0.585066, -1.136213, -1.20794, 1.190201, -1.377062, -0.829634, -1.757484, 0.091799, -0.521073, 1.523257, 0.4121, -0.026624, 0.815325, 0.086882, 0.535986, -0.069889, -0.036969, 1.378232, -0.88153, -1.967109, -0.918681, -0.600017, 0.768873, 2.237633, 0.316704, 0.273436, -0.975587, -0.471013, 0.061294, -0.142813, 1.002252, -0.567587, -1.014418, -1.136363, -0.359164, 0.321499, 0.46074, -0.415129, 0.24737, 0.878457, -0.656695, -0.19281, -0.082069, 0.45397, 1.306315, 0.077544, 1.680247, 0.191501, -1.211819, -0.543736, 0.703064, -0.171609, -0.162535, 0.939949, 1.215469, 0.538938, -0.058704, 1.603979, -1.248674, -0.533277, -0.814436, 0.069954, 0.243251, -0.148485, 1.618649, -0.438302, 1.302956, -1.020357, -0.814629, 0.79209, 1.733248, 1.276394, -0.05491, -0.10337, 0.791874, 0.448425, 0.276416, 1.231366, 0.335129, 2.138038, 0.072816, 1.123692, -0.080901, 0.404069, -0.682259, 0.026699, -0.249304, 0.118269, 0.573669, 0.088163, -1.060178, 0.150565, -1.112432, 0.536073, -0.104297, 1.866084, -0.708354, -0.048475, 0.147611, 0.167231, -0.022902, 0.34698, 0.48138, 0.445164, -0.259997, -0.199433, 1.64984, 0.575239, -0.802624, 0.367774, 0.370189, 2.297454, -1.090488, 0.023849, 0.099988, 1.473293, 0.013903, 1.169912, 0.135672, 0.415958, 0.737347, 0.327242, 0.793998, 2.910581, 0.130593, 0.194217, 2.202368, -0.182386, 0.036073, 0.378462, 0.294217, -1.902298, -0.400034, 0.634254, 0.027643, 2.049577, 0.08187, -0.053451, 1.63762, -0.641345, -0.331122, 0.918867, 0.185985, 0.975124, 1.109266, 1.285343, 0.601729, 0.811624, -0.34996, 1.631177, -0.145885, 0.501044, 0.320735, 0.357485, 0.241963, 0.794475, -0.856769, 0.435201, 1.347399, 0.721855, -1.218755, 0.652273, 1.892693, -0.528942, 0.332558, -0.635993, -0.64161, 0.227525, -1.019785, 0.151888, 0.860519, 0.643184, -0.005427, 0.961341, 0.433093, 1.444967, -0.269071, -0.177272, -0.899206, -0.430349, -0.850373, 0.841129, -0.20469, -0.405547, 1.183894, 0.671068, 0.711727, -0.53825, 0.485541, 0.467162, 0.747233, -0.312285, 0.221135, 0.71261, 1.224416, -0.543261, 0.564021, -0.10741, -0.051117, -0.159444, -0.003072, 0.756221, -0.269342, -0.314145, 0.047423, 1.740135, 0.378267, 0.65704, 0.298887, 0.830843, 1.12066, -0.108117, 0.083152, 0.82445, 1.42481, 0.757665, -0.370811, 1.291208, 0.834571, -1.073264, -1.627012, 1.106255, 1.253666, -1.281768, 0.334449, 1.679137, -0.932256, -0.073782, -0.904092, 0.127542, 0.857572, 0.735944, 0.878684, -0.649216, 1.057311, 1.995221, -0.668618, 0.672974, 0.701457, -0.860073, 0.330849, 1.200458, -0.528277, -0.515847, -0.250707, 0.505696, -0.867617, -0.199575, 0.323871, 0.455315, 0.138724, 0.21479, 0.705199, -0.427513, 1.74525, 0.080482, 0.28588, 0.206639, -0.197801, 0.189397, -0.863235, 0.664263, 1.800018, -0.08626, -0.517729, -0.125156, -0.322385, -0.717202, -0.576647, -0.489206, 0.277723, -0.223426, -0.725435, 0.506604, 0.07054, 0.413769, 0.003921, 0.085895, 0.495236, 0.889203, 0.099516, 1.263512, 0.645137, 0.186538, 1.256874, 0.220021, -0.556136, -0.30097, -0.697293, 0.615992, 0.599757, -0.297082, 0.220636, -0.572496, -0.599711, 0.358176, -0.138966, -0.414311, 2.621831, 1.238416, -0.015508, 1.525513, -0.159378, 0.614345, 0.473817, 2.408755, 0.924877, -0.782113, 1.061224, 0.482179, -1.182239, 0.635734, 1.25334, 1.292485, 1.227022, -0.024769, 1.399831, 1.267319, -0.111352, -0.379818, 1.135604, -1.302476, 0.351355, 0.682251, -1.379787, 0.714931, -0.527301, 0.839537, -0.921091, 0.001381, 0.425449, 0.591534, 0.380269, -1.167309, 0.7281, 1.219389, -0.625601, -0.977188, -0.534494, 1.818395, 0.949485, 1.059535, 0.983548, -0.938991, 1.889283, 0.760988, -0.980495, -0.47797, 1.200901, 0.08939, 0.163117, 0.462031, -0.001318, 0.053464, 1.093791, -0.470673, 1.899901, 0.712464, 0.581379, 0.449987, 0.692785, -1.213102, -0.646958, -0.772496, -0.272597, -0.331572, 0.744359, -0.290124, 1.897384, 0.787016, 0.792754, 0.055957, -0.396977, 0.336253, -0.67966, -0.205835, -0.213588, -0.323617, -0.22056, 1.006931, 0.223544, 1.59567, 0.562572, 0.565278, 0.660534, 1.803682, 0.24605, 0.898372, 0.099999, 1.268533, 0.637171, 1.018723, -1.246481, 3.025463, 0.643992, 0.051387, 0.633105, -0.020713, 0.599762, 1.070848, 0.048004, 0.136324, 0.561195, -0.060475, 0.572466, -0.322481, 0.360275, 0.900055, 0.134999, -0.181358, 0.402058, -1.644849, 1.442652, -0.730148, 1.247927, 0.244644, 0.037144, 0.501021, -1.541953, 1.036984, -0.272788, 0.830629, 0.942991, -0.580726, 0.351239, 0.084787, -0.968648, 0.642588, -0.855155, -0.482911, 0.26049, 0.594747, 1.245993, -0.180053, 1.199153, 0.989073, 0.428465, -0.275772, -0.253975, -0.102942, 0.539826, -0.534052, -0.066264, 1.154825, 0.615521, 0.548, 0.291936, 1.854483, 0.883389, 2.785766, -0.160623, 0.539985, -0.709011, 1.081574, -0.428118, 1.519296, -1.795497, 1.460134, 1.314045, -0.307979, -0.210571, 1.18207, -0.590838, 0.042367, 0.039995, -0.327949, 0.298557, -0.412754, -0.251547, 0.418542, 0.768894, 1.268596, 1.915222, 0.369183, 0.561472, -1.693958, -0.530676, -1.275698, 0.04382, 1.380142, -0.174741, -0.891793, 0.83219, 0.671144, -0.645386, 1.950298, 0.6544, -0.432413, 0.111281, -0.273327, 0.220917, 0.531573, 0.36504, 0.49937, 1.251828, 0.959925, 0.504854, -0.018324, 0.389113, 1.21069, 0.03627, 0.719751, 1.184003, 2.05931, -0.657198, 1.470094, -0.242877, 0.164317, -0.74249, 0.245246, 1.524962, -0.392571, 0.408349, 1.732641, 1.024534, 0.772749, -0.01342, 1.677007, -1.158073, 0.012818, -0.641424, 0.090168, 0.532258, -0.961876, 0.399197, 0.146006, -0.181108, 1.094818, 0.671587, -0.187428, 0.335161, -0.061331, -0.164427, 1.742581, 0.28449, 0.371471, 0.088056, -0.502687, -0.403286, -0.720328, -0.48336, 0.192421, 0.790755, 0.512284, -0.590253, 0.104264, -0.099443, -0.224561, 1.918325, 0.142479, 0.528818, 0.932891, -0.46547, 0.068709, -0.53186, 1.010179, -0.438233, -1.348194, 0.51036, -0.44121, -0.584778, 0.748967, 0.635586, 1.883244, 0.144561, 0.813594, 0.53652, 0.634718, -0.264007, 0.036714, 0.549622, 0.058843, 0.097092, -0.382138, 0.365719, 1.396992, 0.484946, 0.586171, -0.143282, -0.636369, 0.638721, 0.657749, -0.344539, 1.100914, 0.087505, 1.087557, -0.31239, 1.046061, -1.331666, 0.555615, -0.221734, 0.747032, -0.348529, 1.454451, 1.117361, -0.412476, -0.206616, 0.047879, -0.466165, 0.752249, 0.300431, 1.270672, -0.265844, 0.774536, 0.557218, 0.810912, 1.196416, -0.63049, -0.471755, 1.892004, -0.509798, 0.036933, 0.699295, 1.531896, -0.576731, 0.105526, -1.101686, 0.878923, -0.260846, 0.775972, -0.006509, 0.20924, 0.505042, 0.194903, 0.886896, 1.617859, -0.355101, 0.960208, 0.593987, -0.020998, 0.151406, 0.236301, 0.123675, 0.357123, -0.491555, 0.229477, 0.076103, -0.321029, 0.836234, 0.336341, 0.606264, 1.268068, 0.297713, -0.632298, -0.845778, -0.115423, -0.473393, 0.654753, -0.307089, 1.721333, 1.138448, 2.112053, -0.504158, 1.642929, 0.258016, 0.401018, 0.191664, 1.099688, 1.528958, -0.144223, 0.135966, 1.20178, -0.235112, 1.500605, 0.192829, 1.326836, -0.150972, 1.150215, -1.24349, 0.948646, 0.732812, 0.372332, -0.365976, 0.716903, 0.88887, 0.049493, -0.654489, 0.19117, 0.567138, 0.509194, 0.145359, -0.570833, 2.658633, 1.042913, 0.345503, 1.155071, 0.484989, -0.332797, 1.099804, 0.232286, -0.414557, 0.113004, -0.271966, 0.924422, 0.304292, -0.136369, 0.664557, 1.03103, 0.209498, 0.042122, -0.108779, 0.056723, 1.012229, 0.757461, 0.616983, 0.839395, 0.453726, -0.610458, 0.336751, -0.587881, -1.216954, 0.111909, 0.335337, -1.461075, 0.686726, 1.362853, 1.15501, -0.45775, 0.956874, -0.511704, 0.618427, -0.974375, 2.018788, 0.81059, 1.051472, 1.066167, 0.032902, 1.866075, -0.83124, -0.516247, 0.422607, 0.781706, 0.113605, -0.140289, 0.37002, 1.110827, -0.463467, 1.65719, -0.104774, 0.191212, 1.014331, 0.716852, 0.278357, 0.065438, -0.285345, -0.392039, 0.4231, 0.655722, 0.750437, 0.167995, 0.683697, 1.102299, 1.436699, -0.608034, -0.340343, 0.334827, 0.124171, 1.748175, -0.013832, 0.568929, 1.360166, -0.136693, 0.774547, 0.740577, 0.076302, -0.453361, -0.7762, -0.402083, 0.307338, 0.292305, -0.590101, 0.233278, -0.462043, -0.812143, 0.28501, -0.361054, 0.12011, 0.259476, 0.058081, 0.96578, -0.504297, 0.541509, 0.820951, -0.115106, 1.274741, -0.653682, 0.391909, 0.131437, 0.392746, 1.178774, 0.468875, -0.26914, 0.194831, -1.133866, 0.630097, -0.822524, 0.152479, 0.098814, 0.196485, 1.338758, -0.323595, 1.965856, 0.553466, 0.579448, -0.468167, 1.233535, 0.036461, -0.640464, 1.172337, -1.676639, 0.938791, -0.584222, 0.397032, -0.651643, -0.900564, 0.234142, 0.733437, -0.406847, 0.765278, -0.437591, -0.016626, 1.603932, -0.302221, -0.140491, -0.304033, -0.720364, 0.784814, 0.127136, 0.340661, 0.864605, 0.552633, -0.466098, 0.363928, -0.287773, 1.344674, 0.724326, 0.168046, -0.371334, 0.717526, 0.042395, 0.031734, 1.57625, 0.710482, -0.705833, 0.516581, 0.483084, -0.628876, -0.554994, 1.484683, 1.421766, 0.6186, 0.956052, 0.053183, 0.236056, 0.812907, -0.260119, 0.911502, 1.640931, 0.320228, 0.942912, 2.133139, -0.087521, 1.12137, -0.490231, 0.078644, 0.378469, 0.693829, 1.179467, 1.448694, 0.145261, 1.564538, 0.62935, 0.726766, -0.549688, -0.691497, 0.223786, 0.253433, 0.834829, 0.738117, 0.445826, 0.60485, 0.177044, 0.980045, 0.030196, -0.767343, 0.635043, -0.414421, 0.448556, 0.050381, 2.337883, -0.033629, 0.763249, -1.508477, 1.181544, -0.154541, 0.720472, 1.284901, 0.193066, 1.091657, 0.387718, -0.370083, -0.237684, 0.445617, 0.956464, -1.390739, 0.164578, 0.711494, 1.285097, -1.101138, 1.234881, 0.687933, 0.32914, 2.042503, 1.275595, 1.223828, -1.104414, 0.373631, -0.577115, 0.686633, 0.480417, 0.860337, 0.768442, -0.436309, 0.449363, 0.847587, -1.074493, 0.388184, -0.287972, -0.629504, 0.131701, -0.20104, 0.842837, -1.020046, 0.509238, 0.162927, -0.94923, 0.55111, -0.487436, 0.745707, -1.043216, 0.659023, 1.793937, 0.18536, 0.829428, 1.29801, -0.210314, 0.224485, -0.320774, -0.017075, 0.949485, 0.594172, 0.675544, -0.385656, 0.27886, 1.486586, -0.03698, -0.713478, 0.64039, -1.319283, 2.087699, 0.43764, 1.734497, 0.186083, 0.989352, 0.34914, 0.808312, -0.671484, -0.160153, -0.499363, -1.042431, -0.266744, -0.057767, 0.219437, -0.071327, -1.240115, -1.56012, 0.817752, 0.444899, 0.015358, -0.231534, -0.133014, 0.758455, 0.525705, -0.51781, 1.920688, 0.236177, -0.111188, 0.457141, -0.397796, -0.756831, 0.659132, 0.161094, 0.057316, 1.27375, -0.248542, 0.309564, 0.789114, 1.391776, 1.658941, 0.39716, 0.68666, 0.444431, -0.104071, 0.033268, -0.611749, 0.467703, 0.407528, -1.051619, 0.377916, 2.716564, -0.069325, 1.444678, 1.055595, -0.019182, -0.327247, 0.306549, 0.051328, 1.865222, -0.14475, -0.334277, 0.361542, 0.473516, 0.78352, 0.288391, -0.112833, -1.629356, -1.177086, 0.622911, 1.814329, 0.651273, -0.060981, 0.657328, -0.06089, 2.348875, 1.406022, 0.4034, 0.784727, 0.477097, -0.385884, 0.531158, 0.021602, 0.810664, 0.582776, -0.268021, -0.153038, 0.440657, -0.105586, 0.613183, 1.064712, 1.670355, -0.018675, -0.269337, 0.972843, -0.171556, 0.801959, 1.635722, -0.918, 0.228338, -0.308757, -0.331113, -0.308525, -0.099247, -0.037166, 0.076499, -0.528457, 0.043472, -0.256414, 0.921444, -0.779169, 2.280722, 1.284621, 0.62934, 0.932958, -0.174925, 1.44025, 1.185459, 0.958669, 2.105564, 1.075681, -0.186273, -0.26769, 0.576519, -0.413988, 0.546815, 0.302467, 0.57127, 1.811422, 0.306796, 0.041368, 0.32953, 0.568855, -0.450473, -0.086708, -0.090319, 0.031474, 1.096537, 0.639409, 1.407686, -0.484868, 1.050192, -0.219083, -0.693878, -0.810884, 0.712125, 1.331806, 0.195572, 0.159993, -0.957424, 1.871486, -0.11622, 1.461335, -0.036893, 1.170215, 0.619602, -2.176601, -0.067881, -0.204319, 0.416189, 0.740449, 1.210221, -0.574622, 1.047845, -0.471932, 0.255744, 0.494301, 0.351663, 0.698209, -0.498159, 0.050483, -0.656726, 0.202254, 0.09225, -0.437388, 0.646613, 1.515948, 0.14619, 0.60424, 0.813018, -0.228559, 0.717888, 0.626789, -0.026058, 0.804495, 0.442544, -0.296357, 0.473228, 0.260786, 0.107488, 0.708169, 0.228589, 2.050284, 0.572755, 1.078001, 0.122089, 1.893714, -0.958584, -0.006875, 0.475806, 0.515781, 0.904374, 0.714204, 0.408404, 1.576365, 0.009776, 0.535479, 0.752429, -0.081876, 0.106963, 0.656336, 0.433531, 1.080541, 1.069386, -0.632539, 1.127868, -0.505016, 0.041667, 0.210637, 0.035267, -0.390527, 1.278507, -0.37244, 0.584427, 1.616057, -0.678601, -0.407641, 0.664291, 0.326097, -0.102444, 0.317486, -0.812491, -0.201165, -0.458458, -1.068691, -0.214683, 0.267351, 0.247007, 0.181807, 0.922357, 0.406841, 1.709818, 0.709972, 1.256821, -0.349022, 0.571618, 0.746294, 0.041081, 0.558785, -0.367312, -0.062964, 0.70087, 0.150957, 1.171946, 0.543266, -0.398409, 0.333311, 0.886638, 0.43623, -0.25372, 0.447768, -0.198293, 0.072595, -0.548355, -0.191144, 1.281985, -0.402534, 0.82263, -0.067025, 0.25215, 0.360427, -0.175754, 0.971963, 0.739236, 0.563163, 0.958888, 0.902436, -0.463635, 1.190224, 0.129734, -1.028363, 1.252988, 0.229384, -0.0528, -0.332193, 0.734056, -0.454343, 0.45611, 1.003913, 0.889425, 0.379416, 0.275509, -0.890737, 0.312847, -0.375952, 0.448579, 1.009402, -0.764407, 0.653197, -0.833711, 1.001188, 0.554247, 0.227387, 0.197831, 0.476804, 0.973426, 0.150569, 2.993445, 0.652326, -0.297519, -1.106331, 1.343129, -0.235262, -0.146985, 0.401335, -0.282004, -0.363411, 0.732384, 0.177956, -0.219691, 0.535719, 1.296641, 2.131695, 1.888534, 1.610174, 0.303973, 0.233731, -0.492002, 0.060939, 0.023835, -0.280343, -0.424106, 0.574061, 0.142886, -0.646882, 0.26657, 0.390399, 0.296803, 0.408441, -0.942892, 0.424065, 1.061431, 0.341882, 0.341496, 0.291007, 0.651916, 0.73131, 1.217289, 0.107937, 1.674901, 1.799675, -0.017057, 1.789843, 0.143551, -0.577792, 0.563864, 0.492136, 0.235913, -0.958957, 0.261467, 0.158238, 0.152606, -0.164796, 0.014938, -0.031463, 0.502311, -0.550819, 0.601145, 0.135683, 1.584495, 0.441777, 0.183911, 1.065421, -0.703586, 0.354384, 2.110901, -0.421717, -0.052384, -1.38508, 0.632108, 0.652992, 0.200465, -1.728555, 0.494811, 0.274171, 1.279164, 1.037988, -0.671277, 0.547154, 0.333811, 0.256542, -0.869323, 0.402651, -1.009555, -1.032331, -0.443684, 0.338433, -0.3149, 1.155347, 0.811118, -0.186254, 0.246722, 0.754436, 0.120202, 0.620083, 0.10997, -0.769628, 0.04488, 0.609822, 0.148016, 0.319765, 1.267135, -0.378502, -0.564626, -0.429392, -1.430725, -0.752929, 0.348267, -0.756381, 1.46284, 1.033233, 0.211766, 1.389664, 0.349256, -0.535469, 0.151177, 1.195568, -1.833526, 0.056949, -0.028116, -0.281141, 0.376434, -0.109011, 2.385481, 0.730839, -0.060398, -0.633746, -0.420125, -0.021051, 1.445945, 0.776877, 1.312456, 0.573556, -0.725569, -0.278967, 0.448501, -0.023096, 0.651048, 0.409597, 0.739018, -0.633776, 1.178442, -0.516395, 1.238024, -0.061595, 0.010816, 0.311314, 0.771973, 0.131672, 0.133402, -0.120328, 0.961122, -0.135986, 0.143744, -0.526779, 0.23778, -0.502208, -0.135921, 0.129518, 0.522937, -0.679875, 0.121064, 0.066047, 1.638717, 0.55829, 0.559812, 0.37722, 0.090027, 0.415691, -0.322716, 1.083327, 0.262593, 0.63984, -0.503609, 0.460736, 0.573226, -1.568049, -1.330072, 1.50887, -1.017183, -0.024844, -0.009447, 0.152958, 1.240894, -0.52759, 0.08963, 0.654996, -0.254736, 1.014192, 2.458725, 0.786718, 0.678884, 0.380619, 0.311424, -0.160955, -0.790841, 0.295075, 0.889063, 0.168897, 0.290666, -0.295477, 1.260906, 1.301573, 1.681083, 1.915326, -1.548582, -0.521421, 0.412099, 0.590745, 0.892187, -0.136336, 0.023377, -1.786146, -0.134607, -0.03386, 0.88072, 1.428469, 0.520269, -0.026504, -0.155665, 0.125699, 0.680885, 0.117868, -0.114289, -0.716153, -1.028053, 0.621983, 0.522148, 1.487673, 1.753378, -0.100819, 1.052971, -0.34849, -1.692069, 0.055151, -0.397444, -0.176405, 0.380343, 0.776521, 0.051258, -0.393472, 1.134742, -1.030661, 0.272026, 0.383732, -0.065783, 0.167011, -0.088085, 0.352278, 1.981307, 0.499059, 0.632779, 0.052295, 1.461539, 0.129361, 1.014217, 1.57699, 0.445066, 0.973421, 0.176583, -0.49409, 0.865698, 1.772763, 0.697669, 0.51095, 1.139537, 1.274409, 0.165979, 0.440895, 0.487085, 0.582204, 0.867554, -0.378342, 0.558127, -0.99784, 0.788108, 0.051518, 1.201848, -0.049916, 1.67405, 1.244206, -0.058638, -0.571493, 0.832886, 0.362073, -0.46041, -0.07752, -0.901171, -0.014113, 0.50282, 0.665102, -0.372373, 0.965978, 1.336689, 0.220946, 0.687956, -0.100538, -0.389757, 0.717054, 0.701283, -0.181034, -0.582883, -0.23499, 0.892503, 0.580925, 0.174318, 0.384637, -0.298488, 0.618247, -0.184017, 1.045089, 0.788388, -1.643413, -0.244116, 0.584258, 2.329105, -0.003179, -0.836614, 0.584129, 0.668729, -0.461078, 0.975854, -0.363796, 2.189158, -1.522236, -0.197559, 0.80961, 0.37708, 0.153642, 0.227599, 0.366873, -0.380239, 1.474149, -0.218478, 0.372323, -1.13668, 0.838149, -0.215397, -0.536816, 0.916287, 0.362168, -0.018528, 0.777296, -0.441308, 0.624242, -0.062843, 0.585369, -0.646439, 0.007527, 1.719278, -0.098868, -0.299673, 2.577224, 1.548796, -0.095887, 0.752476, 1.224255, 1.095235, 0.621344, 0.763496, 0.938742, 0.674736, 0.525822, 1.395778, -2.040035, 0.736437, -0.079882, -0.043308, 1.228391, -0.180073, -0.144597, -1.054513, -0.881679, 0.518182, -0.269192, 0.173168, -1.685502, 0.028599, 0.228942, 1.38233, 1.902342, -1.045645, 0.4373, 0.885124, 0.281365, 0.307226, 0.495444, 0.017694, -1.423243, 1.572159, -0.056791, 0.154206, -0.022277, -0.372181, 0.198833, 0.842265, -0.302018, -0.296091, -0.557617, -0.437869, 0.299378, 0.125738, -0.517885, 1.288646, 0.663344, -0.01623, -0.288224, 0.19575, 1.120947, -0.067867, 0.693098, 0.780657, 0.167688, -0.157322, 1.506566, -0.956828, 1.028355, 0.095901, -0.8565, 1.38181, 1.553574, 0.467252, -2.157496, 0.355691, -0.652711, 0.10277, 0.201324, -0.146886, -0.515347, 1.077314, -1.082308, 0.785119, 0.196593, 1.037948, 0.7306, 0.789978, 1.286975, -0.472199, -0.124378, -0.706344, -0.365276, 0.02668, 0.448153, 1.33837, -1.023242, 1.542777, 0.634933, 0.97388, -0.151873, 2.208847, -0.817768, 0.078333, 0.076714, 0.032431, -1.103431, 1.328518, 1.133082, 0.443498, 0.138202, 1.137815, 1.031309, 0.760812, 0.707289, 0.667051, 0.250255, -0.376033, 1.01193, 0.697168, 1.047591, 1.251977, -0.113188, 2.031961, 0.749711, 0.540584, -0.289978, -0.530219, 1.483445, 0.208198, 0.613257, 0.520842, 0.516327, -0.763208, 0.790565, 1.878658, 0.362599, 1.508565, 0.303164, 0.821246, 0.750979, 1.031543, 0.200674, -1.01218, -0.697417, 1.286896, 0.442221, 1.050106, 1.234123, 2.568638, 0.885201, -0.733725, -0.965547, 0.325485, -0.15721, 0.213902, -0.309677, 0.191123, -0.88578, 0.706071, 0.19462, 0.400991, -0.318849, 0.235061, 1.236351, -0.472653, 0.953333, 0.793502, -0.082844, -0.413968, 0.00578, 0.42741, 0.42519, -0.591701, 0.3109, 0.470223, 0.584595, 0.180118, 0.04907, -0.091287, 0.502219, 0.568605, 0.02896, -0.152407, -1.267644, 1.813531, 0.03911, 1.817643, 0.224028, 1.307162, 0.30726, 0.861415, 2.008444, 1.264759, -0.6586, -0.18004, -0.320178, 1.571722, -0.280962, 0.190777, -0.966966, 0.164118, -0.836416, -1.703289, -0.996063, -0.374918, -0.565345, 0.11932, -1.113067, 1.82935, 0.844028, 0.763401, 1.037793, 0.88378, 1.885703, -1.475028, 2.591255, -1.255996, 0.497818, 0.842195, -0.817829, 1.644822, -0.176073, 0.062449, 0.482855, 1.042001, 0.97427, -0.765895, -2.227269, 0.194173, 0.830481, 1.352638, 0.570009, -1.240772, -0.70047, 0.132394, 1.931855, -0.588885, 0.672022, 0.982311, 0.577704, 0.258436, 0.41099, 0.251897, -0.402588, -0.158619, -1.705555, 0.182076, 0.369129, -0.72547, -0.605214, 1.071033, 1.12163, -0.259237, -0.199586, 2.420081, -0.540337, -0.143662, -0.135632, 0.181007, -0.170756, 1.135977, 0.617526, 0.367414, -0.271384, 0.938768, -0.106324, 0.882302, 0.962327, -9.9e-05, 0.243278, 0.050367, -1.116658, 0.120106, 1.337405, 0.211474, -0.021218, 0.483913, 0.114007, -0.81269, -0.019803, 0.245827, 0.775411, 0.499992, -0.432463, 0.013546, 0.305377, 0.169393, 0.825076, 2.248137, -0.360673, -0.646732, 1.205156, -1.001364, 0.147891, -0.322115, 0.191598, 0.322338, -0.914959, -0.089588, 0.713392, -0.04148, 0.641248, 1.286467, 0.44094, -0.567998, -0.331997, -0.545237, 0.930189, -0.501041, -0.457463, 1.361574, -1.846083, 0.337543, -0.576406, 0.20252, 0.892915, -1.19325, 0.372522, -0.050681, 0.368327, 1.220837, 0.539888, -0.028899, 0.70955, 0.072027, 0.482753, -0.254741, -0.16769, 0.111688, -0.474187, -0.175944, -1.026491, -1.400072, 1.382156, -0.355916, -0.350963, 1.249867, 0.75091, 0.304515, -0.118211, -1.796127, 0.135325, -0.182349, 0.954409, -0.597013, 0.708899, -1.074651, 0.419129, 0.212117, 0.208363, 1.013866, 0.260115, 1.549633, -0.334532, -0.07757, 0.163592, -0.112022, 0.247979, 0.734033, 0.49053, 0.910422, 0.312064, -0.447688, 0.633875, 0.629611, -0.5689, 0.714646, 0.608528, 0.257807, -0.735674, 0.541961, 0.730735, 0.472673, -0.694462, 1.19337, 0.695075, 0.424042, 0.267689, 1.058591, 0.669897, -0.089366, -0.681938, -0.55987, 0.753531, 0.049027, 1.263786, -0.374066, 0.121144, -0.755391, 0.490389, -0.306796, -0.857107, 0.435959, -0.062428, 1.326211, 0.12371, -1.47089, 0.018413, 0.095984, -0.099751, 0.266168, 0.745826, 0.911103, 0.521362, -0.669558, 0.370141, 1.296244, 0.599023, 0.587796, 0.445448, 0.28689, -0.265045, 0.036385, -0.019513, -0.40309, 1.151662, -0.286223, -0.035378, -0.233875, 1.188279, 0.436393, -0.433638, -0.555564, 1.107102, 0.024431, 0.368921, -0.168305, 0.695363, 1.090103, 0.339035, 0.611885, 0.219989, 0.583442, -0.224808, -0.590703, -0.097539, -0.690982, -1.339045, 0.396446, -1.52448, 0.991058, 0.175438, 1.081884, -0.169434, 0.893277, -0.137428, -0.329516, 0.440101, 1.552845, -0.20885, -0.796778, 1.229731, 0.037889, 0.312916, 0.093249, 1.485236, 1.390255, 2.806316, 1.514113, 0.815548, 0.638059, 2.024083, 0.157267, -1.91239, 1.536341, -0.123198, 0.714169, 2.14, 1.389324, 0.680545, 0.461056, -0.18224, 0.718466, 0.650943, 0.549364, -0.636699, 0.929471, -0.139052, 0.284642, 1.760058, -0.989952, 1.187268, -0.25546, -1.495481, -1.422322, -0.065556, 0.088397, -1.509857, 0.282335, -4.033875, 0.773548, 0.781084, 0.510059, 0.176471, 1.580752, 1.252022, 0.55338, 0.166416, 0.150627, -0.439396, 1.588686, -0.550986, -0.288234, 0.116143, -0.090702, -0.369665, -0.241408, 0.404568, 0.2297, 0.678221, 0.939071, -0.543361, 1.463231, -0.562646, -0.739644, 2.276604, 0.398063, -0.195553, -0.505342, 2.229562, 2.129035, -1.271883, -1.170131, -0.02189, 0.274717, 1.757185, 0.511666, -1.031023, 0.3276, -0.771851, 1.2299, 0.037158, 0.107598, -0.304866, -1.259104, 0.019521, -0.83153, -0.640172, -1.158339, -1.128768, -0.413032, 0.864202, 1.085286, 0.113282, 3.034599, 0.995504, 0.390072, -1.184174, 1.756594, -0.396538, 0.00039, -0.720601, 0.442455, -0.736831, 1.023372, -0.049403, 0.122531, -0.925164, 0.814824, 0.612341, 0.380718, -0.551227, -0.7102, 1.100556, 1.196463, -0.045064, -0.177044, 0.200268, 0.502868, -0.212182, -0.904346, 0.689113, -0.399561, -0.570456, -0.65346, -0.078525, 1.10484, -0.579739, 1.380939, 0.875147, -1.631624, 0.415792, 0.233583, 0.870045, 1.360657, 1.244468, 0.428533, 1.746308, 0.741751, -0.297719, 0.902966, -3.064825, 1.813987, 0.115286, 0.801454, 1.560099, 1.255691, 1.717957, -0.371841, -0.699406, 0.651285, -1.789455, -0.122225, -1.051764, -1.350677, 1.266795, 1.091637, 1.725073, 1.026463, 0.186568, 0.747891, -0.205685, 0.450625, 0.190701, -0.551894, 0.291287, 0.464419, -1.744084, 2.329999, 0.454569, 0.345189, 0.799763, 1.558482, 0.530804, 0.290283, 0.488257, -0.955432, 0.458925, 2.427484, -0.270715, -0.148377, 0.412868, 1.545588, 0.111403, 1.223187, -0.197746, -1.327428, 0.916328, -0.289561, -0.086072, 0.01656, 1.544582, -1.368284, 0.200544, -0.325834, -0.109277, -0.201739, 0.480214, 0.84866, -1.551286, -1.382913, -0.449564, -0.220222, 1.16679, 0.151584, -0.676634, 1.086203, 1.10318, 0.669302, 1.166713, 1.214552, 0.347458, -1.588468, 1.246915, -0.02332, 2.406744, -0.917696, 0.079754, 0.643644, -0.960755, -0.079777, 0.27148, 0.803306, -0.738636, -1.030856, -2.08212, 0.348998, 0.884947, -1.120913, 0.56986, 0.548282, 0.476846, 0.357955, 1.373257, 1.46272, 1.082686, 1.693065, 0.650654, -0.730433, 1.055761, -0.322095, 1.560842, 0.848681, -1.445008, 0.439978, -0.107305, 0.434991, 0.255805, 1.365342, -1.557897, -2.042376, -0.571489, -0.18377, 0.473897, -0.541889, 1.143449, 0.631508, 0.630819, -0.92322, 2.085931, 0.133118, -0.685079, 1.17812, 0.664615, 1.02581, -1.066779, 0.518657, -0.077836, -0.188495, -1.119423, 0.514639, -0.660916, 1.208837, -0.876738, 2.205843, 0.902283, -1.4827, 2.082073, 0.804461, 0.832247, 0.515727, -3.581138, -0.170969, -0.486885, -0.807521, 1.012038, 1.123063, 1.01376, 0.223963, 0.936208, -0.736296, 0.042727, -0.477676, 0.805582, 0.045044, -1.323748, 1.283185, -0.17517, 1.188581, -0.016307, 1.526913, 0.403719, 0.418076, 1.690573, -1.532072, 0.204995, 1.373639, 0.402546, 0.479026, -2.008924, 1.64009, 0.490035, -0.044828, 1.027122, -0.512936, 0.790126, -0.240604, 1.226314, -0.151026, 0.167552, -0.403656, 0.547312, 1.369034, -0.324482, 0.403172, -1.187593, 0.969914, -0.812041, -0.961603, -0.601954, -1.797993, 0.542054, 0.086321, -0.800067, -0.336005, 0.450978, 0.758612, 1.480867, -1.031539, -0.350594, 0.304179, 1.659154, -0.158851, 2.627861, 0.437191, -1.591941, 0.106224, -1.364602, 0.740634, 1.071099, 0.532232, -1.741746, -0.183086, 0.676232, 1.580147, 2.063952, -0.002725, 1.286916, 0.953255, 0.673543, 0.689946, 1.29635, -1.470183, 1.447622, -0.076629, 1.810405, -0.163273, -0.051804, -2.144286, 0.981719, -0.83199, -0.043202, 1.337823, 1.052892, 0.530122, -0.106392, 1.540503, 1.80334, 0.552939, 1.018719, -0.206833, 0.237896, -0.125771, 0.100537, 0.455071, 0.033162, 0.907904, 1.140073, -0.552688, -1.713907, -0.055619, 0.320203, 0.126562, -0.868011, 0.68993, 0.738335, 0.833958, -0.320139, 1.137332, 0.218613, -0.046534, -0.80502, -1.041011, 0.896263, 1.551935, 0.489108, 0.872271, 1.673525, 1.275215, 0.377471, 0.469063, -0.710885, -0.49267, 2.879983, 0.211523, -0.899776, 0.838732, 1.74158, 0.919261, -0.197968, 0.766238, 0.150143, 0.000173, 1.510116, 0.176273, -0.504453, 1.408588, 0.131703, -0.032243, 1.490544, -1.252235, 0.094466, -0.741945, 0.570916, 0.119209, -0.88777, 0.419106, -1.770241, 1.327055, -0.096837, 1.154766, 1.207834, 0.217623, -0.417364, 0.943776, 0.748664, -0.535484, 1.297176, -0.942969, -0.676371, 0.225803, 0.374559, 1.137087, -4.144797, 1.353989, 0.312723, -1.216873, -1.747838, -1.266613, 0.019907, 0.545323, 1.881533, 0.181038, -0.342334, 0.846249, -0.105285, -0.085319, 0.515088, 1.060895, 1.822182, 0.202476, 2.416083, 1.159914, 0.387299, 1.047233, 1.208137, -0.820063, 2.265909, 1.059682, -1.419804, -0.632603, 0.868031, 0.073266, 0.394248, -0.0402, 0.674588, -0.069627, -0.087184, -0.067827, 1.170911, 0.829171, 1.269211, -2.357368, 0.110115, -1.452519, 1.760724, -3.120318, 0.337287, 0.807969, 0.345003, 0.15993, 0.602526, 2.226922, 0.15995, 0.220811, -0.170196, 1.053071, -0.375434, 1.150102, 0.393999, 0.299758, 0.667863, -0.003349, -0.237358, 0.461733, 0.859885, -0.487746, 2.741841, 3.491575, 3.424505, -1.272117, 1.974772, -1.158678, 2.137585, 0.103208, -0.531132, 1.166887, -0.863628, -1.220682, 3.170002, 0.455851, -0.140571, -0.141909, -1.726722, -2.803643, -0.604702, -0.653427, -4.326519, -0.673054, -0.819165, 1.347872, 0.008318, -0.238595, -0.230594, 0.646343, -1.054763, 0.928495, 1.108082, -1.390207, -0.851371, -1.073852, 0.731259, 0.370715, 1.057245, 0.716221, 0.936673, 1.375083, 0.58092, 1.90618, 1.19154, 0.942174, 0.82552, 0.309767, 0.524167, -0.256983, -0.7123, 1.659094, -1.163422, -1.343898, -0.800609, 1.578676, 0.045658, -0.552225, -0.585864, -0.284587, 0.122836, -0.077254, 1.06012, -1.420873, -0.20413, 0.67766, 1.687598, 0.547953, 3.595789, 1.780483, 1.238912, -3.512431, 0.448051, -0.681666, -2.298998, 0.934497, -0.731094, 0.696061, 1.073733, 0.662126, -0.237374, 0.761185, 1.767707, 0.21788, 0.71994, 0.704542, -1.306033, -1.514189, -0.456737, 0.986929, -0.33184, 1.208546, 0.575441, -0.527057, 0.184225, -0.050955, -0.273911, -0.914076, -0.587546, -1.282108, -1.023174, 0.796783, 0.961826, 1.240885, -0.328008, 2.624851, 0.350761, -2.002449, 1.692606, -2.16317, -0.598747, 0.335811, -0.762453, 0.94537, 1.026245, 2.427374, -1.100427, -1.32375, -0.521083, -0.934094, 1.467589, -0.607749, 1.399733, 0.313216, 1.7916, -2.46485, 0.01899, 0.268409, -1.469717, -0.33856, 3.57953, 0.202429, 1.101897, -1.137701, 0.864203, -1.578005, 1.040201, 0.983148, -2.425153, 3.401151, -0.151155, 1.838582, 1.895949, 0.260195, 0.269704, 0.504863, 0.990379, 1.362313, 1.027411, -2.4274, -1.250358, -0.776801, -0.339778, 1.289276, -0.762814, 2.188493, -0.134893, -0.46055, -3.188649, -1.529068, -1.180498, -0.140067, -0.541449, -0.683075, 0.077243, -0.208844, -1.039652, 2.315429, -0.233325, 1.666926, 1.269202, -1.047009, -0.13265, -2.307654, 1.246767, 0.058419, 0.50966, -0.024245, 1.711294, 2.62012, 0.581473, -1.123055, -2.2e-05, -0.79938, 0.098088, 0.447655, 0.848619, 0.019131, 2.510997, -0.517961, -0.287454, 0.389483, 1.148954, 0.453269, 1.694947, 1.100809, 3.136925, -0.461753, 1.90635, -1.411137, -0.048679, -0.359427, -3.302315, 2.17474, 0.634675, 1.564829, 2.640575, 0.300554, -0.872629, -0.499078, -0.961828, 0.420806, -0.238524, -0.039392, 1.098863, -1.567165, 0.521408, -0.321684, 0.14579, 1.33518, -0.945153, 0.177484, -0.953351, 0.266867, -0.327932, -0.742006, -0.352635, 0.672611, -1.672388, 0.713516, -0.596027, 0.524819, -1.073416, 0.71079, 2.224479, -0.085501, 1.114187, -1.742216, -0.080196, 1.18952, -1.591282, 0.815635, -0.783213, 2.880445, -1.5836, -0.0692, 0.589413, -0.718334, 0.897654, -0.289198, -0.680905, 0.1346, 1.497497, -3.270127, -0.010171, 0.78138, 0.226646, 0.318102, 0.076015, 1.085324, 1.312393, -1.22376, 0.09676, 1.890029, 0.019385, -0.432182, -2.309307, 1.449793, 0.738588, 0.99992, 0.118215, 1.326311, 0.990957, -0.003427, 1.090045, 0.480968, 3.607203, 0.954934, -1.837652, -1.693812, -2.747697, -0.081266, -0.140448, 0.958621, -0.105692, -0.272889, -0.489571, 0.661671, -0.089994, 0.422849, -0.142077, 1.80452, 0.350119, -0.644292, -1.928846, 0.731125, -1.846498, 1.637248, 1.680722, -1.496294, 0.416228, -3.044677, 0.599584, 1.2634, 1.004779, 0.181525, 1.435887, 1.43814, -0.342096, 0.270916, -0.123582, 0.950046, 0.597255, -0.226034, -0.057377, 0.318498, -0.416788, -3.668091, -0.84326, 1.568178, -0.867368, -0.653009, 0.389333, -0.151771, 1.374197, -1.286651, -2.048016, -2.319845, -1.186285, -3.009528, -4.279243, 0.513726, 0.63722, 1.273276, -0.692525, 0.002606, -0.168966, 0.845239, 1.728325, 1.337597, 3.879341, -1.169433, 0.603021, -0.81933, 0.306522, -0.201103, -0.121342, 1.883853, -0.82055, -0.588043, -0.037053, -0.735003, -0.328702, 0.661035, 2.532579, 1.673802, -1.415307, 0.746657, 0.498159, 1.231506, -1.088898, 0.885936, 0.553721, -0.273529, -0.039624, -3.856244, -0.534532, 0.168135, -0.644762, -0.000725, -1.170951, 1.179175, -0.265802, 0.248953, 1.650456, 0.818172, 0.487109, 1.85855, 1.093885, 0.488804, 2.132529, 1.021451, -0.739248, -0.374258, 0.13726, -0.156624, -1.227358, 1.09602, 1.95708, 0.546572, -0.516281, -0.748345, -0.565051, -0.217223, -1.012463, -0.356509, 0.031514, -0.281652, 0.808574, -0.086926, 0.243028, 1.99174, 0.088714, -0.668157, 2.578923, 0.522115, -0.730743, -0.399558, -0.32488, 1.311878, 0.626822, 1.48718, -0.328704, -0.29864, -0.399252, 2.03518, -0.206754, -0.551929, 1.941547, -0.254891, 0.951814, 0.44617, 1.44357, -0.1573, -1.1055, -2.258923, 2.506573, -0.391491, 1.838434, -2.642911, -1.591271, -1.203357, 0.321204, -0.419339, 1.147066, 1.842989, -1.345758, 0.597507, 1.732855, -0.249848, 0.155098, 1.023022, 0.8416, -2.270129, 1.096515, -3.791508, 1.280541, 0.518453, 1.213299, -0.435413, -0.494207, -0.485199, -0.243693, -3.090544, -1.018547, -0.077, 1.717719, -0.183345, 0.433605, 0.215703, 0.244119, -0.185768, 1.127828, 0.913805, -0.058455, 2.52222, 0.023003, -0.201255, -0.892898, 1.72085, -1.491854, -0.327769, 0.744852, 1.273981, 0.080754, 0.079352, 0.671593, -0.235464, 0.196068, -0.874608, -0.887747, 1.215156, -0.289141, -0.434716, -1.399547, -0.521583, -0.096514, -0.459411, -1.598095, -1.883394, 1.3446, -1.175613, -0.494604, -1.875499, 0.687365, 0.88243, -0.402726, 1.938376, -1.846903, 1.437037, 0.026382, 0.394674, 1.418741, 1.61337, -2.084027, -0.720275, 0.552343, 0.116964, 1.557239, 0.77806, 1.738408, 2.868946, 0.387686, 0.041557, 0.551211, -2.270075, -0.654661, -0.475934, -0.935157, 1.043946, 0.634625, 0.73044, -0.882426, 0.052507, 0.776752, -1.796271, -0.522986, -0.622321, 0.24515, -1.894561, 1.783129, 0.058252, -1.00692, 0.464004, 0.509502, -0.363569, -0.510769, -0.488381, 0.121547, -1.591415, -0.628327, 2.093522, 1.545909, -1.383026, -1.494559, -0.015226, 1.153938, 0.319419, 0.497238, -0.785519, -0.497762, -0.081336, 0.245615, -0.527347, 0.220816, 1.721629, 0.146635, -0.61549, -1.189423, -0.611418, 0.151897, -0.352428, -0.683308, 0.650039, -0.099321, 0.219403, -0.083844, 1.721647, 1.313604, 1.003747, 1.385534, 2.289172, 0.479655, -1.851267, 1.157028, 1.110434, 0.283385, 0.599667, -1.326285, -0.038759, -0.718455, -0.09976, -0.71901, -0.333918, 1.168853, -2.049776, 0.880962, -1.560117, -0.186629, 1.523474, -0.190186, -0.60931, 0.516621, -0.376534, 0.84755, 1.460752, 1.236914, 0.407665, -0.309307, -0.559926, 1.284444, -1.064327, -0.014371, -0.531847, 0.224286, 0.594195, 1.073578, 0.747584, 0.77007, 0.181799, -1.200134, -0.098389, 0.581721, -0.005447, -0.584292, 0.025008, 0.908036, -0.049912, 0.118694, 0.203809, 1.176235, -0.066209, -0.224406, -2.151922, -0.755294, 3.049966, 0.397184, -1.643975, -0.362455, 0.350735, 0.52439, -0.800194, -0.173104, -0.22561, -0.917757, 0.822052, 0.32284, -0.51245, -0.849555, -0.838039, -1.427463, -0.893069, 0.005994, 1.255969, -0.034201, 0.050083, 0.932267, 0.059501, 1.729995, 1.554065, 0.474962, -0.135903, 0.430938, -0.889409, 0.555928, -0.362526, -0.930013, -0.517566, -0.787708, -1.235294, 1.025176, 0.412432, 0.283136, 1.076407, -0.326034, -1.085029, -0.65674, 0.297632, 0.341051, -0.290468, -0.808277, 0.321029, -0.058379, 2.452188, -0.899749, 0.773574, -0.258013, -1.048448, 2.288289, -0.616335, 0.378487, 1.897908, 1.03499, 0.383685, 1.273555, 0.60988, 0.002875, -1.224281, 0.606797, -0.808518, -1.244514, -0.566457, -0.034024, -0.540004, -0.75295, -0.838934, -0.484104, 0.633835, -0.556496, 0.429703, 0.215713, 0.391117, 0.894778, 0.583639, 0.046578, -1.299631, -0.970553, 2.014427, 0.562185, 0.168079, -2.307842, -0.513391, 1.26586, 1.21906, -0.810538, -0.973348, -0.424842, 0.585294, -0.606205, 0.387229, 1.364149, -1.466636, 2.540899, -0.837554, -0.269321, -1.5112, -0.188539, 1.550318, 2.319497, -0.603319, 0.041881, 1.904628, 0.154025, 0.11534, 1.029311, 0.329126, -0.151835, 1.302179, 0.458539, 0.284181, 0.855048, -1.843595, -1.546513, -0.423331, 0.72183, -1.745164, 0.363191, -0.520729, 0.8375, -0.590813, -0.154226, -0.339783, -1.209791, 0.423542, -1.645284, 1.998284, 0.672053, -0.202124, -0.827797, -0.945447, -0.91552, -1.259831, -0.78116, -0.417835, 0.235181, -1.847004, 1.811353, -1.854933, -0.787204, 0.062566, 0.653583, 0.534414, 1.058022, 2.593828, -0.55336, -1.10774, -0.153075, 0.457677, -0.877432, -0.316677, -2.937071, -1.242587, 0.359635, -0.763244, -0.370172, 0.540685, -0.315361, -0.85253, 0.668528, -0.145025, -0.130105, -0.402285, 0.336903, 0.546607, -0.184979, -0.746594, -0.680487, -0.510266, 0.996083, 1.488366, 0.244026, -1.067182, 2.245774, -0.183733, 0.165948, -0.192702, -0.896113, 1.581441, -0.230526, -0.311641, 0.27532, -0.081743, -0.398396, 1.151616, -0.585513, -2.127561, 0.149877, -1.770863, 0.065272, 0.298946, 0.619728, 0.104819, 0.180948, -0.972513, 0.504043, 1.729001, -0.653472, 0.241808, 1.855913, -0.186973, 0.818107, -0.926878, 1.339529, 0.486525, -1.722211, -0.444187, 0.318512, 0.828798, -1.366957, 0.627612, -0.694465, -0.269814, -1.621147, -0.123701, 0.814845, -0.992979, -0.815251, 0.058119, 0.582955, 0.073142, 0.208543, 0.749676, -1.599613, -0.072171, -0.736894, -0.869237, 0.593477, -0.193208, 0.229684, 0.904391, -1.978803, -1.69679, -1.418369, 0.364234, -0.795884, 0.554473, 0.007897, 0.318828, 0.787776, 0.197086, -0.9275, 0.517858, -0.053184, 0.755612, -0.795987, -0.562149, -1.029779, -0.272985, -0.485264, 0.14533, -0.475022, 1.74089, -0.603852, -0.922923, -0.547747, -2.707146, 0.229389, 0.708926, -0.922635, -0.002866, -0.765775, 0.698509, 0.035057, -0.666566, -2.061524, -0.619694, -0.235867, -0.37433, -0.802769, -0.485502, 1.291282, 0.569427, -0.746206, 1.401268, -0.148357, -0.580159, 0.557758, -1.437521, 0.873515, 0.584732, 0.433047, -1.45167, 0.361049, 0.138848, -0.326898, 2.016587, 0.61355, -1.231659, -2.031863, 1.543398, 1.715655, -2.219488, -1.402345, -0.693422, -0.652282, 1.872121, -2.136399, -0.298308, -0.658159, 1.161092, -0.09348, 0.926984, 0.51356, 1.603726, 0.206133, 0.90962, 0.39679, 0.561643, 1.407997, -2.520931, -0.220543, -1.400748, -1.196462, -0.997355, -1.485426, 2.243964, -1.236659, -0.526095, -1.127853, 0.273559, -0.554562, -0.618742, -1.048613, -0.488033, 1.118413, -0.149682, 1.369389, -0.034242, -1.180728, 1.436213, -0.718691, 0.435135, 1.928461, 0.833795, -0.97949, 0.173819, 2.66167, -2.224026, 1.612047, 0.326612, 0.364899, 0.995388, 1.489599, -0.845693, -0.174166, 0.978221, -0.361473, 0.721562, 0.658923, -1.323115, -1.164223, -1.597614, -0.246351, 1.895304, -0.002337, 1.350991, 0.065835, -0.897471, 0.777431, 1.36478, -0.263775, 1.075704, -0.169083, -0.967692, 1.106389, -1.175958, 1.809316, 0.271589, -0.074177, 0.234067, -0.278078, 0.752209, 1.652168, 2.615408, -0.045339, 0.126082, 1.376003, 0.635884, -2.085103, -0.744166, 0.734561, -0.614036, -0.097786, -0.252533, -1.253116, -2.682141, 1.359614, 0.125538, 0.388637, 1.507089, 1.478387, 0.905999, -1.07478, -0.765806, 0.12747, 1.316519, 0.83566, 0.760178, 0.631077, 1.491981, -0.747599, -0.482439, 0.795188, 0.36048, -1.301288, 2.133089, -1.137426, 1.110101, 0.442361, -1.248738, -0.551398, 0.103526, 0.747503, 1.225098, -0.303841, -0.665586, 0.0344, 1.938746, -0.966605, -0.759672, -0.130092, 1.929719, 2.179936, -1.073402, -1.58612, -1.20629, -1.771197, -0.637921, 0.961986, 0.428927, -0.895005, -0.882963, 0.202201, 0.022322, -1.485371, 1.379573, -0.712718, -0.400059, 0.649753, 0.928931, 1.675179, 2.426341, -2.540103, -0.457962, 0.558129, 1.035675, -0.030769, 0.392443, -0.276674, -3.350361, 0.544655, 0.490053, 0.436975, 0.476299, -0.39044, -1.156042, -0.10941, -0.908849, 0.262949, -0.130422, 1.674214, 1.397867, -0.207767, -1.218468, -0.32958, -0.997043, -0.791484, -1.359651, -0.018283, -0.879025, 0.703707, -0.755717, 1.39163, 1.399556, 0.472423, -0.043256, 1.208659, -1.629003, 1.265593, 0.900424, 0.173698, 0.679951, -0.99961, 0.550223, -0.221322, 0.33362, 0.493265, -0.745836, -0.777732, 2.263906, 1.968347, 1.131847, -0.210028, -0.380067, 0.585347, -0.457915, -1.151216, 0.581109, -0.700564, 1.147647, -1.147886, 1.012211, 0.631851, -0.419415, 1.075591, -0.60949, -0.531666, -2.560647, 0.130637, -1.959515, 1.349583, 3.603411, -1.24546, -1.174049, 0.110167, 0.282942, -0.96546, -0.171836, -0.115955, 0.047701, 0.132021, -0.018695, 0.719625, 1.010268, 0.252566, 1.407554, 0.060541, -0.004783, 2.143581, -0.664311, -0.581317, -0.205312, 1.455094, 0.124415, 0.495307, 0.477499, 0.734601, -0.109501, 0.488645, -0.922122, 1.09191, 1.333257, -0.439542, -0.708506, -0.893389, -0.227738, -1.466542, -1.581923, 1.079913, -0.567369, -0.132952, 1.435457, 0.464681, 0.763576, -1.362631, -1.724628, -1.833136, 0.522963, -0.7382, -0.485725, -0.012658, 0.847453, 0.383508, -0.067919, 0.855178, -1.054269, 0.162714, -0.930886, 0.526098, 1.43634, -0.727681, 1.269154, -0.249705, -0.927918, -2.089085, 2.71437, 1.424168, -0.113528, 0.934204, 1.084535, 0.243139, -1.453298, 0.334042, 0.530766, -1.03682, -1.247358, -2.169665, -2.103529, 0.508499, 1.058222, 0.009969, 2.290034, 1.197197, -0.635843, 0.628636, -0.986831, 2.052829, 0.252721, -0.082501, -1.359417, -1.184582, 0.916132, 1.630996, -0.864518, -0.149932, -0.885998, -1.454819, 0.241406, 0.673222, 0.60286, 0.542488, -0.024217, -0.08058, 0.92472, 0.858225, -1.968828, 0.568501, -1.051511, -0.195401, -0.685275, 1.736868, -0.022267, 1.314327, 1.218527, -1.072547, -1.523509, 1.87552, 0.125531, 1.42635, -0.499618, 1.542062, -0.976825, 1.069356, -1.347739, 1.736795, -0.278099, 0.177303, 0.852237, -0.003789, -1.008286, 1.362833, 1.143401, -1.48526, -0.376367, 1.425408, -1.464893, -0.815942, -1.679483, 0.108615, 0.375688, 0.133654, -0.311534, -0.395876, -0.388141, -0.636394, 0.555443, 0.615994, -1.630355, 0.492836, -0.31705, -0.817532, -3.252347, 1.130259, 0.269972, -1.092404, 0.175625, 0.382672, -0.024739, 0.029735, -0.652839, 0.579118, -0.767205, 1.105738, -1.410211, -1.487632, -0.746981, 0.457526, -0.716627, -1.063528, 1.090538, -1.165143, -0.591941, -0.907532, -1.044823, -0.754515, -0.991418, -0.107578, -1.218803, -0.935562, -1.127133, -1.297679, -1.40156, -0.187524, 0.948564, 2.467828, 0.4618, -0.099482, 1.365901, 0.175342, -1.424489, 0.847314, 0.15222, -0.971723, -0.066137, 0.698795, -2.430328, -0.332582, -1.289642, 0.52754, 0.781514, -0.495303, -0.964215, 1.706538, 0.164247, 0.491781, -0.25955, 0.1284, 0.087038, 0.939379, 2.150533, -1.414031, 0.868917, 0.399768, -0.050905, -0.770667, -0.706388, 1.207872, -0.127793, 1.173176, -0.702659, 1.538069, -0.026388, -0.042126, -0.669171, 1.639269, -1.248834, 2.625142, -1.357054, -0.519254, 0.147503, 0.627451, 0.131453, 0.34938, 0.010779, -0.53642, 0.289696, 0.961776, 0.708582, 0.375192, 1.726902, 0.884841, -0.222858, -0.333345, -0.156605, -0.473754, -2.287819, -0.340778, 0.650283, 0.371504, -0.109674, -0.818456, 0.919944, -0.26991, 0.130792, -0.301915, 0.565389, -0.175912, 1.195946, 0.759726, -0.223897, -1.816651, -0.764129, -0.625104, 0.010713, 1.348307, 1.731181, 0.695264, -0.759959, 1.489955, 0.890138, -0.700266, 0.989494, 0.252355, -0.378071, 1.457379, 2.103734, -0.665673, -0.804927, 0.408512, -0.100767, -0.245883, 0.182478, 0.569419, -2.014614, 0.407228, -0.473562, 2.239639, 1.614903, -0.508733, 1.785134, 0.416274, 0.519731, 0.842605, 0.038118, 0.842512, 1.391439, 0.232046, 0.199941, -0.59527, -1.210294, -0.489337, -0.780653, -1.01626, -0.65571, -1.003386, 1.576471, 1.111166, 0.922379, 0.161046, -1.840407, 0.787852, -0.12522, 0.577234, 0.615116, -1.559095, 0.095892, 0.384023, -0.726799, -0.200098, 0.185482, 2.318014, 0.936765, -0.547166, -1.019115, 1.815881, -2.247931, -0.957749, 1.745418, -0.020887, -0.728616, -1.289164, 1.59084, 0.405044, 0.385984, 0.902111, -0.447714, -1.638685, -1.316697, -0.544905, -1.929544, 0.872511, -1.156204, -1.914495, -0.612041, 0.715787, 0.757386, 0.502424, -0.201374, 1.175153, -1.133464, 0.968042, -0.541565, 1.567669, 0.198601, -0.520733, 0.810786, 0.091969, 0.677909, -1.156668, -0.717876, 2.235508, -0.393101, -0.248267, 0.827697, -0.168871, 0.001005, -0.587634, -1.063704, 0.674459, 2.617866, -0.465018, -0.814503, -1.324354, 0.697853, -1.269513, -1.435832, 0.169786, -1.238625, -0.236554, 1.084131, -1.462455, -0.90046, -1.168788, -0.578555, -0.615913, -0.867665, 1.879303, -0.129497, -1.655591, -0.083631, -0.771979, -0.020609, -1.199656, -1.681391, 1.162351, 0.874707, -0.329025, 0.192383, -1.648622, 0.103593, 2.745551, -0.702787, -0.34018, 2.083093, 0.755406, 1.378745, 1.17809, -0.664208, 1.189486, 1.212378, 2.060483, -1.13865, 0.914112, 0.21564, 1.052736, -1.001574, -1.81353, -3.08779, 3.85766, 0.461049, 0.365514, 0.082884, -0.058954, 0.670514, -0.209169, 0.628335, 1.393313, -0.105074, 0.305624, 1.212322, 0.964115, 0.907099, 1.568248, 0.279176, -0.368057, -1.246772, -1.90097, -0.515361, 0.728861, 0.635782, 1.089047, 0.118183, 0.712346, -0.414858, 0.88461, 0.178332, 0.009021, 1.605479, 1.471638, -2.143399, -1.483617, -4.076169, -0.16733, 0.09217, 0.048589, 0.557122, -3.061998, -0.104571, 1.39213, -0.883731, 1.154753, -0.531889, -0.217977, 1.238644, -0.466118, -1.873296, -0.788575, 3.277165, -1.212296, -0.24278, 1.506402, -2.22179, 0.623599, 0.471202, 1.878604, -1.006433, -0.0534, -2.164827, 2.836229, -1.947586, 0.845782, 0.373547, 0.686248, -0.55201, 1.356048, -1.811748, 0.645095, -0.187433, -0.755913, 0.472876, -0.453053, -0.476728, 2.013781, 1.073514, 0.89584, 1.521978, 0.088931, 1.054634, -1.203474, 0.677504, -2.211965, -1.876701, -1.389598, 0.946763, -0.120808, 0.549936, -1.203281, -1.563547, 0.790919, -1.512446, -1.709889, -0.136486, 1.097486, 0.834811, 1.804577, 1.924421, -2.533649, -0.459413, -0.365209, 0.969651, -0.186757, -0.087885, -1.400827, -1.459838, 0.542369, 0.063542, -2.078203, 0.081253, -0.001284, -1.255798, 2.001942, 3.398306, -1.202854, 1.423674, 2.05384, 0.376852, 1.60336, 0.037884, -2.285434, 0.541462, 0.704372, -0.914747, 1.910313, -1.677146, -1.70764, 0.055562, 1.133352, 0.757419, 1.527716, 0.136496, -0.159468, -0.386867, 0.029333, -2.274552, 1.085548, 1.469588, 2.417362, 1.269223, -0.774211, -0.736502, -0.48074, 0.243703, -1.613286, -0.846488, -1.333126, -2.119614, 1.406808, 1.05652, -0.905783, 0.935704, 0.502833, -0.161577, -1.145685, 0.662444, -3.718136, -0.520054, 0.27871, 3.148721, 0.356979, 0.956347, 1.62266, -0.303673, 0.469719, -0.301564, -1.830451, 0.463253, 2.898465, 1.745564, 1.323942, -0.176245, 0.952776, 2.128684, -0.984305, 0.84608, 0.57419, 3.597301, -0.910238, 0.04542, 0.518529, -0.749784, 0.911093, 0.588016, 1.765225, -0.882321, 0.329116, 1.372247, 2.169203, -1.55167, -0.347181, 1.022864, 2.044597, 2.414834, 0.468352, -0.239665, -1.068814, 0.502003, 0.851943, -1.387127, 2.081498, 1.162424, 2.146088, 0.729499, -2.46112, -1.278932, -0.034607, 0.842355, -0.837159, 0.441293, -0.585817, -2.02562, -1.244609, 0.121093, -0.230204, 0.844359, 0.592433, -1.655902, -0.595296, 0.011422, -2.631664, -0.412829, 1.000118, 1.161256, 0.722458, 1.288527, -2.299293, 0.779223, -0.550936, 1.569553, 0.606006, 1.196993, -0.36262, -1.802754, -1.675366, -1.284143, 1.353642, 0.403178, -1.044228, 2.931753, 0.859875, -0.006315, -2.164944, 1.326091, -0.316819, -1.45133, -0.281949, -0.984987, -0.279372, 0.239734, -0.100649, 0.711227, 2.403136, 0.307665, -1.580446, 1.553823, 0.399012, 0.78364, 0.680415, -0.926178, 0.121555, 0.634, 1.079734, 0.326277, 2.143363, -0.300826, 2.071953, -1.663818, 0.633697, 0.083156, 0.334888, -0.291644, -0.863205, 0.137502, -2.523231, -0.851813, -0.227619, 0.402879, 0.377167, 0.498552, 0.392684, -0.918571, -1.772487, -0.15254, -0.884228, 0.601823, 1.172939, 1.1642, -0.248532, 2.608316, 0.83824, 0.098257, -0.85706, 0.666405, 1.201126, 1.335804, 2.030285, 0.432422, -0.899619, -0.155213, -0.849593, 0.302981, -2.017011, -0.446843, 0.408469, 2.490661, 1.330829, 1.776109, 0.14628, -1.391773, -0.162241, -2.503807, -2.129661, 0.395534, -0.103248, 0.97037, 1.18433, 1.252484, -0.013191, 2.113387, -0.013103, 1.058033, 2.263465, 0.096075, 1.844382, 1.561013, 1.412443, 0.494578, 0.070238, 0.440394, 0.804242, -1.283083, -1.138549, 0.594953, 1.307074, 0.246077, 1.104077, 1.439151, -1.655929, -0.21043, -0.942054, 1.291605, -1.572042, 2.144205, 0.086189, -1.248171, -1.926849, 0.782194, 0.697847, -0.874364, 1.005273, 0.605957, 0.596001, 0.807764, -1.410541, -0.091219, -0.772771, 0.517033, -1.085574, 1.229061, 0.777506, -0.010572, 0.588894, -0.876562, -1.558369, 0.56108, -1.636855, 0.917037, 0.770801, 2.98351, 0.545122, 0.379403, -3.564086, 0.119207, 0.430166, -1.02508, -0.928833, 0.046091, 1.329029, 1.230117, 0.789101, 2.274415, -0.523962, 1.376047, 0.788946, 1.303981, 0.624802, 0.076728, 0.102314, 0.268167, 0.405167, -1.858509, 1.086063, -1.654422, -0.275017, -0.665592, 0.429061, 1.175701, 1.147541, 1.077544, 2.396301, -0.980938, -0.986259, -0.737833, -0.371463, 0.838437, -0.710694, 1.097609, 1.440468, -1.182311, 0.933516, -0.020932, 0.51969, -0.565905, -0.208419, -1.103538, -1.195679, 0.529618, 0.034252, 0.235272, 1.457942, 1.153045, -0.271027, 1.224833, 2.018297, -0.618047, 0.89678, -0.193359, -0.033224, 1.495665, 1.508055, -0.723463, -1.353208, -0.785262, -0.311119, -0.151196, -0.106412, 0.256429, 2.267086, 0.618887, 0.432799, -0.355688, 1.835138, 0.551703, 0.317258, 2.961112, -0.918344, 0.689171, -1.582756, 1.247153, 1.247941, -0.145577, 0.674539, 0.727898, 1.57623, 1.413673, -2.366125, -0.319064, -0.030614, -0.707394, 0.07544, -0.812307, 1.587089, 0.450954, 2.689463, 1.00018, 0.42, -0.329775, -0.078297, 0.136862, -0.973975, 0.685246, 0.715121, -2.047276, 2.215552, -1.095621, 0.388381, 0.240888, 0.79669, 0.384215, 0.155608, 1.030792, 0.0201, -2.634778, -0.680975, 0.090221, 0.125086, -0.015906, 0.788058, 0.035278, -1.304239, 0.451378, -0.505671, 0.419231, 1.776211, 1.078868, -0.525395, 1.20503, 0.32137, 0.123647, 1.540907, 0.464734, 1.571737, -0.164491, 2.892942, -0.195465, -0.232164, 0.220329, 1.752117, -0.347606, 1.734625, -0.712922, 0.081161, 0.684396, 2.018023, 0.58296, 0.341596, -0.058144, 0.748846, 0.65825, 0.03192, -0.369711, 1.523861, 0.721427, 0.984906, 0.968199, -0.201126, 0.537165, 0.165045, 0.431211, 1.118845, 1.145205, 0.177514, 0.641177, 1.527315, 1.087116, 0.590275, 1.048922, -1.528389, 0.000825, -0.02032, 0.951978, -1.034144, 0.011793, -1.898809, -0.136888, -2.13815, 1.233105, -0.900263, -0.464442, -0.885067, -1.08909, -1.307398, 0.197636, 0.985964, 0.523471, 0.401274, -0.469025, 1.92102, 0.026824, -0.406818, 0.367758, -0.426145, -0.315848, 0.942923, -0.634388, -0.054209, -0.036545, 1.114628, 0.080047, 0.399831, 0.399832, 0.809693, -1.904065, 0.223068, -0.626264, 2.078445, 0.514642, 1.983746, 0.240763, -0.628162, 0.024456, 0.449804, 0.663564, 2.031548, 0.58426, 1.502964, 0.995778, 0.160748, 1.031292, 1.159034, 1.841915, -0.271164, -0.639452, -0.754169, -0.923329, -0.248346, 0.073353, -0.053718, 1.42802, 0.0009, -0.084166, -0.918776, 0.055349, -0.37841, 0.667764, 0.635401, -0.088376, 0.764481, -1.036357, 1.568071, 1.108101, 0.403594, -0.500671, -0.471689, 0.236581, 0.402929, 0.772733, 0.089003, -0.941385, 0.751, 1.497337, 0.260486, -0.076648, 0.26985, 0.121041, 0.92572, -0.058187, 1.354276, -0.155851, 0.70407, 0.147712, 1.43855, -0.153937, -0.550001, 0.013612, 1.786643, -1.990358, 2.061961, -0.59611, 1.371235, 1.479407, 1.496115, 0.175107, 0.577069, 0.211629, 0.798985, 0.354981, 0.418032, 0.145158, 1.460405, 0.812509, 1.334355, 0.282719, 0.089314, 1.64135, -0.554216, 1.922288, -0.542138, -0.855021, -0.211084, 0.162537, 0.765639, 1.457276, -0.289548, 0.181802, 0.84235, -0.021943, -0.294752, -0.570008, 0.880154, 1.128965, -0.65848, 1.203479, -2.42359, 1.354931, 0.084989, 1.367514, -1.686537, 0.553477, 0.334231, 0.598959, -0.7228, 0.816956, 0.598456, 0.163687, -1.269555, 1.836999, 0.304018, 0.925438, 1.827249, -0.479764, 1.018762, -0.246217, -0.480338, 0.625672, -1.519162, -0.166985, 0.493267, 0.830194, 1.242861, -2.784361, -0.097999, -1.327032, 0.865771, 0.208295, 0.940942, -0.205751, 0.051798, -0.992724, 1.332789, 0.454182, 4.097378, -0.870721, 1.128997, 1.058727, -0.163768, 0.912127, -0.079256, 1.223943, 0.823104, 1.633854, 0.271147, -0.102684, 1.145951, 2.099684, -0.363311, 0.33853, 0.468305, 0.028545, -1.032303, 0.773617, -0.4777, -0.748289, 0.796441, 0.68165, 0.73172, 1.380546, 1.238205, 0.43905, 0.302339, 0.461061, -0.028878, 0.755326, -0.334716, 0.654468, 0.599426, 0.624963, 0.577244, 0.270535, -1.756174, 0.902071, -0.63622, 1.741846, -1.037898, 1.619842, 0.13775, -0.418828, -0.645897, -0.068695, 0.017723, 0.597622, -0.583457, 1.234137, 0.581658, -1.110093, 0.204057, -0.89698, -0.558282, 1.110498, 1.14709, 1.326561, 1.057685, -0.214702, -0.124083, 0.484989, 1.443907, 0.396339, 0.735451, -0.500135, 1.542402, 0.803985, 0.496095, 0.54045, 1.91469, 0.747214, 0.467836, 0.607874, -1.42683, 2.368087, -0.691975, 0.320997, 1.435094, -0.271378, -1.04467, 0.093312, 0.216672, -1.193858, 1.187473, 0.622357, -0.578214, 0.300943, -2.652255, 0.775406, 0.623698, -0.098032, -1.274582, 1.177052, 1.848392, 0.757447, -0.885415, -0.093476, 0.843754, 0.599056, -0.33997, 1.316504, -0.160449, -0.065584, 1.077415, 1.033479, -1.163288, -0.184643, 0.804023, -0.179213, -2.138761, 0.49503, 0.410459, 1.768885, -0.828644, 0.393219, -0.405183, 1.601057, 0.172, 1.17259, 0.535776, -1.011023, 0.855274, -0.209236, -1.076981, -0.602369, 0.346149, -0.264257, -0.800384, 0.687062, -0.138301, 0.909906, 0.596314, 0.733963, 1.623096, 2.728736, 0.530491, 0.961584, 0.489308, 2.268546, -0.860983, 2.471025, -0.529033, 0.792167, -0.238674, -0.567443, 1.389834, 0.235119, -0.412125, -0.678141, 1.157783, 1.563181, 1.576786, -0.038424, 0.783346, 2.448184, 2.334837, 2.176708, 1.606982, 0.046307, 1.012505, 1.810413, 0.969769, -0.371479, -0.349456, 0.05183, 0.485512, 0.373494, 0.824976, -0.651158, -0.422504, 0.649215, -0.421681, -0.936809, -0.173326, 1.170177, -0.263337, 0.372762, 0.04354, 1.659861, -0.754305, 1.044955, -1.142909, 0.458677, -0.385302, 0.126907, 0.616482, 0.333687, -0.497339, 0.008697, 0.450031, -0.732219, -1.131535, -0.300289, 0.257029, 1.660594, 2.054036, 0.283734, 0.931658, -0.454932, -1.068272, -0.237232, 0.090661, -0.385721, -0.78167, 2.37364, 0.243941, -2.214555, 1.985834, 0.542128, 0.84098, 0.845165, 0.250019, -0.173741, 0.698118, 1.575733, -1.747386, 0.554318, -0.818419, 0.705484, -0.479194, -0.305643, 1.771692, 1.418072, 0.291108, 0.573496, 0.538125, -1.164904, -0.390704, 2.196937, 1.477486, 1.51974, -0.028886, 1.509679, -1.688934, 2.150678, 0.025398, -0.168962, -0.686613, 1.528929, -0.224991, 1.250869, 0.548181, 1.083979, -1.666898, -0.472898, 1.127866, 1.007844, 0.0803, 0.438757, -0.225159, -0.098002, 1.479985, 0.409987, -0.100644, -0.220267, -0.239573, -0.933932, 1.47963, 1.338032, 1.495079, -0.374538, 1.162355, 0.161112, -0.188941, 0.342522, 0.042563, 1.294602, 0.176078, 1.751953, 0.063545, -0.05356, 2.017065, 0.525385, 2.252408, 0.343629, -0.524189, -0.515671, 1.311275, 1.526287, 0.895514, -1.979347, 1.380133, 0.469759, -0.082201, -0.127356, -1.951657, 0.462061, -0.066204, -0.55921, 0.983485, -0.022534, 1.364904, 0.810108, -0.35906, -1.384193, -0.868148, 0.437526, 0.631584, -0.386245, -0.496096, 0.535976, 1.654709, 0.32884, 1.107662, 1.768812, 0.302619, -0.15219, -1.226806, 0.428461, -0.745614, 0.793995, 0.69211, -0.19446, 0.180942, 0.487876, 0.112196, 0.012026, -0.554351, -0.314685, 1.113077, 0.537948, 0.606771, 0.825054, 0.260355, 1.100282, -1.429855, -1.577015, 0.12395, -0.011708, 1.408118, -0.463028, 0.266279, 0.611491, 1.137678, 0.329082, -0.103659, -0.454828, 0.549562, 1.040849, 0.139505, -0.263992, 0.02241, 1.073645, 0.935388, 1.353438, 0.220606, -1.030918, 1.642583, 0.650931, 0.858605, 0.688306, 0.81342, 0.254764, -0.233276, 0.309797, 0.742874, 0.156355, -0.515196, 0.176305, -0.491471, 0.758584, 0.770237, 0.260914, -0.210234, 0.040945, 0.244296, -0.528857, -0.464487, -0.254558, 0.637613, -0.829601, 1.362078, -0.29844, 0.888871, 0.414487, 1.791375, -0.66903, 0.742214, 1.217851, -0.034099, 0.794005, -0.645384, -0.826241, 0.608301, 0.115643, 1.117452, 1.14464, -0.054279, 0.866525, 0.297805, 0.324437, 0.107314, 0.166331, 0.55347, -0.99351, 0.331001, 0.834613, -0.764262, 0.698068, -0.796915, -0.450212, -0.379167, 0.775274, 0.016971, 0.538589, 0.979313, 1.070172, -1.814562, 1.934806, 0.290625, 0.891747, 0.44236, 1.511736, 0.035235, 0.432741, -0.06968, 0.096855, -1.152858, 0.111121, 0.624378, 1.070848, 0.718952, -0.135203, 0.39659, -0.390419, 0.747343, 0.38248, 1.355875, 0.920053, -0.223312, 0.147544, -0.040774, 0.389409, -0.215174, -2.156046, -0.026993, 0.15758, 0.70948, 0.472882, 0.86668, 0.782239, -0.268397, 0.614025, 1.486346, -0.156052, 1.339764, -0.899644, 0.394367, 1.094555, -0.287738, 2.487013, 1.251358, 0.994278, -0.205433, 0.7403, 0.969775, 0.54234, 0.25595, 0.042962, 0.052817, 1.526835, -0.350753, 0.401364, 0.502694, 1.066495, 1.233002, 0.722057, 0.195845, -0.313689, 2.404169, -0.6617, 2.445644, 0.041791, 0.678899, 0.631837, 0.006746, -0.60404, 1.781342, 0.46151, -0.383951, 0.812304, -1.545086, -0.235881, -0.374636, -0.138151, 0.026322, 0.209322, -0.045906, -0.593547, 1.072359, 0.173135, -0.078064, 0.586026, 0.277227, 0.444494, -0.118276, 0.425926, -1.047543, -1.348624, 0.904112, 0.594629, 0.741879, 0.570228, 0.814155, 0.576981, -0.121255, 0.834573, 0.091619, -0.527481, 1.128816, 0.435031, 0.673978, -0.050707, 1.193433, 0.453895, 1.974208, -0.766414, 1.18477, 0.478996, -1.049972, -0.900508, 0.266627, 0.894288, 0.576047, 1.018032, 0.388308, -0.855916, 0.32853, 0.677238, 0.286503, 1.369814, 1.407109, -0.514293, 0.123556, -0.119542, -1.357503, 1.896715, -1.817284, 1.170461, 0.089665, -0.048441, 0.072614, 0.356741, -0.422749, -0.136949, 0.035341, -0.018694, -1.36843, 1.348295, 1.151739, -0.873695, -0.432379, -0.198854, 0.075418, 0.253389, -0.274478, -0.063077, -0.706945, 0.123263, -0.057923, 1.196291, -0.750908, -0.27173, -1.395796, 0.169439, 0.464019, 0.101897, 1.397113, 0.149555, 0.093878, -0.570001, -0.481517, -1.71617, -0.073282, 0.330818, -0.163984, 1.22679, -0.849562, -0.440301, 0.912907, 0.081653, 1.561548, -0.476005, -0.028249, 1.711458, -0.270043, 1.377863, -0.91035, 0.033125, 0.752805, 1.349484, -1.421562, -0.987961, -0.815346, 0.108548, 0.902746, -0.111056, 0.623344, 1.368579, 0.920987, 2.698394, -0.03289, 0.086321, -0.322282, 1.797209, 0.569216, -0.281521, 1.351469, 0.554876, 0.794709, 1.043471, -0.705203, 0.432916, -0.49625, 0.099319, -0.660025, -0.556567, -0.245096, 0.420461, -0.267426, -0.329394, 1.478286, 0.433817, -0.455971, 0.250957, -0.115495, -0.573, 0.636104, 1.305951, -0.99053, 1.268169, 1.522782, 1.013186, -0.446082, -0.375357, -1.213059, -0.651479, 1.697193, 0.963525, -0.537397, 0.350667, 0.213709, 0.03967, 0.537361, 0.900138, 0.399148, 0.724547, -1.557605, 2.065441, -0.038504, 1.747992, 0.004155, 2.396731, 0.96492, -0.430672, 0.794885, 0.74445, 0.048028, -0.075938, 0.56053, -0.00994, 0.171137, -0.526998, -1.666856, 2.659589, -0.245912, 0.677836, 0.340928, -0.044745, 0.550022, 0.586323, 0.218586, 0.662918, 0.443413, 0.415142, 0.578386, 0.526304, 0.083976, 0.808907, -0.694171, 0.001723, 0.402995, 0.027026, -0.198305, -0.470272, -0.798828, 2.380972, 1.17687, 0.140872, -1.159354, 0.298118, -1.072788, 0.456581, 0.334286, 0.564377, 0.650251, 0.837294, 0.677499, -0.477607, 0.072744, 0.37975, 1.305292, 0.915345, -0.234913, -0.696338, -0.236435, 0.497252, 1.76905, 1.597411, 2.321278, 0.310206, -1.173272, 0.869847, 0.826482, 0.30471, -0.389652, 1.770402, -0.418252, 1.671003, 0.840454, -0.15265, 0.505794, 1.256251, -0.38687, -1.168178, 0.812758, 0.576241, 0.129589, 1.711265, -0.633239, 1.352381, -0.161401, 0.72685, -0.736589, -1.400079, 0.51417, 0.191623, 1.369186, -0.329884, 0.142718, 1.810496, -0.540937, -0.781942, 1.552215, 0.412777, 0.498646, -0.210208, 0.070814, 0.780246, -0.371107, -0.296619, -0.118878, 0.64355, 0.625258, -0.010274, 0.083251, 0.456568, 0.343464, -0.074168, 0.320681, 0.854595, -0.23172, -0.883868, 1.724222, 0.23108, -0.898722, -0.036797, 1.726821, 0.23896, 1.014836, 1.244441, 0.701757, 0.336876, -0.087827, -0.073826, 0.400994, 0.344997, 1.946304, 1.588415, -0.147487, 1.581844, 1.139261, 1.041417, 1.308017, 1.196621, 0.014471, 1.360779, -0.127745, -1.085574, 2.584587, 0.939001, -1.516046, 0.73067, 0.893766, 0.152509, -0.106156, 0.99502, 1.444175, 0.428625, 1.626866, 0.892492, 0.103312, 0.516733, 1.012397, 0.490275, 0.01502, -0.475836, 1.061135, 2.342878, 0.064486, 0.088929, -0.00927, 0.537487, 0.318941, 0.852178, 0.153696, 0.592628, 0.780339, -0.181042, 0.438304, 0.269132, 0.031044, 1.493153, 0.505674, 1.142324, 0.143109, -0.188191, 1.383747, -0.183298, -0.518524, -0.232583, 0.37009, -0.298475, 1.023703, -0.727483, 0.775263, 0.633254, -0.721198, -0.53906, 1.885439, 0.810434, 0.828905, 0.474689, 0.51568, -0.031944, 0.969411, 0.602627, -1.066602, -1.204833, 0.058216, -0.635683, 0.926549, 0.319843, 0.762152, -1.574353, -0.950487, -0.030618, 1.020218, -0.906771, 0.680499, 0.573929, 0.970117, 1.136143, 1.513655, 0.051524, -0.317362, 1.454717, 1.200103, 0.501717, 0.205324, 0.341015, -0.139442, 1.052285, -0.180722, 0.289613, 1.433471, -0.096154, -0.564767, 0.735613, -0.035185, 0.532738, -0.531453, -0.511552, -0.24635, 0.374305, 0.851091, 1.788151, 1.488048, 0.381576, 0.360144, 0.614971, 1.416087, 0.470855, -0.479751, 0.963514, 0.387685, -0.44868, 1.371709, 0.823076, 0.015388, 0.298216, 0.003782, 0.638632, 0.88262, 0.449355, -0.268012, 0.949897, 0.226783, 0.186378, 0.937305, 0.539976, 1.394308, -0.886522, 0.645622, 0.133812, 0.292296, 2.113843, 1.550326, -0.716093, 1.467146, -0.393279, 1.669116, -0.039736, 0.359712, 0.099162, 0.814098, 0.809022, -0.242999, -0.180146, -0.75216, 1.438519, -0.439746, 0.09945, 0.133208, -0.406413, -0.625721, -0.078417, 0.492116, 1.061417, 1.184385, 0.078757, 0.098562, 0.387584, 2.216146, 0.940146, -0.429864, -0.40887, 1.902954, 0.253513, 0.335972, 0.275596, 2.960654, 0.785378, -0.598558, 0.688578, 0.477792, 0.489031, -0.095949, 0.365364, -0.439676, 1.075653, 0.373076, -0.290035, -0.270334, 1.945549, 1.103594, 0.424883, 0.027959, -0.096581, 0.752312, 1.731409, 0.064181, 0.661416, -0.048495, -0.175388, 0.772674, 0.256187, 0.76305, -0.443851, 0.183282, 0.658955, -0.797967, 0.504379, -0.304558, 1.407333, 1.824321, 0.479858, -0.49149, 0.980128, -0.111851, 0.216487, 0.083932, 0.643518, 0.493106, 0.236607, -0.012722, 0.405137, 1.330261, -0.338491, -0.53723, 0.550855, 1.30104, 0.897893, 1.120378, -0.078914, 0.990609, 0.306483, -0.563542, 1.701766, -1.208151, -0.739352, -0.549922, 0.018454, -0.18618, -0.343851, 0.774761, -0.113571, 1.45659, 0.392796, 1.957583, 0.389104, -0.159149, -0.514617, 0.284665, 1.104497, -0.646205, 0.68599, 0.534924, 1.367517, 0.742155, -0.077968, 0.491908, 1.26738, -0.336966, 1.535423, 0.06028, 0.530906, 1.028132, 0.220614, 0.583761, 0.745508, -0.433897, 0.689328, 0.136467, 0.276169, 0.571328, -0.506862, 0.208213, 0.890871, 1.097263, 0.286138, -0.165198, 0.279433, 1.698906, 0.487448, 0.925296, 0.5553, -0.136164, -0.149001, -0.557762, 0.327078, 1.06067, 0.161814, -0.757969, 0.470161, 0.387918, 1.097922, -0.477582, -0.165507, 1.253431, 0.527435, 1.43302, -0.056575, -0.340618, -0.508341, 0.27738, 0.539049, -0.067125, 0.10282, 1.933786, 0.49156, 0.098966, -0.529201, -0.077129, 1.163197, -0.811492, 0.955015, 1.016931, 0.093994, -1.059602, 1.325044, 0.051637, 0.511519, 1.166759, 1.970129, -0.807746, 0.965723, -0.816537, 0.876295, -0.110576, 0.348507, 1.143081, -0.542125, 0.022475, -0.724979, -0.724158, 0.142851, 0.680669, -0.010438, -0.254821, -1.064688, -0.830444, 1.128033, -0.092898, -0.218476, 1.119989, 0.262798, -0.067474, 0.907408, -0.202026, 0.505749, 0.310111, 0.000444, -0.132287, 0.840017, 0.222571, -0.312126, -0.469997, 0.804339, -0.142169, 0.528096, -1.052511, 0.640448, -0.119864, 1.0644, 0.959652, 0.000172, 0.122508, -0.279059, -0.242332, 1.267292, 0.216322, 0.425251, 0.244144, -0.688218, 0.73223, -0.146189, -1.054461, 0.285999, 0.404824, -0.541409, -0.055608, 1.468576, -0.084707, -0.226259, 0.285376, 1.607409, 0.68136, 0.652963, -0.377182, 0.105401, 0.38883, -0.408156, -0.506788, 1.335318, 0.895937, 0.443879, 0.398429, 1.006996, -0.876139, 0.470154, 1.488757, -0.740941, 1.193568, -0.648984, -0.083492, 0.649631, 0.590755, 0.60424, 0.009186, 0.735295, 0.116892, 0.607113, 0.758701, 0.381356, 0.488277, 0.472193, 0.153385, 1.363145, -0.005694, -0.158157, 0.202723, 0.294945, 0.800495, -0.845976, 0.80245, 0.423106, 0.574568, -1.060592, 1.270586, -0.375531, -0.348795, -0.412535, 0.754604, -0.340017, 0.174619, 0.503325, 0.831594, 0.569492, 0.402099, -0.66728, 0.458921, -0.861841, 0.007075, 0.490841, -0.28787, 0.106077, 0.637963, 2.301096, 0.458713, -0.734051, 0.017367, 0.611068, -0.015084, 0.021318, 0.160581, -0.53977, 0.1059, 1.080954, -0.319805, -0.462592, -0.491017, -0.032603, 0.015636, 0.859549, 0.679805, -0.295069, 1.169364, -0.930182, -0.179279, -1.289739, -0.120228, -0.490761, -0.046483, 0.821014, 1.388278, 0.043785, 1.190603, 0.552443, 1.003527, 0.846536, -0.389624, -0.192437, 0.379466, -1.495911, -0.464638, 0.833068, -0.135436, 1.402041, 0.312758, 0.703591, -1.165882, 0.475458, 0.98403, 0.905119, -0.195298, 0.80763, -1.16438, 1.185996, -1.052558, -0.342086, 0.737094, 1.988598, -0.017554, -0.727515, -0.489099, 0.806094, -0.66305, 0.541247, 1.18907, 1.365407, 0.352454, 1.618737, 1.623017, 1.848941, -0.508774, 0.058641, -1.21079, 0.332694, -0.490707, 2.489316, 0.861147, 0.652239, -0.009025, 0.35761, -0.542093, 1.800412, 0.822133, 0.166303, 1.164355, -0.466378, 0.547053, 0.696616, -0.369142, 1.510546, 1.838693, 1.670337, -0.83876, 0.061864, 1.449136, -0.543739, -0.283035, 1.181088, -0.17312, 0.350475, 0.989078, 0.376119, -0.290744, -0.522281, 0.47441, 0.41983, 0.139495, 0.518647, 0.630987, -0.077915, 0.491798, 2.106685, -0.238658, -0.465697, -0.260318, 0.148238, -0.478513, 1.104439, -0.398688, -0.287273, 0.706816, 0.628853, -0.151725, 0.841076, 0.500316, 0.48212, -0.326151, 0.271055, 1.149863, 0.963343, 1.50963, -0.048218, 2.503881, 0.630009, 1.834549, 0.34265, 0.447427, 0.360271, -0.419603, 0.7624, 1.397966, 0.211198, 0.290692, 0.865193, -0.155702, 0.8338, 0.494709, 0.651796, 1.588909, 0.306097, 0.765796, 0.230437, -0.088589, 1.386186, 0.660082, 1.175861, 0.358634, 0.333629, -0.592279, -0.083541, 0.359289, -0.100682, -0.910377, -0.586849, 0.034971, 0.296716, 0.489445, -0.001964, 1.279904, 2.034741, 0.705509, 0.979751, -0.293506, 0.100825, 0.958622, 1.328214, 0.391068, -0.767609, 0.698064, 0.095964, 1.061904, 1.163358, -0.40959, 1.303636, 1.445236, 0.004367, 1.433778, 1.772285, 0.302316, 0.516474, -1.159394, 0.652308, 0.369343, 0.650054, 0.669547, 0.932067, 0.040195, -0.111494, -0.239145, -0.288029, 0.558428, 0.784742, -1.20453, 0.841082, -0.006083, 0.137182, 0.42425, 0.722148, 1.418156, -0.313697, 0.759985, 1.398258, 0.853521, 0.546823, 0.734838, 1.050077, -0.272271, -0.099564, 0.844197, 0.319659, 0.105698, 0.364908, 1.478276, 2.965162, -0.47879, 0.984802, -0.928903, 0.234276, -0.122865, 0.394343, 0.36786, 0.132516, 0.250376, -0.12244, 0.672092, 1.224153, 0.617882, -0.188718, -1.403858, -0.331909, 1.599069, 1.504765, -0.664782, -0.073891, 0.166146, 0.916342, -0.605871, 0.394983, -0.073423, 0.84003, 0.310766, 1.252232, 0.970268, 1.23333, -0.317707, -0.225518, 1.148572, -0.190891, -0.1055, -0.14645, 0.889208, -0.067885, 1.877192, -0.577867, -0.034184, 0.612637, -0.148091, 1.315593, 1.047383, 0.851924, 0.601138, 0.591063, 1.096296, 0.225983, 0.160563, 0.310823, 1.407288, 1.184963, 1.35904, -0.210215, 0.587216, 0.497468, -0.68673, 0.308354, -0.230069, 0.614588, 0.218852, 0.597676, -0.336392, 1.550208, -0.186237, 0.235983, -0.143899, -0.017352, -0.140628, 0.768862, 1.48212, 0.100673, 1.175381, 0.327623, 0.956792, -0.135584, -0.558531, 0.260742, 0.144799, 0.467934, 0.825844, -0.140866, 0.099684, 1.435379, 0.444156, 0.178092, -0.478324, -0.311809, 1.093043, 0.939416, 0.542528, 1.945503, -1.124024, 0.30037, 0.018107, -0.865972, -0.470008, 1.943021, -0.889405, 0.275805, 1.035668, 2.219534, 0.06682, -0.301078, -0.484352, 0.669064, -0.993918, 0.149738, 0.996546, -0.688268, 0.369646, -0.220929, -0.552932, 0.287677, 1.40737, 0.19714, 0.004118, -1.302981, -0.19678, 1.011223, 1.106174, 0.757985, 0.647725, 0.364691, 0.608657, 0.071392, -0.398612, 1.14307, -0.12562, 0.054205, -0.05015, -0.578406, 0.776725, -0.330192, -0.906793, 1.503307, 0.214938, 0.503922, 0.423512, 0.403668, 0.786166, -0.853554, -0.291725, 0.940654, 0.891552, -0.381463, -0.970638, 1.605334, -0.604493, 1.075741, 0.481186, -0.933615, 1.20741, 0.301292, 0.179116, 0.060297, -0.257683, 1.039592, 0.012726, -0.274037, -0.19623, 0.38823, -0.788196, -0.291814, -0.195793, 0.633689, 0.073118, 0.068869, -0.546326, 0.32664, 0.403404, -0.049601, 0.593173, -0.413842, -0.038686, -0.234819, -0.059682, -0.27063, -0.217008, -0.21563, 1.06856, -0.560102, -0.871946, 0.599898, 0.702063, 0.847431, 0.15032, 0.178546, -0.764072, 0.459964, 1.594296, 1.488984, 0.432868, -0.456134, -0.011894, -0.00427, 1.068446, 0.345663, -1.271605, 1.38897, -0.216779, 0.188355, 2.629529, 0.558118, -0.316652, 0.890328, 1.200127, 1.119958, 0.614753, -0.953507, 0.651989, 1.41058, 0.960355, -0.181624, -0.8131, 0.625393, 0.919307, 0.04219, 1.016349, -0.680553, -0.203908, 1.507896, 0.010777, 1.428962, 0.192004, 1.130497, 0.368065, 0.633035, 0.452284, 0.830066, 0.836606, 0.399993, -0.559274, 0.822859, 0.32803, 0.553752, 1.614877, -1.041993, 0.247242, 0.453564, 1.390036, -0.422911, 0.358761, 1.163183, 0.057328, -1.120595, -1.103372, 0.074949, -0.94041, 0.112915, 0.476359, 0.21461, 0.335274, 0.626004, 0.431842, -0.432481, 1.679327, 0.130469, 0.597098, 1.057267, 0.731532, -0.812098, 1.306217, 0.675048, 0.348493, 0.469799, 0.740305, 0.310978, -0.063138, 1.721154, 0.915461, -0.174044, 0.14434, 0.222622, 0.589347, 0.165357, 0.32804, 1.043493, 1.33128, 1.58919, -0.76493, -0.308996, 0.475719, -0.047172, 0.16769, 1.709508, 0.512016, 0.18774, -0.676925, -0.397843, 0.567392, 0.257974, 0.568347, 0.275005, -1.212084, -0.731546, -0.105975, 2.099236, -0.398948, 0.321947, -0.017317, 0.766442, -0.738616, 1.937698, -0.419399, 0.742077, 1.544045, -0.417397, -0.113705, 0.560519, 0.237705, 0.584703, -0.326023, 0.799996, -1.533683, 1.246225, -0.503884, 0.797247, 0.993748, 1.023876, 0.665308, 0.449886, 0.427535, 0.554932, -0.503957, -1.609068, 1.437112, 0.45673, 0.053954, 0.304098, -0.814945, 0.907981, 0.855432, -0.279247, -0.30189, -0.645625, 0.185053, 0.28243, -0.421293, 2.098043, 0.904244, 0.407135, -0.524681, 0.799285, 0.880983, -0.197827, -0.574761, 1.015179, -0.290037, 0.70625, 1.597679, 0.176472, 1.302655, 2.739187, -0.044692, 1.091682, -0.83546, 0.285267, 0.057564, 0.694405, -0.503038, 0.920468, -0.204084, 1.571899, 0.985466, 0.238688, -0.322362, 0.735905, -0.181903, 0.760566, 1.940991, 0.221354, 1.011524, -0.469895, 0.576248, 0.927768, 1.189316, 1.32982, -0.689352, 0.073281, 1.741854, -0.760225, 0.503069, 0.667695, -0.830744, 1.423406, -0.859509, 0.339355, -0.185737, 1.102384, 1.233951, 0.06613, -0.203254, -0.109224, -1.046573, 0.814607, 0.304952, -0.372882, 1.001835, 0.595042, 0.660667, -0.09763, 0.46336, -0.329449, 0.20133, 1.323384, 1.557641, 0.173264, -0.666716, 0.750503, 0.433766, 0.490424, -0.990008, -1.026434, -0.289999, 2.455025, 0.678685, -0.421661, 0.705313, 2.187144, -0.17358, 0.813127, 1.578413, 1.163944, 0.171017, 0.234231, 2.23062, 0.355394, 1.084533, 0.284878, -0.312996, -0.258962, -0.254643, -0.007366, -0.305607, 2.033833, 2.156079, 0.746275, -0.411319, 0.036948, 0.464466, -0.891133, 0.927672, 0.060161, 1.13371, 0.627625, -0.448664, 2.530527, -0.631736, 0.75249, 0.062781, 1.045477, 0.74153, 1.095616, -0.048597, 1.535233, -0.279013, -1.074904, -0.617582, -0.768295, -1.601235, 0.010087, 0.789627, 0.713706, -0.909023, 0.812898, 0.796214, -0.915445, 1.262556, -0.665607, 0.311811, 0.678881, 0.916909, 0.79983, 0.97899, 0.892215, -0.497316, 1.422279, -1.065423, 1.080395, 0.522938, 1.286132, -1.317328, 0.591504, 1.192603, -0.699245, -0.470364, -0.314309, 0.141777, 0.852135, 1.448161, 0.323058, 1.754309, -0.26324, 0.810172, 0.616308, 0.552381, 0.187651, 0.45674, 0.985577, 0.070789, 0.226063, 0.776287, -0.17124, 1.655414, 2.220851, -0.984592, 0.292583, 1.003126, -0.809822, 0.461603, 0.302719, -0.737038, -0.298866, -0.975601, 0.496675, 0.281127, 1.582843, -0.486313, 0.099621, -0.203582, 0.47279, 0.023715, -0.590041, 1.124605, 0.756002, 1.287958, 0.638192, 0.56208, 0.421142, 0.632427, -0.001856, -0.347207, 0.663617, -0.375233, -0.494045, 0.305886, 0.760027, -0.223179, 1.79479, 1.19526, -1.099213, 0.621386, 1.096795, -0.883025, 1.210711, 1.919572, 0.919386, -0.898895, -0.515041, -0.21763, -0.789242, -0.552261, 0.684887, 0.166735, -0.085952, 0.40084, -1.372142, 1.001888, 0.63391, 0.5284, 0.181226, 1.333075, -0.837556, 1.813284, 1.101104, 0.358239, -0.016596, 0.890245, -0.667246, -0.631041, -0.831255, -0.91822, 1.206935, -0.023253, -0.195778, -1.143315, -1.072578, 0.341767, -0.036537, -0.417491, 0.182489, -0.060972, -1.098402, 0.113319, -0.63988, 1.191808, -0.974498, 1.393238, 0.02008, -0.247373, 0.438084, -0.549925, 0.690053, 0.617601, -0.489985, 0.715344, 1.425775, 0.406692, 1.521308, 1.730452, 1.077579, -0.006086, 0.247047, -0.111765, -0.193375, 0.736221, 1.25531, -1.780452, 1.193515, -0.748361, -0.302942, 0.338711, -0.361192, -0.547935, -1.572217, 0.247417, -0.179716, -0.246084, 0.383145, 1.814585, 0.686844, -0.193896, -0.511068, 0.065242, 0.569024, -0.41018, 0.693811, -0.083112, 0.38982, 0.35084, 0.759927, 1.097763, 0.636828, -0.609836, 1.084583, 1.038081, 0.22589, 1.347514, -0.820676, 0.095711, 1.643789, 0.261505, -0.041994, 0.160735, 1.265769, 1.422618, 0.30252, 0.54317, 0.590385, 1.132842, 0.133523, -0.436334, 0.551007, 1.288274, 0.409211, -0.407575, 0.385674, -1.425831, -0.827972, 0.298329, -0.308042, -0.343708, 1.428802, -0.094806, 0.262065, -1.070456, 0.006009, 0.343102, -0.313247, 0.712329, -0.087117, -2.067364, 1.096232, -0.536384, 0.450475, 0.517622, 1.011295, -0.181764, -1.17444, 0.79312, 0.930359, -0.628332, 0.415071, 1.056927, -0.276085, 0.948882, -1.035349, -0.554135, 0.092408, 1.277483, -0.212402, -0.176744, -1.245865, -1.270559, 0.192384, -0.381522, 0.675397, 0.141435, 0.655662, -0.669828, 1.974249, -0.837957, -0.267568, 0.819048, -0.212263, -0.278855, -0.404869, -0.80207, 0.22301, 1.138454, 1.132661, -0.393808, -0.041647, 0.851768, -0.224299, 1.892439, 0.927974, 0.129891, 0.468814, 0.253821, 0.555046, -0.722765, -0.697348, 1.274138, 0.72566, -0.811929, -1.222832, 0.679574, -0.509183, -0.283608, -0.404675, -0.444674, 1.164115, -0.308697, 1.21434, 0.368219, 0.276431, -0.004769, 1.198358, -0.537492, 2.783609, 0.411178, -1.147351, 0.645784, 1.145891, 0.349775, 1.167381, 0.160582, -0.206219, -0.269983, 0.574436, -0.579194, 2.005498, 1.473082, 1.344983, 0.130294, 0.745693, -0.94376, 0.308933, -0.542298, 0.276598, -0.20957, 1.125662, 1.219624, 0.878223, 0.590681, 0.373401, 1.578665, -0.282308, 1.007016, 1.116322, 0.053254, 0.666652, -0.486511, 1.175787, 0.80765, -0.599658, 1.056633, 0.698313, 0.562536, 0.200552, 1.763322, -1.108032, 1.039286, -0.329892, 0.327974, 1.154709, 1.585002, 0.703635, 1.089465, 0.660791, 0.537705, 1.114509, -0.145836, 0.169525, 0.690274, 0.050502, -0.294438, 1.030168, 1.166015, 0.28012, -0.829093, 0.412364, 1.496908, -0.286549, -0.868971, 0.422466, -0.479015, -0.022462, -0.651107, -0.552658, 2.193125, -0.752659, -0.227276, 1.475951, 0.072536, -0.552562, 0.387498, 1.523283, 0.466961, -1.306786, -0.480049, -0.568151, 0.721696, -0.535188, -0.572884, 0.844016, 0.201487, -1.080652, 0.71342, -1.236217, 0.320828, -0.041672, -0.242396, -0.32147, 0.490009, 0.564284, -0.124445, 0.10079, 0.209184, -1.27805, 1.0415, 0.841262, 1.424718, 0.61899, 1.829424, 1.060586, 0.159078, 0.259197, 0.138417, 0.860918, -0.623183, -0.047995, 0.496116, 0.027973, -0.105003, -0.44235, 0.317307, -0.174262, 0.312784, -0.018645, 0.601394, 0.636137, 0.000201, 0.18504, 1.737708, -0.120805, -0.701334, 0.889753, -1.331427, 0.845348, 0.200747, -1.18441, 0.67536, -0.195525, 0.596886, 0.007626, 0.653017, 1.107434, 0.397177, 0.204251, -0.02088, 1.422813, -0.50412, 0.952898, 0.337331, 0.149117, -0.619032, -0.631693, -2.686482, 1.463635, 0.061102, -0.621475, -0.694082, 0.488059, 0.954023, 0.324955, 0.41863, -0.203499, -1.424491, -0.861064, 0.923066, 0.919012, -0.057073, 0.538882, -1.174907, 0.010925, -1.307868, -0.394067, 1.472732, -0.124222, 1.05254, -0.537873, -2.105767, -0.754317, 0.899906, 0.420053, 1.46429, 0.025355, -1.455262, -1.501311, 0.715782, 0.62761, -1.209171, -0.744491, 0.178673, 0.523456, 0.024968, -0.683606, 1.79788, -0.004356, 0.543749, 0.129562, -1.635725, 1.232961, 1.327418, 0.932921, -1.137769, 0.528875, -0.083946, 0.924177, 0.615487, 1.18336, -0.48484, 1.303141, 1.707598, 0.766995, 1.918009, 0.540732, 0.805695, 0.716184, -0.119059, 0.936888, 0.240121, -2.257459, -1.738698, 2.073397, 0.319917, -0.684668, 1.081998, -0.221602, 0.552013, -1.0617, 0.544535, -0.805902, 1.271026, -0.013011, -0.157535, 0.364622, 1.276362, -0.74436, 1.127346, 1.379784, -1.442325, 0.00352, -0.760274, -0.740617, 1.555038, -0.951617, -0.474879, -2.649426, 0.231849, -0.373311, -0.266214, 0.184666, -0.314939, 0.055965, 0.011313, -2.084377, 1.847783, -0.024486, 0.323407, 0.44955, 0.154567, -0.039652, -0.480627, 0.836442, 1.843412, 0.690529, -0.431015, -0.374833, 0.140363, 0.635629, 0.601498, -0.988364, -0.495095, 0.732338, -0.80504, -1.804656, 1.283769, 0.505648, 0.40581, -1.272662, 0.567371, 0.366106, 0.802031, -1.149818, 1.112041, -0.881434, -1.470385, 1.196091, 0.244625, 0.110983, 1.857281, -1.343947, 0.11999, -0.478896, -0.515983, -0.765953, -0.4968, 0.045982, -0.285479, -0.29334, -0.272452, -1.15519, 1.150661, 1.337454, -1.1794, 0.096907, 0.003783, 1.633227, 0.810957, 0.211186, 1.186739, 0.788711, -0.225774, 1.117748, 1.015837, 0.57489, -0.989331, 0.217263, -0.987437, 0.141989, -0.461973, 1.089437, -1.532243, -0.863654, 1.643051, 0.154448, 1.436545, -1.737088, -0.842625, 0.431164, -1.372887, -0.381761, -0.509901, 0.435228, -2.023108, 0.7627, -1.540925, 0.633169, 0.402449, 0.439919, -0.448571, -0.396624, 1.447262, 0.18603, 0.678521, -0.305816, 0.174547, -0.995148, -1.408225, -0.173671, -0.056796, 0.290728, -1.597728, 0.833935, -0.73677, 0.213979, -1.070107, 1.089749, -1.048996, 0.115408, 0.421113, 0.501206, -0.652409, -1.588196, -0.331926, 1.503406, -0.180571, -0.834078, -0.524821, 0.490312, -1.502921, -0.594844, 1.10799, -1.481123, 1.680315, -0.286641, -0.968348, 0.660944, -0.4782, -0.221956, -2.191817, -1.873228, -0.425538, 0.554181, -0.390415, 0.963684, 1.725954, -0.10694, -1.219594, 0.968727, 0.516849, -1.321459, 0.2911, 0.595393, -0.747339, -0.097419, 0.491643, 0.703404, -0.428935, -0.61931, 0.638966, 0.002139, -1.129503, 0.946119, 1.004306, -1.343935, -1.524659, -2.649729, 0.731503, -0.534796, -2.222887, -0.535228, -2.076132, -0.387567, 0.386111, 0.245477, 1.073662, -0.51634, -0.706457, 0.428167, 0.828272, 0.037494, 0.314172, 2.190755, -0.500662, -0.179286, 0.972987, 0.574762, -1.557235, -0.146296, -0.263404, -0.587352, -0.924057, -0.151443, -1.458397, -0.076101, 1.04154, -0.540278, -0.608534, 0.469233, 0.389078, -0.173242, -0.706293, 0.734181, -0.113541, -1.078108, 0.456432, 0.975256, 1.080539, -1.159341, -0.482372, -0.194589, -0.648862, 0.228766, -0.394959, -0.235318, 0.668072, -1.194477, -0.088899, 0.890412, -0.447359, 1.017154, 0.283066, 0.885195, 0.484802, 0.361447, 0.054168, 1.857032, 0.810828, 0.954789, 1.2979, -0.390793, -0.75815, 1.160475, -1.188787, 0.670803, 0.198321, -0.222627, -2.157448, -0.931543, 1.687073, -0.048303, -0.148812, 1.089886, -0.030358, -1.829825, 0.821368, 1.204843, 0.369467, -0.249524, 1.29631, 0.321713, 1.437929, -0.134504, -0.116303, 1.337288, -0.170594, -0.204069, 1.030251, 0.826284, 0.470226, -0.364029, 1.092751, -1.196698, 0.050533, -0.019661, -0.464539, 0.957962, -0.308941, -0.125332, 0.402648, 0.552814, 0.725634, -0.89316, 0.673569, -0.083395, 0.121907, 1.087605, 0.969439, 1.421142, -1.983107, 1.129992, -1.936333, -0.773897, 0.692106, 0.322775, 0.281624, -0.471062, 0.159654, 1.154437, -0.112388, 0.145817, 0.757444, -0.83301, -0.799714, 2.430422, 0.07856, 0.460094, 2.103679, -1.539875, -0.186605, -0.574822, 0.874436, 0.115041, -0.641879, -1.611562, 0.837459, 0.427679, 0.818114, -1.011912, -0.271512, 0.085479, -0.588471, 0.971565, -0.71313, -0.194662, -0.611829, 1.557894, -0.216649, -0.34405, 0.248038, -0.786701, 0.748611, 0.289998, -0.371227, 1.223607, -0.042925, 0.725225, 0.320242, -0.030533, 1.27465, 0.462053, 0.370051, -0.110395, 0.066044, -0.167796, 1.305601, 1.662628, 0.265676, 0.992686, -0.725913, -0.695689, -0.640028, 0.733671, 1.020111, 0.866488, -1.617232, 0.679899, -0.323694, -1.139789, 0.205408, -0.889135, -0.06232, -0.910068, 0.008981, -0.87261, 0.633457, -0.118149, 0.39977, 0.984183, 0.898576, -0.319105, 1.548249, -1.059019, 0.971054, 0.83975, -2.97106, 0.339972, 0.851772, -0.475514, -1.120785, 1.176681, 1.399194, -0.664163, 0.043198, -1.679574, 0.893341, 0.662633, -0.598234, 0.308098, 2.627824, -0.452769, -0.321026, 1.922431, 0.42078, 0.529492, -0.252301, -0.268096, -1.477383, -0.571897, -1.152311, -0.427723, -1.239932, -0.169549, 1.250764, -0.180516, -1.999287, 2.568483, 0.163728, -0.79724, 1.291082, 0.206918, -0.224962, 0.200603, 1.171152, -0.250496, 0.630706, -0.000184, -0.255133, -0.40608, 1.165253, 0.352436, -0.894445, 0.64303, 2.31478, -0.204178, -1.542849, -2.223613, 0.256678, -0.615202, 0.676241, -2.583353, 0.409646, -0.566823, -0.250771, -2.043404, -0.253174, -0.579209, -2.160596, 0.403573, 0.286229, 0.204327, -0.09855, -0.287127, 1.060444, 1.186605, -1.483439, 0.401759, -1.816035, -0.998681, 1.001743, 0.640239, -1.974059, 0.920852, -0.04505, -0.811348, 0.141956, 0.631641, 1.646508, -0.320409, 0.51361, 1.913305, 1.366744, -1.196819, -0.981006, -0.786423, -0.847512, 0.67099, -0.511529, 1.414837, -0.536258, -0.254911, 0.732643, 0.551501, -0.678257, -0.667299, -1.400048, -1.023654, -0.398131, -0.251601, -0.326685, 0.621891, 0.196228, 0.595146, 0.101017, 0.659574, 0.549867, -1.186831, -1.21056, -0.926613, 0.653984, -0.395769, -2.348613, 0.087943, -1.537438, 0.539792, 0.15086, -1.639126, 0.029846, -0.247201, -1.14342, -1.807988, 0.679701, -0.905925, -0.540782, 0.714325, 1.933165, -0.919229, -1.007252, -0.034849, -1.558847, 0.421459, -2.211586, -0.802543, 1.449018, -1.066554, -1.584902, 0.396153, -0.01815, 1.486281, 0.595171, 0.599285, 0.008055, -0.710872, -1.285347, 0.482024, 0.292675, -0.405, 0.591592, 0.301593, -0.846917, 1.217041, 1.242993, -0.470562, -0.09761, -2.395038, -0.583751, -0.00374, 1.257211, -1.346858, -0.219593, -0.081703, 0.01177, -1.055112, -0.472392, -0.008565, 1.148853, -0.094609, -1.623078, 0.134368, 0.291998, -2.275833, -1.068805, -1.046087, -0.292488, 2.035368, -0.720978, 0.819599, 0.511964, -0.800733, -0.802512, 0.129051, 0.536208, -0.457755, -0.03235, -0.923089, 0.918246, -0.799159, 0.394732, -0.253035, 1.839398, -0.550861, 1.125229, -0.736244, -0.348026, 1.236897, -2.280395, 0.51849, 0.190123, -0.424661, -2.187969, -0.217448, 0.098612, 0.996027, -0.798806, 1.338677, -0.249239, -0.96326, -1.214769, -0.641835, 0.750976, -0.26108, 1.253679, -0.220125, -0.847167, 1.961581, -0.088951, 1.540645, -0.521161, 0.805081, -0.16822, 1.107276, -0.592664, -0.666426, -1.162398, -1.276165, -0.462178, -1.359451, -0.616369, 0.501298, 0.990374, 1.095222, 0.603218, -0.582048, -1.464869, -1.171125, -1.313418, -1.808395, 1.398331, 1.909454, -0.244497, 1.428601, -1.179776, 0.48545, 0.479424, -0.352051, -0.715761, -0.453741, 0.613422, -2.153744, -0.463672, 1.312425, -0.86451, -0.729685, 0.848683, 0.50315, 0.431216, -0.447552, -0.955231, 0.011638, -2.334266, -0.163162, -0.443222, -0.435147, -1.762954, 0.12211, -1.188411, 0.806487, -1.063165, 1.131245, 0.939399, 1.398572, 0.135551, -1.499752, -0.449334, -0.7984, 0.397104, -1.812549, 0.492115, 0.99769, 1.063346, 0.518964, -0.527013, 0.51519, -0.172363, 1.06982, -1.622796, -0.986853, 0.694707, -0.013115, 1.07126, 0.792258, 0.311213, -0.944314, 1.707349, -0.149757, -0.903098, -0.416039, -0.712077, -1.734033, -0.449246, -0.784963, 0.215478, 1.272859, -0.98584, 0.829721, -0.367071, 0.772052, 0.875887, 0.954237, -0.359527, -1.054142, 0.663981, 0.211535, 0.220289, -0.200449, -0.709813, 0.676777, 1.481262, -1.077173, 1.249488, 0.645389, -0.178734, 1.143441, -1.343524, -1.040949, 0.202604, -0.287405, -1.20868, -0.252101, -0.185577, -0.428849, 1.187224, -0.406343, 0.385504, 0.867587, -1.284672, -0.751298, -1.041644, 0.125341, -0.554608, -0.05683, 0.586917, 0.280843, 0.926879, 0.753407, -0.306074, -0.050028, -0.090252, 1.206656, -1.710296, -0.975719, -0.451928, -1.457187, -0.125389, -1.768584, -0.052586, 0.012094, 1.458801, 1.801926, -0.623889, -0.636884, 1.28519, -0.856846, -1.032453, -0.983841, -0.108936, 2.606616, -1.457557, -0.712873, 0.317666, -0.673988, 1.248683, 0.417799, 2.265694, -1.775539, -2.68568, 1.737437, 0.453805, -1.868478, -0.825287, -1.232996, -0.407173, -0.656312, 0.110326, 0.275206, -1.066264, -0.571389, -1.380976, -0.969179, -0.055022, -0.68868, -2.116336, 0.406035, -1.135074, 1.903924, 0.789768, 0.716007, 0.973722, 0.594356, -2.121272, 0.459145, 0.322684, -1.91161, 1.972879, -0.23146, 0.452649, -0.050815, 0.018805, 1.476425, 1.329837, 0.985141, -0.14351, 1.400384, -1.086336, -0.697857, 0.418516, -0.814224, -0.730083, -0.142106, -0.373722, -3.943933, -0.860359, 1.563859, -0.132146, -0.964393, -2.459783, -0.228292, -0.729166, -0.089549, 1.19177, 0.935805, -2.155822, 0.684569, -0.059825, -0.102625, 1.647482, 0.4891, 0.708816, 0.696756, 1.261138, 0.937024, -0.282041, 0.395081, -1.726095, 1.781613, 0.731709, -0.170966, 0.555178, 1.885152, -0.965715, -1.340121, -0.325969, -0.573318, 1.272843, 0.557964, -1.600627, 0.337192, 0.211346, 0.681172, 0.156421, 1.020471, 0.952799, -0.427378, -0.906013, 0.222766, 1.393258, -0.63533, -0.02181, 0.463792, 1.854518, 0.216202, 1.582008, 1.760813, 0.441437, 0.770234, 0.327214, 2.542254, -0.439563, -0.80224, -0.540717, -0.565035, -0.058855, -0.722087, -0.093404, -0.779054, 1.194681, 0.613977, -1.458583, -0.588216, -0.108332, -0.3065, -0.565979, -1.27725, -0.029541, -0.53374, -1.694174, 1.065668, 0.337923, -1.16963, -0.247874, 0.094164, 0.733717, 0.527582, 1.468883, -0.49929, 1.920366, -0.242255, -1.199634, 0.61598, -0.883965, -1.730099, 0.135428, 0.508023, 0.664429, -0.052658, -2.428724, -0.738406, 1.33323, -0.989477, -1.786298, -1.292889, 0.90496, 1.19963, -1.117103, 0.868776, 0.378698, -1.01659, -0.780105, 0.603222, -0.208013, -1.511089, -0.348558, -0.405617, -0.174216, 0.794899, 2.344967, 1.784695, 0.226208, -0.614776, -0.584254, 1.205645, -0.446977, -1.733427, 0.531713, -0.083333, 0.729514, 0.341413, 1.555469, -1.400798, 0.014872, 1.434418, -0.448141, -1.517748, 0.951315, 0.451141, -0.267889, -0.429188, -0.466375, -0.365641, -0.540137, 0.535339, -0.868966, 0.229316, 1.121198, -1.542871, -1.138109, 1.185905, 0.934857, -0.045384, 1.226804, -1.259239, -0.814471, 1.520391, 0.22798, -0.00382, -0.053183, 0.16458, -1.22176, 0.461116, -1.276583, 0.00489, -0.413984, -0.3587, -1.749812, 0.200736, 0.348271, 1.837928, 0.280194, -0.12789, 2.317076, 0.539604, -0.308355, 1.248963, 0.228895, 2.00071, -0.178507, -1.102572, 0.712827, 0.999741, 2.134292, -0.405865, 0.698095, -1.52805, -1.25552, 0.191141, -0.600464, 0.283984, -0.596914, 0.884105, 0.081481, -0.659587, -0.209308, -0.260757, 1.376093, 2.913621, -0.87634, -0.023965, 0.163, -0.72454, -1.547445, -0.057334, 0.198467, 1.348845, -0.832058, -0.641518, -0.709863, -0.347598, -0.040373, -0.292065, 0.706603, 0.410091, -0.145337, -1.086132, -0.714028, 0.145073, 1.267366, 1.052579, 0.281555, -0.346545, 0.687634, 0.180207, -1.202527, 0.040512, -1.289313, 0.374305, 1.029892, -0.543497, -1.166556, 1.57004, -0.496438, 1.535265, 0.521167, 0.464598, 2.12533, 0.218782, -2.818917, 0.014585, 1.210243, -0.043432, 0.439051, 0.923447, -0.186571, 0.984392, 2.894351, -0.416168, -0.509774, -0.219203, -0.273115, 1.277707, -1.505239, -0.882659, -1.304917, -0.915517, -1.06394, 0.230605, -0.57945, -1.032155, 0.379999, 1.282151, 0.197788, -1.336205, -0.137829, -0.830049, -0.566937, -0.56497, 0.090006, -0.191813, -1.159509, 0.447968, -0.680361, 0.528894, -0.000291, 0.447575, -1.037414, 1.270628, -1.397389, 0.09973, 1.109156, -0.351821, 0.29159, -1.275337, 0.039821, -0.434088, 1.59259, 0.860338, -0.845191, 0.327658, -1.655465, 0.194841, 1.175921, -0.378015, -0.874197, 0.141512, -0.568992, 1.273988, 0.053054, -0.375439, 2.179937, 0.154698, -1.800436, -1.673651, -1.188749, 0.312078, -0.435081, -0.118774, -0.201941, 1.445191, 1.486549, 0.4283, 1.022819, -0.578791, -0.833192, 0.619698, -0.262834, -0.880305, 0.82766, 0.129238, 0.297896, -1.100658, 0.114175, -1.458601, 0.787195, 0.545787, 1.579888, -0.774658, 0.781575, -1.250532, 1.113488, -0.62379, -0.621606, 1.169541, 0.223087, 0.445783, 0.505736, -0.184597, 0.74721, 1.072226, 0.367843, 1.97561, -0.467799, -0.711881, 0.451376, -1.015098, -0.897223, 0.598086, 1.638237, -0.196022, 0.988791, 0.240132, -1.357112, 0.412004, -0.978027, -0.895508, 0.443842, -0.54778, -0.603766, 1.287997, -1.405681, 2.292809, 1.989398, 0.789581, 1.154459, -0.608949, -1.199488, -1.88027, 1.702406, -0.111582, -0.793964, -0.943954, -0.403052, 0.005648, 0.577875, 1.090968, 0.423657, 0.369353, -0.279924, 0.077247, -0.616244, -0.277542, 1.23117, 0.446734, 0.308656, -1.250995, 1.25797, 0.276134, 0.702399, 1.133187, -0.65529, -0.291975, 1.61022, -0.991612, -0.197262, -0.221696, -0.938859, 0.579605, -1.164415, -0.521423, 0.597066, 0.068581, 1.49656, 0.378679, 0.132111, -1.15968, 0.701152, 1.608431, 0.126751, -0.268381, -0.191344, 0.019224, 0.91928, -1.069382, 0.840642, 0.429141, -0.373495, -0.152258, -2.056756, -0.836527, 0.156721, 1.003578, -1.052588, 1.575957, -0.666387, 0.404388, -1.464876, 1.539951, -0.500703, 1.137165, -1.436934, -0.764545, 1.366005, 0.556154, 1.13768, -0.238813, -0.362369, 1.228936, 0.073289, 0.941957, 0.692838, 0.344306, -0.726496, 1.355582, -1.348741, 1.345782, 0.663436, -0.464636, 0.112307, -1.156098, -0.258937, 1.150363, 0.519957, 1.691888, -0.397221, -1.380231, 0.781918, 0.431996, 0.200157, -0.700033, 0.021001, 0.411495, -1.487992, -0.033602, -0.128352, -1.030753, 1.07961, 0.266149, 1.373037, 1.171953, 0.336151, -0.926807, 0.186093, 0.20001, 0.021527, 0.211028, 0.878763, -0.643406, 1.032503, 0.561352, -0.399852, -1.036328, -0.731974, -0.903153, 2.087413, 0.801171, -1.487138, 2.67241, 0.196933, 0.596889, -0.652215, 2.280209, 0.092249, 1.229964, -0.397886, -1.096676, 1.391386, -0.957366, 0.775117, -0.090077, -0.203636, -0.145712, 0.661851, 0.857686, -1.168018, 1.002212, 0.536901, -0.067174, -2.225857, -0.89503, 0.618071, -0.746739, 0.097305, -0.85265, 1.260928, 0.134718, 1.790645, 2.413158, 1.034022, -0.739759, 0.719083, 1.1736, -0.336741, -0.956182, 0.138195, 1.04392, -0.158918, 0.393274, -1.08766, -1.470088, 0.439667, 0.827869, -0.547742, 0.4222, 0.336656, -0.569785, 0.014505, -0.206437, 0.882868, 0.138339, -1.782538, 0.461121, 0.001467, 0.162563, -0.134109, 0.570529, -1.290332, -1.881164, 1.711218, -1.090129, -0.624878, 0.128803, -0.044666, 0.193732, -0.469679, 0.883956, -0.471786, 1.247293, -1.28805, -0.667, 1.415631, -1.686832, 1.743818, -0.43891, 0.304816, 0.782605, 0.973449, -0.251742, -0.83268, 0.64392, 0.279393, 1.376914, -0.909009, -0.556239, 0.452421, -0.558177, -1.287801, -1.181718, -0.367382, -1.048101, 0.940439, 2.012094, -0.183673, -0.734941, -0.637874, 0.778068, -0.711794, -0.77813, 1.497103, 1.973246, -1.836307, 1.784287, 0.379258, 1.194621, 0.153047, 1.990487, 1.517025, -0.575287, -0.225304, 0.454703, 0.572955, -1.626422, 0.199532, -0.232341, -0.521195, -1.098881, -0.27243, 0.208828, -0.005124, -0.356544, -2.141943, -0.477069, 0.118194, -1.342512, -1.0479, -0.543617, 0.484501, 0.708566, -0.929714, 1.148335, 0.130838, -0.386576, 0.160242, -0.645899, 1.632088, -0.121783, -0.225292, -0.407804, -0.729534, 0.549778, 1.741379, 1.534999, 2.371116, 0.556267, -0.972234, 1.949702, -1.249228, -0.499331, -0.23615, -0.627773, 0.964914, -0.717477, 0.559868, 0.504337, 1.860283, 1.01014, 0.257543, 1.287796, -0.557325, 0.649992, 0.688919, -0.947914, -0.490686, 0.221225, -1.566694, -1.506551, 0.146671, -0.119862, 1.169126, -0.250519, -0.494853, 1.667279, 1.575474, -1.501948, 0.885126, -2.274003, 0.700511, -0.441481, -0.575341, -0.83355, 0.180268, 1.635165, 0.567522, 0.405881, -2.291671, -0.591097, 0.696488, -1.067625, -1.601119, 0.569478, -0.67865, 0.930405, 0.123443, 1.634714, 1.070336, -0.117405, -0.709717, 0.267833, 1.131519, -0.356345, -0.962321, 0.721262, 0.663185, 0.058164, -0.608015, 0.418944, 1.019955, -0.893958, -1.245912, 0.785442, -0.153261, 0.054398, 0.152482, -1.740337, -0.178449, -0.231157, -0.552487, 0.951634, 1.622874, 1.079535, -0.649404, -0.869085, -0.85119, -2.218735, 0.319311, -0.608565, -2.168861, 1.036596, -0.700901, -0.014729, -0.750927, -1.228318, -0.800403, 0.698562, -1.564114, 0.643465, 0.32803, -0.40245, -0.520015, -1.662802, 1.07988, 0.956477, 2.072, 0.185679, 1.505323, -0.432392, -0.488797, 0.341695, -0.846606, -0.735611, -0.157567, 0.882313, -1.2211, 1.070002, -1.192841, 1.413947, -0.449633, -1.160879, 1.830145, -0.805415, -1.084843, -0.984469, -0.081842, 0.455326, -0.479788, -0.249036, -0.392336, 0.444029, 0.417485, 2.135718, -0.124963, -0.772431, -0.044246, -0.032878, -1.29997, -0.801974, -0.575205, -0.415034, 1.122632, -1.219751, 0.298946, -0.1436, -0.533571, 0.166875, 0.146248, -0.537574, 1.063355, -1.738183, -0.722052, -0.39817, 0.369858, 1.38649, 1.028762, -0.012632, -0.591033, -0.986722, 1.846627, -0.011631, 2.294751, 1.351787, -0.498594, -0.334867, -0.89904, -1.455543, -0.510075, 0.63, 1.021232, -0.650862, 1.642498, 0.411415, -1.133739, 1.151685, -0.870108, -0.3699, 0.2693, -0.585109, -1.091084, 1.574845, -1.972991, 1.387126, 0.510367, 0.263726, 2.065255, 0.99341, -1.163575, -1.541783, 1.614458, -0.786024, -0.080231, -0.898158, -0.241091, -0.065945, 1.756129, -0.042246, -0.39765, -0.792016, -1.252684, -0.271051, -1.44982, -0.096321, 1.070642, -0.759833, -0.369456, -0.657264, 0.640381, -0.595748, -0.591484, 1.258751, -1.021326, -0.150222, 0.01813, -0.63809, -0.491078, 0.427251, 0.56996, 0.493128, -0.522653, -0.320317, 0.40437, 0.051073, 1.349594, 0.365534, -1.149847, 1.235929, 1.034346, 1.234074, 0.133066, -1.119687, 0.142033, 0.086204, -0.443888, -0.233789, 1.151079, 0.259802, -1.048811, 0.864733, -1.637704, -0.730815, 0.684085, 0.426384, -0.9895, 0.265038, -1.034314, 1.397566, -0.232227, 1.58323, 0.893627, -0.228565, -1.144519, -1.277874, 1.332152, -0.128168, 1.383854, 0.296899, 0.49917, 0.245826, 0.135467, 0.177213, 2.130848, 1.432279, -0.696035, -0.099303, -0.404923, -0.287134, -0.06564, 0.308014, 0.560119, 0.002315, 1.059921, 0.594501, 0.570683, 1.452108, 0.198293, 0.076853, 0.640278, 0.068171, -0.196283, 0.214734, -0.964588, 2.979155, -1.125832, -0.371403, -0.911431, 0.145332, 1.58723, -0.439406, 1.825111, 0.566998, 0.812003, -1.546347, 0.654425, -1.54156, 1.328522, 0.85694, 0.658588, -0.053998, 0.059682, 2.962831, -0.519654, -0.277872, -0.977637, -0.131323, 0.131591, 1.262591, 0.458613, 1.637078, -0.251024, 1.701214, 0.058651, 1.45387, 0.172798, 0.326988, -1.264408, -0.501899, 1.808405, 0.628102, -1.054284, -0.764775, -0.840632, 1.029853, 0.992363, 1.366795, -1.715092, 0.137536, -1.955674, 0.568107, -1.368044, 0.690898, 1.905958, -0.222723, -0.338269, 1.147787, -0.250333, -0.013875, 0.159896, 1.938277, 0.2313, 0.725456, -0.483101, 0.622081, -0.35128, -0.228901, 0.904365, 0.971899, -1.579187, -0.533319, -0.031771, -0.122784, 1.02745, 0.189274, 0.324114, 1.288191, 2.296139, -1.054008, -1.60953, -1.23755, 1.622, 0.367943, -0.3352, -0.331257, 0.80983, 0.855355, -0.783594, 0.530202, -0.808276, -1.062335, -0.627215, -1.049014, -0.084668, 1.686522, 1.129014, 1.080226, 0.156053, 0.973484, 0.11312, 2.404526, -0.84399, -1.075971, 2.12466, -0.726952, 0.544766, 0.876911, -1.116262, 1.502648, 1.42851, 0.928859, -0.458052, -0.057608, -0.34631, -0.241757, -1.152071, 0.277963, -0.340884, 0.348092, 0.696955, 0.31945, 0.079321, -0.988663, 1.693913, 2.081424, -0.772236, -1.010056, 0.204901, 0.556837, 0.05576, 0.707527, 0.07238, 1.658616, -1.130929, -0.538548, -0.33687, 0.610586, 1.682199, 0.276219, 1.839349, 0.291168, 0.692737, -0.344936, 0.543041, -0.699624, 1.585062, -0.121205, -0.463889, 0.000563, -0.784439, 0.395251, 0.166327, 0.243255, -0.733736, -1.035468, 1.668757, 0.604574, -1.03816, 1.16071, -0.267705, 2.190563, 0.712977, 0.738883, -0.401745, -0.434105, -1.095504, -1.768902, 1.20848, -1.725702, 0.953205, -0.950231, -1.487443, 0.939405, 1.861641, 0.74033, -1.079085, 0.322284, 0.076709, -0.345156, -0.392688, -1.062566, 1.146204, 0.491166, -0.079403, -0.815589, 1.268003, -0.897466, 1.072306, 0.85689, 0.891603, -0.794638, -0.370879, -0.183493, -0.331681, 0.407838, 0.759697, 0.100758, -0.721475, 0.600161, 0.38923, -1.79397, 1.671513, 0.54693, 0.012563, -0.219683, 0.496417, -0.763979, -0.301427, -0.44995, 0.292879, 1.459878, -2.018145, -0.700931, 0.082271, 1.408434, -0.093537, 0.134695, -1.012992, -0.82756, 0.234809, -1.495942, -0.674519, 0.287223, -0.315116, 0.268829, 0.727456, -0.419898, 0.530076, 1.292649, -0.589494, 0.126831, 0.832029, 0.292921, 1.010626, -0.771145, 0.628666, 1.222724, 1.010022, -0.037236, 1.176145, 1.409642, -1.495176, 0.205689, 0.035629, 