{"arch": [768, 64, 32, 16, 1], "scale": 600.0, "int": true, "quant": {"qa": 1024, "qw": 1024}, "layers": [{"w": [-1905, -835, -399, -1529, -1631, -363, -583, 54, 1304, 540, -141, -577, 532, -520, -443, -868, 3, 302, -1770, -233, 976, -152, 528, 890, 600, -389, 1634, 1267, 313, 1572, -881, -1691, -530, -45, 988, 306, -1060, 182, -699, -2004, 1985, -402, 227, -476, 778, 2851, -214, 618, -177, 3, 39, -549, -217, 442, -1081, 728, 732, 297, 446, -238, 1349, 1133, 792, -888, 684, 447, -20, -591, -982, -400, -294, -1426, 926, -522, 813, -525, -1044, -25, -1695, 120, -503, -259, -390, -664, -2214, 702, 1614, -910, 266, -955, -174, 1200, -574, 1615, -835, -153, 839, -152, -1122, 601, 2640, 166, -617, 1921, -131, -909, -231, 772, -761, -1117, -772, 145, -158, 752, -983, 812, 846, 536, -825, -247, 1186, -1665, 326, -864, -1115, 15, 1081, 616, -750, 1305, -113, -2010, -1079, 77, 3070, -1823, 1464, 5, -1481, -533, -904, -925, 231, 523, 1422, -2012, 710, 401, -132, 46, -1380, 582, -881, 202, -321, 23, 1315, -139, -1164, -1311, -138, 247, 1037, -1147, -892, 2249, 289, 1210, 863, -607, -113, -544, 336, -846, 2057, -347, -282, -158, -1443, -474, -1935, 469, 818, -1128, -846, -156, 723, -554, 27, -1078, 847, -293, -517, 178, -644, 1108, 129, -467, -1139, -1009, -324, -851, -865, -225, -1535, -123, 1630, -289, -386, 232, 1638, 543, 907, 1067, 513, -2215, 2441, -1269, -78, 3414, 601, -144, 940, -782, -850, 43, -230, 968, -2762, -204, -182, -55, -526, 4, 320, -52, 98, 2716, 1746, -235, -227, -164, -363, -1334, -655, 254, -380, -409, 4, -79, -1440, -1151, 1120, -57, 2029, 193, -135, 860, 524, 799, 891, -320, -190, 76, -709, 694, -614, -1061, 3388, -1225, 1651, 992, 1217, 1123, 574, 346, -1224, 720, -898, 54, 812, 1676, -367, 1189, -1172, -794, -1000, 888, 178, 584, -987, 983, -389, -112, 1177, 1980, 25, -1101, 49, 1550, 1211, 1172, 474, -1533, 922, 1403, 205, 703, -668, -1194, 179, 4, 742, 1457, 405, -2115, 95, -1425, 114, 943, 362, -2426, -596, 1775, -1036, 1448, -1059, 1867, 787, -236, -2739, -366, -1088, 1530, -1115, 451, 415, 1517, 176, 179, 436, 194, 1544, 2337, 1078, 2321, -417, 654, 673, 289, 293, 347, -385, 1108, 299, -1552, 377, -1010, 855, -955, -2197, 508, -158, 484, -577, -1684, -1568, -1351, 847, 1135, -528, -736, -445, 1556, 512, -1732, 264, -1135, 338, -815, 612, -5, -690, -1111, -268, 887, -878, -1769, -1320, -1007, 1246, 146, 396, -946, -471, 20, -80, 1130, 380, -764, 1302, 186, 786, 373, 257, -71, 640, 1580, -82, -484, -1163, 382, -953, -792, -2188, 909, 1030, 60, -634, -907, 919, -186, -2148, 1225, -867, -79, -49, 482, -25, 818, 594, -247, 981, 1371, 1278, 2472, 788, -122, 2335, -1088, -1528, -2117, -489, 113, 1, 769, 973, -746, -734, 562, -237, -659, 53, -396, -236, -246, -764, -25, 781, -874, 416, 1530, 473, 58, -458, -672, 131, 1207, 577, 201, 157, 144, -811, 1205, 679, 443, -215, -1032, -230, -1758, -820, 69, -997, -955, -718, 431, 1378, 1236, 599, -1163, -1237, 1219, -1410, -850, -1800, 94, -534, 1560, 422, -27, 835, 89, 549, -72, -38, 1411, -903, -2014, -941, -614, 787, 2291, 286, 285, -1000, -351, 112, -122, 1008, -587, -884, -1082, -292, 292, 441, -342, 273, 858, -793, -69, -102, 402, 1275, 91, 1698, 220, -1226, -506, 788, -87, -310, 993, 1240, 500, -8, 1629, -1195, -540, -718, 11, 276, -5, 1656, -429, 1350, -1073, -1086, 800, 1807, 1303, 92, -111, 795, 428, 269, 1281, 295, 2204, 121, 1143, 91, 518, -705, 141, -27, 123, 526, 125, -1260, 24, -1150, 518, -93, 1909, -912, -47, 194, 254, 23, 322, 514, 373, -239, -109, 1802, 573, -775, 365, 373, 2362, -1104, 61, 79, 1518, 22, 1200, 203, 434, 857, 343, 769, 2975, 122, 178, 2244, -141, 25, 401, 312, -1731, -498, 555, 7, 2091, 115, -59, 1669, -654, -296, 940, 215, 1041, 1131, 1296, 709, 824, -375, 1656, -127, 513, 291, 373, 260, 897, -762, 381, 1382, 726, -1127, 688, 1890, -332, 333, -660, -605, 190, -1021, 340, 652, 665, 35, 977, 424, 1481, -258, -163, -924, -327, -670, 883, -174, -421, 1135, 682, 750, -570, 440, 522, 786, -286, 190, 743, 1250, -505, 549, 32, -113, -133, -170, 758, -279, -305, 70, 1778, 480, 745, 284, 860, 1114, -94, 107, 864, 1491, 764, -435, 1327, 962, -905, -1520, 1044, 1262, -1235, 203, 1686, -895, 145, -892, 65, 873, 704, 866, -491, 934, 1999, -817, 689, 709, -875, 359, 1239, -488, -627, -207, 522, -746, -163, 170, 481, 169, 253, 746, -426, 1780, 43, 353, 220, -178, 261, -767, 656, 1856, -99, -734, -90, -309, -690, -608, -580, 402, -131, -762, 545, 311, 414, -100, 97, 561, 914, 16, 1283, 666, 310, 1109, 218, -569, -267, -796, 669, 644, -217, 259, -655, -590, 314, -127, -433, 2215, 1208, -161, 1575, -169, 619, 498, 2473, 996, -796, 1057, 512, -1041, 658, 1038, 1322, 1328, -20, 1418, 1284, -63, -252, 1168, -1287, 371, 693, -1243, 535, -469, 849, -718, -18, 445, 670, 362, -1156, 871, 1295, -659, -937, -291, 1910, 995, 1112, 1113, -929, 1933, 793, -903, -573, 1077, 121, 169, 495, -227, 63, 1096, -276, 1903, 725, 571, 468, 810, -1164, -479, -825, -299, -343, 774, -295, 1926, 799, 835, 15, -316, 352, -546, -231, -277, -338, -136, 1049, 273, 1577, 606, 489, 673, 1831, 291, 807, 1, 1287, 782, 1037, -1026, 3055, 659, 74, 607, 34, 624, 1171, 26, 167, 693, 3, 696, -275, 462, 918, 179, -185, 433, -1677, 1511, -697, 1260, 251, -41, 564, -1487, 1064, -316, 818, 979, -709, 407, 61, -792, 615, -845, -480, 240, 603, 1289, -185, 1226, 995, 373, -274, -207, -104, 568, -508, -10, 1200, 503, 570, 316, 1887, 918, 2877, -173, 629, -632, 954, -373, 1578, -2094, 1503, 1321, -300, -178, 1179, -740, 121, -22, -304, 173, -337, -272, 490, 848, 1282, 2043, 389, 460, -1750, -579, -1334, 27, 1409, -202, -900, 810, 717, -623, 1940, 678, -367, 161, -380, 162, 605, 305, 510, 1282, 979, 526, -13, 364, 1179, 27, 738, 1266, 2095, -630, 1503, -295, 170, -778, 298, 1557, -398, 396, 1772, 1040, 637, -41, 1765, -1201, 45, -639, 108, 535, -916, 424, 64, -264, 1199, 630, -155, 357, 56, -156, 1813, 443, 376, 234, -459, -366, -537, -230, 302, 755, 498, -470, 109, -91, -188, 1989, 105, 508, 1178, -335, -241, -151, 1050, -298, -1340, 593, -420, -555, 827, 607, 1956, 292, 836, 360, 645, -283, 41, 412, 65, 290, -200, 499, 1529, 451, 621, -114, -316, 690, 723, -374, 1098, 155, 1134, -259, 958, -1398, 712, -369, 780, -240, 1470, 1530, -434, -235, 273, -384, 770, 468, 1312, -622, 819, 451, 846, 1273, -601, -545, 1873, -507, 125, 689, 1564, -522, 187, -765, 691, -232, 807, -1, 227, 523, 226, 955, 1676, -349, 998, 557, 0, 285, 301, 145, 359, -505, 230, 96, -264, 871, 347, 572, 1289, 314, -606, -650, -91, -484, 685, -122, 1718, 1163, 2184, -437, 1709, 443, 364, 233, 1113, 1401, -207, 126, 1224, -534, 1518, 351, 1350, -39, 1020, -1166, 1045, 756, 392, -181, 715, 913, 108, -590, 241, 624, 526, 494, -482, 2314, 1028, 479, 1181, 488, -287, 1119, 251, -352, 128, -455, 982, 289, -114, 686, 1045, 163, 70, -80, 133, 1010, 877, 628, 853, 421, -452, 295, -785, -1125, 139, 457, -1467, 690, 1376, 1195, -310, 855, -470, 657, -969, 1989, 836, 1034, 1144, 231, 1901, -1027, -456, 552, 904, 245, 89, 434, 1133, -417, 1841, -64, 165, 1102, 759, 252, 181, -216, -81, 309, 777, 783, 190, 676, 1119, 1458, -523, -264, 368, 144, 1813, 114, 600, 1169, -82, 718, 776, 167, -361, -674, -263, 456, 309, -540, 378, -418, -815, 333, -397, 73, 258, 65, 914, -524, 613, 937, -16, 1385, -544, 761, 197, 351, 1136, 432, -267, 211, -1117, 431, -849, 1, 424, 232, 1402, -232, 1935, 546, 449, -500, 1229, 104, -544, 1228, -1674, 641, -477, 632, -620, -882, 258, 753, -361, 851, -516, 333, 1606, -221, -101, -287, -702, 822, 159, 504, 996, 489, -501, 452, -259, 1336, 718, 140, -235, 824, 35, -66, 1596, 772, -669, 550, 580, -293, -610, 1520, 1447, 751, 885, 116, 274, 985, -213, 1052, 1640, 260, 987, 2235, 108, 1124, -485, -82, 456, 680, 1289, 1504, 159, 1652, 566, 540, -453, -395, 395, 435, 854, 759, 521, 637, 213, 946, -67, -529, 641, -428, 461, 276, 2408, 14, 772, -1575, 1370, -154, 871, 1318, 256, 1031, 613, -191, -264, 513, 1000, -1608, 201, 725, 1293, -1147, 1125, 448, 299, 2088, 1322, 1152, -965, 365, -446, 849, 531, 674, 834, -327, 460, 896, -1098, 433, -235, -540, 159, -97, 844, -921, 551, 175, -881, 682, -549, 967, -1022, 563, 1846, 217, 857, 1320, -138, 248, -184, -5, 975, 556, 716, -355, 348, 1474, -12, -652, 684, -1186, 2161, 477, 1776, 242, 877, 474, 633, -631, -181, -562, -996, -234, -29, 252, 23, -1203, -1528, 880, 423, -21, -362, -23, 762, 418, -521, 1991, 205, -402, 434, -113, -503, 691, 129, 82, 1316, -225, 556, 794, 1436, 1748, 369, 682, 457, -518, -8, -514, 506, 373, -995, 400, 2744, -29, 1579, 744, 19, -306, 355, 69, 1895, -170, -325, 217, 498, 859, 292, -61, -1550, -1103, 817, 1847, 748, -109, 694, -138, 2401, 1408, 409, 767, 433, -25, 551, 70, 820, 546, -163, -122, 439, -236, 634, 918, 1703, 132, -201, 1080, -51, 902, 1598, -1196, 343, -216, -216, -240, -56, -32, 50, -666, -46, -274, 804, -898, 2304, 1291, 629, 984, -134, 1502, 1373, 890, 2170, 1021, -141, -311, 593, -369, 543, 93, 527, 1897, 354, 71, 342, 627, -186, 202, 70, -63, 1161, 621, 1412, -480, 1144, -272, -593, -686, 763, 1381, 235, 91, -948, 1917, -31, 1295, -28, 1009, 669, -1925, 71, -122, 335, 789, 1231, -416, 1236, -476, 320, 561, 340, 748, -418, -140, -723, 417, 165, -399, 656, 1488, 197, 668, 905, -174, 788, 357, 22, 779, 449, -384, 491, 256, 83, 741, 200, 2129, 648, 1118, 135, 1954, -854, 142, 609, 364, 981, 663, 422, 1571, -55, 562, 685, -192, 41, 673, 399, 913, 1050, -641, 1162, -630, 23, 252, 75, -312, 1401, -289, 706, 1675, -638, -516, 736, 388, -117, 371, -756, -181, -446, -1186, -21, 421, 364, 230, 940, 423, 1761, 717, 1310, -289, 536, 704, 71, 640, -340, -21, 704, 67, 1204, 590, -320, 357, 880, 451, -244, 597, -116, 45, -601, -254, 1284, -102, 801, -18, 300, 372, -49, 869, 690, 666, 996, 924, -373, 1259, 229, -1013, 1301, 83, -30, -265, 657, -659, 512, 1044, 919, 200, 416, -831, 340, -358, 367, 1054, -830, 837, -854, 656, 505, 160, 227, 476, 1010, 192, 3047, 641, -363, -708, 1387, -90, -79, 183, -261, -277, 766, 240, -135, 569, 1387, 2235, 1932, 1609, 211, 269, -517, -91, 14, -91, -394, 591, 153, -598, 416, 500, 244, 402, -934, 761, 1067, 266, 338, 319, 676, 692, 1251, 267, 1712, 1835, 131, 1836, 202, -423, 556, 544, 360, -935, 234, 207, -31, -115, 154, -167, 572, -591, 642, 173, 1623, 408, 240, 1083, -700, 561, 2164, -295, 8, -1033, 637, 668, 215, -1643, 512, 314, 1273, 1076, -612, 630, 319, 185, -1055, 296, -1033, -1159, -431, 370, -205, 1196, 805, -164, 242, 759, 154, 667, 155, -703, 44, 582, 190, 472, 1256, -417, -415, -248, -1170, -701, 378, -801, 1665, 1022, 327, 1315, 430, -510, 79, 1151, -1739, 59, 88, -406, 416, -86, 2464, 758, -22, -587, -457, 139, 1497, 709, 1335, 754, -673, -199, 463, -17, 743, 445, 1008, -555, 1148, -518, 1365, 30, -134, 222, 824, 234, 190, -129, 1056, -61, 152, -349, 42, -405, -138, 187, 653, -706, 210, 112, 1694, 656, 613, 207, 394, 569, -268, 1101, 336, 533, -470, 509, 682, -1540, -1407, 1513, -901, 217, -252, 347, 1358, -593, 111, 733, -220, 1020, 2480, 774, 591, 635, 318, -424, -797, 457, 925, 331, 307, -204, 1248, 1334, 1808, 1937, -1466, -463, 435, 654, 1031, -198, 39, -1532, -117, -38, 947, 1445, 495, 63, -86, 122, 710, 231, -66, -677, -938, 844, 523, 1380, 1841, -78, 1197, -556, -1674, 40, -357, 4, 425, 788, 18, -333, 1115, -964, 316, 427, -234, 27, 31, 538, 2023, 448, 626, 104, 1531, 29, 983, 1498, 493, 1054, 226, -742, 920, 1624, 726, 545, 1169, 1260, 263, 473, 567, 659, 894, -186, 608, -1133, 800, 421, 1190, -21, 1562, 1323, 42, -443, 993, 325, -409, 303, -868, 146, 639, 933, -358, 1218, 1432, 470, 863, 239, 27, 722, 736, -636, -480, -137, 987, 785, -26, 493, -410, 670, 172, 756, 633, -1488, -211, 596, 2353, 26, -938, 652, 822, -363, 1033, -294, 2228, -1514, -112, 848, 424, 29, 352, 361, -358, 1504, -58, 348, -1088, 836, 142, -665, 981, 594, 59, 759, -370, 691, -273, 821, -417, -245, 1705, -69, -77, 2689, 1561, 249, 731, 1229, 1104, 382, 945, 905, 848, 645, 1418, -2083, 776, 85, -108, 1388, -65, -135, -693, -1271, 584, -621, 235, -1326, 43, 246, 1420, 1916, -898, 663, 803, 42, 295, 724, 50, -1498, 1604, -114, 218, -53, -352, 321, 673, -126, -324, -386, -647, 352, 167, -703, 1281, 717, -22, -214, 371, 1253, -68, 606, 811, 402, 8, 1378, -1012, 1105, 137, -943, 1488, 1767, 551, -1862, 245, -747, 100, 246, -125, -259, 1080, -1043, 944, 519, 992, 788, 573, 1200, -718, -236, -552, -293, 45, 489, 1411, -962, 1573, 668, 912, -461, 2290, -841, 152, -15, -21, -792, 1321, 943, 552, 308, 1125, 954, 794, 777, 586, 309, -419, 1101, 765, 903, 1232, -105, 2132, 675, 416, -226, -508, 1367, 210, 651, 578, 465, -754, 652, 1897, 325, 1586, 260, 985, 666, 939, 211, -941, -640, 1350, 602, 1081, 1453, 2616, 870, -869, -855, 689, -212, 411, -93, 218, -876, 766, 194, 531, -290, 184, 1401, -387, 1156, 774, -47, -328, -120, 455, 586, -469, 379, 495, 709, 232, 142, -216, 509, 455, -341, -209, -1114, 1897, 103, 1852, 197, 1254, 373, 924, 2136, 1278, -156, -402, -264, 1679, -108, 241, -641, 165, -1159, -1774, -1037, -230, -481, 148, -837, 1814, 869, 757, 1073, 915, 1958, -1586, 2666, -1476, 527, 909, -821, 1657, -162, 105, 446, 1074, 961, -760, -2275, 238, 765, 1376, 743, -1160, -653, 159, 1891, -565, 703, 1050, 648, 217, 480, 199, -365, -320, -2084, 205, 551, -673, -570, 1209, 1121, -472, -487, 2385, -446, -116, -55, 258, -93, 1207, 440, 422, -184, 952, -70, 1182, 989, 7, 282, 149, -1106, 270, 1318, 268, -151, 460, 150, -825, 15, 213, 519, 429, -524, 39, 304, 197, 882, 2284, -390, -725, 1347, -929, 236, -316, 129, 313, -737, -58, 710, 80, 716, 1384, 571, -611, -349, -373, 983, -527, -451, 1452, -1554, 332, -594, 312, 991, -1258, 440, 50, 379, 1298, 800, 213, 718, 131, 845, -232, -116, 134, -523, -193, -1171, -1424, 1554, -375, -475, 1249, 822, 278, -179, -1807, 167, -112, 923, -317, 554, -1034, 206, 210, 154, 1055, 267, 1575, -432, 123, 166, -30, 260, 766, 504, 838, 229, -453, 727, 664, -454, 607, 606, 268, -429, 405, 709, 345, -896, 1264, 1272, 346, 230, 1272, 743, 147, -274, -639, 866, 7, 1132, -174, 105, -662, 482, -313, -1020, 570, 311, 1287, 121, -1901, 89, 98, 209, 278, 668, 852, 770, -781, 498, 1243, 416, 451, 36, 418, 187, 25, -29, -398, 1198, -221, -128, -69, 1203, 488, -611, -508, 937, 36, 527, -156, 732, 1241, 435, 663, 25, 642, -146, -455, -131, -500, -1479, 426, -1450, 1044, 179, 1181, -136, 692, 71, -337, 470, 1526, 57, -683, 1224, 108, 655, 117, 1660, 1487, 2922, 1508, 907, 631, 2008, 218, -2355, 1561, -82, 914, 2462, 1345, 732, 341, -270, 635, -76, 323, -799, 996, -72, 221, 1855, -926, 1022, 26, -1482, -1350, -441, 145, -1796, 402, -4411, 838, 777, 969, 454, 1634, 1005, 690, 128, 90, -264, 1592, -710, -284, 565, -149, -418, -301, 295, -176, 537, 1072, -1015, 1490, -421, -458, 2196, 389, 212, -500, 2110, 2131, -954, -1166, -19, -254, 1852, 497, -828, 349, -1115, 995, -49, 223, -161, -860, -498, -679, -746, -923, -1265, -367, 918, 1167, 131, 3044, 1043, 486, -982, 1769, -675, 7, -678, 526, -781, 1022, -170, 331, -1023, 1053, 617, 535, -430, -996, 1115, 1385, -536, -207, 489, 567, -205, -715, 943, -632, -872, -647, 13, 1150, -251, 1265, 970, -1345, 616, 317, 1076, 1377, 1300, 402, 1722, 1114, -217, 902, -3567, 2071, 45, 1032, 1693, 1316, 1782, -577, -805, 810, -2186, 170, -1206, -1356, 1289, 1115, 1793, 1097, 499, 726, -245, 477, 510, -465, 15, 498, -1868, 2419, 379, 525, 878, 1693, 594, 334, 459, -987, 391, 2369, -150, -82, 150, 1638, 112, 1334, -321, -1355, 1091, -115, -142, 127, 1585, -1376, 383, -346, -124, -189, 431, 1021, -1869, -1690, -626, -262, 1217, 219, -895, 1243, 1265, 776, 1317, 1391, 305, -1835, 1104, -212, 2923, -935, -26, 614, -927, 84, 368, 1022, -692, -985, -2472, 436, 1042, -1094, 786, 599, 703, 439, 1455, 1290, 1174, 1997, 784, -599, 1248, -538, 1627, 779, -1223, 469, -23, 486, 254, 1507, -1600, -2033, -674, -220, 609, -410, 1123, 501, 717, -926, 1965, 107, -488, 1298, 1059, 1277, -692, 275, -53, -74, -1995, 598, -340, 1504, -951, 2365, 902, -1667, 1843, 1244, 881, 640, -3220, -190, -348, -866, 1122, 1340, 1043, 129, 1145, -694, 28, -458, 761, 67, -1362, 1315, 30, 1186, 124, 1612, 569, 189, 1684, -1384, 461, 1434, 122, 552, -2230, 1789, 521, 243, 978, -563, 1008, -205, 1331, -119, 54, -737, 472, 1286, -388, 409, -1679, 1076, -1095, -852, -889, -2132, 622, 226, -553, -241, 692, 906, 1691, -1170, -342, 248, 1836, -686, 2934, 726, -1129, 83, -1423, 781, 1199, 514, -1847, -334, 407, 1601, 1564, 134, 1169, 1089, 773, 746, 1493, -829, 1243, -55, 1898, -6, -7, -2449, 1051, -793, -242, 1439, 1021, 714, -82, 1753, 1902, 354, 660, -225, 81, -268, 120, 520, 59, 962, 1714, -576, -1973, -8, 225, 253, -503, 809, 829, 807, -409, 1059, 308, -88, -1258, -1261, 899, 1741, 556, 1571, 1465, 1418, 511, 472, -638, -393, 2934, 129, -850, 949, 1927, 861, -180, 814, 260, 10, 1321, 205, -401, 1550, -178, -357, 1553, -1310, 194, -757, 654, 263, -1038, 454, -1736, 1401, -110, 1224, 1227, 317, -449, 953, 649, -495, 1411, -773, -731, 361, 649, 1144, -3827, 1411, 275, -1304, -1637, -1681, 238, 488, 1965, 348, -210, 792, -39, -250, 742, 788, 2083, -61, 2125, 1282, 647, 1075, 1079, -521, 2391, 1091, -1704, -772, 596, 162, 126, 151, 727, 25, 139, -106, 981, 812, 1166, -2318, 60, -1443, 1906, -2555, 454, 573, 473, 299, 135, 2388, 57, 407, 33, 692, -565, 1088, 382, 163, 389, 359, -522, 450, 1117, -486, 3060, 3547, 3519, -1432, 2093, -1034, 2109, 193, -400, 1328, -1112, -1255, 3660, 321, -74, 61, -1602, -3754, -527, -340, -4825, -657, -1008, 1483, -66, -315, -423, 447, -1183, 903, 1528, -1772, -988, -1071, 822, 488, 1260, 953, 600, 1383, 777, 1954, 1108, 975, 807, 566, -129, -343, -693, 1951, -1158, -1034, -595, 1548, -84, -755, -423, -214, -175, -126, 1151, -1265, -367, 761, 1871, 633, 4085, 1944, 1535, -3633, 245, -857, -2993, 1163, -943, 885, 1463, 538, -31, 619, 1670, -381, 172, 1110, -1005, -1603, -423, 986, -280, 1116, 392, -483, -36, 18, -1008, -933, -908, -1127, -892, 890, 959, 1722, -533, 2653, 337, -1912, 1629, -2488, -576, 516, -1267, 979, 1245, 2797, -1164, -1362, -713, -1402, 1482, -292, 1127, 309, 1712, -2802, -133, 194, -855, -331, 3673, 444, 1915, -1393, 1126, -2389, 1153, 974, -2629, 3652, -119, 1868, 2526, 283, 363, 740, 1391, 675, 1213, -2332, -1803, -786, -314, 1370, -692, 2237, -123, -404, -4188, -1429, -1902, -148, -324, -609, 88, -174, -989, 2401, -86, 1874, 1321, -1225, 89, -2884, 1229, 480, -65, -78, 1790, 3016, 598, -1197, -23, -492, 235, 429, 885, -253, 2809, -946, -94, 404, 1178, 407, 1776, 1159, 3370, 61, 2024, -1627, -305, -432, -3995, 2464, 446, 1921, 2649, 421, -1075, -258, -1361, 19, 385, 174, 726, -1743, 625, -451, 259, 1417, -922, 261, -849, 209, -685, -870, -409, 743, -1572, 755, -426, 781, -1410, 910, 2320, -201, 1167, -2107, -104, 1570, -1259, 787, -673, 3234, -1535, -114, 508, -540, 1109, -166, -878, 89, 1853, -3514, 370, 813, 412, 277, 134, 1119, 1892, -1239, 57, 1584, 61, -517, -2619, 1570, 925, 1238, 312, 1187, 1003, -94, 1018, 419, 3668, 1237, -2372, -1668, -2509, -352, -102, 959, -173, -338, -973, 607, -808, 609, -403, 1988, 610, -651, -1590, 933, -1875, 1775, 1724, -1708, 580, -3916, 600, 1157, 997, 164, 1611, 1834, -267, 330, -327, 710, 337, -242, -177, 173, 30, -3436, -1006, 1572, -975, -616, 207, 9, 1817, -1402, -2023, -2667, -1390, -2860, -4595, 807, 618, 1429, -1158, 248, -288, 1076, 1373, 796, 4341, -831, 356, -1022, 305, -287, -116, 1867, -1000, -564, -328, -707, -754, 568, 2378, 1796, -1666, 825, 824, 1559, -1285, 1003, 860, -509, 177, -4840, -480, 522, -74, 3, -1371, 1397, -291, 78, 1801, 1149, 805, 1932, 1138, 411, 2365, 811, -852, -71, 530, -260, -1201, 1117, 2306, 636, -649, -1183, -847, -201, -1284, -97, 305, 100, 481, -220, 298, 1968, 564, -1393, 2679, 603, -1392, -326, -319, 1302, 650, 1496, -389, -329, -1081, 2048, -840, -349, 1694, -62, 1213, 484, 1534, 107, -1380, -2578, 2618, -231, 1921, -3754, -1332, -1400, 153, -433, 1406, 2350, -1401, 851, 1694, -341, -331, 1183, 451, -2660, 1349, -3859, 800, 610, 1859, -344, -866, -493, -200, -3124, -935, -257, 1781, -218, 245, 19, 372, 34, 744, 648, -128, 2793, 590, -82, -1141, 1464, -1196, -299, 783, 1192, 115, -144, 516, -276, 890, -834, -917, 1366, -215, -515, -1363, -467, -296, -179, -1691, -2380, 1353, -1177, -557, -1779, 686, 1290, -671, 1969, -1773, 1590, 51, 495, 1421, 1809, -1601, -715, 103, 157, 1814, 787, 1833, 2963, 771, 63, 564, -2325, -670, -487, -958, 1069, 650, 748, -904, 54, 795, -1839, -536, -637, 251, -1940, 1826, 60, -1031, 475, 522, -372, -523, -500, 124, -1630, -643, 2144, 1583, -1416, -1530, -16, 1182, 327, 509, -804, -510, -83, 252, -540, 226, 1763, 150, -630, -1218, -626, 156, -361, -700, 666, -102, 225, -86, 1763, 1345, 1028, 1419, 2344, 491, -1896, 1185, 1137, 290, 614, -1358, -40, -736, -102, -736, -342, 1197, -2099, 902, -1598, -191, 1560, -195, -624, 529, -386, 868, 1496, 1267, 417, -317, -573, 1315, -1090, -15, -545, 230, 608, 1099, 766, 789, 186, -1229, -101, 596, -6, -598, 26, 930, -51, 122, 209, 1204, -68, -230, -2204, -773, 3123, 407, -1683, -371, 359, 537, -819, -177, -231, -940, 842, 331, -525, -870, -858, -1462, -915, 6, 1286, -35, 51, 955, 61, 1772, 1591, 486, -139, 441, -911, 569, -371, -952, -530, -807, -1265, 1050, 422, 290, 1102, -334, -1111, -673, 305, 349, -297, -828, 329, -60, 2511, -921, 792, -264, -1074, 2343, -631, 388, 1943, 1060, 393, 1304, 625, 3, -1254, 621, -828, -1274, -580, -35, -553, -771, -859, -496, 649, -570, 440, 221, 401, 916, 598, 48, -1331, -994, 2063, 576, 172, -2363, -526, 1296, 1248, -830, -997, -435, 599, -621, 397, 1397, -1502, 2602, -858, -276, -1547, -193, 1588, 2375, -618, 43, 1950, 158, 118, 1054, 337, -155, 1333, 470, 291, 876, -1888, -1584, -433, 739, -1787, 372, -533, 858, -605, -158, -348, -1239, 434, -1685, 2046, 688, -207, -848, -968, -937, -1290, -800, -428, 241, -1891, 1855, -1899, -806, 64, 669, 547, 1083, 2656, -567, -1134, -157, 469, -898, -324, -3008, -1272, 368, -782, -379, 554, -323, -873, 685, -149, -133, -412, 345, 560, -189, -765, -697, -523, 1020, 1524, 250, -1093, 2300, -188, 170, -197, -918, 1619, -236, -319, 282, -84, -408, 1179, -600, -2179, 153, -1813, 67, 306, 635, 107, 185, -996, 516, 1770, -669, 248, 1900, -191, 838, -949, 1372, 498, -1764, -455, 326, 849, -1400, 643, -711, -276, -1660, -127, 834, -1017, -835, 60, 597, 75, 214, 768, -1638, -74, -755, -890, 608, -198, 235, 926, -2026, -1738, -1452, 373, -815, 568, 8, 326, 807, 202, -950, 530, -54, 774, -815, -576, -1054, -280, -497, 149, -486, 1783, -618, -945, -561, -2772, 235, 726, -945, -3, -784, 715, 36, -683, -2111, -635, -242, -383, -822, -497, 1322, 583, -764, 1435, -152, -594, 571, -1472, 894, 599, 443, -1487, 370, 142, -335, 2065, 628, -1261, -2081, 1580, 1757, -2273, -1436, -710, -668, 1917, -2188, -305, -674, 1189, -96, 949, 526, 1642, 211, 931, 406, 575, 1442, -2581, -226, -1434, -1225, -1021, -1521, 2298, -1266, -539, -1155, 280, -568, -634, -1074, -500, 1145, -153, 1402, -35, -1209, 1471, -736, 446, 1975, 854, -1003, 178, 2726, -2277, 1651, 334, 374, 1019, 1525, -866, -178, 1002, -370, 739, 675, -1355, -1192, -1636, -252, 1941, -2, 1383, 67, -919, 796, 1398, -270, 1102, -173, -991, 1133, -1204, 1853, 278, -76, 240, -285, 770, 1692, 2678, -46, 129, 1409, 651, -2135, -762, 752, -629, -100, -259, -1283, -2747, 1392, 129, 398, 1543, 1514, 928, -1101, -784, 131, 1348, 856, 778, 646, 1528, -766, -494, 814, 369, -1333, 2184, -1165, 1137, 453, -1279, -565, 106, 765, 1255, -311, -682, 35, 1985, -990, -778, -133, 1976, 2232, -1099, -1624, -1235, -1814, -653, 985, 439, -916, -904, 207, 23, -1521, 1413, -730, -410, 665, 951, 1715, 2485, -2601, -469, 572, 1061, -32, 402, -283, -3431, 558, 502, 447, 488, -400, -1184, -112, -931, 269, -134, 1714, 1431, -213, -1248, -337, -1021, -810, -1392, -19, -900, 721, -774, 1425, 1433, 484, -44, 1238, -1668, 1296, 922, 178, 696, -1024, 563, -227, 342, 505, -764, -796, 2318, 2016, 1159, -215, -389, 599, -469, -1179, 595, -717, 1175, -1175, 1037, 647, -429, 1101, -624, -544, -2622, 134, -2007, 1382, 3690, -1275, -1202, 113, 290, -989, -176, -119, 49, 135, -19, 737, 1035, 259, 1441, 62, -5, 2195, -680, -595, -210, 1490, 127, 507, 489, 752, -112, 500, -944, 1118, 1365, -450, -726, -915, -233, -1502, -1620, 1106, -581, -136, 1470, 476, 782, -1395, -1766, -1877, 536, -756, -497, -13, 868, 393, -70, 876, -1080, 167, -953, 539, 1471, -745, 1300, -256, -950, -2139, 2780, 1458, -116, 957, 1111, 249, -1488, 342, 544, -1062, -1277, -2222, -2154, 521, 1084, 10, 2345, 1226, -651, 644, -1011, 2102, 259, -84, -1392, -1213, 938, 1670, -885, -154, -907, -1490, 247, 689, 617, 556, -25, -83, 947, 879, -2016, 582, -1077, -200, -702, 1779, -23, 1346, 1248, -1098, -1560, 1921, 129, 1461, -512, 1579, -1000, 1095, -1380, 1778, -285, 182, 873, -4, -1032, 1396, 1171, -1521, -385, 1460, -1500, -836, -1720, 111, 385, 137, -319, -405, -397, -652, 569, 631, -1669, 505, -325, -837, -3330, 1157, 276, -1119, 180, 392, -25, 30, -669, 593, -786, 1132, -1444, -1523, -765, 469, -734, -1089, 1117, -1193, -606, -929, -1070, -773, -1015, -110, -1248, -958, -1154, -1329, -1435, -192, 971, 2527, 473, -102, 1399, 180, -1459, 868, 156, -995, -68, 716, -2489, -341, -1321, 540, 800, -507, -987, 1747, 168, 504, -266, 131, 89, 962, 2202, -1448, 890, 409, -52, -789, -723, 1237, -131, 1201, -720, 1575, -27, -43, -685, 1679, -1279, 2688, -1390, -532, 151, 643, 135, 358, 11, -549, 297, 985, 726, 384, 1768, 906, -228, -341, -160, -485, -2343, -349, 666, 380, -112, -838, 942, -276, 134, -309, 579, -180, 1225, 778, -229, -1860, -782, -640, 11, 1381, 1773, 712, -778, 1526, 912, -717, 1013, 258, -387, 1492, 2154, -682, -824, 418, -103, -252, 187, 583, -2063, 417, -485, 2293, 1654, -521, 1828, 426, 532, 863, 39, 863, 1425, 238, 205, -610, -1239, -501, -799, -1041, -671, -1027, 1614, 1138, 945, 165, -1885, 807, -128, 591, 630, -1597, 98, 393, -744, -205, 190, 2374, 959, -560, -1044, 1859, -2302, -981, 1787, -21, -746, -1320, 1629, 415, 395, 924, -458, -1678, -1348, -558, -1976, 893, -1184, -1960, -627, 733, 776, 514, -206, 1203, -1161, 991, -555, 1605, 203, -533, 830, 94, 694, -1184, -735, 2289, -403, -254, 848, -173, 1, -602, -1089, 691, 2681, -476, -834, -1356, 715, -1300, -1470, 174, -1268, -242, 1110, -1498, -922, -1197, -592, -631, -888, 1924, -133, -1695, -86, -791, -21, -1228, -1722, 1190, 896, -337, 197, -1941, 160, 2632, -451, -204, 2323, 757, 1494, 927, -664, 1349, 1263, 1914, -1067, 873, 332, 1149, -1484, -2089, -2657, 4082, 521, 509, -37, -34, 710, -236, 352, 1672, -19, 925, 1220, 946, 924, 1525, 326, -504, -1542, -1983, -375, 798, 657, 996, 284, 724, -339, 536, 205, -907, 1606, 1544, -2422, -1644, -3810, 384, 53, 265, 671, -3450, -266, 1555, -943, 1023, -502, -15, 1396, -247, -1658, -477, 3322, -1392, -36, 1490, -2307, 861, 640, 2117, -1203, -32, -1781, 3534, -1930, 684, -327, 811, -319, 1412, -1737, 753, 160, -493, 263, 7, -304, 2660, 1073, 598, 1478, 23, 1075, -1007, 841, -1955, -1775, -1376, 944, -322, 1127, -1019, -1832, -48, -1561, -2084, -152, 1149, 769, 1772, 2245, -2542, -289, -370, 915, -320, -143, -1389, -1303, 621, 34, -1846, 54, 451, -1479, 2009, 3547, -1266, 1597, 2117, 295, 1735, -39, -1730, 528, 644, -945, 2200, -2089, -1379, 22, 1103, 878, 1626, 119, -180, -329, 419, -2855, 1467, 1460, 2860, 1412, -1021, -641, -456, 409, -1634, -779, -1572, -2459, 1468, 1093, -957, 1128, 269, -316, -1548, 569, -3095, -752, 395, 3266, 299, 1045, 1719, -288, 413, -291, -1751, 534, 3085, 1681, 1250, -174, 907, 2296, -854, 556, 758, 3473, -946, 62, 346, -1321, 1246, 458, 1779, -885, 290, 1531, 2904, -1376, 141, 446, 2275, 2493, 563, -209, -994, 747, 969, -1144, 2255, 1171, 2512, 957, -1927, -847, -64, 991, -1003, 269, -801, -2137, -1354, 365, -250, 1390, 763, -2025, -1023, -71, -2566, -230, 1098, 1181, 839, 1650, -2753, 717, -617, 1602, 695, 1021, -420, -1768, -1836, -1331, 1316, 290, -1829, 3035, 1019, 207, -2246, 1376, -467, -1652, 79, -1241, -384, 307, -137, 657, 2455, 554, -1676, 1564, 267, 849, 788, -1125, 179, 759, 1347, -77, 2237, -324, 2495, -1596, 681, 41, -131, -192, -1131, 26, -2638, -960, -168, 412, 309, 1051, 425, -1395, -1985, -228, -1055, 340, 1204, 1085, -148, 2964, 667, -4, -743, 760, 1046, 1323, 2104, 513, -1245, 16, -1256, 313, -2362, -189, 669, 2888, 1223, 1914, 172, -1297, -97, -2291, -1966, 319, -317, 844, 1626, 1562, 303, 1943, 26, 1087, 2401, 47, 1765, 1704, 1744, 469, 479, 457, 1486, -844, -815, 454, 1075, 258, 1109, 1194, -1425, -445, -728, 1169, -1691, 2237, 118, -1401, -1590, 649, 832, -1282, 1074, 740, 397, 996, -1277, -13, -543, 742, -880, 1209, 1044, -234, 2, -812, -1880, 572, -1890, 1108, 855, 3413, 581, 433, -3025, 147, 375, -1319, -1538, 127, 1491, 1232, 1061, 2231, -1180, 1482, 876, 1368, 640, 22, 113, 268, 506, -2069, 1567, -1678, 312, -654, 535, 1197, 1237, 1204, 2343, -943, -1089, -864, -334, 1092, -863, 1192, 1295, -1704, 945, -60, 407, -712, -36, -956, -960, 1116, -36, 372, 1588, 1208, -65, 1345, 2469, -472, 1244, -125, -12, 1461, 1093, -579, -1395, -506, -293, -139, -51, 112, 2385, 538, 521, -465, 1949, 633, 497, 3404, -1546, 730, -1321, 1354, 1253, -76, 683, 768, 1534, 1297, -2198, -204, 117, -909, -208, -966, 1857, 455, 2862, 1071, 500, -563, -267, 278, -934, 1352, 761, -2366, 2808, -1188, 522, 96, 754, 338, 332, 1044, -205, -2736, -681, 241, -128, 204, 629, 144, -915, 470, -259, 598, 2237, 611, -678, 1455, 442, 156, 1812, 583, 1624, -390, 3319, -395, -64, 89, 2466, -359, 1351, -1205, 376, 654, 1949, 709, 440, 68, 584, 411, 143, -228, 2081, 651, 1003, 912, -40, 529, -34, 524, 986, 952, 51, 683, 1534, 1598, 509, 874, -1836, 62, -251, 702, -1017, 115, -1636, 414, -2606, 1234, -760, -619, -873, -894, -1281, 123, 987, 457, 355, -421, 2091, 171, -17, 1001, -419, -161, 779, -595, -46, -90, 863, 137, 421, 540, 903, -1881, 287, -573, 2077, 550, 2011, 304, -645, 171, 525, 687, 2068, 566, 1826, 1136, 208, 1040, 1318, 1901, -485, -716, -691, -927, -168, 113, -93, 1524, 137, 157, -911, 111, -1171, 582, 634, 148, 810, -937, 1724, 1143, 425, -323, -371, 252, 381, 721, 12, -853, 986, 1566, 143, -330, 538, 120, 971, 29, 1418, -186, 692, 23, 1213, -84, -551, 499, 2153, -2308, 2238, -584, 1285, 1526, 1610, 294, 549, 145, 632, 246, 849, 107, 1845, 990, 1826, 382, -157, 1695, -685, 2106, -438, -829, -101, 141, 718, 1715, -157, 520, 89, -23, 39, -515, 878, 1094, -536, 1606, -2350, 1231, -38, 1417, -1471, 637, 307, 462, -709, 763, 747, 53, -949, 1768, 467, 1091, 1837, -488, 947, -279, -437, 292, -1598, -189, 656, 1038, 1151, -2569, -486, -1068, 1222, 267, 929, -80, 33, -896, 1535, 71, 4346, -838, 1538, 1110, -138, 996, -286, 1283, 544, 1737, 357, -95, 1195, 2243, -298, 487, 427, -196, -1215, 748, -651, -763, 851, 701, 942, 1484, 1234, 508, 537, 677, 65, 904, -355, 688, 900, 731, 907, 290, -2074, 915, -313, 1858, -973, 1620, 455, -437, -681, -210, 132, 742, -484, 1303, 619, -995, 472, -669, -305, 1087, 1200, 1402, 1097, -242, -152, 269, 1512, 424, 1184, -389, 1960, 890, 102, 601, 1603, 1027, 362, 399, -1336, 2501, -545, 388, 1622, -532, -922, 136, 337, -1207, 1179, 645, -419, 197, -3189, 976, 660, 100, -1239, 1378, 1995, 878, -851, -33, 770, 649, -442, 1640, -161, 47, 1016, 1085, -1057, 32, 999, -439, -2077, 609, 491, 2134, -1153, 507, -762, 1824, 108, 1234, 562, -1011, 902, -276, -1219, -828, 349, -236, -759, 642, -565, 947, 681, 715, 1757, 2914, 391, 881, 461, 2309, -804, 2508, -386, 948, -161, -486, 1210, 116, -330, -624, 1239, 1734, 1659, -38, 940, 2569, 2223, 2351, 1773, 174, 1133, 1861, 1050, -285, -276, 505, 461, 515, 817, -630, -51, 678, -360, -930, -102, 1019, -226, 577, 369, 1999, -624, 1099, -797, 497, -302, 158, 574, 348, -377, -13, 906, -682, -1199, -354, 379, 1784, 2285, 307, 1157, -448, -1154, -200, 205, -291, -820, 2302, 84, -2029, 1947, 501, 897, 1008, 318, -168, 674, 1688, -2229, 559, -1050, 621, -171, -323, 1956, 1464, 427, 609, 639, -1193, -412, 2541, 1343, 1852, -103, 1514, -1863, 2355, -195, -223, -711, 1440, 21, 1247, 640, 1308, -1999, -72, 1172, 993, 94, 431, -142, -19, 1636, 36, 461, -210, 50, -1037, 1144, 1405, 1335, -297, 1079, 694, -481, 290, 47, 1378, -107, 1620, -67, -360, 2269, 529, 2518, 318, -553, -581, 1366, 1488, 631, -2094, 1214, 670, -72, -2, -1860, 477, 23, -493, 1028, 93, 1738, 483, -465, -1380, -782, 505, 639, -474, -379, 447, 1722, 404, 1090, 1732, 804, 219, -578, 172, -755, 777, 811, -121, 227, 590, 195, 157, -429, -218, 1420, 538, 946, 802, 411, 1118, -1675, -1726, 245, -65, 1399, -488, 326, 830, 1229, 564, -100, -458, 712, 927, 138, -244, 48, 1170, 777, 1398, 317, -988, 1762, 607, 938, 653, 392, 202, -144, 396, 896, -240, -459, 137, -437, 760, 797, 205, -40, -85, 505, -420, -456, 84, 958, -1134, 1461, -494, 667, 403, 1861, -635, 769, 1333, 105, 890, -351, -765, 566, 228, 1253, 1182, 112, 927, 452, 158, 179, 84, 607, -955, 494, 792, -756, 763, -526, -501, -395, 739, 109, 511, 995, 1124, -1642, 2100, 419, 931, 541, 1413, 33, 611, -108, 112, -1047, 76, 717, 845, 818, -241, 386, -414, 1048, 212, 1423, 893, -607, 244, 34, 421, -172, -2624, 34, 115, 978, 551, 959, 788, -246, 629, 1437, -61, 1334, -918, 414, 1165, -183, 2628, 1163, 1076, -219, 968, 797, 421, 331, 171, 32, 1560, -121, 620, 433, 1074, 663, 836, 235, -313, 2490, -874, 2438, 120, 605, 753, 377, -388, 1738, 525, -313, 827, -1299, -220, -382, -124, 313, 361, -13, -454, 1101, 132, -41, 400, 334, 642, -116, 472, -650, -1459, 1356, 620, 585, 596, 934, 595, -171, 901, 224, -392, 1083, 437, 658, -33, 1507, 516, 2036, -681, 1130, 377, -1057, -633, 239, 903, 545, 1108, 550, -658, 356, 653, 131, 1435, 1470, -440, 144, -6, -1330, 1825, -1623, 1231, -17, 133, 310, 353, -1015, -119, 106, 12, -1037, 1458, 1255, -1140, -451, -144, 78, 278, -179, -115, -688, 113, 16, 1414, -959, -275, -1370, 419, 749, 138, 1420, 144, 124, -495, -598, -1681, -153, 327, -176, 1270, -1083, -436, 1161, 133, 1674, -324, 49, 1815, -248, 1393, -875, 55, 810, 1594, -1144, -959, -708, 141, 904, -176, 733, 1499, 1055, 2765, 50, 122, -404, 1867, 590, -222, 1630, 584, 636, 1068, -537, 378, -414, -64, -718, -455, 71, 311, -178, -281, 1588, 484, -427, 169, 36, -608, 957, 1374, -792, 1330, 1595, 1079, -398, -387, -1301, -779, 1501, 931, -967, 434, 289, 96, 332, 958, 346, 769, -1747, 2154, -3, 1845, 37, 2367, 1052, -808, 950, 722, 201, 116, 614, -4, 365, -527, -1502, 2601, -303, 642, 447, 149, 396, 589, 165, 695, 409, 378, 716, 727, -92, 646, -658, 92, 464, -25, -60, -516, -1051, 2472, 1217, 272, -629, 587, -956, 531, 307, 646, 753, 821, 665, -499, 148, 440, 1345, 849, -432, -731, -76, 587, 1928, 1652, 2388, 96, -1295, 999, 851, 428, -383, 1773, -386, 1854, 907, -113, 409, 1319, -353, -1034, 816, 788, 69, 1773, -706, 1379, -210, 880, -637, -1265, 435, 230, 1294, -314, 155, 1854, -836, -733, 1590, 419, 143, -14, 85, 740, -474, -167, -26, 285, -53, 843, -253, 712, 371, -35, 305, 873, -208, -796, 1897, 270, -1496, 40, 1763, 201, 979, 1377, 892, 329, -89, -196, 454, 697, 2017, 1724, -56, 1583, 958, 509, 1453, 1228, 13, 1413, -136, -1035, 2741, 724, -2256, 576, 1048, 170, -618, 1204, 1462, 441, 1722, 969, 262, 587, 832, 620, 71, -418, 1090, 2416, 198, 240, -60, 503, 330, 879, 143, 803, 1142, -52, 415, 344, 109, 1515, 581, 1127, 151, -212, 1404, -193, -348, -199, 176, -217, 1019, -766, 972, 614, -604, -465, 1907, 780, 712, 421, 590, -88, 982, 772, -1079, -1219, 77, -651, 954, 391, 760, -1380, -926, 78, 979, -900, 886, 462, 1100, 1162, 1534, 53, -85, 1482, 1392, 428, 253, 316, -144, 1074, -27, 388, 1369, -110, -529, 778, 23, 426, -571, -792, -175, 332, 671, 1816, 1505, 399, 375, 641, 1522, 343, -421, 991, 361, -465, 1282, 890, 93, 359, -70, 626, 889, 498, -199, 1021, 167, 378, 966, 325, 1536, -849, 537, 162, 257, 2093, 1601, -592, 1271, -275, 1693, 21, 281, 311, 869, 867, -172, -186, -815, 1511, -385, 205, 222, -241, -599, -59, 623, 1058, 1277, 157, 122, 334, 2226, 1038, -262, -722, 2243, 204, 313, 281, 3048, 806, -589, 799, 522, 649, -12, 383, -249, 1104, 438, -244, -103, 1986, 1144, 432, 119, -120, 755, 1779, 96, 617, 51, -240, 848, 234, 501, -441, 204, 642, -779, 471, -311, 1469, 1812, 515, -377, 866, 60, 241, 47, 628, 404, 251, 27, 569, 1252, -275, -547, 595, 1247, 846, 1135, -43, 891, 318, -503, 1842, -1050, -789, -799, 45, -154, -300, 792, -90, 1487, 398, 2001, 386, -234, -500, 271, 1126, -664, 734, 611, 1406, 809, 25, 441, 1350, -290, 1584, 45, 614, 1045, 182, 496, 759, -502, 739, 146, 305, 633, -488, 412, 856, 1064, 294, -211, 186, 1698, 572, 1141, 603, -96, -101, -475, 455, 1088, -19, -784, 528, 577, 1203, -430, -122, 1269, 545, 1434, -182, -323, -731, 734, 656, -62, 117, 1994, 524, 77, -509, -106, 1191, -783, 977, 763, 114, -872, 1391, 165, 528, 1227, 1961, -871, 1024, -811, 894, -31, 428, 1214, -531, -53, -738, -511, 206, 695, -10, -192, -1039, -892, 1096, -86, -198, 1263, 395, -11, 933, -245, 506, 339, 25, -18, 941, 368, -498, -501, 845, 66, 478, -870, 564, -42, 1037, 981, 148, 69, -377, -273, 1247, 105, 479, 310, -675, 742, -82, -1062, 377, 526, -510, -19, 1529, -167, -194, 231, 1630, 761, 753, -331, 233, 336, -343, -510, 1120, 904, 545, 292, 986, -644, 504, 1573, -789, 1186, -492, -24, 798, 627, 616, 42, 706, 10, 704, 731, 422, 534, 465, -103, 1212, -77, -83, 267, 288, 659, -717, 853, 555, 431, -916, 1349, -457, -191, -390, 1036, -287, 183, 523, 842, 633, 416, -688, 408, -801, 345, 490, -306, 157, 944, 2415, 431, -691, -66, 562, -116, 288, 210, -547, 31, 1183, -54, -166, -241, 23, 281, 969, 678, -230, 1190, -981, -163, -1235, -56, -445, -139, 912, 1435, 63, 1091, 530, 956, 859, -235, 75, 394, -1292, -414, 826, -58, 1394, 356, 579, -1096, 445, 980, 856, -8, 927, -1253, 1151, -1138, -322, 713, 2027, -13, -669, -300, 741, -505, 562, 1435, 1400, 197, 1616, 1766, 1874, -313, 15, -1144, 221, -393, 2566, 988, 855, -18, 447, -511, 1856, 354, 115, 1163, -416, 573, 717, -11, 1596, 1929, 1701, -952, 155, 1475, -569, -293, 1201, -410, 355, 944, 417, -135, -417, 471, 478, -68, 584, 653, -18, 505, 2112, -213, -522, -335, 676, -615, 1247, -345, -271, 670, 644, -163, 888, 602, 407, -290, 329, 1315, 1028, 1447, -38, 2401, 633, 1796, 420, 433, 250, -338, 810, 1437, 170, 550, 910, -330, 839, 243, 646, 1618, 423, 832, 254, -332, 1448, 774, 1327, 314, 446, -458, -107, 343, -65, -933, -589, -2, 261, 512, -3, 1291, 2079, 552, 875, -169, -4, 922, 1403, 399, -746, 490, 117, 1201, 1038, -240, 1364, 1511, -5, 1439, 1749, 355, 640, -967, 642, 313, 670, 990, 983, 82, -43, -302, -313, 627, 821, -1219, 922, 42, 163, 372, 826, 1462, -326, 893, 1442, 897, 626, 732, 1090, -315, -12, 810, 313, 47, 457, 1426, 3062, -503, 1015, -776, 221, -221, 496, 523, 118, 235, -52, 603, 1174, 723, -252, -1394, -267, 1626, 1632, -842, 132, 127, 1001, -568, 459, -16, 843, 289, 1281, 1050, 1260, -283, -242, 1158, -102, -134, -61, 919, -25, 1913, -532, -26, 682, -65, 1358, 1066, 841, 681, 497, 1052, 198, 18, 399, 1494, 1285, 1361, -248, 742, 532, -602, 380, -147, 632, 166, 655, -490, 1634, -436, 275, -340, -9, -111, 618, 1506, 122, 1260, 472, 991, -43, -540, 234, 154, 514, 678, -59, 90, 1485, 497, 220, -486, -307, 1096, 992, 680, 2001, -1159, 339, 239, -837, -781, 2023, -837, 314, 1182, 2275, 31, -164, -374, 716, -1040, 223, 1002, -809, 435, -264, -264, 313, 1486, 208, -66, -1218, -102, 992, 1181, 783, 698, 265, 530, 212, -301, 1187, -255, 113, -174, -532, 709, -246, -934, 1555, 155, 490, 562, 504, 911, -898, -299, 1018, 967, -7, -943, 1624, -573, 1102, 485, -924, 1289, 375, 211, 116, -513, 1075, 262, -193, -416, 419, -568, -270, 66, 786, 239, -55, -452, 382, 467, 64, 775, -107, 79, -229, -238, -274, -198, -231, 1098, -509, -473, 637, 758, 838, 163, 206, -551, 502, 1592, 1503, 456, -457, -134, -98, 1216, 101, -1343, 1426, 1, 125, 2673, 596, -99, 942, 1214, 1160, 613, -657, 698, 1581, 1017, -136, -753, 688, 952, 104, 971, -754, -102, 1515, 116, 1468, 141, 1184, 215, 645, 499, 916, 879, 399, -515, 864, 332, 846, 1828, -945, 232, 458, 839, -416, 402, 1103, 87, -1184, -1055, 121, -840, 234, 516, 300, 281, 702, 244, -415, 1660, 93, 451, 937, 839, -816, 1332, 702, 481, 448, 821, 393, 27, 1801, 944, -136, 252, 198, 655, 302, 400, 1093, 1386, 1640, -770, -324, 427, -70, 300, 1725, 383, 262, -503, -345, 547, 282, 623, 385, -1187, -589, -83, 2128, -400, 266, 135, 735, -722, 1963, -505, 802, 1613, -374, -37, 523, -283, 533, -256, 823, -1420, 1364, -515, 873, 931, 1074, 871, 494, 654, 672, -642, -1665, 1508, 498, 54, 233, -811, 1086, 887, -344, -286, -686, 352, 637, -388, 2051, 707, 401, -487, 807, 907, -184, -555, 1045, -48, 735, 1603, 247, 1409, 2745, 46, 1087, -709, 277, 225, 595, -515, 982, -92, 1446, 952, 128, -306, 748, -75, 731, 1978, 314, 1053, -409, 418, 1106, 1153, 1409, -523, 152, 1883, -743, 637, 684, -1070, 1493, -912, 331, -245, 1130, 1284, 94, -256, -70, -1051, 814, 368, -277, 1012, 702, 626, -142, 818, -304, 164, 1328, 1587, 204, -678, 812, 448, 531, -862, -1011, -273, 2465, 840, -434, 720, 2194, -74, 795, 1643, 1181, 186, 210, 2353, 468, 1208, 302, -406, -273, -134, -22, -315, 2015, 2228, 859, -189, 48, 586, -894, 732, -27, 1298, 626, -618, 2555, -617, 796, 72, 1063, 676, 1100, -28, 1594, -425, -1084, -598, -806, -1580, 70, 781, 747, -938, 871, 987, -855, 1236, -683, 341, 696, 932, 811, 1000, 874, -556, 1438, -967, 1116, 650, 1306, -1356, 606, 1280, -707, -400, -325, 163, 886, 1539, 319, 1739, -133, 809, 632, 988, 186, 460, 1034, 83, 293, 814, -160, 1697, 2272, -1010, 258, 1064, -828, 400, 295, -671, -307, -1009, 582, 358, 1679, -511, 134, -64, 507, 31, -640, 1139, 775, 1305, 618, 554, 412, 711, 55, -271, 685, -369, -499, 297, 779, -189, 1797, 963, -1116, 564, 1132, -751, 1256, 1961, 955, -867, -531, -229, -784, -527, 716, 163, -23, 446, -1427, 1044, 638, 564, 203, 1373, -782, 1820, 1066, 193, 19, 906, -622, -656, -722, -921, 1266, -88, -181, -1122, -1076, 329, -73, -292, 206, -70, -1109, 165, -557, 1133, -908, 1424, -17, -231, 420, -476, 408, 542, -482, 759, 1438, 406, 1543, 1776, 1077, 8, 216, 96, -184, 711, 1254, -1910, 1217, -738, -305, 287, -327, -539, -1522, 254, -173, -299, 433, 1665, 693, -131, -512, 209, 592, -417, 707, -113, 334, 107, 828, 1086, 651, -646, 1083, 1108, 251, 1492, -842, 16, 1665, 186, -73, 163, 1379, 1444, 345, 590, 674, 1140, 31, -397, 504, 1271, 416, -447, 244, -1294, -692, 260, -298, -332, 1431, -116, 223, -1087, 84, 31, -346, 629, -52, -2109, 1145, -429, 476, 551, 1020, -176, -1255, 843, 980, -576, 662, 1186, -458, 927, -1074, -248, 114, 1308, -135, -197, -1295, -1101, 268, -412, 716, 151, 733, -660, 1957, -787, -253, 811, -188, -364, -289, -693, 283, 1202, 1106, -483, 3, 900, -199, 1953, 971, 170, 486, 204, 463, -722, -766, 1280, 712, -843, -1196, 729, -466, -283, -329, -439, 1208, -375, 1227, 360, 263, -31, 1205, -578, 2840, 507, -1055, 654, 1144, 407, 1157, 221, -285, -233, 609, -530, 2033, 1481, 1373, 166, 739, -748, 286, -498, 267, -189, 1069, 1141, 938, 490, 362, 1579, -293, 960, 1167, 84, 616, -505, 1202, 928, -613, 1105, 628, 571, 207, 1794, -1082, 1013, -145, 310, 1171, 1602, 731, 1128, 662, 529, 1127, -193, 260, 612, 48, -355, 1040, 1192, 314, -780, 422, 1573, -239, -796, 444, -475, 11, -618, -491, 2102, -850, -233, 1503, 78, -569, 408, 1530, 453, -1355, -600, -559, 730, -536, -537, 882, 330, -1076, 718, -1248, 362, -1, -211, -313, 388, 567, -99, 192, 218, -1233, 1088, 714, 1496, 592, 1866, 1057, 67, 339, 10, 901, -604, -46, 525, 52, -99, -404, 338, -248, 458, -26, 673, 722, -46, 219, 1825, -101, -616, 893, -1336, 930, 230, -1192, 685, 123, 785, -44, 603, 1124, 207, 211, -10, 1509, -481, 1064, 362, -16, -593, -608, -2825, 1422, 139, -698, -838, 512, 977, 333, 429, -208, -1459, -882, 945, 941, -58, 552, -1203, 11, -1339, -404, 1508, -127, 1078, -551, -2156, -772, 922, 430, 1499, 26, -1490, -1537, 733, 643, -1238, -762, 183, 536, 26, -700, 1841, -4, 557, 133, -1675, 1263, 1359, 955, -1165, 542, -86, 946, 630, 1212, -496, 1334, 1749, 785, 1964, 554, 825, 733, -122, 959, 246, -2312, -1780, 2123, 328, -701, 1108, -227, 565, -1087, 558, -825, 1302, -13, -161, 373, 1307, -762, 1154, 1413, -1477, 4, -779, -758, 1592, -974, -486, -2713, 237, -382, -273, 189, -322, 57, 12, -2134, 1892, -25, 331, 460, 158, -41, -492, 857, 1888, 707, -441, -384, 144, 651, 616, -1012, -507, 750, -824, -1848, 1315, 518, 416, -1303, 581, 375, 821, -1177, 1139, -903, -1506, 1225, 250, 114, 1902, -1376, 123, -490, -528, -784, -509, 47, -292, -300, -279, -1183, 1178, 1370, -1208, 99, 4, 1672, 830, 216, 1215, 808, -231, 1145, 1040, 589, -1013, 222, -1011, 145, -473, 1116, -1569, -884, 1682, 158, 1471, -1779, -863, 442, -1406, -391, -522, 446, -2072, 781, -1578, 648, 412, 450, -459, -406, 1482, 190, 695, -313, 179, -1019, -1442, -178, -58, 298, -1636, 854, -754, 219, -1096, 1116, -1074, 118, 431, 513, -668, -1626, -340, 1539, -185, -854, -537, 502, -1539, -609, 1135, -1517, 1721, -294, -992, 677, -490, -227, -2244, -1918, -436, 567, -400, 987, 1767, -110, -1249, 992, 529, -1353, 298, 610, -765, -100, 503, 720, -439, -634, 654, 2, -1157, 969, 1028, -1376, -1561, -2713, 749, -548, -2276, -548, -2126, -397, 395, 251, 1099, -529, -723, 438, 848, 38, 322, 2243, -513, -184, 996, 589, -1595, -150, -270, -601, -946, -155, -1493, -78, 1067, -553, -623, 480, 398, -177, -723, 752, -116, -1104, 467, 999, 1106, -1187, -494, -199, -664, 234, -404, -241, 684, -1223, -91, 912, -458, 1042, 290, 906, 496, 370, 55, 1902, 830, 978, 1329, -400, -776, 1188, -1217, 687, 203, -228, -2209, -954, 1728, -49, -152, 1116, -31, -1874, 841, 1234, 378, -256, 1327, 329, 1472, -138, -119, 1369, -175, -209, 1055, 846, 482, -373, 1119, -1225, 52, -20, -476, 981, -316, -128, 412, 566, 743, -915, 690, -85, 125, 1114, 993, 1455, -2031, 1157, -1983, -792, 709, 331, 288, -482, 163, 1182, -115, 149, 776, -853, -819, 2489, 80, 471, 2154, -1577, -191, -589, 895, 118, -657, -1650, 858, 438, 838, -1036, -278, 88, -603, 995, -730, -199, -627, 1595, -222, -352, 254, -806, 767, 297, -380, 1253, -44, 743, 328, -31, 1305, 473, 379, -113, 68, -172, 1337, 1703, 272, 1017, -743, -712, -655, 751, 1045, 887, -1656, 696, -331, -1167, 210, -910, -64, -932, 9, -894, 649, -121, 409, 1008, 920, -327, 1585, -1084, 994, 860, -3042, 348, 872, -487, -1148, 1205, 1433, -680, 44, -1720, 915, 679, -613, 315, 2691, -464, -329, 1969, 431, 542, -258, -275, -1513, -586, -1180, -438, -1270, -174, 1281, -185, -2047, 2630, 168, -816, 1322, 212, -230, 205, 1199, -257, 646, 0, -261, -416, 1193, 361, -916, 658, 2370, -209, -1580, -2277, 263, -630, 692, -2645, 419, -580, -257, -2092, -259, -593, -2212, 413, 293, 209, -101, -294, 1250, 1154, -1524, 589, -1788, -439, 1108, 607, -2049, 1124, -231, -656, 414, 688, 1745, -520, 61, 1516, 1048, -1031, -777, -844, -932, 722, -545, 1585, -332, -358, 721, 653, -406, -652, -1285, -1077, -240, -317, -507, 585, 290, 662, 69, 638, 501, -1064, -1241, -1960, 818, -381, -2379, 94, -1604, 631, 96, -2083, -555, -265, -871, -1681, 537, -621, -592, 729, 1794, -899, -1079, 8, -1652, 304, -2145, -854, 1492, -1100, -1523, 423, -25, 1318, 634, 663, 27, -637, -1163, 366, 354, -444, 622, 281, -880, 1262, 1288, -438, -123, -2296, -594, 24, 1233, -1396, -142, -93, 7, -1117, -457, -29, 1192, -31, -1681, 106, 350, -2152, -1120, -886, -328, 2094, -859, 822, 504, -871, -785, 124, 637, -400, -8, -965, 949, -919, 494, -213, 1791, -593, 1237, -692, -755, 1115, -2229, 547, 197, -442, -2259, -136, 145, 1118, -973, 1377, -277, -913, -1346, -517, 1201, -396, 985, -246, -826, 2059, -77, 1575, -478, 681, 126, 1147, -385, -671, -1235, -1330, -449, -1383, -491, 639, 985, 1114, 678, -703, -1395, -889, -1250, -2173, 1033, 2005, -594, 1442, -1222, 384, 420, -220, -753, -397, 650, -2200, -100, 987, -721, -646, 812, 442, 536, -369, -1032, -18, -2305, -14, -440, -478, -1810, 128, -1146, 1243, -945, 1131, 879, 1164, 48, -741, 174, -914, 112, -1775, 484, 998, 1124, 605, -510, 658, -560, 1219, -1381, -1098, 694, -151, 1261, 706, 340, -1079, 2082, -270, -906, -478, -651, -1331, -503, -854, 580, 1330, -1274, 689, -414, 716, 752, 883, -439, -673, 681, 117, 213, -148, -710, 641, 1121, -1180, 1090, 708, -782, 1194, -1337, -928, 239, -249, -1496, -14, -35, -215, 1395, -367, 379, 697, -1193, -1247, -88, 104, -337, -106, 624, 334, 956, 893, -85, -44, -262, 1251, -1938, -1076, -266, -1464, -33, -1743, 62, -258, 1492, 1950, -530, -647, 1364, -621, -1096, -1365, 249, 2628, -1523, -762, 365, -655, 1290, 325, 1996, -1557, -2678, 1744, 288, -1507, -697, -1292, -417, -679, 55, 373, -799, -345, -810, -729, 30, -782, -1530, 483, -1224, 2096, 607, 733, 933, 777, -1278, 263, 321, -1737, 2145, -316, 400, -26, 56, 1443, 1051, 1405, -57, 1467, -1191, -803, 555, -1068, -1158, -261, -387, -3211, -756, 1405, -279, -984, -2285, -324, -640, 239, 903, 998, -2263, 536, -163, -142, 1698, 681, 625, 881, 1222, 851, -197, 247, -1523, 1916, 837, -305, 559, 1935, -1019, -1577, -424, -548, 1314, 572, -1921, 317, 219, 751, 184, 1019, 967, -422, -848, 313, 1374, -720, 16, 466, 1896, 220, 1624, 1814, 451, 807, 443, 2612, -360, -808, -567, -588, -18, -735, -39, -787, 1245, 591, -1493, -610, -91, -226, -622, -1489, -14, -558, -1901, 1077, 341, -1193, -262, 107, 903, 593, 1487, -492, 2043, -327, -1157, 635, -910, -1765, 204, 550, 65, -209, -2204, -495, 1322, -955, -1652, -1227, 802, 1261, -1127, 898, 245, -542, -833, 863, 476, -1351, -359, -415, -116, 809, 2375, 1802, 345, -439, -739, 1242, 3, -1870, 572, -133, 805, 349, 1729, -1342, 170, 1427, -526, -1570, 927, 586, -235, -281, -338, -445, -737, 452, -888, 126, 1010, -1293, -780, 1299, 984, -31, 1403, -1480, -652, 1545, -40, -53, 7, 172, -1325, 247, -1536, -230, -295, -336, -1629, 192, 437, 1864, 162, -21, 2365, 483, -176, 1140, 144, 1948, -72, -1131, 685, 1043, 2169, -294, 786, -1423, -1478, 259, -142, 283, -585, 918, -9, -651, -226, -313, 1385, 2934, -866, 37, 217, -890, -1650, -521, 348, 1386, -723, -688, -728, -417, 1, -113, 791, 338, -106, -1027, -499, 79, 1422, 1117, 211, -356, 844, 209, -1359, 168, -1320, 510, 1054, -562, -1376, 1623, -550, 1503, 550, 498, 2233, 236, -3005, -26, 900, 92, 500, 911, -191, 1070, 3011, -373, -571, -376, -293, 1296, -1322, -936, -1098, -976, -895, 220, -732, -847, 568, 1159, 113, -1350, -178, -667, -501, -505, 290, -54, -1233, 389, -771, 561, 16, 732, -1065, 1292, -1494, 154, 735, -269, 379, -1341, 324, -458, 1726, 1022, -602, -171, -1517, 201, 1226, -335, -682, 174, -449, 1396, 92, -393, 2183, 250, -1063, -1574, -490, 285, -470, -143, -194, 1518, 1577, 420, 976, -595, -1060, 662, -262, -852, 979, 167, 231, -1110, 166, -1563, 681, 382, 1625, -865, 719, -907, 1269, -15, -359, 1188, -359, 472, 467, -335, 788, 1399, 764, 1962, -445, -801, 452, -1299, -963, 495, 1483, -290, 1330, 284, -1456, 383, -1168, -928, 543, -537, -745, 1213, -1401, 2406, 2020, 922, 1205, -404, -1502, -1895, 1780, -2, -568, -1006, -413, 59, 566, 1099, 479, 325, -191, 102, -546, -226, 1339, 394, 338, -1287, 1212, 227, 788, 1216, -743, -350, 1702, -975, -161, -168, -828, 661, -1221, -560, 593, 180, 1557, 381, 45, -1032, 724, 1626, 231, -321, -150, 134, 593, -1107, 823, 524, -857, -232, -2110, -720, 160, 992, -722, 1521, -529, 475, -1488, 1461, -474, 1238, -1178, -706, 1593, 299, 1175, -244, -419, 1340, 151, 1029, 756, 572, -457, 1405, -1130, 1366, 911, -526, 96, -1184, -293, 1249, 617, 1557, -385, -1319, 858, 444, 206, -416, 117, 504, -1576, -120, -113, -984, 1059, 365, 1594, 1323, 277, -1023, 458, 83, -161, 430, 707, -669, 1260, 664, -644, -689, -633, -681, 2146, 830, -1280, 2959, 135, 706, -622, 2395, 132, 1072, -434, -989, 1617, -713, 957, -129, -226, -89, 672, 871, -1217, 1028, 442, -28, -2380, -961, 708, -756, 45, -904, 1298, 192, 1825, 2533, 1050, -821, 755, 1202, -228, -856, 53, 1112, -302, 400, -1147, -1481, 515, 872, -811, 335, 463, -622, -88, -190, 1077, 206, -1700, 415, 96, 301, 362, 659, -1352, -1659, 1776, -1139, -524, 396, -62, 397, -39, 833, -473, 1211, -1277, -678, 1310, -1408, 1911, -528, 255, 890, 1026, -38, -782, 611, -277, 1528, -1057, -545, 381, -600, -1051, -1144, -35, -1004, 961, 2046, -195, -747, -483, 860, -710, -1150, 1920, 2017, -1894, 1813, 332, 1178, 165, 1833, 1661, -468, -45, 439, 704, -1605, 146, -214, -264, -1141, -778, 167, 13, -362, -1885, -857, 160, -1355, -1220, -709, 630, 677, -1247, 1236, 143, 289, -78, -302, 1630, -218, -331, -430, -737, 537, 1795, 1519, 2461, 771, -695, 1950, -1291, -481, 6, -622, 823, -747, 617, 555, 1879, 1066, 296, 1280, -390, 383, 757, -1085, -435, 208, -1391, -1320, 181, -111, 1211, -486, -207, 1924, 1605, -1501, 1158, -2320, 728, -242, -399, -827, 413, 1653, 258, 554, -2274, -314, 683, -1117, -1454, 714, -783, 1069, 234, 1542, 1215, -410, -740, 200, 1107, -434, -714, 707, 567, 137, -533, 352, 949, -918, -1396, 855, -144, -5, 232, -1756, -211, -296, -769, 1276, 1580, 1134, -648, -804, -891, -1924, 417, -396, -2294, 1156, -424, -50, -835, -1480, -825, 512, -1325, 669, 159, -520, -678, -1439, 1104, 1066, 2604, 149, 1700, -453, -208, 310, -827, -338, -160, 897, -1446, 1106, -1182, 1475, -272, -932, 1926, -856, -1213, -702, -177, 524, -627, -247, -424, 529, 459, 2196, -95, -1032, 6, -24, -868, -728, -221, -410, 879, -1186, 254, -7, -466, 214, 255, -463, 1006, -1790, -870, -514, 440, 1418, 1012, -37, -634, -955, 1934, -240, 1908, 1258, -459, -282, -919, -1431, -480, 599, 1058, -611, 1455, 557, -744, 977, -1069, -765, 336, -582, -1322, 1650, -1834, 1484, 560, 277, 2122, 1070, -1389, -1477, 1441, -986, -299, -932, -308, -31, 1959, 142, -273, -724, -883, -174, -1420, -144, 657, -792, -434, -717, 776, -685, -348, 1306, -951, -181, 113, -404, -329, 409, 337, 576, -728, -395, 368, 12, 1413, 554, -1359, 1341, 1077, 1204, 131, -1346, 147, 193, -489, -305, 1207, 341, -799, 614, -1769, -675, 721, 437, -730, 214, -937, 1453, -94, 1679, 921, -79, -998, -1709, 1714, -257, 1238, 282, 470, 343, 180, 297, 2209, 1481, -584, 28, -481, -304, 22, 284, 593, -42, 1217, 399, 642, 1476, 133, 72, 736, 205, -182, 366, -694, 3072, -1222, -354, -906, 202, 1648, -146, 1628, 604, 911, -1642, 673, -1344, 1161, 922, 558, -95, -53, 3072, -584, 66, -893, -429, 95, 1372, 82, 1525, -253, 1639, -206, 1426, 241, 514, -1520, -794, 2075, 552, -1433, -755, -802, 1115, 1059, 1380, -1734, 145, -1622, 529, -1750, 711, 1918, -176, -458, 1133, -255, 24, 233, 2193, 151, 797, -300, 509, -319, 154, 534, 1058, -1671, -545, -46, -57, 1114, 427, 77, 1247, 2284, -1045, -1461, -1476, 1636, 471, -516, -321, 810, 935, -1103, 603, -946, -989, -575, -993, -390, 1681, 1186, 1276, 21, 982, 188, 2521, -718, -1510, 2022, -682, 601, 925, -1176, 1561, 1488, 946, -380, -4, -366, -194, -1256, 253, -310, 357, 640, 310, 224, -931, 1720, 2287, -797, -1017, 258, 502, 95, 856, -22, 1744, -984, -557, -334, 623, 1773, 358, 2066, 293, 676, -419, 501, -786, 1596, -48, -144, -15, -637, 397, 284, 360, -851, -812, 1725, 643, -972, 1082, -268, 2231, 710, 687, -373, -224, -1280, -2039, 1075, -1721, 963, -965, -1493, 940, 1908, 828, -1120, 425, 245, -259, -246, -1062, 1326, 444, 199, -916, 1296, -791, 1205, 910, 753, -778, -352, -39, -365, 344, 575, 140, -833, 493, 425, -1779, 1734, 600, -312, -76, 495, -682, -380, -421, 397, 1544, -1690, -718, -13, 1512, -212, 245, -1128, -675, 384, -1477, -667, 499, -328, 78, 885, -406, 506, 1334, -559, 40, 480, 268, 1032, -857, 607, 1222, 1040, 65, 1308, 1453, -1415, 274, 38, -314, -1, 339, 1090, -1977, 1202, -1351, 1032, 1731, -112, -1157, -114, 952, 194, 1525, 1065, 575, -1161, -963, -1024, -148, 779, -862, 1388, -201, -519, -201, 2506, -2402, -3051, 1619, -920, -513, 1085, -977, -265, -1444, -2356, -1425, -22, -1699, -806, 2135, -1277, 1413, 559, 287, 654, 1315, -1458, -431, -1388, 1567, 864, -1255, -421, 586, 2275, 959, -228, 335, 349, 230, -80, -35, -176, -374, 34, -734, 245, 2450, -14, -114, -980, 209, -532, -1023, -368, 850, 395, -192, -42, -413, -263, -1018, -1925, -308, -141, 186, 311, -665, 1025, -548, -1924, -1269, 347, -461, 1173, -308, -288, 587, -1351, 56, 1635, -178, -1487, 1779, -1537, 953, -209, 2100, 1444, 124, -1684, -815, 1818, -42, 1067, -345, 524, 1459, 1874, -1461, -829, 387, -843, 1253, 219, -211, -138, -19, -634, -675, -760, -232, 1117, 280, 261, -839, 384, -663, 64, 333, 531, -172, -253, -59, 183, 1247, 465, 827, -785, 723, 786, -1199, 1583, -742, -392, 373, 2105, -284, 1459, 2111, -1505, -5, -933, -912, -118, 719, -707, -532, -1841, 2242, 97, 608, 2804, 1163, -2005, 226, 2114, 573, -707, 723, -735, 985, -499, -1151, 439, -341, -315, 1451, -1283, -360, -229, 30, 325, -219, 1653, 868, -1010, 795, -723, -314, 665, -842, -594, 891, 81, 2086, -488, -12, -663, 872, -101, -476, 501, 715, 1562, -773, 379, 58, 133, 755, -121, -958, 1230, 2343, -1406, 904, -845, -1573, 2014, 151, -608, 872, 478, 638, -219, 402, 1003, 1485, -3174, -1200, 1602, 692, -920, -1039, -1770, 1695, 1708, -327, -174, -345, -1736, -348, -708, -949, 2225, -328, -743, -235, 905, -293, 366, 400, -143, 1294, 230, -104, -507, 664, 1230, 713, -795, 313, 297, -305, -1742, 725, 539, 18, -1955, -1313, 969, -734, 1525, 687, -206, -274, 1149, 686, -1684, -501, -683, -1230, 1636, -194, -248, 937, -104, 420, -1890, 1294, 256, 1546, 135, -876, 2210, 1043, -760, 267, -156, -35, 1506, 2173, -310, 454, -660, 896, -1826, -410, 1849, 144, 304, -988, -66, -417, 682, 2635, -282, -410, -516, -998, 59, 639, 907, 1114, -1047, 528, 47, -73, 518, 1079, 2044, 280, -1004, -625, -914, -332, -145, -110, 1225, -1620, 358, 2206, 449, -1367, -625, -1012, 669, 34, -554, 174, -1000, 979, -7, 1187, -813, 819, -1346, -775, 2435, 772, -465, -624, -452, 703, 2066, 883, -257, 163, -813, 1567, -322, -744, 1674, -256, -715, 397, 197, 265, -231, 1526, -772, 540, 547, -499, 1993, 120, 61, 16, -1311, 51, 93, 124, 1270, -772, 1566, 1088, 759, -1189, 1105, -1088, -51, 1316, 192, -449, 111, 2053, -1538, 1005, -1744, -2568, 964, -644, -105, 1092, 1611, -24, -2487, -916, 1845, 543, 29, -1408, 3546, -224, 290, 1475, 134, -1191, 2061, 508, -1150, 560, 1021, 44, -214, -1497, 583, 0, -1352, -851, 2444, -628, 1601, 24, 740, -1482, 702, 477, -263, 205, 1178, 3270, -1422, 524, -381, -1319, -78, 241, 1929, 129, 331, -1040, 960, -1003, 421, 776, -696, -700, -639, 1117, -729, -102, -630, -1928, 424, 472, -1190, 1758, -478, 297, 1009, 947, 1247, 836, -620, 478, 3502, -351, 330, -104, 1387, -331, 1011, 1856, -270, 1607, 663, 84, 90, -1330, 556, -2188, -13, -948, 1636, -216, 1972, -363, 617, -778, -1615, 674, -1113, -369, 1161, 879, -2263, 4, 963, -1514, 1224, -985, 1687, 290, 1727, -925, 1714, -753, -914, 1994, -686, -287, 869, 718, -655, 35, -176, 104, -889, 335, -603, 602, -1475, 622, -111, 528, 2876, -234, -1038, 767, 2196, 1009, 166, -681, -589, 1158, 2674, 2164, 151, -150, 33, 82, -240, -412, -971, -200, -90, 789, -1529, -1062, -1319, 166, -19, -719, -1024, -1637, -1416, 1239, 251, 1321, -177, 791, -136, 41, -779, -383, 342, 919, -1362, -560, -786, -976, 49, 2026, 2574, -68, 1326, 2594, -1670, 94, -1653, -74, 147, 1099, -1317, 580, -30, 1464, 344, 2245, -130, 1192, -1721, -673, 719, -775, -916, -1084, -202, -50, 178, -591, -755, -596, -1612, -305, 177, -1595, 675, -83, 856, -644, -581, 2269, 61, 1153, -1013, -58, 212, -1325, -959, -170, -1756, -243, -537, -528, -191, -8, 682, -319, 475, -237, -82, -842, 712, -422, -637, -758, 2281, -1585, 465, 1023, -977, -390, -470, -620, 1993, -784, -946, 1245, -1729, 2308, -1007, 2323, 1189, 461, -1693, 289, 1671, 1486, -202, 49, 50, 1745, 280, 291, -390, -588, -1259, 43, -47, -1498, 658, -435, 40, 103, 1140, 2005, -390, 857, 861, 460, -323, -483, -615, 1242, 1053, 397, -365, -523, -916, -290, -1245, -499, 742, 74, 224, -741, 59, -406, 1006, 1576, -94, -435, 1477, -239, -433, 149, -388, 304, -534, 779, -544, 762, -590, 2452, 1486, 1161, 1128, 1045, -851, -442, 2003, 821, -1054, -802, 447, 2157, -607, -229, -385, 621, -1579, 277, -711, -420, 1092, 201, 1491, -346, 888, -427, 509, 782, 1119, -650, 1859, -510, -464, 2203, 1091, 1555, -1470, -1095, -929, -402, 598, 353, 839, -533, 1326, -328, -354, -958, 759, 564, 1815, -857, 514, 837, -1577, -421, -97, -1607, 1062, -699, -489, 859, -739, -263, -1781, 332, 97, -1553, -1499, -939, 2561, 287, -1231, -479, -373, 1294, 967, 699, 39, -223, -1323, 1731, -1341, 228, 1076, -743, -1068, 149, 1342, 237, -825, 797, 410, -899, -3, -1343, 426, 2019, 1482, 2309, -2800, 669, 1453, -1604, 1598, 1373, 1228, 2408, 69, 363, 172, -553, 215, 478, 69, -914, 734, 1694, -1124, -787, 61, -1066, 990, -292, 206, -487, 111, 1680, 58, 620, -1421, 2702, -150, -1495, 2804, -603, 901, -701, -597, -5, -38, 834, -193, -394, -686, 1236, -368, -818, 317, 533, -408, -1088, 412, -2308, 460, 1459, -522, -535, 1165, -332, -885, 839, 290, 1087, -762, 140, -1449, -180, -26, 692, 1232, -485, 1381, -907, 462, -1095, -665, 1369, 2896, 814, -1247, 1464, -839, -63, -2062, -263, 438, -2001, -1107, 441, 1201, 397, -77, 391, 467, 1606, -264, -643, 1894, -210, -343, -1001, 919, 1417, 1181, -911, -369, 1799, -1279, -460, -245, -29, 1484, 659, -951, -764, 674, -830, 1190, 1746, -1119, -1902, 426, -180, -602, -224, -863, 323, -2273, 813, -428, -1296, -881, 1746, 738, 179, 855, -389, 2398, -295, 822, -676, 641, -354, -1852, -124, -1205, -579, -1421, -152, 1767, -674, -1, -426, 373, 215, -74, 1230, 216, 1750, 709, -234, 2656, -531, -1, 998, 47, 212, 158, 1469, -1896, 389, 368, 2013, -1076, 248, -958, -260, 282, -1528, 718, -361, -233, 969, 550, -2200, -393, 278, -2524, 435, -257, 812, -419, 880, 420, -401, 957, 496, 2019, 1302, 1135, -420, 2298, -1810, -1282, 1436, 2030, -376, 2692, 1113, -898, -669, -1214, 1171, -788, -249, -1008, 578, -1664, 2086, 452, 739, 1177, 409, -633, 481, 31, -666, 820, -2038, -67, 662, -387, -384, 61, 5, -2062, 1507, -24, 119, 176, -218, -1959, 573, -498, 1559, -23, 795, 1368, 463, 1139, -1057, -2498, 704, 1382, -224, -1380, 1137, -1023, -1268, -954, -62, -410, -501, -355, -616, -2003, -825, -167, -1672, 2765, -400, 1670, -160, -472, -1574, -1612, 56, 1697, -2585, -1195, 1510, -1004, 1815, 446, 2138, -118, 585, -872, -398, 1293, 1406, 598, -1906, 561, 1295, 1692, 88, 88, -385, -1625, -501, 261, 595, 802, -1054, -325, -4, 397, 157, 438, 996, 787, -856, -244, 344, -1790, 1455, -1895, -163, -915, 1296, -270, -222, 59, 902, 197, 2132, -1233, -400, -349, 756, 745, 95, 1029, 307, 1918, 936, -1062, -795, -1301, -509, 710, 1192, -573, 1252, -652, 1775, -2383, -633, 343, -1729, -2428, -191, 1390, 608, -760, -762, -1162, 2519, 315, -771, 1157, 145, -1699, -406, -534, -552, 2390, -388, -126, -471, -735, 1356, -1052, 831, -372, -396, 1514, -757, -1151, 663, 663, 353, -509, -374, -270, -536, 51, 2109, 1471, 553, -2311, -200, -15, -962, 16, 443, 1765, -848, 2731, -1362, -2187, -1191, -1267, -901, 547, -112, -1431, 122, -1195, 2185, 378, 1760, -1527, 2126, 25, -731, 1108, 891, 752, -211, -829, 1323, 1511, 340, 144, -890, -1912, -1177, -161, -1245, 665, -155, 194, -414, -51, 1137, -27, 833, 1422, -684, 806, -419, 459, 2336, 245, 510, -380, -468, -1102, -1130, 1343, -1110, 1716, 939, 1187, -1503, -18, 813, 362, 73, 317, -911, 108, 339, -1814, -687, -525, -1341, 411, 909, -854, 328, -1140, 2345, -1456, 404, 1705, 995, 645, -685, 4763, -554, -849, -1438, -2164, 1673, -645, 660, 86, -517, -1863, 601, 263, -1417, 1127, 331, -568, 255, -697, 293, 241, 1268, 157, -161, 1612, -1085, -273, 1216, 468, 986, -366, -97, 1550, -1929, 1823, 2174, 710, 1225, 470, 713, -347, 938, 387, -536, 2667, -29, 1559, 1163, -430, -2103, -1144, -1500, 951, 773, -1096, 1773, 104, 759, -1132, -667, 54, 928, 1148, -457, 3386, -1552, -202, -104, -55, 361, 554, 783, -912, -430, -1791, -738, -89, 693, 336, -208, -233, -1253, -652, -1451, 769, 2991, 253, 234, 1417, -454, -990, 1852, 272, 778, -1367, -664, -867, -1093, 34, 860, 179, 3047, 1826, -307, 1802, 434, -243, 887, -1004, 246, -1085, 442, -1423, -1484, -1062, -856, 1690, -967, -347, 135, 29, 1744, -1218, 1835, 778, 1458, 333, -964, 1742, -1048, -1228, -63, -1153, 1285, -298, 1112, 1033, -128, -260, 973, -817, -993, -155, 429, -773, -464, -201, 328, -1000, 979, 137, -1496, -643, -132, -825, 1944, 1256, -169, -967, -69, 302, -851, 2171, 898, 1792, 1442, -132, 487, 50, -1100, 1361, 663, -320, -574, -880, 1382, -1010, -457, -1004, -819, 498, 981, -1005, 217, -583, 165, -260, 274, 1600, -146, -273, 1650, 2012, -70, -1268, -288, -93, 2473, 578, 135, -249, -782, -254, -87, -659, 316, 2009, -315, -1450, -98, -1083, -1280, 570, 1013, 98, -272, 1671, -1429, 345, 2268, 1543, -771, -3501, 711, -223, -237, 929, -1610, 2073, 251, 419, -1100, 2698, -1788, 944, 328, 279, -1401, 1273, 718, -87, -1035, -904, 400, -268, 268, -2920, -255, -1060, 1393, 1131, -1497, 1737, 940, 343, 528, 1886, 1982, -1405, -1248, 1728, 448, 1655, -785, -1537, -547, -1458, 1136, -9, -1324, 732, 545, 585, -40, -1406, 574, -93, 600, -362, 527, -1500, -731, -1344, -68, 313, -383, -1451, -61, -1706, -385, -58, -718, 1058, 1463, -1188, -1020, 846, -1460, 307, 112, 541, -953, 1274, -442, -651, -1314, -1371, 1238, 398, -669, -2488, 1916, -1190, 1455, 1515, 640, -198, 1078, 935, 1625, 1313, 1193, -1432, -947, -662, 612, 640, 1092, 227, -852, -583, 1728, -1522, -1115, 1429, 93, 340, -770, -1173, 597, -404, 1017, -382, 799, -1184, -784, -501, 2105, -183, 1742, -119, 1615, 186, -297, -1640, -552, -181, 184, -947, -806, 606, -615, -656, 2498, 637, -5, 2880, 1406, -1514, -1323, -394, -587, -8, 220, -2319, 281, 354, 1226, -493, 2062, 295, 257, -2077, 1829, 1704, -957, -42, -1417, -318, 909, 374, -3, -994, -1906, -833, 865, -1265, -1118, 906, 30, -542, -261, -304, -292, -56, 914, -993, -386, 1112, -1420, -1128, 2115, 1012, -320, -1289, 934, 300, -146, 425, 19, 113, -575, 866, 734, 582, -210, 1587, 1946, 1123, -82, 2775, -1138, -894, -1998, 487, 822, 1075, -214, -706, 2164, -551, 781, -2210, 1802, 330, -1591, -1499, 269, 424, 216, -1644, -1293, -1093, 1487, 244, 1693, 486, 916, -1582, 220, 196, 6, -289, 141, 1474, 173, 303, 101, 109, 3029, 1028, -548, 1713, -674, -769, 2398, 1333, -332, -594, 1298, -218, -114, 1001, 853, 912, 346, -6, -1146, 1394, -400, 1317, 768, 601, -1293, 173, 1690, -2179, -2549, -1033, -1260, 1153, 775, -623, 769, -226, 1488, -450, 1156, 1447, -167, -726, -667, 1143, 786, 753, 124, 759, -19, 349, 1067, -989, 161, 572, 1089, -1080, -1554, 1339, -1134, -1027, -252, 1316, 639, 585, 1073, -256, 135, 902, -104, -580, 1797, 0, -167, -825, 825, 341, 1045, 349, 913, 1937, 1780, 2180, -2146, 1582, -201, 2202, -321, 619, 31, -49, 495, -113, -741, -415, -863, -254, -819, -1892, 806, 1219, 1777, -1459, 776, 806, 1440, 253, -830, 1758, 475, -1185, -428, -1646, 1434, 729, 447, 947, -386, -365, -327, -673, -269, 660, -1172, -1803, -60, 784, -794, -863, -800, -532, 1479, 661, 184, -305, 2404, 624, 848, -233, 878, -668, 536, 852, 2197, -152, -323, 966, -1972, 2111, -1454, -185, 285, 2346, -2320, -61, 1192, 48, 177, -1763, 127, 662, 475, 445, -531, 432, 1664, -2219, 1106, -659, 1827, -79, 94, 1633, -1341, 692, -1004, -1167, 1407, 872, 305, -753, 2038, -312, 1042, 689, -406, 802, 105, 351, 1664, 1252, 297, 417, 2501, 1328, -1511, -162, -1981, 135, 1890, 140, -75, -2056, 405, 9, -457, 827, 446, 1863, 780, -678, -347, 2191, 19, -874, 1701, -817, -1691, -1641, -442, 159, -1447, -1946, -976, -1007, 446, -438, 482, 1014, 969, -797, -239, 44, 2755, 1178, 573, 3758, -644, -4313, -202, -813, 1177, 1371, 37, -63, -136, 917, 1985, -1487, -266, 941, -408, 173, 218, 766, -701, 1094, 687, 985, 795, 961, -3973, 1331, 660, 705, 939, -1066, -645, -1041, -638, -503, 2895, -25, 1157, 2095, -1033, 898, -669, -1021, 37, 856, -1254, 2508, -1505, 1460, -1639, -1049, -951, 2015, -2059, -3223, 978, -2406, 1269, 1287, 646, 194, 1122, -809, -326, 489, -1934, 527, 1378, -236, 1283, -499, -233, 564, 304, 1442, 980, -605, -48, -186, -629, 516, 607, -2269, -37, -1505, 1287, -149, -1325, -284, 584, -2505, 999, 1024, 827, -794, 2518, -642, -960, 604, -505, 1510, 1126, -2876, -765, 326, -3093, 1038, 732, 2471, 1376, 2208, -513, -346, -1639, 212, -266, -81, -1075, -3386, 1404, -770, 1881, 1356, -828, -135, 213, -811, 824, 332, -46, 217, 371, 410, 3229, 844, 318, 679, -679, -1106, 1586, 749, -97, 476, 720, -323, 771, 193, 1425, -642, 755, -115, -583, 1387, -1908, -853, 2245, 728, 665, -617, 1626, -815, 521, -725, -881, -462, 487, -527, 167, 3298, -500, -1178, -1547, 1737, -1273, 2464, 205, -316, -623, 180, 288, 496, -1544, -2013, -274, -397, 827, -1063, 747, -1215, -1222, -790, 308, 2193, 1788, -2243, -1818, -1455, -488, 1365, 811, 1064, 224, -1529, 716, -772, -147, -407, -739, 71, 618, 59, 969, -807, 2014, -1114, 1123, 267, -953, -1381, 1746, 2910, -1000, 1355, 971, -1354, 92, 3059, 188, 592, 1106, -263, -1802, 1401, -2772, -125, -598, 1428, -900, 1855, 738, 609, -1103, -726, 225, 901, -2704, -1496, 554, 81, 1495, -1140, 1211, 703, 232, 381, 1627, 2542, -182, -272, 286, 1225, -270, 831, 689, 608, -605, -69, 1562, -2337, -1339, 526, -785, -975, -23, 1733, -793, -246, 417, 1045, 926, 1977, -1538, -888, 374, 2646, 334, -264, 2112, -2058, 254, 57, 1711, 517, 1457, 952, -1434, 485, -505, 93, 62, -17, -1177, -1555, 919, -886, -570, 97, -134, 1869, 960, -2209, 251, -1778, 278, -561, 1648, -930, -1768, 1991, 29, 2775, 1334, -1212, -216, 845, -512, 2195, -603, -2345, 619, -495, 827, -1166, -174, 1202, -590, -1631, -1087, -1202, -716, 1189, -273, 180, -2261, 897, -571, -394, -1201, 1524, 2142, 347, 560, -1098, -582, 2187, 2219, 1548, 24, 411, 816, 991, -1407, 1746, -624, 1536, -1226, -246, 1650, -9, -1180, 145, -824, 1092, -97, -2123, -196, 413, 2672, -2192, 2311, 615, 3176, 918, 1428, 1478, 184, -2070, 1298, 841, -193, 686, 2095, -597, -243, 268, 1754, 16, -231, 788, 957, -1325, -1208, 531, -2385, -1389, 1276, 60, -409, 996, -501, -2780, 1226, -375, 245, 735, 2088, -665, -362, 1026, 319, 2095, -32, 743, -903, 2039, -402, 263, -54, 2188, -1449, -771, 1948, -142, -556, -1727, -1318, -607, -1352, -509, 762, 261, 1329, -3616, -1239, 36, 2931, 63, 2747, 2605, -431, -3268, 718, -73, 1070, 2304, 55, 709, 1398, -139, 30, -1089, 761, 143, -361, 73, -448, 658, -773, -1164, 566, 958, -1268, -652, -3946, -87, 1633, 3021, 750, -2115, 1212, -331, 369, 1020, 1265, 1382, 1057, 2549, -217, 1432, -1102, 1562, 1316, -2701, 216, -4989, -393, -244, -3068, -755, -1092, 699, -1108, -1871, -301, -280, 1655, 2032, 814, -32, 1332, 624, 1318, 3386, 336, -2458, 328, -251, 1650, 1005, 279, -742, 1023, 905, 1168, 518, -1408, 1388, -563, 1415, -7, -527, 80, -127, -125, 479, 263, 716, -2931, -364, 1521, 1284, -301, -954, 2168, -274, 500, 503, 407, 954, -356, 1206, 71, 2510, -1160, -862, 564, 892, -1286, -397, 598, 2007, -786, 298, 1486, 1718, 666, 2155, -2471, 1432, -1454, 3350, -1128, -730, -81, 3112, 321, 556, 851, 797, -550, 1833, -519, 1412, 20, 710, -1150, 532, 198, 219, 1061, 195, 499, -729, 626, 1714, 1470, 320, -1740, 649, 746, 907, 1834, 1303, -777, -3047, -1015, -1027, -154, 678, 208, 429, 553, -2816, -697, -34, 431, -2915, 187, -309, -1013, -1710, -220, -819, 159, 2073, -202, 1870, 1157, 680, 1948, 1439, 333, 88, -1607, 30, 1107, 271, -205, 3240, 1056, -844, -371, 1110, 1779, -1184, 380, -371, 828, -829, -1254, 2522, 2184, 1712, 168, -452, 49, -308, 578, 1241, -1606, 1139, -1994, 133, -1093, -1736, 1740, 920, 135, -2558, -227, 485, 1552, 3456, 56, 1183, 1734, -674, -989, -489, 1159, -3474, -903, -267, 193, -1681, -1465, -1082, 982, -641, -69, 1736, 1936, -42, 997, 956, -2255, 1140, -623, 1944, -1739, 659, 1016, 3530, -142, 506, -906, 266, 1026, 1104, 135, -202, -926, 883, -2020, 1260, 826, 1419, 1417, -645, -816, -2162, 1516, -1350, 758, 1654, -445, 984, -452, 1486, 95, 2015, -208, -1928, -1449, 1563, -222, 752, 342, -367, 786, -114, -1332, 2091, 1197, -301, -523, -951, -1775, -223, 812, -1217, -976, -464, 837, 1145, 2341, 299, 1912, 1420, -904, 339, -634, 1191, -1169, 1435, 825, 1124, -20, 735, -267, 843, 716, 2371, 556, -243, -1587, -131, -299, 1347, -618, 3275, 1699, -186, 1253, -1522, 282, 1262, 97, 1690, -1745, 529, -212, 513, -505, 1122, -1139, -3338, 112, 1228, 81, 918, 1805, -240, 996, -748, -1019, 644, 1466, -1511, -830, 1276, 1346, -957, 613, 928, 1185, 980, 1527, -1265, 592, 180, 166, 1203, -1479, 960, -2404, 208, -246, -30, 798, 819, 738, 606, -1730, -300, 799, 1693, -272, -625, 1002, 1817, -2476, 732, -574, 1689, -1558, -1614, 553, -1341, 700, -1491, 948, 1768, -1613, 1881, -907, -398, 867, 555, 583, -898, -404, 2694, -50, 186, 1772, -1852, -83, 1169, -669, 1, 2310, -1734, 1480, 794, 253, -43, 1673, 1158, -632, 511, -743, -490, 666, 539, -719, 666, -1912, 1226, -1556, 1568, -775, -756, 1222, -1218, 1440, -1594, 1347, -1405, 1615, 1099, -954, -1520, 416, 512, -2047, 717, -1311, 2124, -528, -411, -514, -1790, 1222, 2787, 506, 586, -330, -109, 309, -955, 1395, 1671, 1265, -2914, 674, 1898, 1232, 75, 1321, -1106, 3040, -1381, -548, -859, 483, -1859, 299, 6, 254, 167, -490, 107, 479, -857, 530, -475, 1251, -596, 693, -316, -1260, 479, -2633, 975, 676, -295, -135, -412, 2132, -2455, 3354, -986, -248, 915, -1085, -299, 135, -556, -1623, -302, 330, 852, 245, 166, 661, -1883, -172, 2685, -5, -984, 76, 923, 2270, -22, 1618, 396, -1011, -1558, -395, 4149, -402, -480, 242, 50, -437, -702, -2676, 159, 475, -844, -185, 3350, 5, -546, -23, 940, 2074, -154, 3446, 456, 500, -883, 1492, 899, -213, -1422, -2796, -818, 848, 557, 30, -700, 1609, -2157, 1569, -433, 114, 315, -1348, -83, -465, 1080, -763, -476, 700, 1426, -85, 194, -736, -13, 1194, 999, -359, -440, -2351, 539, 350, 798, 592, 901, 494, 817, 325, 2004, -1811, 2071, -1159, 900, 55, -919, -396, -1124, 1461, -4256, -1056, 1394, 230, -2646, 2117, 583, 173, 1899, -517, 2096, 499, -254, 450, 694, -1418, 903, -2076, 1561, -2031, -149, 119, 2122, -1243, -112, -2381, -990, 492, -798, -609, 1110, 633, 1557, -189, 2403, -563, 2041, 182, 959, 1491, -7, 2352, -772, 737, -25, -2064, 977, -412, -183, 1709, 584, 458, -1418, 325, 85, 222, 1481, -348, -208, 2024, -1066, -382, 297, 400, -4325, -569, -397, -818, -160, 688, -152, -473, 1668, -390, 955, -555, 954, 237, 827, -1920, 930, -493, 1864, -987, 750, 573, 1800, -229, 676, 833, -634, -347, 824, 1204, -845, 320, 722, 64, 1884, -724, 2113, 765, 886, 2297, -1221, 197, 502, -116, -393, -2202, 642, 990, -796, 1463, 1238, 1501, -1094, -895, -138, -1083, 1011, 24, -1268, 857, -181, -1339, -752, 2134, 340, 54, -431, -721, -1349, 482, -327, 149, 408, 1217, 2525, 751, 477, 2110, 712, -978, 2000, -1572, 380, -641, 204, 1272, 1320, 980, 1566, -1695, 75, -197, 697, -906, -466, 116, 1377, -1124, 2950, -234, -203, -513, 80, -717, -2572, 381, 701, 1169, 1562, -2015, 1047, 1844, -959, 235, 1883, -10, -720, -437, 125, -835, 1199, 1784, 391, 164, -297, -2212, 1009, 194, -2045, -1003, -750, -370, -265, 1506, -429, -492, 589, 875, -924, 2022, -1126, 2563, 1914, -607, 885, -1532, 1927, -723, -553, 832, 1232, 1066, 1124, -852, -462, 2211, 1305, 331, -742, -243, 1470, -2834, 653, -1566, 2498, 424, -394, -770, -1026, 541, -773, -1234, -98, -615, 716, 296, 199, -1538, 860, -1517, -3632, 849, -447, -737, -277, 344, -298, 1220, -958, 201, 618, 78, 981, 5, -1260, -164, -507, 1694, -486, -776, -549, 548, -123, 1306, 866, 409, 399, 85, 712, -1702, -410, 720, 137, -504, 982, 1230, -1543, 1561, -2107, 2164, 507, -524, -1064, -1175, 2645, -65, 921, 125, 995, 2669, -1747, -234, -132, 757, 736, 312, -1317, -1189, 1320, 456, 352, 809, 105, -273, -1673, -648, -209, 245, -1138, 1203, -634, 2069, -2218, -1941, 552, 2267, -103, -500, -615, -111, -581, -533, 193, 80, -1358, -82, 423, 2695, -1067, 2805, 905, -986, -453, -711, 151, 83, 172, 168, 4, 1852, -1057, 936, 867, 2524, 1214, 1294, 400, -410, 977, -2426, 700, -318, 3261, 226, -1608, -295, -3016, -354, 409, -1033, 693, 643, 1695, 1514, -249, 1523, 775, 695, -1740, 342, 1339, 499, 236, 1995, -266, 976, -627, -1001, 35, -79, -825, 590, -557, 15, -1127, 478, 349, -448, 910, -298, 176, 79, -485, 680, 655, -177, -1331, -199, -756, -627, -830, 506, 2230, 1857, -982, 2210, -407, 63, 1272, -1043, 229, -871, 1262, -2237, 800, -714, 1057, 518, 414, -2299, -1709, 632, 2079, 1021, 50, -378, 519, -624, -725, -76, 681, -598, -573, 137, 1708, 321, 1943, 1035, 38, 1308, -1766, -867, -97, 899, -2552, 1014, -688, -535, -1620, 100, 1985, -1416, -311, 1483, 1662, 1970, 244, 1857, 939, 162, 690, -3030, 44, -987, -714, -310, 507, 1229, -1296, 1179, 473, 1643, -513, -325, 201, 1731, 1030, -570, -2434, -708, 1872, 150, -1137, 853, -1904, 749, 2698, -26, 629, -411, -1739, 874, -283, -2178, 1470, -196, -513, 33, 1888, -1026, 660, 587, 97, -79, -225, -35, 442, 1132, 141, 157, 2534, 582, -1436, 1079, -581, 4, -739, 119, 1048, -655, -779, -41, 1489, -1342, 1127, -1575, 1800, -37, -2299, -1092, 4419, -156, -235, -938, 1039, -974, 1480, -101, -1261, -422, -34, -126, 29, -124, 1748, 1884, -801, 802, 416, -1332, 25, 1773, 498, -167, 2602, -423, -330, 2272, 311, -610, -1885, -1049, -1248, -261, 967, -1649, -288, 160, -847, -2704, 2146, 428, 589, -1012, -1089, -449, -1339, 971, -782, 1975, 1946, 10, 1103, 294, 252, -783, 858, -1094, 1176, -208, -392, -250, 654, 344, 1333, 707, -1539, -210, 564, 318, 547, -449, 351, -681, 1260, -370, 1014, -1937, 1524, 731, -793, -55, -1090, 2060, -482, -2210, -1472, -806, 455, -1662, -314, 951, 2926, -491, -650, -346, -750, 782, 2575, 1107, 1317, -597, -609, -1493, 1426, 2610, -284, 24, 6, -702, -692, 650, -1236, 1039, -122, -152, 2295, 1231, -226, 672, 1276, -668, 1263, -170, 617, 56, -2345, 239, 688, 654, -235, -402, -342, 2463, 991, 766, -1515, 315, -768, -835, 1939, 101, 1923, 685, 614, 749, -587, 393, 679, 1102, 35, 468, 493, 699, 411, 1931, -505, -2567, -2961, -1177, 449, 1291, -68, -344, 1489, 1418, -695, -1840, 4, 1874, 1705, 631, -2031, 148, -1594, 205, -211, -1868, -1123, 894, -225, 11, 167, -59, 1598, -326, 1721, -1167, 342, 42, -1085, 821, 1251, 123, -1002, -872, -324, -374, 885, -303, -419, 472, 1415, -172, 3111, 748, 1673, 1742, -1672, -622, -181, 1999, 966, -316, 57, 94, 1022, 1090, -262, 1607, 301, 179, -3942, -205, 977, 259, -98, 1463, -130, 787, -1620, -1875, -834, -410, 920, 665, -1465, -624, -1597, 1648, 1398, -770, -1652, -419, 1438, 2371, -336, 392, 616, -595, 2317, -2379, -1451, -1032, -830, 1743, 2179, 1564, 713, 1198, -644, 69, 857, 533, -83, 426, -942, -383, 2591, -963, 1467, 750, -804, 212, -1669, -403, -145, -133, 1456, 117, 1447, 376, -293, -300, 969, -949, -1416, -1541, 1039, 175, 1184, -1112, -1734, -517, -732, -1068, 317, 737, -906, 66, 572, -1073, -693, 289, 365, -1193, -1855, 809, 1042, 2696, 213, 573, 756, -344, -179, -575, 1329, -393, -104, -106, 901, 667, -2045, 525, -39, 501, 1830, -335, -1089, 795, 1318, -2859, 903, 17, 1638, 714, -2590, -715, -393, 221, 1902, -1012, -1087, 904, -1317, 2282, -353, -316, 181, 704, -1611, -1095, 1201, 827, -529, 91, -1772, -402, -276, -934, 1764, 1821, -1975, 996, 81, -435, -1497, 524, -620, -201, -2089, 2740, 185, 1196, 29, 3059, 787, -718, -92, -984, -147, 132, -1763, -160, -101, 2134, -664, 1702, 1421, 2455, 553, 86, -777, -288, -874, 120, -245, 1997, 1698, -1956, 1123, 171, -413, 263, 546, 12, -182, -1063, 832, 283, -466, -135, -302, -1660, 105, 524, 1787, 2225, 2224, 3747, 654, 171, -805, -2049, 6, 33, 247, 1478, 816, -95, -499, -183, 1749, -502, -1347, -142, 1074, 1719, -971, 1915, 944, 691, -1113, -1862, 1354, 1022, -696, -1244, 95, 394, -435, 1690, -368, 863, 1114, 1683, 400, 73, 2153, -731, 2720, -474, 1366, 933, -1887, 289, 573, 1254, 1257, -254, 346, -1074, -266, 1165, 192, 503, 389, -708, -1074, 79, 2945, -70, 828, 2408, 660, 32, 1980, -834, 14, 1648, -29, -948, 935, 854, -606, 1253, -856, 562, 3253, -1, 1982, 482, -269, 208, 1788, -1628, 1381, -1027, -715, 57, 153, 834, 2014, 393, -443, -379, -26, -693, 449, -246, -370, 1376, 1338, -1750, 932, -447, 1047, 507, -430, 1361, 580, 693, 1589, -674, -1887, -836, -447, -638, -59, 614, 1817, 1123, 403, 474, 94, 1319, 1031, 1524, 1413, 482, -718, -782, -1420, 222, -322, 251, -1517, -1176, -2693, -171, -623, 131, 1378, -899, 1562, -987, -877, 1191, 3035, -922, 160, -700, 1575, 844, 1235, 324, 1588, 140, -205, -1321, 704, 664, 323, 500, -386, 328, 402, -1146, 1177, -1185, 381, 886, 359, 693, 39, 1052, 188, -2017, -215, 342, 2463, -227, -543, 1160, -7, 549, -818, -1217, 813, 1063, 130, 668, 676, 911, -468, -860, -795, 583, 761, 811, -740, -128, -1073, 1871, -1616, -744, 878, 542, 1026, 216, 54, 2356, 2006, -1035, 332, -620, -1052, -903, -1489, 16, 955, 1163, 91, -1098, 336, 542, -268, -10, -461, -69, 1797, -2453, 2253, -743, 741, 2603, -453, 835, -440, -570, 236, -107, -707, -1070, 989, -607, 761, 43, 1179, -1530, -1572, -75, 774, 1064, 693, -21, 857, 176, -1481, 475, 1237, 174, -107, 325, -115, -557, -1362, 17, -1318, -849, 1101, 1217, 69, 722, 985, 747, 905, -673, -1034, -1386, -151, -127, 509, 541, 2435, 986, -1704, -1615, -788, 1036, -477, 604, -1582, 289, -358, 450, 684, -952, 1217, 1260, 747, 719, -1591, -10, 1169, 564, -321, -701, 2009, 1046, -878, 337, -570, -1337, -2753, -954, 890, 1920, 2151, 1038, 29, 190, -770, 51, -459, 1681, -902, 371, -232, 850, -1555, 908, 123, 38, -351, 2146, 2091, 666, -379, 2392, 297, -341, 487, -1239, 1049, 2, 1500, -560, 556, 2744, -802, 1204, -1544, 1669, 1387, -390, -405, -3, 981, -740, 1543, -643, -136, 882, -911, -787, -2746, 511, 545, -1101, -1031, 20, 852, 263, -28, -326, -252, -1710, -884, -461, 2103, 957, 26, 846, -506, -28, -1314, -635, 756, -348, 1112, 353, 1061, 158, -873, 2140, 676, 258, -331, 1210, -450, 673, -1197, 234, 1165, -1187, 1396, -1728, 854, -292, -537, -192, -30, 1187, -1473, -399, -830, 493, 253, 620, -1409, -397, 809, -712, 1088, -262, 1440, 1780, -1553, 996, -531, 2338, 1523, 749, -439, -806, -42, -148, -275, -1029, 952, -744, -2101, -213, 2430, 946, -200, 2103, -349, 790, -464, 922, 1856, 195, 394, 1214, -321, -1304, 504, 846, 9, -443, 1123, 720, 1062, 2635, 211, 142, 1794, 342, 164, -728, -305, -63, 383, -590, 63, 695, -2687, 160, -307, 743, 1967, 275, 330, 591, 853, -2364, 894, -596, 741, -1339, -1066, 2547, -1318, 714, -170, -797, 29, -972, 588, 1775, 615, -1388, -702, 106, 201, -1565, 1571, 924, 1815, 2295, 247, 1678, -748, -45, 273, 169, -493, 509, -148, 78, -431, 289, -583, -288, -2274, 1383, 485, 2221, -855, 1591, 595, 417, 917, -1748, 738, -685, 544, 1108, -358, -149, -83, 1203, -708, 682, -108, -50, 181, 1047, 1814, -447, 713, -537, 2650, 487, -106, 741, 337, 1508, 51, -1207, -517, -814, 217, 1329, 402, -1670, 923, 258, -230, -1326, 1543, 767, 430, 494, 860, -16, -258, -182, -823, 523, -403, 2167, 1210, 458, -345, 1665, 71, -1585, 1856, -406, 1044, -898, 1321, 152, 791, 444, 686, -2328, 618, -1056, -1479, 745, 2697, 423, -521, -36, -2891, 574, 481, 1047, -17, -69, 134, -399, 2027, -723, -927, 755, -716, 502, 1504, 264, 331, -1929, -2024, -60, -69, 62, -155, 1496, -40, 19, -1446, -1323, 141, 1925, -675, -989, 1469, -917, -876, -683, -584, 502, -87, 1011, 693, -857, -1288, 1302, -1113, -431, 2548, 1573, 2184, 47, -1368, 2348, 1313, -903, 899, -1753, 637, -858, -885, 1119, 853, -987, -1184, -1073, -618, 1061, 981, 976, -659, -636, -17, -1375, 1014, 329, 404, 432, -732, -208, 341, 584, 945, -1796, -1753, 1525, 1063, 1314, -702, 721, 516, -64, -44, 79, 518, 135, -581, 1129, -50, -159, -1132, 157, -11, 1207, 1030, -396, -1000, 228, -2012, -676, -43, -533, 539, -730, 1731, -837, 222, -79, 942, -227, 1386, -1226, -379, -568, -136, -426, 1281, 179, -252, -1797, -96, 878, 1964, 181, 7, -294, 73, -729, 1566, -509, 1581, 574, -386, 1707, 1409, 2063, 489, -80, 1210, -406, -260, -945, 321, 910, 522, -1543, -177, -274, 1428, 1826, 1463, -143, 1566, -384, -845, -2103, 1162, 1026, 718, 1236, 54, 301, -1770, 781, -740, 933, 1331, 566, 980, -297, -235, 137, 688, -1061, 1423, -1201, 1521, -710, 199, -612, 658, 1578, 75, 908, -62, 672, 454, -62, -1148, -599, 103, -1430, 2873, -1002, 859, 408, 448, -991, -482, 272, -1225, -256, 619, -214, 2182, 140, 225, -858, 799, -601, -915, -2063, 867, 388, 1366, 743, 592, 1038, -613, -590, 522, 544, -993, 1068, -1746, -354, -878, 1442, 1314, 1288, -967, 99, 266, 169, 230, 1148, 2787, -1677, 962, -1358, -619, 809, 380, 634, -196, 983, -1512, 180, 405, 2038, -235, -384, -339, 980, -454, 975, 193, 496, 1296, 1963, 18, -213, -2000, 792, 1900, -304, -818, 138, 1594, 1112, 119, 190, 700, -1514, -1379, -859, 1887, 1071, 1781, 1983, -15, -692, -973, -812, -901, 658, -508, 818, 675, -966, 395, 1737, -367, 139, 286, -109, -571, 1839, 342, 2421, 1754, -701, 1876, -128, 2608, 1909, 79, -146, -740, 2367, -1927, 1441, -32, -387, 1205, 305, -165, -457, 2459, -461, 1737, -606, -295, 812, 510, 1507, -950, 481, 130, -123, -988, -939, -274, 962, -1281, -781, 1320, 91, -458, -504, 1802, -702, 2515, 1323, -729, -775, -717, -262, 547, 1423, 69, 1758, -997, -162, -239, -1038, -9, -551, 269, 11, -678, 2459, -755, 461, 2680, -142, 534, -1791, -1237, -180, 222, -148, -72, 1786, 93, 1498, 117, 1197, -838, -779, -27, 404, 1034, 533, 2247, -248, 503, 1810, -1080, 750, 3001, 599, 37, 394, -1070, -456, 1695, -615, -1510, -768, -263, -994, -441, 311, 2903, 2171, 757, 1357, 569, -958, -995, -526, 877, 14, -570, 899, 1046, 24, -1142, 734, 74, -552, 758, -135, 45, 3148, -1867, 1569, 1021, 465, 242, -1840, 2458, 690, -125, -122, -1597, 1392, 479, 1047, 32, 409, 1863, 551, -1298, -858, 194, -703, 753, -542, 1260, 809, -2865, 813, -696, 1166, -891, -268, -1932, -1415, 593, 778, 398, -633, 378, -258, 1047, -142, 754, 846, 501, -151, 574, -171, -1259, 1447, 831, 606, -443, 434, 237, -697, -1400, 22, -2207, 180, 1666, 1841, 1827, -598, 174, 86, -338, 422, 291, -2864, -253, 261, 323, -1605, 1856, -73, -683, 506, -308, -472, 1379, -560, -2139, -328, 399, 72, 1012, 151, 1963, 617, 1114, 796, 1432, 1307, 1787, -786, -86, 484, 1309, 340, -738, 290, 1191, 649, -1015, -274, -1103, 1259, 485, 954, 269, 414, -1133, -346, 306, -437, -268, 761, -2251, 671, 823, 492, -707, 1703, 1174, 233, 1475, -833, -675, 1115, 1484, -1083, 1666, -2282, -805, 209, 228, -191, 1857, -1052, -376, -1102, -592, 593, 70, 325, -691, 755, 1370, -822, 1451, -1189, -512, 458, -592, 147, 668, -380, 694, -570, -281, 142, 1954, -60, 287, 656, -6, 471, 213, -246, 960, 1257, 1802, -365, 213, -56, -763, -1255, -1291, 2084, -571, 792, 22, 94, -1200, 921, -1859, -1035, 2514, 907, 1936, -238, -56, 1875, 2, -441, 1521, -1008, 583, 756, 108, -308, 363, 281, -421, 112, 1058, -382, 109, -646, -1403, 1140, -47, -748, 2108, -361, -303, 1635, -101, 1011, 1465, 1179, -167, -1366, -408, -10, 1078, 281, -835, 14, 305, -1345, 400, -626, 923, -792, 517, 734, 704, -869, -1436, -467, -130, 1990, 308, -699, -550, 72, -1390, 440, -952, 451, 930, 2478, -786, -236, 97, 938, 815, -2120, 258, -1018, -599, 253, 1998, 433, 1453, 438, -1239, -1072, 426, 465, 897, -260, -573, 521, 694, -1249, 948, -654, -420, 781, -365, 1694, -1091, 1210, 115, 9, -1439, -90, 1582, 649, -159, 408, 1337, 570, 767, -957, 1661, 523, 1108, 597, 582, -155, -1399, -139, 340, 1556, -930, 1686, -840, -645, -2091, -94, -1208, -798, 1194, 406, 165, 799, -440, 495, 315, -984, 525, -1309, 1351, 79, -25, -574, -1121, 469, -1223, -199, 184, 692, 3045, -206, -135, -1209, 833, -808, 3277, -374, -307, 1532, -873, 162, -879, 2465, -485, 482, -82, 785, 236, -616, -759, -1323, -83, -1093, -915, 201, 855, 320, 1176, 468, -376, -703, -1205, -704, 737, -312, 982, 1743, -434, 34, 158, 964, -174, 873, 55, -37, -1018, 473, -319, 2311, 910, -782, 1194, -1229, 892, -1046, 573, -751, -301, -69, -1448, -111, -685, 215, 551, -823, -590, -318, 1530, -319, 1733, 126, -539, -14, 314, 2156, 343, 439, 672, 209, 1375, -1033, 1321, 1982, 22, -359, -466, -837, -1391, -120, 3424, 1230, -80, 1196, -67, -1237, -756, -527, 352, 1464, -688, 1685, -356, -1187, 925, 973, -436, -923, 1103, 1619, -394, 592, -451, 356, 667, -574, -1848, -1127, 1172, -14, 654, -1531, -1427, 887, -16, 1231, 510, 1769, 49, -954, -299, 363, 1248, 190, 1366, -427, 953, 187, 661, 1349, -991, 1671, 1169, 229, -1028, -1281, 1465, -321, -238, -848, 1220, -545, -455, -33, 300, 311, 343, 1336, 109, -1294, -1410, -507, -277, 1731, -696, 922, 1012, -11, -810, 1275, -274, -103, -318, 152, -776, 935, -1317, 1006, 227, 785, 383, -2124, 232, -209, 606, -813, -702, 307, -546, 231, 1223, 1046, 1863, -1305, -996, -866, -301, -1345, 721, 89, 269, 270, 193, -215, 222, -351, 445, 129, -1383, -1470, 1019, 680, -226, 267, 25, -739, 981, -965, 1424, 363, 370, -6, 1002, -1304, -1196, 156, -1272, 838, -413, 1225, 35, -893, -301, 996, 1923, 209, 1054, -1853, 800, -1703, -419, 1252, 2601, 361, 1873, -2278, 614, -1294, -1130, 501, -252, -1504, -452, -283, 1475, 2394, 53, -869, 403, -485, 44, 434, 21, 301, 192, 1335, 462, -71, 2070, -798, 1424, 661, 476, -1805, 2070, 455, -172, 591, 487, -892, -959, -1156, -831, 1466, 2389, 1446, 1024, 1795, 107, 1297, -13, 1355, -1158, 415, 565, 317, -692, 882, -48, 918, 3831, 1255, 1292, -776, -195, 509, -670, -761, 2220, -2391, -159, -1705, 205, -975, 656, -1635, 425, 676, -901, 2355, 1847, 535, -127, 688, -205, 718, 465, -827, 838, -521, 1128, 509, -489, 793, 1356, -7, -996, -995, 740, 210, -1360, 624, -284, 148, -2580, -641, -33, 66, 1138, -119, -200, 338, -366, 314, 502, 1058, -473, 1561, -817, -72, -1086, 222, -433, 832, 2381, 672, 778, -601, 438, -90, 1077, -1334, -33, -1297, 709, -1115, -183, -76, 683, -769, -1435, -333, 1011, 2491, 1034, -103, 451, 228, 215, -648, 13, 699, 561, 1182, -569, 1249, 976, 2619, 350, -1242, -815, 1120, -179, 1587, -1083, 7, 1409, 176, 938, -806, 792, 112, 1081, 1788, 1163, 408, -350, -475, 273, 1243, -318, 359, -287, 686, -1454, 3, -477, 221, 1467, 772, 1457, -2308, -270, 1040, -165, -1354, 1499, -1483, 1241, -1218, -614, -735, 468, -214, -1718, -296, -961, 565, 1380, -1098, -1154, 122, 1122, -1028, 1892, -31, -402, 521, 3, 606, -434, -111, 917, -577, -1363, 476, 629, 1943, -175, -722, 129, -2030, 492, 234, 914, -397, 241, 460, -440, -584, -1045, -864, 1287, 836, -989, 1376, 291, -281, -31, 630, -82, -1292, 584, 413, 49, -72, -1870, 1195, 447, 136, 859, -1404, 1653, -1117, 1379, -1111, -480, 138, -1476, -71, -290, 762, 561, 877, 257, -466, 165, 35, 2333, -233, 534, 649, -539, 1130, 1598, 702, 621, -157, -1141, 230, 660, 1163, 506, 737, 1235, -1113, 318, -1013, 2386, 436, 1557, 1417, 1732, 13, -689, 26, -436, 695, 256, 184, -143, -325, -485, 1849, -334, -950, 1264, 2032, -400, 120, -1164, 34, 1493, -1273, -833, -666, 2287, -966, 1710, -616, -435, 768, -1415, 896, -496, 902, 109, 1640, -1093, -694, 2292, -462, 2916, -811, 632, 1367, 1815, 1715, 1159, 1733, 1680, -357, 366, 407, 1667, 798, 1092, -883, 1460, -1164, 741, -684, 733, 613, 145, 1984, 366, -1008, -780, 344, -1555, -668, -192, 481, 12, 243, 199, 1976, 1200, -1531, -275, -389, -21, 902, -744, 1989, 697, -692, -1297, -1677, 2160, 995, -112, 583, -146, -184, -2063, 753, -252, 1100, 1304, -1196, -626, 1093, 2064, -822, 1, -534, 667, 1734, -1, 137, 504, 882, -555, 859, -937, 847, 866, 907, 733, -613, 650, -314, 1050, -337, 1901, 1369, 1507, 251, 2126, -1225, -1341, 1088, -439, 730, -328, 1576, -1269, 496, -34, 618, 357, -11, 119, 2119, 639, 2797, -888, 905, 122, -363, -277, -1857, 201, -903, 602, 130, -1363, -445, 65, 1153, 892, 2677, 46, -1681, -57, -481, 1467, -1452, 524, 1209, -1556, 422, 1304, 373, -28, 445, 1945, -508, -639, -1057, 1137, 418, 901, 15, -374, -257, 730, -331, 228, 1092, 74, -217, 165, -3, -1582, -454, -519, 918, -1017, 1933, 620, -1625, -587, 487, -1168, -871, 2008, 1603, 2032, -1195, 596, 977, 1795, -65, 1218, -632, 612, 799, -387, 102, 1379, -1628, 466, 2234, 818, 441, 1970, -527, -313, 20, -2, -1971, -50, -1178, 117, -1116, -1531, -565, 1517, 349, 1077, 420, -1405, -1113, -286, -616, -444, 489, 659, 1212, -521, 183, -345, 1140, 583, 429, 1321, 1727, -2093, -47, 422, 22, -212, -868, -1312, 731, -1350, 3039, -1436, -856, 775, 336, 919, -895, 905, -415, 1863, -376, -708, -2135, 1243, 813, -349, 207, 1644, -1426, 5, -272, 1495, -217, 146, 185, 80, 1481, -747, 931, 888, -356, -457, -408, 406, 351, 1766, 1322, 249, -1227, -1224, -262, 2698, 354, -1048, 458, -40, 176, 36, -592, -94, 1458, 2630, 1885, -940, 1111, -489, -2219, 279, 134, -1336, 527, 159, -653, 23, 2461, -640, 409, 2252, 272, 1641, -2879, -1109, 2447, 367, 316, 466, -2628, 937, 520, -243, 1451, 343, -1325, -61, 520, -865, -412, 1811, -919, -552, -747, 337, 179, 1605, -480, 546, 1381, -210, -730, -825, 1714, -167, 388, -23, -795, -103, 2193, 162, 824, 524, -2060, -1149, 676, -610, 717, 603, -1137, 581, 821, 218, -691, 117, 1036, -1267, 791, 219, -1654, 444, 1131, -1181, -336, 1873, 34, 1541, -731, -369, 871, -356, -1058, 1085, -2243, 801, 1281, 41, -70, 790, -611, -978, 1149, 1441, -732, 574, 103, -165, 333, 402, -529, 1823, 101, -413, 1071, -576, 2507, 1326, -651, 308, 197, -402, -1353, 669, 337, 142, 295, 912, -18, 248, -707, 1987, 212, 2194, 2467, 529, 521, -778, 332, -1612, -272, 17, 409, -420, -320, -384, 1085, -613, -663, 2336, 1152, -312, -952, -380, 1227, -212, -926, 117, -1546, 868, -1006, -1746, -360, 145, 227, -935, 2328, -998, 894, 1149, 99, -243, -227, 507, 725, 2360, 208, 882, 691, 120, 1433, 339, 672, -388, -672, -1029, -861, 414, 795, 924, -140, -1551, -316, 815, 958, 276, -114, 125, 285, -461, 1065, -2165, -1035, -456, 684, -572, 1465, -330, -600, 689, 2133, -703, -1117, 1619, -654, 1909, 2084, 671, 11, 1527, 219, -1041, -1627, -277, -520, -781, -852, 229, -782, -415, 931, 1072, 602, -85, -347, 10, -1228, -44, 771, 362, -276, -212, -626, -37, 0, 475, 593, 1931, 278, -700, 1426, -192, -43, -1102, -1392, 205, -2570, -857, -367, 1237, 757, 2470, -708, -1, -108, -1902, -313, -834, 720, -1590, 90, 563, -573, 510, 2886, 731, -955, 193, -1012, 722, 1465, -677, 782, -115, -507, -306, -1814, 1133, 402, 303, -664, -813, -974, 319, 3424, 1598, 1683, 496, -658, -389, 173, 454, 161, 20, -781, -748, 1935, -143, 31, -211, -538, -667, -645, 1289, -1357, -519, -24, -1575, -311, 583, 686, 637, -991, 1257, 757, 2385, 1210, 861, -866, -710, -615, 1181, 2674, -865, 425, 807, -644, 37, -27, -681, -1069, 408, 1667, 989, 2325, -238, 1469, -117, -1310, -148, -1991, 217, 131, 963, 549, -182, -2155, 379, 2046, 38, -907, 2378, -661, -236, -1636, 2031, -617, 674, -717, -247, 750, -887, -339, 1871, 373, 1828, 421, 376, -1841, -24, 1464, -489, -1246, 898, -804, -2040, 881, 1616, 1440, -281, -884, 627, 1064, -385, -426, -323, 1870, -1165, 220, 641, -2210, -422, 188, 43, -1369, -874, 371, 94, -125, -142, -721, -248, -25, -450, -1218, 707, -157, 1675, 330, -642, 198, 212, 1816, -552, -1212, -1386, -801, -34, 1505, 203, 547, 1711, 924, -255, -44, 303, -1187, -437, -1010, 620, 505, 819, 1995, -472, -789, 444, 968, -280, 1245, 159, 252, 355, -180, 211, -754, -137, -667, -44, -2001, 1945, -529, -599, 63, 1073, 69, 26, -1313, -1148, -421, -289, -466, -942, -1203, -120, 207, 397, -859, -266, -302, 2175, 1215, 1968, 136, 225, 1867, -1634, 484, 1763, 555, -408, 624, -332, 830, 1069, 1125, -2079, 793, 669, 34, -710, -711, -819, -209, -979, -1273, 298, 1486, -721, -390, 777, 478, -612, 241, 1278, 1729, 602, -721, -365, 270, -116, -2805, -307, -1499, 1880, 537, -711, -816, 1627, 279, 1975, -1169, -94, 396, 911, -1072, 593, -563, 1429, -391, -294, 623, -2259, -1344, 1471, -203, -483, 14, -1028, 606, 1464, 563, 1261, -168, -93, 15, 396, 909, 394, 313, 321, 1665, 974, 776, 479, -790, -384, 626, 60, 1455, 2334, 1062, 496, -1406, 535, -1377, -928, -1012, -461, 1389, -341, -162, 186, 1055, 1816, 376, -54, 1266, 297, 549, -987, 3, -119, 483, -690, 567, 45, 1957, -555, -1105, -2197, -870, 265, 118, 1111, -1517, -127, -674, 322, 911, 1642, 404, -468, 171, -713, -519, 126, -84, 1153, 190, 851, 932, 211, 856, -962, 1149, -275, 429, 61, 726, -519, -39, -306, 1187, 1608, -227, 37, 832, 346, 1245, -1003, 227, 2023, 709, 134, -737, -1195, 784, 491, 463, 114, -1033, 284, -1054, 356, 131, 534, -930, -163, -589, 261, -148, 949, 2440, -1365, -1066, 3152, -816, -1309, 1065, 521, -1054, 1347, 34, 800, 3042, 2199, -1197, -198, -1083, 1037, -1980, 1320, -611, -582, 282, -2019, 378, 1293, 2107, 151, 1433, 397, 1260, 2383, -2126, -343, -200, 8, 307, 1113, 605, 746, 163, -633, -420, 356, 1496, 484, 820, -1980, -846, -1931, 310, -1323, -227, 425, 997, -162, 926, -246, 421, 1197, -232, 1048, 1817, 517, -2170, -18, -653, -451, 203, 314, 363, 261, -552, 610, 248, -221, 1399, 323, 983, -318, 1064, 522, 1102, -807, -18, 88, 188, -933, -702, -144, 1423, -504, 623, 289, -1063, -181, -1143, 460, -364, 941, 1693, 163, 970, 641, 397, -1219, -1070, -70, 1617, 198, -424, 16, -124, 2043, 191, -134, -483, 432, -850, 651, 710, -517, 1068, 172, -794, 1310, 1716, -128, -2486, 1704, 5, -360, -1954, -574, -509, 184, 666, 1252, 572, 2250, 340, 373, -1654, -2474, -760, -818, -404, 121, -31, -1112, 1837, -595, 424, -92, 1348, 2105, -196, -1000, 203, -213, -855, -729, -257, -1221, -1189, -73, 5, -17, -877, 810, 1150, 133, 64, -918, -1281, 525, -1344, -114, 523, -923, -465, 1043, -333, 216, -39, -136, 762, 395, 654, 1510, 1637, -465, -252, -260, 34, -252, 331, 1352, -1253, 1565, -1356, 1996, -225, 23, 498, 811, -777, -585, -2028, 831, -925, -365, 311, -555, -478, -421, 792, -1430, -391, 1369, -157, 1136, -21, 265, -841, 172, 2252, 1089, 1198, -752, -1157, -538, 288, -14, -2185, 349, 2647, -940, -892, 30, -145, 561, -1594, 13, -1075, -105, -2038, 1236, -1756, -8, -243, -182, -131, 392, 242, 810, -1090, -697, -927, -264, 35, 1546, 150, 301, -1303, 1293, -306, 504, 156, -210, 571, -1360, 947, -987, 244, -687, 3199, -567, 487, -1666, 500, -2107, 1040, 1078, -118, -2832, -609, -2242, 166, 1288, 1110, 1144, 36, -533, 34, -324, -984, -1244, 85, -497, 1218, 135, 234, 529, 1872, 407, 850, 1107, -638, 469, -1566, -1230, 987, 1970, 533, 1883, -1197, -336, 74, -551, 703, -913, -255, 1554, 117, -1572, -253, -447, 525, 2423, 606, 2443, 619, -968, 57, 604, -305, 432, 1144, 1130, 554, -1194, 137, -384, -686, -1150, 1314, 513, -1588, 34, -575, -27, -1026, 1049, 1530, 1029, -151, 122, 1466, 496, -572, 744, 2302, -556, -159, 640, -1485, -871, -571, 396, 1617, 77, 360, 1658, -112, -190, 994, -963, 46, -1341, -839, 1533, 1561, -1338, -880, 385, -843, -61, 1048, 652, 137, -609, -1686, 2388, 563, 978, -378, -1049, 160, -894, -918, -289, 259, -974, 2579, -42, 656, -97, 347, -1175, 308, 449, -317, 614, -134, 726, 609, -475, -1468, 1073, 1467, -1834, 6, 824, -568, 1683, 805, 2357, 1068, -186, -750, 1272, 1281, 512, 648, 423, 670, 571, -872, -1183, -851, 922, 1149, -249, -695, 1153, 808, 1085, 1066, 400, -196, 209, -1303, -787, 2146, -926, -457, 3093, 31, 804, 2089, -946, 1208, 367, -181, -19, 1136, -876, 524, 411, 1547, 398, 324, 795, 517, 249, 1841, 1147, -1125, -69, 287, -1097, 443, 1037, 406, 523, -744, 1244, -404, -80, 461, -655, 605, -38, -187, 1196, -1079, 986, 144, -411, -465, 714, -360, -154, 1038, 162, 935, -248, -628, 336, 519, -1677, -811, -900, -45, -766, -638, 694, 692, -559, -290, -912, -326, 525, 22, 848, -319, -1429, 704, 1003, 542, -1205, 1242, 849, 1287, -801, -1525, -802, 837, -346, -294, -351, 509, -155, -900, -745, -123, -786, 779, -423, -620, 1397, 509, -413, 229, -188, 824, 492, -835, -816, 37, 823, 1146, 233, 1275, -940, -1169, 1111, 327, -605, 472, -1564, 1082, 1126, -548, 1313, -643, 17, 556, 1920, 1118, -767, -878, -562, -391, 952, 746, 358, 750, -12, -1414, -246, 1740, 442, 1097, 4, 1114, 1061, 2356, -667, 671, -50, 919, -983, -896, 1150, 89, -1126, -947, -393, 288, 414, 698, 930, -262, 138, 841, 1384, 464, 242, 1620, 77, -975, -1278, 610, 808, -595, 541, 873, -99, -1147, -376, 277, 1026, -121, -495, 1515, 674, -787, -1235, -2097, -663, -481, 288, 894, 1647, 683, -218, 650, 1615, 1680, 1202, 203, 432, 26, -382, -399, 1196, -1555, -342, 548, -466, 666, -50, 859, -1725, 1182, -349, 2103, 600, -2001, 871, 619, -1381, 712, 1917, 785, -186, -192, 291, 471, 577, 58, -422, -189, -888, 533, -207, 602, 1821, 321, -340, -1061, 374, 118, -64, -1366, 2153, 1313, -856, 369, 1014, 259, -300, -366, 266, 23, 828, -261, -493, 118, 342, -755, -141, -427, 1808, 266, 1261, -2055, -1026, -932, -261, -459, -99, 243, -294, 2106, -2211, -243, -902, -664, -588, 132, -109, 113, 978, -595, -894, 1537, -1434, 680, -349, -392, 757, 1066, 307, 388, -2285, 238, -660, -338, -545, 880, -2147, 1870, 136, 797, 321, -560, 652, 30, 813, 1713, -2322, -312, 832, 160, 330, 417, -225, 843, 1729, 577, 260, -386, 303, 1081, 1665, 765, 647, 1865, -2006, -165, -1398, 906, -72, 982, 1446, 59, 1245, 852, 319, -674, -798, 778, 1003, -279, 2174, -617, -10, -320, -338, 1258, 824, 1857, -240, -262, 980, -638, -498, 4, -576, 610, 178, 801, -2018, -1422, 27, 725, -476, -888, 725, 352, 64, 658, 1708, 1696, -568, 1269, 577, -338, -1051, -946, -1139, -936, 936, -751, 413, 52, -714, -321, 1292, -394, 249, 921, -874, 787, -267, 1076, 933, 309, 254, 1181, -109, 1213, 605, 276, -1338, 181, 573, -871, 637, -367, -1371, -158, 13, -92, 951, -33, -28, -1141, 1131, -395, 565, -193, 2143, 299, 1718, 372, -421, -2014, 2545, -299, 948, 501, -154, -27, 424, -64, 163, 956, -423, -48, 843, 1327, -56, 1649, 1110, 871, 1012, -803, -201, -86, 618, -358, 1143, 201, 842, 1537, -1843, 189, 894, -60, 657, 1051, -1002, 714, 548, 262, -1223, -119, 228, 1350, -1943, 253, 321, -7, -856, -35, 1134, -135, 866, 1836, 318, 1022, 314, 22, -176, 866, 413, 2110, 515, -815, -518, 299, 273, 880, -426, -518, 3681, 1733, -511, -938, 1046, -183, -168, 90, 377, 770, -669, -276, -812, 461, 874, 1907, 1061, 537, 473, -781, 253, -216, 1725, 102, 569, 174, 650, 564, 