{"arch": [768, 64, 16, 1], "scale": 600.0, "layers": [{"w": [0.973872, 0.622739, 0.167443, -0.935736, -1.537216, 0.536414, -1.128674, -1.881457, 1.109241, -0.829748, 0.172826, -0.456071, 0.252674, -0.465271, -1.101573, 1.668762, 0.400063, 1.066348, -0.564819, -0.60777, 0.227126, -0.567989, -0.364826, -0.638512, 1.067813, -0.795007, -0.672704, 1.135991, 0.624707, 0.862806, 1.100815, -1.334358, -0.975924, 1.091002, -0.436971, 1.304229, -1.55378, 2.269577, 0.677166, -1.257978, -0.703343, -0.780863, 0.341965, -0.314662, 1.160016, 0.470613, -0.214945, 0.407183, -0.796075, 0.214818, 1.63111, 0.249904, 0.683899, 0.986391, 0.668898, -0.842003, -0.011212, -0.496649, 2.189207, -0.844815, -0.105227, 2.622618, -0.85889, 1.243589, 1.778145, -1.810865, 0.343854, 0.630722, 0.488981, 0.236525, -0.054192, 0.682749, -0.456151, 1.650305, -0.577564, 0.072388, -0.230925, 1.833645, -0.550295, 0.897101, -0.025163, 1.043251, -0.563145, -1.093251, 0.700089, -3.133869, -1.579361, -0.294645, 0.022955, -0.507156, -0.944572, 0.437437, -1.61451, 0.413277, -0.840027, 0.631169, 0.906658, -2.569368, 0.671718, 0.869506, 0.395199, 1.766373, -0.682987, 0.67243, -0.20197, -1.415494, 0.594069, -1.656774, -1.052972, -1.331435, 0.576472, 0.475062, 0.974444, -0.686222, -0.034588, -0.096216, -0.099586, 1.864002, 0.816682, -0.256268, -0.244948, 0.381106, -0.380776, -2.230668, -1.220028, 0.046758, 0.051666, -1.02277, -0.753638, -0.358238, 0.850775, -0.424986, 1.311819, -0.088833, -1.116629, 0.866867, -1.651584, 2.566106, 1.089141, 0.092454, 0.869542, -1.701364, -0.721513, 1.122815, 0.352907, -0.803683, -0.301941, -0.54848, -1.245367, 0.313487, 0.731327, 0.094471, -0.835934, -1.247277, -0.321584, -1.113285, 1.518053, 0.299576, -0.323489, -0.130461, -1.11592, 0.792658, -2.345381, -0.12702, 1.373621, -0.46076, -0.193104, 2.181322, 0.230962, -0.349937, -0.141432, 1.43877, 0.248534, 0.001615, -1.170511, -0.686329, -0.70044, -0.453067, -0.328927, -0.796668, 0.162073, -1.036701, -0.391926, 1.008237, -0.383622, 1.010764, 1.12313, 0.985589, 0.377247, -0.030974, -0.948488, 0.969251, 0.239743, 0.773658, 0.457372, 0.398105, 0.469536, 0.179304, 0.654179, 0.393419, 0.209497, -0.024022, 1.576476, -0.112623, -0.235253, 0.450477, 0.04677, -1.01244, -0.369805, 0.786546, -1.568531, -0.872805, 0.751875, 0.646029, -0.247397, -0.514016, -2.273847, -0.008829, 0.38842, 0.193048, -0.58919, 1.543228, -2.137079, -1.05284, -0.970521, 1.390411, 0.565745, -1.009465, 0.518105, 1.230177, 0.40902, -0.423077, 1.273228, -1.23922, -1.633454, 0.336652, 0.45524, 0.801731, -0.325933, 1.003301, -0.64629, -0.189393, -1.143088, 1.768961, -0.452637, -0.716785, 0.304702, 0.187613, -3.017052, -0.296618, -1.975102, -0.966589, 0.237719, 0.242903, 1.295321, -0.398615, 0.828762, -2.351767, 0.274616, -0.983258, 1.606146, 1.925235, -1.104632, 0.755789, 1.880203, 0.166465, -1.238094, 0.477095, -0.219509, -0.087982, -2.243991, 2.066828, -0.110318, 0.356999, 0.439483, 0.360797, -0.841645, 0.042906, -0.329377, 0.882898, 0.884845, 1.522933, 0.628102, -0.245741, 0.609151, 0.468425, -0.039156, 1.662403, 0.272138, 0.013757, -0.689735, 0.400152, 0.53738, -1.526768, 2.718848, 0.434584, 1.21157, -0.547297, -0.900695, -1.748328, -1.930161, -1.450138, -0.274406, 0.525137, -0.143547, -2.790262, -0.744667, -1.742289, 0.833905, 0.594566, -0.380698, -1.674708, -0.760073, -1.263472, -0.751254, -1.420059, 0.051652, 1.055814, 0.850841, -1.357491, -1.920453, -0.399209, -1.290358, 0.154922, 0.39372, -0.700028, -0.091779, 0.589858, 1.282889, 0.588613, -0.459665, 1.374648, 0.893906, 0.875583, -0.4613, 2.105333, 0.076265, 1.064951, 1.223479, 1.125721, -0.847878, -0.201137, -0.092201, -0.554881, -1.257836, 0.281806, -1.312472, -0.072466, -0.643517, 2.010387, -0.252395, 0.900822, 0.930713, 0.154468, 0.344025, -1.518043, -0.418397, 0.738258, 3.780872, 0.633364, 0.378102, 0.630908, -0.478929, -0.738473, -2.060764, 1.175287, 1.608949, 0.788119, -0.673748, -1.131849, -2.104596, -0.528232, 1.690603, 2.196736, -1.669901, -1.169895, -0.116896, 2.243287, -0.442751, -0.708913, -0.453489, -0.368556, -0.900073, -0.98665, -1.333224, -0.26661, 0.334143, -1.042589, 0.496243, -0.151438, -1.375108, -1.130763, 0.918134, -1.255017, 1.17322, 1.663401, 1.05547, -1.85667, 1.621787, -0.68, 0.895956, 0.40337, 0.962476, -0.644666, 0.674603, -0.571383, 0.212116, -2.354978, 0.614983, 0.971862, 0.998153, -2.324103, 0.612449, 1.91779, 0.532175, 0.097302, -1.073923, -0.247497, 0.061813, -1.977995, -0.353324, 1.012927, 1.624372, -0.320557, 1.682491, -2.360884, 1.259796, 0.420266, -0.073103, -1.02923, -0.431077, -0.40902, 1.010658, -0.124866, -1.208305, -0.997536, -0.39164, 0.942141, -1.73816, -0.087612, -0.29486, -0.502032, 0.234871, 1.011796, -0.643725, 0.903824, -0.468825, 0.495284, -0.080899, 1.596198, -0.97045, -2.103815, 0.927988, -0.764319, 0.34392, -0.260635, 0.591816, -0.105504, -1.492808, 0.620937, 1.15305, 0.350389, -0.403664, 2.543909, -0.527994, 0.643609, 0.275305, 1.754973, 1.511285, 0.349326, 1.721072, -1.627546, -1.727371, -0.458243, -0.18575, 0.776583, 0.116948, -0.762599, 0.426327, 1.12977, 0.644595, 0.335164, 0.089409, -0.131802, -1.528866, -1.699274, -0.029037, 0.596997, 0.45958, -0.845169, 0.919355, -0.182112, 0.11019, 0.329955, 1.654086, 1.983797, -0.397779, -1.464478, -1.776282, -0.701233, 1.16731, 0.363958, 0.999195, -0.056147, -1.1384, 0.330955, -0.429842, -0.405531, -0.082762, 0.096984, -1.407874, 0.658278, 2.014691, 1.98885, 0.338208, 1.275601, 1.892753, 0.360233, 1.952002, -0.355992, 0.930237, 0.952316, -0.643503, -0.836076, -0.462688, -1.0257, -1.205987, 0.609097, 0.088771, -1.610774, -0.291926, 0.774257, 1.598815, -0.103277, -0.929087, 0.859089, -1.202006, 0.379295, 0.265342, 1.583715, 0.277803, -0.954832, -1.342, 1.887595, 0.477339, 0.915594, 2.82527, -0.143622, -0.950229, -2.360278, -0.213119, 2.22604, 1.364288, -0.441814, 0.420465, 0.171517, 0.642965, 0.069149, 0.276401, 0.2165, 0.823898, 0.66313, 0.251013, -0.83258, 0.582409, 1.646002, 0.843259, 2.823157, 0.802922, -0.55515, 0.118662, -0.41855, -0.051945, 0.538138, 0.063329, 0.714151, -0.093449, 0.030749, -0.407719, -1.119759, 0.816153, -0.855054, 0.472337, -0.605976, 2.018661, 0.454638, -0.211933, 1.202961, 0.189126, -0.462784, 1.334216, 0.108516, 0.809307, -0.444183, -0.879473, -0.158958, -0.340016, 0.811704, -0.43418, -0.667506, -0.488212, -0.426997, 0.414144, -0.281601, -1.974783, -0.260184, 0.511827, 0.264426, 1.567214, -0.464258, 1.350008, 0.995871, -0.174004, 1.067423, 0.358045, 0.252443, -0.716188, 0.77563, 1.067067, 0.760199, -1.022247, 0.802197, 0.921689, -0.098252, 0.535434, -0.441479, 1.29627, -0.269139, 1.072879, 1.361155, -0.20574, -0.051533, -1.152838, 0.654801, 0.959291, 0.510381, -0.332696, -0.076978, -0.986403, 0.054375, -0.485115, 2.190113, -0.594791, 0.25803, -0.281366, -0.939387, 0.448785, -0.209973, 0.34393, 0.909736, 1.091688, -0.451388, 1.031105, 0.957815, 0.582473, -0.159231, 0.943232, -0.170894, 0.569291, 0.549932, 0.933233, 0.479254, -0.493209, -0.854861, -0.320984, -0.873456, -0.227602, 0.674216, 0.912829, -0.551174, 1.352054, -0.614974, 0.580404, -0.315496, 1.815211, 1.53083, -1.134212, 0.817762, -1.809183, -1.751143, 0.413096, -0.455947, 1.009605, 1.329284, 0.291889, -0.409445, 0.005961, 0.549151, 0.253158, 1.202073, 0.622077, -0.57388, 1.235883, -0.941649, 0.463703, -0.035787, 1.440503, -0.290101, 0.212233, 0.673151, 2.409027, 0.134711, -1.294297, 1.481615, 0.448627, 0.456551, -1.086411, 0.052073, -0.237196, 0.040811, -0.000469, -0.073189, 0.602135, -0.32566, 0.639304, -0.828992, -0.24184, -0.074785, 1.565423, 0.319924, -0.201147, -0.640255, 0.199502, -0.175578, 0.969945, -0.060285, 0.296717, 0.403954, 1.214929, -0.588789, -0.267019, 0.01946, -0.010559, -0.703578, -1.111275, -1.219661, -0.220714, 1.060382, 0.746771, 0.954254, -0.230272, 0.05806, 0.690021, -0.834435, 0.985724, -0.205827, 0.690943, 0.493765, -0.292866, 0.213035, -1.568161, 0.4673, 0.800908, -0.326825, 0.816734, -0.521315, 1.099138, 1.400881, 0.640996, 0.151692, 0.420568, 1.675176, 0.167879, 0.881984, -0.613125, 0.263738, -0.302225, 0.981973, -0.311788, 1.714839, 2.401994, -0.011582, 1.498992, -0.854109, -0.093299, -0.23128, 0.638662, -2.578045, 1.299646, 0.992081, 0.32064, 0.370088, 1.053901, 0.320037, -0.68656, -0.709102, 0.129756, -0.118825, -0.34191, 0.889168, -1.186084, 0.300874, 0.114094, 1.172577, -0.000346, 0.420971, 0.717533, -0.331518, -0.267659, 0.715508, 0.534656, 0.720827, 0.753662, 0.488749, -0.654152, 1.585056, 1.69903, -1.435053, 1.108631, -0.035426, 2.770025, 1.854834, -0.552315, -0.755523, 1.727511, 0.080301, 0.409076, 0.655246, 0.22967, -0.663975, 1.340229, 0.27637, 0.290248, 0.182432, 0.85147, 1.022512, 0.522589, 0.396675, 0.823064, -0.128664, 0.637699, -0.259027, -0.317446, 2.376724, -0.578934, -1.001515, -0.072142, -0.10747, -0.665737, -1.094259, -1.99943, -0.980296, 0.092141, -0.362027, 1.102051, 0.025839, -0.990198, -0.653349, -0.664376, -0.510593, -0.489258, 0.55277, 1.204282, 0.518505, 0.992465, 0.377965, 0.84144, -0.505381, 1.145653, 0.9, 0.570316, 0.871698, 0.901387, -1.834169, 1.17151, -1.527709, 0.261487, 0.683432, -0.758117, 0.803901, -0.265581, -0.076008, 0.300668, -1.63772, -1.03974, 1.276776, 0.463554, 1.221915, 1.193916, 0.199564, -0.23834, 0.11227, 0.425981, 0.687469, -0.454659, 0.750601, 1.158983, -0.056237, -0.710512, 1.295397, -0.556188, 0.454076, -0.493926, 1.009729, 0.335078, -0.103638, 1.854513, 0.035279, 1.335254, 0.074267, 0.257963, 1.24248, -0.44008, -0.918058, -0.735882, -0.995384, 1.445447, -0.807301, 2.362041, -0.328156, 1.118775, 0.650749, 0.591345, 1.030509, 0.626168, 1.103951, -0.052744, -0.430367, -0.077861, 0.633084, -1.233166, 0.747644, -0.62418, -0.167817, 0.483503, -0.095015, -1.452271, 0.349974, 0.300339, -0.624622, 1.212347, 1.02984, 0.009535, 0.46775, -0.775593, 0.666018, 0.271062, -1.367539, -0.446666, -0.188544, -0.133465, -1.145895, -0.182466, 0.289916, 1.487096, -0.11507, -0.552274, -0.498, -1.153296, 2.199286, -0.497132, 0.675364, 0.519752, 0.151498, 0.331323, -0.348027, 0.558233, -0.07295, 0.680351, -0.670536, 0.051037, 0.365746, 0.027625, 0.45927, -0.08121, 0.131726, 0.109452, 1.081859, 0.217991, 0.040262, 0.409111, 1.179935, -0.103667, -0.208019, -0.029084, 1.543187, -0.561512, 0.521199, -0.758918, 0.804729, -0.365599, 1.753918, 0.947394, -0.380488, 1.31343, 2.505867, -0.099236, 1.683748, 0.83751, -0.008902, 0.308549, 0.469641, 0.278556, -0.203114, 1.845329, 1.579822, -0.094726, 0.964662, 1.054187, 0.685747, 0.865176, -0.721695, 1.134823, -0.661122, 0.75691, 0.262, 0.80633, 1.55085, 0.132802, 0.800964, 0.035503, -1.439926, -2.247345, -0.02546, 0.219024, 2.44797, -0.024153, 0.037689, 1.457753, -0.973702, 1.040624, 0.441234, -0.231462, -1.600764, -0.439294, 0.416674, -0.120411, 0.62888, -0.355929, -0.041059, -0.594147, -0.764287, 0.655915, 0.840871, 0.918557, 0.39066, 0.20059, -0.51557, 0.835057, -0.524244, -0.107755, -0.067377, 0.780855, 1.782029, 0.473178, -0.963835, -0.244719, 1.133592, 0.517029, -0.378196, -0.382084, 1.1153, -0.848518, -0.142682, 0.552434, 0.019246, 0.04367, -0.883186, 1.162308, 0.296215, -0.909659, 0.997162, 0.494729, 0.970145, 0.091547, -0.82927, -0.214202, 1.102069, 1.342867, 0.377036, -0.036528, -0.221313, -0.163297, -0.552302, 0.762752, -0.197979, -0.188109, 0.915345, -0.479702, -0.407938, 1.506628, 1.011837, 0.232549, 0.645047, 0.572833, 0.813352, -0.692749, 2.159616, 0.808387, 1.089073, -1.114773, -0.321433, 0.572299, 0.045026, 0.432696, -1.646196, -0.127837, 0.212236, -0.277699, 0.719013, -0.356637, -0.422117, 0.438334, -0.384063, 0.091435, 0.237628, -0.134545, -6.3e-05, 0.265207, -0.607377, 0.581542, -0.904365, -1.729141, 0.544747, 0.18769, 0.440912, 0.918988, 0.559991, 0.317784, 0.503569, -0.554915, -0.623131, 1.07651, -1.168832, -0.537256, -0.402957, 1.160696, 0.514856, -0.028285, -0.047762, -0.43944, 0.950477, -0.413454, 0.869709, 0.862293, -0.229234, -0.047131, 0.053785, 0.118256, 0.095404, 1.203144, 1.491982, -0.215237, 0.849127, 0.143515, 0.203569, 0.791127, 1.35488, 0.405159, 0.604368, -0.843698, 1.208374, -0.126602, 0.817314, -1.393975, 0.07388, -0.915893, 0.068495, -0.430229, 0.966315, 0.155341, 1.507355, 0.351299, -0.180964, 0.646495, -0.396277, -0.892878, 1.284724, 0.996814, -0.591627, -0.256435, 1.328159, 0.935838, 1.815533, 1.608363, -0.88414, 0.391013, -0.970367, -0.314231, 0.779094, 1.800466, 0.209872, -0.381479, -0.031102, 0.521281, 0.151144, -1.264306, 0.602936, 0.3292, 1.386771, -0.681237, -0.066037, 0.773194, -0.707416, 0.515622, 1.014035, 0.431389, 0.249344, -0.268696, 0.101326, -0.509798, 0.502048, -0.064893, -0.634274, 0.525709, -0.325718, -0.425433, 0.417805, 0.341107, 0.437149, 0.471613, 0.302344, 0.909834, 0.613927, -0.041343, 0.687653, -0.849262, 1.29596, 0.023666, 0.480728, 0.509966, 0.731032, 0.23257, 0.684892, 0.563297, -1.20943, 0.89152, -0.029893, 1.946703, 0.025388, 0.701695, -0.773637, 0.73159, 0.442523, 0.464951, 0.463925, -0.123866, -0.290319, -0.487546, 0.783994, -0.217691, -0.747799, 0.079102, 1.399144, 0.618293, -0.3825, 0.428794, 0.628716, 0.219688, 0.046107, -1.720395, 0.222872, 0.619278, 1.45415, -0.051237, -0.861989, 2.099168, -0.979583, -0.053863, 0.731086, 0.488472, 0.480357, 1.530927, 0.464673, 0.299008, 0.117545, 0.186896, 0.108606, 0.526048, 0.200987, 0.033707, 0.253776, -0.223145, 0.386565, 0.010647, 0.189635, 0.56749, 1.171915, -1.023277, -0.493327, 0.639199, 0.016866, -0.505396, -0.263949, 0.242219, 1.820353, -0.408792, 0.53377, -0.934716, -1.473025, 0.55258, 0.44344, -0.14005, 0.213213, 0.388925, 0.970727, -0.91185, -1.154765, 0.348768, 1.541086, -0.285446, 0.279608, 0.798062, 0.500713, -0.331118, -0.349638, -0.088221, 1.975074, 0.395219, -0.563886, -0.487121, -0.510301, 0.119663, 0.314593, 0.823588, 0.295081, -0.120811, -0.213958, -0.655788, -0.870847, 0.8521, -1.230297, 0.246357, 0.472512, 0.259542, -0.264329, 0.310638, -0.95797, 0.894806, 1.306986, 0.928958, 0.043444, -0.453922, 0.644751, 1.117877, -0.35171, 0.168006, 0.419772, 1.252971, 0.343136, -0.192256, 1.019325, 0.514294, -0.995486, 0.57111, 2.439481, 1.080405, 0.393574, 1.429783, 0.353869, -0.895237, 0.668577, 0.452496, -1.095036, 0.724936, 0.153155, 0.032024, -0.306854, 1.511454, 1.89763, 0.681476, 1.201632, 0.734576, 0.92016, 0.196842, 0.845766, 0.324875, 1.208576, 2.166657, 0.340322, -1.208432, 1.355872, 1.670708, 0.466432, 1.478961, 0.105113, -1.127339, 0.180249, 0.028433, 0.747992, 0.199504, 0.21536, -0.335335, 0.611454, -0.312297, -0.743804, 0.536354, -0.422604, 0.334569, -0.227847, -0.247458, -0.129697, 0.993286, 0.28902, 0.450392, 0.079961, -0.204644, -0.821304, 0.463405, 0.171722, 1.620879, -0.164755, 1.50054, -0.229829, -0.199347, 0.252627, 0.254507, 1.257195, 0.884076, 0.610358, 1.889391, 1.904328, 0.496183, 0.831843, 0.049182, 0.341695, -1.782148, 0.085443, -1.0088, 1.552565, 0.569757, -0.618297, 0.140043, 0.327515, -0.551273, 1.011229, -0.696471, 1.357161, -1.232542, 1.451657, 2.046429, -0.035022, -1.083186, 0.312417, 0.074086, 0.504734, 0.420853, 0.646409, 1.937975, -1.015193, 0.468155, 0.363211, 0.083978, -1.186996, 0.735618, -0.110866, -0.805902, -0.938005, -1.810927, -1.521102, 2.321876, 0.268883, 0.422291, 0.678297, 0.770064, 2.385486, 0.810823, 1.814921, -0.737151, 0.990914, -1.26573, -0.451671, -0.118852, 0.418755, 0.687599, 0.615156, 1.051345, -0.261728, -0.327928, -0.319893, 0.629287, 1.221086, 0.244243, 0.229743, 0.272962, -0.893953, 0.630349, 0.188798, 0.162923, -1.072241, -1.258242, 0.900229, 0.775197, -0.338164, 0.44042, -0.234363, -0.430215, 0.461754, -0.19128, 0.565643, 0.254917, -0.631832, 0.543851, 1.211358, 0.679856, -0.368813, 1.644235, 0.760949, 0.255952, 1.201305, -1.024683, -0.485581, -0.237849, 1.13776, -0.433924, -0.809028, -0.88781, -0.586746, -0.019978, -1.436154, -1.0121, 0.558589, 0.351071, -0.416022, 0.013063, 1.148008, -0.326334, 0.834707, 0.017894, 1.672802, 0.232447, -0.096252, 0.201357, -0.242298, -1.337399, -0.757743, -0.705808, -1.204569, -0.044365, -0.412768, 0.173795, 0.48015, -0.860661, 0.158547, 0.324571, -0.292633, 1.15693, 1.396096, 0.034616, 2.040834, 1.324753, 1.573852, 1.181648, -1.001199, 0.264413, 0.788296, -1.054177, 1.636908, -0.622109, -0.909605, -0.406237, -0.39598, 0.760728, -1.113068, 0.665287, 0.835661, 0.191256, 0.527979, 0.898725, -0.086347, 0.387972, -0.219863, -0.140036, -0.007089, 0.313987, 0.595761, -0.054608, 0.57016, -1.390649, -0.332492, 1.138811, -0.606575, -0.13247, 0.775087, -0.40763, 0.634554, 1.213241, -0.904524, 1.227211, 1.305761, 0.897631, 0.094385, -0.09496, -1.294327, -0.118128, 0.030367, -0.43074, -0.422603, -1.197626, -0.463717, -1.532681, 0.231436, -0.255215, 2.209303, 0.691324, 1.341047, -0.001714, 0.73858, 0.441431, -0.483218, -0.048369, 1.944584, -0.580665, 0.715704, 0.249786, -0.478691, 0.29348, 0.045315, 0.331721, 0.231636, -0.28573, -0.748446, 0.699037, -1.333709, 0.688665, 0.477065, -2.085326, -1.236372, 0.282929, 1.81632, 0.130761, 0.285139, -0.111106, -0.39736, 0.124048, -0.584798, -0.343433, -1.346472, -0.54928, -0.857691, -0.181057, 0.172981, 0.185564, -0.393944, 0.098525, 0.393691, -0.459622, 0.96244, 0.839345, 0.004711, 0.462718, 0.204167, 0.233454, 0.455768, -0.202433, 0.246894, 0.468354, -0.605432, 0.191058, 1.448458, 0.115005, 0.384974, -0.352607, 1.221468, -0.039228, 0.186213, 0.350801, -0.07269, -0.149459, 0.374562, -0.727739, -0.077061, -0.487868, 1.994153, 0.51513, 1.698819, -1.094929, 0.387899, -0.72352, -1.139014, 0.220843, -0.51906, 0.815745, -0.248526, -0.143448, 0.492667, 0.307773, -0.730534, -0.096791, 0.265609, 0.378288, 0.705726, 1.553971, 0.071594, 0.142608, 0.590954, -0.369204, -0.094722, -0.025455, -1.563583, 1.703033, 0.268087, -0.054954, -0.149775, -0.804291, 0.012125, -0.40662, -0.752073, 1.064515, 0.103025, -0.218565, -0.947164, 0.473779, 0.472713, 0.479003, -0.804213, 1.432598, 0.995764, -0.001683, 0.789501, -0.364699, -2.155642, -0.10454, -0.273588, 1.288654, -0.80728, 1.225555, -0.268017, -0.42083, 0.917579, 0.444406, 1.217687, 1.060713, 1.170951, 0.126124, 1.069299, -1.140497, 0.933007, 1.419433, 0.428269, 0.569453, 1.265879, -0.437491, -1.372877, 0.147094, 1.397853, -1.554671, 1.473157, -0.610226, 0.230182, -1.128419, 0.339272, -0.379512, 0.687957, -0.387078, -0.319938, -0.950937, 0.39065, 0.106722, -0.431784, 0.296782, -0.642064, 0.265312, -0.10824, 0.170961, -0.836999, -0.315351, -0.604205, 0.411826, -0.887531, -1.059724, 0.210269, 0.345147, 0.565391, 0.792525, -0.198028, -0.148576, -0.517615, 0.128405, -1.635984, 0.259462, 0.907041, 0.036596, 2.861988, 1.542757, -1.264873, 0.615503, 0.560742, -0.0168, -1.085878, 0.41385, -0.992614, 0.429691, -0.024068, 0.494018, 0.825494, 0.404898, 0.163281, -0.132448, -0.372577, -0.046891, 1.762518, 0.217551, 0.311437, 0.81545, 1.796738, -0.047314, 0.048472, 0.070939, 0.250297, 1.225968, -1.308617, 0.293073, 0.454218, 0.524815, 0.171844, -0.815226, 0.557008, 0.357631, 0.824082, -0.253684, -0.079543, -0.717026, -0.029318, 1.077782, -0.148834, -0.430195, -0.741898, -0.594915, -0.294786, 0.993056, 0.142659, -0.298358, 0.505657, 0.75928, 0.968954, 0.381552, 0.620335, 0.738979, -0.357975, 0.087247, -0.625584, 0.278713, -0.915026, -0.482896, -0.939127, 0.714478, 1.368899, 0.234798, -0.328659, 0.338032, -0.538269, 0.863184, -0.100223, 0.006349, 1.57958, -0.737035, 0.449469, 1.251796, 0.648741, 0.030185, 0.201796, -0.195248, 0.17507, 1.089379, 0.663854, 2.05014, -0.840305, -1.124506, 0.424992, 0.260227, -0.113312, 0.153781, 0.217964, -1.441734, -0.788071, 1.480011, 0.362442, 0.833255, -0.643194, -0.91986, 1.203201, -1.081648, 0.595869, 0.623087, 1.379304, -0.459901, 0.196249, 1.681896, 1.561606, 0.662292, -0.263538, 0.567775, 2.135039, 0.193492, 0.939301, 1.10104, -1.622128, 0.000202, 0.875767, 0.143668, -0.899344, 1.081184, 0.505462, 0.45919, -0.6082, 1.149197, -1.812568, 0.969209, -0.600075, 0.978189, 0.424634, 0.467406, 0.609746, 0.761873, 0.475833, 1.066302, 0.359617, -0.966125, -0.38657, 0.32815, -0.253812, 0.369605, 0.346117, 0.797125, 0.307931, -0.644962, 1.210711, -0.514104, 0.34548, 1.9295, 0.728045, -0.220011, 0.772561, -0.129768, 1.340327, -0.637079, -0.496569, -0.345664, 0.287607, 0.830136, 0.86459, 0.285715, -0.336564, 0.321309, -0.598603, -0.890409, 1.310482, 1.185235, 1.34362, 1.571762, -0.043399, 1.53797, 0.269056, -0.340858, 0.538772, -0.314581, 0.967446, -0.618873, -0.523287, 0.719955, 0.332763, -0.084297, 0.644721, -0.976107, -0.753561, -0.02593, 0.249557, 0.431843, 0.445098, -0.422212, -1.319898, 0.94112, -0.948213, 0.382217, 2.043627, 1.693583, 2.459757, 0.809588, 0.78069, -0.013028, -0.588988, -0.637525, 1.832016, -0.221125, 0.183862, 0.606935, 0.37394, 0.576352, 0.149522, 0.59603, 0.602868, 0.309018, 0.560722, -0.493696, 0.417533, 0.294216, 0.53154, -0.058877, -1.010317, 1.069369, 0.124897, -1.347382, 1.009142, 0.770922, 0.663618, 1.135945, 0.307159, -0.074729, 0.743531, -1.637662, 0.058661, -0.606772, -0.745219, 0.567231, 1.61613, 0.693124, -0.089952, 0.688216, 0.48831, -0.368904, 1.549669, 0.603682, 0.210337, 0.699227, -0.338239, 1.309641, -0.741901, 0.671247, -0.607123, 0.641779, -0.782159, -0.526152, -0.137254, 1.038674, -1.590567, 0.291617, -0.357947, 1.040025, -0.08363, 0.686313, 1.224323, 0.329538, 0.474915, -0.81001, 0.867434, -1.571597, 0.481044, 0.035415, 0.418453, 1.01117, 0.583054, 0.44162, 0.48266, -1.133479, 0.179951, -0.571609, 0.813138, 0.334435, 1.318579, -1.877404, -1.120594, 1.147627, 0.00336, -0.298755, -0.005239, 0.285538, -0.102984, -0.059099, 0.253699, -1.221959, -1.233131, -0.147467, 1.410042, -2.299261, -2.933581, -0.169719, 0.927993, -0.137701, 0.490375, 0.204516, 0.375012, 0.23616, 1.193529, 0.366429, -0.771485, 0.07548, 1.439248, -0.999204, 0.945804, 1.032356, 1.018921, -0.767202, -0.796559, -0.372144, 1.04905, -0.084264, 0.284257, 0.436517, -0.308588, 1.355635, 0.912969, 0.590346, 2.149651, 0.039741, 0.12786, 1.775365, 0.007568, 0.910987, 0.061703, 0.272513, 0.194531, 0.114971, 1.235078, -0.830286, 0.959482, 1.104567, 0.600966, -1.833215, -0.306471, -0.550053, -0.812002, 0.863176, 0.696645, 0.340289, 0.724969, -0.247104, 1.087451, -0.644075, -2.923582, 1.264353, -1.194491, 0.214544, 0.755607, 0.360788, -1.03263, 1.573682, 1.23675, 1.04134, 0.618033, 1.743709, 0.358621, -0.107797, 1.325627, -1.098351, -0.428745, 0.368964, -0.567495, 0.003419, 0.984183, -1.615216, 0.630111, -1.010529, -0.35256, 0.805093, 1.556623, -0.669739, 1.203902, 0.381642, 0.592147, -0.046184, 0.307472, -0.601644, -0.965213, 0.846123, 0.150137, -0.007436, 0.221133, 2.083972, -1.988693, 0.109396, 0.057732, 1.48921, 0.400747, -0.660404, 0.319885, -1.727617, 1.458446, 0.161604, 0.814784, 0.219898, 0.944556, -0.705406, 1.685015, -0.080851, 0.099769, -0.738129, 2.082047, -1.587018, -1.57172, 1.155965, 0.212438, 1.062068, 0.146549, -0.207621, 0.498239, 0.551799, -0.322734, 1.695018, -0.123555, 0.285568, 0.492205, 0.078926, 0.540681, 1.428075, -0.408498, -0.040915, 0.508974, -0.690639, -0.841868, -0.234337, 2.723257, -1.008357, 0.345607, 0.155354, 0.445321, 1.319015, -0.418816, -0.182707, 0.187402, -0.077891, -0.9925, 0.087242, -0.198243, 1.165552, -1.390075, 0.433325, -0.754502, 0.018755, 1.41734, -0.300012, 0.756941, 0.765819, -0.211066, 1.175109, 0.246779, 1.353928, 0.804565, 0.343549, 1.51404, -0.041085, 1.098995, 0.678975, -0.89467, 0.610233, -0.146852, 0.355485, 0.587606, -1.247631, 0.648278, -0.196662, -0.25948, 0.027742, 0.481639, 0.255222, -0.147788, 1.690678, -0.64081, 0.556036, -0.947953, 2.339992, 1.003746, 1.619229, -0.510513, 1.122031, -0.4377, 0.866464, 2.839762, -0.425682, 0.74187, -0.061589, 1.584332, 1.95321, -0.024418, -0.450564, -0.098498, -0.372756, 0.478787, 0.045969, 0.08048, 0.129151, 0.129467, -0.375483, 0.428616, 0.344786, 1.678851, 0.374016, 0.855597, 1.776147, 0.519856, 0.607471, -0.581116, -0.77866, -0.571962, -0.185117, 0.722459, 0.187742, -0.396403, 0.471323, 0.357036, 0.414881, -0.026063, 1.595727, -0.713081, -0.512831, 0.499008, 1.022894, 0.977396, 0.915326, -1.034776, -0.198548, 0.054907, 0.602167, -0.700025, 0.932582, 0.540177, -0.637473, 0.70866, 0.01199, -0.087849, 1.385678, 2.001402, -3.024686, -0.464394, 0.090077, -0.419835, -0.276485, -1.489894, 0.424752, 1.033974, 0.306913, -0.642637, 0.31773, 0.044971, -0.419832, 1.04712, 1.726703, 0.204597, -0.296098, -0.120149, 0.66155, 0.658887, 0.625814, 1.614143, 0.312932, -0.081875, 0.253812, 1.46895, 0.215678, -0.275428, 0.931653, 1.321097, -0.637195, -2.132328, 0.020163, -2.189984, 0.757684, -0.982101, 0.553053, -0.602499, 0.419835, 0.584215, 0.3568, 0.16562, 0.629676, 0.012094, -0.363121, 0.294055, -0.210594, 0.201504, 0.235985, -0.181966, 1.202157, -0.955923, 0.602609, 0.979504, -1.174851, -0.210964, 1.291556, 0.437184, -0.737488, 0.560527, -0.960781, -0.360885, -0.264871, -0.661717, 0.987576, -1.093417, 0.161443, 0.993155, 0.805899, 0.870216, 0.004639, 0.739846, -1.504385, 1.861467, 0.497236, 0.721361, 0.593244, 0.856621, 0.123325, -0.222021, -0.569702, 0.638716, 0.221283, 0.316871, -0.549629, -0.397098, 0.183686, -0.163681, -0.847616, -0.822491, 0.088493, -0.003712, 0.369643, -0.87888, 1.000911, 1.028434, 1.043871, -1.00556, 0.636323, 1.215274, 0.620589, 0.167407, -0.515534, 0.729756, 0.30855, -0.271514, 1.096863, -1.193669, -0.127645, 1.546432, 0.163889, 0.384076, 1.234125, 0.493183, 0.933197, 0.469358, -0.085396, 0.673329, 0.104492, -0.982551, 0.746797, -0.843554, -1.06483, 0.880763, -0.132408, 0.565256, 2.055815, 1.512227, -0.938529, 0.264087, 0.540272, 1.136733, 1.277537, -0.46279, 1.163413, -0.137816, -1.149119, 1.068347, 0.016703, -1.176268, -0.010364, 0.528281, 0.622901, 0.675474, -0.672864, 0.384573, 0.06544, 0.362936, -0.466785, 0.50848, -0.438591, -0.368655, -0.059793, 0.689857, 0.781855, -0.606268, 0.437177, -0.268878, 0.269025, -1.42068, 0.158071, -1.254946, 0.201121, 0.772323, -0.218606, 1.257415, 0.642836, -0.362682, -0.080587, 0.772271, 0.293615, 0.482815, -1.009214, 0.654777, 0.871969, 0.826946, 0.418914, -0.160326, 0.984569, 0.657823, -0.391695, 0.923183, -0.485487, -0.408624, 1.013481, 1.576781, 0.079433, 0.355929, 0.624402, -0.379586, 0.239201, 0.413362, -0.454784, -0.763999, 0.71419, -0.250061, 1.420618, 0.226315, 0.651073, -0.746442, -0.777916, 1.151331, -0.305464, 0.795251, -0.343562, 0.818827, -0.968355, 0.657556, 0.108353, 1.058283, -0.033142, -0.441604, -0.011142, 0.25725, -1.080004, -0.29586, 0.744865, 1.383471, 1.056905, -0.945367, 1.046843, 0.590326, -1.833239, 0.33745, 0.083411, -1.788861, 0.835181, -1.359328, -0.945277, -0.610252, 0.443802, 0.713656, -0.012653, 0.928906, 0.463298, 1.60075, 0.503787, -0.424577, -0.577434, 0.585686, 0.975777, 2.1143, 0.61303, 0.788506, -0.001696, -0.017196, 1.36135, 0.528757, 1.982586, -1.690718, -1.651404, 1.417019, -0.399782, 0.501725, -0.432657, -1.656312, 2.103536, -0.651082, 1.254707, 1.432178, -0.001664, -3.35366, 0.928724, -0.073557, 0.661111, 2.443624, 1.608207, -0.761564, 0.771452, 1.14983, 0.820914, 0.568692, 0.697319, -1.898694, 1.196337, 0.470606, 0.225538, -1.524189, -0.472387, -0.489227, 0.953219, 1.933912, 1.099654, 1.033532, -0.672317, -0.724371, -1.13159, 0.066898, 0.87728, -0.133727, 0.001959, 0.113447, 1.121873, 0.592996, -0.508627, -2.85719, 2.01747, 0.258894, -0.94998, -2.229622, -0.802719, 0.318812, 0.053594, 0.91088, -0.053709, 0.584724, 1.150646, 1.728067, -0.009862, 1.214351, 1.09315, 0.601222, 1.470552, 0.044585, -0.058529, -1.019468, 0.292488, 0.635481, 1.027739, -0.028294, -0.99223, 0.426448, 0.256095, -1.330809, -0.675027, -0.188143, 0.487898, 1.305625, -1.793675, 0.516568, -0.879574, 1.133597, -2.597901, 0.796014, 1.483163, -0.194079, 0.922291, 0.527569, -0.314494, 0.72322, 0.548118, 1.565173, 1.607515, -1.255228, -0.688853, 1.49958, 0.13452, 0.960851, 0.11607, 0.449916, -1.190883, -0.291395, 1.059016, -0.487325, 1.433611, 0.188557, -0.571334, 0.994152, 1.233136, -0.041782, 0.287818, 0.203025, -1.467464, 0.188426, -1.08669, 1.482261, 1.954188, 1.086226, 1.147639, 0.054835, -0.322464, 2.240525, 1.556877, -1.005531, 1.615504, 1.181922, -0.174997, 0.176514, -0.142181, 0.997572, 2.022393, 0.1966, -0.05733, -2.022285, -0.127354, -1.018105, 0.058405, -0.257884, 1.297669, -2.876463, 0.00972, -0.24649, 0.11413, 4.084809, 0.910492, 1.456179, 0.195369, -1.214479, -0.721458, 0.703219, 0.284639, -0.702997, 1.781935, -0.191625, 1.446891, -0.533284, -0.332486, 0.059725, 0.55867, 1.494091, 1.34225, 1.87809, -0.96726, -0.354045, -1.894653, -0.222077, -0.380437, 0.359935, -1.944743, 1.034603, -0.514529, 0.213044, 0.09679, 0.710146, 1.44748, -0.982409, 0.584088, -0.895505, 1.829661, 1.104195, -0.781752, 1.385446, 0.449744, 0.122292, 0.267946, 1.96679, 0.363329, 0.606925, 0.625704, 0.019395, 0.04072, 0.536778, -0.445636, 0.921464, 2.7004, 0.540683, 3.190745, -0.414085, -1.253196, -0.513444, -0.268171, -0.864264, 1.101439, -0.09156, 0.661746, 0.030877, -0.036557, 1.86246, 0.207883, 1.866526, -0.893734, 0.656928, 1.401751, -3.189651, 0.49385, -0.314317, -0.499318, 0.206522, -1.103656, 0.937515, -0.152068, -0.698833, 0.575228, -0.015099, -0.229474, 0.5878, 1.39983, 0.871549, 0.531906, 0.224219, 1.24886, -2.285199, -2.591551, 0.758576, 1.009639, 0.099243, -0.051349, -0.804084, 0.489813, 0.59132, -1.80239, -0.186597, 0.528016, -0.309542, 1.159084, 1.349142, 0.397072, -0.553339, 0.42047, -0.463861, 1.853419, -0.440826, -1.209131, 0.478731, -0.112986, 0.40009, 1.828705, 0.817751, -0.424181, 0.788358, 1.389266, -1.185049, 0.96063, -0.825516, 0.112251, 0.369039, -0.372034, -0.39019, -1.099042, 0.645385, -0.730767, 1.742188, -0.70352, -0.547623, 0.949212, 1.977272, 1.297985, -2.00271, 0.089005, -0.392939, 0.973435, -0.104859, -1.006882, -0.859432, 0.232255, -0.152305, 0.33403, -2.505053, 0.787589, -0.870742, 0.541516, 0.903421, 0.43346, 1.068228, 2.701824, -0.04092, 0.579545, 0.946243, -0.264979, -1.664065, 1.355487, 1.247461, 1.497116, 0.255799, 0.211527, -0.426247, 1.122688, 0.951184, -0.123765, -2.589265, -0.008163, 0.405504, 1.936695, -0.502938, 1.130853, -0.39089, 1.719727, -0.918454, -1.292966, 0.243536, -1.661456, -1.127986, -0.105757, -0.096397, 1.230348, 1.691738, 0.067589, -0.542418, -0.165255, 0.210131, 0.862163, -1.037047, -0.084189, 0.024463, -2.591844, 0.034693, 0.170511, 1.201306, -0.626546, 0.280081, 0.45826, 0.039352, -1.268622, 0.70926, 0.753866, 1.708962, -1.354064, -0.306874, -1.177909, -1.592291, -0.769239, 0.984235, 0.225758, -0.397289, 1.566333, -0.291892, 0.992233, -1.397083, 1.457823, -2.235597, 0.366138, -0.482181, 0.225451, -0.321008, 1.561223, 1.074883, -0.912982, -0.392032, 2.282203, 1.102866, -0.034489, 0.930518, 0.709773, -2.29294, -0.438131, -0.499812, 2.09273, 0.733119, 0.529812, 1.669046, -1.643441, 0.334959, 0.363725, 0.408567, 0.016715, -1.122404, -0.469923, 0.272364, 0.827551, 0.481369, -1.319152, 0.517494, 0.619688, -0.448262, 0.8041, 0.962102, 0.118312, 0.06213, -1.201527, 0.890093, 0.224659, -0.620789, -0.944187, 0.381236, 0.084556, -2.098336, 0.202001, 0.963921, 1.213793, 0.664457, 1.057504, -0.222732, -0.447281, -0.763515, 0.99161, 0.621731, 0.963702, -1.005393, 0.493868, 0.186542, 1.040552, -0.060074, 0.639802, -1.158222, -0.07253, 0.247427, -1.240758, 1.000171, 0.020717, 0.68013, 0.686489, -0.560551, 1.163552, 0.348257, 0.162748, -0.538691, -1.326345, -1.228986, 0.113676, 0.701906, 0.32218, 0.114993, -0.894522, 0.40646, -1.520303, -0.656379, 1.353888, 0.283236, -2.142944, 0.373549, -0.921692, -1.885425, 0.825182, 1.372891, -0.14129, 1.92073, -0.516698, -0.716168, 2.380507, -0.900969, 0.845208, 1.197045, 0.466506, -0.626023, 0.172861, 0.393506, -0.937802, 2.010202, 2.43989, 1.3194, 0.109539, 0.668091, -0.438534, -0.569097, 0.168954, -2.658715, -1.154737, -0.011394, 0.259, 1.279954, 0.029463, 0.153724, -0.311626, -0.42204, -0.078373, 1.628138, 0.51486, -2.638323, 0.87235, -1.207424, -0.461588, 0.988416, 0.283921, 1.143716, -0.749203, 1.448301, -0.79162, 0.096192, 0.737618, -0.284073, -0.344202, -0.506685, 1.237589, 0.313953, 0.112951, 1.691663, -0.336076, -0.370211, 0.505397, -0.034184, 2.072277, -0.375145, -0.821235, -2.436743, 0.753324, 0.057112, -0.114331, 0.731913, -1.918808, -1.233723, 0.033376, -0.565523, -1.536458, -2.70463, 0.037179, -0.644517, 0.539613, 1.053514, 1.246039, 0.192745, 0.908613, 1.043303, -0.429328, 0.936862, -1.16544, -0.581997, -1.065945, -0.006189, 0.348998, -0.472277, -0.906988, -1.32901, -0.747274, -2.129282, -1.160307, -2.213514, 3.087908, 0.333757, -1.165736, 0.767589, 0.535326, 0.933717, 0.774911, 1.001037, 0.258219, 0.879453, 1.450091, -2.36744, -1.097645, 0.082448, -0.323318, 0.951964, -0.138368, -1.097792, 0.94874, 1.4438, 1.083703, 0.623679, -0.373535, 1.187075, 0.328239, 0.71371, -1.322358, 0.107001, -0.113587, 1.188738, 0.465638, -1.702059, 0.975081, -0.312489, 0.601178, -1.684767, 1.101285, -2.26417, -0.875858, -0.741777, -0.043561, -3.310888, 0.499131, 0.971154, -0.06941, 1.562101, -0.803535, 1.750099, -1.875412, -0.137395, 0.824882, 0.891883, 2.216968, -1.768262, 0.041381, 0.704394, 1.885838, -1.934332, 0.733921, -0.973359, 0.679769, 0.781347, 0.016275, 0.777938, -0.53834, -1.34378, 0.760464, 0.488788, 2.332365, 0.343579, 0.255382, -0.022396, 0.354979, -0.046773, 0.041808, -0.88034, 0.534245, -0.093584, -0.85065, 0.050096, -1.896352, 1.567422, -0.790266, -0.034886, 1.918228, -0.347727, 0.802897, 1.458716, -1.340941, -0.221841, 0.731207, 0.354864, 0.676068, 2.266497, 0.273175, -0.470784, 0.704198, -1.931105, 0.442145, -0.890173, -0.390138, -2.367629, 1.525933, -1.655238, 2.292022, -1.96623, 1.379211, 0.800969, -0.831921, 1.54912, -2.009393, 0.6159, 0.878837, -0.540265, 2.491396, 0.123628, 1.239227, 0.901964, -0.669949, -0.395863, -0.915286, -0.505761, 0.671309, -1.525184, 0.531436, 0.55872, 1.303328, 0.316198, 0.483854, 0.161892, -0.129239, 1.726316, 1.295325, 0.107866, -0.134868, 0.888253, -1.70965, 0.826205, 0.263586, -0.290553, 1.709608, -0.253241, 0.318639, -0.406277, -0.783895, 0.952395, 1.836184, 2.248473, 0.581851, 0.039839, -1.060957, -1.597186, 2.84164, 0.076714, 0.309324, -0.373744, -0.253442, 0.508968, 1.14866, -0.306745, 1.217223, 0.896545, 1.647984, -0.971714, -3.010515, -0.933603, 0.162469, -0.041373, 2.407378, -1.388266, 0.730374, 0.943727, 0.487747, 1.735974, -0.961202, 2.557096, 1.111581, 0.949422, 1.644963, -0.093692, -1.450294, -2.552602, -0.45046, 0.488185, 0.902786, -1.745822, 0.180134, -1.355382, -0.164882, 0.957043, 0.161088, 0.329199, 0.76489, -0.480051, -0.925612, 3.337929, -1.655718, 0.870484, -0.157753, -1.089822, -1.60097, 1.400715, -0.252889, -0.522005, -0.281225, -0.444917, -0.176734, -0.136244, 0.405504, 1.182269, 0.38292, 2.124208, 1.39411, 0.732797, 2.171808, 0.836134, -0.722163, 0.967628, 0.936017, 0.530074, 1.289894, 1.318787, 0.985631, -0.157405, -1.065443, 0.305478, 0.978248, 0.679974, -0.210035, -0.439685, -1.215261, -1.292169, 1.441792, -2.675214, -0.011649, 0.406867, -1.998286, 0.226549, 0.09368, -1.47279, 0.416982, 1.77388, -1.035451, 1.033397, -0.855983, -0.263509, -0.809199, -0.526778, 0.046107, -1.068173, 0.04628, -1.061488, 0.149877, 0.394748, -0.085365, -1.508525, 2.061714, 1.198627, -0.678613, 1.18673, 1.258624, -0.73681, 0.00022, 0.455336, -1.86774, 1.156871, 1.322176, -0.892502, 0.483463, 1.079809, -2.567871, -0.117874, -0.225814, 1.324812, 1.754542, 1.653796, 1.666681, -0.392954, 0.053399, 0.370089, 0.00506, 1.188941, -3.055531, -0.778673, -3.557223, -0.184828, -1.510546, -0.931588, 1.699984, -1.419258, 1.642975, 0.984498, -1.118524, -0.886227, 0.630714, -1.101978, -1.21414, -2.488422, 1.036318, -0.839878, 0.709428, 0.889935, 0.487969, 1.790372, -2.395494, 0.41792, 0.720594, 0.155417, 1.5758, -0.472476, 1.319558, 2.1363, 0.480186, -2.544597, 0.742089, -1.098059, 1.623851, 1.011336, 1.877819, -1.033795, 1.783294, 0.400114, -0.674853, 1.562808, 1.089072, 0.454335, 0.638902, -0.338728, -0.907961, -1.499496, 0.652859, -0.239419, 1.086685, -0.015426, 1.059075, -2.488536, -0.621026, 0.657479, -0.517593, 0.243408, 0.778234, 0.413794, 0.18169, -0.2504, 0.451409, 0.600966, -0.317402, 0.460341, -1.785827, 1.066691, -0.949215, -0.429046, -0.816036, 0.227458, 2.608781, 0.54674, 0.137806, 0.176368, -0.467114, -1.566995, -0.992042, -1.124439, 0.504617, 1.064875, -0.705788, 2.55633, -1.03983, 0.230537, -2.513073, 0.716768, 0.547956, 0.042921, -0.507268, -1.262224, -0.707848, 0.375835, 1.433212, -1.595101, -0.279038, -0.233555, 1.41478, -0.685718, -1.694167, -0.119882, 1.243892, 1.190976, -1.941575, -1.020599, 0.749897, -0.417561, 1.274702, 1.287864, -1.266797, 0.340979, 1.961359, 0.969105, -0.70399, 0.781421, 2.003717, 1.266348, -0.303439, -0.253012, -0.847624, -0.666484, 1.678933, -1.387895, 1.077377, 0.36644, 0.105035, 0.467767, -1.209358, -1.51934, 2.022909, 3.428014, 1.38073, -0.859681, -0.142203, 1.915057, -1.633809, 1.524109, -0.861347, 0.852417, 0.714159, -0.681176, 0.694164, -0.674215, 0.670654, 0.375752, -1.497399, -2.061831, 0.191739, 1.665359, -0.833849, 0.798133, 0.495512, -2.056401, 1.876028, -0.413871, -0.557209, 1.987807, 0.883774, -1.707339, -2.435421, 0.799806, 0.3375, 0.549797, 1.799801, 1.092731, -0.445724, -1.055247, -0.496128, 0.75566, -0.255736, 0.195445, -0.232157, 0.74182, -0.605505, -2.050908, 1.277431, 0.173308, -1.521434, -0.767426, 0.84521, -0.724995, -0.560712, 0.566099, -2.282677, 2.272164, 0.893543, -0.072188, -0.137637, 1.093575, 0.550581, -1.400873, -2.72131, 1.728416, 0.082511, -1.944424, 0.452025, 0.1848, -2.057386, 1.176135, -0.342739, -0.510997, -0.433865, -1.07792, 1.449779, -0.592531, -0.454564, 0.518862, -1.196653, -0.157145, 1.968174, 0.455794, -1.017788, -0.732577, -1.034036, -0.708662, 0.946203, -1.402771, 1.221833, 0.392222, 0.435121, 0.283683, 0.24132, 0.702454, -0.130509, -1.09219, 0.378976, -1.19904, 0.403698, 0.329443, 1.030537, 0.840495, 0.200768, -0.972392, 1.149464, -0.742161, -0.573144, 1.11107, 0.498857, 1.400956, -1.203032, -0.611229, 0.120773, -1.057571, -0.589527, -0.067538, 1.949025, -1.687615, -0.607745, -0.94218, -1.760639, 1.800076, 0.31172, -1.214854, -0.322651, 0.054206, -1.346587, 1.593399, 1.083051, 0.962783, 0.913222, 1.073867, -1.256958, -1.555148, 1.501202, -0.034096, -1.263027, -1.064496, -0.641864, -0.99216, 1.031593, 0.962344, -3.729201, 0.269944, 0.071208, -0.347651, 0.582183, -0.143427, -1.283158, -0.400997, -0.157248, -1.320808, 0.747109, 0.81206, -0.101013, 0.426631, 0.738418, 0.106724, 0.117418, 0.017512, 0.850206, -0.261871, 0.71968, 1.227159, 1.723445, -0.30881, 1.211514, 0.293879, -0.647146, 0.605877, 1.896281, 0.739173, 0.231876, 0.343766, -1.03693, -0.354548, 0.500663, -0.701524, 0.045749, -1.358907, -0.637786, 1.447707, -0.273769, 1.519529, -1.170409, -0.44319, 0.124331, -1.180954, -2.327183, 1.037866, -0.736451, 0.581339, -0.277961, -1.672463, 0.000678, -2.570128, -1.06325, 0.096598, -0.580601, 0.574176, 1.782807, -0.904689, 1.177565, -0.852749, -1.153532, 1.722996, -0.145952, 1.165192, -0.329008, -0.718508, 0.35542, -0.192246, 0.214599, 0.232593, -1.323591, -0.900958, -1.289014, -0.787089, 0.251154, 1.480437, -0.06851, -0.148234, 1.205009, -0.284831, -0.111766, 0.096402, 1.399815, 0.715878, 0.501139, -1.442909, 0.583101, 0.49221, -0.263182, 0.360823, 1.260018, 2.638352, -0.256462, 0.006365, -1.391184, 1.180173, -0.343669, -0.29584, 0.291712, -0.214868, 0.36296, 0.603615, -0.162121, -1.184921, 0.873449, -0.495739, -1.3438, 1.245649, -1.093306, -1.059543, -0.931817, 1.540443, 0.783548, 0.131938, 0.757728, 0.613131, -0.041987, -0.221804, 0.528747, 0.475007, 0.161698, 0.321576, 0.1666, -1.199216, -0.799565, 1.542769, 0.593539, -0.618083, -0.824435, -0.595757, 0.030992, 1.003708, 1.697927, -1.917287, -0.199706, 0.056714, 0.050618, -2.075284, -0.365533, 0.201603, -0.150581, -0.760696, -0.22025, 1.637428, -0.230349, -0.812458, -0.849077, 1.153617, -0.38716, 0.231864, 0.610024, -1.166093, 2.597439, -1.013519, -1.915658, 1.067632, -0.179292, 3.400809, -1.517296, 1.308621, 1.479818, 0.347724, 0.151087, 0.022375, -0.758524, -1.437963, -1.08738, -0.508271, 0.092131, 0.356797, -0.348345, 0.293796, -0.766352, 0.273216, 0.860812, 1.07711, -1.56765, -0.086435, 0.475254, 0.11893, -0.462276, -0.451526, -0.489778, -1.357196, 0.251973, -0.408688, 0.273289, 1.744671, 0.380429, 0.982556, 0.139944, 0.445228, 0.105097, 1.131469, 0.310269, 0.972848, 0.181905, -1.21276, -0.581753, 2.601749, -0.684983, 0.433116, -0.120132, 0.55902, 0.231196, 1.117827, -2.299852, -0.669035, -1.017767, -1.915567, 0.685501, -0.364402, 0.780561, 0.084604, 1.484045, 0.364587, 1.576881, -0.364114, -0.211106, 0.428824, -0.301138, 0.899964, -1.253898, 0.103673, 1.207608, 0.431621, -0.64062, 2.370174, -1.1769, -0.474448, -0.37054, 0.845153, 0.406658, 2.305617, 1.017789, 0.004045, -0.418801, 0.511606, -0.690806, -0.162335, 0.884768, -1.059181, 0.897653, -0.647207, 0.721876, 1.007265, -0.547857, -0.10327, 1.138621, 0.482163, 0.740099, 0.378711, 0.822648, 0.445107, -1.11102, 1.348094, -0.834945, -0.250203, 0.698403, -0.581536, 1.121317, 0.502905, -1.439214, -0.916216, -1.543838, -0.08928, 1.085018, -0.539599, 2.604772, -0.8581, -2.36502, -0.026762, 0.888839, -0.632868, 1.891609, 1.161915, -0.682386, -0.248976, -0.37915, -1.162957, 1.047387, 1.573908, -2.442273, 2.212479, -1.445424, 1.484232, -1.054959, -0.421209, 0.172204, -1.599223, 1.638528, -0.399627, 0.609484, 1.480413, -1.191782, -0.691965, 1.174861, 0.399817, 0.186234, -0.340526, 0.324222, 0.308605, 1.543073, 1.630983, 0.647084, -0.100707, -0.141941, 0.185298, 0.708718, -0.946262, 0.098692, 0.855653, 0.485897, 2.532063, 1.072334, 1.98156, 2.106732, -0.585612, -2.031219, 1.052979, -0.098624, -1.171461, 0.635249, 1.224353, 0.346532, 1.918988, -0.507202, 0.456226, -0.323664, 1.205353, 0.239925, -0.781387, 2.279525, -1.863581, -0.372883, 0.798719, -0.163524, -1.429864, 1.382446, -0.443664, -0.675712, 0.156099, -0.730742, -1.936426, 1.352476, -0.935233, -0.501964, -0.182606, 1.318517, 0.154091, 0.490564, -0.112419, -0.491946, 0.903196, 1.17337, 2.195393, 0.74171, -0.069227, 1.200524, -0.572361, -0.50458, 0.066136, -1.343484, 0.83982, -0.037272, 0.541161, -1.345183, 0.422587, -1.73157, 0.91471, -1.58643, 0.519933, 1.157502, 1.487399, 1.291777, 1.462575, 1.004164, 0.452446, 0.272263, 0.192864, -0.454665, -1.313138, 2.368029, 0.324398, -0.107529, 0.21746, 0.306729, -0.340305, 0.843411, -1.179039, -0.500204, -1.831262, -1.716529, -1.447955, 0.305859, -1.079909, 0.123073, 1.081911, 0.282645, -0.256225, -0.816141, -0.623187, 0.37095, 1.071036, -0.422951, -1.43584, -0.205043, 0.603574, 0.075355, -0.28068, 0.397248, 1.899756, 0.275665, 1.432979, -2.163775, 0.59329, -1.15532, 0.177765, 0.787474, 0.004083, -0.973085, 0.159356, -1.156745, -0.562296, -1.169755, 1.226754, 1.189865, -1.858235, 1.161033, -0.179539, -1.053941, 0.308158, -2.265671, 1.138442, -0.643874, -0.053548, 0.651758, -0.205677, 1.262024, -0.098189, 1.4483, -0.78124, -0.38662, -1.094733, 0.913599, 0.469468, 0.429883, -0.030002, 0.368881, -0.124911, 1.244347, 0.016223, 0.124585, -0.21285, -0.511011, -1.231004, -0.07515, -1.282949, -0.831377, 1.280664, -0.290968, -0.241544, -0.227387, -2.041383, 0.650533, -0.189705, -1.443378, -0.554785, 0.84557, 0.296411, 0.478909, 0.595725, -2.305794, -0.538325, -1.019956, -0.143682, 2.623945, 1.267856, -0.590144, 2.617839, -0.05829, -0.875251, 1.985946, 0.393372, -1.617303, 0.760047, 0.633413, 1.28537, -0.781886, 1.126998, -0.395102, 0.377583, 0.175346, 0.607227, -1.129803, 1.010388, -0.201859, 0.047121, -2.375694, 0.723867, 1.052377, 0.46756, -0.005953, -0.051853, -0.000314, 0.029223, 0.812141, -1.496398, -1.227053, 0.078219, 0.023314, -0.184162, -0.717414, 0.270894, 2.070624, 0.819473, -1.254851, 1.809244, -0.07825, -1.092041, 0.526815, -1.131747, -0.67111, -1.712812, 1.508925, -0.023064, -1.423557, 0.382254, 0.944882, -0.106441, 1.825397, 0.696411, 0.115511, -1.99087, -1.85442, -1.91869, 1.704685, -0.759507, -0.913972, -0.171889, -0.045732, 1.491479, 0.075081, -0.732721, 0.788267, 0.691911, 0.65926, -0.540224, 0.316481, 0.471814, -0.409599, 0.016234, 0.258663, -0.328142, 0.611735, -0.702244, -0.502824, -1.608756, -0.653634, -0.858383, 1.584243, 1.072322, -1.786553, -2.239313, 1.202892, -0.71658, -0.877264, 0.548937, 0.703551, 0.314686, -1.219304, -0.001095, -0.127042, -0.678509, -1.549229, 0.873279, 0.093398, 1.371553, -0.017919, -2.147106, 0.289307, 1.54551, 0.153029, 0.673961, 0.375112, -0.822292, -0.208607, 0.378303, 1.092544, -0.361533, -1.472585, 0.849695, -0.898556, -2.223147, 1.69185, 0.751269, -0.643474, -1.444815, 0.614537, -2.303598, -0.024444, -1.360036, 1.246278, 0.326518, -0.125513, 0.429707, 0.685984, 0.05522, 0.305928, 0.541839, 0.23082, -1.830706, -0.475119, -0.629242, -0.812852, -0.175507, -3.432245, -0.226369, 0.091773, -0.250157, -0.467759, -0.438474, 0.556658, -0.441092, 0.865236, -0.841963, 0.378579, -1.082003, 0.152623, 0.204352, -1.87756, -0.419287, 1.642363, 0.141813, -0.693846, -0.904492, -0.180573, 0.70066, 0.277784, 0.331428, 0.94301, -2.522305, -0.623939, -0.140634, 0.351447, 1.523639, 0.398025, 0.588711, -1.24249, -1.417729, 0.811704, 1.150557, 1.924674, 1.69882, 1.133728, 2.047274, 0.681367, 0.153244, 0.829899, -0.713758, 1.706939, 2.155625, 1.998704, -0.697246, -2.418663, 0.462311, 0.62658, 0.783973, -0.323475, 1.256172, 0.589634, 0.447731, 0.094841, 1.610074, 0.476853, -0.475125, -1.320396, -0.237986, -0.820191, 1.049988, 0.606756, 0.044034, 1.184058, 1.287039, -1.040239, 0.788522, -0.329695, -1.001712, -0.281771, 1.418483, 1.264388, 0.672128, 0.316515, -0.041747, -0.014238, -0.112482, 0.362313, 1.537761, 0.792417, 0.165566, 0.65207, 0.016892, 0.877187, 0.822836, -0.387855, 0.799554, 1.886864, -0.784911, 1.149911, -1.062874, -0.768007, 0.873844, 0.082033, -0.532314, 0.4076, 1.027639, -0.02261, -1.225746, 0.597504, 0.320654, 0.002101, -1.374273, 0.760147, -0.335586, -0.634543, 0.954786, -2.889988, -0.051283, 0.669721, -0.91892, 0.931664, 2.198833, 0.871867, -0.484269, -1.207816, 1.52474, -1.154791, 1.463546, 0.755286, -0.276902, 0.415186, 0.06977, -0.062257, 0.12722, 0.054347, 1.406138, 0.610309, 0.506383, 0.549898, 0.377645, -0.568347, 0.059674, -0.722135, -1.599326, -0.769743, -0.651701, -0.749907, 0.872979, -0.76265, -1.397119, 0.69517, 0.960154, -1.582224, 0.317153, -1.574629, -1.678293, -1.165178, -0.883868, 0.339792, 0.847481, -1.235153, 1.027821, 1.027997, 0.708793, 1.355746, -1.331743, 0.704202, -0.353104, -0.291878, 0.301788, -1.495876, 1.544993, -2.355159, -0.677089, -0.18061, -1.213756, -0.088385, 0.406564, -0.072197, 0.018969, 1.012548, -1.433564, -0.579658, -1.422354, -1.041811, 0.324305, 1.819942, -0.662462, -1.016657, -0.950598, -1.244814, -0.289934, 0.654115, 0.668595, -1.85029, -2.846862, 0.581634, 1.358995, -0.310821, 0.367678, 0.776408, -0.351187, -2.320979, 1.59734, 1.204971, -1.652396, 1.009539, 0.322243, 0.098289, 0.444903, 0.273632, -0.83754, -1.189238, -1.081778, -1.235579, 0.616261, -2.629386, -0.283902, 1.024699, 0.90533, -1.921513, -0.785414, 1.127847, 1.001063, -0.182327, 0.430728, -0.845938, 1.303736, -0.619991, -0.212639, 0.727472, -0.316322, 0.948316, 1.81428, -0.504091, -0.635184, -0.283604, -0.49451, 1.405257, 2.036206, -0.550085, 0.428452, 1.137321, -0.967579, 0.208297, 0.637494, 0.254735, 0.74894, -1.436067, -0.184657, -0.327827, 2.060998, -0.182966, 0.672363, 0.174457, -0.153481, 1.4791, 1.217775, 0.440063, -0.1342, -2.002187, 0.632248, -0.323061, 2.07183, 0.596201, -0.418012, 0.11116, 1.135348, 0.927197, -0.519872, 0.847466, 0.982855, 1.778537, -0.698821, 0.935465, 2.222105, -1.026638, 0.547513, -0.819401, 0.140236, 0.035768, -0.729623, 1.719441, 1.0501, 1.186087, 1.144135, 0.317619, 0.366341, -0.227204, 1.676325, 0.06954, 2.109643, 0.034351, 0.520883, 1.292965, 0.59626, -1.156666, -0.269152, 0.734803, 0.655939, 0.855749, -2.042766, 0.449183, -0.778542, -0.363919, -0.941991, -1.867889, 0.840261, 0.857946, -0.705036, -0.104882, -0.517753, -0.082382, -0.618031, -0.583273, -0.850972, -0.759835, -0.788009, 1.667395, 0.446332, -0.427024, 0.504115, -0.628778, -0.990333, -1.646236, -2.321945, 0.317293, 0.0066, -0.06964, 1.075579, -1.32095, -0.914854, -0.287238, -0.856763, -0.398308, -0.586488, 0.131283, 0.297282, 0.124394, -1.31457, -0.025112, 0.634352, 2.301555, 0.640017, 0.773921, 0.319009, 2.589703, 1.015365, -0.888122, 0.147233, 1.209905, 0.559176, 0.623472, -0.610938, 0.506742, 0.05924, -1.427773, -1.868375, 0.988078, -1.43947, 0.16021, -0.331743, -2.053284, -0.964926, 0.899016, 0.114769, 0.715812, -1.388809, -0.203275, -2.051673, -2.253035, 2.066229, 0.966996, 0.218655, -0.494054, 0.380458, 0.536793, -2.636075, 0.559141, -0.195352, 0.849969, 0.451744, 0.049374, -1.324459, 0.404927, 1.938164, 0.206221, 2.185972, 0.357311, 1.822043, -1.506633, 0.405448, -0.598825, 0.036214, -0.807193, 0.365803, 0.440677, 0.776462, -1.278574, 1.199915, 0.296898, 0.463975, 1.113197, -1.187175, -0.652386, 1.362686, -0.403476, -0.901355, 0.774202, 0.879322, -1.138336, -0.034802, 0.981981, 1.375819, 1.353024, 0.303461, 0.603795, 0.049991, -2.298911, -0.311009, -0.352001, 1.919051, -0.10126, 0.365563, 1.998695, -0.334708, -0.565789, 1.167043, 0.812699, 0.133134, -0.554396, -0.901428, 1.043397, 1.435968, -0.093584, 1.553174, -0.199343, -0.226313, -0.056803, -0.937335, -0.143649, 1.212536, 1.719883, -0.477241, 1.349505, -0.245016, -0.881466, 0.052164, -1.722629, 1.100491, 0.276101, 1.141992, -0.718747, -5.31712, -0.042145, 1.30713, 0.13342, -0.262068, -0.406213, -0.274512, -0.813707, 1.765016, 1.273397, -0.38597, 0.497013, -1.019347, 0.017936, 0.647737, -3.024732, -0.757827, 2.497056, -1.256526, 1.349634, 1.133136, -0.884592, 1.050645, 0.622472, -0.363815, 1.565893, 0.722112, 0.389148, -0.141724, -0.020437, 0.322824, -1.276385, -0.059564, -0.566649, 2.071199, 2.271207, -0.631951, -0.58754, 0.56433, -0.72591, -0.655031, 0.078908, -1.143502, -0.728918, 0.514543, -1.517083, 0.757924, 0.414686, -2.435099, -0.574785, -0.788791, -0.614976, -0.759902, 0.228836, -0.574268, -0.242984, -1.741752, -0.641989, 0.913731, 0.866323, 2.40302, 0.688783, -0.301857, 0.985239, -0.206164, 0.416245, 0.73983, 0.398911, -1.273457, 0.071805, -0.972801, -0.25292, -0.306272, 1.238973, -1.080837, -0.238269, -4.047029, 1.553059, 0.091114, -0.772081, -0.637219, -0.888339, 1.689937, 0.317112, 1.865353, -1.838547, 1.068878, -1.020804, 1.019947, -1.770998, 0.981891, 0.550609, 0.062652, -0.29127, -0.005246, 0.17712, 0.544386, -0.013216, -0.392563, 0.575211, 0.268048, -1.235797, -0.341439, 0.975411, 0.649884, -0.178327, -1.980273, -1.020812, 0.135811, -0.056198, 0.368751, 0.165707, -2.818313, 0.716172, -0.699146, -0.352918, -1.018477, 1.278593, 0.18772, 0.483054, 1.482011, -1.787384, 0.56218, -0.76137, -0.337492, 1.770532, 1.04529, 0.890061, 0.383229, 0.293482, 0.117833, 0.376147, -1.585459, 0.549757, 0.958755, 1.278101, 0.01862, 2.880884, -0.638036, -3.288856, 0.573698, 0.427749, 1.452091, -2.115846, 0.236497, -1.612999, 1.711472, 2.154835, 0.03926, -1.752894, 0.297214, -0.995173, -0.378709, -1.480245, 0.379191, 1.245126, 0.000991, -0.424355, 1.201739, -0.415549, 0.682484, 2.960622, -1.267934, 1.152174, 1.003574, 1.273117, -0.980492, -1.024564, 0.705849, -0.238214, 0.523082, -0.751537, 0.813522, -1.210126, 1.719104, 2.0425, -1.058359, -0.098794, -0.161834, -0.896129, -0.476958, 1.586884, -1.267623, -0.40284, 2.294436, -0.710425, -0.026128, 1.496526, 1.977613, 0.206358, 1.677198, 0.890951, -2.052624, 0.170923, 0.733841, -0.560446, -0.583038, 0.984209, -0.196608, 2.102437, 2.345206, 2.953981, 1.13841, 0.318044, -2.778606, 0.844505, -0.03762, 0.353097, 1.256547, -0.708205, 2.368784, -0.219539, 0.337765, 0.25166, -0.231402, -0.836968, 0.77893, -1.064648, -0.878303, 0.718952, -2.133864, 0.685503, -0.146553, 0.011971, 0.868644, 1.085477, 1.655898, 0.635021, 0.127305, -0.112258, 1.11597, 0.486898, -0.542619, -0.199054, -1.258328, -1.189836, 1.202127, 1.193603, -0.468793, 0.276434, -2.512012, -1.449468, -0.669945, 0.378272, 0.419739, 0.071083, 0.166403, 0.826672, 0.588233, -0.688942, -0.337425, -0.875491, -0.71847, 2.126938, 0.797246, 1.203232, -0.241079, -0.457265, -0.007221, -0.602518, -2.615808, -0.469864, -1.030653, -0.753522, 1.603694, 1.038685, 0.371595, -0.202167, 0.800097, -0.317045, 1.039472, 0.762887, -1.614793, -1.319946, -0.288328, 1.448265, 1.02599, 0.623154, 0.859107, -0.802613, 0.089043, 0.543836, 0.689636, 0.608455, -0.105376, -0.484072, 0.845889, -0.798697, -2.401168, 0.890187, -0.083764, -0.926079, 0.304786, -1.517742, 1.465763, -2.091718, 1.108617, 0.279127, -0.004703, 0.265265, 1.379762, 0.748344, -0.03238, -0.300317, -0.993588, 0.287203, -0.156934, -0.008619, -0.818875, 0.883016, -2.306597, -0.064453, 1.182547, -1.881098, 0.310355, -0.570228, 0.936237, 1.728478, 0.348808, 0.051445, -0.52036, -0.751511, 1.546858, 0.406413, 0.183019, 0.426072, -1.133106, -2.510939, 0.845053, 0.935469, -0.340043, 1.712338, 2.554077, 0.306019, 1.590944, 0.001249, -1.110089, -2.198711, 0.036833, 0.206597, 1.622913, 0.078629, -0.085328, 1.537337, 0.920722, -0.112771, -2.297932, 1.111571, -3.483225, 0.744845, -0.428063, 0.335951, 0.106297, 1.843145, 0.85544, 0.946081, -0.148358, -0.138365, 1.710993, -1.125471, -0.056708, 1.118852, 2.377722, -0.78724, -2.415751, 2.254029, -0.089076, 0.290195, 0.861455, -0.33034, -0.217945, -0.972786, 0.342234, -1.65118, -1.115776, 0.54507, 0.337045, -1.651635, 1.391395, 1.464303, 1.049066, 0.422621, 0.34257, 1.307579, -2.804276, 0.684958, 2.124048, 0.826964, 0.272756, 0.260875, -1.442274, -0.680995, 0.393014, -0.397447, -0.279983, -0.940061, -3.077971, 0.842549, -0.537751, -0.170737, -0.174694, -0.934239, 0.287173, 0.497303, 0.369438, 0.381123, 0.718985, 0.395305, 0.383674, 1.125077, 1.075621, 1.031295, 0.563356, -0.727685, 0.697358, 0.232518, 1.240923, -0.555615, 0.330459, 1.285734, 0.468066, -4.019656, 0.110016, 0.202392, -0.151579, 0.612833, -1.512124, 0.798221, 0.25253, -0.268601, -0.625784, -0.156896, -2.216131, -1.48969, -0.185694, -1.193594, 1.895241, 0.969341, -0.0623, 1.060318, 2.384538, 0.432492, 0.458974, 0.945198, -0.533716, -0.155036, 0.990371, -1.202079, -2.085328, -0.323835, 1.539395, 0.598937, 0.119646, 0.349492, 0.690043, 0.417209, 0.579239, -0.009382, -0.450122, 1.017376, 0.86347, 1.457934, -0.026269, -0.216571, 0.306256, 1.003866, -0.059735, 0.224526, 0.777973, 1.00341, 1.101201, 0.461803, -0.476257, 1.762451, 0.207614, -0.476867, -0.404877, 0.665638, 1.177089, -0.340964, 0.330408, -0.949247, -0.36338, 0.024557, -1.278444, 0.599403, 0.46359, -1.019868, 0.093118, 0.973001, 0.020754, -0.882653, 0.298071, -1.752723, 2.606942, 0.073661, -1.509041, -0.862727, -0.576434, -0.470442, -0.551942, 0.816743, -0.829502, -0.552872, 1.012124, 0.812582, 0.62482, 0.874908, 0.176798, -2.034507, 0.793103, -0.072385, 1.493916, -0.431474, 0.004386, 1.195967, -2.446379, -0.609616, -0.838185, 2.096804, 1.201583, 0.463025, 0.339324, 1.093294, -3.049016, 0.340472, 0.23951, -0.625913, 0.467926, -0.804685, -0.430551, 0.628881, 1.356756, -0.31109, 0.39638, 0.442379, 0.608162, 0.470578, 0.360921, 0.517551, 0.667996, -1.921272, -0.458335, -0.351231, 1.241995, -0.682618, 0.108513, 1.166269, -0.646043, -0.397344, 0.848846, 2.819392, 0.307455, 1.294607, -3.129249, 0.818569, -0.817602, -0.715743, -0.687302, -1.863002, 0.31412, 0.352007, -1.769048, 0.151678, 0.113745, 1.226868, 1.279351, -0.65845, -0.777364, -0.783882, 1.482632, -0.615618, 0.259442, -0.922857, 0.431146, 0.228391, -1.444725, 0.327722, -0.765107, 0.421876, 0.675013, -0.712073, 1.185641, 1.3349, -0.10679, 0.808576, -0.298913, -1.202389, 1.690245, 0.106073, 0.207303, -1.764798, 0.105382, 1.359024, 1.187583, 0.340625, 1.700867, -0.78178, -1.238965, 0.696015, 0.679844, -1.678491, 0.876757, -0.404764, 0.322685, -0.11788, 0.091538, -0.41157, 0.899484, 0.99136, -0.577133, 0.329841, 0.172597, 1.825335, 2.182262, -2.254005, 1.216427, 1.289543, -0.013188, 0.824831, 1.887715, -0.907961, -0.346089, -0.653423, 1.436834, -0.468612, -0.382623, 0.786435, -0.267736, 0.03412, -1.751162, 0.899231, 0.926333, -0.070867, 0.553219, 0.446039, 0.021852, 0.103322, 0.630496, 0.184707, -0.557326, 0.132492, 1.464565, -0.064696, 0.344102, 0.667247, -0.558496, 1.795952, 0.177606, 0.72005, -0.572349, -1.640655, -2.25801, 0.157823, -0.337935, -1.864768, 0.375865, 0.208941, 3.421815, 0.10053, 1.362098, 1.811395, 1.231594, -0.132671, 0.988218, -1.061799, -0.071927, 1.494976, -0.952563, -0.123597, 0.407615, 1.004545, -0.934719, -0.612923, 0.088414, 0.813992, 1.153675, -0.655732, 1.23529, 1.385108, 0.669133, 1.742953, 0.736489, -0.794147, 0.211858, 1.06047, 0.50999, -0.256034, -0.572793, -0.319183, -0.1246, 0.321102, 0.162064, -0.365269, 1.391347, 1.076591, -0.326414, -0.813156, 0.538714, -2.311721, 1.116265, -0.350678, -0.765204, -0.538542, 1.243093, -0.145926, -0.456248, 0.035751, -0.48144, 0.793965, 0.228742, 0.624764, -0.878994, 1.123203, -0.638338, -0.767283, 1.251307, 1.241468, 0.525398, 0.583852, -0.291701, 0.392371, 1.874874, 1.021037, 1.820672, 0.700595, 0.444629, 0.02043, 2.342534, 1.908503, -0.711027, 0.64891, -0.752803, -0.171799, 0.549049, -0.793956, -0.249761, -0.097828, -0.311323, 0.366604, 0.782949, 1.371427, 0.666029, -1.521936, 1.067628, 1.048204, -1.628323, 1.155509, 1.507668, 0.981998, 0.771001, 0.939816, -0.665519, -0.506855, -0.375564, 0.282213, 1.53225, 0.470716, -2.344954, 0.334564, -1.040809, -0.441861, 0.678457, -0.649391, 0.025573, -0.198699, -1.21189, -0.259805, -0.113446, 0.0663, 0.260206, 0.68697, -0.601269, -0.645324, 0.147877, -0.458383, -1.013357, 1.612367, -0.642124, -0.915554, 0.349415, -0.748355, 1.598663, -0.871774, 0.01567, -2.413184, 0.179702, -0.023619, 1.161783, -0.017853, 0.896209, -0.208504, 0.371198, -0.377249, -1.418117, 0.592164, 0.599972, -0.9597, -0.34111, 0.065274, -0.40282, 1.503451, -1.34339, -0.036528, 0.018623, -0.17558, 0.391773, -0.518551, 0.836641, -0.366585, 0.797769, -0.024114, 0.189915, 0.746415, 0.16968, -0.954605, 0.288897, -0.028728, 1.139415, -0.345235, 1.617113, -0.740969, 0.670556, 0.382627, 0.393136, -0.742642, 1.165554, -1.16441, 0.559769, 0.793877, 0.748972, 0.267223, -0.207239, 1.231291, 1.382952, -0.410227, 0.679438, 0.098175, -0.375527, -0.658935, 1.649132, 0.690811, -0.2228, 0.930198, -1.377965, -0.378294, 1.683079, -1.713493, 2.23389, 0.696673, -0.476739, 1.127932, 0.145458, 1.507037, 0.13694, 0.353603, 0.052405, 0.695617, 0.510046, 1.642668, -0.215537, 1.875109, 0.755052, -0.564209, -0.36886, -0.461798, -0.593943, -0.525823, 0.71435, 0.112293, -0.472252, 0.334214, -1.238195, -1.281607, 0.584311, -0.706341, 0.53386, 1.415682, 0.193189, -0.737773, 0.732236, 1.664631, 2.014511, 1.000418, 1.559173, 1.37616, -0.81566, 0.110787, 1.385444, 0.139968, 1.317631, -0.645259, 0.448116, -0.112114, 1.692499, 1.749063, -0.968432, 0.587704, 1.328094, 2.290234, -0.300127, -1.062625, -0.765458, -0.835992, 0.841803, -0.992657, 1.284662, -0.058956, -0.635773, 1.377489, 0.227613, 0.951666, 0.515156, 0.517116, -0.049632, 1.90766, -0.331562, -1.38346, 0.684813, 0.92315, 0.33488, 1.396407, -0.280345, -0.185371, 1.505432, -0.269181, -0.632502, -0.452685, 0.156222, 0.674619, 0.009014, 1.430301, -0.71094, -1.15206, -0.222114, 1.751657, -0.287757, 1.485511, -0.437558, -0.361636, 0.20674, -0.367338, 0.27769, 0.803334, -1.310016, 1.154705, 0.423666, 0.314572, 1.049663, 1.21525, 0.004269, -0.859776, 0.523963, -0.812468, 0.120032, 0.484592, -0.035583, -2.767788, -0.356603, 0.539665, 0.25777, -0.273657, 0.418873, 0.171998, -0.344503, -0.791793, -0.394529, 0.819795, -0.886771, 0.181883, 0.388921, 0.040195, -0.093185, 0.154316, -0.567741, -0.415996, 0.254538, 0.25102, 0.336502, 0.329471, -0.146218, -0.944391, -0.38306, -0.176013, 0.685058, 1.163991, -1.487642, 1.075837, -0.855259, -0.048065, 0.160584, 0.305297, 1.202248, -0.686504, 0.115252, 0.347387, -0.23084, -0.781549, -0.728283, 1.356851, -0.023197, 0.585127, -0.595815, 2.671891, -1.373271, -0.699291, 1.340335, -0.740914, -0.464705, -1.230446, -0.114639, 1.103719, 1.117175, 0.779292, 0.28275, 1.6162, 0.068474, -0.740398, 1.63157, -0.134865, 0.63523, -0.411716, -0.325519, -0.899469, 1.093157, 0.548395, 1.050554, 0.989777, 0.337398, -1.445378, -0.303337, 1.732725, 0.974303, -0.275349, 0.211879, 0.059614, 1.751245, 0.47689, -0.443857, -0.170693, -0.513485, 0.381922, -0.708415, 1.07948, 1.537512, -0.352973, -0.095399, -0.162531, -0.543414, 0.465899, 0.121124, 0.74148, -0.150278, 1.052498, 0.145648, 0.395139, 1.55627, -0.016611, -0.655287, 3.432081, 1.235152, 1.258753, -1.124354, -1.93422, -0.179301, -0.030538, 0.371508, -1.103941, -0.708626, -0.251013, 0.177755, 1.266248, -0.300468, 0.622348, 0.442749, -0.803483, -0.414274, 0.010489, 0.197981, 0.559077, 1.121075, -0.479982, 0.686984, -0.164901, 0.665231, -0.80051, 0.405341, 1.66909, 0.888355, 1.843007, 0.941617, 0.498099, -0.3512, 0.193052, 0.553825, 0.123514, 1.167607, 0.572101, 0.258491, -1.035327, -0.189039, -1.154751, 0.783339, 0.30842, -0.13271, 0.652651, 0.319916, 0.896196, 0.402234, 0.778694, 0.591749, -1.007734, -0.478927, -1.108537, 0.298311, 1.657209, -0.097479, -0.666479, -0.28466, -0.30374, 0.1051, -0.547164, -0.979856, -0.075498, 0.290734, -1.084385, 1.254084, 1.125246, -0.944921, -0.026158, 0.048169, 0.277397, 0.461206, 0.415607, 0.702454, 0.042596, 0.418514, -0.036217, -0.034421, -0.913969, 0.490681, -0.256791, 0.211916, 0.736408, 0.446754, -0.881867, 0.153706, -0.268729, 1.264486, -0.497638, 0.27094, 1.066322, -0.089156, -0.005341, 0.01058, 0.275056, 1.062219, -0.339263, 1.290674, 0.329527, 1.183738, 1.657692, -0.321425, -0.746467, 0.314235, 0.448147, 1.714198, -0.134367, 1.716279, 0.506444, 1.616549, 1.689865, 2.274998, -0.680759, -0.158016, 0.145018, 0.549768, 2.28675, -0.049281, 1.078735, 0.816414, 1.975751, -0.064535, -0.058855, -0.353857, 2.12839, 0.660548, -0.077725, 0.44686, 1.569012, 1.686794, 0.366066, -0.146966, 0.734851, -0.258986, -0.454164, 0.746025, -0.357797, 1.021836, 2.034231, 1.054613, 0.954501, -0.097884, -0.540232, 0.357379, -0.568032, -0.422745, -0.790723, -0.174324, 0.027883, 0.305026, 0.221511, 0.376574, -0.314355, -0.29007, -1.486918, -0.823509, 1.117825, -0.487844, -0.220238, -0.867135, -1.71892, -0.609708, 1.209106, -0.362691, -0.158696, 1.711424, -2.947054, -1.644848, -1.252826, 0.35289, -0.598988, 0.354629, 0.116153, 0.748902, -0.107105, 0.074729, 0.241968, 0.08182, -0.182428, 0.827331, 0.574793, -0.198759, 0.934906, 0.097091, 0.691093, 0.40428, 0.345324, -0.676247, 0.318945, 0.642708, 0.289797, 0.4045, -1.45419, 0.266608, 0.436147, 0.5695, -0.240482, -0.549397, 0.300593, -0.106984, 0.096558, 0.045234, -0.287805, -0.290148, -1.760765, -0.581214, 0.31557, 1.180745, -0.577194, -0.624798, 1.171957, 1.119913, -0.228816, 0.647171, -0.30853, 0.417675, -0.891495, -0.735754, 1.360474, 0.292674, 0.550434, 0.958008, 0.646207, -0.802748, 0.870987, -0.389079, 0.300063, 1.140022, 0.645919, -0.503093, -0.088139, 0.547042, 0.385814, 1.423478, -0.003746, 0.411365, 0.428965, 0.178937, 1.451942, 0.004483, -0.856826, -0.085567, 0.869131, 0.513673, 1.082226, -0.296798, 1.306642, 0.155137, -0.155321, 1.489803, 0.048861, -0.22457, -0.662667, 0.810256, -0.583117, 0.394448, 0.308775, -0.65338, 0.954549, 0.243337, -0.894138, -0.633768, -1.214284, 0.981466, -0.09952, 1.322339, -0.050729, -0.831526, 0.558076, 0.184758, -0.938183, 0.119309, -0.198951, 0.037719, 0.865642, 1.154053, 0.38011, 1.669202, -1.366796, 0.374196, -1.543133, 1.045501, 0.560055, -0.327584, 0.449243, -0.213313, 0.546226, -0.720218, -0.931743, 0.195967, -0.092011, -0.840072, 0.972243, 0.17117, 1.180333, 0.438355, 0.252787, 1.408878, -0.035082, -0.188707, 0.467072, -0.357727, 0.263707, 1.009818, 0.780813, 0.853864, 1.813282, -0.364666, 0.158471, -1.271168, -1.133434, 0.439989, -0.949714, 0.548102, 0.360915, 0.365222, -0.745598, 0.20529, 1.530532, 1.356225, -1.252784, -1.795013, -0.467791, -0.437376, 0.828215, -0.854034, -0.338014, 0.058539, 0.243425, 0.025504, 0.767825, 1.380728, -0.861815, 1.299563, -0.356367, 1.312861, 1.026353, 0.295587, -0.435361, -1.168988, -0.135072, 0.514617, -1.153424, 1.041699, -2.102961, 0.016532, 1.417521, 2.879865, 0.6044, 0.10226, -0.143236, -0.433804, -0.562455, -0.211388, 0.122832, 0.128065, 1.491649, 0.400357, 0.272775, -0.05565, 0.788512, -0.412312, -0.275104, -1.145845, 1.042287, 1.3151, 0.487042, 0.085872, 1.01208, 1.059439, -0.208014, -0.347864, 1.417436, -2.2105, 0.026499, 1.09989, 1.217015, 1.025026, -0.373297, 0.959117, -0.738671, 0.515017, -0.223415, 1.380534, 0.88589, 2.554573, 0.319195, -1.022019, -0.176616, -0.259726, 0.187256, -2.220112, 0.01609, 0.842852, 0.30102, -0.736184, -0.343674, -0.042201, 0.162389, 0.280944, 0.782747, 0.33285, -0.281951, 0.486973, -0.37232, 0.307863, -0.435197, -0.342866, 0.486197, 0.074114, -0.588166, -1.408813, -0.650195, 0.835522, 1.703567, 0.060874, -0.845255, 0.528541, 1.735855, -0.480971, 1.182134, -0.120156, 0.372807, -1.000287, 0.797397, -1.166061, -1.434133, -0.21973, 0.629679, -0.12463, 0.629784, 0.775386, -0.25169, 0.086297, 0.370139, 0.17732, 1.206702, -1.397873, 1.551675, 1.220879, 1.390232, 0.592965, -0.627036, 0.652259, 0.29378, -0.987494, -0.48065, 0.148825, -0.067655, -1.077088, -0.348545, -0.263772, 0.562143, 0.40309, -1.022229, -0.39634, 0.208475, 0.728421, -0.243957, 1.694351, -0.407232, -1.165074, -0.433734, -0.149328, 0.671655, 0.312039, 0.767544, 0.370714, -0.277272, 0.445075, 0.020387, -0.330434, -0.454504, 0.612042, -0.370775, 0.382632, -0.003006, 0.460233, 0.451285, -1.059406, 0.134441, 0.12267, 0.017174, 0.06795, 0.181377, -0.675241, -0.084375, 0.40866, 0.071283, -0.491359, 0.279479, -0.646837, -0.967115, -0.273522, 0.352248, 0.335276, 0.469796, 0.672586, 1.379703, 1.018445, -0.041949, -0.608866, 1.226519, -0.855528, 1.638757, -0.843897, -0.792019, 0.05209, 0.40695, 0.123489, -0.607723, 1.878083, -1.054467, -0.354119, 0.926757, -0.041732, -0.44999, -0.975228, -0.28078, 0.044689, 1.116434, 0.691922, 0.7494, 0.727196, -0.347123, 0.530768, 0.927797, 0.110662, -0.362431, 0.048111, 1.139422, 0.088621, -0.843213, 1.290948, 0.725169, 0.359445, -0.11388, 1.134855, 0.340692, -1.383198, 1.006578, 0.024579, 1.203514, 0.102075, -0.37805, 0.584463, -0.050826, 0.067066, -0.48952, -0.029768, 0.087304, -0.34302, 0.65006, -0.170251, -0.397341, 0.477172, 0.300223, -0.099673, 0.83337, 0.518648, -0.48891, 1.104062, -0.113689, 0.956735, 0.143128, 0.340848, 0.859738, 0.407516, -0.040403, -0.458423, 0.028544, -0.718828, 2.048465, -2.426745, -0.629559, 2.025941, 0.153096, -0.205164, -0.57733, 0.714768, -0.32196, -0.603499, 0.295563, -0.644493, 0.094538, -0.58567, -0.214708, 0.130033, 0.003136, 0.221743, 0.265016, -0.508687, 0.197019, 0.775948, 0.312742, 0.222156, -0.668977, 1.098244, -0.680515, 0.795823, 0.057716, -0.916647, 0.387435, -0.660718, 1.838067, 1.382514, 0.246611, 0.705902, -0.188736, 1.598561, -1.058169, 0.570831, 1.289675, 0.495418, 0.519243, -0.184665, -0.338832, -0.018878, -0.256131, 1.264821, -1.023872, -0.701285, -0.164053, 1.032259, -0.575714, 0.672566, -0.231489, 2.015199, 0.336126, -0.943404, 1.098291, 0.862241, -0.027537, -0.260938, 0.675723, -0.100862, -0.448061, -0.382452, -0.463175, 0.933855, 0.655917, 0.792563, 0.548531, 0.001722, 1.223193, 0.137016, -0.362266, 0.682418, 1.295376, 1.092973, -1.274051, 0.508661, 0.541448, -0.501153, -1.396763, 0.106294, -0.507407, -1.144655, 1.255744, 0.270023, -0.519686, 0.522329, -0.093931, -0.655582, -0.364333, 0.048552, -0.813025, 0.396447, 0.812438, 0.536676, 0.620039, 0.31179, 0.140643, -0.152668, 0.799456, 0.273929, -0.485367, 0.584881, 0.025838, -0.507278, 0.364275, 0.760459, 0.638215, 1.3939, 0.857466, 0.137253, 0.135724, 1.388909, 0.976264, 0.860727, -0.662862, 0.934262, 0.789002, 0.525797, 2.470971, 1.00861, -0.305135, -0.190351, 0.400086, -0.811065, 1.39766, 0.274318, -0.107285, 1.414757, 1.209629, 0.551546, -0.208949, 0.46047, -0.446094, -0.021487, 0.229637, -0.753755, -0.803466, 0.928077, 1.48293, 0.184912, 0.906514, -0.196386, -0.358749, 0.816779, 0.229933, -0.97471, 2.199085, 0.740023, 0.446004, 0.013283, 0.010886, -0.684759, -1.253023, -0.239482, 0.409275, 0.320005, 0.066257, -0.109042, 0.508571, -0.497429, -0.50304, -0.559363, -0.351705, -0.09435, -0.99622, 0.849907, -1.447155, 0.850202, -0.06576, 1.313572, 0.923362, 0.308307, 0.102968, 1.301629, 0.069687, 0.820364, -0.049345, 0.7613, 1.11614, 0.11299, 0.007331, -0.251244, 0.922314, 0.740638, -0.147848, 0.232133, 0.447041, 0.321014, -0.225053, 0.411584, -0.497611, 0.815639, -1.076436, -0.526907, -0.314615, 0.564449, 1.226074, -0.65527, -0.529505, -0.009026, -0.330289, 1.03135, 0.289244, -0.362383, 0.614585, 0.097092, -1.207103, 0.551933, -0.516968, 0.952492, -0.450037, 0.769331, 0.066975, 0.511192, -0.492115, 0.823465, -1.89798, 0.332603, 0.23998, 0.287952, 0.411992, -1.073818, 0.293779, -0.781837, 0.389287, 0.686635, 1.128595, 0.880582, -0.121872, 0.569099, 1.678545, -0.166206, 0.467305, 1.283858, 0.122278, -0.969614, -1.281769, 0.400184, 0.419536, 0.121072, -0.714883, 0.456957, 1.350082, 0.675386, -0.063513, 0.460193, -0.562639, -0.319313, 0.719961, 0.294196, 0.486638, -0.45889, -0.483954, 0.189503, 0.042648, 0.301818, 2.40206, -0.405656, 2.052679, 1.257547, 2.303088, -1.131505, 0.801266, -0.684919, 0.328928, 1.021587, 0.199698, 0.403955, 0.173434, 0.542998, -0.100619, -0.036265, -0.656381, 0.092998, 0.162347, 0.003813, -0.01616, 0.705544, -0.494367, 1.322733, -0.682294, 1.256616, 0.252702, 1.047384, 0.303321, 2.389812, -0.305299, 0.351254, 0.058727, -0.313375, 0.116229, 0.560547, -0.413169, 0.247233, -0.88501, -1.427684, -0.079897, -1.798016, -0.458352, -0.633282, -0.173162, -0.239974, 0.859882, 0.215465, 1.724404, 0.687272, 0.749382, 0.099147, 1.089353, -0.570184, 0.236604, 0.132018, 0.51912, 0.245487, 0.21809, -0.528333, 0.524932, -0.398455, 2.580142, 0.895842, 0.970032, 1.542115, 0.452634, 0.23014, -0.368058, 0.037443, 0.816402, -0.207151, 0.497173, -0.10278, 0.634006, -0.244686, 0.573596, -0.245149, 1.521206, 0.836891, 0.535979, 1.249948, 0.263583, 0.082685, -0.36916, 0.005225, -0.075236, 1.235318, -0.289745, 0.398515, 0.244136, 1.755826, 0.178679, 0.533239, 0.572374, -0.812063, 0.090123, -0.574242, -0.088073, 1.098131, -0.521975, 0.257238, -0.04495, 0.557066, -1.72753, -0.59789, 0.136786, -0.142973, 0.120028, -0.267613, 1.008981, 0.726325, 0.432441, -0.009723, 2.569313, 1.138047, 1.216815, -0.910204, 0.431254, -0.589323, 0.820403, 0.042907, 0.868348, 0.427465, -0.846505, 0.863666, 1.459763, 0.493891, 0.459418, -0.32213, -0.189491, -0.006324, 1.714058, -0.586505, 0.409952, -0.074757, 0.574968, 2.317441, 1.026184, 0.339189, -0.622684, -0.136495, 0.723214, 0.607478, 0.049548, -0.595911, 1.48002, 0.111966, -0.791129, 1.336917, -0.973371, 0.817257, 0.637832, 0.206712, -0.400673, -1.586131, 0.907178, 1.214239, 2.004988, -0.80477, 0.628435, 0.575086, 0.680153, -0.066279, -0.509126, 1.791356, 0.608613, -0.022451, 1.655122, -0.833579, -0.207305, -0.144721, -0.896572, 0.629723, 1.642864, 0.298147, 0.179441, 1.226037, -0.051427, -0.936897, 0.632301, 0.224924, 0.576509, -1.071065, -0.024303, -1.342387, 0.047992, -0.398143, 0.144671, -0.10266, 0.965448, -0.748371, 0.970924, 0.005007, -0.124072, 0.45901, 0.200316, -1.046539, -0.161547, -0.344316, 1.202015, -1.257254, -2.095701, 0.872696, -0.391836, 0.12746, 0.636929, 1.755493, 0.316321, 0.750655, 0.012847, 1.290843, -0.795679, -0.495038, 0.792461, 0.543292, 1.658173, 0.601223, 0.069556, -0.320514, 0.426944, 0.234876, 0.354307, 0.103696, 0.695091, 0.382009, 0.228896, 1.571207, 0.14388, 0.558824, 0.077794, 1.320151, -0.252066, 0.038982, 0.403125, 1.193511, -1.066278, 0.414809, 0.340425, 0.268708, 0.732047, 1.546179, 0.216288, 0.600742, -0.005447, 0.344596, 0.114967, 0.010838, -0.105052, 1.306632, 0.023024, -0.377613, 0.914572, -0.48513, -0.27723, 1.020888, -0.569783, -0.070135, 0.166669, 0.984992, 0.866006, 0.148095, 1.355653, 0.286251, 1.402105, 0.843567, 1.103692, 1.201589, 0.022496, -0.071542, -0.60037, -0.059641, 0.912441, 0.670177, 0.825535, -0.51389, -1.029464, 0.691144, -0.682169, 0.938534, 1.283853, 0.997158, 0.587181, -0.400605, 0.907461, 1.600969, 0.146857, 0.396407, -0.146888, 0.450711, 0.122546, 0.048704, 0.457631, 2.031592, 0.156223, -0.820288, 1.775523, 0.218501, 0.0041, 1.191873, -0.884698, -1.313657, 0.290201, 1.590528, 2.765286, 1.453532, 0.736879, 1.989479, 0.373197, 0.20622, -0.288018, -0.770043, -0.687365, 1.443509, 1.140442, -0.605431, 1.341569, 0.659173, 1.401059, 0.579332, 0.425275, 0.634547, 0.152275, -0.58057, 0.627279, -0.795896, -0.765734, -0.27084, 0.332127, -0.666031, 1.322536, 0.881591, 0.378576, 0.497337, -0.020875, 1.285638, 0.964326, -0.615391, 0.95828, 0.68215, 0.549369, 1.452032, 1.028159, -0.059066, 0.739734, 0.838828, -1.211969, -0.029975, -0.105293, 0.481258, -0.216039, 0.83056, -1.290364, 1.165355, 0.718925, -0.9825, -0.321997, -0.15797, 0.460932, 2.046696, 0.9255, 0.081568, 0.877152, 1.442263, 0.545206, -0.552332, 0.277875, 0.010467, 1.471242, 1.284903, -0.937295, -1.113774, -0.063532, 0.704035, 1.104977, -0.35103, -1.745866, 1.72438, -0.018096, 0.309635, 0.429149, -0.139087, 1.121078, 0.640852, -0.288224, 0.297041, 0.43136, -0.50593, 0.127049, 0.385485, -0.3837, -0.773119, -0.184813, 0.639664, 0.013276, -0.016699, 1.772138, -0.291378, 0.96489, 1.140756, 0.383827, 0.43925, -0.449674, 0.543265, -0.063228, 1.510433, 0.182449, 0.502117, -0.480019, 1.194196, 0.549168, 0.338343, -0.697094, -0.615198, 1.25883, -0.221082, -0.086787, -0.107568, -0.286466, 1.109412, -0.652452, 1.351994, -0.013848, 1.026296, 0.210036, 0.882373, 0.50821, 0.433412, 0.023311, -0.222524, 1.558379, 2.070698, 0.243474, 1.119664, 0.660456, 0.003857, -1.111446, 0.268304, 1.811887, 1.189645, -0.396495, 0.780635, 0.366155, -0.803093, 0.721403, 1.016513, 0.077835, 0.140785, 0.65323, -0.863064, 1.347779, 0.322923, 1.162585, -0.740378, 0.300411, -0.854236, -1.080533, 0.488876, 0.444761, -0.55489, 0.608635, -0.514877, 0.954388, 0.34445, 0.995348, 1.347677, 0.707898, 1.052208, 0.708352, 1.770335, -0.115735, 0.23837, 0.760356, 1.246272, -1.07167, 0.836678, 0.635357, -0.765789, 1.48774, -0.004963, -0.684245, -0.895477, 1.668379, -0.53335, 0.523482, -0.737194, 1.361469, 0.437194, 0.159973, 0.813217, 1.239574, 0.783213, -1.332426, 0.56437, 1.324062, 2.20246, 1.476718, -0.832408, 0.145506, 0.802985, 1.544644, -0.037266, 0.896933, 0.299505, -0.044589, 1.119612, 1.648881, -1.067255, -1.349008, 0.393585, 0.553321, -0.149558, 1.087451, 0.310688, 0.177601, -0.080447, 0.714636, -1.065836, -0.011088, -0.6027, 0.316614, -0.158867, 0.19537, -0.277677, 1.489002, 0.192801, 1.165531, -0.375097, -0.420586, 0.75569, 1.315439, 0.241281, -0.137739, 0.807185, -1.132949, -0.227886, -0.888225, -0.297487, 0.104728, -0.756123, 0.411316, 0.999624, 0.460542, -0.034328, 0.535305, -0.345793, 0.424104, 1.248443, 1.986257, -0.475506, -0.199873, 1.49756, -0.038426, -0.681688, 0.639082, -1.019097, 0.189245, 1.411524, 1.36816, 0.042842, -0.519034, 1.408812, 1.633562, 0.806498, -1.349437, -0.366603, -0.309873, 1.168053, 1.319277, 0.457185, 1.513127, 0.013078, -1.237484, -0.768196, -0.206107, 0.049628, 0.518425, 1.161117, 0.73613, -0.966741, 0.987808, 0.876014, -0.130885, -0.870616, 0.596807, 2.548026, 0.523419, -0.511411, -0.656247, 0.38714, 1.257814, -0.024428, -0.473705, -0.655193, -0.179265, -0.073739, -0.665931, 0.999992, 1.138098, -0.859807, -0.720659, -0.406779, 0.882168, -1.613253, -0.508446, 0.782081, -1.100602, 0.138383, -0.178273, 1.324652, 1.596526, -0.173415, 0.016872, -1.24218, -1.433973, -0.38889, -0.080844, -1.142316, -1.067041, -0.915408, 0.991313, -0.677785, -0.406219, 0.83933, 0.257914, -0.307019, 0.865145, 0.543582, 0.891084, 0.179953, 1.24995, 0.661997, -0.822881, 1.253372, 0.087142, -0.309602, -1.243284, -0.505842, 0.396041, 0.762742, 0.314651, -0.331436, -0.272701, 1.591444, -1.276318, -0.64757, 1.095051, 0.182944, 0.438263, 0.971606, 1.069784, -0.316126, 1.080972, 0.432538, 1.340893, -0.303976, 0.254379, -0.682402, 1.115524, 0.487888, -1.042826, 0.330922, -0.127822, 0.289807, 0.694906, -0.681341, -0.261207, -0.525394, -0.047037, -0.1782, -1.060156, -0.808977, 0.000574, 0.89106, 0.523402, 0.604088, 1.180793, -1.895229, 0.39834, 0.942409, 0.456243, 0.28428, 0.566607, -1.156589, -0.692234, -0.761788, -0.651404, 0.919356, 1.56939, 0.472978, 0.256435, 1.838743, 0.739038, 0.071707, 0.306994, -0.432359, 0.465689, 0.259223, 0.363302, -1.330764, -0.588048, 0.093418, 0.55004, 0.161566, 0.945454, 0.261486, -0.064776, 0.217929, -0.44945, -0.990621, -0.317543, -0.501999, 1.210035, 1.020357, 0.533882, 0.679642, -0.579426, -0.935569, 1.313309, -0.746606, 0.093247, 0.701859, 0.578483, -1.139269, -0.960826, 2.669587, 0.683161, 0.172357, 0.39038, 1.061397, 1.110746, -1.287101, 1.425006, -0.867904, 0.290418, -0.176877, 0.397543, 0.91078, 0.340397, 0.858935, 0.327209, -0.043617, 0.334754, -0.211828, -0.184816, -1.009173, -0.159994, -0.601013, -0.224445, 0.288367, 0.412647, 0.696464, -0.46834, 1.108563, 2.472988, 1.73314, -0.521211, 0.464574, 1.531414, 1.038543, -0.105011, 0.038095, 0.531561, -0.581087, 0.712206, -0.926613, 1.002721, 1.185711, 0.876365, -0.279586, -0.899139, 1.223948, -0.987771, -1.014369, -1.143501, 0.026832, 0.739544, 0.40398, -0.852358, -1.309665, 1.881091, 0.779294, 1.416761, 2.107846, -0.104396, -1.308691, 0.025121, -0.196271, -1.334207, 0.504528, 0.882974, -0.209644, -1.109308, -0.141224, 0.08485, 0.218954, 0.78608, 0.635058, -0.298827, 0.548774, -0.830323, 1.038902, -0.91609, 0.16596, 1.019564, 1.441046, 1.060951, 0.601703, -0.311149, -0.345391, 0.151221, -1.108287, 0.24319, 0.641481, 0.708137, 0.404373, -0.030373, -0.094726, -0.191695, 0.2587, 0.722515, 0.857331, 2.296963, -1.068844, -1.356956, 1.059235, -0.189221, 0.257538, 0.093581, 1.487422, 0.061267, -0.6802, 0.480999, -0.092779, -1.281652, 0.378997, 0.97779, 1.360388, -0.357941, -0.412335, -0.010202, 0.304886, -0.906319, 0.61707, -0.755978, -0.463217, -0.987517, 1.016815, 0.823122, -0.873203, 1.28145, 0.929505, -0.469139, -0.342719, 0.886894, 0.690758, -0.235355, 0.83286, 0.865871, 0.564711, 0.302305, 0.059312, 1.170433, 0.477399, -0.585727, 0.452004, -0.941867, 1.465591, 0.833979, 0.932575, 1.497484, 0.123658, 1.943075, 0.473877, -0.418555, 0.711069, -1.176976, 0.245481, -0.521171, 0.765582, 0.560809, -0.497503, 0.024702, 0.722912, 0.650064, 1.224407, 1.087456, 0.316541, -1.47698, 0.435463, -0.095996, -0.093745, 0.839587, -0.583274, 2.045572, 0.062387, 1.096078, 0.987921, 1.85545, 0.519004, 0.092313, 0.925562, 0.334367, -0.235099, -0.750682, 0.998151, 0.195308, -1.753128, -0.576852, -0.445231, -0.855241, -0.125622, 0.9368, -0.257638, 1.263189, 1.379574, 0.055255, 0.317305, -0.540659, 0.413677, -0.009143, 0.640844, 1.793241, 1.311144, 1.734177, 0.520584, 0.010894, -0.463557, 0.373368, -0.692775, -0.215088, 1.987086, -1.156095, -0.462956, -0.704813, 0.580782, -0.184285, 0.824968, -0.347342, -0.118111, 0.194057, 0.850947, -0.017431, 0.174928, 0.791446, 2.071849, 0.382483, 0.185272, 0.229824, 1.042282, 0.614995, 0.237832, -1.29773, 1.999131, 0.289137, 2.347406, -0.635408, 0.85333, 0.597322, -0.64806, -0.030966, -0.704435, 0.290136, -0.820553, 1.057349, 0.162049, 0.566549, 0.795884, -1.59126, -0.58673, -0.543143, -0.159074, 0.074633, -1.146739, 0.168509, 1.338089, -0.93216, 1.47478, -0.743597, -0.016102, 0.305108, 1.448431, -0.387754, 0.326248, 0.115877, -0.075004, -0.160881, 0.193095, 1.448179, 1.37224, -1.597577, 0.401589, -1.046544, -0.582162, 1.028568, 0.276, 0.050283, 0.684225, 1.387629, 0.794462, 1.051816, 0.066808, 0.160319, -0.684857, -0.707656, 0.96274, 0.787638, 0.792368, -0.190256, 0.230038, 1.320762, 1.372534, -1.675006, 0.981095, 0.665473, 1.391438, -0.078917, 1.484622, 1.3268, 1.837824, -1.213758, 0.10487, 0.775197, -0.034568, 0.111608, 0.732438, 0.082378, 1.098843, 2.326835, 0.157683, 0.028709, -0.69718, -1.082446, 0.831774, -0.108355, 1.19943, 0.510658, -0.094147, 0.191846, 0.693346, -0.838688, 1.554981, -0.69908, 0.04978, 0.48649, 0.976305, -0.365507, -0.613105, 1.625023, 0.336466, -0.137269, -0.805747, -0.45317, 0.537956, 1.642245, 0.807579, -1.344208, -0.89017, -1.806963, -0.544599, 0.44536, 0.690357, 1.876079, 0.576487, 0.38584, -0.338557, 1.222448, 0.448361, -1.528661, 1.020913, -0.388871, 0.459675, 1.262328, 0.971096, 0.936438, -0.339202, 0.419548, -0.153253, -0.144531, -0.809797, -0.75248, 0.636085, 0.405095, -0.464992, 1.245461, -0.422939, -1.06865, -0.068784, 0.391193, 0.557607, 0.399253, -0.508001, 0.671021, -0.758512, -0.890008, 1.017775, 0.061545, -0.153796, -0.047635, -1.349231, 0.958698, 1.340643, -0.601147, 0.115865, 0.833746, -2.111991, 0.37698, -1.340107, -0.129994, 0.476039, 1.253705, -0.049702, -0.590127, -0.348482, -0.217224, -2.35095, 1.359368, -1.38262, 1.133193, -1.171382, -1.870621, -1.085402, -0.303495, -0.707667, -0.996903, 0.790148, -0.756845, -1.113585, 0.376305, 0.263731, 0.568911, 0.118788, -1.034871, 0.32061, -0.0081, 0.554485, 1.204933, -0.717768, -2.355427, -0.394496, -0.062245, 1.031977, 1.590347, -0.270264, -0.407495, -0.745871, -1.663017, -0.105194, -2.16405, 0.73014, 0.109583, 1.062755, -0.450801, 1.562105, -0.477397, 1.379889, 0.414383, -0.109585, -0.362114, 0.380151, 2.436072, -1.522644, -0.413232, -0.353107, -0.702365, 1.205886, -1.164912, -0.714924, 0.368268, 0.473813, -0.104004, 0.235889, 2.183144, -2.787398, -0.787164, -0.860967, -0.464063, 1.00473, 0.201483, -0.540333, 0.64111, 1.382936, -0.721072, -0.547995, 0.462637, 0.723261, -1.243812, -0.49707, 1.00407, 0.112314, 0.175221, -1.601161, -0.768832, 1.341158, 0.972509, 0.889875, 0.027134, -1.394959, 0.07529, -1.096644, 0.330147, 1.716907, 1.764037, 0.790197, 0.788608, -0.988149, -0.85255, -1.375857, -0.325015, 0.015945, -1.516727, -0.279641, 1.752372, -1.421986, -0.768781, -0.294064, 1.992155, -0.783301, -2.114461, -1.689, -0.532977, 0.556553, 0.656752, 0.895656, -1.381442, 1.174794, -0.327512, -0.595149, -1.275274, -1.184026, 1.580668, -0.311235, -0.835864, -0.668136, 0.773024, 0.433953, -0.349239, -0.100279, 0.111338, -2.630921, -0.828608, -0.373313, 0.000635, 1.349414, -1.38432, 0.367844, 0.134947, 1.109757, -1.0413, -2.070428, 2.24172, -0.233831, -0.103447, 0.707, 2.85644, 0.839338, 1.29813, -0.239831, 1.058533, 1.228056, -0.113865, 1.020785, -1.479076, -0.485128, -0.348284, -0.406852, -0.323043, 0.076542, 0.132209, 0.420025, 0.484831, -0.883174, -0.518206, -0.748305, -0.786492, 0.209319, 0.622467, -1.192699, -0.470587, 1.792466, -1.485219, -0.197578, -1.193857, 0.520762, 0.143815, 0.274727, 1.796916, 0.922152, -0.400718, -1.631484, 2.330916, 0.281089, -0.422413, -0.827821, 0.533132, 0.288524, -0.651734, -0.832148, -0.684352, 2.379447, 0.486801, -0.518154, -1.559246, 1.398271, -2.33007, 0.03882, -0.898229, 0.902547, -0.853678, -1.306411, -0.336802, 1.774758, 0.611416, 1.65475, 0.89482, -1.30168, 0.236543, 0.152565, 1.882308, 1.381765, 0.712449, 0.224008, -0.504973, -0.086825, -0.659187, -2.722173, 0.136789, -1.46457, 1.475965, 0.708596, 0.24725, 0.911469, -1.35063, 1.12726, -0.644402, 1.332925, 0.281545, 0.077338, -0.466747, -0.956566, 1.250866, -0.214595, 0.036518, -0.511966, 1.168377, -0.130505, -1.830108, -0.143755, 0.568477, 1.319907, -1.54164, 0.262823, 1.068364, 0.319995, 1.751174, 0.449915, -1.69632, 0.380216, 1.11638, -1.662886, -0.595919, 0.332172, -0.113614, 0.587133, -0.655389, 0.969864, -0.201124, 1.227375, -0.029476, -0.578649, -0.604401, 0.047415, -1.12045, -0.370022, -1.351118, 0.669092, 0.87445, -0.180141, -0.476619, -1.106777, -0.339051, 0.96666, -1.780886, 0.872213, 1.762251, -0.552187, -0.289237, -1.689551, 2.129322, -0.743046, 0.408618, -0.5977, 1.428653, 1.592311, -0.715855, 1.464234, 0.228097, -0.444943, -0.157306, 1.475584, 0.128738, -0.711662, -1.636315, -1.586461, 1.336915, 0.45007, -2.215833, -1.437865, -0.486337, -1.236818, 0.113853, -0.083334, 1.145922, 0.232449, 0.077741, -0.883915, 1.04899, -0.697928, -0.364303, -0.482978, -1.014796, 1.560194, 0.483486, -0.658273, -1.979036, 1.156674, -0.984402, -0.128661, -2.741743, 0.27407, -0.942472, 1.198411, -2.725186, -0.353994, -1.013553, -0.497666, -0.160923, 0.531149, 0.95824, 0.941418, 0.926287, 0.59076, -1.529601, 2.345661, -0.30823, -0.639909, 0.744808, -0.026686, -1.080884, 0.40463, -0.373042, -0.059808, -0.511321, -0.445537, 1.421336, -0.617852, 2.235685, -1.260264, 0.720184, -0.797, 0.262126, 0.288527, -0.510604, 0.580132, 1.517951, -0.856357, 1.72026, 0.437727, -0.521388, -2.020313, 1.421129, 0.992858, -0.520924, 1.282554, -0.46574, 1.10703, -0.31956, 0.459919, -0.342407, 1.033638, -2.399735, -1.301241, -1.056, 1.878697, 1.493292, -1.076771, -2.510994, 0.297218, -0.105246, 0.786344, 0.373282, 0.812105, -0.019831, -0.815702, -0.230107, -1.870121, -0.296649, 2.084097, 0.59004, -1.22343, 0.452922, 0.15037, 1.905602, -0.579665, 0.243121, -1.083976, 0.922456, 1.340972, -0.995608, -0.424252, 1.989155, -0.609042, 1.578972, -0.556902, -0.668968, -0.006816, 0.813566, -1.455517, -0.436548, -0.261637, 0.841867, -1.047715, -0.14797, 2.098848, -0.789243, -0.798765, 0.156372, 0.51447, 0.285196, -0.662104, 2.134848, 1.031972, -1.851314, 1.302718, 0.797393, 0.692741, 0.400185, -1.777436, 0.263479, -0.285895, 0.384535, -0.227439, -0.018265, 0.317923, 0.177635, 0.620272, -1.343679, -0.550862, 1.154831, 0.173433, -0.065902, -0.068169, -0.371964, 0.021235, 0.996915, 0.412278, 0.059389, 1.670483, -0.868812, 0.903783, -0.620031, -0.201503, -0.320477, 0.340745, -1.846809, -0.327052, 0.228855, 1.326472, -0.211978, -1.209211, 0.26818, -0.086194, 0.771169, -0.271071, -0.889905, 0.222502, 0.189118, 1.286013, -0.267849, -2.031857, 1.571157, 1.88764, 0.802929, 0.574029, 1.926698, -0.691544, -0.959745, 0.458976, -0.47717, -0.827174, 0.218116, 1.38491, 0.978097, 0.311771, 0.625516, -1.428576, 1.378133, 0.120302, -2.154958, -1.579819, 1.157075, 0.752208, -0.511634, 0.096124, 0.35172, 0.696026, 1.292745, -0.682819, 2.467185, 0.093413, 0.814739, 1.645221, 0.031345, -1.60041, 0.123271, 0.157771, -0.121684, -1.69988, 0.90002, -0.054546, 0.105246, -1.101939, 0.486093, -2.150736, 0.607059, 1.174587, -0.632784, 0.953314, 1.019544, -1.002763, -0.971801, -0.122868, 0.15542, 1.699895, 0.367723, -0.404096, -0.333241, 0.653716, -0.288624, 0.349028, -1.186191, 1.213244, -0.001533, -1.394936, 0.131195, 0.432072, -0.084166, 0.298161, 1.753643, -0.549575, 1.597262, 0.351569, 0.85777, -0.683374, -0.032467, 0.036999, 0.654951, 0.848232, -0.300151, -1.2467, 0.74361, 1.364882, -0.364052, -0.814954, 1.024712, -0.71495, 0.85839, -1.427819, -0.621122, 2.524446, -2.05711, -1.599524, 1.686611, 1.129917, 0.793757, 0.152113, 0.100616, -1.06903, -0.060093, 0.644983, -1.459355, 0.604706, 0.474678, 0.366651, 1.043681, -1.072432, 0.064967, 0.675592, 0.263394, 1.30767, -1.169191, -0.337671, 2.610323, 1.016267, 0.993847, -0.561365, -0.941041, 1.543663, -0.679862, -0.084902, 1.271078, 1.011392, -1.266999, 0.28172, -0.261914, 0.349918, -2.324524, -1.249671, 1.417967, 1.588746, -0.088213, 0.108935, -0.607419, -0.447754, 1.10041, 0.116398, 0.510318, -1.657521, -1.082757, 1.955655, 0.383364, -0.115806, 0.286033, -3.478132, 0.588579, 0.089695, -0.510403, 0.11029, -0.450761, 1.077161, 1.711001, -0.81646, 0.357137, 0.526208, 0.599668, 0.742315, 0.624477, -0.078249, 1.410446, 1.086405, -0.175447, -1.13607, -1.53947, -0.896281, -0.283741, 0.920125, 1.283771, 0.713981, 2.953156, -1.701791, 0.61178, -1.077518, -0.323887, 0.187558, 0.37968, 0.260121, 0.564565, 1.573381, 0.47013, -0.887705, -1.364285, 1.285009, -0.340821, -0.279119, 0.463864, -0.05631, -0.011109, 1.514023, 0.519667, 0.147899, -0.006018, -0.719028, 1.065881, 0.962556, -1.350365, -0.681871, 0.305035, -0.148742, 1.053645, 0.447479, -0.906538, -2.065354, -1.19178, 0.493225, -0.861239, -0.577862, -0.982704, 0.021654, 1.962645, -1.800526, 0.708145, -0.607419, 2.028111, 0.437034, 1.227881, -1.748878, 1.649188, 0.187405, 3.035528, -1.863047, 0.825722, 0.163768, -1.183302, -2.128862, 0.045303, -0.995595, -0.17306, 0.112661, -0.905399, -0.949207, 1.62421, 1.148788, 1.269109, -0.970052, 1.187816, -0.034305, -0.168098, 0.256674, -0.203111, 1.560743, -1.331813, -1.164378, 1.41603, -1.039544, -0.894157, -0.269111, -0.860611, -1.413953, 2.170238, -1.165767, 0.259763, -0.003071, 1.116476, 0.554385, -1.4133, -1.300259, -1.135294, -0.049663, 1.210218, -0.669004, 0.947401, -1.838258, 0.972607, 0.196592, 0.195389, 0.940017, 0.599831, 0.086063, 0.514794, -0.683556, 1.081595, -0.802773, 0.136266, -0.618656, 1.061359, -0.092133, 0.360757, -1.918707, -0.774209, -1.269549, -0.347837, -1.119868, 1.08238, -0.650777, 0.584486, -0.337759, -0.568494, 0.262229, 2.134796, -1.468534, 0.003725, -0.013109, -0.742107, 0.455578, 1.350919, 0.396705, -0.404257, -0.836265, 0.499768, -0.627272, -0.77589, 0.700935, -1.427735, 0.424569, 0.886482, -0.814459, 0.985481, 1.307674, -0.923607, -0.254133, -0.687066, -1.297818, -1.875914, -0.633846, -0.101895, 1.09471, 0.840652, 0.249609, -0.764842, 0.666574, 0.880834, -0.944321, 0.440947, -1.367505, 1.695179, -0.973418, 0.111285, 0.969306, -1.05442, -0.904343, -0.556081, 1.619089, 0.509588, 1.012508, 0.54636, -1.050138, 0.824979, -0.409997, -1.226904, 0.004862, -3.421726, -0.227882, -0.882662, -0.881799, 1.342595, 0.520287, 0.311108, -0.757735, 2.480143, -0.656008, 0.453638, 2.636442, 0.757728, 1.032846, -0.080028, 0.96496, -0.835803, 0.481758, 0.852266, 0.759352, -1.410767, 0.47732, 1.003632, -0.085524, 1.789028, -0.488154, 0.2088, -3.69227, 0.820523, -1.190941, 0.772425, 1.447137, 0.091688, -0.369793, -0.892117, -0.45822, 0.215702, 1.771556, 1.529075, 0.958351, 1.383465, -1.360084, -0.429771, -1.790406, -0.536475, -0.643068, 0.178348, 0.169939, 0.106115, -2.062899, 0.295674, -0.287433, -1.292122, 0.88791, 0.330222, 0.19327, -0.245754, 0.103756, 1.58393, -1.922277, 0.947058, 1.174937, -0.21766, -0.414426, 1.379436, -0.272294, -0.538642, -3.221122, 0.399093, -1.091956, 1.272188, 0.636768, 1.460024, -0.704135, 1.801569, -0.298655, -0.674441, -1.639675, 0.13079, 0.133601, -0.35864, 0.70285, -0.038888, -0.606992, -0.045561, 0.124402, 1.214675, -0.04148, -0.740897, -0.904656, -0.190247, -0.892788, 1.512116, -1.50573, 1.073179, 0.926498, -0.641416, 0.053471, -0.924799, 1.278385, -2.561331, 2.031584, 1.603747, 2.508072, 1.294295, 0.964936, -0.433878, -0.604068, -0.047519, 0.985164, 0.431215, -0.045045, 0.515803, -0.771798, 0.188906, -0.914035, -0.679761, -0.972702, -0.918212, 0.674625, -1.669885, -0.590271, 0.727654, 2.083421, 0.153335, -0.578395, -0.216783, -1.504167, -0.261284, -2.124195, 0.049895, -1.537135, 0.856764, 0.859043, -0.102618, -0.889049, 2.644651, -1.159322, 1.718781, 1.993561, 0.80649, 1.253847, -0.773869, -0.58306, -0.38295, 1.079655, -0.210704, 0.886278, 0.770257, 1.31164, -0.030656, 0.360131, -2.404942, 0.049161, -0.760856, -0.762219, 2.157373, -0.149401, 0.045494, 2.036584, -0.079333, 2.783838, 0.279292, -1.600966, -0.486876, 0.622534, -0.254668, 1.35056, 1.735703, 1.619578, -0.600683, -2.114934, 1.856532, 1.373954, 0.064935, 0.185453, -0.282067, -0.614687, 0.197406, -0.546135, 0.328094, -2.434882, -0.495888, 0.887253, -0.84918, 0.282713, -0.992038, -1.100469, 0.023155, 0.086387, -0.491415, -0.158985, -0.2873, -0.666046, 1.090407, -1.368951, 2.078028, 0.630949, -0.634076, -1.068632, -0.002876, 0.591895, 1.071122, 0.018545, -0.078535, -0.728088, -1.907926, 0.177667, -0.982866, 2.674686, 0.955421, -0.515639, 0.872851, 0.136734, 1.726918, -0.812162, 1.115428, 0.146626, -0.683691, 0.246833, 0.799106, -1.280117, -0.001023, 0.453821, 0.523992, 2.475425, -0.721146, 1.187055, -1.504849, 1.010968, -2.796561, -0.172617, 0.931867, 0.077616, -0.264722, -0.80298, 1.14144, 1.463908, -0.032746, -0.945448, 0.150983, -0.753047, -0.246912, -0.620924, -1.419424, -1.262117, -0.81729, 0.268082, 0.48495, 0.461103, 1.696408, -1.477646, 0.204673, -1.611275, -1.028278, -1.739228, 0.330398, -1.431068, -0.466661, 0.168002, -0.427996, 0.825484, 1.35295, 0.419148, 0.754476, 0.256497, 1.003153, -2.390883, -0.325968, -0.184956, 1.332692, 0.030696, -0.696212, 0.805544, 1.784679, 0.526107, 2.464087, 0.369151, 0.251599, -0.539088, 0.135995, 1.395633, 0.431495, -0.728981, 0.246313, -1.077056, -1.629485, 1.912123, -2.254619, 0.526628, 0.17416, -0.287599, 1.39289, 0.377182, -0.677961, 0.642942, 0.883205, 0.183456, 0.550068, 0.099386, 0.618216, -0.458075, -0.561418, 1.488826, 1.563033, -1.511764, 1.189307, -0.5598, -0.888466, 0.00252, -0.930697, -0.414813, 0.136768, -1.107263, 1.428756, -1.176951, 0.989118, -2.359922, -0.47978, -0.565096, 1.122491, -1.332457, -0.759021, -0.133609, 0.748733, 2.816183, 1.41612, -0.554486, -0.561861, 0.09936, -0.228598, 0.899795, 1.38928, -0.703397, 1.250476, -0.804251, -0.012904, -0.391499, 0.202065, -0.592888, 1.605033, -1.183692, 0.185991, -0.835232, -0.422551, -1.176095, 0.593159, 0.059667, 1.496172, -1.074255, -0.083471, 0.337797, -0.632568, -0.258398, -0.973148, 0.599121, -0.579487, -0.395029, -1.539477, -1.376609, 0.190403, 1.885447, 0.04715, 0.252209, 0.261453, -1.323133, 0.803325, 0.668382, 0.344283, -1.276868, 0.500596, -0.644178, -1.985963, 0.659496, -1.139249, 0.885514, 0.59725, 0.138598, 0.34516, -1.696279, 0.035329, -0.517358, -1.603911, -0.053709, -0.895749, 0.414832, 0.541552, -0.853225, 1.323264, -0.094256, -1.422313, -0.421097, 0.242612, -0.938338, 1.137036, 1.410205, 0.756603, 0.139104, 1.910684, 1.434702, -1.807394, 1.391017, -0.082306, 0.576987, 0.912446, -1.672193, 0.711979, 0.436292, 0.633759, -0.025842, 0.463909, -0.432022, 0.51377, 0.365262, 0.98672, -0.521013, -1.642965, 1.272853, -0.507587, 0.424523, 0.933077, 1.793699, 0.381525, 0.382873, 3.428555, -0.571535, -0.847643, 0.139229, 0.799496, -0.858131, -0.334792, 0.577023, -0.695984, 0.351583, 0.814798, -0.251345, -0.828354, -0.391974, -0.621938, 1.101666, 0.203946, 0.03477, 0.27486, -1.281258, 2.079545, -0.881594, 0.04948, -0.018815, 1.414479, 0.096581, -0.356667, -0.980847, 1.906046, 0.104513, 1.463197, -1.409384, 1.783893, 0.150254, 0.127678, 0.609379, 1.944713, -0.421929, 2.211299, 1.217822, -0.253243, -0.658736, 0.94802, 0.208028, 0.76211, -0.357519, 0.823291, 0.628169, -0.97493, -0.007241, -0.716609, -1.567977, -0.628535, -1.433931, 1.322978, 0.755458, -0.82408, 0.265055, -0.919729, -0.86488, -0.276783, 0.88509, -1.408155, 2.79188, 0.297835, 1.176363, 0.391646, -0.321745, 0.140196, -1.001602, -0.699631, 0.218256, -0.619494, -0.89846, -0.279723, -0.421813, 0.146955, 1.766082, 0.712242, 0.418055, 1.24097, 1.840797, 1.104662, -0.467173, -1.152724, 0.081448, 0.689593, -1.069502, -0.318621, -0.482371, -0.962756, -1.433934, 1.48005, -0.139524, 0.688223, -0.099458, 0.814201, 0.086861, 0.208292, -0.691482, 1.852082, -1.742499, 0.314423, 1.793131, -0.484191, 1.727315, -0.336006, -0.18591, -0.572115, 0.436876, 1.062201, -1.037452, -1.718704, -1.389427, 0.36494, 0.88485, 2.107363, 0.58618, 0.675076, 0.38864, -0.525598, -0.218806, -0.819793, 0.210695, -0.159006, 0.187611, 1.084517, 0.126804, 0.389995, -1.558226, -0.971123, 0.362535, -0.027058, -1.53643, 1.362831, -0.492138, 1.488877, -0.314505, 0.754063, -0.838274, -0.155994, 0.580814, -0.526766, 0.936283, 1.900981, 1.90607, 3.001089, -0.407822, 0.027393, -1.97045, 0.657828, 0.084322, -0.27716, -0.075409, -0.704664, -0.093362, -0.276001, 1.257261, 0.450562, -1.7492, 1.660671, -0.092827, -0.910978, 2.860148, 0.68132, -1.371161, 2.341215, 0.45596, -1.506752, -0.511002, -0.153125, 0.248014, -0.13721, 0.769121, 0.342898, -0.724212, -3.011151, -1.386485, -0.370436, -0.404589, 0.481501, -0.052528, 1.800475, 0.164875, -0.241686, 0.476701, -0.542591, -0.592045, 0.008941, -0.192263, 1.344005, 0.635391, 0.758692, -0.896906, -0.76219, -1.740857, 0.104896, 0.526783, 0.632496, 0.324921, -0.564006, -1.724403, -0.202616, -0.512877, -1.240688, 0.955877, 1.327289, 0.679091, 0.797045, 1.334863, 0.548478, -1.666086, 0.826201, 1.2687, -1.425721, -0.217187, -0.083728, -1.177264, -0.547551, -2.699308, -0.07149, 0.399229, 1.0784, 0.782419, 2.16365, -1.66916, 1.546716, -0.437229, 0.034415, -1.398341, 0.638857, -0.568978, -0.758568, 0.806885, -0.625254, -0.358089, -0.723065, -0.665601, 1.345642, 0.339037, -0.742723, -1.21938, 2.347659, 0.284985, 1.349285, -0.588391, 0.295589, -0.804874, -1.118343, 1.579926, -1.310301, -0.315275, 0.805684, 1.067682, -0.833148, -1.127386, 1.001163, -0.100066, 0.220914, -1.831665, 1.264196, 0.632033, 0.410144, -1.080716, 1.690543, -1.146846, 0.607508, -0.732547, 0.178143, -0.821791, -1.033867, -0.089142, -0.068396, 0.966262, 1.276191, -0.430699, -0.053777, -1.784845, 0.45748, 0.713255, -0.519359, 1.452682, 0.352468, -0.371128, -1.205748, 2.324, 1.20391, -0.942759, -0.286072, -0.809412, 0.364162, -0.398056, 0.188803, 0.484511, -1.47069, -0.482695, -0.223248, -0.258034, 1.395135, -1.295369, 1.271449, -0.447766, 1.621265, -0.475723, -1.66787, -0.098455, 0.797024, -1.172549, -0.213234, -0.323134, 1.82867, 1.957064, -1.646645, 0.262597, -0.098331, -1.101143, -0.428161, -0.772004, -1.248719, -0.096003, 0.886604, 1.209311, 0.496899, -0.561766, 0.083883, -0.115276, 0.208399, -0.368049, 0.398211, 0.202885, 1.593152, -0.431236, -0.126126, -2.343394, -0.052151, -0.243074, -0.875968, 0.78864, 0.113401, -1.224348, -0.232052, -3.099892, 0.118005, 0.778787, 1.94552, -0.745565, -0.478078, 0.555591, -0.021595, 1.965791, 1.77998, -1.040719, 1.50698, 0.799237, 1.377352, 0.597972, -0.171058, -0.140076, -0.794963, -1.157387, -0.147051, 0.404013, -0.770546, -0.802263, 2.506619, -0.992946, 1.633781, -1.694008, -0.211452, -0.689865, -1.776448, -0.025833, 0.784838, -1.167462, 0.157848, 0.943071, 0.215847, 1.420714, 1.229668, -0.417919, 0.360782, -0.850804, -0.720963, -0.322709, -0.657084, 1.395992, -0.80547, -0.488233, 0.070252, -0.99549, -0.182405, 0.473071, 0.398173, -1.068329, 0.117702, 0.267827, -0.315022, 0.625246, -1.506451, 1.431707, 0.508986, 0.15425, 0.746663, -0.292432, -1.056791, -1.859072, 0.278958, 0.137818, -0.738306, -1.767619, 0.833909, -0.914837, -0.470359, 1.470119, 1.648398, -1.31026, -0.149893, -1.385681, 1.151497, 1.454179, 1.996688, -0.706055, 0.966539, 0.040288, 0.634718, 0.735833, 0.353886, 1.093318, 0.454946, -0.695228, 0.107975, -0.320306, 0.29994, -1.456629, -0.578642, 0.354839, 1.214889, -0.261661, 0.423648, 0.283832, -1.608617, 1.797623, -0.891868, -0.331742, -1.44864, 0.534339, -1.270999, 1.774306, 0.159554, -0.337481, 1.399049, -0.739468, 0.432004, 0.355334, -0.5986, -0.920521, 1.452182, 0.384557, 0.962669, -0.794316, -1.296636, 0.560304, -1.680568, -0.220768, 1.185639, 0.246415, 0.528005, -0.566298, 0.093981, -0.761735, -0.694484, -0.449913, 0.227631, -0.377995, 1.595833, -0.861739, -0.383537, 0.837272, -0.29602, 0.051478, -0.809598, 1.127115, -0.217267, 0.765568, 0.888235, -0.646341, 1.361542, 0.709545, -2.170446, 0.424555, -0.527597, 0.285103, 1.58479, -0.593791, 0.734633, -0.834741, 0.14799, -0.841476, -0.900983, -1.210371, 0.820721, -0.300608, 0.887557, 1.601106, -0.333021, 1.001233, 0.798422, 1.784159, 1.388232, 0.30285, 0.42141, 0.728027, 0.299178, 2.105245, -0.73654, 0.029744, -1.307728, -1.081913, -0.335282, -0.580095, 0.32567, -1.525058, 1.262735, 1.290552, 0.530965, 0.513338, 0.48984, 0.920092, 1.881015, 1.296952, 0.453754, -0.61693, -1.630175, -0.404457, -1.279043, -0.35373, -1.764036, -0.507045, -0.855181, -1.080421, 0.660228, 1.09174, 1.310916, 0.672254, 0.157273, -0.394148, -0.033547, 1.492953, 0.674278, -1.284736, 0.567795, 0.33863, -0.366658, 0.662955, 0.413874, 1.156286, 0.176696, -0.673289, 1.137428, 0.479356, -0.896982, -0.752069, -0.521348, 0.820768, 1.557217, -0.378282, 1.032749, 0.338344, 0.131469, 0.566959, -0.450744, -0.323023, -0.215087, -0.213252, -1.444649, 0.152825, 1.06137, 0.961607, -0.740898, -0.020463, -0.744398, -1.540846, 0.005669, 0.466604, -0.639668, -0.333915, 0.753405, -0.941329, 0.583161, 0.571345, -0.574413, 0.633829, 1.284729, 0.835978, 0.509428, -1.659398, 0.788915, -0.52661, 0.043157, 0.43075, 0.1852, -0.299609, -0.243569, -0.352535, 0.733864, -0.005255, 0.282668, 0.128567, 0.998462, -0.89412, -0.188489, -0.680174, 0.251961, -0.262972, 1.686189, 1.156312, -1.137793, 0.66899, -0.706845, -1.279856, 0.782836, -0.325699, 1.617149, -0.943312, -2.620498, -1.279134, 0.981389, -1.86849, 1.973047, -0.007059, 0.11127, 0.013952, -0.326318, -1.175711, 0.589407, -0.306758, 0.809532, -1.22436, -0.044337, -0.473924, -0.330434, -1.456051, -2.070794, 1.399167, -0.097332, -0.767591, -0.833666, -0.362096, 1.861781, 0.00229, 2.956336, -1.423063, 0.030912, 1.211564, -0.715829, 0.586192, 2.573158, -0.282915, -0.464168, -0.846517, -0.200382, 0.335614, -0.662764, -1.534755, -0.014, -0.750976, -0.629916, -1.477078, 1.539743, 1.230543, 0.649339, -0.12836, 2.252719, 1.870616, -0.312249, -0.282023, -2.216579, 0.345171, 0.966792, 1.35952, -1.361788, -0.466571, 2.016457, 1.0468, 1.146258, 0.137301, 1.04438, -0.854367, -1.006934, 1.85101, -0.379899, -0.407996, 1.077085, -0.307922, -0.704144, 0.512568, -1.496226, -0.593134, -1.080865, 0.438289, -0.203362, -0.906854, 0.517004, 0.900455, 1.588607, 0.347291, -1.337742, -0.222501, 1.230665, -0.741183, -1.193351, -0.077581, 1.037479, -1.184437, 1.723657, 0.052726, 0.021609, 0.157505, -1.00299, 