{"arch": [768, 64, 1], "scale": 600.0, "layers": [{"w": [0.913824, -1.431279, 2.540934, -2.321587, -0.005043, -2.451944, -1.408769, 1.419363, 1.771932, -0.100189, 1.174173, 0.943487, 0.339469, 1.222164, -0.539169, 0.621447, 0.108926, -1.514392, -1.124102, 0.531373, -0.350588, -1.322898, -0.374539, -0.860658, 0.804259, -1.189936, 0.943101, 0.436301, 0.04155, -0.97515, 2.258086, 1.177674, -0.566436, -1.097472, 0.281748, -0.789317, -0.489803, -0.991248, 1.431492, -0.018025, -0.577557, -2.236782, 1.517907, -0.991589, 2.27071, 1.542119, 1.256282, -0.271446, -0.588622, 0.845338, -0.914284, 0.105454, 0.617559, 0.00155, -0.056146, 2.011766, 3.271546, 0.505136, -0.755198, 0.260391, -2.312878, -0.175914, -0.414967, -1.587494, -0.369764, 1.824534, -0.750214, 0.622238, -2.06463, 0.171812, -1.0796, 0.886032, 0.563522, 0.754946, 1.49852, -0.759821, -1.056243, 0.395, -0.818251, -0.469671, -0.472639, 1.254684, -1.020357, 0.544554, 0.939259, 1.121378, -0.885362, 0.164709, 0.737903, -1.207401, 1.286638, -0.060975, 0.329578, 0.210609, 0.165292, 0.331131, -0.185776, -1.363112, 1.386716, -1.340449, 1.935221, 1.584369, 2.049787, 0.945207, -0.340136, 0.357403, 0.261819, 1.712121, 0.318813, -0.170035, -0.19426, 0.244464, -1.230072, -1.268525, 0.38292, -0.192207, 0.768956, -1.09713, -0.087615, -0.578947, 0.051092, 1.804322, -0.197369, 0.772684, -0.946131, 0.95953, -0.423369, -0.254175, 0.024236, 0.973192, -0.483506, -0.544544, -1.353123, 0.438311, -0.541934, 0.324403, -0.747275, -0.678277, -0.079317, -0.234965, -1.013179, -0.119183, 1.173636, -0.213074, 1.456227, -0.413893, 0.27674, -1.001203, -1.260192, -0.477594, -0.269627, 0.021031, 1.714785, -0.37678, 1.163651, 1.524867, -0.682062, 0.081382, -1.67629, 0.692785, -1.404504, 0.298332, 0.330297, 1.37749, -0.847088, 0.812084, 0.169976, -0.446397, -1.638694, 1.840441, -0.091225, 0.624899, -1.605517, -1.090622, -0.504762, 1.341511, -0.29809, -0.203061, -0.648825, -1.199547, 1.303303, -1.205749, 0.448028, 0.310521, 1.018654, -1.355318, 1.82434, -0.145274, -1.107503, 0.324954, -1.772014, -0.872206, 1.123858, 0.212054, -0.459038, -1.785256, 2.08904, 1.887443, -2.301075, 1.241323, -0.228466, -1.725767, -0.850659, -0.545768, 1.054112, 0.219543, 0.346087, 0.286448, -1.138762, 1.37714, -0.628076, 1.260919, -2.575884, -1.307141, 1.685969, 0.143704, 0.483327, -2.147178, 0.993583, -0.254236, -0.568642, -0.734187, 1.857066, -0.362403, -0.840892, 1.319336, -0.168401, 0.465792, -0.547577, -0.190708, -0.719306, 1.25529, 1.11325, -0.650563, 0.996468, 0.670748, -0.794518, 2.333058, -0.037752, 1.164691, 0.329836, -0.618839, 2.61912, 0.693878, -1.5541, 2.439775, -0.232352, -0.521213, -0.155874, 0.30182, -0.273949, 0.427025, -0.274406, -0.416882, -2.907231, -0.020304, -0.36335, -2.239064, -0.500131, -0.071664, 0.539386, -0.367966, 1.035209, -0.273623, -1.130056, -0.440566, -0.129562, -0.841374, -0.454707, 2.641175, 0.808964, 0.231133, 0.560287, -0.499307, 0.337072, -0.942958, -0.163489, -0.643402, -0.556415, -0.536367, -0.172934, 0.058075, -0.802018, -1.271892, -0.065967, -0.431963, 1.237044, -0.33926, 0.652864, -0.276716, 1.32933, 0.771877, 2.851398, -0.984325, 0.120816, -0.367114, 1.800683, 0.974573, 0.641974, -0.616777, 0.910266, 0.522532, -1.830657, 1.265552, -0.819742, -1.81325, 1.585542, -0.517935, 0.465591, -0.228329, 0.128179, 1.683058, -1.840621, 0.241322, -0.94064, 2.418672, -1.181203, 0.233225, 0.632145, -0.355978, 0.261359, 1.31277, -1.227139, 0.511144, 0.54197, 2.138421, 0.093329, -0.214551, 0.380562, 1.433069, -0.050144, -0.326064, -0.575644, 1.936307, 0.265483, -0.040599, -0.646882, 0.794977, 0.490142, -0.614711, 1.687186, 0.235578, -0.438696, -0.511175, -0.350345, 1.560362, 0.604448, 0.76371, 1.155863, -0.663481, -0.202366, -1.163811, 0.449589, -0.182766, -0.231677, 1.806866, -0.222286, -1.042668, -1.607068, -0.629065, -1.910211, 1.994514, -0.764376, -2.689644, -0.699419, -0.337732, 1.17276, -0.147589, 1.549257, -1.721841, -0.178412, -0.492175, -1.379799, -0.212441, -0.10626, -0.199992, 0.433206, -0.368675, 0.615405, -1.224284, 0.413419, -0.270934, -0.760057, 0.249789, -0.63775, -0.898577, -0.357652, -2.002859, 0.257203, 0.295704, 0.232031, -0.781429, 0.25213, -0.913007, 0.024483, 1.631874, 0.231221, 2.135837, -2.067752, -1.08209, 0.635348, -0.66262, 0.636261, 1.733036, -0.156204, 0.550144, 1.297969, -0.811905, 1.132212, -0.157401, -1.953816, 0.288089, 0.135256, -0.249286, 1.1185, 0.172099, -0.605681, 1.430569, 0.395768, 0.791459, -0.19327, -0.436234, -0.551848, -1.390313, 1.333905, 1.002337, -2.059886, 1.090416, 0.55912, -0.6085, -1.057515, -1.633213, -1.043499, 1.179001, -0.993061, 2.019927, 0.718521, -0.988039, 1.64007, -1.437766, 0.196251, 1.187524, -0.343646, 1.282549, -0.610626, 1.225512, 0.611811, -1.377354, -1.425594, -0.156106, 0.147237, 0.417144, 0.80747, -0.931839, 0.36132, 0.010439, 1.182291, -1.567202, -0.349633, 0.122693, -1.969448, 0.513408, -1.279244, -0.601867, 0.752969, -0.051748, -0.42288, -0.478672, -0.497008, -0.314948, -2.15544, 0.485512, 0.853803, 0.807401, 0.043098, -0.320007, 0.372015, 0.555568, -1.113172, 1.821163, 0.362394, -0.117272, 0.50531, 1.141222, -0.577605, 0.049627, -1.072122, -0.8371, -0.603708, -0.098503, 1.23636, -0.591467, 0.163801, -1.134506, -0.149424, -1.376657, 0.152751, 0.737938, -0.227505, -0.19704, -0.397575, -0.553215, 0.925319, -0.852997, 0.190062, 2.552214, 2.293843, -1.801552, 0.228696, -1.228286, 1.312693, 0.306353, -0.158897, 0.17147, 1.542808, -1.069759, -0.027649, 0.99546, 1.57473, 0.031125, -0.989683, -1.095464, 0.173544, 1.369565, 0.917817, 1.706271, -1.615835, -2.037113, 1.218631, 0.938421, 0.857617, 1.529941, -0.554349, -0.384347, -1.288998, -0.225299, -0.560994, -1.058329, -0.178346, 0.857044, 0.577677, -0.36594, 0.422894, 1.147652, -0.120803, 0.436626, -1.377371, 1.588358, -0.002303, 0.871294, -1.13611, 0.180673, 1.925424, -0.254117, 0.0149, -0.056434, -0.52246, 0.320643, -2.19908, -0.290525, 0.819172, 0.035517, 0.631889, 0.699525, 0.127047, 2.122804, 0.666618, -0.843271, -0.289166, 0.231162, -2.854774, -0.780862, 0.05197, 1.427784, -0.018594, 0.58991, -0.40508, 1.16938, 0.229702, -1.765417, -0.250313, 0.936916, 0.062047, -0.221931, 2.523528, 0.800062, 1.493815, -0.14413, 1.487992, -0.180916, 0.380079, 1.299504, -2.425853, 1.067426, 0.28395, 1.014153, 1.355934, 1.040764, -0.151567, 0.879624, 0.45199, 0.644374, -0.468176, 0.141377, 0.428575, -1.261236, -0.70894, 1.205389, -0.51391, 1.328001, 0.154375, -0.838048, 0.741356, -0.296847, 0.49217, -1.469643, 1.591154, -0.440319, -0.359871, 1.053615, -0.743862, -0.098522, 0.772566, -1.387427, 0.245875, 0.973352, 0.516306, 0.046444, 0.916218, 0.44721, 1.02062, 1.28604, 0.349093, 1.190808, -0.638662, -0.190428, 0.579436, -1.030832, 1.17554, 1.103796, -0.00456, 0.401505, 1.131274, -1.496691, -0.079224, 0.58732, -0.210442, 0.848229, -0.35422, -0.109441, 0.592658, -0.030445, 0.526413, 0.949833, 1.057783, 0.847531, -1.442896, -0.825244, 0.80099, 0.558017, 1.426783, -0.268933, 0.383052, -0.430766, 1.127074, -0.923687, -0.048338, -0.66714, 0.491568, -0.283406, 0.265409, -0.694365, -0.617246, -0.11349, 0.464156, 0.031337, 1.093633, -0.154886, -0.344138, -1.629485, 2.130893, -1.341592, 0.425331, -0.109324, -0.456816, 0.600862, -0.044317, -0.174909, 0.197775, 0.804463, 0.073026, -0.725668, 0.222689, -1.675028, -1.75505, 1.291507, 0.629536, -0.073407, 0.096204, -0.298873, 0.7759, -2.21788, 1.585022, 0.341939, 0.509338, -0.264618, 1.137619, 0.189783, -1.104467, 0.92178, 1.274572, -0.905294, -0.373405, -0.915877, -0.189012, 0.164013, 0.796869, 1.103818, 1.508769, 0.135815, -0.604916, 0.920187, -0.178569, -1.179707, 1.361077, 0.977306, -1.385656, 1.23821, 1.21921, 0.656711, 0.863638, -0.27097, 0.299032, 0.076591, -0.841135, 1.702647, 0.303646, 0.408454, -0.607313, -0.089618, 0.66536, -0.498534, 0.130309, -1.053813, 1.343644, 0.318015, 0.805912, 0.569047, 0.352747, -0.4395, -0.280789, 1.435823, 2.244689, -0.029404, 0.29966, 0.970896, 0.103233, -0.719431, 0.940863, 0.570195, 1.884019, 0.606672, -0.453048, 0.880658, -1.011043, 0.317114, -0.966694, 0.196105, 0.302767, 0.276396, 0.304573, 1.497123, -1.521173, -0.228457, -0.417426, 0.002085, -1.138975, 1.555408, 0.851958, -0.272814, 0.066314, -0.337125, 0.232782, -0.105898, -0.20193, 0.251945, 0.175615, -0.297412, 0.385983, 0.072853, 0.475168, 0.575549, -0.179011, 0.861427, 0.144841, 1.796267, 1.013223, -0.803803, 0.718291, 2.277225, -0.630933, 1.118273, 1.00745, 0.969848, 1.45672, 0.412358, -0.953839, -0.484871, 0.669127, -0.588062, 0.677368, -0.731239, 0.646623, 0.670097, -0.203958, 0.444001, -0.247001, -0.123337, 1.275757, 1.45997, -0.448882, -1.535266, -2.384739, 0.213251, 0.7321, 1.01011, -1.606975, 1.885202, 1.846427, 0.407659, -0.418402, 0.094937, -0.326669, 0.493983, -0.045545, 1.877662, -1.162461, 1.802898, -1.142061, -0.280068, -1.765396, -0.033894, 0.72469, -0.458915, 1.374777, 0.528768, 2.354703, 0.289203, -1.381559, -0.010264, 0.115311, -0.639188, 0.088801, 0.944255, 0.83252, 0.397112, 1.403152, 0.246595, 1.003584, -1.10331, -1.504055, 1.612559, 1.146464, 0.492711, -0.111485, -0.245267, 0.303319, -0.931788, 0.094109, 0.381618, -1.512669, 0.012457, -0.528805, -0.367065, -0.369213, -1.986392, 1.069738, 1.662923, -1.045928, -0.588678, 0.949558, 0.318213, 0.503291, -0.050378, -1.667926, -0.103732, -0.481418, 0.217923, 0.635383, -0.834285, 1.426475, 1.293468, 1.1321, 0.405772, -0.292532, -0.252097, -0.590077, 0.312937, 0.078742, -0.301227, -0.799289, -0.609008, -1.540708, 0.149701, 0.191637, 0.598261, -0.995635, 0.54086, -0.411578, 1.648681, 1.449891, -0.662216, -0.452085, 1.548698, 0.502524, 1.067457, 0.36458, 1.859644, -0.26305, 0.385699, -0.543821, -0.748594, -1.277563, 0.576981, 2.16245, -0.469622, -0.87778, -1.846942, -0.467574, -0.187397, -0.60495, 1.548322, -0.059839, 1.509982, -0.046381, -0.252909, 0.243285, -1.918392, -0.363734, 1.625636, 0.490964, -1.290442, 0.637678, -1.255784, 0.64531, 1.217784, 0.516728, -0.226091, -1.017908, 1.232338, 0.199241, 1.129311, 0.203114, -1.514113, 0.915067, -0.528499, -1.44796, -0.060168, -0.439572, 0.320566, -0.01838, 1.422323, -0.452403, -0.823366, -0.437932, -1.54488, 1.027392, -0.783635, -1.343032, -0.337455, -0.633377, 1.501359, 0.367082, 0.049078, 0.086852, 0.624674, 0.530355, 0.547769, 0.305619, 1.670358, -1.11075, 0.743998, -0.55522, 0.203466, -0.487932, -0.395605, 0.598265, 1.111103, -0.421912, 0.342268, -0.49634, -0.214671, 0.130845, 1.672935, -2.267541, -0.081285, -0.669255, 0.36978, -1.461342, 0.776044, 0.373725, 0.272217, -0.624948, 0.050927, 0.835704, 0.44264, -1.807641, 1.355612, 0.884625, -0.362551, 0.990539, 0.246555, -1.353942, 1.073283, -0.104538, -0.607234, 1.438258, -0.711195, -0.197536, 1.191082, 0.733281, -1.917713, 0.072276, -0.058548, 1.810685, -1.244868, 0.752276, -0.875099, -0.464168, -0.522703, 1.611766, -0.264362, 0.655932, 0.650525, 0.093826, -0.731714, 0.293012, 2.339386, 1.790451, -0.353109, 1.031332, -0.191447, 1.088345, -1.084817, -1.268387, 1.25935, 0.632675, -0.279696, -0.555716, 1.14819, 0.067096, 0.165874, 0.219154, 0.169438, 1.746029, 0.94841, 0.569846, 0.612377, -0.172029, -0.269887, 0.875218, -2.133723, 0.397367, -0.307179, 1.27045, -1.079395, -0.354733, 0.690388, -0.726111, 0.30892, 0.994041, 1.537927, -0.187041, 0.113493, 0.202068, 0.712306, -0.072311, -0.975513, -0.011633, 0.762907, 0.155134, 1.049181, -0.381959, 0.74472, 0.16719, -1.052969, 0.385126, 1.515929, -0.016171, 0.593587, 0.855933, -1.097166, 0.10747, -1.366918, -1.057147, 0.505965, 0.230488, -0.059096, 0.864024, -0.174143, 0.838839, 0.822725, 0.09152, 0.230742, -1.714565, 0.027563, 0.786158, 0.815786, -0.39651, -0.823297, 0.685224, 0.285031, 0.780452, -0.478621, -0.96621, 0.289612, 1.01202, 1.36071, -1.917145, -0.076257, 0.976675, 1.720013, -0.319441, 0.249619, 0.259028, -1.015324, 0.068062, -0.764229, 1.326386, 0.374189, 0.773562, 0.790812, -0.746676, 0.366193, -0.362147, 1.700883, 1.919605, 0.163388, 0.593196, -0.246436, 1.491504, 0.690145, 1.256578, 0.375198, 1.533261, 0.167199, -1.047762, 1.603648, 1.12961, 1.004726, 1.051436, 1.078676, -0.525028, 0.287719, 0.417545, -0.770934, -0.906223, -1.459264, -0.436879, 0.301304, 0.955792, 0.167097, 0.368599, -1.082193, 0.409945, 1.416789, -0.933426, 1.935483, -0.366458, 1.10899, -0.805031, -0.584475, -0.75919, 1.514541, -0.060616, 1.694015, 0.774227, -0.409476, -0.104074, -0.212186, 0.195036, -0.447863, -0.167222, -0.162899, 0.406264, 0.356933, 0.430508, 0.632387, -0.363557, -0.271588, -0.332438, 0.18383, -0.721757, 0.129545, 0.90359, 0.340265, -0.35707, -0.229081, -0.122215, 0.63724, 1.230473, 0.638246, 0.190816, 0.276009, 0.523471, -2.093176, -0.699538, 1.179665, 0.412109, -1.437071, 0.80052, -0.07406, -0.89376, -2.38753, 0.258873, 0.182937, 0.061056, -0.746292, 0.582842, 0.473368, -0.966264, 1.804297, 1.131022, -0.404147, 0.110441, -0.484911, 0.769801, -0.584826, 0.318523, -0.506361, 0.547594, -0.585592, -0.368545, -1.392024, -0.116377, -0.540613, -0.355981, 0.365035, 1.346755, -0.685175, -1.024817, -0.208294, 0.102856, 1.325519, -0.892283, 0.802093, -0.312881, 0.039441, 0.484479, 0.266057, 0.155313, 1.788277, 0.08483, 1.652735, 0.456809, -1.075741, 2.065487, -0.485438, 1.226602, 0.227508, 0.328769, 0.007548, 0.699831, -0.220464, 0.264738, 0.268529, 1.14903, -0.571918, 0.098917, -1.975755, -0.416867, -0.838266, -0.761209, 0.158185, 0.094358, 1.287056, -0.394076, -0.444475, 0.970332, 0.808153, 1.179824, 0.526629, 1.016865, 1.667001, -0.813903, 0.642296, -1.644752, 0.409168, 1.697552, -0.450114, 1.074578, -0.475795, 0.771711, 0.89764, 0.459534, -0.859545, -0.893617, -0.021943, 0.66223, -0.18112, 0.877424, -0.470188, 0.748161, 0.18861, -0.027382, 0.641868, -1.309094, -0.517013, -0.281236, -1.156427, -0.567133, -0.00568, 0.980429, 0.332316, -0.323761, 0.015111, -1.911659, -0.284455, -0.412404, 0.279362, 1.59936, 0.617199, -0.301253, 0.827374, 0.689853, 1.443238, -0.743903, -0.316309, -0.238475, 0.659962, -0.38244, -0.540436, 0.078613, -1.302608, -0.47208, -0.045667, -0.023275, 0.214259, -0.380046, 0.17547, 0.715644, -1.1673, 1.203054, 1.524961, 0.174185, 0.853014, -0.47862, -0.268695, -0.000817, -1.134427, -0.810919, 0.223302, 0.99021, 0.941165, 0.059637, 0.020037, 0.792628, 0.580844, 0.034544, 0.018155, 0.163868, -0.853238, 0.747706, 1.068712, 0.674402, 0.305369, 0.602913, 0.043241, 0.417671, 1.069209, -0.033834, 1.458167, 0.154125, -0.199532, 0.503937, -1.330835, -0.555719, -0.357954, 0.542359, -0.327319, -0.598687, 0.831639, -1.141849, 0.291807, 2.072223, -0.793726, -0.49647, 0.286429, 0.465892, 0.375244, -0.777552, -0.029637, 0.145539, 0.228295, -0.794163, -0.759772, -1.067939, 0.049433, 0.749153, 0.329121, -0.009416, 1.599015, 0.050749, 2.433753, 0.71641, 1.169714, 0.389492, -0.370679, -0.39079, 0.870957, -0.170455, 0.347877, -1.066879, -2.134728, -0.672228, 0.725068, 0.686538, 0.267872, 0.214698, -0.235911, 0.048377, 0.606367, 0.998036, -0.55298, -0.066976, 0.543867, 0.146563, -0.818257, 0.191329, 0.64404, 2.585421, 1.438315, 0.6106, 0.432353, -0.478215, 1.335988, 0.923166, -2.176647, -0.63612, 0.013107, 0.090303, -0.141588, 0.84292, 1.047597, -0.32712, -1.10126, -0.082054, 0.297263, -0.169229, -0.263926, -0.253595, 1.437346, -0.102063, 1.06929, -0.66903, 0.656115, -1.312614, -0.271357, 0.339548, -0.40529, -0.648499, 0.079835, 0.513346, 0.617415, 0.025399, -0.370356, 2.495476, 0.625526, -0.04613, 0.331116, 0.754588, 0.511666, 1.18046, 0.163453, 0.677982, -0.449951, -0.172904, 0.263647, -0.932082, 0.626406, 0.985162, 0.066008, 0.469565, 1.109773, -0.493662, -0.392107, 0.748735, -0.361735, -0.251279, 1.178731, -0.144233, 1.492278, -0.007318, 0.596466, 0.436804, 1.106389, 0.624225, 0.257528, 1.062245, 0.331321, 0.7354, -0.639482, 0.895854, -0.271913, 0.493286, 0.257058, 0.542742, -1.49989, -0.92309, -0.188658, -0.382668, -0.104978, 0.299196, 0.999897, -0.14249, -1.143247, 0.106196, 0.367501, -0.091962, 0.42033, 0.713734, 1.800013, 0.193454, 0.339491, 0.822259, 0.58155, 1.508089, 1.85671, -0.383635, -1.530781, 0.260539, -1.381846, 0.699763, 0.802801, 1.40809, 1.051006, 1.107124, -0.598962, 1.113779, -1.243552, -0.535045, -0.913373, 0.794289, 0.256273, 1.977166, -0.285224, -0.184944, 0.918531, -0.030456, 0.562986, -0.115325, 1.598275, 0.910777, 0.493948, 0.619247, -0.95236, -1.111993, -0.492395, 0.887097, 0.209747, 0.371625, 0.483946, -0.260411, 0.163782, 0.350062, 0.337697, 0.852487, 1.715919, -0.475374, 0.900543, 0.077833, 0.672019, -0.585699, -0.22905, -1.045105, 1.026991, -0.034679, -1.794149, -1.055402, -0.053095, -0.443711, -0.059087, -1.295561, 0.260449, 0.910146, 0.099434, 0.89406, 0.294748, 0.78176, -0.566186, -0.285897, -0.216286, 0.409954, 0.618838, -0.426733, 1.459743, -0.744326, -0.289341, 1.189244, 1.489476, 0.063569, 0.414873, 0.268804, -0.719358, -0.27917, 0.908985, 0.49059, -0.365261, 1.336548, 0.798472, 0.149722, -0.213372, 0.76951, 0.285625, 1.003852, 1.420428, -1.642756, 0.549159, 0.540508, 0.918823, -0.794246, 0.81259, 0.648388, 1.494678, 0.834079, -0.242587, -0.101971, 0.272824, 1.297272, 0.402429, -0.259149, 0.608089, -0.875889, 0.041035, 2.3345, 1.198737, 0.589836, -0.158994, 0.290027, -0.027093, 0.903459, 0.143882, -0.33933, 0.654039, -1.643886, 0.45542, 0.957634, -0.799666, -0.292905, 0.81456, 0.251622, 0.226503, 0.446641, -0.691381, 1.103724, -0.649861, -0.096916, -0.888774, 0.392157, -0.1728, -0.533663, 0.090837, 0.614467, 0.695722, -0.641843, -1.137955, 0.695123, -0.495005, 0.296935, -0.081328, -0.223165, 0.705368, 0.357429, 0.776051, 0.246127, -0.386508, 0.008708, 0.233287, 1.6598, -0.912732, -0.156698, 0.39729, 0.033237, -1.600877, 0.294121, 0.985778, 0.314733, 0.704177, 0.644046, -2.015087, -0.824012, 1.0658, -0.900575, -1.012975, -0.686877, -0.632739, 0.046174, 0.195501, 0.21891, 1.937539, 0.907574, 0.145043, -0.686744, -1.466727, 1.02463, 1.120112, -0.71787, 0.49534, -0.523344, 1.446031, -0.471601, 1.052128, 0.228652, 0.027058, -0.542143, 0.414994, 1.168251, -1.468694, -0.743822, 0.453113, 0.858956, 0.103289, -0.01664, 1.072207, 0.184057, 1.407363, 0.771275, 0.542272, 1.584968, -0.110901, 0.224049, 0.162957, -0.816795, -0.207856, -0.475875, 0.869288, 0.985172, 1.318306, 0.575909, 0.999611, -0.52434, 0.824578, 1.059053, -1.724243, -0.863483, -0.158358, 1.409259, 0.248541, 0.355024, -0.574564, -0.884409, 0.280911, 0.265298, -0.483694, 0.820644, 0.951736, -0.810925, 0.536469, -1.216001, 0.061969, -0.068586, 0.53638, -1.136198, -0.233474, 1.399948, -1.112909, -0.763853, 1.514782, 0.767825, 2.543595, 0.947422, 1.454879, -0.214168, 0.612649, 0.355808, -0.033738, 1.677315, 0.688676, -0.116443, 0.880102, -0.416127, -1.453097, -0.634238, 0.111618, 2.338073, -0.786633, 0.05766, 0.681268, 0.128808, 0.730373, 1.614593, 1.168429, 0.272638, -0.48585, -0.299564, 0.494697, -0.419147, -1.49088, -0.687186, -0.423003, 0.179813, -0.676879, -0.009042, 0.191254, 0.455578, -0.294663, -0.398965, -0.769364, -0.006015, -1.988901, 0.94478, -1.055017, 1.065704, -0.406483, 1.177664, 1.423847, -0.539451, 0.462485, -1.459965, 0.920399, 1.175247, -1.136948, 0.15812, 0.569436, -0.707592, -0.386907, 1.893844, 0.58478, -0.011105, 0.564833, 0.344234, -0.486127, 0.996697, 1.634967, -0.40415, -0.023128, 0.736865, -0.091405, -1.221669, -0.647306, -0.261295, 0.276172, 0.047396, -1.289609, 0.197398, -0.51403, 0.421344, -0.802592, -0.296586, 1.110927, 0.9406, 1.200283, 0.380837, -0.501626, 1.694024, 1.168474, 0.810724, -0.277983, -0.332347, 0.109103, -0.420294, 0.776302, 0.913908, 0.292973, 0.905926, 0.270559, 0.722426, -0.131189, 0.579682, -0.099115, 0.576247, -0.061335, -0.044628, -0.504778, 0.611724, -1.749979, -0.081118, -0.625447, 0.571418, 1.959356, 0.632345, 0.734844, 1.162402, 0.57423, 2.295462, 0.246728, -0.570611, 0.615151, -0.532922, 0.75402, -1.516298, 0.506376, 0.138116, 0.161498, 0.367821, 0.502521, 0.038602, 0.994847, 0.613931, 0.225828, -0.063316, 1.034367, 0.379179, -0.240285, -0.334966, -0.389369, -0.178707, -0.154825, 0.023611, -0.449456, -0.815091, -1.764581, 0.308808, 0.446913, 1.191055, 0.618201, 0.243566, -0.310554, 0.346917, 0.053745, 0.202169, 0.41529, -0.566283, -0.684976, 0.060932, -0.220213, 0.118681, -0.20314, 0.73915, 1.3753, 0.961211, -0.469478, -0.093518, 0.4824, -0.199838, -0.181901, 0.496777, 0.14771, 0.286763, -0.208512, 0.58711, 0.291535, -0.572257, 1.251857, 0.11155, 0.572834, 0.953421, 0.299852, 0.656907, -2.544679, 1.35566, -0.635724, -0.104648, -0.04969, 0.029701, -0.248984, 0.102579, -0.403831, 0.021767, -0.209825, 1.500111, 0.75867, -0.644735, 1.378662, 0.312283, 0.504041, 1.196267, 1.393878, 0.480421, -0.850362, 0.100745, 0.014704, -0.175148, -0.157012, 0.852464, 2.458648, -0.53635, 0.037548, -0.49314, 0.402496, 0.655857, 1.017077, -0.928614, -0.944114, 0.424766, -0.155768, -1.363667, 0.207145, -0.17025, -0.17343, 0.206635, -0.39188, 0.163748, 0.819477, 0.439233, 1.112202, -0.262575, 0.185658, 0.26467, 0.700394, 0.37689, -0.647276, -0.112888, 0.580356, -0.288827, 0.077058, 0.546163, 0.569959, 1.277526, 0.624905, 0.314631, -0.276596, -0.706355, 0.002548, 0.90108, 0.445049, -0.21157, 0.042145, 0.551228, 0.003452, -0.243879, 0.212194, -0.53818, 0.303085, 1.399124, -0.097618, 0.590087, -0.515065, 1.553046, -0.992608, -0.634448, 0.376285, 1.754073, -0.242619, 0.417676, -0.064864, -1.012792, -0.36103, -0.238102, 0.452716, 0.077237, 0.018499, 0.432858, 1.490063, -0.539659, -0.286474, 0.620757, 0.881701, 0.574577, -0.023413, 1.053714, -0.474744, 0.132978, -1.398583, -0.610992, 1.077425, 1.661261, -1.445944, 1.008064, -0.177965, -0.41106, -0.734022, 2.04637, -0.442995, -0.693054, 0.535205, 0.657405, 0.048031, 0.884399, -0.420073, -1.05529, 0.249387, 0.375399, -0.905501, -0.016878, 0.097117, -0.33313, 0.583277, -0.577039, 1.100601, -0.708638, 0.042033, 0.334128, -2.047943, 1.106753, -1.620078, 0.523707, 0.048834, 1.081356, -0.783775, -0.053016, 0.426165, 0.302488, 0.708076, 0.805567, -0.044889, -0.908076, -1.485271, -0.536881, 1.108856, 0.194932, -0.100195, 0.071093, -1.595007, -0.176416, -0.494753, -0.076259, 0.46766, 0.71446, 2.749009, 0.088307, -0.205757, 0.204898, 1.441495, 0.801682, -0.610429, 0.317843, -0.411263, -1.94169, -0.013071, 0.389944, 0.989401, 0.580599, 0.767658, 0.356112, 0.951985, 0.299956, 1.133194, 0.216802, 0.818034, 0.430762, 0.990817, -1.005791, 0.652977, 0.14413, 0.247223, 0.358486, -0.151882, -0.670432, -0.733074, 1.046686, 0.501063, -0.860981, 0.58457, -0.873537, 0.674455, 0.991627, 0.154566, -0.440973, 0.542803, 1.667973, -0.574322, 0.628695, -0.804572, -0.35684, 0.280579, -0.17497, 0.644015, 0.066806, 1.388662, 0.559064, -0.541237, 0.946824, 0.802581, 0.957187, 0.051295, 1.752052, -1.369988, 0.580289, 0.40514, 0.0086, 0.190931, 0.288267, 0.738008, 1.321532, 0.184719, 2.229377, 1.154013, 0.185638, -1.179514, -0.320555, 0.280038, 1.119776, 1.110248, 0.139052, -0.771919, 0.343535, 0.430732, 0.3031, 1.8983, 0.902868, 0.334579, -0.483246, -0.715174, 0.699017, 1.858835, -0.026059, 0.866714, -0.231092, -0.413699, 0.883009, -1.252072, -0.547685, 0.399863, 0.140703, -0.743076, 1.809594, -0.680526, -0.196472, 1.207825, 0.143674, 0.580162, -0.528356, -0.851775, -0.004093, 0.488886, 0.072877, -0.223617, 0.494003, 1.023427, -0.950301, -1.048794, 0.493248, 1.002093, 1.962308, -0.096653, -0.106932, -0.03783, 1.025177, -1.389708, 0.04796, 1.870793, 0.109912, 0.508889, 2.079661, 0.786858, 0.272718, 0.563513, 0.882711, -0.42769, 0.513878, -0.27198, 0.75107, -0.194313, 0.313081, -0.640898, 0.410994, 0.241971, -0.127691, -2.101813, 0.42936, 0.204512, 0.547355, 0.313835, 2.439361, 1.0554, 0.123565, -0.2313, 0.197846, -1.327182, -0.279573, 0.667949, 0.565523, 1.180151, 1.673341, -1.585994, -0.925724, 1.462783, 0.472943, -0.563943, 0.234364, -0.898437, 0.059666, 0.234279, -0.614987, -0.004426, 0.827118, 1.292714, -1.558325, -1.054443, 0.698476, 1.949242, -0.688329, 1.157682, -0.338821, -0.190076, -0.110046, -0.480048, -1.294784, 0.218101, -0.601362, 0.689952, 0.947923, 0.783192, 1.458319, -0.863875, -0.199287, 0.38498, -0.21865, 1.274688, 1.317856, -0.478261, 0.547896, 0.416363, 0.421405, 0.593784, -0.484772, -0.519338, -0.281274, 0.54099, 1.938699, 0.075414, -0.043389, -0.768765, 0.414635, 0.548373, 0.273554, 0.064845, 0.88485, -0.847143, 1.055523, -0.507838, 0.209373, 1.524256, -1.123426, 0.612576, 0.640101, 2.071077, 0.830148, -0.181021, -0.492111, 0.047804, 0.742514, -0.164559, -0.085546, 0.701836, -1.518823, -0.182744, 0.096919, -0.55867, 1.20311, -1.104373, 0.802568, 0.195885, 0.820962, 1.475575, 1.771557, 0.752631, -0.420119, 1.722237, 0.008292, -0.563118, 0.55922, 0.665209, 0.882635, -0.494383, 0.511211, -1.551915, -1.693349, 0.014676, 0.183706, -1.09295, 0.913314, 0.958197, -0.933197, 0.838979, 0.812442, 1.089901, 1.423736, 0.967871, 0.416596, 0.399605, -0.350151, 0.26351, -1.88138, 0.957623, 0.664263, -1.173132, 0.10158, 0.108012, 0.136534, 1.017059, 1.657215, -0.672905, 0.04503, -0.553509, -0.264506, -0.754478, 0.640111, -0.447058, -0.565739, 0.160504, -0.525364, -0.084514, -0.918974, 0.498165, 1.10638, 1.472269, -0.334178, 0.824165, -0.824098, -0.326387, -0.508783, 0.887106, 0.947501, -0.018003, 0.742475, 0.05814, -0.002704, 0.595953, -0.38194, 0.931877, -0.015613, 1.212486, 0.962426, 0.261255, 0.549236, 0.081518, -0.307949, 0.055448, 0.36048, 0.283795, -1.804846, 0.070563, 1.010335, -0.781297, -1.26056, 0.216204, 1.273363, -0.020751, -0.121068, 2.257167, 1.297527, 1.495366, -1.414733, -0.203741, 0.612931, -0.201379, -0.642952, -0.175576, -0.089902, 1.058259, 0.741418, -0.055386, -0.580558, 0.419333, 1.895356, -0.337382, -1.495105, -0.013975, 0.459256, -0.589257, -0.197672, 0.474976, 1.16577, 0.567343, 1.153465, 0.337149, -0.499981, 1.410296, -0.033335, -0.991197, 1.888379, 1.326337, -0.040884, 1.301526, -0.318038, -0.19746, -0.613786, 1.104817, 1.552785, 0.405848, 0.071802, 0.913627, 1.222625, 0.622578, 0.866442, 1.504946, 0.138073, -1.01114, 0.019085, -0.841104, 1.136411, -0.298547, 0.108206, -0.136551, -0.444185, 0.665822, -0.136846, 0.281622, 0.088472, -0.296652, -0.233999, 0.80032, 0.15217, 0.213818, 0.64574, -0.867296, 0.320058, 0.654379, -0.273056, -0.091064, -1.687669, -0.166481, 0.469188, 0.067398, -0.215408, -0.054383, 0.354685, 0.426323, 0.071709, -1.093095, 0.290875, -0.983709, 0.019865, 0.421446, 0.808026, 0.284956, 0.159545, -1.368478, 1.615995, 0.753194, -0.259522, 0.933158, 1.697785, -0.080101, -0.889299, -0.315528, -0.203367, 0.517476, -0.782478, 0.026641, 1.637904, 1.050463, 1.273307, -0.33399, -1.106661, 0.150976, 0.649221, 0.342444, 1.30176, 1.560161, 0.613405, 0.301683, 1.354484, 1.188143, -2.487002, -0.050206, 0.753659, 0.508806, -0.731397, -0.045238, 0.415268, -0.591234, -1.589536, -0.744725, -0.206776, 0.894154, 2.114892, -0.315745, 1.072779, 0.211357, 0.291839, 0.537761, 1.182901, 0.582424, 0.103256, 0.238236, 0.534079, 0.633093, 1.948092, 1.43868, 1.164555, 1.758569, 0.390527, -1.371092, 0.383472, -0.377389, -0.475965, 1.857581, 1.036017, 0.924611, -0.662856, -1.432991, -0.089251, 0.535449, -0.456724, 0.150048, -1.612414, 0.132308, -0.058832, 0.616191, -0.028301, 1.865341, -1.072895, -0.213647, 1.553647, 1.36865, -1.046976, 0.763086, 0.508562, -0.989951, -2.076805, 0.308856, 1.096557, -0.208779, 0.709912, -0.437424, 0.266652, -1.09236, 0.769473, 1.980786, 0.619936, 0.899415, -0.101872, 0.471656, 0.990742, -0.186215, 1.491055, -0.341841, 0.737066, -0.543512, 1.358817, 0.456826, 1.436912, 1.484409, -0.531161, -1.042031, -0.601102, 0.61289, -1.366568, 1.544518, 1.126946, 0.456906, -0.223828, 1.575874, -0.185811, -0.681896, -0.14348, 0.099807, 0.17694, 0.003021, -0.316964, 0.073173, 0.240061, -0.137263, -0.109264, 0.863618, -0.608227, -2.531393, 0.609278, 0.825564, -0.706659, -0.014954, -1.482399, 0.814481, -0.644692, -0.161886, 0.570929, -0.414943, -2.633351, -1.097451, -0.876934, -0.035449, -1.072697, 0.853131, 1.211563, 0.920514, 0.724293, 1.496431, -0.80786, 0.801928, 0.500918, -1.815734, 0.79257, -0.252971, -0.685812, -0.620582, -0.474173, -0.469152, 0.439477, 1.077398, 0.861506, 0.045143, -0.627667, 0.104424, 0.339938, -0.807688, -0.521744, 1.176335, 0.922891, -0.200888, 0.503849, 2.009956, -0.759681, 1.144769, 0.247651, 1.300228, 0.725301, 0.340365, 1.64455, 1.103778, -0.305407, 2.229319, -1.172125, 0.520719, -0.247621, 0.079777, 0.929231, -0.023536, 0.229889, 0.768854, -0.2259, 0.652485, 1.890604, -0.160104, 0.569798, 1.222057, 2.344557, -0.998631, -0.980067, 1.213392, 1.084066, -0.089142, -1.309934, 0.040893, 0.440975, -1.666862, 0.558107, -1.930908, -0.080697, 1.299724, 0.80285, 2.358179, -0.429704, -0.694824, 0.861968, 0.167461, 0.614697, 0.862399, 0.668334, 0.913211, 0.988649, 1.240517, 0.2949, -1.58945, 1.125759, 0.65921, -1.392888, -0.428772, -0.498359, 0.541628, 1.264079, 0.753936, 0.623852, -0.448738, 0.440469, -0.53873, 0.735624, 2.445978, -0.153068, -2.355732, 0.692596, 0.903439, 0.893262, -0.116857, 0.509157, -0.476149, -1.076765, -1.681761, 0.373369, 0.521864, -0.87109, 0.880642, 0.775416, 1.07382, -0.199322, -1.317163, -0.939711, 0.138798, 1.823696, 1.705346, 0.023475, 0.220183, 1.03692, 1.233402, 1.765381, 1.363593, 0.862048, -1.068981, -0.386167, -0.650974, 0.635512, -1.351668, -0.100666, -0.076734, 1.981128, 1.069406, 1.431467, 0.940819, 0.062716, -1.617039, 0.81136, 0.303153, -0.283044, 0.133692, 2.795422, -1.866825, 0.600786, 1.068388, 0.287414, -0.926064, 2.352627, -2.910451, 2.07223, 0.685125, 0.506183, -1.025668, -1.801871, 0.599004, -0.473521, 0.884478, -0.436171, 0.958081, -0.006042, -3.384044, 0.727634, 1.159748, 0.577738, 1.473763, -0.287753, -0.057188, -0.277334, 1.448725, 1.508466, 0.414553, 0.838823, 0.173618, -0.194146, -0.096703, -0.496136, -1.645748, 0.378624, -0.262549, 1.296114, 0.405204, 0.226123, 0.560521, -0.508308, 0.132097, -2.281304, 0.138774, -0.394974, -1.316541, 1.181193, -1.586472, 0.51558, -1.368783, 0.402136, 0.768445, 0.121491, -0.547592, 0.306166, -0.078292, 0.093374, 3.468658, 2.257212, 0.774568, -0.118407, 0.88913, 0.328468, -0.431966, 0.333084, 0.995694, -0.822687, -0.143835, 1.613196, -1.252079, 2.780451, 0.363446, 2.44862, 1.954327, 0.270502, -0.779202, 0.135876, -0.357652, 0.251935, -0.041417, 0.979882, -1.959693, -0.642362, 0.715427, 2.112523, 1.125988, 1.492738, 0.593101, -1.574799, -0.931276, -0.063203, -0.528872, 0.809756, 0.038103, 1.147098, -0.639797, 0.541817, 1.428112, 1.069038, 1.121455, -0.897712, -1.78324, 0.228849, 0.172468, -3.912269, 0.567451, -0.974111, -0.28136, 1.372975, 2.146054, 0.367601, -0.237036, 0.553472, -0.737805, 2.015851, -0.323692, 0.873834, -0.462222, -1.356017, -1.218884, 1.575613, 0.594287, -0.12238, -1.922015, 0.126316, 0.851917, -0.448781, -0.360694, 1.519071, -0.219852, 0.719334, -0.146281, 0.355514, 2.254566, 0.425977, -0.411504, 2.63014, -1.032749, 0.693185, -0.210041, -0.193987, 1.048291, -1.946307, -0.194263, -1.240372, 1.142195, 0.539816, -0.155891, 0.373781, 0.931053, -0.368223, -0.998415, -0.47211, -0.343887, 0.988963, 0.891818, -0.278744, -0.627294, 1.278316, 0.165627, -0.524374, 0.230792, 1.276813, -0.952413, 0.228012, 0.066608, -2.61916, 1.050449, -0.28478, 0.46662, -1.112456, 0.264326, -1.068761, 0.806852, 2.183453, -1.224508, 1.018946, -0.31307, 1.776258, 0.187572, 0.698874, 0.358382, 0.999856, 0.887862, -0.25502, -0.611226, 2.577957, -0.876179, -1.675478, 0.64574, 0.604459, 0.192499, -0.61993, 0.981344, 1.37015, -0.286702, 0.657404, -1.249805, 1.159018, -0.464251, -0.348075, -0.904092, 0.991845, 0.35029, -0.325332, 1.258063, 0.495139, -0.356385, -0.458869, -0.832346, -0.194651, 1.463833, -0.673587, 0.279314, 0.880764, 0.483752, -0.044278, -1.465282, -0.385327, -0.902699, -0.723528, 1.354636, -0.384715, 1.710606, 0.740917, 0.690842, 0.399884, 0.232521, 1.039906, 0.910048, -0.482747, 2.399683, -1.831631, -0.104454, 0.947255, 1.669419, 0.429927, 0.795784, -0.769908, -0.373632, 0.118927, 0.324676, 0.029109, -1.270363, 0.348173, 0.906076, -1.07906, -0.309925, -0.001748, 0.100901, -0.678878, 0.706727, -0.179693, 0.877896, 1.413241, 0.134097, -0.02326, -0.165942, -1.576508, 0.005839, -0.720861, 0.348917, 0.742199, 0.742396, -1.026495, 0.838512, -3.443237, -0.245275, -0.652815, -0.637327, 1.466031, 0.982035, 1.088748, 0.130032, 0.437639, 1.326643, -0.358777, 0.971102, 0.620525, -0.636211, 0.937636, -2.459091, -0.387479, -0.014464, -0.895874, -0.606942, -0.543845, 1.351114, 1.022908, -3.183027, 2.735634, 0.187821, 1.420984, -1.38368, 1.185225, 0.441877, 0.404622, 0.207307, 1.355373, 0.028909, 1.381557, 1.857164, -1.430036, 0.44609, 0.998742, -1.355957, -1.02602, 0.280901, -0.316204, -0.237938, -1.848819, 2.082197, 3.027245, -0.265287, 0.33842, 0.187996, 1.432887, 1.503216, 0.157136, 0.125333, -0.485299, -0.359874, 1.635131, 0.607868, 1.262755, 2.732163, -0.118559, 0.228672, -0.537458, 0.47686, 1.651308, 0.616996, 0.080876, -0.319467, -4.171867, 2.248099, -2.347535, -0.875796, -0.60488, 2.435036, 0.883588, 0.458718, 2.091122, -1.393242, -1.125962, -1.417006, -0.874707, 0.912317, -1.009917, 0.072466, 1.329962, -0.273589, -0.207254, 0.818159, 0.664117, -0.743825, -0.08469, -0.604393, 0.071407, 1.910742, -0.26831, 0.121583, 1.542759, -0.942885, 0.942585, 2.666119, -1.659233, -0.995987, 1.035125, 0.339234, 0.301143, 0.973904, 0.335791, 1.455398, -1.25907, -0.666584, 0.210689, 0.255643, 1.27941, -0.338234, 0.10861, 0.79359, -0.341531, 1.68871, -0.034149, -0.594607, 0.034893, 0.313084, 0.13948, 0.285059, -0.488196, -0.453528, -1.251915, 0.208822, -0.074863, -2.0079, -0.535902, -0.364086, -0.510381, 1.628548, -0.965217, -1.687871, -0.313529, 0.650575, 1.958824, 0.168342, 1.360548, -1.852775, -1.225675, 0.720578, 0.676682, -0.75047, -0.567892, -1.268087, -1.532658, 0.857976, 0.39861, -0.614604, -0.469639, -1.120895, 1.356531, -0.531069, -0.329409, 0.596603, -0.398556, -0.894464, 0.631352, -0.403816, 0.383473, 0.372543, -0.531343, 0.462186, 1.614983, 1.777678, 0.798567, 1.630952, 1.017717, -1.543477, -2.5391, -1.200627, -0.100401, 1.036958, 1.269009, 2.621285, -1.114168, -0.35733, -1.545285, -1.518094, 0.022863, -1.174836, 0.871658, 0.25664, 0.421864, -0.83402, 0.036314, -0.249497, 1.881743, 1.386174, -0.275511, 0.248583, -1.350785, 0.349059, -1.594946, 1.989853, -0.174413, -0.534085, -1.025753, -0.592696, 0.543799, 1.283393, -0.308309, 1.733902, -1.982008, 0.65013, -0.678612, 1.913084, 0.864854, -1.080845, 0.241737, 0.556131, 0.651536, -0.196501, -2.258992, -2.625526, -0.00036, 0.160752, -0.398274, -1.451539, 0.744262, 0.859787, -0.245318, 2.756088, 1.762847, 1.37196, 0.172526, -2.102364, -0.550767, 1.029728, 0.049506, 1.294931, -0.44867, 1.861684, -1.966263, 0.861924, 0.164212, -0.411725, 0.758746, -0.201666, 0.119981, 0.547335, -1.331669, -0.209711, -0.30424, 1.439839, -0.559613, 0.05497, 0.098315, 0.996259, 0.192717, 0.417782, 0.095394, 2.901193, 0.705086, -1.350069, -0.008371, -0.556597, 0.954066, 1.05193, -2.46721, -1.456987, -0.039715, -1.433882, -0.16709, 2.165987, 0.32554, -2.518939, -0.290556, -0.24059, -0.713854, 0.046414, -0.693681, 1.559208, -1.041436, 0.56666, 0.190429, 0.925788, -0.19531, -0.447905, 1.161448, 2.179293, 1.080377, -0.220194, 3.7768, 1.150329, -1.926563, -1.857598, -0.845916, 0.205207, 1.19682, 0.101476, 1.273228, -0.835719, 1.408395, 0.78903, 1.226702, -0.806255, -1.290395, -1.169927, 1.789994, 0.34023, 2.009721, 0.484002, -1.9499, 0.855363, -1.066054, 0.542309, -0.266216, -0.130455, 0.66148, 1.469532, 1.33281, 0.83732, -0.759265, 0.943744, 1.335359, 0.144047, -0.817287, -0.089537, -2.169238, 0.620305, -0.580568, -0.072526, -2.059363, -0.244102, 0.353082, 1.495466, 0.972024, 0.211728, 0.657191, -1.75418, -3.833688, 0.445993, -0.840837, -0.062002, -2.460634, 0.193683, -0.691174, -0.59877, -0.087203, 1.539304, -0.589227, 0.041994, 1.76851, 0.60944, -1.907222, 2.997465, 0.610914, 0.589434, 1.006689, -0.110655, 1.655413, 1.160509, -1.841535, -2.134789, -0.259839, 1.043249, 1.469623, 0.216303, 1.033787, 0.639907, -0.493168, 1.594568, -1.77349, 2.092587, -0.724077, 0.083807, 0.946468, -0.23314, 1.124647, -0.440294, -0.683242, 0.030337, 0.193277, -0.234235, -0.437389, 0.570394, 1.509293, -0.874233, 0.894493, -3.067265, 0.419845, -0.580623, -0.180636, -2.370543, -1.328418, 1.07908, 0.005153, -0.187437, -0.56282, -0.116615, 0.242387, 0.163875, 2.402564, -1.773368, -0.526781, -1.200886, -0.231863, -0.404744, -1.653893, -0.427898, -1.078642, 0.019359, 1.072227, -1.595345, -1.048717, 0.818616, -2.305429, 1.074055, -0.809739, 0.339304, -1.622962, 1.532611, 0.446918, 1.482183, 0.601303, 1.837109, -0.637131, -0.82036, 0.813788, 1.048605, 2.518628, 0.735381, -0.148529, 0.037805, -3.859359, 0.564059, -0.202189, 0.992663, -0.666195, -1.378007, -1.016611, -0.087717, 0.626965, 2.251597, -0.946043, -0.444775, 0.482841, 0.673535, 1.810354, -0.200895, -0.017332, -0.878156, 0.992694, -1.154188, 1.992475, -1.127354, -0.212898, -2.793146, -1.856192, -2.302201, 0.223581, -1.517832, 2.591466, 1.32362, -0.906196, 0.47624, 1.160529, -0.217297, -0.19136, -0.292528, -0.43742, 2.522362, -0.705021, -1.114685, 0.155672, 1.242989, 0.103003, 0.485953, -0.878312, -0.129152, -1.54425, 0.563186, -0.731708, 0.236726, 2.63662, 1.093877, 0.688336, -0.186409, 3.628728, 0.058904, 0.952131, -1.318242, -1.413023, 1.813485, 1.654522, 0.485489, -0.43305, 0.424194, -0.039982, 1.130287, 0.529443, 0.028296, -0.938266, -1.804512, 0.490108, -0.480652, -0.41655, 0.943703, 0.349253, 0.967005, -1.358529, 0.494568, -0.053319, -0.54042, 1.360545, -0.028484, 0.679199, 0.055238, 0.532174, -0.926715, 0.604718, -0.741108, -0.222617, 0.488608, 0.221309, -0.453584, -0.631591, 2.141043, -1.354727, -2.930513, -0.349798, 1.390314, -1.58163, -0.706495, 1.520594, -0.066341, 1.315654, 0.659106, 0.122218, -2.457002, -0.095968, -0.490498, 0.009678, -0.840882, -1.303878, 1.366006, 0.605772, 1.569715, 0.739117, -0.126338, 1.282143, -2.276002, 0.347489, -0.320048, 1.416143, -0.954174, 0.212942, -0.905885, -0.446367, 0.83562, 0.966697, 0.157869, 0.338811, 1.591787, -0.04654, -0.183073, -0.092339, -0.448916, 1.333811, 0.948801, -1.310996, -0.434087, 0.86786, 0.63456, -0.256406, -0.073686, -0.283237, 0.642581, 0.148175, -1.821428, -0.600871, -0.695779, -1.293673, -0.300351, -2.503054, -0.970898, 0.379839, 1.754681, -1.140086, 1.276058, -0.71024, 0.08859, -0.077892, -1.593212, -0.487191, -0.809519, -0.003566, -1.052461, 0.538323, 1.661189, -0.629303, 1.012719, 2.610973, -0.468485, -1.198152, -1.016298, -1.621314, -0.401998, 0.15351, -0.789151, -1.27817, 2.296639, 0.975936, 1.469198, -0.241088, -1.513326, -0.423148, -0.667963, -2.976809, -0.456037, -0.785667, -0.521285, -0.895798, -1.328362, 0.246178, 0.088535, -0.349851, 0.410125, 0.555296, -1.395091, 0.825371, 0.336266, 0.267823, 1.967494, -1.171456, 1.353295, -1.080826, -0.407629, 1.384058, 2.063916, -1.544611, 0.649753, -0.736997, -0.333478, -0.239174, 0.537544, 1.847919, 1.241556, -0.514391, 1.825479, 0.479545, -0.619158, -0.849837, -0.192992, 0.585946, 1.345738, 0.62425, 0.274044, -0.614265, 0.017442, -1.272408, -0.050166, 0.924958, 0.944825, -0.981203, -0.695529, 0.425664, 0.093351, -0.194896, 2.128117, -0.176888, 0.104076, -0.788749, -0.13447, -1.774921, 0.321545, 0.846022, -1.579896, -0.653111, 0.122092, 0.030053, -0.945932, -1.956903, -1.087131, 0.338809, 0.003016, 0.518034, 0.253446, -0.916905, 0.23693, -0.279126, 0.345635, 0.00746, -0.799155, -0.196473, -2.62769, -0.472636, 0.798686, 0.345507, 1.688697, -0.717629, 0.702813, 0.039527, -2.356763, -0.299043, -0.103945, 0.069541, -2.189662, -0.864735, 0.446591, 0.541104, 0.749014, 0.077781, -0.012312, -0.417935, -0.560629, 0.172387, -0.061661, 0.527306, 1.174871, -1.026661, 1.753978, 0.109909, -0.387329, 0.339802, -0.718831, -0.835634, 0.389743, 0.156736, 0.182146, 0.399497, -0.145648, 0.084254, 1.895227, 0.888833, 0.39269, -1.389079, 1.16955, -1.309682, -1.615301, -1.555622, -0.929059, 0.021603, 1.269345, -0.508561, -2.049482, 0.773025, 0.32845, -0.597929, 0.505546, -0.334184, -0.048344, -0.31107, 0.611101, 1.831833, -0.045922, 1.111419, -0.778749, -1.784946, -0.456032, 0.462069, 0.190969, -0.516144, -0.447392, 0.01535, 1.083306, -2.103976, -1.407434, -0.188457, -0.497088, 2.124492, 0.158906, 0.908026, 1.156716, 0.706401, 0.448477, 0.063124, -0.912591, -0.843385, -0.119616, -0.296786, 0.391797, 0.61203, 0.769853, 0.197876, 0.819509, 1.117016, 0.005769, 0.240649, -0.002883, -1.3352, -0.245846, 0.326249, -1.436868, 0.371734, -0.654024, 0.085177, 1.316811, -0.08269, -0.744914, -0.579369, 0.765605, -0.518138, 0.863827, 0.151985, 0.451143, -1.111467, 0.150987, -2.35019, 0.830397, -1.325792, 1.169007, -2.125087, -0.427131, 2.183907, 0.101736, 0.90005, 0.250379, -0.673719, 0.812114, 2.953156, -0.692944, -1.36754, 0.53257, 0.662952, -1.167732, -0.66847, -1.149207, 1.969157, -0.623098, -0.163342, 0.774793, 0.542814, -0.216053, -2.566478, -0.386933, -0.14249, -0.380722, -1.304211, -0.733999, -0.851523, -1.001854, -0.277795, 0.872385, 0.046665, 0.542896, 0.431855, -0.122917, -2.211815, -0.444358, -2.079641, -0.666194, 0.627205, -0.050662, -0.676398, -1.413872, 0.533978, -0.784893, -0.579033, 0.301747, -0.498979, 0.152752, -0.581368, 0.096478, 0.159873, -0.008054, -0.639149, -0.490984, -0.072912, 0.468711, 1.887632, -1.213103, -0.751863, -0.006356, -0.586195, -0.480136, -1.14193, -1.020408, 1.355073, 1.850207, 0.009805, 0.0043, -0.801246, 3.024372, -0.113904, -0.532348, -0.118809, -0.649074, -1.374526, 0.471433, -0.967684, 0.560568, 1.673411, -1.637124, -0.967543, 0.740253, -0.535507, -1.419906, -1.055317, 0.454966, -0.150987, 1.573948, 0.302211, -0.868521, 0.00865, -0.322099, 0.161172, 2.286813, 0.679881, -0.199173, 0.522807, -0.59727, 0.242281, 1.369453, -0.531121, 0.494021, -1.458151, 0.581898, -0.300694, 0.574574, -0.219724, 0.247275, 0.256708, -1.196171, 0.096639, -0.205041, 0.719226, -0.44024, -1.198513, 1.665216, -0.775091, 1.313226, 1.723207, 0.644077, -0.261639, 0.716317, 0.305591, 1.292548, -0.792686, -0.155455, -0.274567, -1.474687, 1.87104, 0.92614, -1.54182, -0.295015, -0.627965, 1.155781, -1.204941, -1.568388, -0.224792, -1.240021, 0.579721, 0.439225, -0.117902, -0.722424, 0.013678, 1.12381, 0.975331, -1.080972, -1.939791, -0.136428, -0.153752, -0.809285, 0.620043, -0.327244, -0.261161, 0.320243, 0.045324, 0.476779, 0.219911, 0.345746, -1.125592, 0.834994, -0.447336, -0.323375, 0.091475, -0.559314, 0.872431, 2.448936, -0.65674, 2.619292, -0.483957, 1.684796, -0.187542, 1.723831, 0.391389, -0.584623, 0.561068, 1.08084, 0.620915, -0.223653, 1.098781, -0.787266, 0.163071, 1.194873, -0.94142, 0.653026, -0.896338, -0.311839, 1.762984, -0.396752, 1.063583, -0.275712, 1.758034, -0.562642, 0.210941, 1.346291, -0.857326, 0.71812, 0.709496, 0.339932, -1.642061, 0.965768, -0.114107, -1.310477, 0.780248, -0.562641, -0.738087, 0.915267, -2.103476, 0.644465, 0.740521, 0.968635, 0.121195, 0.498667, 0.93496, -0.805459, -1.304066, 0.280168, 1.561174, 0.29811, 0.5419, -0.605567, 0.849273, 2.052552, 0.417565, 0.984232, 0.471758, -0.321236, 0.049648, -0.696831, 0.155266, -1.365429, -0.487733, -0.948305, -0.182661, -0.023069, -0.751114, -1.541547, 0.204806, 0.392788, 0.16298, -1.16081, -1.302055, 0.636865, -1.400244, -1.432663, -0.472083, 0.80084, -0.760063, -0.312576, -0.471209, -1.470485, 0.508126, -0.259642, 0.273771, -0.046117, 0.787119, 1.774566, 0.761261, -2.207117, -0.548849, 0.782514, 2.208095, 0.304874, 1.140865, 0.797053, 0.066422, 1.350449, -1.867267, -0.55793, 1.45938, -0.538788, -0.705865, -0.258544, -1.02164, 0.371862, 0.28171, -0.064287, 0.020032, 1.416487, -1.046502, -0.118886, -0.139609, 0.369114, 0.694482, -0.34894, -1.19627, -0.311342, -0.28677, 0.454996, -0.452944, 1.521564, -2.383878, -0.09607, -0.802076, -1.816562, -0.674247, -0.944185, 0.346159, 0.57068, 0.211884, -1.04037, 1.915379, 0.7579, 0.024925, -0.011135, 0.038472, 0.353094, -0.474225, -0.354841, -0.118301, -2.120364, -0.388512, -0.706491, -1.734785, 0.162997, 0.596043, -0.761854, -0.439626, -0.042617, 0.159041, 1.458758, -1.556866, -1.163269, 1.016439, -0.135534, -0.327812, 0.365484, -1.520969, 0.561967, 0.853898, -0.462671, -0.804141, -0.61026, 0.43601, -0.697612, 1.31753, 0.52588, -0.744222, 1.247632, -0.058182, 0.73112, -0.75808, 1.018631, -0.018606, 0.218759, 0.623998, 1.03213, -0.001556, 0.059651, 2.220193, 0.031581, -0.832649, 0.877974, 0.723693, -0.14281, -1.638534, -1.145352, 1.166664, -0.466468, -0.129255, -1.546898, -1.233042, -0.553187, -0.681062, 0.559575, 0.929795, 0.501901, -0.196038, -0.532108, 1.523952, 0.651187, -0.078955, -1.322625, 0.228797, 0.024307, -1.206451, -0.564142, -0.032788, -0.781104, -0.062348, -0.035915, 0.032255, -0.531946, -1.62902, -0.426146, 0.303719, 2.204396, 0.274667, 0.302706, -0.350535, -1.104029, 0.526089, -1.157585, -2.770442, 0.539417, -0.248273, -0.996235, -0.060386, 0.951693, -0.682613, -0.156266, -1.769018, -0.789114, -0.026067, -1.320125, 0.774041, 0.54006, 0.590193, 0.446309, 0.993862, -0.092672, -1.235753, -0.04326, 0.962896, 1.561781, -0.705127, -1.05918, -1.669445, 0.788488, 0.135154, 0.067365, -0.441714, -1.609038, -0.953666, 0.719113, -1.085467, 0.738843, -1.118302, -1.177561, 1.858313, 0.272948, -1.249821, 0.485154, -0.142527, -0.09717, -0.364071, -0.3394, 1.443992, 0.42774, 0.155017, 1.490287, -0.48047, 0.750386, -1.162886, 0.012407, -1.98463, -1.017552, -0.53904, -0.336237, 0.254555, 0.055912, 1.968597, -1.135154, 0.538435, 0.100506, -0.106294, 0.618361, -0.562996, 0.517802, 0.617577, -0.391689, 0.503473, 0.10699, 0.140475, 1.37833, 1.587673, 0.281134, 0.171262, 0.409979, -1.61198, -0.247512, -0.125483, -0.079102, -1.389759, 0.700641, -0.557347, -1.013676, -0.64591, -0.771858, 0.713274, 0.183607, -1.489593, 2.041903, 0.799306, 0.211745, 0.621438, 0.340842, 0.551344, 1.863586, -1.240929, 0.094154, 0.409248, 0.193034, -0.088709, -0.326869, 1.626784, -1.604043, -0.779953, 0.197478, 1.49104, 0.472389, 0.380333, 0.516536, 0.8105, 0.227185, 0.070422, -0.198976, 0.442511, 1.519049, 1.287895, -0.191206, 0.176025, -0.694335, 0.450725, -1.266427, 0.463781, -0.35906, -0.67916, 0.027726, -0.670205, 0.165821, -0.527219, -0.046668, 0.399044, 1.355644, -0.810821, -0.741616, -0.609979, -0.188182, 0.063009, -0.624033, -0.715294, 0.114932, -0.12905, -1.728755, 2.473387, -0.390077, 1.041153, 1.679944, -0.702211, 3.079643, -0.96687, 0.562595, -0.111909, 0.110537, -1.280069, -0.68716, 1.72301, -0.761178, -1.798103, 1.549633, 0.018852, -1.059607, -0.361399, 0.594912, 0.121591, -0.934927, -0.02201, -0.753264, 0.15896, -0.218903, 0.807431, 0.365309, 1.566763, -0.810978, 0.871236, -2.502635, 1.959357, 0.544509, 1.723783, -1.691168, -0.567313, -0.293675, 0.479403, -1.203773, 0.275991, -0.812518, -0.524589, -2.055706, 0.4107, 0.589217, 1.224799, 1.369053, 1.309181, -0.020371, 0.527965, 0.47612, -0.467056, -1.695716, 0.807912, 0.675348, -1.639756, 0.290578, -0.0712, 0.167447, -0.32579, 1.008921, 1.246808, 1.317269, 0.660831, 0.295174, -0.450088, 1.91135, -0.090118, 1.244861, -0.969801, -1.04568, 0.938726, -0.100513, 0.33535, 0.32256, -0.396406, 0.494936, 0.879334, -0.402255, 0.315545, -2.073313, 1.208439, -0.275194, -0.021319, -1.27952, 0.506849, 1.661394, -0.259957, -0.687593, -0.76463, 0.567622, -1.091665, -0.855994, 0.996794, 0.145087, 0.598248, 0.075228, -0.46299, 0.162877, -0.704044, 0.269189, 0.91409, -0.130632, -1.155549, 0.584366, 0.348461, 1.812423, 1.243024, 0.719959, 0.595727, 0.387829, -1.540521, 0.656705, -1.942949, 0.20331, 0.705626, 0.100488, -0.095667, 1.864522, -2.202021, 0.687702, -0.499146, -0.004537, 0.42093, 0.512121, -0.606492, -1.22304, -0.684655, 0.106287, -1.491289, -0.593122, -1.011035, -0.625688, 1.020337, -1.299229, 0.613549, -1.60217, -1.255413, -0.997235, 1.694841, -1.660576, 2.272402, 1.910381, -0.788345, -0.509393, -0.943353, -0.853663, 0.58249, -0.048437, 1.153767, -0.109477, -1.05974, -0.899281, -0.766432, 1.192253, -0.893462, -0.956935, 0.868382, -0.207239, 0.429936, 0.09567, 1.916426, 0.651053, -0.835473, 0.86181, -0.733805, 1.092985, 1.13543, -1.452216, 0.481709, -0.802818, -1.287141, 0.310361, -2.482799, 1.221532, -0.135282, 1.47366, -0.335164, 1.148001, 1.108066, -0.067441, 0.398934, 1.43118, 1.63578, 1.258, 0.696221, -0.217439, 0.183998, -0.329723, -0.522579, -0.472849, 0.238466, -1.925895, -0.623271, 0.766703, -0.357758, -0.610257, -0.894932, 0.54755, 0.259814, -0.035383, -0.563674, 0.705608, 0.128079, 0.289038, -0.353867, 0.685823, -3.148662, 0.582099, 0.008567, 0.548581, 1.492871, 1.26237, -1.052336, -0.199975, 0.449517, 1.025337, 2.233618, 0.71189, -1.683725, -3.173279, 0.47767, -0.47244, -0.878294, -0.580418, 0.499017, -0.353358, 0.358851, 0.113508, 2.337073, 1.059171, 0.364544, 0.882165, -0.016197, -0.041929, 0.035269, -0.044044, 0.104548, -0.693024, -0.808845, 0.367771, -0.736596, 0.383415, -0.065013, 0.140473, 0.300543, 2.169177, 1.423162, 2.633519, 0.5451, -1.776205, -1.753201, 2.075077, -0.844759, 0.420752, -1.19467, 0.479387, -1.581646, 1.078805, 0.762341, 1.094379, -0.370943, -0.160376, 1.127371, -0.246499, 0.733635, 0.140586, -1.982029, 0.899322, 1.918468, -2.55273, 1.888872, -0.192864, 1.012509, 0.981676, 1.770179, 0.061725, 2.177715, -1.143028, 0.363868, 0.485978, 2.243564, 1.521135, -0.337966, 0.592391, -0.977538, -0.112452, 1.277523, -0.728695, -1.22586, 0.347183, -1.201527, -1.622407, 0.155427, 1.055143, -0.392114, 0.632409, 0.893352, 0.784232, -0.306653, 0.694951, 0.08358, 1.184696, -0.655296, -0.427332, 0.937316, 0.900345, -0.281253, -1.246992, -0.382529, 1.110575, 1.53219, 0.343848, 0.848829, -0.415534, -0.985605, -0.739155, -0.829429, 0.837773, 0.024968, -0.338345, -1.125356, -0.231393, 1.753622, -0.330202, -0.969138, -0.110343, -0.084203, 0.361531, 0.120097, 1.024264, 0.005181, -0.184405, 0.233902, 1.307719, 1.093237, 0.743582, 0.317075, -0.931577, 1.340388, 0.601584, 0.804003, 0.346215, 1.503077, 1.831601, 0.297312, -0.031641, -1.133368, 1.5558, -2.203109, 0.639795, 1.896316, -0.502768, 0.569296, -0.758903, -1.832486, -1.283169, -0.19882, 1.705418, 0.871353, 1.182509, 1.047271, -0.380638, -0.981293, 0.200744, 2.249652, 1.988034, 0.16608, -0.446836, -1.189898, -0.480725, 0.659518, -1.205664, -0.329357, 0.043424, 0.537112, -1.135594, 0.315961, -0.54376, 0.27358, 1.163386, 0.789971, 1.229341, -1.306205, -0.163468, -0.721196, -0.46879, 0.02226, 1.165007, 0.079742, -0.786179, -0.222138, 1.962575, 0.03609, -0.256142, -0.564219, 0.154875, 0.5685, 2.003762, 1.241244, -1.419577, 1.545745, -2.312336, 0.435918, 1.448273, 0.282675, 0.040471, 0.14384, -1.764581, -0.576377, -0.169439, -2.951619, 0.178367, -0.711537, 1.249344, 0.052391, 0.968285, -0.817312, -0.191611, -1.354637, -0.588303, 0.787983, 0.177066, -0.352886, 1.98647, -0.503119, -1.67074, -1.341658, 0.773082, 1.747141, 0.446689, 0.12433, -0.27624, -0.488358, -1.496342, 1.039782, -0.495276, -0.213583, 1.61481, 0.356177, -0.136108, 2.228956, -0.622196, -0.729061, -0.778041, -0.352195, 0.652272, -0.416952, -1.142479, 0.460632, -1.061155, 1.232777, 0.972699, -2.537375, 0.127284, -1.052662, 0.027916, 0.922283, 0.348375, -0.466144, 0.569661, 0.058943, 0.663577, 0.373249, -0.973842, 1.597566, -0.967694, -0.898738, 0.462973, -0.194087, -0.130703, 0.017671, -2.477338, 0.498001, -0.199254, 0.405399, 0.057409, -1.318194, 0.077145, 0.94, 0.701983, 0.340964, -0.77711, -2.021684, 0.501935, -0.487298, 0.700748, -0.043369, 0.618459, 1.079011, -0.773297, -0.571688, -0.211037, 1.514384, 0.216112, -1.700088, 0.726555, -1.059502, -1.388398, 1.338911, -1.186366, -0.273214, 0.594074, 0.14937, -1.490564, -0.410932, 0.271166, 0.672631, 0.131089, -0.872358, -0.012084, -0.275218, -0.275061, 0.067096, 2.382343, 0.791751, 0.69654, 0.058516, -0.325444, 0.462845, 1.310887, -0.282023, 0.392741, -2.85728, 0.396273, 1.821851, -0.234984, 1.885034, -2.675639, 2.594626, -0.426646, 2.323423, 1.519908, -0.394185, -0.850837, -0.634131, -2.840386, 1.323267, -0.575115, -1.057662, -0.646002, -0.921574, 1.007419, 1.048977, 0.745513, -1.531887, 1.364512, -0.490895, -0.990763, -0.572302, 1.327233, -0.805969, 2.58111, 2.289104, 0.372019, -0.072328, 0.243239, 1.106512, -0.049978, -0.322782, 0.278417, -1.777314, -0.916478, 0.205777, -0.172973, -0.821556, 0.114432, 1.788434, 0.660449, 1.266707, -0.426572, -0.767116, -0.751355, 0.862451, 0.306323, -0.576624, -1.149878, 2.508385, -0.44112, 0.377024, 0.306447, -2.486987, -0.826175, -0.256697, 1.444581, 0.971818, -0.638244, -0.732502, 0.525287, 0.609565, 0.398569, 2.570007, 0.44674, 0.593474, 0.206463, 2.336658, 1.338107, 0.57908, 0.373975, 1.343024, -1.037905, 1.195454, 2.011826, -3.216654, 1.355142, -0.423831, 0.812345, 0.893376, -0.754744, -0.325406, 0.157131, 0.603622, 0.365441, 0.352084, -0.233898, -0.864386, 1.299464, -1.07612, 1.298804, -0.022286, -0.182806, 2.707908, 2.160836, 0.805264, -0.227282, -0.680751, -0.524468, 1.136114, -0.944327, -2.292534, -1.174249, 0.48922, 0.125233, 1.52381, 0.055636, 0.362151, -0.959513, 0.593805, 0.467786, 0.294336, -1.188899, 0.157554, 1.313639, -1.340236, -0.794366, -0.892475, -1.749345, 1.26506, 1.457989, 2.672895, 0.660435, -0.888783, 0.401317, 0.96991, -1.559866, -1.291556, 0.576733, -0.081875, 2.528172, 0.151955, 2.464558, 0.555091, -0.634582, -0.041334, -0.614836, 0.572562, -0.316506, -2.660064, -1.715088, 1.431246, -0.281364, -0.464394, 0.429249, 0.955047, -0.161542, -0.486037, 0.532589, 2.381585, -0.751157, 1.344723, -0.007812, 0.951218, -0.689061, 0.194451, -0.644261, -0.434764, 0.584187, -0.314136, 0.799632, 0.438327, 1.457381, -0.192016, 0.535253, 1.330708, -0.699797, 0.750192, -0.402241, 2.503084, -1.266262, -0.88434, 1.601416, -0.167623, 0.07417, -1.32353, 1.259191, 0.873181, 2.028673, 0.583782, -0.78043, -0.506968, -0.716958, 1.547836, 0.375246, 1.074179, 1.549155, 0.749981, 0.37842, 0.986864, 0.824507, -0.95303, -0.564883, 2.338415, -1.611511, -0.053796, 0.639535, 1.037766, 1.337213, -0.439718, 1.582644, 1.816551, 0.296384, 0.241216, 0.463438, -0.20906, 0.423773, -0.684267, 0.929204, 1.510083, 0.715009, 0.795334, -0.59529, 2.669191, 0.334319, 0.174627, -0.371589, 0.774843, 0.009305, -0.654479, 0.275715, 1.024148, 0.207637, 0.547046, 1.083535, 1.815, 1.070756, 0.030352, -2.778032, 0.401197, -0.198331, -0.111524, -2.791923, 1.374689, 0.430302, 1.050651, 0.387264, -0.038576, 1.645558, -0.963742, 0.066335, -0.150036, 1.961918, -0.378171, 0.229156, 0.135819, 0.735976, 1.357629, 1.3346, 0.304131, 0.214128, 0.690694, 1.597995, 0.787153, 0.735051, 0.31599, 0.216863, 1.100407, -0.428146, 1.302536, 0.440426, 0.814225, -0.373059, 1.223373, 0.344364, -1.342843, 0.886969, 1.214488, 0.401978, -0.309619, -0.072062, 0.260973, -0.460286, -2.761216, 1.558102, -1.797929, -0.031, -1.052155, 1.131846, -0.09087, 0.234478, 0.1962, -0.471078, -1.009403, 0.873705, 0.185353, 0.469592, 0.570914, -1.508976, 1.520982, 0.290377, -0.39489, -0.948288, -0.404035, -0.356579, 0.1044, 0.197177, 1.999649, 0.086798, -0.666313, 1.792621, -0.024516, 0.150976, 0.406784, -0.07024, -1.378739, 1.365, 0.699244, -0.527611, 0.586571, 0.063773, 0.422206, 0.958878, -0.014264, 0.886184, -0.516441, -0.220882, -0.002982, -0.643618, -0.889437, 0.66886, 0.666105, 1.777199, -2.230845, 1.703089, 1.242866, 0.043511, 1.196687, 0.444056, 0.722236, 0.985729, -1.001123, -1.422941, 0.163385, 0.534728, -0.184138, 0.470321, 0.206277, -0.019306, -0.028881, -0.718534, 0.060931, 1.680272, 0.05456, 0.217779, -1.356825, 0.214224, -0.995809, 1.168374, -0.074149, 0.969253, -0.490076, 0.730466, 0.574153, -0.81756, 0.490571, -1.286721, 0.04429, 0.522614, -0.516604, 0.372791, 0.59809, -0.562753, 0.068314, -2.319367, 0.603531, -0.44528, 1.110486, -2.392628, -1.002216, 0.466128, 1.37534, -0.626486, 1.48486, -0.065602, -0.628317, 0.026777, 1.609951, 0.574151, -0.156996, 0.782999, 0.455287, -0.237312, 0.335544, -1.915251, 0.332565, 0.385673, 0.733397, 0.430935, -0.440341, 0.872257, 1.779346, 1.209768, 0.892253, 0.110232, 0.171519, 0.915266, -0.764686, -0.15897, 0.548723, -0.239335, 0.07493, 0.942594, 0.997104, -0.093607, -1.402246, 1.356811, 0.137142, -0.916585, -0.688261, 0.437775, 0.772384, -0.449843, 0.813846, 1.666175, 1.005977, 0.120551, -0.145953, -0.286054, 0.7614, 1.711665, -2.064052, 0.582787, -0.297741, 0.480604, -0.200794, -0.008764, -0.389706, -1.361821, 0.723144, 0.231903, -0.730632, 0.247495, 1.158098, -0.60115, 2.026514, -0.872027, -1.106567, -0.181026, -0.258071, 0.392442, 0.673631, 1.431354, -1.067424, 0.279277, 0.472364, 1.180476, -0.490779, 0.896741, 0.900815, -0.327706, -0.200698, -0.396631, 1.336296, -0.179483, 0.462218, -3.106143, -0.449112, 1.70471, 0.188908, 0.173968, 0.906664, 0.819871, -0.40492, 1.186275, -0.6396, 0.328449, 0.304809, 0.385872, -1.051981, 1.333451, 0.003294, 0.311031, 0.279467, -0.45945, 0.450756, 0.319114, 2.059663, -0.505108, -0.838022, 0.253842, -0.445332, -0.362734, -0.34192, -1.921206, 1.066803, 1.480086, 1.058455, -1.307475, -0.340213, -0.579973, -0.327656, 1.675836, -0.037821, 0.302144, 0.341536, 0.950365, -0.825376, -1.750337, 0.005819, -0.032791, 2.9504, -0.849177, -0.761646, 0.38422, 0.533018, -0.871221, 1.499563, 0.185328, 1.2449, 1.757818, -0.239544, 0.315548, 0.537896, -0.185756, 1.452, -0.678421, 0.649445, 1.174472, 1.716119, 1.054068, 1.872324, 1.387317, -1.382413, 1.369557, 0.378724, -0.954027, 0.880943, -0.928352, -1.054063, 0.902275, -0.2739, -0.190497, -0.13721, 2.098119, 0.0895, 1.049304, 1.620181, 0.462327, -0.936135, -0.093178, 0.715782, 1.042199, 0.789153, -0.887678, 0.472047, 0.011267, 0.939887, -0.843387, -1.888672, 0.661168, 0.892233, 1.813194, -1.041304, 0.2256, -0.195694, 0.061975, 0.001168, 0.081683, 0.50983, -0.138387, 1.324728, 1.191922, -0.297611, 0.562296, 1.745233, -1.050826, -1.361684, -0.20709, 0.062338, -0.491365, -1.641641, 0.132852, -0.068532, -1.054181, 0.563382, 0.011649, -0.451041, -0.485073, -0.767228, 0.408085, 0.750599, -0.240357, 1.702568, 0.380789, 0.162541, 1.259261, -0.256812, 0.2892, 1.087373, 0.944362, -0.087897, 0.142457, -1.964385, 1.105938, 0.799096, -0.145355, -0.677752, -0.836724, 0.327154, 0.128784, -0.206463, -0.105283, -0.738367, 1.701513, -0.174652, 1.635856, 0.580614, -0.129348, -0.429305, -1.046698, 1.011348, -0.025776, 1.197542, -2.077322, -0.600872, 0.892843, 0.679586, -1.298896, -0.830958, 0.473083, 1.134119, 0.601226, -0.697229, 1.558781, 0.342733, 0.56745, -0.279157, 1.014372, -0.100178, -0.377813, -0.285826, -0.0598, -0.615046, 2.095169, 1.236943, 0.033822, 0.411378, -0.237966, 0.900982, 0.516135, 0.764673, -1.093544, 0.969487, -0.417535, 0.848244, 1.150695, 0.069928, 1.453893, -1.034449, 1.809971, -1.226665, -0.420682, -2.684739, 0.852208, 0.629095, 0.07212, -1.066221, 0.036218, -1.246775, 0.900727, 1.379601, 0.487137, 2.143765, 1.000796, -0.236721, 0.427921, 0.132469, -0.042711, -0.915516, 2.142458, 0.800725, 0.032884, -0.211177, 0.641952, 1.883446, 1.244145, 1.229683, 0.109194, 1.918862, 0.312751, 0.19695, -0.090419, 0.26397, -0.294487, 0.208574, 1.105006, 1.684473, 0.682156, 0.31892, 2.127507, -1.415288, 0.728648, 2.597801, -0.838224, 1.103878, -0.10921, 0.349727, -0.410111, 1.800859, 0.359075, -0.098803, -0.752256, -1.336232, 0.346209, 1.435206, 0.073142, 0.947208, 1.35363, 0.67667, 0.091796, 0.409146, -0.371832, -0.793137, 0.312046, -0.644088, 1.517456, -0.896525, 0.30548, 0.705856, 0.328491, 0.350388, 0.085489, 0.055064, -0.313886, -0.536632, 1.799224, -0.577289, 0.929606, -2.289774, 1.598394, -0.425007, 0.373244, 0.300814, 0.017443, 1.250835, 0.768333, 0.563661, -0.356774, -0.212125, 0.672925, 1.229731, -0.64099, 0.738938, -0.516232, 0.931503, -0.02702, 0.229341, -0.575674, 1.74277, 0.015265, 0.521441, -0.764337, -1.080342, 0.68186, -0.334766, -0.333662, 0.859736, -0.498035, 0.336873, 0.099809, -0.524772, 0.962421, 0.226493, 2.202976, -0.1561, -1.825988, -0.699241, 0.796933, 1.035229, -1.972735, -0.870944, 1.073112, 0.652528, -0.809022, 1.130449, 0.564504, 0.465073, 0.91296, 1.558641, 0.619603, 0.346437, -0.278678, -0.369644, 0.44554, 0.826776, 0.361773, 1.739614, 1.660997, 0.811125, 0.700565, -0.060829, 1.716217, 0.240215, 0.34464, -0.97826, -0.26952, -0.594493, 0.699033, -0.74431, 1.242346, 0.741917, 0.523898, 1.313437, -1.330747, 0.62236, 0.306264, 1.43582, 1.043325, -0.242983, 0.206775, 0.070767, 0.123808, 0.022099, 0.169273, -0.511507, -1.10228, -1.101176, 0.931449, -0.374594, 0.898697, 0.327422, 0.50532, -0.025642, -1.217742, -0.061661, 0.632006, 0.41291, -0.059241, -0.490011, 0.741244, 0.728927, 1.997071, 0.34245, 1.117928, 0.497191, 1.069588, 0.157768, -0.160356, 0.898438, 0.491544, 1.477767, -0.041515, 1.050791, -0.518186, -1.291178, -0.275566, 2.079995, -0.953917, -0.417503, 1.527322, 0.55432, -0.308639, -1.324193, 0.192629, 0.148188, 0.760126, -1.763935, 0.052639, -0.870781, 0.071002, 1.210302, 0.715808, 1.304827, -1.252228, -0.46393, 0.453036, -0.074761, -0.195406, -1.144948, 1.200139, -0.535734, 1.266159, -0.146927, 0.862199, -0.225236, 0.808836, 0.785546, -0.040345, 0.312298, -0.213901, 0.146872, -0.838222, -0.21893, 0.032261, -0.942711, 0.102028, 0.007774, 0.429209, 0.46403, 0.800654, -1.368466, -0.711487, 1.303707, 0.564641, 0.059764, 0.017978, 0.540587, -0.428087, 0.652728, -0.31447, 0.615388, -0.411795, 1.268492, 0.050013, -1.036551, 1.77896, -0.116608, 1.358351, 2.081726, -0.750005, -0.352216, 0.414495, 0.95966, 1.142139, 0.365126, -1.129285, 0.955017, 1.370056, 0.910558, 0.598597, 0.149243, -0.077748, 0.085573, 0.870646, 1.158315, 0.127318, 1.380973, 0.241203, 0.341448, 1.079815, -0.286878, -0.081404, 1.223398, -0.902978, 0.865648, 2.15192, 0.172111, 0.061754, 0.443596, -2.084573, 1.02473, 1.3052, 0.570045, -1.387796, -0.810531, -0.668898, -0.517645, -0.120384, 1.042718, -0.549375, -0.138619, -2.750237, 0.811725, -1.415375, 1.945857, 0.32966, -0.192127, 1.104478, 0.582483, 1.487415, -0.577843, -1.637223, 0.379433, 0.41719, 0.055015, -0.691781, 0.759248, -0.570666, 2.05754, 0.900621, -0.121528, 0.344745, -0.42718, 1.337745, 1.846271, -0.653755, 0.963332, 0.315385, -0.34911, 0.530681, -1.51748, 0.618619, 0.160611, 0.592061, 0.239957, -0.458027, -0.662155, 1.665168, 1.489582, 0.309206, 0.08249, -0.60613, 0.387839, 0.461211, -0.051745, -1.935452, -0.730729, 0.353076, 1.087632, 0.505457, -1.270466, 0.332467, 1.089028, -0.336319, 0.203029, 1.604674, -0.449201, 0.550607, -0.543313, -0.721405, -0.386867, 0.98279, 0.39029, 1.039962, 0.10979, -0.437858, 0.221736, 1.456392, -1.579323, 0.299726, 0.349384, -0.005354, -0.276226, -0.177402, 0.30953, -0.504705, 0.389658, -0.045479, 0.756755, -0.266537, 1.07633, 1.735743, -1.289724, 0.901299, 1.214822, -0.548593, -0.774377, 1.201833, -1.805333, 0.905948, -0.789945, 0.608023, 0.994642, 0.286752, -0.460789, 0.736681, 0.105862, 0.308989, -0.444707, -0.530306, -0.506721, -0.713837, 0.58491, 1.319089, -1.02849, 1.255272, 0.185682, 0.300622, 0.149327, -1.021884, -0.571141, 1.738881, 1.083112, -1.021425, -0.269498, -0.753753, 0.300334, -0.368596, 0.157263, -0.170085, 0.071747, 0.12621, -0.393805, 0.28142, -0.216255, -0.423361, 0.291555, 0.051001, 0.569262, -0.111061, 0.755726, 0.043942, 0.462767, 0.28349, 1.044183, 0.283528, 0.430026, -0.240449, 2.351157, -0.144696, 0.72763, 0.210477, 0.842481, 0.935051, -0.561959, 0.722986, 1.337966, 0.276608, 0.561048, -0.46332, -0.905907, 1.061184, 1.811496, 0.040916, -0.903452, -1.003084, -1.07797, 0.054537, 0.413369, -0.249462, -0.998523, -0.605713, 1.153924, 0.7725, 0.176538, 1.22357, -0.596965, 2.063825, 0.761106, -2.268791, 0.524193, 0.97182, -0.164432, 0.603214, 0.841372, 3.004591, 0.979193, 0.626794, -1.018877, 1.129794, 0.590215, 0.254222, 0.678464, -0.511208, 0.908027, 0.274847, 1.029406, -0.210386, 0.015707, 1.456393, -0.033159, 0.706908, 1.454443, -1.757497, 0.685705, -0.052135, -0.176553, -0.440324, 0.151212, 1.417405, -0.562846, 0.303727, 0.545306, 0.101847, -0.248217, -0.128004, 1.149245, -0.291319, 0.763355, -0.214739, 0.503029, -0.763284, 0.568697, -3.021629, 0.071464, 0.747293, -1.085603, 0.006966, -0.211976, 0.979421, -2.203158, -1.56617, 0.172189, 0.944462, 0.404856, -1.09774, 1.92248, 0.12684, -0.298861, 1.415262, -2.940396, 0.533317, -0.461599, 0.295973, 0.092191, -0.04641, -0.818734, 1.839684, 1.098055, 2.49157, 0.079233, -0.726956, -0.353972, 1.461748, -1.14359, -2.089286, -0.120504, -0.860487, -0.106913, 0.729051, -0.131074, 0.061476, 0.428613, -1.378275, 0.673626, -0.113258, 1.51854, 0.583378, 0.089841, 1.147598, 0.21333, 1.190768, 0.976318, -0.892192, 0.835796, 0.952143, 0.467901, 0.087486, -0.362398, 1.321151, 0.630897, 0.161248, 0.399203, 0.254051, -0.881035, 1.420836, 0.128964, 1.516063, 0.738189, -0.585141, -0.561939, -0.812126, 0.004633, 1.59243, 0.199374, 0.958103, -0.468626, 0.240816, 0.484785, -1.11999, 0.916976, -0.066009, -1.61289, 1.231503, 0.868552, -0.533188, -0.020811, -0.771516, 0.322183, 0.97385, -0.830778, -1.511268, 0.602612, -0.883652, 1.39429, -0.217471, -0.311327, -0.68503, 1.220913, 0.045973, 0.077566, 0.433127, -0.54875, 0.514913, 0.88741, -0.25011, -0.143612, -0.29743, 1.1539, 0.649934, 0.347262, -1.452168, 0.432887, -0.035851, 0.724861, 1.260985, 0.449954, 0.597866, -0.638031, 0.059319, 0.204363, 0.086866, -0.866874, 1.21786, -0.599623, 0.909325, 0.833082, 2.131906, -0.091762, -0.213745, -0.744501, 1.249842, -0.474736, 0.617461, -0.481366, 1.096957, -0.090426, 0.609979, 0.132908, 0.11883, -0.346042, -0.04555, 0.154372, 0.200822, -1.574488, 0.241256, -2.281747, -0.904991, 0.502006, -0.4475, -0.239554, -0.692834, -0.886427, 0.203742, 0.773946, -0.839546, 0.386444, -0.297907, 0.562388, -0.403168, -1.101901, -1.48239, -0.597461, -0.081335, -0.980431, -0.270481, -0.080757, 1.752391, 0.617927, -0.518784, -0.834645, -0.731278, 0.456862, -1.196796, -0.206932, -0.213708, -0.326008, 1.505748, -0.629916, -0.209948, 0.252454, -0.597753, -1.715899, 0.366222, 0.24551, -0.555018, 1.772873, 1.381921, -0.167477, -0.240398, 0.942767, 0.715825, 0.365763, 0.572196, -0.574156, 0.81247, 0.794323, 0.882708, -1.036641, -0.258129, 0.157686, 0.809119, 0.750361, -0.520657, -0.458975, 0.686558, 0.439624, 0.188602, -0.977103, 0.239598, -0.33146, 0.535897, 1.184955, 1.965329, -0.127668, 0.733015, 0.408235, 0.751317, -0.037133, -0.548583, 0.44244, -0.389412, 1.764758, 0.125868, -0.217842, 0.693757, 0.921331, -0.362175, 1.60292, 0.089056, 0.164993, -0.557023, 0.746698, -0.250912, -0.304033, 0.725657, -0.082057, -0.260358, 0.87647, -1.600953, 0.994909, 1.039842, 0.339777, 1.03335, 0.741434, 0.06297, 0.077234, 0.20931, 0.797696, -0.012563, 0.603678, 0.52267, 0.544467, -0.431382, 0.078438, 0.80229, 1.195757, 0.901633, -0.205915, 0.392878, -2.03088, 0.191018, -0.642948, -0.334479, -0.460139, 1.015358, -0.175817, 0.669746, -0.169965, 0.611207, 0.032724, 0.586009, -0.358922, 0.343771, -0.193464, 1.52857, 0.212737, 0.745817, -0.724277, 0.076574, -0.521025, -0.197971, 0.393147, -0.746593, -0.975485, 0.049259, -0.606613, 0.425476, 0.19123, 2.092697, 0.723376, 0.898709, 0.639737, 1.226392, -0.58898, -0.356781, 0.183977, -0.660492, -0.598976, 1.519836, 1.382514, 0.17989, 1.263148, -0.069579, 0.333613, 3.272881, -0.412615, 1.700648, -0.639141, -0.170821, 1.808813, -0.714774, 1.391339, 0.945406, -0.221556, 0.522082, -0.843814, -0.281004, 0.654081, 1.000754, 0.554934, 1.329779, 0.435813, 0.248483, 0.032649, -0.512563, -0.834958, -0.025992, 1.672881, 1.71239, 1.020184, -0.54843, 1.220977, 0.835055, -0.643995, 0.54665, -0.063406, 0.151321, 0.252095, 1.112996, -0.852453, 0.486666, 2.595082, 0.183508, -1.055342, -0.256124, 0.652639, -1.171731, -0.185725, -0.428416, 0.849369, 0.042316, -0.53879, 1.228559, 0.022281, -0.388597, -0.381252, -0.131213, 1.309033, -0.219206, -0.874873, -0.111775, -0.734476, 1.046804, -0.448086, -0.190328, -0.440871, -0.19897, 1.380598, 0.085928, 0.803877, 0.70474, 0.557072, 0.03324, 1.452792, 0.610731, 0.755115, -0.014302, -1.413375, -0.315938, 0.350974, 0.581603, 1.277166, 1.484462, -1.944234, 1.516465, -0.098658, 0.069774, 0.443175, -0.131556, 1.316968, 0.297976, 0.928519, -0.88237, 0.148122, -0.100271, -1.229532, 0.891916, 1.112868, 1.883715, -0.551035, -0.153745, 0.024877, 0.20617, 0.251032, 1.355077, 0.59591, -0.854492, -0.461577, -0.039741, -0.442227, -0.823763, -1.979027, -0.066169, 0.221977, -0.3065, -0.514887, 0.496987, -0.95532, 0.751251, -0.108205, -0.123519, 0.908397, 0.486328, -1.17364, -0.068297, 0.048274, 1.335842, 0.226308, 0.626075, -0.95033, 0.833102, 0.834455, -0.175553, -0.226644, 0.187466, 0.273364, 0.571764, 0.289052, -0.454454, 0.001827, -0.538071, 0.471519, 0.185688, 1.603451, 0.646084, 1.224907, 0.399217, -1.444004, -0.090725, -0.262725, -0.696786, -0.54355, 0.725185, -0.433219, 1.155716, 1.257225, -1.278917, 0.600026, 0.570873, 0.616937, 0.353252, 0.327915, 0.800746, 0.013663, 0.208232, -0.203982, 0.217133, -0.55821, 0.778585, -0.497585, -0.366281, 0.80145, -0.157603, -0.420568, -0.278674, -1.797263, 0.992938, 1.03855, -0.64631, -0.878858, -0.095433, -1.18446, 0.11657, 0.064942, 0.373969, 0.812218, 1.538293, 0.15956, 0.565144, 0.41889, -0.964561, -1.113601, 0.43468, 0.232064, 1.372449, 1.860815, 1.244101, -0.386068, 0.335546, 0.291723, -0.721474, 0.975087, 0.565282, 1.452887, 0.495619, 0.225831, 0.362401, 0.230258, 0.785855, -0.78515, 0.011026, 1.060553, 0.368188, -1.486935, -0.092107, 0.397088, 0.983673, -0.806038, -0.101402, -1.256542, -0.94546, -0.215169, -1.067271, -0.196899, -0.246027, 1.439626, 0.784809, -0.103329, 1.04737, 0.44014, -0.208368, -0.484596, 0.526292, 1.370145, -1.831725, 0.216966, 0.309507, 0.580918, 0.951414, 0.581674, 0.590342, 0.520358, 2.096282, -0.579633, -0.087037, 0.617065, -0.570609, 1.153794, 0.432888, -1.006161, 0.458875, 0.616009, 0.268956, 0.014155, -0.02963, 0.823036, -0.50522, 1.159467, -1.292304, 0.437524, 0.921948, -0.521652, 0.5967, 0.649413, 0.022987, 0.491883, 0.887201, 0.781135, -1.42801, -0.257462, 0.445861, 1.005622, 0.167847, -0.28293, -1.368197, -0.098593, 0.284763, 0.349496, 0.414163, 1.504179, -0.273021, -0.019496, 0.527695, 1.541983, 0.382591, -0.011072, -1.438641, -2.180651, 0.144465, 0.799014, 0.353082, -0.165729, 1.512317, -0.09375, -0.502151, 0.465018, 0.696358, -1.142806, -1.127067, -1.126034, 0.936974, -0.912649, -0.564483, -1.13034, -0.06917, 0.186932, -0.206383, -1.183935, 0.637046, 1.346353, -0.895148, -0.675939, -0.044595, 0.221189, 0.112383, -0.684168, -0.648886, -0.277588, 0.22019, 0.542538, -1.343418, -0.633562, 0.62934, 0.179517, 0.532372, 0.721883, 1.230951, -0.785462, 2.113529, 1.422702, -0.069419, 1.313954, -0.674329, 1.36912, 1.607354, -1.251299, 0.519923, -0.054986, 0.784314, -0.529153, -0.256418, 0.640538, 0.495603, -0.391539, 0.520036, -1.02655, 0.125462, -0.179432, 0.834533, 1.377358, -0.453326, -0.261678, 0.185688, 1.351072, 0.731308, -0.715686, 0.462837, -0.558678, -0.594361, 0.834201, 0.970387, -0.725666, -0.043842, 0.144272, 0.204954, 1.093317, -0.686768, 1.482427, 1.844155, 0.418014, 0.316414, -0.778808, -0.198643, 1.845293, -1.508459, 0.062963, -0.624176, 0.673711, -0.441904, 1.624583, -0.162122, 0.149394, 0.761937, -0.353419, -1.127104, 0.752414, -0.050111, 1.554459, -0.300042, 0.118371, -0.37562, 1.148894, 0.812557, -0.760949, -0.670859, 0.451647, -1.717177, -0.145639, 0.761852, -0.301226, 1.645942, -0.971747, -1.007002, 0.23438, 1.134401, 0.169881, 1.31673, -0.799929, 0.671587, -0.757069, 0.382994, -0.665439, 0.115241, 0.343652, -0.092781, -0.005771, -0.128699, -0.435686, 1.242995, -0.066938, 0.832828, -0.036601, -0.516611, -0.393014, 0.35737, 1.159752, -0.573681, -0.396571, -0.19271, 0.522138, -0.178056, -1.203093, -0.569376, 0.498461, 1.043015, -0.382956, 0.558656, 0.667316, -1.034838, -0.080243, 0.53392, 1.206164, -0.04386, 0.901412, -0.013476, -0.204416, 0.696523, 0.095914, -0.310818, 0.003482, 0.199634, -0.240025, 1.432349, -1.251062, 0.163406, 0.825864, -1.022294, 0.220016, -0.129426, 0.294555, 1.458726, 1.295854, -0.044245, -0.764224, 0.254437, 0.378899, -0.274515, 0.561229, 0.11316, -0.378883, 0.810587, -0.272239, -0.263175, -0.107238, 0.029004, 0.205075, 0.471611, 0.566629, -0.248353, 0.317251, 0.385377, -1.37299, 0.016423, -0.317497, 0.031138, -0.781254, 0.236859, 0.206655, -0.449494, -0.648843, -0.103521, 0.13737, 0.251438, 1.018746, -0.111418, 0.384855, -0.238523, -0.023918, -0.043761, 0.300973, -0.35521, -0.622217, 1.569708, 0.066484, 1.052699, 1.071713, 1.055459, 0.64186, 0.859405, -0.009257, 0.221464, -1.023718, 1.074601, 0.161043, 0.26655, 1.346849, 0.801059, -0.175275, -0.335079, 1.150133, 1.050054, -1.877031, -1.331637, 1.190323, 0.296208, 1.750983, 0.665254, -0.101272, 1.784814, -0.126327, -0.172463, 0.613667, 0.746163, -0.161328, -0.140838, -0.764262, 1.447517, 1.468981, 1.343681, 0.717237, 0.475773, -1.633165, -1.932318, -0.338566, 1.007137, 0.835775, -0.328219, -0.719257, 0.409172, -0.373586, 0.523735, -0.635949, 1.651042, -0.656128, -0.335553, -0.838533, 0.527767, -0.045279, -0.105829, -1.073394, 1.169348, 0.456299, -1.025311, -0.998557, 1.225806, 0.312657, 1.228659, 0.561445, 1.294041, 0.586098, 0.306741, -0.614206, 0.11169, 0.01317, 0.149788, 0.427453, 1.257047, -0.413447, -0.306566, 1.045285, 0.526215, -0.337069, 0.085681, -0.16279, 0.491526, -0.393487, -0.923807, 0.141678, 0.49133, 0.357024, -0.29808, -0.447374, 0.464355, 0.743107, -0.972474, 0.809601, 0.943156, 0.810946, -0.189737, -0.553029, 1.432183, -1.362146, 0.853873, 0.807132, -0.873979, -0.663469, -0.389416, -0.702494, 0.549763, 1.979306, 0.59869, -0.697175, -0.499865, 0.155247, -0.478806, -0.06922, 2.232448, 0.06654, -1.626161, -0.387453, -0.199365, -0.789438, -0.27643, 0.414504, -0.932868, -0.421274, -0.184919, -0.061011, 0.407592, 0.590138, 0.978519, 0.260777, 0.900809, 0.094446, -2.125474, -0.46216, -0.335937, -0.025584, -1.009391, -0.1117, 0.379162, 0.493465, 0.037476, 0.038889, 1.310825, 0.409692, -0.069765, 1.143057, 0.303431, 1.404154, -0.227035, 1.286276, -0.88415, 1.867306, 0.311375, 0.613343, 0.782699, 0.374024, 0.148074, 0.077146, 1.29856, -0.197025, -0.240162, 0.167006, -1.321799, 0.675639, -0.065944, -0.191876, -0.138283, -0.254241, 0.495607, -0.896114, 0.69934, 0.946767, -0.19322, -1.335397, -0.415961, -0.597323, 0.395971, 0.233113, 0.654878, 0.864783, -1.816944, 1.030018, -0.982686, -0.566199, 0.188548, -0.578975, -0.132547, -0.423312, 0.442132, -1.562428, 1.237643, -0.001131, 0.126319, 0.744295, 0.639217, 1.016717, 0.447781, -0.578085, 0.63088, -0.441771, 1.205434, 0.358866, 0.28479, -0.504431, 1.319727, 1.564302, -0.177218, 0.142044, -0.253414, 0.182837, -1.168711, 1.96132, 0.548663, -0.131581, 0.414996, -0.21422, 0.620044, 0.072271, -0.089275, -0.71032, -0.481834, -0.890069, 0.36172, 0.645985, -0.387582, 0.885175, 0.694304, 0.075088, -0.111077, -2.399883, -0.426188, -0.068409, 0.840393, -0.784784, 0.755529, 1.089551, 0.013341, 0.704463, -0.173339, -0.911893, -0.383001, 0.667935, 0.295888, 0.859882, -0.84074, 0.89407, 0.968022, -0.251373, 0.027594, -1.680659, 0.215332, 0.922807, 0.813817, -0.567566, 0.59434, 0.247859, 0.292656, 0.3253, 0.089284, -1.552351, 0.183877, -0.927585, -0.216042, 0.449824, 1.453879, 0.130707, -0.64244, 2.634243, 1.335564, 0.520423, -2.928303, -0.013645, 1.081929, 2.729682, 2.016063, 0.25564, 0.400202, 0.91996, -0.371616, -0.565067, 2.31549, 1.136795, 0.235166, -0.417835, 0.207658, 0.936473, -1.281501, 1.156952, 0.459509, -0.015673, -0.334095, -1.529011, 0.26975, -0.204109, 1.515406, 1.189584, -1.32115, 1.220009, -0.239281, 0.767369, -0.660833, 0.556765, -0.992215, -0.217999, 0.365392, 0.678608, 0.524024, -0.776627, 0.258819, -0.410898, -0.124924, -0.717803, -0.418347, 0.790609, 0.722558, 0.647123, -0.257067, 0.960223, 0.861516, 0.446239, -0.021457, 0.840037, 1.371135, -0.598206, -0.0693, 1.728704, 1.343023, 1.390577, 0.15305, -0.168173, -0.899429, -1.716261, -0.576295, 0.557376, -1.115122, -0.793437, -0.233895, 2.210813, -0.010894, -0.393084, 0.496254, 0.083866, 0.546741, 1.046579, 0.02948, -0.549151, 0.993569, 1.331001, 0.5786, 0.558739, 0.46996, 0.378483, 0.581157, -0.055845, 0.928841, 0.257286, 0.320131, 0.502787, -0.52189, -0.228126, -0.626462, -0.260142, -0.048459, 1.775359, 1.579073, -1.597652, 0.43276, -0.551576, 0.364082, 0.306612, -0.479168, 0.437369, 0.248181, -0.911859, -0.383268, 0.925451, -0.800019, 0.22672, -0.480355, 1.478225, -1.613742, -0.393573, 1.630623, 0.175789, 0.237146, 0.203585, 1.720968, 0.004941, -0.993117, 0.405342, 0.071594, 0.27948, 0.715095, 0.435274, -1.439389, 0.77506, -0.158975, -0.398067, 0.037284, -1.210831, 0.624, -0.910827, -0.138781, 0.584587, 0.701298, 0.245148, 0.832213, -0.295253, -1.128158, 0.318598, -0.364108, 1.356623, -0.691537, 0.093014, 1.643991, -1.75299, -0.334231, 0.002117, 2.907338, -0.507745, 1.007553, 0.952553, 0.822694, -0.075009, -1.282319, -0.322873, 0.269165, 0.880405, 1.622559, -0.216183, 0.09278, -2.010309, -0.15562, 0.797779, 1.668909, 0.822318, 0.617941, 0.415864, 0.361268, 0.747832, -1.225909, -1.723047, 0.837971, 0.416383, 0.712334, -0.244706, 0.380529, 0.445796, 0.407841, 0.270565, 0.831588, 0.939751, -0.769361, -1.092747, 1.751421, 1.11042, -0.052497, 1.99206, -1.396339, -0.010382, 0.885164, 0.161351, -0.763576, -0.685599, 1.164948, 0.563723, 0.111625, -0.78229, -0.339621, -0.22258, 0.564749, 2.226283, 1.468467, 0.592457, 0.438003, 0.186115, 0.151291, -0.694183, -0.262537, 0.779868, 0.599448, -0.982548, 1.348046, 0.215297, 2.007081, 0.011897, -1.691896, 0.92024, -0.046998, -0.768132, -2.399951, -0.579482, -1.399545, -0.502661, -0.283263, -1.342361, 0.721848, 1.272801, 0.186352, 0.166097, -1.115058, -1.715044, 0.271937, 0.484645, 0.8836, 1.503528, -1.176943, 0.358288, -0.435591, -0.110626, 1.000506, -0.001871, 0.530941, -0.509167, 1.33672, 0.956206, -0.198897, -1.409122, 0.827751, 0.07834, 0.325282, -0.675839, -0.873491, -0.535582, -0.161424, -0.257534, 0.546096, -0.82709, -0.27957, 0.408234, -1.649089, -1.934243, 0.603325, 1.196841, -1.193236, -0.448725, -0.439958, -0.293101, 0.222785, 0.653019, -0.674654, -0.806707, 0.588719, 1.298343, 0.402601, -0.194468, -0.556856, 0.816769, 1.917883, 0.462508, 1.017386, -0.694174, -1.009319, 1.191677, -0.291917, 0.28405, 1.356178, 0.49457, -0.103923, -1.08868, 0.285427, 0.778012, 2.704074, -0.264249, 0.518468, -0.27573, -0.485269, 1.158111, 0.87913, -1.401732, -0.258217, 0.177932, 0.253424, -0.778617, -0.001716, 0.757926, 2.432787, 1.327453, 0.52876, 1.544567, 0.104597, -1.464452, 0.422382, 0.277618, 0.792005, 0.998323, 0.413934, 1.031751, -1.050389, 1.275572, 0.422669, 0.03195, -0.205737, 1.678476, -0.719471, 0.000135, 1.894263, 0.057321, 0.744598, 0.072671, 0.270555, 1.295394, -0.579796, 0.051971, 0.294656, 0.652297, 1.245036, -1.809471, -0.413324, 1.124394, -0.010306, 2.329076, 0.629739, 1.633866, 0.312352, -0.564627, -0.910995, -0.428483, 0.185074, 1.029372, -0.119507, 1.642721, -0.032101, -0.994188, 1.043723, 0.8471, 0.016803, -0.293596, -1.131943, -0.174371, -1.354015, 0.691198, -0.242919, -0.108056, -0.131663, 0.683713, 2.320276, 1.340845, 1.277681, -0.098608, -0.053046, -0.611184, -0.224911, 0.567593, 1.312779, -2.306722, -0.062518, 1.216316, 1.341795, 0.26079, 1.089489, -0.118929, 0.826812, 0.573586, -0.910858, -0.820356, 0.404051, 0.28824, 2.319159, 1.043632, -1.750549, -0.052222, 0.473199, 0.588113, -0.803424, 1.280716, 0.306935, 0.940131, 1.800925, 0.470639, 0.788892, 0.671733, -0.589013, 0.042616, -0.214872, 1.512013, 2.188596, 0.095477, -0.013133, -0.143601, 0.855719, 0.578184, 0.237766, 0.663021, 0.212111, -1.620902, -0.895175, 0.055589, -0.391702, 0.432015, 0.661911, -0.223014, -1.603781, 0.500179, -2.276623, 0.001719, 0.244572, 0.284965, -0.148566, 0.618178, -0.390411, -1.09401, -0.309682, 0.145016, 0.416632, 0.151606, 1.291716, -1.71286, 2.203096, -0.320653, -0.242032, 0.529707, 1.851729, -1.948429, 0.833078, 0.214691, -0.228821, -0.323431, 0.083358, -0.363814, 0.987577, 0.185794, 0.803348, 1.100512, -0.076137, 0.506005, -0.079725, -0.724591, 0.256731, -0.087267, 0.332911, 0.652111, 1.558092, 0.709538, 1.130786, 1.093284, -0.050615, 0.51223, 0.058682, 1.381567, 0.09921, 0.334976, -0.036778, 1.364931, -1.229585, 1.619908, -0.324927, -0.215489, 1.982838, 0.784684, -0.181958, -0.50747, -0.43283, 3.424207, 0.649349, 0.469662, -0.252202, -0.317701, -0.682755, -0.032173, 0.466251, -0.808798, 0.591369, 0.488375, -1.122467, 0.106613, 0.97745, 0.598363, 1.272992, -0.043684, 0.626321, 2.064024, -1.142354, -0.563372, -0.134548, 2.205378, 0.178092, 0.191124, -0.582202, -0.06698, 0.290995, 0.005945, 1.064049, -0.573378, -1.803291, -0.014837, -1.387771, 0.044826, 0.190081, 2.563362, -0.625181, -0.853163, 0.330541, -0.204075, -0.716092, 0.949597, 0.726505, -0.847042, -2.774664, -1.588321, -1.575836, 0.248071, -0.404628, -0.458542, -1.668927, 0.298559, -1.588273, -1.031222, 0.832661, -0.282183, -1.070203, 0.31605, -0.213886, 0.895383, -0.219568, 0.947723, -1.286583, -1.676791, 0.310028, 0.193289, 0.366335, -0.408848, -0.050107, 1.199279, 0.20444, -1.390601, 0.23271, 0.860721, -0.258388, -0.134678, -1.512861, 0.233835, -1.454029, 0.257791, -0.543589, -0.673895, 0.828852, -0.113336, 1.038298, -0.169942, -0.316856, -0.010562, -0.597003, 0.202627, -0.027885, 0.386879, -0.632901, 0.120502, -1.131974, -0.600492, 0.090864, 1.380881, -0.514131, -1.542777, -1.31911, 0.451796, 0.392552, 1.497483, -0.964147, 1.922182, 1.56048, -1.323207, -0.395375, -0.390756, -0.805949, -0.907579, 1.19653, -1.725103, -0.889715, 1.171587, 0.14448, -0.324284, -0.055047, -1.987731, 0.766926, 0.507539, 0.58357, 1.030442, 1.575287, -0.236218, 0.845346, -0.928589, 0.593804, 1.277, -0.142461, 0.576137, -0.189893, 0.349289, 0.91754, 0.769051, 0.405569, 1.40176, 0.915669, 1.432491, 1.14164, -1.367165, -1.148984, 0.622083, -0.265923, -1.945935, -1.211947, 0.550127, 1.044662, 0.55732, -0.156371, -0.066658, -1.237882, 3.12247, -0.156584, 0.463372, 0.199325, 0.34087, 0.212798, 1.310129, -1.098123, 1.786415, -0.122084, 0.294507, -0.115518, 0.018167, -0.348673, -1.618657, 0.393909, -0.171181, -0.110453, -0.957887, 0.475479, 1.112764, 2.017347, 2.273366, 0.392515, 0.519297, 0.589751, 0.624084, 0.918457, -0.106373, 0.669848, -0.93884, -0.671709, -1.13252, -0.12159, 0.026603, 0.741778, 0.658865, -1.147125, 0.294595, -1.257073, 0.836016, 0.885829, -1.84114, -0.738535, -0.436775, -1.153864, 1.577575, 0.303017, 1.340404, 0.828918, -0.410576, -0.265916, -1.067426, 0.967801, -0.920607, 1.092541, -1.080661, -1.128898, 0.431903, -0.934946, 0.458226, -1.453514, 0.753207, 0.566332, -0.076437, -0.224216, 0.604635, -0.575008, -0.409365, 2.032772, -0.359761, 0.056816, 0.204767, 0.974628, -0.520504, -0.379101, -0.443944, -0.78036, 0.026707, 0.177814, -1.62483, -0.784658, -0.65846, -0.212326, 0.384212, -0.439538, -0.436203, 1.086369, 2.234535, -0.800301, -0.155548, 0.644792, -1.22651, -0.389934, 0.016211, -0.005522, -1.343341, -0.033961, -1.253646, 1.098622, -0.104299, 1.152853, -0.279688, -0.072516, 0.274668, -0.015633, 0.382247, 0.912907, 1.201696, -0.353774, -0.362903, -0.08338, -0.114863, 0.052918, 1.044756, 2.310656, 1.106476, 1.869472, 0.60931, -0.725585, -1.258651, -0.059506, -0.369122, -0.191323, -0.36241, 1.031007, -0.805762, 0.243009, -1.315165, -0.864258, -0.515747, -1.032931, -1.408208, 1.684853, 0.346449, -1.123541, 0.527915, 1.072667, -1.989223, 0.913051, 1.269393, -0.55297, -0.607038, 0.627983, 1.172, -0.128976, 0.366537, -1.088412, 1.879459, -0.075893, 1.389329, 0.192603, 0.530386, -2.862808, 1.034145, -0.806364, -0.935391, 0.132727, -1.583245, -0.459459, 0.16456, -0.627559, -0.110391, 1.888195, -2.166074, -0.580971, -0.520319, 1.07661, 0.378207, 1.659303, -0.553344, 1.575392, 0.676262, 0.452119, 1.8199, -0.251655, -0.401269, -0.390668, -0.794329, -0.466892, -0.75849, 0.003459, -0.801194, 0.11945, 1.004857, 0.968263, -0.380471, -1.104632, -0.69688, -0.474548, 0.109585, -0.664393, -1.149006, -0.52058, 0.276664, -0.758772, -0.367119, 0.397754, -0.120366, 0.281828, -0.605773, 0.66142, -0.640284, -1.706739, 0.539122, 0.847294, -1.151596, -0.017724, -1.330321, 0.09306, 0.560633, 1.49321, 0.742683, -1.25, -0.981682, 1.870335, -0.879045, -0.256422, -0.391449, 0.339409, 0.116412, 0.826466, -0.47039, 0.086491, 0.893239, -0.273819, -0.508526, 0.800176, 0.741351, -0.016641, -0.764966, -1.04516, -1.41947, 0.842624, 1.881888, 0.329143, -1.074393, 0.209528, -0.326465, 0.836322, 0.000166, -0.125756, 0.071881, -0.749638, 1.302227, 0.018524, -0.291615, -0.441354, 0.949633, -2.015546, 0.67404, 0.075566, -0.817447, -1.148363, -2.847847, -0.311071, 1.178714, -0.287502, 0.634458, 0.310221, 1.37007, 0.298061, 1.690201, -0.180548, -0.105786, 0.974923, -0.32948, 1.232127, -0.646183, -1.344756, 1.744968, 0.978447, -1.626339, -0.578508, -2.412366, 0.899521, 0.570837, 1.046194, 1.126639, 0.1855, 0.433337, -0.504675, -0.876176, -1.603115, -0.456678, 0.763457, -0.814767, 1.437617, -1.353909, -0.524397, 0.057082, 1.601713, -0.762168, 0.217864, -0.55927, -0.168261, -0.375539, 0.437444, 0.688694, 1.027401, 0.361854, -0.921993, 0.626041, -2.193998, -1.859721, 1.171927, 2.181589, -1.00285, -0.697863, 0.191927, -0.058836, 1.336879, -0.991951, -0.890118, 0.087798, -0.747808, 0.172814, 0.279642, 0.469056, 1.331909, -1.570099, 0.197578, 0.475189, -0.557728, 3.077248, -0.102764, 1.167352, 0.052343, 0.726753, 1.161205, -0.481449, 0.875878, -0.078565, 2.009921, 1.480737, -1.101635, 0.505056, 0.378595, -0.355985, 1.005265, -0.938684, -0.082671, -0.282768, 0.723126, -0.3003, -0.629292, 1.104473, 0.991946, -0.191633, -0.097656, -0.017318, 0.952514, -0.381474, -0.845515, 1.70168, -1.163542, -0.575041, 0.850404, -0.797327, 1.143098, 0.780957, -0.538662, 0.268586, 0.039231, 0.636266, -2.175693, -0.510958, 1.07639, -0.453959, 0.155302, 1.408128, -0.143498, -1.659912, -0.382551, -1.117644, 1.882114, 0.702225, -1.191052, 0.586358, -1.265285, -0.128482, -1.683896, -0.29412, 0.470186, -0.807814, -0.89367, 0.129048, 1.341919, 0.645907, 0.92291, -0.034663, 0.614343, 0.844837, 0.768355, -0.713737, 0.609682, 0.138527, -0.423778, 0.064999, -0.768618, -0.268361, 0.721047, -0.690435, -0.177912, -1.373693, 0.242363, 0.039443, -0.121984, 1.3938, 2.164237, -0.607406, 0.945063, -1.426751, -0.383506, 0.219916, -1.347509, 0.967669, 0.752783, -0.353563, 2.703792, 0.034897, 1.114882, 0.467902, 1.187009, 0.663139, 0.641836, 1.538907, 0.938811, -0.911322, 1.029435, 1.404857, 0.716404, 0.80838, -0.625209, -2.593111, 0.499061, 0.586623, -0.46846, 0.649348, -0.26944, -0.644792, -0.938106, 0.65712, -1.596807, 0.103445, 0.462645, 0.045627, 1.95871, 0.870151, 0.22646, -0.474806, 1.686641, -1.013475, -0.235407, 1.324453, -0.691815, 0.983189, -0.015235, 0.064791, 1.257596, -1.884933, 0.647112, -0.951856, 0.101614, -0.786922, 0.023869, 1.230599, 0.842532, -0.13795, -0.309404, -0.833744, 0.730562, 0.894038, -0.203866, -0.778998, -0.526441, -0.54173, -0.369749, -0.015513, -2.112507, -0.334864, 0.806746, 0.999546, -0.290753, 0.586832, 0.270354, -0.175741, -0.97589, -0.140754, -1.119854, -0.090066, 0.520765, -0.797945, 0.120338, -0.007264, -0.710566, -1.132005, -0.975669, -1.006993, 1.041961, 0.138834, 0.114589, 1.877013, -0.964656, 0.583773, 0.031258, 0.03992, -2.164642, -0.293989, 0.658392, -1.185979, -1.784896, 1.097857, -0.305106, 0.269374, 1.468386, 1.552306, 0.524426, 0.338311, 0.540207, 1.670757, 0.10486, 0.602305, -0.343138, -0.346126, 1.757585, -1.27717, 0.883584, 0.236132, -0.148596, -0.043168, -1.196276, 0.646374, -1.464599, -2.158728, 0.777788, 1.633885, 1.547264, -0.095762, -0.039964, -2.268474, -1.371997, 1.305143, -0.946777, 0.244681, -0.068048, -2.192765, 0.789049, 0.292907, 0.247783, 0.202479, -0.043734, -0.85184, 1.823721, 1.609162, 2.877614, 0.057234, -1.115098, 3.066389, -0.418399, -0.198595, -0.850304, -1.379569, 2.00641, 0.546352, 4.010647, 0.447968, -0.852207, 0.128577, 1.366368, -0.237837, 0.66656, -1.450738, -0.442108, 0.468426, -0.304712, -0.693819, -1.22456, -0.250575, 1.932771, 0.571117, 0.892124, -0.430935, 0.989936, 0.221436, -0.317484, -0.880101, -0.239482, 0.280341, -0.77537, -2.047929, 0.624975, 0.253104, -0.082159, 1.383227, -0.620611, -0.359661, -1.793322, -1.720755, 0.931465, -1.318523, -0.852922, -1.368187, 1.547548, 0.604099, -0.555562, 1.292161, -0.641733, 0.810674, 0.97148, 0.313591, 1.887531, -0.750067, 0.833686, -2.49543, 1.249848, 0.200992, -0.911212, 0.249564, -0.389003, -0.672086, 0.586092, -2.49376, 0.62943, -1.775135, -0.956052, 0.018168, -0.087053, 0.958893, 0.906973, 1.588613, 0.282012, 0.222431, -0.133936, -0.487977, -1.625415, -1.08654, -0.138389, -1.509115, 0.10607, 1.003586, 0.949887, -1.708573, 0.588665, 0.176687, -0.322276, -1.827061, 0.008798, -0.335755, 1.45694, -0.513755, 1.299764, -0.0405, -0.158185, -0.674893, 0.466985, -0.938942, 0.239188, 0.505951, 1.165559, -2.192338, 0.377697, -0.711327, 0.580505, 0.734857, -0.603304, 0.897484, 1.857865, 1.101117, 1.066913, -0.125566, 0.113935, 1.354164, 0.139853, 1.106049, 0.811315, 0.43232, 2.468687, 0.13468, -0.343698, -0.364555, -0.679215, 0.00207, 1.757091, -1.564366, 0.337618, -0.163072, 1.291069, 1.627595, 1.381551, -1.485262, 2.021698, 0.447085, 0.150215, 2.285609, -0.196551, 2.483892, -1.157126, -0.759419, -1.653145, -0.733271, 0.010787, 0.266502, 0.989789, -0.334637, 1.834363, 0.234276, 0.403282, -0.549298, -0.490392, 0.1845, 0.202069, 0.75631, -0.169924, -0.175232, -0.915792, 0.677295, -0.139979, -1.607636, -0.439697, -0.563681, 0.444021, -1.546493, -0.883197, 0.478281, 1.479501, -0.093358, -1.17374, 1.094617, 1.957226, -2.436517, 0.651817, -0.642723, -0.725531, 1.129416, -1.294627, 0.717584, -0.031993, -0.327556, 1.610327, 1.302561, 0.059467, -1.6353, -1.462116, 0.356982, 0.105236, 1.341149, 1.442303, -2.22362, -0.078343, 0.809308, 0.884128, 0.210329, -0.78436, -1.981592, -0.24854, -0.604721, -0.723661, -0.107422, -0.7964, -0.022259, 0.274851, -0.306471, -1.642755, -0.963935, 1.807752, -1.886842, -0.412238, 1.492616, 0.507359, -0.548226, 0.734936, 0.229386, 0.268583, 1.149582, -0.284509, -0.793545, 0.384576, -0.389715, -1.572147, 1.178889, 1.113107, -0.131537, 0.156319, 0.054611, -0.002817, 0.419748, 0.694317, 0.630867, 0.399025, 0.111775, 1.979896, 0.496693, 0.639477, -1.807266, -0.003534, 0.4134, -0.09782, -0.741084, -1.547312, 0.267651, 2.732803, -0.653123, -0.067625, 0.758882, 0.210157, 0.102246, -0.501304, -0.198079, 0.311304, -0.923422, 0.62739, -1.645352, 1.928151, 1.309476, -0.571236, -0.544223, -0.325332, 1.384103, -0.12699, -0.069109, -0.109402, 1.517018, -0.810637, -1.305711, 0.261315, -0.254357, 0.097841, -0.902799, 1.02618, 1.41301, 2.391626, 1.464273, -2.260403, 0.524205, -0.354622, -0.713611, 1.190331, -0.633183, -1.662753, 0.516393, 0.170745, 1.109472, 1.007027, 1.717361, 0.106187, 0.338094, 1.49935, -1.231626, 1.311354, -0.029459, -1.109955, 0.344947, -0.300213, -0.669469, 1.206797, -2.123185, 1.376424, 0.78621, -0.638888, 1.361301, 0.074988, -0.985009, -1.445172, 1.310199, -0.254658, 0.292948, 1.724974, -0.194736, 0.969932, -1.542405, -1.931731, -1.317164, 1.550695, 0.782149, 0.59234, -1.887749, 2.37305, 1.220407, -0.336929, -1.773076, 0.620865, 0.944269, 0.733849, 1.829157, 0.455155, 0.456625, -0.510758, 0.332555, -1.000201, 0.374896, -1.743435, -0.113867, -1.750979, -1.190351, -0.033482, -1.519312, 0.515438, -0.461234, 0.709259, 0.324034, 1.145609, 1.465615, 0.917769, -0.119951, 0.608099, -0.010508, -0.196489, -0.693618, -0.078671, -0.469604, 1.415273, 1.269024, -0.179036, -0.619785, -2.022768, 1.89976, -1.713338, -1.624734, 0.398744, -0.280157, 0.715145, 0.027888, 1.027503, -0.252221, -0.090863, 0.148702, -2.380108, 0.165879, 0.392406, -0.314803, -0.452164, 1.423797, -0.352697, 0.887118, -0.825808, -1.558301, 0.097504, 0.313054, 0.523186, -0.462202, -0.280654, 1.207238, -0.623391, -0.638133, -0.437386, -0.96279, -1.753537, 0.303314, -0.114021, 0.295473, -1.134918, 1.058707, -0.076215, 0.871182, -1.725655, -1.23314, -0.434203, -0.530638, 1.084305, 2.402123, -0.013235, 0.043643, 0.571663, 0.24018, 1.269484, -0.811093, -0.581727, 1.560832, 0.473902, -1.497561, 0.841042, 1.39338, 0.162198, 0.479875, -0.29908, -0.265945, 0.220876, 0.233523, 0.449429, -1.006329, -2.510802, -0.99176, 1.101531, -0.682366, 0.400911, 1.012152, 0.573804, 0.439411, -0.768165, -0.728619, -1.422865, 0.441266, 1.639053, -0.764159, 0.72495, 0.265453, -0.416984, 0.616742, -0.990355, -0.368426, 0.795452, 1.018446, 1.092272, -1.083444, -0.091821, 0.108603, 0.881284, 0.308892, -0.064227, -1.488336, 0.093462, 1.699721, -0.798835, 0.505898, 0.308817, -0.995711, -0.66002, 0.955415, -1.08342, -2.015828, -0.533409, 1.766788, 1.2356, 0.837806, 0.837387, -1.331513, 1.600536, 0.126675, 0.390907, 1.859844, -0.469013, -0.3515, 0.587258, -0.613812, 0.058996, 0.143634, -0.883556, -0.189602, 1.685831, -0.210318, 0.566755, 0.130606, 0.403611, 1.0129, 0.647595, -0.251925, -1.142703, 0.036297, -0.056156, -0.943152, -0.151416, 1.139894, -0.266434, 0.222198, -0.815339, -0.65412, 1.142712, -0.699554, 0.694009, 0.775962, -0.250818, -0.320346, 0.835045, 1.396955, 0.341689, 0.493945, -0.216386, 1.179147, -0.767979, -0.113476, -0.916267, -0.590645, 0.746403, -0.642609, 0.322919, 1.630958, -0.587197, 1.434821, 0.329388, 0.714771, 1.839076, -0.093898, -1.187437, -1.579951, -0.764418, -2.043083, 1.093565, 1.01674, 0.028648, -0.985379, -0.098571, 1.184121, 0.35222, -0.596413, 0.133696, 1.262796, -0.93713, -1.363434, 0.596141, -0.552124, 0.373637, 1.592784, 0.898048, 0.802203, 1.502785, -0.91835, -0.556316, 2.003938, -0.56795, -0.96787, 1.654384, 0.990485, -0.264804, -1.086016, -1.212058, -0.504995, -0.41348, 0.562847, -1.12795, 0.524969, -0.016772, 0.465927, -0.270647, 0.073064, 0.389129, -0.235845, -0.213481, 0.324697, 0.459229, 1.574948, 0.042376, -0.975699, 0.177487, 1.977724, 0.272755, -0.172334, 0.498349, -0.611192, 0.333985, 0.82902, 0.037353, 1.851117, 0.350017, -0.025376, 0.226389, 0.056439, -0.475411, -1.436023, -0.335112, -1.911697, -0.009128, 0.430364, 0.873986, 0.858406, -0.542532, 0.439829, 1.219284, 1.526475, 0.823945, -0.132455, -0.344952, -0.731266, -1.180912, 1.138289, -0.091661, -0.08074, -0.137998, 0.328475, -0.273952, 3.221195, 0.19355, -0.149457, 0.403081, -0.471385, 2.290775, 0.496671, 0.128723, 0.522377, 0.280564, -0.046802, 0.039178, -0.638862, -0.994471, 0.218054, -1.646365, -0.16289, 1.600242, 0.22632, -0.598809, -1.342541, -0.67785, 0.48829, -0.178183, 1.53621, 0.281636, -1.509516, 0.676571, 0.311624, 0.222846, -0.167712, -0.538554, 0.598574, -0.108203, -0.340451, 0.699474, 0.905827, -0.741995, -0.959316, 0.4575, -0.680719, -1.236652, -1.508555, 0.336692, -0.844, 0.459704, 0.465546, 0.892002, -1.776858, 1.508297, -0.525592, 0.15876, 0.85015, 0.800984, 0.798075, 0.099348, -1.704477, -0.582625, 1.1453, 0.023909, -0.230563, -0.061434, -0.717408, 1.72664, -0.954133, -1.640434, -0.163011, -0.370179, 1.352955, 1.782365, -0.542797, 0.036647, -1.030836, -0.28292, -0.307984, -1.321383, -0.163821, 0.579675, -1.161174, 0.510052, 0.270589, 0.336358, 0.854606, -0.14729, -0.339383, -0.08507, 0.723199, 0.204802, 0.028172, 0.715858, -2.147732, -0.82472, 1.084295, 0.379396, -0.572632, 1.135326, -0.79614, -1.2191, 1.262359, 0.813026, 0.222343, -0.695576, -0.884197, -0.169486, -0.901089, -1.185181, -1.9981, 0.591915, -1.432311, -0.980004, 1.594305, 0.959582, -0.634655, 1.723684, 1.616915, -0.940694, 1.206364, -0.432409, 0.3172, -0.015174, 0.919008, 1.618324, -0.82807, 0.129103, -0.659007, 0.120167, -1.00133, -0.878971, 0.402736, -1.011032, -0.313201, 0.715994, -2.181097, 1.490254, -0.192294, 2.135791, -1.544892, 1.134492, 0.644962, -1.527496, -1.044114, -0.49237, -0.847072, -0.145874, -1.899619, 1.991046, 1.746915, 1.090159, -0.055972, -0.935986, 1.192616, 0.27227, 0.256241, 1.092312, -1.287192, 0.49969, -0.207328, 0.203749, -0.254819, 0.317932, 1.31801, 0.160498, 1.233434, -1.588269, 0.355759, -1.299226, 0.627571, 0.40072, 0.260228, -0.611763, -1.781159, -0.289283, -2.418758, -0.586954, 0.493543, 1.206687, -1.150754, 0.291533, 0.177427, 1.577177, 2.015559, -0.516735, -0.156611, 0.377912, 0.221042, -0.526311, 1.167043, 0.325768, -0.2428, 0.745064, -0.53107, 0.545099, -0.2296, -0.137787, 2.347349, -1.914161, -1.039056, 1.345188, -1.467741, -0.228326, -2.461869, 1.324427, 0.83874, -1.739299, -1.335054, -0.836265, 0.995699, 0.976351, 0.542201, 1.293245, -1.798156, 1.975587, -0.551507, -0.12217, 1.929118, 0.770576, -1.112649, 1.569843, -0.330726, 1.822222, 0.729958, 0.537788, -0.108534, -2.059423, -0.010931, 1.212512, 2.58386, 0.004971, -0.776507, 0.701196, 0.116255, 0.487779, 1.240644, -1.568501, -0.394387, -1.21821, 0.156059, 1.545676, 0.074069, -1.548674, -2.116549, 1.982271, -0.52481, 1.207704, 0.79688, -1.294035, -0.063436, 1.194615, 0.381731, -0.874831, -1.769186, -1.357685, 0.489622, 0.449508, 0.48105, -0.102348, 0.958155, 0.469913, 1.431295, -0.467889, -0.181421, 0.442815, -0.630843, -1.06151, 0.944439, -0.341677, 0.401921, 0.495945, -0.450697, 0.875187, -1.114173, 0.642753, 0.457858, 0.698157, 0.466906, -0.189352, 1.309933, -1.768479, -0.652671, -0.113738, 1.399769, 1.229166, -0.063071, -1.493373, 0.612034, 0.695558, 0.221259, 0.222858, -0.974583, -0.741234, -0.191066, 0.472236, 1.662594, -0.420011, 2.502847, 0.882448, 2.082658, 0.02598, -1.328502, -0.762999, 0.813674, 1.665278, 1.713677, 0.271342, -0.614896, 1.567627, 0.552991, -0.495883, 0.418798, -1.587836, 0.299996, -0.008673, 0.785831, 0.294636, -1.008965, -0.395858, -0.977115, 1.37728, 0.217379, 0.552082, -2.591754, 0.080197, 0.838268, 1.941207, -0.783802, 2.443853, 2.288504, -0.118416, -1.044572, 2.381156, -0.088588, -0.238049, -0.328488, -1.29576, 0.920985, -0.031372, 0.301637, 0.422943, 1.467236, 0.729522, -1.073845, -0.655678, 1.898474, -0.704936, 1.083438, 0.100023, -0.165294, -1.454308, 0.681369, 1.353864, 1.341614, 0.560078, -0.665781, 1.331023, 0.676655, 0.809803, 1.237332, -0.827027, 0.321646, -1.015344, 1.455002, 0.250058, -1.391983, 0.248542, 0.282075, 1.713678, 1.475091, 1.660752, 0.150919, 0.946002, 0.476271, 0.221136, 0.458438, -0.35642, -0.262321, 0.564551, -0.967092, -0.183683, -0.574716, -0.340158, -0.57727, 1.168003, -0.574193, 0.916774, -2.503951, 0.51191, 0.384366, 0.024091, 1.800504, 0.269945, -2.057813, 1.653733, 0.045371, 3.335325, 0.084055, 0.561392, 0.7336, -1.313914, -0.066938, 1.356441, -1.23648, -0.517485, 0.284252, 0.9773, -1.087242, 0.009734, 0.203387, 0.804471, -0.365636, 1.742715, 0.252163, -0.350302, 2.153662, 0.544293, -0.106213, -1.198119, 1.015867, -0.334359, 0.650702, -1.763874, 1.285323, 0.691807, -0.389123, 0.59051, 1.243522, -0.257749, -1.70922, 0.693496, -0.352249, 0.848386, 1.588427, -0.330422, -0.283465, 3.071743, 1.798777, 3.219467, 0.509757, -1.344754, 0.350587, 0.312345, -0.488724, -0.481584, -0.24036, -0.198672, -0.083798, 0.44921, -0.569055, 0.726105, 0.817924, 0.945099, 0.033631, -0.8635, -2.208997, -0.194784, 2.834768, -0.440943, 0.131876, -0.920323, 0.425213, -0.405356, -0.796413, 0.380947, -0.154132, -0.122264, -0.831786, -0.202689, 0.254549, 1.124694, -1.269573, -0.28418, -0.577961, 1.262798, 1.256093, 1.474371, 0.054984, -0.97356, 0.105957, -0.690138, -0.748986, 0.582678, -1.756122, 0.155963, -1.244875, 1.259326, 0.68781, 0.953706, -0.101423, 1.176445, 0.368006, -0.542539, -1.542753, -0.580487, 0.132953, -0.42811, 1.100781, 1.283337, -0.963148, 0.510621, 0.440407, 0.868139, 0.24532, 0.865579, 0.303299, 0.199871, -1.210866, 0.47812, -0.672665, 0.480466, 0.25131, 0.293778, 0.545702, -0.276406, -2.439626, -0.877674, -0.960001, -3.498278, 0.202681, -0.372106, 0.069772, 0.669641, 0.831734, 0.358125, 1.051151, -0.169965, 1.329218, -0.513205, 0.869528, -2.051526, 1.007051, 0.305866, 0.477175, 1.011688, -1.994781, -0.806534, 0.977515, -0.897433, 1.603694, 1.005231, -2.0518, -0.665108, 2.442511, -0.357996, -0.700174, 2.314184, 0.171932, -0.221465, 0.220201, -1.879138, 1.116803, 0.39379, -0.186208, -0.541785, 0.195961, -0.675765, -1.502925, 1.139338, 0.10796, -0.442788, 0.664982, 1.113121, -0.556325, 0.777952, 1.917354, 0.048843, 0.23805, 0.025305, 0.791944, -0.722609, -0.177659, 0.225201, -0.615416, -0.54088, -0.341355, 1.446918, -1.365377, 0.236447, 2.817367, 1.283817, -1.85802, -0.003701, 0.723779, 1.704783, -0.668691, 0.73987, -0.815615, -0.153229, -0.701781, 0.2485, 1.931257, -0.100079, 0.49624, -1.861691, -0.048656, 0.871087, 0.364303, 1.52634, -0.933075, 0.695353, 0.541401, 0.357673, -0.777335, 1.731361, -1.685799, -1.817598, -0.035831, 0.150596, -0.47389, 0.418014, 0.605246, -0.164736, 0.668839, -0.600807, 0.89826, -0.779193, 0.381884, -2.536685, 0.181302, -0.830096, -1.673172, -1.213435, -0.802511, 0.314052, -0.714102, -0.05828, 0.771191, 1.032608, 0.219449, 0.367757, 1.797347, -0.138737, -0.067799, -0.892887, -0.6978, 1.153555, 0.572892, -0.412272, 0.498096, -0.486156, 0.56945, 1.548653, -2.069694, -0.893291, 1.286776, -0.334499, -0.100966, -0.396167, -1.497626, 1.046442, -0.437973, 1.294251, 1.57906, -1.267481, 0.369713, -1.201221, 1.132284, 0.49027, 0.753601, 1.050402, -0.183534, -0.21278, 0.493391, -0.347128, 1.002066, 1.714394, -0.241655, 1.243314, -0.609458, 0.480906, 0.700953, -1.29203, 1.069703, -0.195685, -0.177292, 2.810459, 0.498868, 0.76389, 0.971339, -0.680809, 0.016702, 1.30336, -0.86103, -2.465884, -1.866015, -1.307885, 1.216782, 0.30456, 1.175733, 0.7953, -0.139279, -0.840528, 