{"arch": [768, 64, 1], "scale": 600.0, "layers": [{"w": [-0.999564, -0.365682, 0.078832, 0.283874, 0.045568, 1.639471, 0.378396, -1.667078, 0.622369, 0.627541, -0.267831, 0.251022, 0.37539, -0.606826, 1.296263, 0.546022, 0.71654, 1.439455, -0.493856, -1.179507, -0.629774, 1.224628, -1.431658, 0.665897, 1.012602, 0.748286, 1.036903, -0.114778, 0.350914, 0.678568, 0.413164, -1.298511, 1.048747, 2.423078, -1.367509, -0.10538, -0.12301, -0.40758, 0.378097, 1.587902, -0.164106, -1.037036, 1.769995, -0.810091, 1.114264, -1.105653, -1.441735, -0.653847, -1.403627, -1.325379, 1.34755, 0.636416, 1.773394, -0.352076, 0.613055, -0.348162, 0.180357, -0.276183, 0.158888, 0.308382, 0.013465, -0.690319, 2.756874, 1.632327, 0.437085, -1.762223, 0.630764, 0.134097, -1.03602, 1.691365, -0.103904, 0.443706, -0.827017, 0.003019, -0.603628, -1.35106, -0.73798, 0.265643, -1.357061, 1.700611, -1.08674, 0.007939, 0.41949, -0.181394, 0.604264, 0.172409, -0.417908, -0.628553, 0.866536, 1.238552, -0.173146, -1.335365, -0.149382, 0.573421, 1.158653, 0.516539, 0.112666, -0.07503, -0.409926, -0.258808, -0.36768, -0.740318, 0.943264, 0.58845, -0.668141, -0.29051, -0.455732, -1.225184, -1.402452, 0.282142, -0.307258, 0.203631, -0.607421, 1.156733, 0.572604, 0.392109, 1.068653, 1.021814, -0.553291, 0.417716, 0.331665, 1.651292, 3.765074, 0.219149, 1.186725, -1.52172, -0.801767, -0.696828, -1.04714, 0.156862, 0.271818, -0.213288, -1.52131, -1.801186, 0.069617, -0.245414, -0.609459, 0.832416, -0.285799, 0.98435, -1.868409, 0.544564, 0.256895, -0.303092, 1.050443, 0.159805, -0.667604, -0.266338, 0.193331, -0.525113, -0.242771, -0.665157, -0.266907, 0.510097, -0.275945, 1.326143, -0.327252, -0.592645, -1.489539, -0.185852, -2.239491, 0.832061, -1.066125, 0.055751, -1.271969, 0.352107, -0.363841, 0.012074, -0.76193, 2.166699, -0.318977, -0.166657, 2.845928, 0.662946, -0.662122, 1.656834, 0.419506, -0.371421, -1.224748, -0.10896, 0.937537, -0.119991, -1.136722, -0.471386, 0.130612, 1.776051, -0.959924, -0.69348, 0.557209, 0.558564, -0.841719, 0.440251, -0.531848, -0.597488, 0.644801, -0.942346, 0.749735, -0.219716, 0.087153, -2.889471, -1.570343, -0.091644, -0.70286, 0.028644, 0.080434, 1.498801, -0.472011, 1.613546, -0.912872, 0.291429, -0.148206, 0.234914, -0.321744, 0.737906, 0.14761, -0.42671, 0.396658, -0.531557, 1.407588, -0.748307, 0.483236, 0.331607, -0.125394, 1.37251, 0.509677, -1.285061, -1.239291, 0.46969, 0.15473, -0.478032, 1.136896, 0.706484, -0.076587, 0.51469, 0.864501, -1.57881, 0.982558, 1.632015, -0.637115, -1.590543, 0.530525, 0.403921, -0.492888, 0.946231, -0.224753, -1.23077, -0.673064, -0.366487, 2.609069, -0.462583, -1.730603, 0.187919, -2.473133, 0.368544, 0.767739, 1.953308, -0.052302, 0.809352, 0.691515, 0.907683, -0.819286, -1.044812, 1.228207, -0.397203, 0.158698, 0.622387, -1.065036, 0.007016, -0.016499, -0.246965, 0.373486, 0.836135, -1.210945, -0.715703, -0.902915, 0.854798, 0.361164, 0.09127, 1.625955, 0.35077, 1.265553, -0.092035, -2.24247, 0.001867, 0.936188, 0.953808, -0.487886, -0.171707, -2.357674, -0.513198, 1.423758, -0.477926, 1.771845, -0.224803, -0.824807, 2.261116, -0.170359, -0.857865, 0.602649, 1.04744, 0.922304, -0.31781, -0.522609, 0.123921, 0.094878, -0.947645, 0.154273, -0.832875, 1.391011, -0.687186, 1.950086, 0.730909, -0.962993, 0.086159, 0.534469, -2.517345, 0.177396, -0.261321, -0.045987, -0.492858, -0.600004, 0.607065, 0.413992, 0.231962, 0.772166, 2.156893, 0.277111, 0.493056, 1.055362, -0.883118, -0.867782, -1.692762, 0.957132, -0.081849, -0.638596, 0.121835, 1.209786, -1.388289, -0.73794, -0.222925, 1.023265, -1.538259, -1.707672, 0.753348, -0.950754, -1.295061, 0.750466, -1.385606, -0.208906, -1.254421, -1.156607, -0.73636, -0.716018, -1.062383, 0.873913, 1.205599, -0.647151, -0.369427, -0.182013, -2.388896, 0.421761, 1.483364, 1.165892, 0.041574, -1.828427, 0.214784, 0.943549, -1.673716, 1.467023, 1.264434, 0.218474, 0.83034, 0.177471, 1.783077, -0.857018, -1.688649, 1.337146, -1.016988, 0.563142, 1.069964, -0.55274, 0.502321, -0.014326, 1.081602, -1.690102, 0.491879, -0.2551, 1.31702, -1.181591, -0.745856, 0.879527, -0.44979, 0.397753, 0.760328, 0.628261, -0.878699, -0.021509, -0.024682, 0.491959, 0.31628, -0.839509, -0.314596, -1.396664, 0.065094, -2.128485, 0.021775, -0.608954, -0.376727, -0.167883, -0.1288, 1.120384, -0.789389, 0.199981, -0.677071, 1.059181, 1.416047, 0.499716, -0.063293, 0.136543, -0.317115, -0.242173, -2.048934, -0.167452, -0.387526, -1.295811, -1.165721, -0.349188, 1.904821, 0.120864, -0.501779, -0.422104, 0.045658, -0.033696, -0.889408, -1.672182, 0.996533, -1.176746, 0.420437, -0.866446, -1.822613, 0.129685, -0.360105, -0.946924, -0.534896, 0.155501, 1.512817, 0.611084, 0.387009, -1.013727, -1.022738, 0.596905, -1.202448, 0.101428, -0.060101, 0.318638, 2.167135, -0.007936, -0.316099, 0.731336, 1.073027, -0.192718, -1.517817, 0.537113, -1.546893, 0.651306, -2.100857, 0.033728, -0.831769, 0.147897, -1.745319, 0.163482, 0.761508, -0.875458, -0.612882, 1.238432, 0.204636, -1.298314, -0.169784, 0.115088, 0.054786, -0.699612, -0.748542, -0.502765, 0.702131, -1.295528, 1.960657, 0.597295, -0.435589, 2.271086, -0.578902, 0.136707, 0.781965, 0.878717, 0.653935, 0.262077, 1.686324, -0.874415, -0.674069, -1.030992, -0.993088, 2.02247, -1.844551, -0.820067, 0.860663, 0.032221, 0.078327, -1.071648, 0.287268, -0.848537, -1.125167, -0.727758, 0.56037, -0.678707, 0.217804, -1.528577, 0.607526, 1.859987, 0.032264, -0.955802, -0.12156, 0.564168, 1.299945, 0.517127, -0.827271, -0.148787, 0.299779, -0.380689, 0.610744, -0.53321, 1.028067, -1.394551, -0.062391, -0.013998, -0.553867, 0.563205, -0.845149, -0.171136, -1.601366, -0.34911, -1.104468, 0.023512, 1.012616, 0.67333, 0.291054, 1.198916, -0.033917, -0.611733, -0.666603, -0.749656, 1.988081, -1.666333, 2.156919, 1.007195, 0.254321, 0.133232, -1.805694, 0.316412, -0.749563, 0.403155, -0.763779, 0.339184, -0.45081, -2.655206, -0.034537, 1.208111, -0.757931, 1.433157, -1.398335, -0.126416, 0.270063, -0.126662, -0.785007, -0.453653, 1.514734, 0.647089, -0.07219, -0.735353, 0.23976, 0.945549, 0.82793, -0.057477, -0.685517, -0.899986, -0.684604, 1.464254, 0.489467, 0.467644, 0.881532, 0.159675, 0.400866, 1.04623, 0.926641, -0.391282, 0.133252, 0.483607, 0.416897, -0.169443, 1.154639, 0.122831, 0.977705, 0.052354, 0.061682, -1.062693, -0.454924, 0.265878, 1.178997, -0.442858, 0.701963, -0.725756, -0.640553, -0.459539, -0.087553, -0.591441, 0.45215, 0.260247, -0.071843, 1.695137, -0.960506, -0.657098, -0.137789, 0.940307, -0.393353, 0.025001, -0.30616, 0.437917, 0.933523, -0.805594, -0.77306, -0.652768, 1.487045, 0.33336, 0.436567, 0.438395, -0.192049, 1.094985, -0.274203, 0.640877, -2.334926, -0.147499, 0.929483, -0.800164, 0.247391, 0.63543, 1.086597, 0.512224, -0.543869, 0.381519, -0.59211, 1.373106, 0.168854, 0.383809, -0.93456, 0.903098, -0.468608, 1.008634, 0.568608, 0.943531, 0.652651, 0.010789, -1.063159, 2.415796, 0.9447, -1.045803, 0.747978, 0.176905, 0.365051, -0.187446, -0.677443, 0.953256, -0.158413, 1.347533, -0.880466, 1.138542, 0.065489, 1.645014, -0.056526, 0.352833, -0.012287, -1.474874, 0.891758, -0.092829, -0.968132, 0.318015, 1.025798, 1.614647, 1.246343, 0.09572, -0.835298, 0.817286, 0.947789, -1.357336, 0.846806, 0.000694, -0.661311, -1.083643, 1.057384, 1.069313, 0.327989, 0.794384, -0.177669, 0.841982, -0.130565, -0.259758, 0.416129, -0.627638, -0.284281, 0.772209, 1.292477, 1.660744, -0.650463, -0.003457, -0.905934, -0.821393, -0.527906, 1.249183, 0.65055, 1.359089, -0.197757, 0.983988, -1.165853, 0.522256, 0.216162, 0.326211, -1.501315, -1.356569, 0.159748, -0.574383, 0.339641, 0.167396, 0.229734, -1.031249, -0.248227, 0.669279, -0.243461, -0.178308, -0.239948, -1.318305, -0.222098, -0.667765, 1.257548, -2.5064, 1.60679, -0.15784, 0.717728, -0.127233, -0.310488, 0.872615, -0.629213, 0.502074, -0.486569, 0.197863, -0.993357, 0.677585, -1.415056, -1.641872, 0.306738, 1.130852, 0.728328, -0.330544, -0.597185, -0.081334, 1.446881, 0.761227, 0.375183, -0.75486, -0.202867, 0.915391, 0.55411, -1.137556, -0.37846, 1.795587, -0.81604, 0.501767, -0.276372, -0.746029, -0.470445, 0.593756, -0.080869, 0.67664, 0.458576, 1.54041, 0.454673, -0.268767, 0.731833, -0.297621, 1.053595, 0.384176, 0.569912, -2.525558, 0.959964, 0.186766, -0.063867, -1.008516, 1.450323, -0.084522, 1.177528, 0.551285, 0.102721, -1.952039, 0.274762, 0.421228, 1.377282, 0.579974, 0.858526, 0.10226, 0.031586, 0.226851, -0.032351, -1.182512, 0.980997, -0.544788, -0.376045, 1.054866, -0.148485, -0.469889, 0.215441, 0.203872, 2.289064, -1.072745, -0.342407, 0.585132, -0.360656, -0.677299, -0.830611, 1.170673, 0.963889, 1.647753, 0.488368, 0.987441, 0.363283, 1.317465, 0.907433, -0.98467, 0.087229, 0.273632, 1.096344, 0.127577, 0.079524, -0.714393, 0.045497, 0.006062, 0.655037, 1.756418, -1.77784, 1.085172, -0.183484, 0.409032, -0.549312, -0.784962, -0.513877, -1.143173, 0.946367, -1.070787, 1.641909, -0.176847, 0.899807, 0.466925, -0.296984, -0.844552, 0.381265, -0.460682, 0.070707, -1.631862, -0.745321, 0.656386, 1.881712, 0.189429, 0.763796, -2.032138, -0.292976, 1.842326, 0.382485, 0.187589, -1.141047, 0.945514, -0.281988, 1.187326, 1.134623, 0.997464, -0.810132, 0.217217, 0.220344, 0.720615, 1.410516, 0.7274, 1.373811, -0.335164, 0.651235, 0.567384, -0.146751, 0.007579, 0.05892, 0.667504, 0.871672, -0.438378, 0.919447, -0.435314, 1.742358, 0.55327, 1.428021, -0.406775, -0.660523, -0.76687, 0.234693, -0.488408, -0.264056, -1.380199, 0.102253, -0.811876, 0.082026, 0.639269, -0.567158, 1.10596, 1.194981, -0.483268, 0.995333, 0.052526, -0.993143, -0.851493, 1.400559, 0.175107, -0.131417, -0.772002, 0.424387, 0.444231, 0.155441, -1.693595, 1.24952, 1.404532, 0.359005, -2.832822, -0.503622, 1.086516, 1.008631, 0.148969, 1.258973, -1.000461, 0.666652, 1.075658, -0.520407, 0.230628, 0.864665, -1.283988, -0.353292, 1.603958, -0.132114, 0.83767, 0.006875, -0.804821, -0.07085, 0.529074, 0.401904, -0.286171, 0.652126, -0.93453, 0.342561, -0.308897, -0.90557, 0.968684, -0.33152, -0.803314, 1.500393, 1.40201, 1.887738, 0.059941, -0.04157, -0.679469, -0.15509, -0.874512, 0.012744, 0.983785, -1.231673, -0.551206, 1.566059, -0.3319, -0.000503, -0.377399, 2.375765, -1.051632, -0.069954, 0.390995, 0.73771, 1.09767, -1.000694, 0.584031, -0.399175, 0.459951, 0.15724, -0.964598, 0.985352, -1.046444, 1.302494, 0.877109, -0.227837, 0.459064, -2.897219, -0.618668, 0.98686, -2.56572, -0.12448, 0.673827, 1.532952, 1.46639, 0.50904, 1.815512, 0.73041, -0.207607, 0.783556, 0.991896, 0.520944, 1.024635, -1.766796, 0.529512, -0.1761, 0.978875, -2.280623, 0.864869, 0.044607, 0.366104, 2.759842, 1.274574, -0.255931, -0.133983, 0.278151, 1.452437, 0.923146, 0.726276, 1.211464, 0.146169, -0.369805, -0.329365, 0.096255, 0.270629, -0.136537, 0.342869, -1.50515, 2.791406, 0.718985, 0.185719, -0.484732, -0.442822, -0.754314, -0.548243, -0.067535, -0.372464, 1.214997, -0.275845, 0.875188, 0.203129, -0.359064, -0.121373, 0.279762, 0.492753, 0.754696, 0.394123, 0.735962, 1.945188, 0.320392, 2.28095, -0.315799, 0.60233, -0.123011, 0.206736, 0.29638, -0.779059, 0.443346, 0.857639, -0.41134, -0.505597, 1.762964, -0.399091, 0.030016, -0.215231, -0.659603, 0.319452, -0.360062, 0.76505, -0.500387, -0.105845, -0.696262, 1.058718, 1.628316, 0.29923, 2.489623, 1.026361, 1.619538, 1.670637, -0.204039, 0.791021, -0.425325, 0.045529, -1.276831, 1.273852, 0.907856, 2.517743, 0.206595, 1.187489, 0.809152, 0.6422, -0.66966, -0.863826, 0.385693, 0.201361, 1.844998, 0.059066, 0.661969, -0.001821, -1.15474, 1.162858, 0.189134, 0.430776, 0.751188, -0.459736, 0.444113, 0.702875, -1.10956, 0.862596, -0.481965, -0.124278, 0.01377, 1.737595, -0.256129, 0.11212, -0.468726, -1.162269, 0.28539, 0.040125, 1.537242, -0.35205, 0.128945, -0.971981, -1.845716, -0.29766, -0.987503, -0.154399, 0.109271, 0.774028, -0.309049, 0.8692, -0.543063, 0.626144, 1.141806, 0.041865, 0.076586, 0.875289, 0.546785, -0.853294, 0.380137, 0.620543, 0.124105, 1.359327, -0.213024, -1.493172, 0.851943, -0.359362, 0.220518, 0.651844, -2.531124, 0.398266, -0.402613, 1.576356, -0.368098, 0.658036, 0.039219, 0.973279, 0.007766, -0.189681, 0.345637, -1.018404, 0.328649, 1.343167, -0.89331, 0.320455, -0.009243, 1.257553, 1.332045, 0.553189, -0.707583, -0.165997, 0.6544, -0.335259, 1.29484, -0.589045, 1.275468, -0.076131, -0.932872, 1.111306, -0.637146, 2.146131, 0.249776, -0.058027, 0.894786, 1.469179, 0.307003, -0.932206, 0.679443, 0.759567, -1.718661, -1.896515, 0.093171, -0.290034, -0.703259, -0.065216, 0.298082, 0.254347, -0.772058, 0.065817, 0.392474, 0.142326, 0.483233, 0.442998, -0.390053, -0.212961, 1.043669, -0.145707, -0.318784, 0.426181, 0.535036, -0.06182, -0.617877, 0.600957, 0.220243, -0.572402, -1.242451, 0.459694, -1.31316, 1.555243, -0.614675, 0.343925, -0.01925, -0.81157, 0.538914, -0.669163, 0.091621, -0.530317, 1.575071, -0.318158, -0.014577, 0.330615, -0.418583, 0.006356, 0.383572, 0.506658, 0.359768, 0.162579, 0.102114, 0.024469, 0.218091, 1.48905, 0.748039, 0.185463, 1.269594, -0.096308, 0.449933, -1.607244, -1.055543, 1.563216, -0.606028, 0.185835, 0.203475, -0.564683, 0.924918, 2.042164, -1.142419, -0.302863, -0.235682, 0.93762, 2.162273, -0.675985, -1.642441, 1.03557, 1.165934, 0.17912, 0.369507, 0.485068, -0.989045, -0.492792, 0.829794, -0.038225, -0.478117, -0.022484, 1.092188, 0.801311, 0.549842, 0.82833, 0.176089, 0.094602, -0.625486, 1.025965, -0.812017, -0.510193, 0.083504, 1.317672, 0.069737, 2.400957, -0.126469, 0.43702, 0.731252, -0.800503, 1.321806, 0.597141, 0.227925, 0.364871, 1.62885, 1.304995, -1.23998, 0.423493, 1.065513, 0.040703, 1.117028, -0.439308, 0.730563, -0.245464, 0.26093, 0.918077, 0.10131, 0.305982, -2.089605, 0.8028, 1.524837, 2.043432, 0.920585, 0.259881, 1.329747, 1.021316, 0.264972, -1.194079, -0.731352, 1.241741, 0.679846, -0.709105, 0.553027, 0.387703, 0.407842, 0.613311, -0.374122, -0.307881, 0.032226, -0.480437, -1.428394, -1.317736, -0.574749, 1.010588, -0.747796, -0.229815, -0.693741, 1.988102, 0.737092, 0.206536, 1.301271, 0.328125, -0.774833, 1.291693, 1.01665, -0.116982, 1.651999, 0.377333, -1.722668, 0.377241, -0.006166, 1.000229, -0.092795, -0.218267, 0.355293, -1.357775, 0.91789, 0.979945, -0.002948, 1.629481, -1.376856, -0.834173, 0.982525, 0.225292, 0.369841, 1.563088, 1.339736, 0.757614, 0.1291, 1.414651, -0.164746, 2.039722, -0.231716, 0.189732, 1.77621, 0.942512, 0.21375, -1.015766, -0.32804, -0.136113, -0.597631, -0.570659, 0.863251, 0.040124, -0.25354, 0.678474, -0.611138, -0.162303, -0.949107, 0.877513, -1.463714, 0.34034, -0.0481, 1.221299, 1.663749, 0.978707, 0.196038, 1.22682, -0.313002, 0.008459, -0.861319, -0.064049, -0.06544, 2.206265, -0.146808, 0.467188, -0.874831, 1.437677, 0.280043, 1.32815, 0.436227, -0.002911, -0.333623, -0.761115, 2.452014, -0.690443, 1.144411, -1.200406, 0.117031, -0.192372, 0.838799, 0.673577, 0.615132, -1.968496, -0.465372, -0.433375, 0.158523, -0.236963, -0.305692, -0.550011, -0.378632, 1.157217, -0.915997, 0.989561, -0.090726, 1.024551, 0.876462, 1.789956, -1.710853, -0.967801, 0.206442, 1.637635, 0.397866, 0.343547, 0.993806, 0.957199, -0.149261, -0.541597, 0.97768, -0.776125, 1.765294, 0.718745, 1.405787, 1.12066, -0.078513, 0.898355, 0.037933, 0.404657, -0.470297, -0.961609, -1.732471, -0.19207, -0.492076, 0.560321, 1.326198, 0.82, 0.910901, 0.909855, -0.013324, 0.61949, -0.201384, -0.088729, -0.476495, 0.390148, 1.749686, 0.947566, -0.228601, 1.500138, 1.678664, -0.135113, -0.273085, -0.460461, 0.350131, -1.795442, 1.636924, -0.784449, 1.579123, -0.620558, 0.411348, 0.7476, 0.548578, 1.009877, 1.310177, 1.118126, 0.598956, 0.128972, -2.307779, 0.249125, 1.23178, -0.039661, -0.284759, 0.74918, 0.323846, 0.533618, 1.298405, 0.84474, 0.975546, 0.283676, 0.755701, 0.403094, -0.052201, 0.992415, 0.075385, -1.945758, -0.48285, 1.274517, 0.843406, 0.835724, 0.200257, -1.667114, 0.383944, 0.139757, 0.214269, 0.503848, 0.618839, 0.408199, -0.083294, -0.008471, -0.735848, 0.008853, -1.424643, 0.072234, -0.355982, 0.948111, 0.116895, 0.203987, -0.930484, -0.336131, -1.260147, 0.308556, 0.543768, 0.152613, 0.185349, 1.339906, 0.407658, -1.202533, 1.399285, 0.90338, 0.816623, -0.08357, 0.648484, 1.786667, 0.016182, 0.724511, -0.620102, 1.036519, 0.602487, 0.253226, 0.298785, -0.39324, 0.311963, -0.682589, 0.328723, 2.258273, -0.681666, -0.228389, 0.880615, 0.522487, 0.504602, -1.265517, 0.084077, 0.523267, -0.34788, 0.572406, 0.340014, 0.685953, 0.789837, -1.372707, -0.809444, -0.328152, -0.93718, 1.348123, -0.042147, -0.459268, 0.519502, 0.112202, -1.20061, -0.987129, 1.068163, 0.703373, -0.520295, 0.679084, -0.643424, 0.904761, -1.478608, 0.127162, -1.346546, -0.196226, -0.23796, 0.731111, 1.561186, -0.224088, 0.319833, 1.065064, -0.211869, 1.275786, 0.303109, 0.603656, 1.5762, 2.041754, -1.513573, 0.552443, 0.853594, 0.511999, 0.247481, -0.914535, -0.592786, -0.407952, -0.620014, 0.636499, 0.94315, 0.163157, 1.253873, -1.015701, 0.593864, 0.236664, -0.633309, 0.434959, 1.296981, -0.506906, 0.985954, 0.392339, 0.935171, -0.637132, 0.470207, 1.671522, 0.69783, -0.521717, -0.448202, -0.426007, -0.446484, -0.579396, 0.469738, 1.536864, 0.111496, 2.235462, 0.8845, -1.346869, 0.05155, -0.298143, -0.567372, 1.608976, -1.085978, 0.674244, 0.652226, 0.352938, -0.482336, 0.077921, 0.215717, 0.301995, 0.102372, 0.185061, -1.015857, 1.176595, 0.108826, -0.299197, 0.883521, 1.461958, -0.97015, -0.01919, 0.850921, 0.700935, 0.182156, -0.006799, -1.577588, 1.430091, 0.440167, -0.279256, -0.295737, 0.901811, -0.195703, -0.045322, 0.67455, 0.533902, -0.336213, 1.20928, 0.283589, -0.030716, -1.545072, -0.354821, -1.442119, -1.352739, 0.225826, 0.806745, 1.486068, 0.09468, -0.667029, -2.003311, -0.130265, 0.749206, 1.101014, 0.549224, 1.165958, -0.894258, 0.722521, -1.178712, -0.39435, -0.41651, 0.789647, -0.554325, -0.59385, -0.105024, 0.201152, 1.205051, 0.713566, 0.981594, 0.636687, -0.966527, -0.100594, 0.289957, 0.29792, 0.111012, 0.565995, 0.465005, -1.275414, -0.238812, 0.192756, 0.418093, 0.994566, -0.45872, 0.099082, 0.681192, 1.106212, 0.051695, 1.035446, 0.97873, -0.911343, 0.356447, 1.004686, 1.156899, 1.967344, 0.022479, 0.417744, -0.335766, -1.277023, 1.390077, 1.904321, 0.143066, 0.491355, -1.368407, 1.327032, -0.12794, -0.529026, 1.038864, 0.631058, 0.196418, -0.213437, -1.035429, 1.323952, 0.117213, -1.063303, 0.160468, -0.379838, 0.434981, -0.616612, -0.941865, -0.067923, -0.258763, 0.126645, 0.19506, -1.482044, -0.390841, 1.546567, 0.397547, 0.854069, -0.498364, 0.022252, 0.076115, 0.360806, 1.491659, -1.520942, 1.11358, 1.144356, 0.478697, -0.207576, 0.224042, 0.100018, 0.546451, 0.432496, -1.113031, -0.194266, 2.095638, -0.498585, 1.803183, 0.850515, 1.639542, -0.434531, 1.643949, 1.484104, -0.301655, -0.06406, 0.167075, 0.318122, 0.88041, -0.533103, 0.093991, 0.389644, 0.091556, 0.223526, 0.435511, 0.158471, -0.545186, -0.325304, 0.716232, -0.216693, -0.44506, -0.044514, 2.66817, -0.285167, 0.18109, -1.227768, 0.330402, -0.119059, 0.330849, -0.208282, -1.71621, 0.209502, -0.495858, -0.762959, -1.024706, 0.709373, 0.558502, 2.478012, 0.485254, 0.387639, -0.861537, -0.212325, 2.083115, -0.873967, -0.859206, 0.828052, 1.581141, -0.045707, -0.402779, 1.421789, 0.336219, 1.566837, -0.831969, 0.133, 0.929426, 0.511428, 0.564445, 1.356001, 0.960936, -0.499838, -0.850748, -1.293601, 2.209023, -0.405926, 0.437603, 0.772677, -0.129679, 0.39023, -2.055883, 0.684915, -0.237713, 0.922943, -1.312473, -0.088805, 0.114905, 0.925638, 0.360226, -0.325913, 1.478117, -0.230292, -0.444844, 1.161066, 0.719545, 0.215254, 0.279119, 0.316111, 0.102136, 0.798897, -0.63826, 0.545314, 0.170687, -0.761854, 0.300529, 0.094489, 0.082177, 0.530913, -0.980889, 0.338008, 0.515895, -0.594239, -0.441531, 0.521811, -0.37933, -0.792936, -0.243475, -0.267858, 0.160949, -0.422728, 0.582296, 0.815126, 1.307131, -0.306684, 0.148389, -0.833606, 0.688739, -0.443634, -0.141233, 1.8493, 0.590412, -0.618502, 0.60559, -0.631699, 0.292104, 0.08392, 0.261366, -0.283821, -0.538216, 0.517131, 1.823882, -0.069289, -0.250052, -0.13318, 1.239946, -0.715564, 0.384324, -0.233937, -2.158067, -0.657942, 0.254914, 0.007725, -0.248348, -2.289722, 1.260707, 0.794156, 0.293576, 1.386381, 0.693169, 1.59235, -0.605847, 0.466549, 0.689298, -0.721768, 0.229481, 0.072333, 0.672372, 0.652043, -0.151679, 1.659847, 0.909004, -1.286988, 2.71907, 0.053222, -0.929687, 0.262321, 0.492451, 1.660036, 1.89569, 0.139062, 0.632413, 0.601157, 0.648504, 0.176092, 0.617702, 0.694273, 0.65505, 0.889386, -0.6077, 0.335844, 0.040253, -0.725304, 0.470128, 1.488369, -0.458596, 0.104127, 1.561175, -0.561835, 0.829873, 0.090029, 1.24915, -0.619826, 0.581424, 0.766954, 1.384841, -1.065832, -0.472857, 0.827219, 0.374669, 0.070476, 0.039386, -1.453525, -0.524298, 0.382514, -0.546906, 0.86969, 1.375989, -0.896541, -0.423479, -0.083562, 0.41175, 1.635825, 0.090184, 0.673842, -1.360712, 0.498105, 0.898353, -0.912467, 1.850343, 0.109228, -0.210373, 0.006855, 0.673427, 1.231624, 0.183175, -1.614827, 0.082719, 0.101727, 0.354991, -1.669146, 0.155577, -1.736723, -0.215099, 0.24195, 0.760921, 0.994444, 0.740612, 0.973109, -1.081764, -0.215674, 1.515255, 0.752074, -1.199026, 0.87037, -0.238612, -0.032097, 0.034674, 1.96828, 0.915191, -0.741821, -0.532733, -0.88203, -0.129522, 1.42124, -0.10099, -0.45585, -0.448786, -1.115347, -0.020259, 1.237143, 0.38939, -0.059974, 2.324914, -1.298826, 0.690624, 1.888912, -0.232217, -0.02919, 0.578313, -0.09554, -1.528272, 0.837334, 0.200078, 0.609542, -0.010645, -0.183708, -2.049643, 0.942833, 1.002499, 0.042101, 2.058321, -0.58449, -0.565416, 0.916476, 0.348053, 0.989116, -0.245598, -2.314542, 0.985592, 0.132326, -0.883895, 2.853585, 1.380721, 1.140547, 0.857977, -0.48234, 0.034714, -1.301615, -0.403748, 1.172296, 0.629521, 0.608147, 0.668359, 0.112617, 0.825, 1.009729, -0.418227, -1.614567, 0.403246, 2.70165, 0.282387, -0.020363, 1.328123, 0.433019, -0.331634, 0.539535, -0.549096, 0.072385, -0.372727, -0.670001, -0.43637, -0.679119, 0.785833, -0.196117, -0.552188, -0.430604, 0.886426, 0.931827, -0.598541, -0.643439, -0.343839, 0.24156, 1.257933, -0.141497, 0.664112, -0.936095, 0.440191, 0.361611, -0.437821, -0.286683, -0.246391, 1.132912, 0.535573, 0.285572, 1.702994, 0.495391, 0.528348, 0.457233, -0.019151, 2.175216, -0.480048, 0.638397, 0.734022, 1.801467, -0.567058, 0.85454, 1.573048, 1.079342, 0.402306, 0.812276, -0.038647, -0.369478, 0.485842, -1.548275, -1.220432, 0.331782, -0.809197, 1.519154, 1.12031, 0.282799, -0.127891, -0.072579, -0.984985, 0.760783, 0.335151, 0.83856, 0.793924, 0.231374, -1.213904, -0.467499, 0.160479, 0.083802, 1.037891, -0.658988, 0.393595, 0.459486, 1.824651, 0.059552, -0.041376, 1.15153, 0.054135, 1.906784, 0.052236, -0.825188, -1.10395, 0.176975, -0.379514, -0.294528, 0.146657, 0.19179, 0.357569, 0.220049, -0.58839, 0.585323, -0.435129, 0.98725, -0.973993, -1.155481, 0.597034, -0.456098, -0.205917, -0.891454, -0.766239, 1.497707, 0.565122, 1.522611, 1.145287, -0.332731, 1.092976, 0.326686, 0.716711, 0.88255, 0.333297, -1.248214, 0.774883, -0.916766, 0.151371, -0.195994, -1.064907, -1.247183, -0.809933, 0.637995, 0.11595, 1.212533, 1.281636, 0.538714, 0.979602, -0.69641, -0.675985, 0.692457, 1.411575, 1.062836, 0.160529, -0.759299, 0.594343, -0.469358, -0.103177, -1.002904, 0.347274, 0.320291, 1.126016, 1.863034, -0.146336, -0.680009, 0.733883, -1.336359, -0.345227, 0.746646, -0.872637, -0.309701, 0.743129, 0.558037, -1.464596, 0.860367, 1.790889, 0.977356, -0.074485, 0.827496, -3.31699, 1.171434, -0.460959, -1.063494, 1.442951, 0.494269, 0.747226, 0.484542, 0.092236, -0.878153, -0.072095, -0.596615, -1.892194, 0.045451, 0.703071, 0.614622, 1.340188, 0.679871, 0.085437, 0.266887, 0.265546, -2.136154, 1.115059, 0.300077, -0.136254, 0.210902, 0.855329, 0.327501, 0.506931, 0.854048, 1.45224, -0.227356, -0.544965, 0.279234, -0.093365, 1.745785, -0.205135, -0.080806, 1.821774, 0.544463, 0.976818, 0.818035, -0.107782, 0.312759, 2.85159, 1.26731, 0.642453, 0.001429, 0.742233, 0.235345, -0.220678, 1.054754, 0.190248, -0.150102, -0.62962, 0.884975, -0.157044, 0.388271, -0.947148, -0.797576, 0.792907, -0.576509, -0.161829, -0.247184, -0.678843, 1.346791, -0.531597, 1.168263, -0.91749, -0.144193, 1.005742, -0.845765, 1.473982, 0.98762, -1.199169, -0.874441, -0.354534, 0.393896, 0.592707, 0.36219, 0.023205, 0.180874, 0.608831, -0.080793, 1.04237, -0.766883, 2.043057, 0.557542, 0.128002, -0.303307, -0.687517, 0.519082, 0.903084, 0.385421, -0.378298, -0.376593, 1.773252, 2.046175, 0.451321, -0.271936, -0.362894, 0.481694, 0.23469, 0.62012, -0.653379, 0.256953, -0.818211, 1.207721, 0.840847, 0.134909, 0.496005, 1.269229, -1.018712, 2.010876, -1.09885, -0.081515, 0.738295, 0.586281, 0.72097, 0.24238, 1.006589, -0.655764, 1.20401, -1.278537, 0.063581, 1.64106, -0.063182, -0.507471, -0.356157, 0.456207, -0.547353, -0.612117, -0.952443, -0.213609, 0.335725, -0.476397, -0.81348, 0.866175, -0.768959, -0.958563, 0.341406, 0.822471, -0.404838, 1.145999, 0.20599, 0.328921, 0.333359, 0.001382, 0.457795, 0.198988, 1.42545, -0.922595, 0.003605, -0.799374, 0.006509, 0.516963, 0.372446, 1.537354, 0.051029, 0.899232, 1.69717, -0.567146, -0.908101, 1.168751, 2.061929, -0.525039, 0.256384, -0.19789, 0.695713, 0.801025, 1.518962, -0.708753, -0.23017, -0.81672, 2.424983, 1.793473, 0.250228, 0.849888, -0.655331, -0.904976, -0.709939, -0.696127, -0.376867, 0.274559, 1.799515, 0.64438, -0.092737, 1.396991, -0.700942, -0.628308, -0.187749, 0.147093, 0.445346, -0.36087, -0.061776, -1.205163, 0.465257, 0.292892, -1.516723, 1.756253, 0.706474, 0.399313, -0.63345, 0.877797, 0.618209, 0.667285, -1.296838, 0.071781, 0.000397, 0.923541, -0.761168, -0.816034, -1.791433, 0.116283, 0.95816, 0.477505, -0.84648, 1.178395, -0.224888, 0.31974, 0.074897, 0.736464, -0.811499, 1.103631, -0.343199, 0.65733, 0.43243, -0.000772, 0.298968, -0.971432, 0.864578, -1.864661, 2.255862, -0.93137, 0.411337, 2.250199, 0.430862, -1.345319, 1.667981, 0.207649, 0.379069, 0.197995, -0.289912, -0.122573, -0.787366, 0.505097, -0.905134, 1.536762, -0.239883, 1.757943, -0.016693, -0.045337, 1.025484, -0.150197, 0.351354, -0.043271, 0.566043, 1.046452, -0.27216, 0.732405, 1.783587, 1.327215, -0.799977, -0.300195, 0.51253, 0.508493, -0.833964, -0.593923, -0.861844, -0.622174, -0.02029, -0.939968, 0.706449, -0.062617, 1.555977, -0.205573, 0.420748, 1.01306, -0.361506, 0.004007, 0.237661, 0.723785, -0.873644, 0.541278, 3.121457, 0.905508, -0.952839, -0.996439, 0.107603, -0.327352, 0.246761, -0.712387, 0.864366, -0.33348, 0.300592, 1.125529, -0.461891, 0.100731, -0.326166, 1.151328, 0.908261, 1.130158, -0.804583, 0.386827, 0.146751, 0.567002, 0.177316, -0.290233, 0.050221, 0.018278, -1.217235, 0.085004, 0.572632, 0.443501, -1.170784, -1.991006, 0.853038, 0.042623, -0.270563, 0.016368, 0.698331, -0.809462, -0.75336, 0.555162, 0.448574, -1.288925, -2.145235, 0.104931, -2.321754, -0.124111, 0.774437, 0.331317, 0.592675, -2.330459, 0.8363, -0.055914, -1.520423, -0.672201, 1.304028, 1.38374, 0.424551, -0.580322, 0.022312, 0.769638, 0.773606, -0.636537, 0.617539, -0.026412, 0.128031, -1.396846, 0.187788, 1.050343, 0.923621, 0.18633, 1.082858, 0.861801, 1.506554, -0.124156, 1.256556, -0.740017, -0.819173, -0.621576, 0.952407, 0.558169, -0.585825, -0.561462, -0.085027, 1.815777, 0.347739, 0.757317, 0.217159, 0.462334, -0.830385, -2.219718, 0.485772, 0.61446, -2.387437, 1.789153, -0.139107, -2.764335, -1.07294, 0.591749, 1.46594, -0.561245, 2.294667, -1.111905, 0.522776, 1.007407, 0.878584, -0.939253, 1.173178, -2.306351, 0.605551, 0.98406, -0.331426, 0.244321, -0.73351, -0.573473, -2.005176, 0.819032, 0.232023, 0.744376, -0.197281, -0.460354, 1.712664, -0.030256, 0.444086, -0.077517, 0.298357, -0.062757, -1.035229, -0.69637, 0.294365, -1.072251, 0.146179, 0.079877, 0.307776, -0.230714, -1.611011, 1.45008, 0.441179, -0.227028, -0.001188, -0.005684, 1.582666, 0.025501, -1.420599, 1.145021, 0.662974, 0.081014, 0.416864, 0.323486, 0.38341, -0.282464, 0.502229, 2.344575, 1.32571, -0.359698, 0.255063, 0.274811, 0.728755, 0.091369, -0.669841, -0.121089, -0.81051, 0.198993, 1.715958, -0.037242, -0.504741, 1.604271, -0.80376, 0.104905, 2.014099, 1.027704, 0.122433, -0.658452, -0.406089, 1.470091, 1.04811, 0.301135, -0.552324, -1.028881, 0.040007, -1.481413, -0.415339, 0.206809, 0.177572, -0.057361, 0.973607, 0.080033, 0.734357, -1.332515, 0.929372, -1.024125, -0.226556, -0.99423, 0.304367, 1.249857, -0.398381, -1.322826, -0.026396, 1.585363, 0.332759, 0.720873, 2.372894, 0.487534, -0.259974, 0.90742, -0.064972, -0.047766, 1.485875, 1.048362, 0.854127, -0.63341, 0.394641, 2.171458, -0.72254, 1.744064, 0.018214, 0.545848, -0.561604, 0.004191, 0.6249, 0.441312, -1.093729, 1.144466, 0.180941, -0.943896, 0.405258, 0.506785, 0.021283, 0.620267, 0.739544, 0.316268, 0.573642, -0.185617, 0.452811, 0.584075, 0.130169, -0.907161, -0.24107, 0.844146, -2.238376, -0.627339, -0.212573, -1.459632, 2.025477, -0.423625, -0.637348, -0.914123, 0.600544, 0.768852, -1.013083, 1.398184, 0.095948, -0.5518, -0.015971, 0.068019, 0.369657, 1.011958, -0.162818, 0.253841, -1.240148, -2.420698, 0.272962, 1.769322, 0.584587, -0.641276, -0.2039, 1.803859, 2.025154, 0.81651, 0.433519, 0.077587, 0.93354, -0.599027, 0.828666, 0.886839, 1.123157, -0.218341, -0.878003, 0.332071, 0.812912, 0.591096, -0.460288, 0.517238, -0.763206, 0.22825, -0.293194, 0.931421, -0.603893, -0.17651, -0.754753, 0.982409, -0.22814, 0.466736, -0.836654, -0.313799, 1.52973, -1.34107, 0.031238, -0.509005, 0.057719, 0.168452, -0.981292, 0.227989, -1.179377, 0.87479, 0.513725, 2.029803, 1.338972, -1.08015, 0.388669, 0.364131, 2.164356, -0.700863, 0.712363, -0.039134, -0.022906, -1.046277, 1.06342, -0.800254, 2.289743, 0.265801, -0.005964, -0.062275, -0.822302, -0.235168, -1.790934, 1.710995, -1.387084, 0.439256, -0.033678, 1.469799, -0.196537, 0.000531, 1.232922, -0.314899, -0.628909, 0.808166, 0.860704, -1.287741, 0.911098, 1.377978, -1.106355, 0.15123, 0.778077, 0.439929, 0.45198, -0.082311, -0.263523, -0.017884, 0.586803, 0.962355, 0.092662, 0.103724, -0.1465, 0.034403, 0.766118, -0.017832, 0.999017, 0.191382, 0.364496, 0.351357, 1.067389, -0.769518, 0.710853, 0.108616, -1.464008, 0.119691, -0.571318, -0.267144, -0.166106, -0.08765, -0.473148, 0.332828, -0.765058, 0.39924, -0.980095, 2.012679, -0.182446, 2.167548, -0.187766, 1.48898, -0.919994, -1.153478, -0.378168, 1.15629, -0.925103, -0.603951, 1.297205, 1.06421, -0.433099, -0.149046, -1.614234, 1.121031, 0.948757, 0.64074, 0.287059, -1.746724, 0.17898, -0.234391, 0.656314, -0.655106, 1.132381, -0.648737, 0.025559, 1.167587, -0.292999, 0.671239, 1.584928, -0.379894, 1.490494, 0.02987, -1.939571, -1.037793, -0.538307, 0.537203, -0.79644, 0.692464, 0.251494, 0.140191, 0.375434, 0.108777, -0.379837, 0.853987, -0.270882, 1.288107, -1.633464, -0.144979, -0.678139, 0.886845, 0.897114, 0.220701, 1.884215, 0.994351, -1.564244, 0.858195, -0.038383, 0.417743, 0.078168, 1.012158, 0.140323, 0.775512, 0.337304, -0.899327, -0.00767, -2.276503, -0.101926, 0.914419, 1.805585, 0.314355, 1.262567, -0.746664, 0.076366, 1.096774, -1.171375, 0.528601, 0.176779, 0.808587, -0.151767, 1.017954, -1.435425, -1.752252, -1.428713, -0.378657, -1.825349, 1.197743, 0.37293, 1.759285, 1.122618, -0.348962, 0.666083, 0.178195, -0.203207, -0.873961, -1.273787, 0.874164, -0.709538, 0.351172, -0.463263, 0.551858, -0.678555, -1.546081, 0.841577, -0.320725, -1.411058, 0.709704, -0.485384, -0.609501, -0.425156, -0.406077, 1.402406, -1.596819, -0.250853, 0.533756, -1.126479, -0.481281, 1.275938, -0.240945, 0.910483, -0.737121, -0.643742, 0.717486, 0.994586, -0.251453, 0.375533, -0.68172, 0.916863, 1.879055, -1.060825, 0.216768, 0.563183, 2.339222, 1.305928, 0.416808, 0.888395, -0.614239, 1.248687, 1.71934, 2.321912, 0.800453, 0.579115, 0.15631, 0.010689, 0.963978, 0.56696, 1.835032, -0.263438, -0.475663, -0.061592, -0.509654, 0.630498, -0.344497, -0.027236, 0.476791, -0.703222, 1.270411, 0.492727, 0.714241, 1.364979, 0.053924, 1.078167, 0.218097, 1.652944, 1.509244, -3.374904, -1.295576, -1.902539, 0.706097, -0.037192, -0.248479, 0.885892, -0.54629, -0.79469, 0.847696, 0.331026, -1.263978, 0.50996, -1.990627, -0.241934, -0.769604, -1.10048, -0.291661, -1.861566, 1.567714, 1.758142, 0.961396, 0.555757, -1.222906, 0.003222, 0.564018, 0.105012, 1.027057, -0.407189, 2.517839, 0.471023, -0.936633, 1.774584, 0.113785, -1.14361, 0.62783, -0.738205, 0.002554, -0.283611, -0.175944, -0.88471, 0.359966, -0.266403, 0.589011, 2.670288, -1.194738, -0.162437, -1.07401, -0.760409, 1.388733, 2.045981, 2.070121, -0.620173, 0.511465, -1.306499, 0.998524, -1.112704, 0.315417, -1.364177, 1.971966, 1.083705, -1.342392, 0.441805, -0.595966, -0.357578, -0.875865, 1.565269, -2.204929, -0.595048, 0.240011, -1.32098, -0.501957, 0.479116, -1.240209, 0.363042, 1.180762, 1.532416, -0.828287, -0.201708, -0.26095, 0.347588, 0.451878, -1.026983, -0.518757, -0.274299, 0.160863, -1.135184, -0.412783, 2.06366, 0.958357, -1.21282, 2.685206, 1.619447, -0.341107, 1.317082, -0.619573, 0.172311, -0.744882, 0.154577, 0.378428, -0.797709, 1.868634, 0.945726, 0.455761, -1.365604, -0.577921, 0.554357, -0.571572, 0.436475, -0.999338, 0.772748, -1.105059, -0.49041, 0.977354, 0.17235, 0.690142, -0.567128, 0.273692, 1.163702, 0.544107, 0.681837, 0.623467, -0.464648, 0.222871, 1.246454, -0.660945, -0.955069, 0.500994, -2.502653, -1.479885, -1.870123, -0.934796, 1.405582, 0.643646, 0.547749, 2.172281, 0.410872, 0.708868, 0.21489, 0.528312, 0.568796, -0.925496, 1.206888, 0.628561, -0.592769, 2.01137, 0.432691, -2.369525, 1.151451, 0.985231, -1.361843, -0.120246, 0.62132, 1.628982, -0.194178, -0.964868, 0.36213, 0.410782, 2.032116, 0.104877, 0.593368, -0.737481, -0.039497, -1.557004, -1.04074, 1.360991, 0.493467, 1.400032, -2.241089, 0.639634, 0.526732, 0.64798, 2.431491, 1.672291, -1.900127, -1.746292, 0.111353, 1.182771, 0.866501, 0.949608, 0.898981, -1.377633, 0.142461, 0.24442, 0.496818, -0.373891, -1.246463, -2.052021, 0.464233, -0.057461, 1.243885, 0.048319, -0.888794, -1.151452, -0.742723, -0.456276, -0.366782, 0.290093, 0.16188, -0.052211, -2.174835, -1.242731, 2.019712, -0.748436, -0.565914, 0.430985, 1.609851, 1.13322, 0.294557, 1.211674, -1.328259, -0.566418, 1.917729, -0.036464, 0.052319, 0.067719, 0.702745, 0.273212, -2.547343, 0.196738, 0.052011, 0.254611, -0.007454, 0.351783, -0.387994, 0.505964, -0.162433, -0.658607, 2.099134, 0.525645, -1.973302, 1.385506, -1.076936, 0.351659, 2.847968, 0.669634, 1.912672, -1.422374, -0.86519, 0.047974, -0.02506, 0.402186, -0.444541, 0.457167, 0.25278, -1.139788, -0.004674, 0.498704, 0.287224, 1.767462, 0.327278, -1.200099, 1.37575, 1.780037, 0.462109, 1.516521, 0.541802, 1.183504, -1.464771, -0.143688, 0.884861, 1.905746, 1.357358, 1.01352, 0.489927, 0.438078, 1.102644, 0.361471, 0.120077, 0.643836, -0.237772, 1.443567, -0.884805, 0.287381, 0.575222, 1.289753, -0.325881, 0.869637, 0.021649, -1.467608, 1.138732, 1.126902, 1.579825, 0.422661, -0.493867, 0.38743, 1.589698, -2.981213, 0.569318, 1.185528, -0.9858, 1.882234, 1.198824, -0.253293, 0.487324, 2.677102, -1.599582, -0.024223, 0.141346, 0.241421, 0.423588, 1.223686, -0.875248, -0.363536, 1.858643, -0.516202, 1.241496, -0.532191, 0.648235, 1.305444, 0.150128, 0.845269, 0.381747, 1.148113, 0.612247, 0.939642, 1.189885, -0.386346, -1.498911, 0.19141, 1.051607, -1.387723, -0.189099, -0.326762, -0.405076, -1.986333, -1.122298, -0.314616, -0.425128, -1.302472, -0.784784, 0.276401, -0.023815, -2.284654, -0.049112, 2.705341, -0.782002, -0.595895, -0.161162, -2.408262, 2.155449, -0.254261, -1.177887, -0.65256, 1.451239, 1.65925, 2.828669, 1.5727, 0.904043, 1.952142, 0.662661, -0.168117, 1.685819, 0.395745, -0.278426, 0.264246, 1.352951, 0.336298, -2.320427, 0.582132, -0.717266, -0.11157, -0.161335, -0.253838, 0.517493, 0.647433, 1.361132, -1.043234, -1.161643, -0.527056, -0.158568, 1.757397, 0.772106, 1.348103, -0.624104, 0.188844, -0.362112, -1.058939, -1.970299, 2.622276, 1.015929, 0.059747, -0.077407, 1.490172, -0.661946, 0.709946, -1.535356, 2.75416, 0.665078, -0.351896, 0.210953, 1.89253, 0.910942, -0.879013, 1.105404, 1.03985, -2.200491, -0.309054, -1.58435, 1.142736, 1.186077, -2.143653, 0.87856, -0.977012, 1.678678, 1.414931, 0.099824, 1.998886, 0.21383, -1.165063, 0.788052, 1.589346, 0.379037, 1.775553, -0.13489, -1.067035, -1.082372, -1.183758, -0.491975, 1.565329, 1.005422, 0.292081, -1.021242, -1.572399, -0.490315, 0.713961, 0.217831, -0.883832, 1.444657, -0.168321, -0.596559, -0.887396, -1.450279, -0.145694, 0.152024, -2.132938, 0.917563, 1.6576, 1.52366, 1.262261, -1.907871, -2.659966, 1.430107, -0.657006, 0.204451, -0.153364, 0.203099, -0.091075, -0.980489, -0.113813, 2.520337, -0.070677, -1.04768, -1.019911, -0.426528, 0.397855, 1.961635, 0.891246, -0.705775, -0.135636, -2.037694, 0.905104, -2.038507, -1.393778, -0.528114, -0.170216, -1.629877, -0.778868, 0.913333, 1.848126, 1.432487, -0.301266, -0.947885, -0.184002, -1.505676, 0.519587, -1.620574, 0.378011, -0.31406, -1.398579, 0.007872, -0.390987, -0.389025, 0.36556, 0.452144, 1.215633, -0.542685, 2.206202, 0.165761, -0.353515, -1.036858, -1.375236, 0.315151, -0.742594, 0.557566, -1.73352, -0.640245, -0.879746, -0.406899, 2.33092, 1.526748, 0.457998, 0.371507, -0.284783, -0.310802, 0.809848, -0.223625, 1.986581, -0.319307, 0.636689, 1.723022, 2.200145, -1.216685, -0.264908, -1.608508, 0.346111, 0.407404, -1.250731, 0.133056, 0.254833, -1.525031, 0.301032, 0.344607, -0.23073, 0.486455, 0.257538, 1.1741, -1.784626, -0.342754, -1.675566, 0.505801, 0.82138, 0.312209, 0.268157, -0.265989, 0.384012, -0.770774, -0.261897, 2.266919, -0.277158, 0.751249, 1.705454, -0.055973, -0.296179, 0.62897, -0.863222, -0.994067, -0.725239, 0.478983, -0.757846, -1.816783, 0.970637, -1.467317, -1.183283, -0.255889, 1.535668, 0.23818, 0.250186, 0.675157, 0.074686, 1.567181, 1.032948, 1.163425, 0.628221, -0.733635, -0.783846, 0.209955, 0.549492, -0.761221, 0.183809, -1.210783, 1.178568, -0.275097, -0.986917, -0.653677, -0.43567, 0.188625, -1.313816, -1.165043, 1.36467, 1.926797, 1.046998, -1.89892, 0.372145, 0.250489, 0.521716, 0.385615, 0.685339, -0.780977, 0.160235, 1.482716, -0.478193, 0.394094, -0.760633, 0.649309, 0.63336, 1.247975, -1.471599, -0.883896, -0.058501, -1.076692, -1.588555, -0.688266, -0.843947, 0.389973, 0.1599, -0.980743, 0.541395, -0.121648, 0.025758, -0.305437, -0.479468, -2.78503, -0.101246, 0.199595, -0.451198, -0.465157, 0.337614, -0.991555, 0.077864, 0.606889, -0.877818, 0.985639, -1.004828, 0.595709, -0.027841, -1.064276, 1.04904, -0.936306, 0.472726, 0.617113, -0.304995, -0.202907, 1.068395, -0.760522, 0.27832, 0.319926, 0.526242, 0.421165, -0.567442, -0.329446, -1.547153, 0.000921, -0.894019, 1.466429, 0.981534, 0.358289, 1.096418, 1.029067, -0.90821, 1.391824, 0.846147, -0.644685, 0.519934, 0.686314, -1.078773, 0.029644, -0.521501, 0.719022, 0.278182, 1.14784, -0.514776, -1.637251, 0.146573, -0.381979, 0.900176, -0.441706, -0.02119, 1.496847, 0.454849, 0.001253, -0.446402, -0.698802, -0.563527, 0.984076, 2.100518, -0.310319, 1.698683, 0.657219, 0.620056, 1.592427, 0.887455, -0.28084, 1.084803, 0.47831, 0.366645, 0.126016, 0.325163, -0.443862, 0.006733, 0.427416, -0.138209, -0.851189, 0.353465, 1.512173, -1.012313, 0.462791, -0.047385, -1.022367, -0.37341, -0.718709, 1.548687, 0.182767, 1.365629, -0.71685, -0.452955, -2.167562, -2.26205, -0.216225, -1.346087, -0.082155, 0.10947, 0.257067, 1.148933, 0.661954, -0.883242, 0.165516, -0.804226, 0.499597, 1.133919, -0.012088, -0.206527, -0.388849, -0.501295, 0.463332, -1.179546, 1.083941, 0.325355, 1.625609, -0.758339, 0.224042, 0.435341, -1.500519, -1.619527, -0.197655, -0.239664, -2.073972, 0.06227, -0.372488, 0.394903, 1.184315, -0.607434, -0.604928, -0.066916, -2.300414, -0.734284, 1.067438, -1.40099, -0.41187, 0.580274, 0.629288, -0.242774, -0.856263, -1.422022, -0.850361, -0.414292, 0.944123, -1.4875, 0.795059, 1.592204, -0.62825, 0.685535, 0.994127, -0.739254, -0.110612, -0.947833, -0.377738, 1.25443, -0.151098, 1.112298, -0.362882, 0.996662, 1.262381, 0.034831, -0.424074, -2.963289, 0.515079, -1.681221, -2.039025, -0.706223, -1.583346, 1.260557, -0.924361, -0.368856, 0.233604, -0.741016, -0.540388, 1.080564, 1.315298, 0.391362, 1.34215, 1.223132, -0.028822, 0.030923, -2.166089, 0.504809, 0.942846, -0.456719, -1.700851, 1.146887, 1.522432, 0.687541, 0.308714, 1.68678, -1.101556, 1.461772, 0.023617, -0.409082, -1.609912, 0.269931, 1.777028, 1.083319, -1.025893, 0.564303, -0.770242, 0.931811, 0.720978, -0.202517, 1.428356, 0.385699, 0.003886, 0.262061, -0.47432, -0.209129, 0.6785, -0.30653, 2.042787, -1.827158, -0.710858, -0.79098, 1.212873, 0.639123, -0.092005, -0.563637, -0.226782, -0.754212, 0.787962, 0.55735, 1.770964, 0.351169, -0.923257, -2.895234, 0.358673, 0.65056, -0.553695, 0.881366, -0.81269, 1.813684, 2.307027, 0.47708, -0.975274, 0.596671, -1.89651, -1.574292, -0.482614, 0.89857, 0.081045, 0.201276, 0.478794, -0.014889, -0.425509, -0.604458, 1.148801, 0.873729, 1.448343, 0.269218, -1.041314, 0.999618, 0.729699, -0.988007, 0.941058, 0.326105, 1.369567, 0.601783, -0.469601, -0.340914, -1.256821, 0.027619, -1.803188, 1.059764, -0.807331, 1.463538, -1.62397, 0.039311, 0.434693, -0.114343, -1.366634, -1.055596, 1.420648, -1.478655, -0.772117, -0.611074, 1.193924, -1.444626, 0.207868, -0.764222, -2.206582, 2.319912, 0.328816, -2.0196, 0.252345, -0.554947, 0.022436, -0.043667, -1.360404, -1.226061, -0.746708, -1.288852, -0.949143, 0.271851, 0.341538, -0.638285, -0.601187, -1.041593, 1.584885, 1.011029, 1.51228, 0.707393, 0.250686, -2.461238, -1.483853, 1.48701, 2.240024, 1.821951, -0.087746, -0.149856, 0.99946, 0.215581, 0.596946, 0.688326, 1.125286, 0.76479, -0.532127, -1.17032, 0.336146, 0.65954, 0.279084, 0.679521, -1.253523, -1.932406, -1.287396, 1.017307, -1.265703, -1.547619, -0.081401, -0.015287, -0.042903, 0.239841, -1.037814, 0.308207, 0.196639, -0.753457, -0.607056, -1.341809, -1.747672, -0.615999, -0.113643, 0.040829, -1.372486, -1.782984, 2.246347, 2.269072, -0.234358, -0.213914, -0.022972, -1.196872, 0.860432, -0.733009, -0.309413, -0.146639, -1.030556, -1.644752, 1.09428, -1.292468, -0.936547, 0.459372, 0.462781, 0.817654, 0.42232, -1.465967, -1.627859, -1.451766, 1.347201, 0.565516, -0.481838, -0.244561, 0.569717, -0.365774, -1.299834, -1.342873, -0.449674, -0.218725, 0.126801, -1.585592, -0.811106, 0.062575, -0.513258, 1.45906, 0.425057, 1.130723, -1.293846, 0.955342, 0.211222, -0.099499, -0.658968, 0.955803, -1.706664, 0.166032, -0.273566, 1.23623, 0.66513, 0.236656, 0.236765, -1.244162, 0.345521, 0.242551, -1.426747, 0.805305, -0.006418, 0.869029, -2.477618, 1.550203, -1.8977, 1.398707, -1.894543, -1.446814, 0.565471, -0.216764, 2.140317, 0.479709, -0.062508, -0.087279, 0.202618, -0.698626, 0.58554, -0.297536, -0.112966, -0.993133, -1.055627, -1.956875, -2.03481, -0.044796, -0.526828, 1.307389, 0.57902, 1.161676, -0.301282, -0.439827, -0.80388, -0.328546, 0.477004, 0.084506, 0.038124, 1.363562, 0.852417, -1.181915, -0.470912, 0.366609, -0.987587, -0.50453, 0.692937, 0.04148, 0.031321, 0.544025, 0.963773, -1.549906, 1.465522, -1.376718, -1.153766, -0.510694, 0.218428, 1.148311, -0.46144, -0.403764, 0.285519, -0.790494, 0.383715, -1.346834, 0.893052, -2.155302, 1.823591, -0.42444, -0.584822, -0.422654, 0.096352, -0.195052, -1.143161, -0.075206, 0.354899, 0.132861, -0.356745, 0.517631, -1.038999, 1.157807, 0.461538, -1.338878, 1.866041, -0.179542, 1.037929, 1.577152, 1.006854, -0.713137, 0.762578, -1.229711, -0.92664, -0.954789, 0.859048, -0.427727, -1.664546, 0.136933, -1.186413, -1.186568, -1.266064, 2.897431, -0.147675, -0.216533, 1.384376, 1.202838, -1.37232, -0.654847, 0.109655, 1.008716, 0.670596, 0.512572, 0.233788, 1.419893, -1.234393, -1.487596, -1.593154, 0.81018, -0.7526, 0.165647, -0.914275, 0.306271, -0.842693, -0.611151, 1.215252, -0.651833, -0.229856, 0.31578, -0.433465, -0.791043, -0.508838, -0.02784, -0.211228, -1.219766, -0.389984, -0.53499, 0.847606, -0.381699, -0.58259, -1.979482, 0.652833, 0.915644, 0.394369, -0.140864, -0.680619, 1.180471, 0.011751, 0.522551, 0.882967, -2.302405, -0.346796, 1.062009, 0.782508, -0.058416, 0.107819, -1.642192, 0.747338, -1.147854, 1.615636, -0.777145, 1.17213, -2.756645, 0.144538, 1.882615, -1.008839, 0.527099, 0.942619, -1.380626, -0.491485, 0.687553, -1.285719, 2.054424, 0.661792, 0.400036, 0.211875, 0.70009, 0.491032, 0.005781, -0.843957, -0.907681, -1.680217, -1.098457, -0.589425, -0.253684, -0.130193, -0.640326, 0.685002, 1.360471, -0.500259, 1.765299, 0.565287, -0.391647, 0.561618, 0.948562, -1.047645, -0.859769, 0.55487, 2.488164, -1.254457, -1.875794, -1.280148, -1.091285, 0.796137, 0.310627, -1.235694, 1.253848, -0.280682, -0.222761, 0.258959, 1.138599, 1.320454, -0.834929, -0.347859, 0.156755, 0.086457, 1.125313, -0.562483, 0.83565, -0.609313, 0.089262, 0.100556, -0.27549, -0.377387, 0.994928, 0.988052, -0.055744, 2.246602, 0.158101, 1.8564, -1.644881, 0.815104, 0.690357, -0.013556, -0.546001, -0.076121, 0.224409, 0.968605, -1.351394, -1.189047, -0.38782, 1.677155, -0.207843, 0.518972, -0.882777, 0.507556, -2.30976, 0.450448, 0.434177, -0.946699, 0.068902, -0.243378, 0.030015, -1.169647, -1.19586, -0.627055, 0.857908, -0.767569, 0.278453, 1.123433, -1.114827, -0.111382, -0.966025, -0.194825, -1.092299, -0.147846, -1.065313, -1.450886, 0.194642, 0.299568, -2.351866, 0.440133, 1.304464, -1.307866, 1.719246, 0.09294, 0.974647, -0.34213, -0.833825, 0.226194, 0.841382, -1.096169, 0.058005, -0.520298, -0.312384, 0.874419, 0.364878, -0.958241, -0.819763, 1.175983, -0.538696, 0.612411, -0.915312, -0.35105, 0.70301, 0.451545, -1.000189, -0.475651, -0.354267, 0.986199, 0.231073, -0.824625, 0.963261, -0.258261, -0.391043, -0.704071, 1.73206, 0.313214, -0.410563, 0.610832, 1.968831, 0.568779, -0.955691, -0.047542, -3.436664, -0.507117, -0.260755, -0.541169, 0.399492, -0.208922, -0.44159, 1.389241, -0.284396, -0.780339, -1.575207, -0.172838, 1.536036, 0.378801, -0.467069, 1.224345, -1.338812, 0.658233, -0.214876, 0.270143, 0.26069, -1.588691, 0.337307, 0.723856, 1.942941, 0.939996, -0.817651, -1.754801, -0.178148, -1.267624, 0.725506, -0.443744, 1.078854, -0.610751, -0.781291, -1.723956, 0.004413, 0.243836, -0.255299, -0.599634, 0.637005, 0.188817, 2.483905, 0.450745, 0.534666, 1.121334, -0.611049, -2.252794, -0.340491, -0.396707, 1.080125, 0.714206, -0.45199, -1.402887, 0.851047, 1.88209, -0.787392, 0.220479, 1.126512, -0.550961, 1.249848, 0.962765, -0.439405, -0.720101, 1.007083, -1.126572, -0.40201, -0.012963, -1.630391, 0.305249, -0.756977, 0.739445, 1.136866, 0.099984, -0.608719, 0.783639, 0.705553, -0.207921, 1.131683, -0.836516, 0.188656, -0.007268, -1.909549, 0.805536, -0.671516, 0.708738, -1.337885, 0.037034, -0.226818, 1.183032, 0.922208, -0.756598, -1.290592, -0.415728, -0.084832, -1.1426, -0.278491, -0.038485, -0.300909, -1.803422, 0.517454, 0.115113, -0.855811, 0.065738, 1.634655, -0.296036, -0.591842, 0.539845, 0.310413, 1.334324, 0.983196, -0.56315, -1.68744, -1.851997, -1.149649, 0.510763, -0.84468, 2.015863, -0.607862, 0.113801, 0.724376, 1.178878, -0.046948, 1.27262, -0.143156, -1.097427, -0.015859, -1.869955, 1.200914, -0.962383, -1.168694, -0.792864, 1.412246, -1.088133, -1.086654, -1.281541, -0.453161, 0.576326, 1.868717, -0.847042, -0.487605, 0.841871, -0.671665, -1.646068, -0.237129, 0.443096, 1.300526, 1.061884, 0.507589, -0.930726, -1.291966, -0.627277, 1.407156, -0.67972, 0.60691, -0.376477, 0.312718, -0.450837, -0.392966, -1.281471, 1.24429, 0.450802, -0.536905, -0.501283, 0.81603, 2.684818, -1.289397, 0.318677, 0.658471, 1.057538, 0.962612, 0.0914, 0.540096, -0.113208, -1.537359, -0.043099, -1.250786, -0.288669, 1.038796, -0.435538, 0.603251, -0.07851, -0.236125, 0.857552, 0.110525, -1.253282, -0.133782, 0.121192, 1.54048, 2.311179, -1.207017, -0.24557, -0.357458, -1.309143, 0.403195, 1.573616, -0.568912, -1.485883, -0.708626, -0.138305, -0.244079, 1.533916, 0.512566, 0.824849, 0.527086, 0.736131, 1.469374, 1.27955, 0.604557, 1.467228, 0.990076, -0.242804, 1.317972, 0.481157, -0.046462, -0.491426, 1.21588, -0.520898, -0.068139, 1.080225, 1.41944, 0.82913, -1.081006, -0.818898, -0.103708, -1.375163, -1.228714, -0.712352, 0.203051, -0.708272, 0.857931, 0.831305, -0.062575, -0.516398, 0.34554, -1.024501, -1.441171, 1.589104, -1.790154, -0.426789, 1.388219, 0.902835, 0.274082, 1.659037, -0.111846, 1.424435, 0.017949, 0.257609, 0.359815, 0.357948, 0.803422, 0.694182, 1.466887, -1.493754, 0.438101, 0.491312, 1.454405, -0.95615, 1.662321, 1.060129, 0.41856, -1.030936, -0.602976, 0.421554, 1.529008, -0.558941, -1.277025, 1.036743, 2.136076, -0.54979, 1.703463, 1.116002, 0.137416, -0.59296, -0.630176, -0.199252, -0.375345, 1.223069, 0.289967, 1.619442, 0.210191, -0.838477, -0.891427, 0.019335, 0.997095, 2.090162, 1.111127, 1.009727, 0.776405, -0.144378, 0.338158, -1.223577, -0.012736, 0.379418, 1.833281, -0.136438, -0.864831, -0.933285, 0.584825, -1.379824, -0.2506, -0.020403, -1.104349, 0.648467, -0.131431, -0.149855, 2.694348, 0.448775, 2.395477, -0.15844, 1.638594, 1.026709, -0.725843, 0.982072, -0.028555, -0.301159, 1.150702, 0.522499, 0.849429, -0.300538, 1.161951, -0.01443, 0.561079, 1.752702, 0.20005, 0.639083, -0.095423, -1.348192, 1.102358, 0.813905, 1.223832, -0.574124, -1.031683, -0.705131, 1.090444, -0.364644, -0.220238, 0.556259, 0.585349, 0.243984, 0.771915, 0.670239, 1.089631, -0.180498, 1.213029, 2.580826, -0.312821, 0.358519, -0.357266, -0.090537, 0.04542, -1.079558, 2.038632, -1.71507, -0.224015, 0.933803, -0.463649, 0.177858, 0.337643, -0.769787, 0.470647, 0.965734, 2.705054, -0.017631, -0.841084, 1.168813, 1.184409, 1.880067, -0.377663, 0.999761, 1.711848, -0.800371, -0.095748, 0.668872, -1.457589, 0.995555, -1.222172, 0.081816, -1.368782, 3.016895, -2.006236, -0.365348, -0.819613, 0.309964, 0.953439, 1.269833, 1.779736, 0.752384, -0.611538, -0.554906, 0.199974, -0.131851, 0.443947, 0.227082, 1.170316, -1.54899, -1.57171, 0.154365, -0.790506, 2.920831, 1.334893, 1.315475, -0.452004, -0.903888, -0.994205, 1.231228, 0.281615, -0.105423, 1.351945, 1.115297, -1.283649, -0.715078, 0.689811, 0.971164, -1.580893, -0.869177, 1.206517, -0.247005, -0.068364, 0.148104, 0.851992, 1.173263, 0.19078, -3.017089, -1.066282, -1.427359, 2.205516, -1.303348, 2.366861, 1.785664, -1.509102, -0.563516, 0.726746, -0.981306, -0.686692, -0.512365, 0.309778, 0.53755, -0.182854, 0.817309, 0.428976, -0.143441, 0.468541, 0.046081, 1.988511, -0.805109, -0.244692, -0.713431, 0.492873, 0.004107, 0.603632, 1.955612, 1.100086, 0.559039, -1.359936, -0.627574, -0.278068, -1.274052, -0.333254, -1.210911, -0.64331, -0.833923, 0.037245, -1.595584, 2.116546, 0.79207, 0.92401, -0.438982, 0.757679, 0.575049, -1.070493, -2.013243, 0.907948, 1.087648, 0.156126, -0.578765, 0.546103, -0.164833, -0.88177, 0.089346, 1.445465, -0.35513, -0.577461, -0.37581, -1.746483, -0.597936, 0.013089, -0.133059, 1.036039, 0.33129, 0.794197, -0.107451, -0.918667, 0.085609, 0.231126, 1.457279, -1.597197, 0.975033, 0.067797, -0.550965, 1.376768, -0.271921, 0.52897, -0.224943, -0.424377, 2.220917, -0.481275, 0.541236, 0.263986, 0.702883, -0.772736, -1.234867, 1.304716, -0.424442, 0.888517, 1.118287, 1.786485, 0.898792, 1.835405, 0.82638, -0.50199, 0.908772, 0.990784, -1.52039, -1.019992, 0.041214, -1.141375, 0.771018, 1.06709, 1.443713, 1.064221, -0.877515, 0.633528, -1.743474, 1.548262, -2.408022, 1.801502, -0.766377, 0.501314, 0.761176, 0.584619, -0.092304, 1.826631, 0.256619, -1.340879, 0.366263, 0.027797, -0.758216, -1.334236, 2.272686, 1.674184, -0.261213, 0.848086, -0.899454, 0.682692, 0.340015, 0.483721, 0.66188, -0.189127, 1.498931, -0.018007, -0.462101, -0.942099, -1.376733, 1.181701, 1.814792, 0.717654, 0.281647, 1.687769, 1.69173, 0.174991, 0.959479, -1.329072, -1.174816, -0.7862, 0.538145, -1.665615, 0.650119, 1.171148, -0.128487, 1.271013, -1.087893, -1.658897, -0.686743, 0.911357, 0.569338, 0.945905, 1.217717, 0.323125, -0.643383, 1.429357, 0.951054, 0.644958, -0.978714, -0.189848, 0.693716, 0.205265, 0.782414, -0.816997, 0.505816, 0.573056, 0.19028, 0.267568, 0.645508, 1.545015, 0.084486, -1.930544, -0.416151, -0.047827, 0.077484, 0.759914, 1.155727, 1.330652, 0.378654, -0.23126, -0.986308, 0.150566, -0.171282, 0.291405, -0.377855, -0.497418, -0.299968, 0.922386, 2.926762, -0.59575, -0.79176, -0.618464, -0.032321, 2.656725, -0.045752, -0.264325, 0.278547, 1.555999, -1.469325, 2.391428, 0.251558, 0.523951, 0.248375, -2.869857, 0.274086, -1.403022, 0.55401, 0.237933, -0.54667, 0.939722, -0.76224, 1.453211, 0.772607, 0.527966, 2.115833, 0.929421, 1.49658, 0.127348, -0.022043, -1.65765, 0.355447, 0.566937, -0.066082, -0.565077, -0.828502, 0.287621, 0.626276, -0.751777, 0.148027, 1.339461, 0.201004, 1.802761, 1.563737, -0.264936, 0.530554, -0.482249, -0.071552, -0.789175, -0.724939, -0.111851, 0.6402, 1.169841, 0.404796, -2.16263, -0.867442, -0.485084, 1.379394, 0.089085, 0.219742, 0.619297, 0.874013, -0.232332, 1.288739, 0.639827, 0.316712, 1.384443, 0.830018, 0.238359, 0.108521, -0.608603, -1.824137, -1.428901, -1.726267, -0.259431, -0.050934, -0.178426, 0.174246, 0.650163, 0.092754, 0.54232, 0.41954, 0.766008, 0.571788, 1.741341, -1.551013, 0.034295, 0.473439, 0.016114, 0.242484, 0.269447, -0.348013, 0.778525, 0.426125, 1.41161, -2.752016, 1.266358, 0.183695, -0.321308, -1.580641, -1.009909, 2.12279, -0.001394, 0.674579, -0.917067, -0.902539, -0.390699, 0.056048, 0.422734, 0.003228, 1.007563, 1.213876, -3.004609, 0.051806, 0.465112, -2.329746, 1.207024, 0.665836, 0.168267, -0.428173, -1.137854, 0.499269, 0.357949, -0.823305, -1.348925, 0.175396, 1.051428, 1.060306, -0.85737, -0.138152, 0.522287, 0.878724, 0.209115, -0.821341, -0.122195, 1.62291, -0.290174, 1.758534, 0.603326, -1.012151, 1.237826, -1.047982, -0.71032, -0.197568, 1.877765, 0.75576, 0.698361, -0.594392, -0.640669, 1.56196, 0.642008, 0.404401, 0.073113, 1.084252, 0.317609, 0.587682, 0.431346, 1.212236, -0.693706, -1.478698, 1.14856, 0.48863, 0.697858, 0.631353, 0.922412, 0.66112, 0.41867, -1.079491, -0.130438, -0.191489, 0.658334, 0.425713, 0.424048, 0.17346, 0.530979, -1.841536, -1.566638, 0.726681, -0.190998, 2.041231, 0.142043, -1.165737, -0.471817, 0.647958, -1.053571, 0.387466, 1.134271, -0.500783, -0.7616, -1.428181, -2.179689, 1.683516, 0.48378, -0.360893, 0.755188, 1.434411, 0.230829, -0.788998, 0.15313, 0.176842, -0.466092, 0.915037, 0.663696, 1.632456, -0.289845, 1.20521, 0.102026, -0.000447, -2.234687, 2.161571, 1.11279, 0.936842, -1.602605, 0.300109, 1.079678, 0.255266, -0.36959, -0.04519, 0.562559, 1.496122, -0.410478, -1.441856, -1.225721, 0.451915, 1.369889, 0.072757, -0.705597, -0.061125, 1.24197, 0.953527, 0.334667, 1.294478, 0.457529, 1.453754, -0.263303, 0.132101, 0.578591, -0.329836, -0.701532, -1.787449, -0.267486, 0.167786, -1.099455, -0.841724, -0.421178, 1.0201, -0.540452, -0.049342, 0.71721, -0.516266, 0.643999, -0.098445, 1.66847, -2.619546, 1.916781, 0.458727, 0.080182, -1.200509, 0.173353, -0.658239, -0.074937, 0.454372, 0.691312, -0.162362, -1.738491, 0.027931, -0.216752, -0.169612, 1.642193, -0.306907, 0.48126, 1.160372, 1.985063, 0.914044, 0.753738, 0.587794, -0.634402, 0.757725, -1.538227, 0.59647, -0.304952, 0.870429, 0.052606, 0.414299, -2.050404, 0.075356, 0.77523, -0.909866, 0.095404, 0.222874, 0.958258, 2.425351, 0.174585, 1.141607, 0.548304, -0.66139, 0.08389, -0.404328, -0.705674, 1.493393, 0.211007, 0.541229, -1.62053, -0.649243, 2.077618, 1.098192, 1.201261, -1.475476, -0.52602, -1.557004, -0.08325, 0.295787, -0.240047, -0.178377, 1.244514, 0.720302, 1.074128, -1.027217, -1.080079, 0.873362, -0.610782, 0.082091, -0.900983, 0.127977, 1.322254, -0.660264, 2.084767, 0.334098, 0.162017, -1.254571, 0.555491, 1.092132, 1.470924, 0.368243, 0.475572, 0.819395, 0.763059, 1.059059, 1.182869, 0.001107, 1.178865, -0.079859, 0.599853, -0.069864, -1.230012, 0.118365, 0.642807, 0.092357, -2.213801, 0.852633, -0.946804, 1.13011, 0.06354, 1.096901, 0.816854, -0.705473, -0.009696, -0.262889, 1.22918, -0.361132, -0.148169, 1.927237, 0.744002, 1.21305, -0.233651, -0.224469, -1.773842, -0.199179, 2.167881, 1.648337, 0.728452, 0.014676, 0.1264, -0.145357, 1.258722, 1.141861, 0.15226, -1.103973, 0.610198, -1.289881, -1.577717, -1.35275, 0.870618, 0.868525, -0.105615, 0.626715, -0.725548, 0.893468, 1.200678, 0.535255, 0.265185, 0.611409, -0.023382, -0.17338, -0.164368, 1.377006, 0.377544, -0.305682, 0.037019, 0.537554, -0.026004, 1.296657, -0.612514, 0.989594, -0.441167, 0.488848, 0.665988, 1.08016, -0.837263, -0.113327, -0.03598, -0.703758, -0.981386, 0.635105, 0.244201, -0.760766, 1.697708, 1.6673, -0.236309, 1.756013, 0.877123, 1.1991, 0.271177, -0.038689, -0.146664, -2.012641, -0.36242, 0.097172, 0.888666, 0.510547, 0.837312, -0.477691, -0.396525, -1.136213, 0.094437, 1.467449, 0.085526, 1.14188, -0.840485, -0.231384, -0.565563, -0.274578, -0.890167, -0.157599, -0.669661, 1.70786, 0.896449, 0.003236, -0.588991, 0.737494, 0.742818, -0.496094, 1.481824, 1.110165, -0.900492, -1.097188, -0.916058, -0.196782, 0.319902, 0.663692, -0.39559, 0.211555, 0.590518, 1.314704, -0.082177, 0.812302, -0.113486, 0.628301, -0.341803, 0.314894, -0.580443, 0.660554, 0.343284, 1.314253, -0.127964, 0.146641, 0.867648, 0.478259, 0.229753, 0.368741, 0.679855, 0.093208, -1.067355, -0.498819, -0.105587, 0.454708, 0.880839, -0.704281, 0.517179, -0.825625, 0.380131, 1.10752, 1.485876, -1.540829, 0.20517, 1.256688, -0.468695, 1.082061, 0.693458, -0.975415, -0.174887, 0.281147, 1.063795, 0.208997, 0.637039, 0.936899, -0.265399, -0.247876, 0.39752, 0.165983, -1.029469, 0.999182, 0.022343, -0.587461, 0.63668, -1.047741, -0.475573, -0.463163, 0.582239, -0.279945, -0.671271, -0.749144, -0.657911, -0.894884, 0.450698, -0.377154, -2.193858, 0.045399, 1.586127, -0.177922, 0.168712, 1.892648, 0.430975, -0.706666, 1.154015, -0.779391, 1.627236, -0.997745, 0.327034, -1.191162, -0.429218, 0.564254, -1.017219, -0.912346, -0.365672, 1.555622, -0.36408, -0.604989, 0.219691, 0.366249, 0.862466, -0.038369, 0.950539, 1.043406, -0.698455, 0.589655, -0.19936, 0.157982, -0.957637, -0.643125, -1.183313, 1.327934, 0.353758, 1.153085, 1.792521, 0.96456, -0.859505, 0.844635, 0.259506, -0.983762, -1.145066, 0.832677, -0.572935, 0.583552, 0.187957, -0.877262, 0.602297, -0.931868, -0.188235, -0.777786, 0.159898, -1.491166, 0.4661, 0.196867, 0.270892, -0.864941, -0.306509, 0.867949, 0.378238, 0.135881, -0.6817, 0.647402, 2.505356, -0.512354, 0.53567, 0.600584, -0.964321, 1.204933, -1.347061, -0.599479, 1.391488, 0.412008, 1.579344, -1.378567, -0.277623, 0.218416, 0.122143, -0.286817, 0.511103, 0.340221, -1.714221, 1.051506, -1.499462, -0.542573, 0.812676, -1.369295, 0.114272, -2.170955, 0.291141, 0.263707, -0.633428, 0.185405, 0.283688, -0.418118, -0.299328, -1.075005, 1.333833, -0.185664, 0.413998, 0.056433, -0.466319, -1.61612, 1.516492, -0.568172, 1.232792, 0.982003, -0.748019, 0.441882, 0.242159, 0.676734, 0.552001, -0.655983, 0.074625, 2.222328, 0.15981, 1.898088, 1.3433, -2.401692, 0.253225, 0.122972, 1.337552, -0.148489, -0.848203, 0.243476, 0.0311, 0.787916, -0.489487, 0.028599, -0.6523, 0.719169, -0.116958, -0.620183, 0.599123, -0.708372, 0.861346, 1.23794, 0.497494, 0.147478, -0.20841, 0.465296, -0.395346, 0.512311, 0.905208, 0.747064, 0.553839, 0.00635, 0.352435, 0.063216, 0.279361, -0.015115, -0.042534, -1.035464, 0.934955, 0.684196, 0.315394, -0.608199, -0.026246, 1.148828, 0.297942, 0.957748, 0.913925, -0.319037, -0.044405, 0.45093, 0.168657, 0.638126, 0.166621, -0.572646, -0.882375, 0.498369, -0.009172, 1.534352, -0.558821, 1.053822, 1.40137, -3.169873, 0.696074, 0.055689, 0.578096, -0.350432, 0.198646, -0.940557, -0.328997, -0.618203, -1.436308, 0.009014, 0.77506, -0.025569, 0.385863, -1.665804, 1.079161, 0.495344, 0.673876, 0.694808, 0.908973, 1.71282, 0.149151, -0.590473, 1.361889, 0.743673, -0.600633, 0.144171, -0.547332, -0.01314, -0.828429, -0.507373, -0.131183, -1.176154, 0.37169, 1.067603, -0.619607, 0.050949, 1.046548, -0.716115, 0.99491, 0.86251, 0.180011, -0.186769, -0.084352, -0.290917, -0.311009, -0.412881, -1.36393, -0.12929, 2.442595, -0.858156, -0.060686, 0.632486, -0.079086, -0.406047, -0.669952, 0.322385, -1.680474, 0.342071, -0.695295, 2.238919, 0.224556, 0.216211, 0.379688, 1.35751, -2.22832, 0.376526, 0.187191, 0.324108, 0.324439, -0.308777, -0.080918, -0.990814, -0.47092, 0.773752, 0.746699, -0.802208, 0.827064, 0.21733, -3.100083, 0.209481, 0.079448, 0.70816, 1.145483, -0.13155, 0.627219, 1.960104, 0.464817, 3.021787, -0.135041, 0.082725, 1.961775, -0.097867, 1.090014, -0.517716, 0.918005, 1.460985, 1.345303, 0.357456, -0.813092, 0.744325, -0.660478, 1.029577, 0.820497, 1.015439, -0.373411, 0.042387, -1.02281, 0.751613, -1.040114, 0.669899, -0.205728, 0.638896, -0.216891, 1.009072, 1.001774, -0.110302, 0.304997, 0.168352, 1.627429, 1.874409, -0.768476, -1.171553, 1.08072, 0.509929, 1.647491, -0.011862, -0.677565, 1.48061, 0.781476, -0.195711, -0.830265, 1.173954, 1.122639, -0.354711, -0.787278, 0.691858, 0.244269, -0.648245, 0.629514, -0.320719, 0.017223, 0.853916, -1.134553, 1.110963, 0.375784, -0.212912, 2.404596, 0.472977, -0.150998, -0.398921, 0.318261, 1.066372, -0.197795, -0.199916, -0.236704, 1.485688, 1.583672, 1.258148, 0.525185, -0.38442, -0.330286, 0.770755, -0.761335, 0.280844, 0.292338, -0.616682, 0.896957, 0.557568, -0.440532, -0.904868, 1.461591, 1.357529, 0.847932, -0.338528, -0.189899, -0.019231, 0.081099, 0.14285, -0.184242, -0.961176, -1.551034, -0.228277, 0.322048, -0.826507, 1.252205, 2.064791, 0.610449, -1.003323, -1.100371, -0.781113, -0.31653, -0.842847, -2.079572, -0.712854, -0.42728, 0.49357, 1.367568, -0.235592, -0.536827, -0.945474, 0.33091, 1.035722, -0.583189, 0.619132, -0.054607, -0.32365, -0.68652, -0.563405, -0.064752, 0.350906, 0.83926, 0.549068, 0.470234, 0.314436, -0.566449, -0.12915, 0.206601, 1.469606, -0.72269, 0.448602, 0.022793, 1.116496, 1.277881, 3.419196, 0.084096, 1.606966, 1.083522, 1.20681, 0.790022, 0.594307, 0.837375, 0.061715, 2.04504, 1.051426, -0.243146, -0.00677, 0.66611, -1.161551, 0.895593, 1.27873, -0.193037, -0.991003, -0.184891, 1.67312, -0.52901, 1.624997, 1.083082, -0.023061, -0.42115, 0.508855, 0.46555, 0.374446, 0.258414, 0.65272, 1.222867, 0.804171, -1.708735, 0.03868, 0.579828, 1.266938, 1.42223, -0.286653, 0.276484, -0.190523, 1.143284, -0.79219, -0.554362, 0.002157, 1.218693, 0.255757, -0.461697, -0.374539, 0.174689, 1.946782, 0.218426, -0.661385, 0.399459, 1.377482, 0.888416, 0.002069, -1.218548, 0.015615, 0.630279, -0.513939, -0.348687, 0.611156, 0.853597, 0.611075, 1.375805, 0.755132, 0.415655, 2.297094, 0.479236, 0.486724, 0.333093, -0.026629, 0.735511, 0.583193, -1.029965, 0.902873, 1.051288, 0.690737, -0.210371, -0.96073, -0.509027, 0.017496, -1.613484, -0.514496, -1.337117, 0.249336, -1.281965, -0.394906, -0.773931, 1.26505, -0.286631, -0.392169, -0.659434, 0.909679, 0.226, 0.748585, -0.771229, -0.641483, 0.52779, 0.482677, -0.770197, 0.007339, 0.6453, 0.659282, -0.489787, -0.558626, 0.238628, 0.329856, 0.763277, 0.298463, 0.378058, -0.628599, 1.449292, 0.48064, -0.779832, -0.564007, -0.184638, 0.344883, 0.42136, 2.41457, 1.325554, 0.3997, 0.646786, -0.844118, -0.708272, 0.714347, 1.57029, 1.109405, -0.057598, 0.979784, 1.444528, 0.33007, 0.361945, 0.577325, 0.159287, -0.849208, 1.412248, -0.459478, 2.27357, -1.002511, -0.309996, 0.407524, -1.333507, -0.253605, 0.87603, -0.937401, 0.393184, -0.669713, 1.601949, 0.590607, 2.016994, -0.269141, -0.995842, 0.261482, -0.076309, 0.019415, -0.037206, 0.209426, -1.542629, 1.394407, -0.106419, -0.82694, -0.091588, 0.113139, 1.054456, -0.129635, -2.708945, -1.184006, 0.559246, 0.222999, -0.409389, 0.881844, 1.827408, 0.428925, -0.830642, 1.875685, 0.265603, 1.01813, -0.725872, -0.179215, -0.502933, 0.839932, 0.9049, 1.904724, 0.996295, -0.305189, 1.066482, -0.141318, -0.119856, -0.105072, -0.197967, -0.363239, -0.229469, -0.23512, 1.47808, -0.732346, 1.08253, 0.187168, 0.151026, -0.956071, 1.026455, 0.198077, 1.364353, 0.582013, -0.039621, 0.717156, -0.112823, -1.047601, 0.266271, -0.362656, 0.374008, 0.832241, -1.269796, 0.384777, 0.10759, 0.671845, 0.651536, -0.547029, 0.625189, 0.176427, -1.829131, -1.438275, 0.257082, -0.585983, -0.293558, -0.552141, 0.103203, 1.619212, 0.336808, -0.523573, -0.08445, -0.082371, -0.196998, -0.543731, -0.40902, 0.936344, 0.496506, 0.199783, -0.961857, -0.500293, 0.182128, -0.129609, 1.308271, -0.336159, 0.912179, 0.243327, -1.142245, 1.174296, 0.640955, 1.097607, -0.118968, 2.025737, -0.030641, 0.937976, 0.709713, -0.080449, 1.62086, 1.041854, 0.358886, 0.268688, 0.674654, 0.235389, 0.913253, -0.423788, 0.876805, 0.748488, -0.382588, 1.808572, -0.82721, 0.143058, 0.317545, 1.335822, 0.043966, -0.366919, -0.251642, 1.622344, 0.294972, 0.860538, 0.059034, -0.702531, -1.175703, 0.795983, 0.879979, -0.388235, 1.893776, 1.369426, -0.497199, -0.888046, 1.132215, -1.468162, 0.319032, 0.994579, 0.653766, 0.656061, -1.287568, -0.56084, 0.533618, -0.124663, 2.990266, 1.675939, 0.442338, 1.619769, -1.465377, 0.027078, -0.310092, 0.0528, -0.25902, 0.579723, -1.295882, -0.097527, 0.012148, -0.052077, -0.475781, -0.258407, 0.213085, 0.467317, 1.08604, -0.842175, 1.001134, -0.031878, -0.457991, -0.214733, -0.3717, 0.14331, -0.487985, 0.140078, -0.246366, 1.978981, -0.302581, 1.407, 0.026974, -0.258578, 1.285674, 0.431841, 1.092607, -0.185392, 1.002501, -0.510316, 0.919133, 0.75694, 1.198201, 0.390448, 0.791531, -0.389258, -0.53668, -0.548665, -0.974405, -1.282371, -0.674445, 1.359545, 0.652433, -0.511741, -1.484574, -0.679805, 1.390781, 0.564184, 0.102227, -1.431134, -1.348542, 0.382132, 1.281117, 0.617244, 0.041451, -0.595328, 0.214793, -0.129666, -0.030556, 0.6696, -0.019976, 0.443011, -0.735051, -0.303577, 0.742509, 0.247116, -0.035706, 0.535458, 0.001999, 1.745129, -0.89331, 0.83636, 0.912898, 0.713814, -0.690445, 1.769521, 0.496876, 1.680054, -0.0568, 0.27942, 0.443457, -0.306654, 0.457451, -0.659379, 2.080701, 0.502483, 0.216217, -0.015168, 0.36324, -1.003026, -0.901608, 1.114774, 0.334388, -0.712237, -0.64412, -0.888422, -1.355368, -0.335623, 0.578502, 2.195527, -0.661977, 0.646683, -1.798568, 1.367555, 0.022148, 1.723664, 0.378535, -0.998534, 0.229989, 0.145857, -0.033744, 0.134019, 0.665189, -1.564869, 0.728084, -0.109486, 0.844789, 0.145554, 0.4166, 1.570872, 0.655485, 0.774821, -0.181613, 0.279445, 0.242926, 0.059097, -0.914876, -0.372553, 1.183867, -0.097387, 0.129294, 1.28601, -0.320348, -0.145627, 1.381823, 1.327822, -1.648853, -0.637548, -0.30669, 0.74182, 0.436658, 1.155871, 0.552429, 0.372808, 0.25137, -0.267774, 1.074979, -0.262945, 0.950798, 1.159252, 1.182641, 0.673441, 0.363174, 0.600029, 0.854753, 0.692991, 0.151882, 0.621264, 0.571794, 1.292028, 0.489876, 1.459547, 1.158212, 1.299015, 1.271059, -0.083517, -0.744163, 1.121943, -0.081787, 1.227115, 0.318698, -0.907458, -1.504316, 0.805989, -0.185842, 0.661972, 0.601783, -0.227713, 0.237262, -0.615184, 1.295136, -0.441223, 0.632089, 0.437849, 1.109206, -0.916775, -0.358375, 0.371987, -0.451218, 0.044553, -0.273372, 1.208235, 0.420882, 0.958617, 0.286963, 0.809536, 0.196409, 0.80952, -0.185957, -0.02277, -1.500016, -0.904399, 1.5634, 0.584956, 0.296115, -0.115958, -1.243155, 1.104393, 1.270185, -0.507022, -0.679401, 0.202796, 0.560299, 0.572708, 0.298228, 1.268805, 1.364006, 0.924958, -0.41674, -0.18946, -0.268409, -0.02385, -0.346525, 0.534602, -0.06453, -0.421385, -0.27267, -0.222334, -0.89935, 0.899682, 0.799873, -1.459464, -0.032231, 0.25279, 0.088549, -1.638879, 0.586638, 1.231604, 0.443953, 1.473442, 0.123969, -0.258214, -0.914591, 0.468029, -0.344254, -1.170352, 0.318054, 0.364202, 0.646039, 0.45053, -1.336797, 1.528579, 0.405583, 2.200327, 0.022083, 0.623601, 0.066728, 0.789423, -0.140824, 0.289646, -0.798661, -0.87094, 0.008782, -0.209495, 0.038722, 0.760376, -0.091677, -1.109953, 0.280367, 0.819056, -0.362247, 0.226905, -0.089121, 0.123077, 1.442209, -1.234296, 0.966664, 0.576518, 0.371137, 0.030776, -1.077429, -0.528867, -1.497704, 0.71744, -0.254577, -0.09723, -0.701527, 0.074043, 0.530711, 0.727457, 0.017603, 0.847884, -0.743196, 0.57588, 1.77288, 0.502159, -0.299057, 1.259216, 0.850337, 0.790798, 2.52218, -0.801366, 0.442696, -0.041558, 1.238486, 0.221715, -0.193666, 0.720832, 1.262278, 0.677506, 0.534346, 0.994592, -0.372908, 0.386011, 0.749188, -0.366377, 0.087828, 0.284885, 0.575497, -0.6036, 2.06416, 1.251962, 0.466949, 0.650316, -0.313173, 1.066058, -0.134076, -0.344342, -1.133571, 0.0012, -0.05029, 0.275447, 0.347234, -0.055674, -1.578753, -0.172299, 0.44169, 0.063153, -0.166491, 0.018145, -0.438866, 1.014478, 0.258598, 0.076507, -0.666373, -0.22847, 0.492971, -0.764777, -0.074291, 0.3278, 0.16293, -0.805707, 1.047427, 0.038382, -0.113029, -0.172731, 0.319055, 0.086883, 1.124016, 1.9043, -2.502944, 1.175233, 0.148616, 0.095427, 0.243891, -0.856334, 0.061799, 0.905479, 1.133319, 1.554099, 0.372937, -0.604244, 0.726805, -0.427436, 0.78694, 1.049789, -0.113874, 0.055343, 0.826662, 0.688112, 0.697037, 1.289356, 0.826844, 2.360874, 1.599705, -0.553257, 0.070232, 0.186758, 0.701315, 1.035441, 1.590491, -0.457425, 0.197845, 1.029133, 2.113685, 0.098549, 0.789629, 0.129293, 0.072034, 0.394629, 0.634515, 0.155351, -0.005998, -0.823757, 0.124375, 0.183266, -0.627993, 0.62876, 1.11063, 1.572894, 0.193133, 0.067789, -0.082301, 0.47945, 0.140541, 0.799847, 0.007451, 0.833681, 0.444814, 1.764715, -0.431063, 0.124765, -1.643986, -0.544799, -1.705716, 0.029489, -0.151907, 0.164331, -1.786899, 0.315251, 0.382732, -0.067711, 0.887019, 2.545057, -0.1762, -0.141704, -0.443483, 1.679848, 2.189491, 0.956785, 0.276114, 0.529437, -0.965354, -0.161078, -0.342944, 1.362841, 0.34868, 0.661224, 0.062159, 0.847654, -0.6285, -0.248272, 1.361262, 0.306043, 0.033232, 0.179226, 0.63495, 0.377497, 0.794423, -0.375269, 0.278587, 0.507868, -1.577494, -0.20507, 0.538318, -0.23017, 0.232193, 0.912002, -0.025834, 0.809177, 0.700379, -0.118577, 1.813395, -1.506704, -0.103748, -0.110348, -0.785261, -0.84171, 1.865438, 0.770124, -0.922434, -0.181152, 0.013909, -0.410545, 0.953909, 0.663347, -1.064892, 1.096725, -0.368262, 0.368296, 0.407241, -0.337378, -0.512171, 0.596138, 0.652843, -1.067018, -0.396944, -0.591797, 1.748182, -0.325377, -0.333021, -0.265084, 1.737875, 0.996376, -0.716203, -0.693334, 1.955589, 1.32148, -0.615478, -0.022942, 1.88436, 1.355972, 1.876342, 0.206371, -0.253959, 0.025586, 0.777268, 1.588367, 1.28447, -0.23532, -0.862899, -0.960222, -0.488949, 1.600722, -0.179072, -0.200129, -1.755576, 0.672585, 1.527212, -1.584705, -0.1148, 0.81196, 0.219762, 0.306695, 0.004293, -0.600471, 0.140602, 1.189533, -0.165238, 0.182019, 0.353728, 0.687089, 0.681913, 1.936683, 1.203167, -0.473329, -0.158702, 0.471228, -0.612364, 0.867689, -0.218326, 0.191584, -2.53829, -0.958255, 1.421486, 0.156183, 1.101661, -0.889865, 0.110491, 1.927573, 0.633104, -0.361697, -2.040099, -0.564112, 0.463728, -0.593536, -0.151653, 0.75178, -0.693621, 0.257066, 0.155561, -0.466425, -0.140597, 0.317741, 2.234968, 0.831577, 0.493435, -0.650123, 0.044855, 0.741115, 0.461271, -0.871046, -0.321048, -1.301781, 0.905291, -1.242381, -1.070152, 1.316302, 0.358064, 0.082446, -0.158908, 0.196549, 0.876184, -1.045241, 0.208449, 0.30124, 0.322452, 0.655183, -0.059466, 1.288076, 0.720214, -0.508757, 0.852908, 1.251758, -0.423461, -0.927484, 1.154536, 0.75521, 0.416257, -0.997081, 0.765456, 0.775643, 0.424756, 0.591109, 1.667493, 1.35361, -0.199215, 0.454784, -0.729631, -2.974515, -0.373292, 0.343825, 0.73361, -0.713426, 0.193901, -0.381743, -1.16908, 0.174034, -0.982385, 0.46109, 0.082113, 0.956629, 0.841223, -0.197917, -1.575066, 0.784857, 0.155119, 1.597849, 0.619851, 0.077593, 0.061223, -0.042503, 0.770729, -0.563075, 0.760802, 1.034714, 1.885389, -3.390632, 0.055547, -0.218568, 1.962398, -0.257737, 0.985714, 0.279946, 1.09211, 1.016397, -0.221093, 0.206365, 1.299081, 0.278104, 0.051886, -0.608237, 1.176463, 0.569301, 0.878709, -0.867836, -1.669717, 0.77184, 1.528879, 0.545549, -1.003162, -0.171019, -0.281816, 0.1874, 0.891157, 1.636405, 0.820048, 0.137585, -0.674035, 0.896587, -0.318323, 0.675553, 1.194982, 0.149655, 0.269446, -1.083022, 1.1425, 1.086725, 0.336987, -1.580542, 1.518162, 0.121156, -0.36654, -0.346266, 0.293731, -0.216276, -0.927016, 1.222922, -0.888157, 0.961952, -0.191905, 0.564706, 1.6699, 2.361062, -1.333225, 0.060533, 0.408487, 1.420319, 0.133113, -0.972881, -0.877239, -1.45287, -0.297444, -0.184524, -0.448967, 0.725958, 0.813009, -1.069987, -1.089324, -0.042904, 1.144854, -0.182507, 1.016676, -1.545008, 1.75473, 0.09401, -0.693447, 0.526006, -0.063928, -0.270345, -0.869077, 0.606016, -0.984657, 1.389882, 0.457529, -0.282051, -0.294578, -0.250998, 0.631119, -0.090428, -0.21494, 0.449295, 0.661083, -0.64742, 0.738877, 1.474835, 2.066128, -2.356359, -0.351173, -1.319755, 0.802492, 0.562284, 0.206543, 1.832345, 0.061341, 0.102123, -0.149405, -1.241616, -0.259252, -0.265483, 2.624895, -1.011745, -1.174402, -0.388429, 0.428497, -0.330823, -0.287673, 1.034406, -1.345428, -0.726095, -0.30602, 0.802152, 0.001463, -0.165896, 0.763166, 0.069366, 0.660689, -1.074591, 0.428432, 0.676834, 0.6798, 1.642791, -1.060456, -0.708025, -0.492555, -0.34347, -0.386452, 2.336123, -1.133148, -0.52629, 1.431121, -0.673925, -1.933689, 1.37463, 0.298293, -0.181573, 0.533393, 1.099315, 1.310155, 1.650067, 0.274148, 0.291801, 0.368985, -0.053921, 0.268482, -0.070874, -0.259745, 0.097416, 0.705817, 1.547236, -1.249294, -0.572116, -0.066696, 0.265554, -0.60853, 0.917873, -0.452692, 1.455842, -0.21307, -0.144294, 0.635102, 0.038004, 0.446822, -0.103582, 1.102417, -0.37872, 0.601988, 0.351182, 0.784004, -0.33827, -0.330902, -0.157601, -0.582727, 0.989161, -0.009751, 1.51877, 0.269477, 1.155334, 0.468126, 0.22297, 0.12531, -1.169384, 0.469544, 0.001798, 0.560396, -0.329797, -0.68967, 0.170492, 0.994828, -0.335328, -0.399849, -0.987449, -0.179808, -0.007056, -0.699542, 0.11141, 1.649351, -1.427306, 1.234408, 1.05649, 0.517506, -1.143144, 0.595026, 0.818016, 0.215195, -0.798518, -0.378638, -0.210607, 0.142329, 1.171831, -0.275655, 0.078207, -1.210169, 0.462437, 0.059512, 0.434544, 0.351566, 2.312604, -1.005832, 0.924869, -0.26167, 1.79335, 1.229565, -0.029009, 0.890393, 1.206814, 1.947051, 0.823291, -0.414893, 0.709227, -0.192986, 0.120732, -0.205567, 1.251265, 0.273595, -0.150752, -0.556219, -0.055331, -2.900466, -1.041147, -0.445077, -0.515279, -0.688582, 2.165922, 1.474758, 1.066657, 0.376612, -1.376145, 0.192079, -0.642566, -0.123905, -2.009675, 0.270773, -0.032053, 0.541914, 2.141651, 1.453041, 0.91866, 1.04239, 0.395387, -0.419709, 0.161023, -1.224908, 1.911697, -0.594608, -1.196139, 0.9434, -0.129367, 0.110682, -0.602086, 0.320812, -0.336536, 0.117119, -1.218578, 0.831793, -0.284034, 0.724932, 0.400151, -0.083794, -0.195155, 0.548152, -0.577059, -0.389621, 1.268052, -0.850303, 2.215202, 1.407905, -0.929864, 0.404268, -0.403199, 0.745699, 0.960732, -0.93782, -0.117387, 0.246333, 0.345793, 1.774942, -0.27602, 1.03277, 1.261083, -1.707761, 0.005293, -0.580026, 1.069991, -0.513816, 0.619177, -0.585612, -0.135507, 1.106397, -0.71317, -0.132578, 1.253211, -0.608347, 1.122562, -1.587465, 0.807623, 0.42084, -0.725133, 0.189954, -1.257009, 0.738354, 0.347713, -0.050582, 0.581956, -0.490111, 0.48949, -0.496628, 0.62566, 0.230639, -0.56892, 0.350217, 1.458067, 0.437023, 0.991566, 0.78831, 0.239003, 0.247344, 0.069292, 0.327829, 0.061234, -0.441282, 0.288682, -1.064212, -0.150318, 1.47284, 0.261986, 0.380582, -0.189961, 0.198929, 1.516607, -0.592092, 0.170066, -0.646481, 1.326583, -0.125533, 0.392457, -0.957574, 0.040226, -0.94383, 0.292976, 0.311724, 1.356933, -0.856098, -0.019536, 0.436997, 0.625727, -1.05386, -0.432502, -0.337749, 1.362221, -0.839065, 0.579529, 1.190569, -1.008654, 0.405002, 0.415285, 0.398428, 0.439122, -0.325509, 1.026353, 0.099217, -0.047822, 0.71406, 1.758389, -0.992752, -0.382289, 0.439332, 1.065079, 0.519119, -0.417023, -1.186675, -0.292942, 0.624389, -0.941075, 0.857641, 2.202275, 0.787912, 0.308986, 0.424237, 1.318549, 0.647689, -0.317368, 1.400663, 1.283628, -0.017386, 0.192844, -0.157375, 1.071929, 0.32346, -0.332762, 0.734465, 0.302787, 0.244288, 0.365237, 1.915521, 0.256187, -0.960158, 1.65978, 0.658646, 1.196149, -0.192061, 0.040825, 0.574357, 0.574014, 0.79426, 1.1897, 0.671911, 0.28768, -1.219866, 0.928066, -0.401506, -0.183685, 1.038281, 1.020271, 0.605999, 0.95806, -1.851066, 1.633118, 1.206909, 1.303053, 0.709835, -1.07748, -1.295933, 0.56805, 0.700988, 0.56207, -0.223554, 2.122764, 0.070236, 0.004771, 2.518136, -0.352403, -0.91674, 0.173329, 0.005559, -0.490936, 0.74175, 0.468815, 1.342363, 0.4683, 0.802533, 0.128751, 1.490197, 0.789258, -0.375828, -1.199573, -1.017795, 0.838881, -0.093709, 0.862739, -0.390439, 0.137403, 0.364754, -0.797896, 0.651267, 1.442449, -0.682766, -0.94352, -0.079775, -0.23878, -0.468539, 1.269315, -0.805772, -1.474239, -1.913906, 0.440991, 0.614856, -0.411771, 1.184436, 0.842557, 1.103507, -0.770684, 0.211332, 0.312785, 0.865547, -0.347968, 0.093596, -1.167927, 0.078889, 1.432279, 1.182671, 0.241961, -1.387596, -0.848951, -0.05061, -0.459737, 0.348763, 0.42403, 0.925892, -0.473341, -0.141036, 0.15969, 0.748751, 0.093677, -0.125185, 0.364687, -1.859648, -0.488312, 1.068732, -0.236374, 0.654891, 0.570451, 0.83147, 1.947666, -1.452025, -0.649062, 1.087804, 0.139289, -1.742912, -0.64888, 0.614088, -0.412784, 2.048935, 1.155243, 2.854208, -0.971897, 0.427068, 0.132078, 0.214852, 1.294019, -0.6002, 0.997037, -0.955214, -1.172604, 0.082149, 0.203863, -0.173163, -1.443303, 1.226152, -0.339569, -0.335654, 0.877809, 1.296766, 0.547351, 0.295001, 0.916879, -1.260789, -0.681657, 0.434052, -0.040758, -0.591488, -0.011502, 0.423889, -0.545394, 0.505983, -0.147902, -0.52946, -0.998188, 0.583478, 0.879028, 2.079914, 0.197041, 0.561691, -2.057634, -0.548882, 0.696633, 0.906411, 0.294745, 0.228988, 1.399819, -0.872965, 1.277791, 0.629672, -0.105067, -0.201794, 0.232177, -0.825007, -1.212573, -1.917348, -0.24782, 0.927162, 0.595248, -0.686208, 0.266498, 0.877312, 1.418339, 0.411085, -0.08958, -0.202033, 0.242049, -0.292027, -0.434222, -0.122487, 1.27139, 0.525499, -1.113685, -1.047733, -1.025499, -0.542852, 0.292634, 0.380012, 0.105973, -0.181975, 0.603651, -1.000842, -0.41997, 0.127968, 0.613795, -1.182742, -0.903329, -0.104753, 0.465919, -0.84574, -0.242872, -0.056538, -1.362225, -1.416419, -0.418955, 0.472717, 2.308535, -0.126723, 2.830373, -0.370306, 2.062121, -1.26225, 0.425602, 0.654979, -1.706836, -0.33604, -2.097928, 0.773458, 0.992565, -0.390832, -0.13299, 0.367763, -0.482269, -3.386087, -1.06395, -0.784183, 0.366923, -0.022896, -0.195458, 0.910867, -1.339293, -0.517848, 0.769456, 2.398779, -0.770722, 0.359474, 1.312441, 0.489685, -0.43545, -0.596752, 0.282921, -0.149655, -0.581077, 0.711951, -0.990268, -1.638772, 0.329304, 0.580297, 0.888265, 0.16943, 0.890336, 0.381812, 1.165957, -0.443644, 0.215447, 1.08006, -0.292242, 0.10267, 1.481343, 0.72693, 0.265024, 1.117132, -0.652555, -1.983356, 0.846102, -0.715599, 1.397947, 0.54174, 1.220933, 0.675398, -1.041345, 0.312598, 1.116187, 1.010407, 0.607393, -0.916385, -0.200389, 0.121931, -0.316689, -0.657499, 1.235532, -0.20833, -0.054204, 0.651001, 0.945124, 1.211718, -1.150427, 0.759274, 1.055794, 1.832237, -0.380873, -0.629706, -0.159089, 0.261081, -0.577334, 1.177312, 1.316238, 1.142914, -1.085526, 0.500881, -1.505029, -0.201967, 0.580023, 1.582461, -0.001597, 0.576325, 1.896104, 0.74539, -1.028785, 0.950122, -0.529275, -1.98944, 1.178945, -0.335612, 0.63451, -0.378199, -0.299399, 1.144765, 0.519587, 0.026708, 0.907544, -0.511864, 1.043128, 1.066925, 0.026453, 0.56284, 1.07471, 0.595959, 0.472271, -0.636022, 0.650159, -1.201112, -0.770138, 0.733297, 1.770691, -0.944029, 2.953686, -0.244012, 0.466828, -0.190274, 0.45106, 0.812454, 0.434741, 0.38071, -1.781378, -0.131248, -0.552565, 0.173654, 0.089821, -1.190344, 0.796361, 0.47011, 0.206703, 0.194267, 0.364278, -2.181582, 0.796065, -0.307348, -0.302609, 0.977504, 1.001385, 0.510981, 0.601131, 0.556646, -0.58591, 0.508142, 1.681576, 0.358663, -0.912676, -0.003752, 1.342178, -0.996398, -1.285771, -0.139689, 0.304691, -0.472698, -1.02012, 1.119367, 2.319217, -2.411005, 0.581842, 0.21211, -1.235992, 0.603688, -0.716562, 1.137802, -0.427797, 0.159662, -0.422198, 0.803387, 0.314999, -1.546766, -2.242353, 0.984651, 1.159901, -1.646769, 1.801274, -0.489131, -0.833102, -0.340545, -0.594886, -0.539311, 0.1089, -0.60394, -0.261344, 0.227928, 0.100652, -0.453347, 0.19041, -0.768686, -1.524465, -1.996718, -0.701988, -0.48075, 1.185192, 1.230545, 1.954916, 1.018186, -1.170125, -0.265509, 1.557618, 0.779017, -1.204997, -1.827309, 1.058671, -0.449367, -0.12179, -0.326659, -1.926998, 1.06196, 1.656886, -0.474969, 0.333484, -0.743719, 0.553122, -0.07261, 1.39141, -0.074444, 0.593402, -0.735735, 0.336954, 0.45938, -0.126153, -0.989982, 0.257398, 0.221783, 0.147109, -0.247575, 1.550461, 1.113781, -0.198207, 0.084964, 1.006652, -1.708335, 1.127907, 1.287319, -1.232745, 0.943391, -1.918669, -0.032242, -1.593491, -0.385965, -0.673038, -0.713621, -0.838754, 0.667562, -1.342451, 1.101016, 0.283985, -0.194827, 0.061363, -0.418363, 0.001569, 0.25979, -0.451165, -0.012503, 0.438217, 0.376274, -0.730489, 0.575637, 0.636983, -0.268888, -0.832359, -0.850652, -0.625987, 0.043492, 1.003842, -0.20704, 0.107814, -1.205691, 0.038499, 0.331547, -0.035014, 0.426684, 1.182139, 0.707255, 2.093897, -0.330027, -0.191871, 1.658031, 1.769055, 1.148795, -0.01326, 0.161122, -0.805668, -0.52596, 1.754127, -0.084565, 0.625793, -0.649475, -1.798145, 0.083346, 1.328829, -0.830763, -1.152106, 0.383442, -0.536098, 0.227763, -0.175145, 0.09893, -0.004873, -0.955434, -1.007858, -0.696786, -0.59003, -1.132597, -1.6887, 1.292617, -1.311225, -0.408393, 1.814268, -0.556665, -0.697413, -1.537685, 1.276803, -0.219999, -2.327423, 0.021173, 0.15559, 0.949624, 1.166633, -0.511843, 1.650434, -2.233339, 0.218386, 0.362094, -0.424764, 0.26082, -0.168229, 0.658038, 0.382978, -0.165295, 1.361488, -0.725993, -1.529979, 0.295942, 0.276738, 1.491363, 0.095129, 1.137887, 1.021322, -0.845436, 1.00343, 0.281789, -2.122492, -0.128798, 0.007209, -0.020699, 0.184578, 0.909112, -0.000305, 0.394564, 1.60415, 0.567757, -0.61718, -0.055284, 1.227648, -0.220509, -1.319455, -0.442147, -0.787756, 0.462124, -1.699433, 0.001941, 0.867849, -0.165297, 1.493096, 0.060217, 1.479807, 0.128189, 0.732745, 0.981745, -1.292402, 0.710347, 0.794469, 2.40719, -1.308023, 0.461043, -0.689906, -0.095669, 0.635644, 0.421765, 0.307211, 0.805435, -0.159965, 0.103209, 0.458749, -0.035495, 0.191398, -0.305679, 0.338063, -1.023798, -0.042643, -1.816414, 0.847743, 1.280308, -0.894336, 0.699789, -0.518894, 0.310077, 0.095802, -0.098753, 0.584462, 0.131264, 0.455931, 0.892669, 0.891883, -1.850064, 0.250545, -0.423807, -0.809658, 0.096522, 1.017634, -1.234156, -0.815322, -0.475051, -1.016996, 0.554212, -0.997707, -1.233682, -0.853698, -0.150701, 1.382888, -0.739728, 1.582312, 1.714427, 0.144442, 0.014257, 0.68121, 1.142916, -0.050797, 2.035197, -0.735413, -0.861997, -1.270809, -0.266252, 2.59522, -0.76586, 0.19741, 0.06195, -0.499312, 0.774292, -1.519954, -1.727546, 1.404443, 1.558521, 0.800173, -0.287749, 1.588269, 1.385695, -0.470904, -0.141073, 0.401607, 1.921432, -0.195134, 1.388141, -0.121047, -1.372936, -0.268033, 0.929225, -0.333356, -0.663718, -1.830578, 1.721171, -0.4551, -0.434547, -0.191095, 1.049032, 1.122808, 0.81166, -1.696401, -0.657475, -1.957552, 2.122544, 0.416369, 0.165781, -3.108252, 0.353401, 0.7418, -0.420203, 0.281043, 2.543761, 0.986941, 0.020185, 0.652956, -0.236024, -0.142884, 1.957206, 0.115806, 1.193348, -0.938669, -0.986443, 0.656057, -0.843979, -1.834041, 0.777183, 1.229955, 1.052877, 0.111884, 0.167024, -0.443702, 1.151924, -0.683317, -0.140621, 0.48619, 0.158517, 0.534856, 0.481502, -1.048768, 1.345258, 0.588626, 0.008285, -0.073991, -1.39878, 2.437731, -0.404057, 0.202038, 0.169787, -1.042766, -1.840227, -0.951074, 0.308565, -1.784892, -0.041439, 0.191617, -1.064811, 1.446771, 0.897297, 0.426066, -0.573871, -1.885586, 0.402386, 0.400698, 0.15878, -0.479336, -0.111035, -1.341392, -2.493181, 0.117384, -1.637473, -1.230454, 1.341227, 0.69342, 0.440392, 1.522068, 0.534432, -0.756257, 0.852563, 0.452744, 0.828448, -0.888622, 1.549042, -2.387414, -0.691142, 1.656663, -0.576783, -1.086506, -1.82317, -1.110245, -0.918419, 0.418756, -0.468883, 1.802481, 2.492333, -1.272022, 0.031551, 0.392471, 1.30655, -1.28988, -1.796525, 1.418855, 0.875461, 0.056894, -0.893319, 0.542967, 0.229779, -1.897908, 1.330432, -0.457588, -0.321519, -0.707856, -1.458244, 0.950572, 0.241079, -0.866972, -0.014035, 0.38444, -0.76706, 1.421052, -1.194718, -0.494365, -1.263151, -1.79843, 1.317512, -0.235813, -0.448439, -0.114467, 0.398395, -1.207921, -0.727129, 0.136826, -0.043931, -0.038213, -0.00976, -0.322661, 1.153948, -0.528817, 0.041137, -0.236348, 1.598419, 0.119111, 0.324652, -0.175619, 0.961697, -1.24349, 1.206886, 0.61867, -0.705863, 0.346719, 2.490395, -0.617207, 0.493226, -0.38112, -0.481522, 0.626856, 2.025768, 0.636972, 1.27675, 1.143084, -0.337089, 1.3631, -0.826973, 1.365558, -2.715542, 1.217761, -0.169795, -1.053484, 0.462052, -1.418457, 0.184724, 0.910471, 0.187405, -1.064649, 0.73002, 0.219093, 0.402464, -1.261113, 0.218108, 0.120265, 0.7722, 1.578863, -1.207417, -0.12559, 0.624331, 0.408805, -1.173278, -0.52561, 0.238796, 1.967097, 2.420161, 1.652366, 1.496756, 0.16968, -1.6281, -0.115942, -1.158604, -1.483914, 0.454684, 0.216127, -0.052021, 0.575935, 0.03044, 0.824325, -1.162317, 1.971376, -0.015479, -1.790983, -0.351864, 0.44275, -0.553276, -0.869665, -1.04006, 0.587344, 2.077066, -0.175312, -1.487171, -0.669391, 0.192821, 0.568705, -1.541795, -0.066715, 1.327447, 0.128951, 1.436133, -0.777026, 0.276128, -1.585879, -1.850072, 0.009113, -0.208388, 0.53468, 1.419366, -0.987619, 0.027826, 1.438865, 0.601744, 0.910766, 0.991896, -1.294329, -1.210858, -1.159235, 0.58471, -0.440306, -0.009002, -0.925744, 2.153336, 0.319187, -0.57616, -0.966097, -0.977147, 1.540585, -0.095072, 0.021905, -0.990809, 1.866457, 0.561607, -0.360751, -1.011733, -0.739134, 1.409362, 1.733348, 1.515705, -0.931332, -0.504428, -0.781879, -0.735568, 0.784549, 1.779668, 0.167727, 0.266783, 0.440449, 0.103229, 1.491216, -0.932215, 0.891425, 0.467085, -0.16885, 2.34633, -1.640783, 0.529814, 0.104308, -0.428695, 0.273747, 0.988822, 0.869857, -0.991691, 0.30898, 1.793372, 0.58138, -1.537497, 0.633229, -0.409919, 0.718566, 0.898872, -0.555532, 1.555122, -1.717549, -0.64056, 0.193655, 0.943092, -0.984434, -0.613662, -0.53341, -0.283902, 0.043455, -0.866154, 0.106127, 0.549064, 0.853567, 2.121192, 0.204881, -0.041066, 0.412352, 0.221116, -0.342824, -3.349649, 0.379106, -2.341333, 0.418075, -2.467359, -0.545196, -0.200366, 0.044413, -0.58669, 0.576015, -2.92566, -1.549943, 0.338641, -0.673106, -0.396153, 0.978331, 2.118355, 1.184059, 1.19451, -0.71938, -0.154271, -0.800216, -0.392241, 0.070954, 1.141909, 0.790598, 0.222077, 0.733327, -0.204469, 1.173875, -0.701836, 1.528952, 2.141606, -1.057335, -0.961798, -0.878695, 1.752476, 0.353653, 0.54064, -0.504774, -1.403712, -0.0768, 0.076956, -2.093021, 1.367233, -2.405179, 0.317678, 0.877177, 0.165172, -0.04086, -0.472052, -1.064945, -0.414293, 0.115186, -0.17, -1.316421, -0.787627, 1.749686, 0.587187, 0.104401, -0.557838, 0.928185, 1.305985, -0.297165, -0.262341, -1.052196, -0.88142, -2.99057, 1.118988, -1.696534, 2.060118, -1.414053, -0.443055, 1.276829, -0.859021, -0.355516, -1.96707, 2.056193, -0.998234, 0.570914, -0.889914, 0.890239, -1.394634, 0.271451, -0.772834, -0.369124, 0.733999, 0.3644, 0.402737, -1.018799, 0.092057, -1.069846, 2.499958, 0.922983, -1.040486, 0.110664, 1.422602, 0.049384, -0.84005, -0.235911, 0.173723, -1.727352, 0.409211, -0.465702, -1.693032, 2.074738, -0.96599, 1.080447, 0.552535, 1.063565, 0.902224, 0.754011, -1.441529, -0.404808, -0.609382, -1.516832, -0.530268, -0.304563, 0.340886, -0.654024, 0.935573, 1.497849, 1.473372, -0.026262, 0.228571, 0.791748, -0.595855, 0.308745, 0.889908, -1.172763, -0.106705, 0.877698, 1.412545, 0.909922, 0.495521, 0.600803, -0.570273, 0.777227, -0.571653, -2.270381, 1.070748, -1.124354, 1.012762, 0.097763, -0.419132, 1.589711, 0.00989, -1.490641, -0.953287, -0.331878, 0.95789, 0.23516, 0.357384, 0.017206, -0.114997, -0.445996, 2.245516, 0.481814, -0.206478, -0.650691, 0.150875, -0.546208, 0.080485, 1.019464, 2.050292, -0.914975, -1.340855, 0.390362, -0.275816, -0.220191, -0.869699, -0.918518, 0.696525, -0.847247, -1.074741, 1.043083, 0.477027, -0.400853, -0.937894, -0.309603, -0.856265, 0.11685, 1.630504, -1.043746, 2.068506, -1.246993, 0.38805, 1.049961, -0.407158, -0.25758, -1.221151, 0.181472, -1.580132, -1.712824, 1.527498, -0.637331, 1.531519, 0.325288, 1.450773, -0.030073, -1.138505, -0.852144, -0.241736, 1.255253, 1.455576, -0.3352, 0.801325, 0.556759, -0.896292, 0.160338, 0.180615, -0.115867, -1.569562, -1.274602, 0.094596, 1.631499, 0.070577, 1.370469, 0.325114, 0.392156, 0.942161, 0.644973, -1.585545, -2.461302, 0.06045, 0.492661, 0.024286, -1.406311, 0.007526, -0.244054, -1.426531, -1.409235, -1.342396, -0.827298, -0.080358, -2.895944, 0.759114, 0.489409, -0.702368, 1.424925, -1.648012, 1.063281, 0.260909, 0.50627, -0.253334, 0.196222, -0.810233, 0.398142, 0.201743, -0.490798, -0.691182, 0.276231, -0.585537, -0.609753, 0.232876, -0.606253, 0.701938, 0.153158, 0.421293, -0.741837, -1.091209, -0.576654, -1.203621, 0.555682, 0.120881, 0.788825, -0.180744, 0.37201, 0.63844, 0.389469, 0.724562, 1.51201, 1.555364, 0.258339, -0.553645, -1.832306, -0.768749, 0.722267, -0.987199, 1.077593, -0.333573, 1.197323, 2.501048, -0.032054, -0.174783, -0.131776, -1.193267, 1.250601, 0.152824, 1.776305, -1.334499, 0.526798, 0.669374, 0.183, 1.588139, 2.236248, 0.827672, 0.3344, 0.334625, 0.934369, 0.826236, 0.211819, 0.985915, 0.630292, 0.448909, 0.550978, -1.42843, -0.036684, 1.142601, 2.669853, 0.033281, 1.154746, -2.105545, 1.098127, 0.209539, 0.928513, -2.151721, 1.879707, 0.83517, 1.242084, 0.047565, -0.109048, -0.704181, 2.321586, -0.573409, 0.830168, 0.443797, -1.229174, 0.289465, -0.326099, 0.750728, 2.204776, 0.413065, -0.227424, -0.536546, -0.688513, -1.010693, 0.249174, -0.141354, -0.861771, -0.395387, -0.526115, 0.339939, 0.754941, 1.176466, -0.432828, 0.503034, 0.00689, 0.143531, -1.143411, -0.872319, 0.617601, 0.609203, 0.061335, -0.901748, -0.787454, 0.848905, 0.156107, 0.310035, 0.442205, -1.619131, 0.502317, 0.328673, -1.118159, 0.573368, -0.387044, 0.441518, 0.115913, 0.924393, 0.936506, 0.819151, 0.45882, 1.189625, -0.851113, -1.526093, -1.117663, 0.293382, 2.127434, 0.664385, -0.415551, -0.082366, 1.635852, -0.846016, 0.509929, -0.766334, -0.046066, 2.504782, 2.919086, -0.541114, 0.793552, -0.249063, 0.090212, 0.266195, 1.85647, 0.065821, 1.56792, 0.290425, -0.689094, -0.31997, 1.386015, 1.601751, 0.219924, -1.350693, 0.054486, -1.676631, 0.668294, 0.555956, 0.422765, 0.63574, -0.238883, 1.813183, 0.685053, 2.157188, -0.70804, -0.121903, 1.595715, 0.933345, -1.437369, 1.054603, 0.172732, 1.641129, 2.065032, 1.664828, 0.201672, -0.445937, 1.032633, -0.933194, -2.098413, 0.508187, 0.467887, -0.4644, 1.565331, -0.218952, -0.52806, 0.241767, 0.766894, -0.02946, -1.498467, -0.810048, -0.28066, 0.781399, 1.382457, 0.585656, -1.556312, 0.264668, 0.518166, -0.388266, -1.430919, -2.105426, -1.573526, 0.093157, 1.506432, 0.048046, 0.2007, 0.048705, -1.486833, -0.443621, 0.389771, -0.108276, 1.112004, 0.760883, -1.2656, -1.545471, 0.271062, -0.90452, 0.192859, 0.41159, 1.204236, -0.661433, -1.201415, 0.81294, -0.395602, 0.513637, 1.144862, 1.142094, -1.826352, 1.023155, 0.597638, -0.098157, 1.420682, 0.189744, 0.866102, 1.081191, -1.474714, -0.560214, -0.218386, 0.38573, -1.109048, -0.032316, -0.303995, -0.62677, -0.472614, -0.164767, 0.926842, 0.504497, 0.697894, 1.230813, 1.24339, -0.057973, -0.208807, 0.235467, 1.999288, -0.485307, -1.03366, 0.143473, 0.6591, 0.095607, -0.992902, -0.370334, -0.032993, 0.391474, 0.913972, 0.621496, -1.060678, -1.330513, -1.188812, -0.588137, 1.12947, -1.383318, -0.621603, 0.973443, 0.216876, 0.451183, -0.1458, 1.075522, -0.913832, -0.767377, 0.233311, 1.844865, 0.588668, 0.494463, -0.832871, -1.497566, 0.161404, 0.269896, 0.068143, 1.155537, -0.875216, 0.664188, -0.509556, 1.44845, -1.715178, -1.788423, 1.512438, -1.586851, -0.037125, -0.448989, -2.34079, 2.221071, -0.467425, 0.695333, -1.157455, 0.85173, 0.887639, -0.817087, -1.181556, 0.342974, -0.23672, -0.574381, -1.122022, -0.489727, 0.286485, -0.810095, 0.473692, 1.586448, 0.768156, 1.051163, 1.486439, -0.553332, -0.412517, 2.335545, -0.614162, 1.185804, -0.632289, 0.535718, -0.945182, -1.160171, -0.100819, -0.501291, 0.39598, 0.850662, 0.307122, -0.013075, -1.153848, 1.169439, 1.337987, -1.131203, -0.314813, 0.201757, -0.320094, -1.463667, 0.51131, 0.268018, 1.322712, -0.549212, -0.392857, -1.459724, -1.032162, 1.016716, 2.008285, 0.627601, 0.688136, 0.814599, 0.735006, 1.726283, -0.83485, -1.498132, -0.474403, 0.661278, -0.975177, 0.855742, 0.231629, 0.927374, -0.029982, -0.315167, -0.12548, 0.351838, -0.437984, 0.83321, -0.205789, 1.699941, 0.906735, -0.70313, 0.460042, 0.786986, 1.669458, -1.229769, 0.324883, 0.952474, 1.551538, -0.031009, 0.019129, 0.65276, 0.640172, 0.41314, -1.2427, -0.74095, 0.775109, 0.26856, 0.473578, 0.852918, 0.742744, -1.207646, -0.244975, -0.744858, -1.133795, -0.494639, 0.475992, -0.829533, -0.761951, 1.203609, 2.891674, -0.247557, -1.060133, 0.257811, 0.309448, -0.884704, -0.628911, 0.903046, 1.704254, -1.498361, 0.416605, -0.324393, 0.377618, -0.597765, 0.621795, -0.362329, -0.45375, 0.897281, -2.425063, 0.975354, -0.177954, -0.117607, 0.984549, -0.434549, -1.080195, 1.086397, 0.03894, 1.415982, 0.551378, -1.440267, -0.353394, -0.602025, -0.352447, 1.045239, -0.086387, 1.000859, 0.463873, -1.065412, 1.253628, -0.845508, -0.145132, 2.202765, -0.673088, -0.888998, -0.894308, -0.341911, 0.245906, 1.427965, -0.79737, -1.217245, 1.25497, -0.698, -0.270357, -1.940542, 1.573653, -0.591403, 0.791788, 1.278788, -0.110597, -0.253208, -0.945285, -0.81892, 1.082554, -0.03898, 1.044433, 0.461605, -1.512792, -1.296735, 0.69804, 0.484658, 0.445618, 0.116865, -0.796045, -1.549892, -0.77417, 0.458058, 0.584431, 1.61514, 1.283547, 0.149195, -0.32327, 1.13032, -0.812236, -1.410886, -1.227591, 1.684189, -0.086075, -0.813613, -1.702926, -0.28442, -0.934949, -0.316404, -0.323202, 0.088588, -0.290895, -0.479095, -0.568676, 0.483271, -0.234649, -0.445385, 2.151133, -0.386542, 0.543565, -0.313883, 0.45699, 0.414919, 0.418359, -0.551567, 0.752482, -0.909462, -0.607866, -0.024419, 0.377029, 0.544876, 0.044534, -1.384366, 1.139652, 1.449808, -0.445324, 1.832865, 0.204835, -1.644284, 0.425464, 0.269916, 0.851818, -0.47199, -1.2852, -1.612348, 1.661725, 1.281495, 0.368676, -0.283019, 0.697077, 0.669762, 0.611159, -1.006084, -1.07439, -0.937154, -0.038979, -0.258216, 0.730283, 0.624996, 1.304352, -0.913619, 1.380539, 1.340045, -1.109284, -0.656859, 0.589237, 0.212165, 1.869431, 0.636026, 0.481796, 0.518542, 0.105424, 2.243016, -2.230757, -1.417231, 0.041386, -0.177685, -0.390653, 1.710533, 0.615693, 0.679769, -0.880626, -0.297764, 0.697736, -1.681262, -0.693878, 1.150179, 0.99563, 0.504974, -0.138349, -0.526687, 0.118948, 0.832523, -1.000576, -0.357817, 0.93029, -0.393549, 0.437494, -0.4776, 0.839481, -0.718803, 0.089889, -0.397771, -0.808846, -0.398067, -0.795443, 0.768665, 1.171748, 0.155516, 1.294417, -1.471429, 0.403459, -1.071541, 0.374194, -0.264644, -0.691978, -0.641164, 0.162831, -0.495606, 0.340539, -0.286244, 1.113103, -0.175512, 0.56569, -1.518958, -1.231298, 0.746909, -1.2085, -1.522972, 0.580527, 0.198192, -1.884571, 0.650253, -0.141855, 0.990621, 0.788106, 0.271418, -0.03452, 0.658865, -0.859855, -0.43102, -0.283286, -0.555741, 0.839101, -0.783395, 2.321629, 1.031091, -0.219904, 0.639565, 0.428095, 1.480196, 0.103419, 0.867266, 1.92573, 0.623592, 0.3639, 1.727819, -1.683035, 0.136544, 1.094569, 0.064492, 2.626241, 1.698873, -1.039917, 0.234883, 1.114494, -0.709119, -0.930975, 0.295095, -1.105818, 0.182044, -0.683833, 0.230739, -0.131012, 0.252242, -1.273002, -0.290512, 1.556128, 0.430523, 0.290816, 0.015449, 0.402931, -0.418692, -1.509333, -0.811349, 1.935839, 0.413574, -0.839961, 1.360905, -1.251725, 0.765223, 0.527413, -0.302738, -0.778691, 1.412113, -0.417357, 0.166052, -1.869785, 1.368685, 0.267597, -2.185468, -0.78897, 0.305038, 0.289567, 0.556825, -1.636007, 1.37831, -1.142378, -0.487949, -1.202776, 0.222525, -0.4564, 0.82812, 0.620537, -0.209935, 0.644628, 0.96216, 1.09846, -0.095745, 0.108519, 0.313697, -2.519549, -0.843133, 1.382084, -1.68336, 1.116821, 0.981045, -0.256061, 2.327592, 1.528214, 0.452322, 0.806977, 0.71911, 0.229982, 0.272311, 0.17885, 0.151535, 0.441398, -0.209338, -0.956244, -0.212397, 2.528627, 0.074606, 1.423105, -0.043723, -0.962772, -1.497104, 0.220966, -0.213731, 0.369574, 0.003883, 1.285841, 0.432919, -0.258599, 0.149296, 0.127451, -1.767493, 0.188227, -0.179508, 0.377476, -0.457184, 0.203675, 0.746733, 0.796831, -1.839162, -0.558285, -0.695834, 0.675189, -0.439713, 0.908069, 0.254937, 0.717059, 0.423044, -0.259055, -0.090264, 0.865736, -0.395025, 1.313586, 0.101993, -0.923985, 0.376317, -0.905231, 2.037545, 0.860523, -1.147694, 0.470464, -0.682381, 0.384255, 1.854468, 1.080949, 0.972067, -0.424842, 0.57739, -2.898882, 0.697307, 0.756978, -0.501607, 0.83272, -1.992226, -0.770424, 0.232879, -0.82737, 0.865029, -0.596702, -0.183415, 0.940043, 0.668647, -0.592942, -1.32812, -0.990201, -1.395094, -0.089127, -2.016783, 0.057152, 0.970109, 0.014894, 0.041105, 0.634382, 1.592435, -1.366883, 0.533133, 0.239427, -0.948236, 0.565565, 0.670969, -1.858348, 1.445023, 0.479198, 2.451086, 0.649011, -1.306443, 1.222806, -0.239411, 0.595032, 0.775209, 0.558131, -0.106466, -0.61799, 0.23546, 1.277709, 0.123595, -0.224093, 0.856983, -1.513155, 0.168187, -1.780025, -2.763854, -0.185675, 1.681401, 0.620927, 0.414046, 1.001113, 1.099329, 1.049514, 1.80771, -1.107629, 0.228286, 0.318095, -0.816095, 0.393698, 0.498245, -1.829737, 0.632114, 0.381758, -0.060361, 1.760831, 2.404177, -0.516733, -0.570822, -0.110055, 0.76888, 0.074102, 0.150425, -0.466591, -1.090973, -0.873311, -0.442297, 1.96595, -0.138931, 1.890653, 0.396038, 0.407655, -0.372805, -0.972888, -0.365378, -1.184714, -0.924103, -1.318622, -1.245088, 0.735477, 1.304359, 0.172223, -2.152672, -0.254662, 1.140106, -0.333075, -0.940357, -0.296573, -0.172722, -0.434698, 1.675182, 1.605985, 1.458013, 1.034845, -1.671998, -0.037385, -0.294304, 0.698062, 2.058155, -0.004651, 0.483419, 0.11341, 1.382337, -1.12503, 0.241801, 1.361125, 0.25343, -1.025012, 1.410622, 0.379381, 2.530604, 0.504895, -0.24211, -0.215132, -0.69096, -0.918058, 0.256517, 0.489487, -0.916444, 0.716437, -0.021346, 0.203418, 0.303784, 0.99723, -0.503915, 1.528181, 0.332992, 0.175678, -1.616536, -0.625135, -0.977748, 0.030295, 0.656439, -0.918634, 1.099381, -0.556695, 0.541934, 0.097154, -0.206442, 0.331995, 0.234674, 1.3275, 0.964317, -0.406529, 1.112556, 0.519217, 0.782331, -0.801086, 0.089039, 0.200799, -0.613195, -2.964556, 0.401382, 0.44785, -0.606005, 0.549093, 0.631522, 0.89003, -1.714234, 0.994408, 1.294173, -0.42175, 2.052063, -0.324422, -0.422335, 0.811136, 1.642765, 0.486629, -2.335179, 0.03452, -0.25613, -1.269692, 0.402966, -0.841386, 1.20185, -0.620311, -0.725215, -1.030285, -0.886586, -0.084812, -0.393778, 0.132529, 1.295184, -0.613741, 0.44944, -0.108307, -0.139719, 0.968697, -0.366806, 0.466363, -0.544651, -0.314189, -0.632176, -0.335668, -1.391436, 0.028955, 1.57206, 2.309387, -0.265703, -1.622033, -0.921335, -1.761298, 0.010393, -0.149546, 0.112169, 0.274858, 0.849456, -1.350498, 2.479495, 1.17683, -0.178664, -1.403769, 1.596443, 0.717395, 1.095353, -0.706721, 2.101582, -0.083356, -0.465905, -0.558523, -0.004558, 0.895978, 0.383739, -0.019951, 1.030023, -1.824493, 1.127838, 1.223984, 0.814915, 0.936509, 0.442671, 0.228869, 0.190716, 0.422173, -0.440266, 0.465504, 1.625095, -0.037484, 0.340852, 0.632441, -1.329259, 0.821301, 0.829656, -0.341108, -0.711174, -1.423353, -0.875026, 0.619606, 1.957056, 0.588383, 1.038979, -1.416705, 0.479419, 0.867041, 2.0774, -1.204393, -1.501577, -0.679947, -1.935837, -0.055153, 0.833997, 0.422928, 0.706668, -1.113579, 1.149042, 