{"arch": [768, 64, 16, 1], "scale": 600.0, "layers": [{"w": [0.973872, 0.622739, 0.167443, -0.935736, -1.537216, 0.536414, -1.128674, -1.881457, 1.109241, -0.829748, 0.172826, -0.456071, 0.252674, -0.465271, -1.101573, 1.668762, 0.400063, 1.066348, -0.564819, -0.60777, 0.227126, -0.567989, -0.364826, -0.638512, 1.067813, -0.795007, -0.672704, 1.135991, 0.624707, 0.862806, 1.100815, -1.334358, -0.975924, 1.091002, -0.436971, 1.304229, -1.55378, 2.269577, 0.677166, -1.257978, -0.703343, -0.780863, 0.341965, -0.314662, 1.160016, 0.470613, -0.214945, 0.407183, -0.796075, 0.214818, 1.63111, 0.249904, 0.683899, 0.986391, 0.668898, -0.842003, -0.011212, -0.496649, 2.189207, -0.844815, -0.105227, 2.622618, -0.85889, 1.243589, 1.778145, -1.810865, 0.343854, 0.630722, 0.488981, 0.236525, -0.054192, 0.682749, -0.456151, 1.650305, -0.577564, 0.072388, -0.230925, 1.833645, -0.550295, 0.897101, -0.025163, 1.043251, -0.563145, -1.093251, 0.700089, -3.133869, -1.579361, -0.294645, 0.022955, -0.507156, -0.944572, 0.437437, -1.61451, 0.413277, -0.840027, 0.631169, 0.906658, -2.569368, 0.671718, 0.869506, 0.395199, 1.766373, -0.682987, 0.67243, -0.20197, -1.415494, 0.594069, -1.656774, -1.052972, -1.331435, 0.576472, 0.475062, 0.974444, -0.686222, -0.034588, -0.096216, -0.099586, 1.864002, 0.816682, -0.256268, -0.244948, 0.381106, -0.380776, -2.230668, -1.220028, 0.046758, 0.051666, -1.02277, -0.753638, -0.358238, 0.850775, -0.424986, 1.311819, -0.088833, -1.116629, 0.866867, -1.651584, 2.566106, 1.089141, 0.092454, 0.869542, -1.701364, -0.721513, 1.122815, 0.352907, -0.803683, -0.301941, -0.54848, -1.245367, 0.313487, 0.731327, 0.094471, -0.835934, -1.247277, -0.321584, -1.113285, 1.518053, 0.299576, -0.323489, -0.130461, -1.11592, 0.792658, -2.345381, -0.12702, 1.373621, -0.46076, -0.193104, 2.181322, 0.230962, -0.349937, -0.141432, 1.43877, 0.248534, 0.001615, -1.170511, -0.686329, -0.70044, -0.453067, -0.328927, -0.796668, 0.162073, -1.036701, -0.391926, 1.008237, -0.383622, 1.010764, 1.12313, 0.985589, 0.377247, -0.030974, -0.948488, 0.969251, 0.239743, 0.773658, 0.457372, 0.398105, 0.469536, 0.179304, 0.654179, 0.393419, 0.209497, -0.024022, 1.576476, -0.112623, -0.235253, 0.450477, 0.04677, -1.01244, -0.369805, 0.786546, -1.568531, -0.872805, 0.751875, 0.646029, -0.247397, -0.514016, -2.273847, -0.008829, 0.38842, 0.193048, -0.58919, 1.543228, -2.137079, -1.05284, -0.970521, 1.390411, 0.565745, -1.009465, 0.518105, 1.230177, 0.40902, -0.423077, 1.273228, -1.23922, -1.633454, 0.336652, 0.45524, 0.801731, -0.325933, 1.003301, -0.64629, -0.189393, -1.143088, 1.768961, -0.452637, -0.716785, 0.304702, 0.187613, -3.017052, -0.296618, -1.975102, -0.966589, 0.237719, 0.242903, 1.295321, -0.398615, 0.828762, -2.351767, 0.274616, -0.983258, 1.606146, 1.925235, -1.104632, 0.755789, 1.880203, 0.166465, -1.238094, 0.477095, -0.219509, -0.087982, -2.243991, 2.066828, -0.110318, 0.356999, 0.439483, 0.360797, -0.841645, 0.042906, -0.329377, 0.882898, 0.884845, 1.522933, 0.628102, -0.245741, 0.609151, 0.468425, -0.039156, 1.662403, 0.272138, 0.013757, -0.689735, 0.400152, 0.53738, -1.526768, 2.718848, 0.434584, 1.21157, -0.547297, -0.900695, -1.748328, -1.930161, -1.450138, -0.274406, 0.525137, -0.143547, -2.790262, -0.744667, -1.742289, 0.833905, 0.594566, -0.380698, -1.674708, -0.760073, -1.263472, -0.751254, -1.420059, 0.051652, 1.055814, 0.850841, -1.357491, -1.920453, -0.399209, -1.290358, 0.154922, 0.39372, -0.700028, -0.091779, 0.589858, 1.282889, 0.588613, -0.459665, 1.374648, 0.893906, 0.875583, -0.4613, 2.105333, 0.076265, 1.064951, 1.223479, 1.125721, -0.847878, -0.201137, -0.092201, -0.554881, -1.257836, 0.281806, -1.312472, -0.072466, -0.643517, 2.010387, -0.252395, 0.900822, 0.930713, 0.154468, 0.344025, -1.518043, -0.418397, 0.738258, 3.780872, 0.633364, 0.378102, 0.630908, -0.478929, -0.738473, -2.060764, 1.175287, 1.608949, 0.788119, -0.673748, -1.131849, -2.104596, -0.528232, 1.690603, 2.196736, -1.669901, -1.169895, -0.116896, 2.243287, -0.442751, -0.708913, -0.453489, -0.368556, -0.900073, -0.98665, -1.333224, -0.26661, 0.334143, -1.042589, 0.496243, -0.151438, -1.375108, -1.130763, 0.918134, -1.255017, 1.17322, 1.663401, 1.05547, -1.85667, 1.621787, -0.68, 0.895956, 0.40337, 0.962476, -0.644666, 0.674603, -0.571383, 0.212116, -2.354978, 0.614983, 0.971862, 0.998153, -2.324103, 0.612449, 1.91779, 0.532175, 0.097302, -1.073923, -0.247497, 0.061813, -1.977995, -0.353324, 1.012927, 1.624372, -0.320557, 1.682491, -2.360884, 1.259796, 0.420266, -0.073103, -1.02923, -0.431077, -0.40902, 1.010658, -0.124866, -1.208305, -0.997536, -0.39164, 0.942141, -1.73816, -0.087612, -0.29486, -0.502032, 0.234871, 1.011796, -0.643725, 0.903824, -0.468825, 0.495284, -0.080899, 1.596198, -0.97045, -2.103815, 0.927988, -0.764319, 0.34392, -0.260635, 0.591816, -0.105504, -1.492808, 0.620937, 1.15305, 0.350389, -0.403664, 2.543909, -0.527994, 0.643609, 0.275305, 1.754973, 1.511285, 0.349326, 1.721072, -1.627546, -1.727371, -0.458243, -0.18575, 0.776583, 0.116948, -0.762599, 0.426327, 1.12977, 0.644595, 0.335164, 0.089409, -0.131802, -1.528866, -1.699274, -0.029037, 0.596997, 0.45958, -0.845169, 0.919355, -0.182112, 0.11019, 0.329955, 1.654086, 1.983797, -0.397779, -1.464478, -1.776282, -0.701233, 1.16731, 0.363958, 0.999195, -0.056147, -1.1384, 0.330955, -0.429842, -0.405531, -0.082762, 0.096984, -1.407874, 0.658278, 1.999209, 1.992422, 0.376445, 1.301944, 1.85952, 0.253248, 1.930166, -0.393886, 0.972926, 0.947455, -0.648, -0.82241, -0.453101, -1.019708, -1.20438, 0.607242, 0.073752, -1.589325, -0.291197, 0.760016, 1.58744, -0.109534, -0.920598, 0.873476, -1.180203, 0.403116, 0.27992, 1.579985, 0.25802, -0.993517, -1.410436, 1.908103, 0.468844, 0.879001, 2.818136, -0.18291, -0.859668, -2.345386, -0.220375, 2.31537, 1.360657, -0.468014, 0.405422, 0.166148, 0.635482, 0.105939, 0.275865, 0.212794, 0.747409, 0.660038, 0.255347, -0.867505, 0.586861, 1.617907, 0.854562, 2.778456, 0.799215, -0.549902, 0.121681, -0.31255, 0.031852, 0.547643, 0.13592, 0.712013, -0.031323, 0.035002, -0.427305, -1.128043, 0.798726, -0.866681, 0.479459, -0.590084, 1.902352, 0.417151, -0.220958, 1.205024, 0.158865, -0.457733, 1.339969, 0.113612, 0.748398, -0.433348, -0.853218, -0.151146, -0.324793, 0.807327, -0.423278, -0.67811, -0.507263, -0.361646, 0.397219, -0.273646, -1.943179, -0.237318, 0.496311, 0.172783, 1.560848, -0.479321, 1.3549, 1.057815, -0.156932, 1.066537, 0.388766, 0.248966, -0.724323, 0.709428, 1.062077, 0.745555, -0.974092, 0.819108, 0.91662, -0.105032, 0.472296, -0.430305, 1.289449, -0.274579, 1.013177, 1.358898, -0.138942, -0.024889, -1.154399, 0.645381, 0.95339, 0.479868, -0.204589, -0.086028, -0.959539, 0.073427, -0.467272, 2.15265, -0.618064, 0.259249, -0.318631, -0.913319, 0.428074, -0.338419, 0.357637, 0.904116, 1.079693, -0.454942, 1.027761, 0.863785, 0.600963, -0.165936, 0.944268, -0.134773, 0.566104, 0.558493, 0.851728, 0.48476, -0.477678, -0.912905, -0.301295, -0.830994, -0.190954, 0.657915, 0.913002, -0.493731, 1.276794, -0.513888, 0.582598, -0.255158, 1.818663, 1.509411, -1.050893, 0.799459, -1.758758, -1.710122, 0.415578, -0.310475, 1.004314, 1.297242, 0.298513, -0.425875, 0.015834, 0.537181, 0.185024, 1.196173, 0.619525, -0.536221, 1.224214, -0.919327, 0.366565, -0.066593, 1.44502, -0.281871, 0.214715, 0.707637, 2.349439, 0.142665, -1.295605, 1.476658, 0.450834, 0.450926, -1.126267, 0.091917, -0.148604, -0.012286, -0.010902, -0.035634, 0.5322, -0.30635, 0.633407, -0.823801, -0.24054, -0.073111, 1.558883, 0.312836, -0.188529, -0.673987, 0.189068, -0.164053, 0.987205, -0.072391, 0.302749, 0.488312, 1.176327, -0.627792, -0.301414, 0.016102, 0.028993, -0.718299, -1.101013, -1.182073, -0.219027, 1.053118, 0.760061, 0.88497, -0.214741, 0.060946, 0.625529, -0.916372, 0.962383, -0.096205, 0.709809, 0.527122, -0.346852, 0.239396, -1.557752, 0.465581, 0.738847, -0.328552, 0.779617, -0.527494, 1.074124, 1.375743, 0.642663, 0.070353, 0.420617, 1.638665, 0.159437, 0.818686, -0.37857, 0.256197, -0.296786, 0.983905, -0.269434, 1.702623, 2.361632, -0.012074, 1.458757, -0.814979, -0.154107, -0.24505, 0.643723, -2.632003, 1.297191, 0.990429, 0.354873, 0.377911, 1.04769, 0.327582, -0.6599, -0.650057, 0.135981, -0.136322, -0.326019, 0.887845, -1.166165, 0.238025, 0.064275, 1.18225, -0.002751, 0.421838, 0.698749, -0.356994, -0.241516, 0.685209, 0.529657, 0.709462, 0.730604, 0.443668, -0.609955, 1.571529, 1.663023, -1.421917, 1.119005, -0.024921, 2.744969, 1.84096, -0.530137, -0.824073, 1.725451, 0.042083, 0.39952, 0.654908, 0.205786, -0.688164, 1.346405, 0.252961, 0.277619, 0.165559, 0.850928, 1.027127, 0.51996, 0.472635, 0.910739, -0.127045, 0.665283, -0.232268, -0.309688, 2.381525, -0.518355, -0.995743, -0.068246, -0.051042, -0.686182, -1.10159, -2.044948, -0.942302, 0.087464, -0.368529, 1.120695, -0.023313, -0.976748, -0.660331, -0.675664, -0.473741, -0.499235, 0.541338, 1.215436, 0.525895, 0.990608, 0.454271, 0.896129, -0.476817, 1.102732, 0.909016, 0.583767, 0.822971, 0.894837, -1.779682, 1.164706, -1.487742, 0.247193, 0.706993, -0.806873, 0.790298, -0.221994, -0.024077, 0.268748, -1.599843, -1.034398, 1.285961, 0.470656, 1.207038, 1.199436, 0.211407, -0.210646, 0.103991, 0.41703, 0.631597, -0.485768, 0.748037, 1.162637, -0.05879, -0.702804, 1.281918, -0.562376, 0.45559, -0.405985, 0.999119, 0.294136, -0.119378, 1.855432, 0.053937, 1.349399, 0.065272, 0.253651, 1.251504, -0.428932, -0.907342, -0.742572, -0.938488, 1.429591, -0.801118, 2.368722, -0.340636, 1.108616, 0.656512, 0.542325, 1.035994, 0.625602, 1.088996, -0.021492, -0.434359, -0.081389, 0.676906, -1.145665, 0.694066, -0.588223, -0.161515, 0.481862, -0.090225, -1.388713, 0.264376, 0.290691, -0.568123, 1.171483, 1.059105, 0.034531, 0.484621, -0.817606, 0.67132, 0.284616, -1.36038, -0.421109, -0.186563, -0.129071, -1.116779, -0.179027, 0.274863, 1.465975, -0.119296, -0.520048, -0.513576, -1.139187, 2.188339, -0.483766, 0.708354, 0.514422, 0.13743, 0.327478, -0.304577, 0.494384, -0.067877, 0.677713, -0.654511, 0.078111, 0.391403, -0.04388, 0.476292, -0.084223, 0.160455, 0.137115, 1.022415, 0.175457, 0.031229, 0.400866, 1.17567, -0.072307, -0.20752, -0.021275, 1.53933, -0.580285, 0.532689, -0.76043, 0.807101, -0.30583, 1.766054, 0.941038, -0.349551, 1.250759, 2.502953, -0.082399, 1.687114, 0.845955, 0.003369, 0.317577, 0.491914, 0.283004, -0.264886, 1.82945, 1.576814, -0.104377, 0.961518, 1.072768, 0.635172, 0.868229, -0.759612, 1.127459, -0.670097, 0.755562, 0.302406, 0.813682, 1.519314, 0.152077, 0.795354, 0.028511, -1.443033, -2.219371, -0.019291, 0.163164, 2.425765, -0.01856, 0.057081, 1.454861, -0.877348, 1.044024, 0.4201, -0.243571, -1.584482, -0.419123, 0.392169, -0.126892, 0.57589, -0.379714, -0.073434, -0.585862, -0.734373, 0.644181, 0.722521, 0.907596, 0.37575, 0.173622, -0.444409, 0.840876, -0.532422, -0.146592, -0.238965, 0.727365, 1.784286, 0.399198, -0.958663, -0.253082, 1.068555, 0.499447, -0.428137, -0.381225, 1.106973, -0.782701, -0.146282, 0.537785, 0.017222, 0.033941, -0.850754, 1.08863, 0.237248, -0.755897, 0.963676, 0.399008, 0.948277, 0.108137, -0.80247, -0.204961, 1.129386, 1.388904, 0.369266, -0.033249, -0.244389, -0.154176, -0.567978, 0.750197, -0.257087, -0.157044, 0.900912, -0.444563, -0.426228, 1.519203, 1.017724, 0.25294, 0.628614, 0.474304, 0.811126, -0.659896, 2.122633, 0.800639, 1.089821, -1.1464, -0.302377, 0.596986, 0.008641, 0.428483, -1.628281, -0.0283, 0.229409, -0.263982, 0.718061, -0.32394, -0.401083, 0.407764, -0.386428, 0.060492, 0.230474, -0.139675, 0.034475, 0.312889, -0.608106, 0.572403, -0.923206, -1.71012, 0.497152, 0.117804, 0.44258, 0.966835, 0.558993, 0.275115, 0.547272, -0.537, -0.582088, 1.070176, -1.111066, -0.516752, -0.407891, 1.127612, 0.525978, -0.058956, -0.085821, -0.443738, 0.955609, -0.333687, 0.84713, 0.852016, -0.245536, 0.035887, 0.057462, 0.153286, 0.046663, 1.251145, 1.479841, -0.24027, 0.810338, 0.146558, 0.18139, 0.800326, 1.367847, 0.393537, 0.600246, -0.891173, 1.194217, -0.08122, 0.839251, -1.350813, 0.070058, -0.921212, 0.04044, -0.430151, 1.006499, 0.126517, 1.412337, 0.367303, -0.164542, 0.621247, -0.361045, -0.905851, 1.285475, 0.98062, -0.641764, -0.265056, 1.28863, 0.829369, 1.796854, 1.590002, -0.79852, 0.283316, -1.00671, -0.299314, 0.782641, 1.736605, 0.212671, -0.35188, -0.046086, 0.516081, 0.115201, -1.224205, 0.574186, 0.409402, 1.401776, -0.664171, -0.156038, 0.759513, -0.783748, 0.529897, 1.00949, 0.46996, 0.24984, -0.283274, 0.069654, -0.444217, 0.498988, -0.049692, -0.633413, 0.585947, -0.293475, -0.478412, 0.373895, 0.339992, 0.441455, 0.48492, 0.303524, 0.887631, 0.619109, -0.119042, 0.687796, -0.838213, 1.283038, -0.015589, 0.52945, 0.510092, 0.635338, 0.27173, 0.555181, 0.601034, -1.056608, 0.895708, -0.017182, 1.921922, -0.017345, 0.683095, -0.758396, 0.726053, 0.464841, 0.466753, 0.447807, -0.20297, -0.31164, -0.462526, 0.691565, -0.208663, -0.856654, 0.103851, 1.391918, 0.693567, -0.413204, 0.412895, 0.660505, 0.221806, 0.007261, -1.722063, 0.110957, 0.646818, 1.435889, -0.018557, -0.890948, 2.076449, -1.037242, -0.082289, 0.727857, 0.523594, 0.435077, 1.508977, 0.395482, 0.319207, 0.124782, 0.226293, 0.111288, 0.54021, 0.228513, -0.025608, 0.272146, -0.230476, 0.376205, -0.003265, 0.234957, 0.702292, 1.166098, -0.978326, -0.482001, 0.557385, -0.003514, -0.517337, -0.285347, 0.244025, 1.683061, -0.341266, 0.414627, -0.977824, -1.541203, 0.536927, 0.446713, -0.179356, 0.186334, 0.369485, 0.961376, -0.955539, -1.129121, 0.318999, 1.556611, -0.300407, 0.279203, 0.799161, 0.535018, -0.335785, -0.407229, -0.087494, 1.96101, 0.405038, -0.514449, -0.431819, -0.511075, 0.116258, 0.314871, 0.777199, 0.223346, -0.013923, -0.210823, -0.696748, -0.931069, 0.837369, -1.152928, 0.24687, 0.482312, 0.256096, -0.234361, 0.314181, -0.970352, 0.894385, 1.301447, 0.950966, 0.04341, -0.443255, 0.653926, 1.105806, -0.315295, 0.170669, 0.43325, 1.273597, 0.369146, -0.141852, 1.035571, 0.503977, -0.991165, 0.561045, 2.423042, 1.091622, 0.408653, 1.390945, 0.281043, -0.87111, 0.666677, 0.410604, -1.187276, 0.732678, 0.157671, 0.026043, -0.277034, 1.504215, 1.887353, 0.681708, 1.209344, 0.708483, 0.947233, 0.159684, 0.840917, 0.349988, 1.128576, 2.198405, 0.322493, -1.243079, 1.345187, 1.691584, 0.425129, 1.421796, 0.084367, -1.141704, 0.165931, 0.077713, 0.673704, 0.15444, 0.220571, -0.295642, 0.601098, -0.30353, -0.773753, 0.52772, -0.454394, 0.252967, -0.195419, -0.239651, -0.107002, 0.899125, 0.283545, 0.448127, 0.136438, -0.273496, -0.819367, 0.349873, 0.129899, 1.62868, -0.171555, 1.499077, -0.22381, 0.015223, 0.274329, 0.285813, 1.230673, 0.84134, 0.617254, 1.833555, 1.869486, 0.506835, 0.873322, 0.057545, 0.414624, -1.789826, 0.099605, -1.001633, 1.556421, 0.539829, -0.598219, 0.142924, 0.328794, -0.570473, 0.839361, -0.69656, 1.360156, -1.245907, 1.440841, 2.039328, 0.043968, -1.072848, 0.294833, 0.098449, 0.501471, 0.433234, 0.661543, 1.86166, -1.026042, 0.48426, 0.322241, 0.096815, -1.146449, 0.695161, -0.121623, -0.802588, -0.961782, -1.801369, -1.490511, 2.317196, 0.24782, 0.400723, 0.606135, 0.762592, 2.392217, 0.820207, 1.81604, -0.700392, 1.011529, -1.33065, -0.432669, -0.142643, 0.464339, 0.677803, 0.616157, 1.053918, -0.275062, -0.401814, -0.311285, 0.590731, 1.228562, 0.270544, 0.2291, 0.262403, -0.899579, 0.628373, 0.231276, 0.149374, -0.946744, -1.319147, 0.976728, 0.787463, -0.336199, 0.4302, -0.271598, -0.458474, 0.447653, -0.186302, 0.598731, 0.268226, -0.648522, 0.572607, 1.203053, 0.668615, -0.323413, 1.599274, 0.750784, 0.195786, 1.204788, -1.002616, -0.511864, -0.27863, 1.015451, -0.429007, -0.786426, -0.895482, -0.609611, -0.088072, -1.413767, -0.89601, 0.598146, 0.347263, -0.437267, 0.039289, 1.126202, -0.343175, 0.846137, 0.023734, 1.675471, 0.237772, -0.090994, 0.157296, -0.190117, -1.322537, -0.754191, -0.669629, -1.140276, -0.043624, -0.413051, 0.192166, 0.440242, -0.710174, 0.170776, 0.264871, -0.292742, 1.20156, 1.375975, -0.00971, 1.991921, 1.325744, 1.58019, 1.11483, -1.037597, 0.459821, 0.823811, -1.056966, 1.645463, -0.651107, -0.913992, -0.409692, -0.392615, 0.800521, -1.131595, 0.662037, 0.848384, 0.169652, 0.506138, 0.893721, -0.059685, 0.270997, -0.262315, -0.12425, -0.010631, 0.273443, 0.550144, -0.023466, 0.556732, -1.399141, -0.318641, 1.200039, -0.542999, -0.16572, 0.776559, -0.438576, 0.713466, 1.237964, -0.927924, 1.23641, 1.319169, 0.861488, 0.106851, -0.104202, -1.253351, -0.125871, 0.041116, -0.39261, -0.3573, -1.198429, -0.441327, -1.507179, 0.252217, -0.256822, 2.222115, 0.688221, 1.266237, -0.033279, 0.760953, 0.408794, -0.452201, -0.070329, 1.906231, -0.6607, 0.702214, 0.293227, -0.563236, 0.28455, 0.016208, 0.25895, 0.199952, -0.289605, -0.756609, 0.640685, -1.320532, 0.690658, 0.46069, -2.083263, -1.116077, 0.271946, 1.811079, 0.144945, 0.295078, -0.094917, -0.366531, 0.019463, -0.587273, -0.328675, -1.359738, -0.59434, -0.847428, -0.07652, 0.223749, 0.198244, -0.376875, 0.14934, 0.472777, -0.376098, 0.931415, 0.846603, -0.01365, 0.473063, 0.089307, 0.258487, 0.452747, -0.165867, 0.334755, 0.478355, -0.593308, 0.144144, 1.439376, 0.145621, 0.378783, -0.287601, 1.193072, -0.034437, 0.207806, 0.359247, -0.05796, -0.11202, 0.323023, -0.83001, -0.052055, -0.535503, 1.994697, 0.457123, 1.702502, -1.074963, 0.437196, -0.683217, -1.096221, 0.270363, -0.495348, 0.822402, -0.207967, -0.133421, 0.502644, 0.361498, -0.711267, -0.084269, 0.264186, 0.410095, 0.794248, 1.57531, 0.112, 0.150752, 0.593294, -0.33298, -0.05963, -0.047624, -1.545057, 1.687084, 0.280519, 0.012901, -0.127017, -0.746659, 0.048025, -0.40717, -0.779383, 1.053316, 0.14907, -0.107105, -0.939884, 0.448072, 0.344289, 0.458338, -0.817055, 1.390406, 0.963632, -0.007725, 0.791848, -0.364655, -2.105534, -0.062448, -0.259154, 1.29845, -0.759996, 1.157665, -0.239609, -0.431839, 0.93186, 0.442578, 1.192177, 1.047111, 1.072807, 0.012877, 1.083768, -1.117062, 0.913245, 1.473169, 0.419642, 0.458954, 1.356411, -0.420804, -1.311801, 0.149639, 1.362973, -1.52586, 1.406407, -0.611538, 0.238829, -1.073652, 0.327618, -0.365523, 0.696844, -0.439958, -0.325071, -0.9423, 0.393669, 0.013294, -0.429285, 0.299331, -0.548631, 0.310907, -0.104402, 0.146484, -0.825301, -0.311837, -0.52956, 0.399821, -0.9147, -1.073858, 0.232743, 0.324983, 0.504759, 0.742892, -0.183168, -0.107454, -0.670105, 0.145179, -1.60635, 0.220057, 0.861136, 0.023722, 2.815927, 1.525585, -1.279915, 0.587206, 0.563422, 0.032839, -1.089624, 0.331679, -0.983565, 0.395539, -0.013733, 0.492521, 0.843863, 0.39231, 0.159861, -0.064731, -0.358802, -0.137686, 1.741403, 0.161075, 0.320893, 0.807322, 1.792205, -0.067616, 0.017644, 0.062113, 0.308235, 1.165716, -1.378706, 0.289297, 0.4659, 0.516869, 0.109256, -0.811181, 0.568254, 0.379776, 0.850241, -0.253896, -0.041068, -0.820421, -0.013419, 1.070626, -0.128951, -0.408782, -0.768521, -0.57938, -0.278798, 0.99161, 0.196837, -0.266573, 0.444745, 0.749825, 0.964422, 0.414586, 0.593599, 0.698192, -0.339902, -0.029529, -0.584199, 0.302918, -0.982264, -0.470639, -0.901433, 0.761566, 1.453945, 0.240789, -0.36083, 0.360753, -0.531635, 0.903343, -0.108719, 0.0109, 1.592708, -0.74274, 0.562077, 1.251359, 0.677019, 0.032252, 0.252536, -0.229723, 0.166992, 1.09381, 0.651964, 2.021868, -0.82506, -1.064126, 0.450154, 0.247962, 0.037213, 0.194266, 0.230723, -1.479466, -0.757764, 1.470309, 0.356896, 0.860685, -0.630668, -0.927087, 1.20297, -1.092234, 0.656675, 0.620778, 1.379391, -0.50497, 0.194827, 1.685241, 1.471655, 0.66184, -0.256694, 0.599725, 2.126576, 0.220827, 0.92492, 1.122752, -1.57536, 0.024579, 0.901553, 0.177999, -0.835786, 1.013725, 0.515798, 0.426041, -0.667259, 1.125167, -1.698208, 0.97843, -0.60261, 0.913594, 0.487882, 0.45533, 0.616639, 0.710875, 0.473978, 1.065122, 0.33537, -1.049248, -0.380328, 0.356448, -0.226489, 0.382216, 0.309251, 0.782146, 0.295198, -0.668826, 1.222521, -0.499721, 0.314352, 1.98095, 0.691368, -0.269407, 0.85576, -0.043827, 1.326923, -0.709204, -0.440885, -0.357217, 0.25941, 0.827559, 0.857942, 0.340775, -0.274877, 0.31405, -0.596662, -0.973299, 1.292594, 1.173459, 1.340964, 1.38893, -0.029629, 1.54996, 0.259654, -0.426526, 0.579691, -0.345163, 0.953139, -0.556938, -0.544477, 0.780975, 0.247821, -0.085566, 0.623656, -0.927265, -0.864518, -0.102016, 0.225928, 0.360771, 0.531794, -0.360587, -1.394749, 0.899826, -0.912751, 0.346462, 1.94148, 1.693834, 2.406358, 0.788253, 0.782585, -0.032464, -0.623352, -0.585316, 1.835142, -0.265119, 0.211609, 0.620082, 0.396306, 0.571715, 0.10736, 0.39035, 0.596602, 0.30736, 0.525166, -0.398794, 0.43414, 0.296789, 0.547713, -0.047912, -0.880782, 1.008714, 0.203323, -1.389226, 1.093299, 0.784135, 0.661538, 1.166432, 0.218251, -0.052807, 0.730436, -1.568759, 0.015637, -0.599959, -0.728644, 0.483806, 1.611317, 0.676221, -0.114814, 0.644617, 0.506221, -0.423518, 1.551598, 0.629537, 0.184945, 0.627495, -0.380171, 1.331934, -0.754714, 0.69596, -0.562135, 0.468022, -0.77431, -0.43833, -0.125185, 1.078202, -1.58675, 0.336617, -0.34458, 0.981838, -0.001906, 0.681939, 1.26537, 0.278417, 0.473626, -0.826743, 0.881851, -1.479293, 0.435038, 0.005215, 0.480765, 1.015887, 0.599872, 0.464497, 0.457291, -1.091256, 0.193372, -0.675807, 0.828226, 0.416917, 1.351195, -1.874121, -1.072319, 1.115924, -0.056964, -0.295906, -0.063118, 0.204632, -0.183407, -0.068821, 0.239521, -1.144935, -1.321989, -0.114871, 1.398004, -2.373486, -2.855218, -0.196826, 0.929287, -0.195321, 0.498239, 0.238117, 0.35914, 0.228392, 1.336479, 0.424754, -0.753445, -0.010805, 1.36453, -0.905042, 0.786699, 1.010188, 0.990863, -0.822779, -0.671681, -0.302439, 1.069167, -0.207514, 0.317606, 0.499865, -0.396747, 1.339443, 0.95542, 0.669987, 2.190264, 0.059525, 0.067325, 1.675827, 0.000706, 0.971662, 0.072326, 0.278017, 0.272171, 0.149733, 1.363778, -0.796921, 0.981077, 1.082658, 0.58543, -1.893768, -0.30542, -0.577189, -0.82895, 0.813796, 0.688696, 0.252139, 0.738798, -0.152739, 0.998878, -0.630103, -2.803674, 1.308566, -1.147738, 0.220033, 0.778135, 0.320734, -1.07162, 1.580601, 1.240141, 0.973699, 0.637565, 1.752035, 0.363668, -0.041944, 1.333628, -1.089352, -0.349746, 0.393814, -0.589554, 0.028069, 0.991107, -1.53884, 0.639402, -1.082203, -0.375261, 0.791649, 1.53085, -0.635567, 1.162783, 0.262636, 0.574519, 0.019676, 0.198116, -0.593436, -1.126638, 0.823062, 0.165681, 0.017196, 0.299702, 2.05247, -1.983978, 0.10561, 0.078617, 1.490367, 0.417774, -0.549066, 0.394132, -1.786484, 1.417917, 0.149002, 0.803251, 0.208541, 0.919504, -0.854997, 1.68843, -0.042957, 0.082138, -0.690624, 2.088282, -1.62685, -1.527221, 1.131076, 0.122412, 1.144973, 0.275996, -0.244958, 0.410273, 0.556023, -0.307747, 1.709698, -0.072102, 0.255727, 0.490645, -0.028521, 0.53984, 1.425673, -0.446835, -0.020288, 0.494839, -0.702409, -0.851349, -0.305191, 2.592152, -0.95601, 0.362385, 0.058921, 0.401644, 1.287697, -0.419597, -0.198811, 0.230274, -0.070619, -0.834144, 0.06768, -0.199632, 1.181403, -1.409886, 0.444954, -0.754135, -0.009932, 1.446173, -0.284321, 0.792492, 0.779298, -0.243527, 1.133132, 0.247864, 1.364628, 0.774903, 0.333793, 1.497514, -0.073049, 1.083034, 0.677509, -0.864986, 0.62266, -0.101396, 0.273395, 0.564178, -1.150461, 0.645607, -0.158364, -0.241603, 0.009537, 0.605792, 0.300079, -0.169421, 1.674483, -0.643707, 0.565867, -0.90482, 2.340482, 1.000981, 1.60607, -0.458937, 1.097501, -0.413261, 0.994118, 2.894035, -0.424426, 0.746955, -0.172734, 1.585912, 1.927631, -0.067436, -0.427485, -0.091603, -0.39072, 0.467158, 0.077123, 0.08646, 0.110209, 0.204708, -0.382671, 0.497842, 0.318682, 1.613038, 0.379869, 0.794512, 1.716136, 0.480967, 0.58837, -0.655532, -0.797821, -0.546438, -0.193428, 0.713499, 0.195813, -0.396082, 0.460906, 0.355445, 0.505065, 0.00576, 1.685615, -0.718178, -0.567467, 0.603548, 1.023347, 1.007951, 0.908895, -0.971101, -0.073774, 0.026303, 0.47116, -0.722456, 0.952424, 0.544378, -0.744138, 0.655124, -0.035636, -0.090456, 1.399437, 2.020779, -2.961299, -0.456411, 0.089513, -0.403178, -0.226423, -1.525332, 0.360261, 1.041394, 0.375131, -0.632387, 0.309452, 0.029838, -0.503544, 1.031111, 1.720231, 0.207817, -0.463193, -0.024234, 0.63715, 0.658668, 0.669504, 1.559131, 0.379857, -0.136931, 0.226466, 1.379354, 0.110324, -0.251532, 0.902826, 1.321593, -0.541708, -2.133952, 0.071519, -2.247761, 0.763884, -0.973883, 0.61555, -0.559313, 0.435597, 0.576017, 0.41576, 0.178248, 0.61327, 0.014916, -0.368518, 0.330549, -0.079388, 0.190115, 0.238137, -0.151759, 1.20443, -0.827417, 0.514501, 0.973471, -1.148291, -0.16611, 1.422392, 0.447108, -0.700924, 0.615199, -0.991543, -0.250777, -0.198065, -0.598026, 0.91363, -1.147466, 0.15789, 0.993533, 0.795281, 0.794006, 0.002316, 0.736329, -1.37533, 1.870976, 0.498762, 0.77174, 0.542606, 0.861688, 0.130746, -0.230167, -0.52724, 0.672533, 0.241033, 0.307207, -0.533997, -0.388915, 0.197996, -0.101124, -0.839799, -0.685802, 0.007027, -0.059965, 0.287089, -0.947652, 1.031839, 1.087556, 1.057134, -1.147302, 0.63911, 1.139802, 0.649845, 0.274398, -0.502435, 0.687243, 0.36754, -0.266338, 1.11064, -1.212995, 0.043029, 1.554071, 0.033494, 0.321242, 1.236281, 0.520944, 0.932025, 0.473969, -0.228946, 0.673344, 0.17985, -0.956114, 0.81769, -0.804899, -0.993577, 0.849188, -0.216218, 0.534946, 2.068971, 1.480082, -0.948304, 0.329381, 0.552455, 1.130124, 1.308221, -0.438282, 1.147536, -0.143326, -1.134729, 1.099922, 0.023363, -1.158403, -0.020547, 0.547378, 0.647605, 0.721501, -0.643984, 0.529113, 0.039218, 0.367011, -0.421796, 0.517413, -0.415532, -0.407158, -0.037398, 0.649942, 0.730924, -0.604696, 0.346509, -0.235541, 0.242791, -1.420247, 0.184417, -1.420149, 0.218926, 0.694621, -0.239325, 1.222224, 0.648816, -0.26423, -0.022835, 0.75622, 0.300522, 0.485134, -1.055354, 0.65308, 0.883451, 0.928978, 0.428577, -0.160622, 0.977156, 0.662495, -0.473127, 0.908474, -0.432806, -0.420072, 0.996399, 1.539427, 0.117609, 0.343758, 0.663575, -0.362351, 0.260943, 0.324814, -0.41822, -0.69962, 0.721141, -0.252483, 1.439808, 0.223778, 0.645364, -0.753853, -0.805793, 1.140974, -0.280015, 0.787951, -0.25605, 0.827752, -0.929226, 0.627664, 0.121416, 1.147928, -0.062516, -0.453997, -0.091597, 0.174361, -1.006193, -0.293517, 0.779832, 1.359693, 1.144465, -0.890746, 1.082865, 0.49912, -1.726574, 0.426231, 0.093336, -1.682459, 0.818379, -1.390193, -0.88991, -0.557073, 0.446205, 0.754998, 0.112626, 0.918183, 0.407099, 1.567913, 0.592774, -0.359447, -0.598551, 0.719245, 0.981271, 2.103043, 0.627768, 0.774804, -0.255802, -0.025201, 1.403209, 0.488034, 1.952576, -1.606434, -1.596206, 1.380777, -0.344979, 0.538945, -0.445721, -1.636762, 2.224052, -0.564863, 1.272798, 1.439592, -0.022257, -3.292947, 0.915751, -0.060493, 0.628726, 2.496358, 1.627256, -0.742441, 0.785349, 1.164397, 0.79185, 0.408894, 0.718092, -2.118985, 1.167175, 0.5012, 0.076585, -1.526655, -0.549689, -0.507266, 0.977653, 1.858349, 1.166949, 0.919572, -0.592935, -0.662821, -1.123924, 0.012255, 0.872867, -0.109205, 0.083473, 0.098789, 1.019028, 0.693616, -0.529556, -2.713368, 1.984059, 0.256251, -0.974036, -2.201484, -0.967318, 0.343205, 0.016863, 0.81387, -0.063292, 0.613528, 1.126257, 1.708454, 0.00147, 1.2068, 1.062255, 0.614891, 1.507393, 0.080649, -0.234636, -1.011886, 0.361257, 0.660243, 1.033871, -0.022334, -1.012084, 0.462919, 0.23765, -1.329524, -0.599361, -0.266434, 0.488396, 1.312039, -1.771762, 0.627601, -0.853338, 1.081572, -2.586421, 0.784015, 1.49564, -0.277831, 0.980295, 0.538011, -0.306459, 0.71253, 0.515478, 1.615153, 1.673111, -1.229843, -0.656992, 1.640642, 0.1026, 0.866476, 0.09186, 0.437421, -1.079793, -0.388506, 1.069501, -0.511381, 1.412996, 0.240786, -0.660196, 1.005991, 1.238768, -0.118336, 0.343316, 0.207188, -1.507135, 0.203015, -1.074496, 1.48783, 1.93994, 1.194736, 1.148067, 0.098244, -0.317029, 2.165175, 1.447249, -0.97737, 1.600563, 1.19689, -0.034916, 0.108494, -0.207861, 1.008422, 2.028174, 0.064458, 0.042342, -2.212777, -0.108521, -1.027759, 0.01192, -0.255735, 1.414786, -2.948743, 0.069824, -0.25142, 0.245318, 4.187417, 0.902965, 1.458537, 0.26829, -1.183998, -0.755487, 0.598095, 0.262086, -0.73931, 1.801638, -0.169253, 1.499782, -0.447655, -0.222248, -0.004439, 0.551571, 1.53001, 1.362389, 1.740263, -0.947489, -0.364608, -1.913962, -0.354807, -0.385332, 0.220158, -1.988354, 1.02029, -0.503884, 0.383257, 0.10975, 0.695293, 1.423183, -0.992537, 0.591135, -0.890013, 1.834074, 1.117233, -0.875514, 1.508675, 0.477782, 0.164407, 0.261797, 1.712695, 0.301105, 0.61486, 0.69075, -0.039069, 0.059862, 0.552106, -0.44992, 0.826251, 2.623129, 0.302056, 3.27447, -0.281994, -1.326221, -0.448348, -0.281606, -0.872421, 1.099347, -0.153872, 0.672176, 0.030187, -0.157604, 1.880764, 0.200814, 1.919217, -0.918723, 0.704822, 1.40157, -3.104697, 0.473022, -0.162325, -0.484669, 0.190795, -1.104934, 0.864505, -0.018691, -0.853355, 0.573132, -0.00955, -0.112577, 0.418414, 1.431407, 0.877432, 0.505545, 0.266712, 1.254516, -2.32326, -2.647902, 0.755185, 1.071923, 0.1241, -0.03588, -0.804264, 0.399829, 0.573675, -1.859394, -0.186941, 0.415854, -0.236566, 1.315871, 1.331979, 0.425492, -0.632706, 0.411788, -0.456357, 1.711286, -0.446381, -1.315653, 0.450069, -0.027767, 0.392793, 1.854113, 1.014408, -0.415056, 0.726762, 1.386392, -1.328442, 0.929843, -0.828912, 0.13483, 0.361802, -0.325844, -0.401143, -1.152742, 0.648047, -0.630092, 1.975569, -0.733254, -0.552343, 1.058401, 1.976711, 1.289351, -2.017417, -0.070426, -0.400988, 1.013932, -0.118326, -0.849806, -0.923531, 0.198891, -0.120801, 0.283949, -2.262022, 0.767634, -0.907487, 0.559768, 0.895904, 0.368884, 0.954631, 2.758112, -0.103786, 0.592018, 1.002163, -0.335524, -1.566369, 1.369452, 1.143889, 1.449108, 0.241827, 0.15747, -0.42449, 1.228635, 0.970166, -0.32817, -2.454337, 0.008012, 0.446097, 1.961758, -0.486729, 1.334596, -0.376803, 1.857958, -0.882595, -1.130606, 0.221709, -1.602444, -1.015779, -0.102989, -0.060025, 1.359126, 1.851666, 0.03866, -0.636677, -0.171387, 0.214405, 0.849689, -0.968063, -0.082615, 0.030871, -2.414071, 0.102364, 0.221933, 1.192729, -0.485446, 0.295546, 0.477708, 0.018392, -1.312068, 0.911389, 0.739472, 1.712433, -1.310985, -0.297974, -1.242964, -1.716134, -0.715962, 0.999393, 0.204975, -0.410451, 1.592342, -0.248492, 1.010684, -1.43182, 1.405687, -2.420235, 0.44212, -0.531299, 0.29492, -0.320238, 1.577202, 1.094804, -0.828699, -0.386987, 2.251787, 1.14853, -0.173426, 0.965629, 0.790691, -2.198661, -0.42001, -0.456247, 2.094505, 0.72345, 0.615881, 1.688955, -1.601232, 0.320253, 0.386267, 0.394594, 0.132264, -1.168263, -0.449475, 0.245932, 0.747629, 0.548986, -1.277462, 0.476866, 0.623336, -0.455836, 0.862247, 0.904303, 0.143639, 0.077472, -1.110206, 0.973821, 0.18705, -0.623249, -0.951478, 0.406311, 0.096443, -2.002924, 0.1558, 1.038587, 1.183231, 0.643004, 1.099697, -0.225536, -0.572643, -0.801099, 0.986731, 0.579726, 0.981941, -1.034117, 0.534713, 0.221901, 1.041072, -0.111584, 0.678948, -1.190578, -0.05356, 0.298676, -1.329863, 0.957069, 0.043455, 0.746583, 0.662786, -0.547816, 1.141621, 0.336862, 0.23687, -0.513954, -1.332755, -1.187734, 0.144198, 0.703698, 0.342868, 0.115128, -0.65548, 0.411032, -1.431807, -0.667396, 1.289902, 0.270711, -2.173723, 0.315348, -0.940125, -1.82485, 1.012456, 1.500071, -0.322136, 1.914141, -0.467593, -0.688819, 2.348903, -0.886926, 0.808244, 1.197082, 0.394577, -0.41274, 0.157537, 0.411998, -0.758582, 2.034824, 2.426526, 1.451901, 0.076134, 0.714115, -0.501909, -0.505348, 0.101383, -2.636146, -1.324701, -0.137612, 0.278605, 1.199368, -0.036324, 0.120616, -0.306017, -0.378508, -0.050952, 1.551278, 0.520225, -2.547107, 0.946591, -1.254253, -0.447493, 0.910387, 0.302806, 1.216269, -0.6501, 1.444845, -0.797485, 0.091158, 0.617296, -0.332544, -0.155893, -0.652191, 1.237326, 0.306798, 0.127215, 1.77825, -0.351989, -0.410997, 0.518482, -0.044331, 2.23144, -0.387829, -0.896192, -2.3325, 0.834666, 0.146038, -0.151434, 0.717042, -2.162772, -1.378083, 0.031084, -0.598032, -1.464995, -2.677252, 0.065573, -0.637575, 0.560071, 1.123441, 1.248473, 0.237632, 0.851602, 1.047323, -0.380013, 0.878363, -1.252522, -0.496681, -1.128999, 0.037132, 0.355928, -0.537496, -0.735041, -1.399257, -0.729694, -2.331044, -1.254345, -2.45575, 3.26164, 0.267591, -1.284984, 0.887072, 0.516964, 0.94718, 0.735578, 1.06993, 0.285071, 0.923241, 1.487522, -2.550637, -1.152179, 0.086232, -0.376422, 0.957994, -0.043688, -1.133113, 1.107386, 1.511877, 1.101627, 0.597144, -0.3573, 1.248492, 0.222112, 0.702969, -0.985485, 0.136639, -0.103846, 1.234775, 0.646878, -1.688704, 0.973867, -0.300955, 0.666491, -1.595379, 0.915717, -2.529301, -0.920298, -0.728166, -0.056256, -3.393813, 0.505555, 0.980133, -0.078108, 1.751997, -0.807682, 1.7706, -1.856107, -0.157147, 0.825015, 0.800972, 2.206386, -1.833541, 0.084124, 0.732538, 1.891522, -2.121246, 0.669785, -1.054747, 0.670117, 0.756551, 0.017253, 0.847063, -0.534231, -1.487954, 0.729359, 0.609134, 2.320497, 0.303861, 0.283777, -0.012936, 0.303423, -0.119431, 0.023161, -0.806644, 0.60832, -0.064738, -0.876524, 0.09647, -1.854213, 1.568053, -1.124666, 0.007362, 1.898738, -0.320351, 0.78337, 1.503994, -1.284078, -0.173749, 0.743442, 0.362641, 0.591473, 2.201123, 0.232442, -0.549852, 0.733324, -1.849279, 0.563926, -0.873999, -0.365848, -2.22658, 1.540418, -1.680405, 2.435474, -2.03502, 1.401164, 0.789203, -0.877545, 1.645502, -2.083408, 0.646635, 0.659321, -0.53745, 2.524426, -0.04765, 1.376938, 0.982286, -0.65932, -0.430529, -0.933466, -0.555762, 0.63697, -1.656747, 0.553999, 0.444437, 1.268122, 0.381794, 0.410084, 0.219929, -0.322045, 1.705325, 1.332458, 0.034845, -0.099208, 0.87627, -1.8079, 0.871612, 0.289106, -0.31436, 1.679732, -0.232012, 0.117374, -0.299535, -0.793177, 1.045309, 2.047059, 2.419206, 0.63951, -0.003268, -1.040767, -1.430009, 2.896053, 0.105002, 0.328322, -0.357378, -0.178699, 0.576107, 1.213886, -0.259429, 1.2612, 0.892404, 1.735793, -1.131162, -3.140162, -1.030292, 0.159786, -0.047588, 2.484325, -1.445112, 0.707691, 0.950664, 0.785538, 1.927762, -1.006094, 2.56408, 1.019735, 1.00254, 1.675698, -0.107572, -1.454073, -2.699842, -0.490197, 0.49425, 0.858913, -1.91656, 0.241963, -1.322163, -0.140463, 0.917465, 0.121784, 0.310009, 0.659567, -0.498958, -0.972142, 3.32904, -1.793271, 0.849705, -0.247713, -1.057759, -1.598134, 1.361957, -0.242391, -0.620183, -0.270816, -0.440135, -0.173681, -0.240273, 0.606695, 1.219113, 0.585244, 2.283712, 1.409582, 0.739154, 2.192302, 0.860458, -0.642568, 0.999428, 0.983282, 0.534813, 1.266448, 1.266257, 1.025293, -0.153084, -0.951522, 0.154304, 1.17499, 0.811937, -0.152492, -0.466484, -1.285748, -1.33606, 1.463627, -2.592098, -0.120034, 0.371013, -2.012393, 0.139688, 0.092244, -1.409973, 0.34413, 1.791695, -1.004588, 0.955836, -0.954299, -0.237964, -0.781346, -0.564355, 0.021861, -1.114955, 0.220753, -1.174834, 0.219842, 0.280569, -0.103169, -1.504677, 2.034769, 1.149076, -0.665907, 1.080554, 1.328254, -0.711243, 0.003395, 0.468317, -1.980073, 1.081551, 1.342692, -0.884927, 0.504462, 1.075752, -2.559807, -0.055649, -0.119434, 1.366737, 1.804549, 1.83068, 1.695034, -0.385018, 0.086197, 0.378145, 0.153149, 1.237839, -3.019339, -0.812594, -3.580118, -0.072785, -1.238312, -0.885336, 1.675996, -1.443378, 1.797458, 0.873459, -1.33142, -0.953623, 0.656333, -1.108775, -1.296775, -2.540751, 0.995158, -0.836445, 0.934797, 1.092237, 0.4738, 1.801531, -2.413103, 0.394466, 0.691702, 0.022434, 1.643182, -0.503228, 1.286955, 2.155827, 0.504973, -2.694216, 0.506935, -1.055328, 1.642184, 0.925857, 1.873882, -0.9841, 1.73039, 0.408247, -0.626036, 1.481061, 1.039243, 0.346253, 0.595869, -0.292764, -0.940538, -1.587458, 0.645632, -0.401823, 0.930043, -0.016634, 1.073648, -2.591254, -0.719517, 0.671136, -0.458903, 0.315062, 0.799771, 0.37302, 0.205941, -0.214357, 0.701365, 0.622418, -0.267996, 0.495383, -1.985569, 1.048385, -0.951865, -0.400496, -0.970272, 0.172199, 2.692787, 0.653074, 0.135782, 0.114837, -0.492471, -1.572437, -0.921457, -1.235642, 0.528469, 1.042614, -0.716595, 2.635357, -1.064118, 0.238691, -2.617678, 0.725653, 0.587577, 0.129836, -0.57522, -1.231615, -0.774732, 0.402843, 1.420832, -1.643114, -0.376225, -0.33882, 1.386101, -0.633842, -1.59007, -0.209225, 1.083859, 1.206546, -1.862608, -1.005702, 0.706233, -0.466331, 1.310202, 1.297165, -1.264814, 0.196293, 1.938458, 0.957067, -0.828316, 0.791916, 2.047216, 1.268291, -0.345096, -0.137595, -1.023256, -0.822302, 1.681134, -1.373807, 1.042646, 0.500144, 0.22956, 0.493542, -0.995933, -1.588034, 2.206419, 3.435813, 1.558204, -0.951065, -0.196321, 1.968955, -1.788448, 1.593723, -0.712222, 0.678635, 0.713735, -0.668151, 0.684548, -0.764922, 0.722235, 0.388115, -1.471391, -2.086056, 0.232447, 1.652646, -0.722946, 0.787242, 0.510685, -1.953236, 2.000173, -0.466859, -0.648988, 2.007119, 0.979973, -1.747889, -2.621986, 0.838765, 0.343703, 0.522989, 1.728526, 1.245747, -0.46761, -1.156079, -0.501881, 0.80876, -0.247171, 0.242437, -0.264152, 0.731851, -0.637987, -2.068364, 1.273025, 0.233321, -1.510573, -0.7615, 0.795873, -0.667544, -0.557081, 0.494462, -2.367176, 2.248096, 0.871753, -0.011832, -0.134304, 1.137954, 0.498361, -1.398285, -2.990873, 1.76069, 0.082511, -1.944424, 0.452025, 0.1848, -2.057386, 1.176135, -0.342739, -0.510997, -0.433865, -1.07792, 1.449779, -0.592531, -0.454564, 0.518862, -1.196653, -0.157145, 1.968174, 0.455794, -1.017788, -0.732577, -1.034036, -0.708662, 0.946203, -1.402771, 1.221833, 0.392222, 0.435121, 0.283683, 0.24132, 0.702454, -0.130509, -1.09219, 0.378976, -1.19904, 0.403698, 0.329443, 1.030537, 0.840495, 0.200768, -0.972392, 1.149464, -0.742161, -0.573144, 1.11107, 0.498857, 1.400956, -1.203032, -0.611229, 0.120773, -1.057571, -0.589527, -0.067538, 1.949025, -1.687615, -0.607745, -0.94218, -1.760639, 1.800076, 0.31172, -1.214854, -0.322651, 0.054206, -1.346587, 1.593399, 1.083051, 0.962783, 0.913222, 1.073867, -1.256958, -1.555148, 1.501202, -0.034096, -1.263027, -1.064496, -0.641864, -0.99216, 1.031593, 0.962344, -3.729201, 0.269944, 0.071208, -0.347651, 0.582183, -0.143427, -1.283158, -0.400997, -0.157248, -1.320808, 0.747109, 0.81206, -0.101013, 0.426631, 0.738418, 0.106724, 0.117418, 0.017512, 0.850206, -0.261871, 0.71968, 1.227159, 1.723445, -0.30881, 1.211514, 0.293879, -0.647146, 0.605877, 1.896281, 0.739173, 0.231876, 0.343766, -1.03693, -0.354548, 0.500663, -0.701524, 0.045749, -1.358907, -0.637786, 1.447707, -0.273769, 1.519529, -1.170409, -0.44319, 0.124331, -1.180954, -2.327183, 1.037866, -0.736451, 0.581339, -0.277961, -1.672463, 0.000678, -2.570128, -1.06325, 0.096598, -0.580601, 0.574176, 1.782807, -0.904689, 1.177565, -0.852749, -1.153532, 1.722996, -0.145952, 1.165192, -0.329008, -0.718508, 0.35542, -0.192246, 0.214599, 0.232593, -1.323591, -0.900958, -1.289014, -0.787089, 0.251154, 1.480437, -0.06851, -0.148234, 1.205009, -0.284831, -0.111766, 0.096402, 1.399815, 0.715878, 0.501139, -1.442909, 0.583101, 0.49221, -0.263182, 0.360823, 1.260018, 2.638352, -0.256462, 0.006365, -1.391184, 1.180173, -0.343669, -0.29584, 0.291712, -0.214868, 0.36296, 0.603615, -0.162121, -1.184921, 0.873449, -0.495739, -1.3438, 1.245649, -1.093306, -1.059543, -0.931817, 1.540443, 0.783548, 0.131938, 0.757728, 0.613131, -0.041987, -0.221804, 0.528747, 0.475007, 0.161698, 0.321576, 0.1666, -1.199216, -0.799565, 1.542769, 0.593539, -0.618083, -0.824435, -0.595757, 0.030992, 1.003708, 1.697927, -1.917287, -0.199706, 0.056714, 0.050618, -2.075284, -0.365533, 0.201603, -0.150581, -0.760696, -0.22025, 1.637428, -0.230349, -0.812458, -0.849077, 1.153617, -0.38716, 0.231864, 0.610024, -1.166093, 2.597439, -1.013519, -1.915658, 1.067632, -0.179292, 3.400809, -1.517296, 1.308621, 1.479818, 0.347724, 0.151087, 0.022375, -0.758524, -1.437963, -1.08738, -0.508271, 0.092131, 0.356797, -0.348345, 0.293796, -0.766352, 0.273216, 0.860812, 1.07711, -1.56765, -0.086435, 0.475254, 0.11893, -0.462276, -0.451526, -0.489778, -1.357196, 0.251973, -0.408688, 0.273289, 1.744671, 0.380429, 0.982556, 0.139944, 0.445228, 0.105097, 1.131469, 0.310269, 0.972848, 0.181905, -1.21276, -0.581753, 2.601749, -0.684983, 0.433116, -0.120132, 0.55902, 0.231196, 1.117827, -2.299852, -0.669035, -1.017767, -1.915567, 0.685501, -0.364402, 0.780561, 0.084604, 1.484045, 0.364587, 1.576881, -0.364114, -0.211106, 0.428824, -0.301138, 0.899964, -1.253898, 0.103673, 1.207608, 0.431621, -0.64062, 2.370174, -1.1769, -0.474448, -0.37054, 0.845153, 0.406658, 2.305617, 1.017789, 0.004045, -0.418801, 0.511606, -0.690806, -0.162335, 0.884768, -1.059181, 0.897653, -0.647207, 0.721876, 1.007265, -0.547857, -0.10327, 1.138621, 0.482163, 0.740099, 0.378711, 0.822648, 0.445107, -1.11102, 1.348094, -0.834945, -0.250203, 0.698403, -0.581536, 1.121317, 0.502905, -1.439214, -0.916216, -1.543838, -0.08928, 1.085018, -0.539599, 2.604772, -0.8581, -2.36502, -0.026762, 0.888839, -0.632868, 1.891609, 1.161915, -0.682386, -0.248976, -0.37915, -1.162957, 1.047387, 1.573908, -2.442273, 2.212479, -1.445424, 1.484232, -1.054959, -0.421209, 0.172204, -1.599223, 1.638528, -0.399627, 0.609484, 1.480413, -1.191782, -0.691965, 1.174861, 0.399817, 0.186234, -0.340526, 0.324222, 0.308605, 1.543073, 1.630983, 0.647084, -0.100707, -0.141941, 0.185298, 0.708718, -0.946262, 0.098692, 0.855653, 0.485897, 2.532063, 1.072334, 1.98156, 2.106732, -0.585612, -2.031219, 1.052979, -0.098624, -1.171461, 0.635249, 1.224353, 0.346532, 1.918988, -0.507202, 0.456226, -0.323664, 1.205353, 0.239925, -0.781387, 2.279525, -1.863581, -0.372883, 0.798719, -0.163524, -1.429864, 1.382446, -0.443664, -0.675712, 0.156099, -0.730742, -1.936426, 1.352476, -0.935233, -0.501964, -0.182606, 1.318517, 0.154091, 0.490564, -0.112419, -0.491946, 0.903196, 1.17337, 2.195393, 0.74171, -0.069227, 1.200524, -0.572361, -0.50458, 0.066136, -1.343484, 0.83982, -0.037272, 0.541161, -1.345183, 0.422587, -1.73157, 0.91471, -1.58643, 0.519933, 1.157502, 1.487399, 1.291777, 1.462575, 1.004164, 0.452446, 0.272263, 0.192864, -0.454665, -1.313138, 2.368029, 0.324398, -0.107529, 0.21746, 0.306729, -0.340305, 0.843411, -1.179039, -0.500204, -1.831262, -1.716529, -1.447955, 0.305859, -1.079909, 0.123073, 1.081911, 0.282645, -0.256225, -0.816141, -0.623187, 0.37095, 1.071036, -0.422951, -1.43584, -0.205043, 0.603574, 0.075355, -0.28068, 0.397248, 1.899756, 0.275665, 1.432979, -2.163775, 0.59329, -1.15532, 0.177765, 0.787474, 0.004083, -0.973085, 0.159356, -1.156745, -0.562296, -1.169755, 1.226754, 1.189865, -1.858235, 1.161033, -0.179539, -1.053941, 0.308158, -2.265671, 1.138442, -0.643874, -0.053548, 0.651758, -0.205677, 1.262024, -0.098189, 1.4483, -0.78124, -0.38662, -1.094733, 0.913599, 0.469468, 0.429883, -0.030002, 0.368881, -0.124911, 1.244347, 0.016223, 0.124585, -0.21285, -0.511011, -1.231004, -0.07515, -1.282949, -0.831377, 1.280664, -0.290968, -0.241544, -0.227387, -2.041383, 0.650533, -0.189705, -1.443378, -0.554785, 0.84557, 0.296411, 0.478909, 0.595725, -2.305794, -0.538325, -1.019956, -0.143682, 2.623945, 1.267856, -0.590144, 2.617839, -0.05829, -0.875251, 1.985946, 0.393372, -1.617303, 0.760047, 0.633413, 1.28537, -0.781886, 1.126998, -0.395102, 0.377583, 0.175346, 0.607227, -1.129803, 1.010388, -0.201859, 0.047121, -2.375694, 0.723867, 1.052377, 0.46756, -0.005953, -0.051853, -0.000314, 0.029223, 0.812141, -1.496398, -1.227053, 0.078219, 0.023314, -0.184162, -0.717414, 0.270894, 2.070624, 0.819473, -1.254851, 1.809244, -0.07825, -1.092041, 0.526815, -1.131747, -0.67111, -1.712812, 1.508925, -0.023064, -1.423557, 0.382254, 0.944882, -0.106441, 1.825397, 0.696411, 0.115511, -1.99087, -1.85442, -1.91869, 1.704685, -0.759507, -0.913972, -0.171889, -0.045732, 1.491479, 0.075081, -0.732721, 0.788267, 0.691911, 0.65926, -0.540224, 0.316481, 0.471814, -0.409599, 0.016234, 0.258663, -0.328142, 0.611735, -0.702244, -0.502824, -1.608756, -0.653634, -0.858383, 1.584243, 1.072322, -1.786553, -2.239313, 1.202892, -0.71658, -0.877264, 0.548937, 0.703551, 0.314686, -1.219304, -0.001095, -0.127042, -0.678509, -1.549229, 0.873279, 0.093398, 1.371553, -0.017919, -2.147106, 0.289307, 1.54551, 0.153029, 0.673961, 0.375112, -0.822292, -0.208607, 0.378303, 1.092544, -0.361533, -1.472585, 0.849695, -0.898556, -2.223147, 1.69185, 0.751269, -0.643474, -1.444815, 0.614537, -2.303598, -0.024444, -1.360036, 1.246278, 0.326518, -0.125513, 0.429707, 0.685984, 0.05522, 0.305928, 0.541839, 0.23082, -1.830706, -0.475119, -0.629242, -0.812852, -0.175507, -3.432245, -0.226369, 0.091773, -0.250157, -0.467759, -0.438474, 0.556658, -0.441092, 0.865236, -0.841963, 0.378579, -1.082003, 0.152623, 0.204352, -1.87756, -0.419287, 1.642363, 0.141813, -0.693846, -0.904492, -0.180573, 0.70066, 0.277784, 0.331428, 0.94301, -2.522305, -0.623939, -0.140634, 0.351447, 1.523639, 0.398025, 0.588711, -1.24249, -1.417729, 0.811704, 1.150557, 1.924674, 1.69882, 1.133728, 2.047274, 0.681367, 0.153244, 0.829899, -0.713758, 1.706939, 2.155625, 1.998704, -0.697246, -2.418663, 0.462311, 0.62658, 0.783973, -0.323475, 1.256172, 0.589634, 0.447731, 0.094841, 1.610074, 0.476853, -0.475125, -1.320396, -0.237986, -0.820191, 1.049988, 0.606756, 0.044034, 1.184058, 1.287039, -1.040239, 0.788522, -0.329695, -1.001712, -0.281771, 1.418483, 1.264388, 0.672128, 0.316515, -0.041747, -0.014238, -0.112482, 0.362313, 1.537761, 0.792417, 0.165566, 0.65207, 0.016892, 0.877187, 0.822836, -0.387855, 0.799554, 1.886864, -0.784911, 1.149911, -1.062874, -0.768007, 0.873844, 0.082033, -0.532314, 0.4076, 1.027639, -0.02261, -1.225746, 0.597504, 0.320654, 0.002101, -1.374273, 0.760147, -0.335586, -0.634543, 0.954786, -2.889988, -0.051283, 0.669721, -0.91892, 0.931664, 2.198833, 0.871867, -0.484269, -1.207816, 1.52474, -1.154791, 1.463546, 0.755286, -0.276902, 0.415186, 0.06977, -0.062257, 0.12722, 0.054347, 1.406138, 0.610309, 0.506383, 0.549898, 0.377645, -0.568347, 0.059674, -0.722135, -1.599326, -0.769743, -0.651701, -0.749907, 0.872979, -0.76265, -1.397119, 0.69517, 0.960154, -1.582224, 0.317153, -1.574629, -1.678293, -1.165178, -0.883868, 0.339792, 0.847481, -1.235153, 1.027821, 1.027997, 0.708793, 1.355746, -1.331743, 0.704202, -0.353104, -0.291878, 0.301788, -1.495876, 1.544993, -2.355159, -0.677089, -0.18061, -1.213756, -0.088385, 0.406564, -0.072197, 0.018969, 1.012548, -1.433564, -0.579658, -1.422354, -1.041811, 0.324305, 1.819942, -0.662462, -1.016657, -0.950598, -1.244814, -0.289934, 0.654115, 0.668595, -1.85029, -2.846862, 0.581634, 1.358995, -0.310821, 0.367678, 0.776408, -0.351187, -2.320979, 1.59734, 1.204971, -1.652396, 1.009539, 0.322243, 0.098289, 0.444903, 0.273632, -0.83754, -1.189238, -1.081778, -1.235579, 0.616261, -2.629386, -0.283902, 1.024699, 0.90533, -1.921513, -0.785414, 1.127847, 1.001063, -0.182327, 0.430728, -0.845938, 1.303736, -0.619991, -0.212639, 0.727472, -0.316322, 0.948316, 1.81428, -0.504091, -0.635184, -0.283604, -0.49451, 1.405257, 2.036206, -0.550085, 0.428452, 1.137321, -0.967579, 0.208297, 0.637494, 0.254735, 0.74894, -1.436067, -0.184657, -0.327827, 2.060998, -0.182966, 0.672363, 0.174457, -0.153481, 1.4791, 1.217775, 0.440063, -0.1342, -2.002187, 0.632248, -0.323061, 2.07183, 0.596201, -0.418012, 0.11116, 1.135348, 0.927197, -0.519872, 0.847466, 0.982855, 1.778537, -0.698821, 0.935465, 2.222105, -1.026638, 0.547513, -0.819401, 0.140236, 0.035768, -0.729623, 1.719441, 1.0501, 1.186087, 1.144135, 0.317619, 0.366341, -0.227204, 1.676325, 0.06954, 2.109643, 0.034351, 0.520883, 1.292965, 0.59626, -1.156666, -0.269152, 0.734803, 0.655939, 0.855749, -2.042766, 0.449183, -0.778542, -0.363919, -0.941991, -1.867889, 0.840261, 0.857946, -0.705036, -0.104882, -0.517753, -0.082382, -0.618031, -0.583273, -0.850972, -0.759835, -0.788009, 1.667395, 0.446332, -0.427024, 0.504115, -0.628778, -0.990333, -1.646236, -2.321945, 0.317293, 0.0066, -0.06964, 1.075579, -1.32095, -0.914854, -0.287238, -0.856763, -0.426311, -0.638411, 0.189218, 0.309777, 0.233172, -1.409366, -0.245874, 0.673638, 2.410668, 0.678535, 0.789092, 0.281849, 2.580177, 0.955225, -0.891152, 0.151717, 1.292885, 0.715333, 0.554199, -0.561363, 0.410681, 0.075347, -1.390109, -1.931333, 0.879677, -1.361565, 0.177505, -0.343181, -1.9315, -0.942875, 0.931525, -0.055055, 0.722609, -1.527051, -0.424311, -2.250984, -2.446068, 2.091893, 0.915249, 0.163683, -0.571663, 0.503803, 0.586764, -2.76673, 0.632122, -0.253919, 0.868835, 0.487124, 0.058748, -1.375777, 0.442394, 2.007956, 0.371656, 2.171003, 0.528684, 1.809738, -1.464754, 0.436547, -0.587196, 0.009582, -0.864024, 0.404498, 0.477661, 0.803019, -1.184959, 1.2814, 0.466854, 0.309513, 1.124784, -1.116877, -0.733029, 1.390206, -0.279617, -0.819523, 0.76293, 0.853526, -1.080546, -0.047073, 0.94091, 1.381415, 1.338208, 0.154469, 0.607743, 0.037197, -2.568189, -0.294242, -0.315873, 2.036572, -0.005471, 0.470293, 1.984429, -0.382769, -0.769819, 1.186281, 0.984986, 0.074968, -0.521728, -1.010145, 1.059963, 1.479569, -0.132441, 1.503102, -0.206521, -0.302593, -0.017168, -0.873072, -0.221034, 1.229384, 1.724334, -0.538065, 1.362391, -0.19777, -0.906446, 0.032628, -1.727893, 1.073627, 0.141584, 1.105144, -0.656721, -5.338967, -0.037192, 1.297522, 0.116235, -0.216256, -0.824363, -0.274025, -0.853633, 1.824722, 1.433153, -0.299636, 0.575066, -1.086734, 0.016385, 0.732873, -3.244115, -0.618957, 2.587043, -1.436897, 1.341096, 1.11601, -0.952027, 1.113385, 0.611143, -0.353545, 1.497228, 0.840599, 0.436302, -0.143335, -0.139381, 0.313515, -1.299288, 0.095518, -0.57874, 2.11843, 2.184905, -0.618585, -0.667122, 0.591903, -0.558023, -0.656626, 0.095135, -1.219133, -0.754761, 0.601678, -1.693043, 0.71782, 0.372201, -2.495596, -0.552709, -0.982005, -0.660684, -0.837108, 0.319158, -0.717653, -0.198009, -1.760447, -0.624503, 0.9153, 0.788359, 2.450513, 0.572267, -0.244085, 0.941995, -0.122073, 0.411379, 0.782767, 0.447084, -1.463636, -0.113969, -0.975621, -0.270773, -0.262997, 1.450167, -1.021811, -0.370828, -4.298827, 1.461058, -0.007767, -0.947999, -0.544308, -0.886667, 1.700428, 0.380063, 1.862814, -1.811256, 0.904426, -1.015042, 1.008842, -1.753456, 0.865333, 0.569474, 0.048319, -0.51953, -0.034111, 0.175523, 0.665849, -0.016269, -0.42556, 0.650997, 0.220164, -1.276087, -0.335677, 1.172559, 0.601637, -0.189709, -2.016973, -0.95449, 0.222144, -0.187018, 0.327174, 0.153244, -3.041116, 0.725053, -0.858722, -0.298006, -1.00359, 1.298362, 0.199243, 0.499157, 1.458612, -1.873523, 0.577299, -0.687521, -0.313538, 1.786088, 1.056789, 0.787846, 0.068534, 0.29388, 0.074075, 0.36886, -1.517345, 0.587298, 1.001896, 1.279871, 0.034093, 2.875874, -0.670278, -3.210583, 0.596727, 0.361686, 1.537497, -2.172158, -0.01886, -1.707189, 1.843982, 2.152519, 0.060541, -1.889216, 0.296558, -0.946978, -0.344761, -1.407649, 0.458441, 1.221784, -0.012537, -0.373134, 1.203382, -0.44656, 0.606313, 3.051811, -1.100057, 1.301315, 0.995699, 1.379147, -0.97881, -1.12845, 0.726967, -0.213074, 0.683203, -0.732646, 0.911608, -1.279004, 1.807585, 2.051218, -1.04907, -0.085818, -0.312488, -0.830988, -0.50425, 1.62656, -1.5549, -0.385298, 2.288038, -0.718016, 0.005378, 1.481947, 1.978193, 0.271573, 1.746065, 0.984134, -2.097566, 0.194779, 0.730589, -0.540263, -0.65462, 1.101657, -0.153726, 2.04672, 2.340877, 2.946349, 1.139373, 0.223752, -2.960016, 0.79366, 0.080107, 0.400988, 1.263962, -0.868975, 2.353881, -0.232538, 0.353472, 0.20758, -0.238389, -0.824572, 0.805088, -1.081084, -0.739572, 0.707437, -2.140996, 0.842537, -0.172526, 0.014594, 0.893552, 1.148509, 1.609823, 0.702062, 0.119623, -0.134663, 1.118109, 0.511332, -0.542188, -0.157432, -1.295516, -1.223977, 1.328242, 1.238532, -0.501586, 0.162461, -2.43578, -1.376995, -0.755088, 0.354823, 0.428047, 0.041445, 0.295779, 0.853883, 0.548353, -0.781849, -0.319655, -0.952544, -0.840187, 2.202917, 0.775527, 1.005641, -0.485939, -0.469244, 0.014671, -0.584874, -2.523983, -0.412504, -1.025699, -0.755769, 1.643751, 1.083066, 0.346512, -0.164781, 0.760861, -0.28489, 1.093672, 0.739906, -1.707842, -1.302649, -0.207195, 1.490128, 1.056568, 0.553216, 0.862505, -0.758779, 0.119629, 0.587617, 0.586633, 0.56777, -0.10035, -0.473556, 0.823587, -0.822575, -2.403573, 0.882457, -0.031057, -1.06415, 0.3456, -1.516144, 1.284584, -1.82744, 0.995986, 0.283675, 0.141986, 0.329159, 1.36512, 0.853282, -0.017524, -0.368805, -0.77333, 0.38189, -0.277677, -0.073685, -0.835516, 0.878159, -2.494682, -0.122828, 1.256672, -1.951351, 0.334742, -0.56433, 0.890086, 1.751289, 0.394892, 0.203046, -0.609492, -0.735697, 1.554905, 0.366611, 0.062714, 0.375144, -1.10748, -2.731829, 0.851187, 0.729423, -0.467065, 1.869888, 2.632322, 0.279045, 1.572054, -0.043466, -1.084561, -2.342086, 0.040974, 0.236632, 1.619973, 0.025329, -0.052734, 1.569178, 0.919351, -0.097189, -2.399626, 1.100673, -3.554264, 0.706409, -0.440941, 0.371154, 0.208467, 1.866618, 1.03199, 0.947563, -0.167404, -0.112305, 1.736976, -1.23445, -0.061602, 1.10208, 2.551913, -0.851075, -2.515167, 2.300262, -0.10671, 0.397401, 0.83439, -0.331838, -0.15085, -0.934589, 0.339728, -1.714254, -1.303136, 0.526354, 0.297482, -1.711034, 1.382726, 1.544433, 1.056731, 0.443861, 0.44617, 1.307913, -2.943688, 0.684946, 2.111492, 0.799502, 0.249479, 0.363774, -1.48974, -0.729648, 0.348956, -0.242283, -0.240339, -0.992929, -3.044484, 0.920108, -0.690986, -0.282323, -0.271736, -0.738585, 0.392522, 0.500875, 0.368062, 0.46155, 0.735249, 0.417215, 0.368507, 1.080359, 1.095295, 1.049316, 0.562543, -0.675623, 0.734167, 0.247837, 1.258021, -0.506273, 0.353199, 1.321742, 0.461994, -3.987531, 0.140121, 0.228152, -0.125337, 0.644967, -1.466616, 0.813386, 0.264294, -0.328851, -0.703694, -0.292011, -2.349744, -1.432548, -0.316231, -1.183797, 1.880479, 0.974043, 0.106604, 1.0689, 2.429457, 0.395299, 0.456925, 0.982874, -0.510426, -0.156518, 1.032195, -1.232179, -2.19095, -0.303262, 1.526393, 0.615855, 0.087543, 0.229195, 0.693223, 0.326693, 0.56552, 0.023515, -0.480943, 1.074949, 0.884843, 1.508963, -0.05034, -0.276702, 0.125984, 0.853989, -0.077976, 0.272601, 0.806924, 1.014372, 1.078445, 0.430753, -0.431091, 1.809014, 0.196855, -0.429083, -0.362932, 0.661102, 1.150615, -0.380145, 0.312157, -1.025117, -0.323384, 0.027227, -1.272499, 0.476082, 0.419055, -1.08347, -0.011161, 0.989323, 0.060452, -0.869621, 0.205318, -1.90652, 2.6093, 0.085915, -1.614474, -0.873332, -0.533806, -0.483088, -0.507322, 0.893134, -0.817474, -0.56452, 0.959137, 0.773371, 0.640991, 0.879009, 0.198723, -2.086504, 0.826406, -0.110308, 1.549702, -0.430941, 0.067277, 1.198734, -2.391951, -0.63577, -0.808769, 2.116381, 1.234541, 0.575344, 0.382409, 0.937594, -3.085006, 0.399523, 0.037727, -0.606324, 0.482468, -0.724148, -0.389851, 0.630273, 1.345089, -0.336521, 0.475706, 0.42363, 0.61371, 0.478208, 0.234376, 0.474331, 0.654017, -1.863781, -0.45399, -0.385436, 1.318286, -0.833972, -0.037313, 1.129487, -0.67203, -0.526752, 0.74928, 2.870653, 0.189598, 1.315265, -3.094859, 0.956728, -0.84124, -0.823743, -0.664488, -1.852982, 0.317601, 0.359245, -1.870677, 0.180438, 0.191437, 1.205709, 1.31546, -0.62878, -0.855386, -0.85505, 1.48352, -0.744048, 0.227719, -1.092912, 0.395488, 0.26739, -1.58786, 0.31536, -0.745375, 0.45086, 0.659486, -0.708534, 1.177154, 1.338756, -0.053974, 1.026252, -0.26872, -1.351221, 1.711594, 0.177749, 0.298711, -1.79998, 0.04295, 1.317002, 1.186523, 0.390193, 1.727575, -0.760537, -1.218715, 0.680203, 0.712728, -1.705806, 0.792327, -0.40312, 0.353879, -0.069653, 0.067909, -0.464429, 0.855485, 1.110045, -0.700873, 0.305888, 0.213831, 1.958548, 2.212902, -2.222247, 1.291332, 1.270461, 0.086544, 0.883202, 1.774436, -1.002721, -0.319357, -0.744926, 1.374179, -0.504059, -0.517199, 0.821331, -0.208277, 0.026115, -1.761677, 0.886577, 0.941795, -0.122181, 0.583932, 0.457279, 0.10054, 0.168278, 0.638751, 0.153954, -0.738757, 0.110353, 1.50481, -0.078807, 0.309752, 0.686061, -0.627954, 1.76762, 0.124822, 0.753687, -0.572076, -1.683085, -2.402968, -0.008244, -0.28743, -1.874132, 0.456462, 0.135926, 3.460929, 0.126514, 1.369426, 1.834277, 1.292103, -0.140877, 1.003918, -0.952465, -0.011409, 1.50427, -1.00997, -0.03813, 0.40692, 0.994425, -0.896851, -0.617982, 0.119566, 0.850874, 1.154532, -0.717513, 1.330296, 1.366727, 0.627678, 1.722158, 0.742164, -0.759609, 0.173989, 1.002682, 0.512154, -0.430865, -0.479072, -0.304686, -0.235163, 0.298367, 0.166335, -0.325086, 1.408042, 1.077962, -0.328553, -0.915616, 0.558436, -2.322853, 1.107414, -0.34634, -0.760991, -0.605323, 1.236523, -0.125983, -0.457699, 0.009819, -0.412429, 0.89355, 0.26081, 0.539056, -0.898414, 1.038061, -0.659511, -0.959274, 1.118086, 1.320501, 0.700621, 0.753009, -0.368583, 0.222021, 1.868319, 1.044704, 1.829438, 0.658046, 0.395971, 0.032358, 2.369145, 1.944849, -0.694691, 0.644896, -0.717206, -0.047865, 0.5512, -0.82583, -0.238924, 0.07977, -0.23656, 0.340985, 0.820073, 1.442353, 0.629946, -1.363784, 1.052138, 1.030145, -1.603568, 1.168767, 1.474734, 0.975806, 0.831071, 0.806334, -0.415433, -0.457167, -0.272152, 0.327475, 1.569465, 0.504436, -2.566432, 0.316116, -1.032582, -0.397969, 0.701093, -0.698977, -0.050847, -0.283884, -1.237328, -0.220104, -0.16807, 0.065672, 0.248046, 0.653144, -0.711812, -0.621981, 0.11263, -0.41872, -1.014045, 1.65891, -0.654784, -0.859859, 0.388948, -0.75162, 1.639521, -0.920102, 0.069764, -2.348657, 0.224976, -0.007058, 1.178719, 0.038036, 0.842609, -0.21129, 0.377643, -0.300445, -1.472005, 0.631041, 0.616043, -1.073831, -0.350523, 0.115718, -0.385632, 1.483212, -1.225261, -0.017959, 0.038561, -0.155348, 0.374983, -0.439297, 0.750847, -0.34154, 0.72859, 0.008674, 0.140783, 0.754608, 0.182981, -0.998512, 0.253929, 0.006072, 1.078221, -0.373485, 1.628125, -0.800797, 0.70787, 0.373334, 0.410649, -0.71008, 1.181471, -1.150113, 0.686542, 0.712377, 0.807562, 0.227591, -0.381513, 1.226593, 1.377071, -0.386603, 0.519673, 0.26182, -0.355377, -0.526992, 1.685546, 0.684623, -0.22134, 1.094059, -1.443948, -0.398905, 1.796732, -1.598217, 2.186191, 0.657386, -0.319506, 1.120736, 0.156003, 1.561996, 0.048701, 0.374332, 0.079862, 0.693256, 0.501873, 1.689768, -0.276437, 1.756021, 0.768597, -0.545438, -0.438177, -0.381436, -0.41351, -0.502766, 0.711596, 0.067033, -0.52899, 0.385125, -1.165957, -1.261567, 0.674766, -0.656605, 0.52119, 1.532976, 0.135903, -0.685385, 1.00555, 1.699482, 1.965735, 1.001707, 1.547976, 1.391617, -0.943015, 0.1123, 1.486722, 0.081552, 1.332481, -0.718115, 0.577794, -0.097087, 1.755544, 1.682883, -1.133936, 0.59073, 1.338041, 2.243954, -0.336418, -1.033968, -0.765431, -0.836958, 0.862408, -1.056806, 1.297225, -0.092025, -0.669733, 1.426957, 0.238472, 0.939105, 0.397297, 0.391965, -0.125899, 1.932002, -0.338378, -1.408372, 0.711031, 0.906218, 0.338571, 1.424432, -0.346367, -0.254379, 1.515829, -0.263364, -0.646127, -0.475214, 0.171649, 0.667165, 0.047987, 1.386003, -0.676419, -1.134927, -0.141178, 1.625587, -0.364949, 1.46316, -0.461191, -0.249089, 0.130228, -0.423561, 0.342712, 0.789268, -1.372911, 1.180459, 0.421867, 0.329226, 1.087487, 1.227408, -0.011471, -0.874416, 0.573127, -0.852136, 0.119277, 0.415456, 0.014115, -2.77539, -0.322469, 0.544748, 0.227705, -0.250876, 0.449267, 0.196927, -0.44772, -0.537206, -0.366561, 0.855896, -0.897623, 0.299424, 0.390517, 0.027388, -0.045115, 0.166784, -0.677735, -0.358215, 0.316472, 0.195916, 0.30036, 0.324391, -0.127948, -0.892914, -0.339246, -0.165525, 0.689662, 1.151987, -1.512839, 1.072004, -0.815948, -0.030912, 0.164812, 0.279646, 1.205593, -0.822481, -0.03188, 0.316339, -0.218894, -0.773377, -0.735529, 1.418085, -0.002588, 0.581992, -0.580885, 2.642083, -1.365273, -0.639767, 1.318062, -0.643735, -0.494023, -1.208233, -0.065379, 1.106961, 1.131572, 0.812244, 0.256471, 1.608948, 0.055353, -0.752491, 1.624946, -0.179548, 0.579181, -0.361634, -0.337197, -0.770879, 1.002186, 0.559348, 1.071507, 1.006433, 0.261504, -1.323725, -0.279539, 1.674749, 0.98288, -0.289084, 0.199159, -0.116826, 1.734472, 0.515489, -0.278794, -0.198918, -0.47911, 0.470657, -0.693057, 1.079655, 1.545619, -0.401279, -0.049313, -0.177704, -0.539704, 0.397097, 0.055377, 0.758234, -0.105207, 0.953242, 0.147452, 0.393911, 1.461845, 0.013179, -0.727287, 3.413971, 1.247788, 1.299737, -1.087234, -1.998257, -0.162588, 0.01599, 0.350269, -1.115297, -0.662325, -0.246823, 0.231205, 1.165733, -0.250747, 0.539667, 0.48868, -0.802974, -0.390971, 0.075636, 0.190783, 0.547187, 1.121292, -0.47435, 0.690258, -0.131592, 0.658957, -0.926324, 0.422315, 1.579393, 0.813157, 1.828633, 0.946712, 0.517084, -0.422598, 0.097394, 0.539465, 0.188121, 1.207418, 0.584824, 0.327967, -1.005968, -0.203418, -1.218681, 0.695328, 0.252778, -0.037061, 0.687965, 0.370996, 0.933588, 0.403401, 0.795908, 0.616242, -0.992482, -0.463246, -1.160444, 0.250839, 1.650376, -0.121924, -0.574369, -0.31381, -0.322858, 0.09006, -0.628774, -1.116296, -0.172536, 0.310151, -1.149427, 1.288153, 1.178112, -0.868043, -0.028482, 0.101553, 0.286173, 0.451334, 0.426648, 0.717181, -0.023077, 0.484755, 0.019723, -0.043016, -0.878269, 0.527045, -0.272487, 0.181928, 0.746147, 0.485146, -0.881198, 0.148199, -0.325994, 1.305425, -0.56912, 0.246431, 1.047534, -0.124376, 0.004802, 0.021807, 0.283294, 1.118876, -0.245612, 1.265253, 0.423894, 1.205667, 1.647859, -0.332055, -0.739076, 0.295388, 0.453598, 1.65169, -0.250738, 1.602928, 0.596259, 1.534449, 1.698629, 2.282326, -0.68076, -0.102902, 0.148303, 0.56419, 2.188924, 0.046373, 1.093853, 0.806852, 2.065382, -0.088977, -0.074469, -0.368764, 2.202608, 0.704394, -0.132464, 0.454426, 1.613054, 1.666508, 0.319895, -0.152931, 0.708982, -0.278506, -0.457268, 0.758569, -0.339677, 1.039657, 2.021152, 0.940009, 0.934077, -0.062943, -0.537058, 0.370651, -0.536778, -0.536402, -0.790691, -0.215032, -0.042362, 0.323138, 0.241513, 0.316244, -0.41663, -0.365563, -1.465565, -0.92238, 1.101586, -0.484091, -0.208066, -0.785892, -1.696001, -0.631925, 1.223102, -0.351559, -0.244757, 1.728804, -3.052183, -1.613299, -1.315886, 0.424633, -0.550329, 0.512831, 0.081723, 0.701748, -0.10762, 0.109015, 0.306924, 0.123261, -0.183007, 0.830591, 0.594126, -0.263021, 0.942583, 0.128095, 0.452376, 0.409176, 0.339023, -0.731696, 0.315164, 0.733673, 0.329833, 0.415171, -1.517677, 0.293154, 0.556104, 0.474277, -0.223402, -0.504548, 0.282037, -0.152428, 0.168674, 0.031871, -0.308391, -0.307307, -1.691089, -0.529094, 0.283163, 1.18591, -0.599532, -0.630167, 1.169983, 1.158247, -0.244534, 0.639939, -0.318988, 0.367272, -0.877048, -0.734301, 1.41398, 0.21787, 0.541441, 0.946346, 0.649722, -0.736898, 0.914385, -0.354816, 0.263971, 1.124045, 0.635104, -0.479262, -0.121674, 0.532997, 0.317593, 1.528229, 0.003449, 0.541277, 0.328538, 0.108753, 1.45556, 0.00918, -0.857294, -0.060181, 0.868375, 0.526125, 1.042012, -0.288977, 1.289931, 0.173161, -0.006855, 1.486874, 0.052576, -0.268896, -0.491741, 0.77341, -0.64541, 0.42277, 0.424487, -0.537871, 0.947401, 0.279834, -0.886804, -0.766077, -1.155687, 0.928078, -0.071997, 1.373397, 0.01348, -0.892314, 0.538031, 0.213538, -0.865195, 0.129035, -0.194553, 0.058024, 0.867852, 1.148599, 0.331324, 1.668785, -1.382254, 0.390152, -1.527643, 1.042818, 0.577696, -0.388489, 0.444529, -0.21521, 0.559079, -0.767838, -0.812835, 0.18371, -0.028789, -0.848263, 0.936754, 0.193632, 1.274509, 0.415416, 0.251015, 1.476428, 0.000494, -0.244581, 0.594208, -0.376489, 0.275638, 1.012921, 0.766472, 0.891881, 1.815463, -0.339792, 0.180086, -1.274267, -1.11066, 0.435808, -0.886318, 0.587493, 0.331222, 0.386077, -0.8318, 0.285024, 1.596748, 1.371154, -1.201705, -1.701868, -0.40743, -0.365164, 0.830044, -0.852577, -0.347039, 0.060547, 0.208427, -0.007615, 0.667399, 1.388873, -0.83546, 1.343634, -0.356229, 1.270707, 1.052191, 0.265561, -0.445733, -1.208818, -0.16995, 0.511563, -1.195626, 1.030486, -2.071067, -0.039119, 1.421023, 2.946086, 0.612226, 0.145264, -0.12751, -0.477586, -0.462154, -0.287608, 0.215229, 0.097141, 1.522597, 0.396999, 0.251261, -0.141482, 0.820706, -0.422145, -0.247247, -1.217703, 0.97208, 1.296654, 0.489066, 0.074744, 1.041781, 1.14365, -0.239794, -0.339729, 1.344439, -2.122626, 0.017274, 1.114857, 1.219505, 1.048329, -0.385346, 0.976615, -0.804524, 0.470659, -0.242003, 1.378515, 0.879383, 2.548204, 0.299261, -1.006464, -0.159512, -0.29489, 0.278319, -2.103745, 0.017555, 0.830621, 0.299588, -0.736163, -0.323333, -0.010352, 0.179414, 0.243292, 0.754957, 0.319757, -0.27537, 0.4854, -0.390254, 0.312055, -0.472109, -0.300498, 0.417642, 0.077019, -0.59519, -1.410809, -0.63699, 0.859483, 1.699811, 0.0712, -0.898212, 0.485691, 1.688244, -0.499434, 1.091079, -0.122659, 0.329412, -0.977551, 0.845415, -1.134256, -1.349506, -0.254101, 0.638134, -0.222761, 0.608294, 0.780617, -0.246753, 0.069259, 0.395192, 0.17192, 1.250117, -1.398391, 1.516392, 1.216502, 1.393291, 0.585943, -0.624706, 0.636745, 0.255318, -0.875209, -0.458389, 0.148299, -0.075899, -1.048661, -0.312417, -0.2621, 0.557262, 0.336001, -1.010166, -0.440777, 0.111482, 0.755167, -0.181636, 1.631253, -0.404718, -1.214608, -0.430013, -0.126562, 0.674556, 0.265454, 0.763535, 0.356146, -0.302843, 0.453116, 0.047954, -0.24771, -0.457167, 0.620742, -0.397923, 0.383354, 0.001194, 0.461304, 0.473932, -1.031888, 0.137566, 0.125132, 0.098408, 0.10437, 0.163112, -0.659996, -0.180224, 0.396876, 0.07972, -0.563129, 0.249152, -0.621076, -0.907105, -0.189838, 0.353347, 0.342158, 0.501849, 0.696726, 1.360891, 1.020375, -0.032219, -0.666124, 1.251594, -0.833365, 1.576, -0.814562, -0.786379, 0.011547, 0.368899, 0.021262, -0.547263, 1.881343, -1.031607, -0.34469, 0.877909, -0.037714, -0.452599, -1.020308, -0.256335, 0.011119, 1.128474, 0.689684, 0.819393, 0.690572, -0.319388, 0.494918, 0.870871, 0.110111, -0.339035, 0.061574, 1.138351, 0.094032, -0.873546, 1.295781, 0.716408, 0.375124, -0.115028, 1.093902, 0.328873, -1.350065, 1.001676, 0.031499, 1.203342, 0.167896, -0.25624, 0.548467, -0.033767, 0.091652, -0.496823, -0.008634, 0.038681, -0.252509, 0.636174, -0.172967, -0.412753, 0.428727, 0.268776, -0.122193, 0.844002, 0.54087, -0.479443, 1.029997, -0.134662, 0.965737, 0.074809, 0.32259, 0.885264, 0.392612, -0.039531, -0.47041, 0.021943, -0.690006, 2.000591, -2.349519, -0.660689, 2.046463, 0.168488, -0.174758, -0.625619, 0.627748, -0.320135, -0.580408, 0.262878, -0.636179, 0.185944, -0.566492, -0.224751, 0.206448, -0.020077, 0.204996, 0.204983, -0.49041, 0.20547, 0.719708, 0.315289, 0.172345, -0.667259, 1.114343, -0.614443, 0.794862, 0.060932, -0.882135, 0.399187, -0.60754, 1.828072, 1.384045, 0.236361, 0.615578, -0.23742, 1.580693, -0.986436, 0.584356, 1.27848, 0.509736, 0.478216, -0.151331, -0.396155, -0.021563, -0.204359, 1.275863, -0.975963, -0.709852, -0.15178, 1.036124, -0.572586, 0.723702, -0.240462, 2.007265, 0.412147, -0.869991, 1.077553, 0.853966, -0.134993, -0.257665, 0.69069, -0.206885, -0.469674, -0.458512, -0.456815, 0.930797, 0.585298, 0.776526, 0.581005, 0.020415, 1.236541, 0.14561, -0.358121, 0.576956, 1.209353, 1.119173, -1.259058, 0.478978, 0.501357, -0.346804, -1.384915, 0.082796, -0.499514, -1.152477, 1.252353, 0.270692, -0.533459, 0.521471, -0.118482, -0.6439, -0.318168, 0.033429, -0.879512, 0.314525, 0.807551, 0.514897, 0.622475, 0.319722, 0.057933, -0.150764, 0.753011, 0.253494, -0.498977, 0.593694, -0.019329, -0.483441, 0.360675, 0.729266, 0.619948, 1.386979, 0.810825, 0.084545, 0.138661, 1.391189, 0.973998, 0.801651, -0.630179, 0.926957, 0.827, 0.502997, 2.445292, 1.014719, -0.347745, -0.175313, 0.390956, -0.756434, 1.401989, 0.252134, -0.146613, 1.418853, 1.201597, 0.577667, -0.197492, 0.507685, -0.421612, -0.034628, 0.241542, -0.773594, -0.811243, 0.93982, 1.485132, 0.186214, 0.92099, -0.143117, -0.345482, 0.808691, 0.308027, -0.939972, 2.192492, 0.69884, 0.447416, 0.007831, 0.000961, -0.686817, -1.161953, -0.233486, 0.413803, 0.345788, 0.073129, -0.103695, 0.489626, -0.489248, -0.576867, -0.547757, -0.284251, -0.112664, -0.943924, 0.863753, -1.392763, 0.775206, -0.125551, 1.320759, 0.890397, 0.311961, 0.082355, 1.298779, 0.075548, 0.818638, -0.023739, 0.722504, 1.104234, 0.125755, -0.03071, -0.229377, 0.932658, 0.774763, -0.315418, 0.223517, 0.443641, 0.262926, -0.208297, 0.461289, -0.473424, 0.817048, -1.112232, -0.522659, -0.233601, 0.585834, 1.223698, -0.569678, -0.498033, 0.04932, -0.316978, 1.003085, 0.288342, -0.402733, 0.606975, 0.11275, -1.188033, 0.563494, -0.524874, 0.967022, -0.428016, 0.788676, 0.083695, 0.51566, -0.491329, 0.800709, -1.699124, 0.334144, 0.19769, 0.300584, 0.403847, -1.07012, 0.286676, -0.816497, 0.250573, 0.676924, 1.11023, 0.883219, -0.106578, 0.588465, 1.645031, -0.167784, 0.502257, 1.379998, 0.148781, -0.936405, -1.355374, 0.347448, 0.449772, 0.119977, -0.647294, 0.416262, 1.35068, 0.677139, -0.114915, 0.340128, -0.55858, -0.326213, 0.630852, 0.306211, 0.47843, -0.483925, -0.437948, 0.195749, 0.045284, 0.315178, 2.395922, -0.445121, 2.058139, 1.202421, 2.289445, -1.158715, 0.77365, -0.752328, 0.3233, 0.990668, 0.231024, 0.482209, 0.199981, 0.507513, -0.098445, -0.076577, -0.617525, 0.14531, 0.168076, 0.037783, -0.030791, 0.708162, -0.581673, 1.323147, -0.669166, 1.268785, 0.264764, 0.977208, 0.309388, 2.410463, -0.290112, 0.29663, -0.053558, -0.345723, 0.058194, 0.574089, -0.40053, 0.221605, -0.881119, -1.341114, -0.060064, -1.723246, -0.501913, -0.685198, -0.098547, -0.282592, 0.842901, 0.213482, 1.636779, 0.667421, 0.760935, 0.088576, 1.143103, -0.635578, 0.230235, 0.166448, 0.478023, 0.243692, 0.207676, -0.451856, 0.429704, -0.453652, 2.553842, 0.888733, 0.937092, 1.585986, 0.458133, 0.291011, -0.352836, 0.00638, 0.865241, -0.26177, 0.526611, -0.104737, 0.644037, -0.142715, 0.558763, -0.23276, 1.529837, 0.866209, 0.512836, 1.267529, 0.266909, 0.094277, -0.367586, 0.003895, -0.102196, 1.130378, -0.182691, 0.356668, 0.168211, 1.659037, 0.1802, 0.532554, 0.602402, -0.802509, -0.015105, -0.569695, -0.027138, 1.122675, -0.479416, 0.262815, -0.118616, 0.537654, -1.688746, -0.66946, 0.168875, -0.112638, 0.134436, -0.18003, 1.010451, 0.727508, 0.391208, -0.014616, 2.56922, 1.136065, 1.157738, -0.906031, 0.42427, -0.587517, 0.839021, 0.02913, 0.870081, 0.502874, -0.79391, 0.894138, 1.444207, 0.494827, 0.434283, -0.281556, -0.202255, 0.091513, 1.714414, -0.581346, 0.436304, -0.083817, 0.60937, 2.317456, 1.037293, 0.305544, -0.613519, -0.109103, 0.690247, 0.602335, 0.101723, -0.534785, 1.479239, 0.09588, -0.790812, 1.335906, -0.933724, 0.796585, 0.660928, 0.205702, -0.356015, -1.610833, 0.90691, 1.217345, 2.006303, -0.737599, 0.638631, 0.563742, 0.633519, -0.04814, -0.523671, 1.801087, 0.48867, 0.02397, 1.639015, -0.85146, -0.151279, -0.157399, -0.915289, 0.61089, 1.654466, 0.306827, 0.131468, 1.191794, -0.066887, -0.915911, 0.685728, 0.266818, 0.568251, -1.048093, -0.044497, -1.343992, 0.036605, -0.437121, 0.166944, -0.143073, 0.929362, -0.744418, 0.94853, 0.000352, -0.141337, 0.508248, 0.19813, -0.990218, -0.183043, -0.312623, 1.266183, -1.243228, -2.017646, 0.90097, -0.370555, 0.053804, 0.660634, 1.768308, 0.331992, 0.754769, 0.012536, 1.257186, -0.796547, -0.480985, 0.765115, 0.544559, 1.645031, 0.61987, 0.09196, -0.318407, 0.420729, 0.256106, 0.355008, 0.027438, 0.677271, 0.367549, 0.218426, 1.585583, 0.148248, 0.560487, 0.080702, 1.310892, -0.223217, 0.006495, 0.360021, 1.287454, -1.072278, 0.399619, 0.341362, 0.261164, 0.734701, 1.541912, 0.220295, 0.60038, 0.022974, 0.379584, 0.122795, 0.005986, -0.14083, 1.293678, 0.039217, -0.400746, 0.905834, -0.476883, -0.248182, 1.01489, -0.579201, -0.057615, 0.174956, 1.033188, 0.853156, 0.170422, 1.341934, 0.221999, 1.355484, 0.837325, 1.01488, 1.156864, 0.00392, -0.119875, -0.616685, -0.08812, 0.936853, 0.601371, 0.834981, -0.501571, -0.957499, 0.682219, -0.687587, 0.89837, 1.267325, 0.99723, 0.565792, -0.374362, 0.908334, 1.589082, 0.147816, 0.46951, -0.127993, 0.430632, 0.118029, 0.039048, 0.395047, 2.003052, 0.145363, -0.823057, 1.756894, 0.174373, -0.00152, 1.214455, -0.816052, -1.255279, 0.290987, 1.584671, 2.728204, 1.515181, 0.718697, 1.994989, 0.339648, 0.253015, -0.293146, -0.788207, -0.649257, 1.42807, 1.137623, -0.580394, 1.319017, 0.56666, 1.398162, 0.564873, 0.416934, 0.592471, 0.113387, -0.553586, 0.616071, -0.749881, -0.759984, -0.272123, 0.359625, -0.643714, 1.285091, 0.847331, 0.411012, 0.536361, -0.065169, 1.305111, 0.913334, -0.628759, 0.960642, 0.649656, 0.42685, 1.456714, 0.985007, -0.035776, 0.731105, 0.810718, -1.191642, 0.024884, -0.098601, 0.481504, -0.207124, 0.827714, -1.247474, 1.158992, 0.764505, -0.963484, -0.329688, -0.132293, 0.475326, 1.974262, 0.905178, 0.080862, 0.874957, 1.36517, 0.498352, -0.471936, 0.272168, 0.016459, 1.505455, 1.240851, -0.916693, -1.121637, -0.111813, 0.686991, 1.088298, -0.354686, -1.807, 1.732005, -0.01474, 0.274397, 0.476888, -0.137252, 1.129262, 0.644862, -0.34433, 0.288974, 0.543964, -0.507782, 0.124713, 0.445162, -0.291109, -0.761892, -0.162726, 0.629319, 0.006699, 0.011728, 1.771978, -0.319676, 0.950488, 1.15026, 0.425923, 0.40494, -0.441844, 0.57032, -0.035548, 1.501442, 0.159638, 0.473328, -0.438355, 1.215405, 0.580947, 0.326663, -0.683326, -0.627643, 1.250872, -0.165946, -0.211196, -0.121106, -0.321457, 1.099228, -0.641224, 1.341203, -0.003969, 1.038822, 0.257481, 0.988584, 0.487021, 0.422312, 0.037064, -0.18526, 1.548606, 2.068132, 0.282888, 1.17012, 0.650995, -0.001202, -1.12469, 0.249697, 1.80436, 1.185518, -0.458095, 0.775043, 0.374408, -0.643134, 0.705862, 1.044835, 0.050921, 0.148393, 0.633703, -0.861713, 1.334557, 0.269674, 1.165387, -0.699715, 0.29562, -0.801951, -1.134664, 0.507834, 0.488659, -0.549508, 0.597119, -0.534519, 0.929378, 0.366009, 1.01805, 1.304582, 0.707517, 1.054543, 0.774544, 1.767334, -0.113046, 0.232322, 0.728176, 1.252267, -1.107423, 0.837018, 0.638829, -0.766837, 1.476601, -0.100799, -0.773211, -0.896041, 1.64636, -0.542713, 0.452324, -0.745157, 1.27597, 0.341996, 0.160496, 0.94431, 1.173461, 0.759067, -1.272313, 0.575129, 1.311351, 2.204739, 1.438383, -0.700328, 0.152895, 0.807492, 1.526527, 0.011659, 0.91752, 0.290173, -0.047409, 1.113632, 1.645787, -1.082387, -1.327592, 0.262317, 0.576349, -0.136182, 1.080185, 0.282225, 0.271585, -0.099578, 0.716801, -1.086223, 0.056061, -0.622378, 0.178885, -0.163057, 0.251512, -0.286932, 1.483485, 0.306044, 1.178094, -0.377015, -0.351008, 0.778356, 1.308907, 0.283333, -0.106233, 0.816131, -1.160574, -0.171467, -0.793695, -0.289301, 0.120107, -0.72917, 0.405695, 1.015738, 0.458701, -0.048054, 0.508667, -0.342695, 0.361134, 1.261927, 1.933754, -0.474494, -0.222597, 1.422559, -0.044382, -0.71636, 0.651971, -1.027962, 0.241432, 1.351058, 1.351164, 0.035593, -0.503628, 1.375201, 1.640665, 0.800734, -1.34947, -0.28982, -0.317461, 1.152699, 1.305436, 0.459418, 1.506781, -0.033665, -1.247877, -0.750996, -0.178156, 0.047548, 0.521147, 1.210513, 0.732489, -0.983151, 0.979802, 0.845052, -0.149511, -0.806601, 0.553131, 2.545909, 0.507302, -0.530954, -0.646122, 0.409242, 1.260587, -0.01287, -0.430861, -0.519208, -0.1726, -0.071514, -0.715599, 0.996145, 1.119657, -0.85637, -0.661307, -0.432396, 0.864778, -1.599306, -0.498198, 0.769999, -1.088037, 0.167293, -0.2191, 1.320146, 1.545638, -0.160987, 0.075448, -1.251265, -1.42917, -0.40557, -0.068418, -1.074099, -1.038971, -0.959992, 0.890827, -0.652479, -0.414173, 0.837594, 0.257647, -0.311577, 0.864907, 0.544665, 0.846487, 0.1435, 1.258499, 0.648867, -0.711659, 1.246411, 0.077762, -0.309685, -1.17541, -0.517899, 0.438874, 0.755395, 0.341997, -0.339857, -0.325265, 1.526627, -1.278528, -0.583303, 1.05679, 0.149238, 0.541534, 0.960103, 1.046304, -0.306659, 1.079511, 0.380733, 1.333097, -0.275669, 0.250545, -0.684144, 1.118923, 0.467196, -1.120793, 0.327665, -0.156985, 0.279486, 0.614774, -0.698806, -0.244295, -0.490332, -0.051036, -0.176175, -1.05338, -0.773049, 0.034119, 0.88525, 0.465178, 0.632789, 1.154391, -1.864553, 0.336307, 0.904966, 0.442521, 0.244327, 0.585941, -1.074376, -0.652596, -0.711343, -0.646854, 0.916376, 1.573836, 0.473528, 0.245572, 1.83557, 0.743235, 0.024266, 0.293369, -0.446874, 0.454255, 0.266557, 0.349436, -1.271744, -0.527442, 0.04501, 0.511058, 0.165553, 0.940412, 0.298889, -0.102803, 0.230908, -0.453402, -0.960482, -0.276123, -0.480271, 1.177337, 1.031671, 0.499788, 0.679593, -0.581399, -0.888312, 1.327671, -0.716955, 0.073776, 0.692016, 0.575983, -1.11613, -0.981678, 2.658688, 0.680094, 0.195368, 0.345621, 1.042884, 1.052415, -1.299801, 1.432897, -0.858404, 0.287086, -0.12219, 0.40304, 0.917103, 0.323974, 0.839412, 0.378456, -0.035362, 0.379416, -0.229998, -0.20135, -1.011686, -0.195558, -0.635876, -0.256785, 0.259718, 0.424916, 0.696976, -0.454169, 1.126626, 2.477902, 1.735417, -0.525686, 0.417138, 1.521746, 1.025494, -0.176826, 0.047453, 0.523389, -0.600006, 0.724027, -0.890632, 1.030008, 1.189575, 0.853383, -0.333945, -1.031051, 1.13966, -0.991299, -1.054605, -1.142904, 0.02425, 0.80797, 0.388856, -0.888631, -1.360767, 1.872786, 0.682986, 1.384861, 2.128413, -0.070485, -1.270701, 0.02369, -0.189135, -1.383945, 0.498066, 0.882938, -0.190557, -1.042982, -0.125669, 0.115193, 0.259937, 0.791575, 0.643407, -0.300198, 0.501411, -0.751686, 1.025564, -0.86305, 0.150901, 1.022756, 1.437026, 1.046469, 0.56917, -0.289573, -0.377431, 0.174165, -1.048588, 0.245486, 0.572165, 0.713297, 0.417447, -0.035273, -0.084074, -0.20174, 0.27105, 0.690173, 0.858148, 2.305172, -1.06484, -1.438042, 1.050648, -0.19423, 0.190779, 0.033698, 1.383506, 0.025425, -0.682729, 0.472265, -0.014636, -1.262602, 0.382728, 0.967487, 1.322295, -0.402231, -0.414956, 0.064678, 0.298845, -0.94393, 0.671785, -0.760572, -0.380927, -0.981647, 0.986789, 0.842853, -0.892886, 1.274701, 0.947857, -0.524553, -0.3343, 0.8704, 0.679286, -0.22346, 0.792987, 0.925879, 0.557437, 0.287498, 0.076967, 1.161317, 0.60036, -0.573392, 0.440199, -0.890159, 1.466567, 0.839581, 0.94472, 1.481003, 0.175686, 1.930706, 0.429159, -0.411501, 0.704404, -1.168225, 0.231747, -0.519641, 0.76466, 0.571778, -0.520371, 0.032612, 0.720988, 0.616893, 1.22216, 1.080059, 0.306693, -1.510087, 0.438086, -0.096742, -0.051936, 0.869536, -0.576638, 2.021298, 0.058458, 1.074638, 0.980522, 1.85061, 0.470055, 0.092821, 0.861363, 0.263748, -0.209128, -0.792334, 0.983564, 0.207333, -1.743323, -0.554342, -0.469474, -0.868901, -0.114255, 0.874783, -0.232597, 1.271365, 1.386563, 0.018553, 0.312146, -0.528274, 0.402844, -0.029449, 0.613259, 1.832147, 1.307053, 1.730661, 0.516359, 0.012556, -0.460674, 0.343248, -0.690472, -0.213458, 1.984983, -1.079197, -0.475065, -0.643876, 0.615837, -0.179687, 0.882726, -0.327175, -0.073034, 0.133881, 0.793632, -0.010057, 0.182538, 0.817856, 2.04497, 0.365863, 0.19142, 0.252127, 1.038354, 0.618092, 0.242187, -1.335005, 1.998845, 0.282421, 2.329664, -0.620481, 0.875719, 0.563735, -0.643419, -0.007036, -0.67984, 0.37697, -0.800514, 1.056645, 0.157098, 0.587367, 0.77047, -1.66905, -0.557291, -0.521718, -0.224158, 0.058106, -0.943978, 0.146472, 1.338521, -0.923628, 1.474726, -0.747159, -0.002338, 0.277372, 1.453567, -0.386576, 0.325766, 0.053517, -0.086893, -0.118367, 0.226199, 1.442106, 1.360011, -1.595864, 0.24652, -0.98869, -0.579804, 1.001466, 0.269576, 0.089002, 0.692155, 1.410067, 0.785235, 1.046592, 0.169509, 0.15244, -0.733038, -0.693396, 0.923088, 0.788359, 0.80584, -0.212185, 0.21807, 1.31249, 1.383804, -1.631848, 0.988623, 0.674718, 1.371391, -0.170759, 1.473775, 1.3155, 1.860607, -1.176937, 0.096577, 0.792781, -0.023477, 0.126353, 0.674228, 0.178734, 1.092626, 2.32379, 0.160362, 0.014693, -0.675448, -1.106668, 0.833079, -0.091196, 1.208977, 0.483084, -0.097697, 0.167186, 0.687756, -0.846072, 1.528751, -0.709117, 0.086704, 0.554035, 0.988912, -0.348978, -0.597125, 1.492831, 0.338326, -0.045885, -0.754126, -0.472049, 0.539201, 1.624636, 0.731757, -1.40535, -0.890892, -1.781714, -0.515508, 0.44536, 0.690357, 1.876079, 0.576487, 0.38584, -0.338557, 1.222448, 0.448361, -1.528661, 1.020913, -0.388871, 0.459675, 1.262328, 0.971096, 0.936438, -0.339202, 0.419548, -0.153253, -0.144531, -0.809797, -0.75248, 0.636085, 0.405095, -0.464992, 1.245461, -0.422939, -1.06865, -0.068784, 0.391193, 0.557607, 0.399253, -0.508001, 0.671021, -0.758512, -0.890008, 1.017775, 0.061545, -0.153796, -0.047635, -1.349231, 0.958698, 1.340643, -0.601147, 0.115865, 0.833746, -2.111991, 0.37698, -1.340107, -0.129994, 0.476039, 1.253705, -0.049702, -0.590127, -0.348482, -0.217224, -2.35095, 1.359368, -1.38262, 1.133193, -1.171382, -1.870621, -1.085402, -0.303495, -0.707667, -0.996903, 0.790148, -0.756845, -1.113585, 0.376305, 0.263731, 0.568911, 0.118788, -1.034871, 0.32061, -0.0081, 0.554485, 1.204933, -0.717768, -2.355427, -0.394496, -0.062245, 1.031977, 1.590347, -0.270264, -0.407495, -0.745871, -1.663017, -0.105194, -2.16405, 0.73014, 0.109583, 1.062755, -0.450801, 1.562105, -0.477397, 1.379889, 0.414383, -0.109585, -0.362114, 0.380151, 2.436072, -1.522644, -0.413232, -0.353107, -0.702365, 1.205886, -1.164912, -0.714924, 0.368268, 0.473813, -0.104004, 0.235889, 2.183144, -2.787398, -0.787164, -0.860967, -0.464063, 1.00473, 0.201483, -0.540333, 0.64111, 1.382936, -0.721072, -0.547995, 0.462637, 0.723261, -1.243812, -0.49707, 1.00407, 0.112314, 0.175221, -1.601161, -0.768832, 1.341158, 0.972509, 0.889875, 0.027134, -1.394959, 0.07529, -1.096644, 0.330147, 1.716907, 1.764037, 0.790197, 0.788608, -0.988149, -0.85255, -1.375857, -0.325015, 0.015945, -1.516727, -0.279641, 1.752372, -1.421986, -0.768781, -0.294064, 1.992155, -0.783301, -2.114461, -1.689, -0.532977, 0.556553, 0.656752, 0.895656, -1.381442, 1.174794, -0.327512, -0.595149, -1.275274, -1.184026, 1.580668, -0.311235, -0.835864, -0.668136, 0.773024, 0.433953, -0.349239, -0.100279, 0.111338, -2.630921, -0.828608, -0.373313, 0.000635, 1.349414, -1.38432, 0.367844, 0.134947, 1.109757, -1.0413, -2.070428, 2.24172, -0.233831, -0.103447, 0.707, 2.85644, 0.839338, 1.29813, -0.239831, 1.058533, 1.228056, -0.113865, 1.020785, -1.479076, -0.485128, -0.348284, -0.406852, -0.323043, 0.076542, 0.132209, 0.420025, 0.484831, -0.883174, -0.518206, -0.748305, -0.786492, 0.209319, 0.622467, -1.192699, -0.470587, 1.792466, -1.485219, -0.197578, -1.193857, 0.520762, 0.143815, 0.274727, 1.796916, 0.922152, -0.400718, -1.631484, 2.330916, 0.281089, -0.422413, -0.827821, 0.533132, 0.288524, -0.651734, -0.832148, -0.684352, 2.379447, 0.486801, -0.518154, -1.559246, 1.398271, -2.33007, 0.03882, -0.898229, 0.902547, -0.853678, -1.306411, -0.336802, 1.774758, 0.611416, 1.65475, 0.89482, -1.30168, 0.236543, 0.152565, 1.882308, 1.381765, 0.712449, 0.224008, -0.504973, -0.086825, -0.659187, -2.722173, 0.136789, -1.46457, 1.475965, 0.708596, 0.24725, 0.911469, -1.35063, 1.12726, -0.644402, 1.332925, 0.281545, 0.077338, -0.466747, -0.956566, 1.250866, -0.214595, 0.036518, -0.511966, 1.168377, -0.130505, -1.830108, -0.143755, 0.568477, 1.319907, -1.54164, 0.262823, 1.068364, 0.319995, 1.751174, 0.449915, -1.69632, 0.380216, 1.11638, -1.662886, -0.595919, 0.332172, -0.113614, 0.587133, -0.655389, 0.969864, -0.201124, 1.227375, -0.029476, -0.578649, -0.604401, 0.047415, -1.12045, -0.370022, -1.351118, 0.669092, 0.87445, -0.180141, -0.476619, -1.106777, -0.339051, 0.96666, -1.780886, 0.872213, 1.762251, -0.552187, -0.289237, -1.689551, 2.129322, -0.743046, 0.408618, -0.5977, 1.428653, 1.592311, -0.715855, 1.464234, 0.228097, -0.444943, -0.157306, 1.475584, 0.128738, -0.711662, -1.636315, -1.586461, 1.336915, 0.45007, -2.215833, -1.437865, -0.486337, -1.236818, 0.113853, -0.083334, 1.145922, 0.232449, 0.077741, -0.883915, 1.04899, -0.697928, -0.364303, -0.482978, -1.014796, 1.560194, 0.483486, -0.658273, -1.979036, 1.156674, -0.984402, -0.128661, -2.741743, 0.27407, -0.942472, 1.198411, -2.725186, -0.353994, -1.013553, -0.497666, -0.160923, 0.531149, 0.95824, 0.941418, 0.926287, 0.59076, -1.529601, 2.345661, -0.30823, -0.639909, 0.744808, -0.026686, -1.080884, 0.40463, -0.373042, -0.059808, -0.511321, -0.445537, 1.421336, -0.617852, 2.235685, -1.260264, 0.720184, -0.797, 0.262126, 0.288527, -0.510604, 0.580132, 1.517951, -0.856357, 1.72026, 0.437727, -0.521388, -2.020313, 1.421129, 0.992858, -0.520924, 1.282554, -0.46574, 1.10703, -0.31956, 0.459919, -0.342407, 1.033638, -2.399735, -1.301241, -1.056, 1.878697, 1.493292, -1.076771, -2.510994, 0.297218, -0.105246, 0.786344, 0.373282, 0.812105, -0.019831, -0.815702, -0.230107, -1.870121, -0.296649, 2.084097, 0.59004, -1.22343, 0.452922, 0.15037, 1.905602, -0.579665, 0.243121, -1.083976, 0.922456, 1.340972, -0.995608, -0.424252, 1.989155, -0.609042, 1.578972, -0.556902, -0.668968, -0.006816, 0.813566, -1.455517, -0.436548, -0.261637, 0.841867, -1.047715, -0.14797, 2.098848, -0.789243, -0.798765, 0.156372, 0.51447, 0.285196, -0.662104, 2.134848, 1.031972, -1.851314, 1.302718, 0.797393, 0.692741, 0.400185, -1.777436, 0.263479, -0.285895, 0.384535, -0.227439, -0.018265, 0.317923, 0.177635, 0.620272, -1.343679, -0.550862, 1.154831, 0.173433, -0.065902, -0.068169, -0.371964, 0.021235, 0.996915, 0.412278, 0.059389, 1.670483, -0.868812, 0.903783, -0.620031, -0.201503, -0.320477, 0.340745, -1.846809, -0.327052, 0.228855, 1.326472, -0.211978, -1.209211, 0.26818, -0.086194, 0.715484, -0.24252, -0.974988, 0.307054, 0.138725, 1.100074, -0.296859, -1.897232, 1.459132, 1.978329, 0.825344, 0.598689, 1.915353, -0.82758, -0.98375, 0.454275, -0.467086, -0.700355, 0.207368, 1.391333, 0.842911, 0.28295, 0.62369, -1.575907, 1.35872, 0.244881, -2.14135, -1.535411, 1.212364, 0.745691, -0.322579, 0.030917, 0.343773, 0.830219, 1.230452, -0.976017, 2.466124, 0.022354, 0.824543, 1.556836, -0.033158, -1.613476, 0.159916, 0.105091, -0.117232, -2.088727, 0.874488, -0.091216, 0.200314, -1.095378, 0.533037, -2.05541, 0.639735, 1.269266, -0.594754, 0.86869, 1.019138, -0.960468, -0.966462, -0.114642, 0.108636, 1.690538, 0.367872, -0.38819, -0.332147, 0.646529, -0.300294, 0.37258, -1.153987, 1.265011, -0.010714, -1.308168, 0.133111, 0.393038, -0.097834, 0.286335, 1.754538, -0.540933, 1.592448, 0.340118, 0.822387, -0.673826, -0.045498, 0.054888, 0.510676, 0.852203, -0.300346, -1.292239, 0.830265, 1.243036, -0.395532, -0.816283, 1.01789, -0.649435, 0.833038, -1.441135, -0.602345, 2.507223, -2.033249, -1.593504, 1.579735, 1.12505, 0.749825, 0.14717, 0.102789, -1.193955, -0.05715, 0.622504, -1.380881, 0.618966, 0.481986, 0.356782, 1.064797, -1.083364, 0.075166, 0.598389, 0.254698, 1.297802, -1.172582, -0.310902, 2.615943, 1.002552, 0.998087, -0.425491, -0.954483, 1.544464, -0.728903, -0.080891, 1.252365, 1.041768, -1.273947, 0.357579, -0.20907, 0.41178, -2.346627, -1.373389, 1.46215, 1.701561, -0.092613, 0.097153, -0.545402, -0.572173, 1.108101, 0.118578, 0.538358, -1.471321, -1.127482, 1.962351, 0.364336, -0.080178, 0.301667, -3.56322, 0.528052, 0.040057, -0.503768, 0.115456, -0.303218, 1.066167, 1.801435, -0.826026, 0.30803, 0.656933, 0.555289, 0.634775, 0.632582, -0.078152, 1.536472, 1.11218, -0.212792, -1.067644, -1.44794, -0.938413, -0.272077, 0.991932, 1.298662, 0.635208, 2.939932, -1.728472, 0.633936, -1.114462, -0.230859, 0.198906, 0.203039, 0.244303, 0.587471, 1.587273, 0.473185, -0.986391, -1.474096, 1.276061, -0.594104, -0.240346, 0.357132, -0.070879, -0.002424, 1.593144, 0.556889, 0.178911, -0.077372, -0.852119, 1.213279, 0.982764, -1.33192, -0.67931, 0.281283, -0.233736, 1.023456, 0.422727, -1.03693, -2.053804, -1.239303, 0.497816, -0.597363, -0.565751, -1.007179, -0.10551, 1.863402, -1.717713, 0.677381, -0.632386, 2.083142, 0.50809, 1.199928, -1.6471, 1.65725, 0.189797, 3.045455, -1.774354, 0.727307, 0.163368, -1.271738, -2.044899, 0.137649, -1.012356, -0.102617, 0.098682, -0.864424, -0.966089, 1.607506, 1.126636, 1.263072, -0.965897, 1.254508, 0.02078, -0.212349, 0.286159, -0.241486, 1.633018, -1.322071, -1.153475, 1.428111, -0.955136, -0.912075, -0.258242, -0.892726, -1.425739, 2.283514, -1.237888, 0.38543, -0.137193, 1.120018, 0.506714, -1.372341, -1.241236, -1.13457, -0.092655, 1.181368, -0.670764, 0.877884, -1.759263, 0.987439, 0.181107, 0.127388, 0.8913, 0.600009, 0.084279, 0.74122, -0.683146, 1.127411, -0.801657, 0.130342, -0.597408, 1.027424, -0.145601, 0.347599, -1.823032, -0.875171, -1.2804, -0.374426, -0.9153, 1.136677, -0.761557, 0.524037, -0.333528, -0.502313, 0.150885, 2.172762, -1.370522, 0.05795, 0.000453, -0.731904, 0.415922, 1.355752, 0.359767, -0.475024, -0.82967, 0.475217, -0.599386, -0.916222, 0.66376, -1.508085, 0.328038, 0.8852, -0.777493, 1.016414, 1.227744, -1.051371, -0.181676, -0.668018, -1.293423, -2.123214, -0.634532, -0.156937, 1.22418, 0.972622, 0.201818, -0.850023, 0.635093, 1.070617, -0.936493, 0.43505, -1.354473, 1.698824, -1.144885, 0.107035, 0.954481, -1.181551, -0.822654, -0.549676, 1.637572, 0.428064, 1.010672, 0.561466, -1.128103, 0.794567, -0.395472, -1.205248, 0.006069, -3.449725, -0.186141, -1.117341, -0.889957, 1.338889, 0.421272, 0.28212, -0.8108, 2.478748, -0.587547, 0.495435, 2.599415, 0.719939, 0.943617, -0.041486, 0.994593, -0.820535, 0.455491, 0.855746, 0.786528, -1.253602, 0.467813, 1.007414, -0.081625, 1.684301, -0.449536, 0.22302, -3.731597, 0.838846, -1.255799, 0.780212, 1.470844, 0.140556, -0.329695, -0.850219, -0.497658, 0.160949, 1.752692, 1.50152, 0.96484, 1.317738, -1.38131, -0.449261, -1.725006, -0.492029, -0.530654, 0.165379, 0.163083, 0.087849, -2.021209, 0.304239, -0.298766, -1.309756, 0.859859, 0.29487, 0.195398, -0.203945, 0.110844, 1.585957, -1.954492, 0.961003, 1.096677, -0.199161, -0.429848, 1.381989, -0.25772, -0.544226, -3.296205, 0.400095, -1.024599, 1.213101, 0.581037, 1.478199, -0.696781, 1.812149, -0.315047, -0.656791, -1.616947, 0.13981, 0.131788, -0.320748, 0.717658, -0.03827, -0.621088, -0.06968, 0.115215, 1.245301, -0.046255, -0.752521, -0.914618, -0.198366, -0.935791, 1.519591, -1.515447, 1.071262, 0.929197, -0.577976, 0.062903, -0.943221, 1.248306, -2.441481, 2.020804, 1.75093, 2.482526, 1.200763, 0.936989, -0.389605, -0.572094, -0.026833, 1.000354, 0.438521, -0.033048, 0.499985, -0.776178, 0.187729, -0.911247, -0.834911, -0.967637, -0.939337, 0.713727, -1.589478, -0.568267, 0.750669, 2.05983, 0.198675, -0.435675, -0.155834, -1.491124, -0.341519, -2.296533, 0.237638, -1.557929, 0.850381, 0.929986, -0.065012, -0.817934, 2.664149, -1.100554, 1.686722, 1.927808, 0.787335, 1.232671, -0.795989, -0.534232, -0.411538, 1.117769, -0.227293, 0.879543, 0.700893, 1.314296, -0.040268, 0.312454, -2.474807, 0.150248, -0.760736, -0.62244, 2.157746, -0.167462, 0.01004, 2.053482, -0.109999, 2.809177, 0.213615, -1.701273, -0.506276, 0.609981, -0.161442, 1.484778, 1.694605, 1.719355, -0.577757, -2.174305, 1.94406, 1.408442, 0.046332, 0.190647, -0.32186, -0.71304, 0.175652, -0.535972, 0.283071, -2.374677, -0.491662, 0.91452, -0.997057, 0.291821, -0.961085, -1.02634, 0.087983, 0.099035, -0.380842, -0.159189, -0.189165, -0.581302, 1.033681, -1.23824, 2.06576, 0.849471, -0.629824, -1.03706, -0.040592, 0.588905, 1.133357, 0.144519, -0.044134, -0.663217, -1.900083, 0.127118, -0.867187, 2.690167, 0.950266, -0.485873, 1.026097, 0.142959, 1.718068, -0.776949, 1.026908, 0.129258, -0.628856, 0.270175, 0.799172, -1.26414, -0.022235, 0.362451, 0.489324, 2.458546, -0.793991, 1.184318, -1.450331, 0.985016, -2.648777, -0.192874, 0.930198, 0.161425, -0.321083, -0.863631, 1.158126, 1.410812, -0.041767, -0.976165, 0.140439, -0.67894, -0.206457, -0.663149, -1.570243, -1.259844, -0.861907, 0.336091, 0.239319, 0.490728, 1.711273, -1.498381, 0.336067, -1.682631, -0.959126, -1.783124, 0.349395, -1.398229, -0.303296, 0.034521, -0.458143, 0.740544, 1.368884, 0.423139, 0.665052, 0.236975, 0.943708, -2.292058, -0.267743, -0.340283, 1.314592, 0.026487, -0.697355, 0.809575, 1.796269, 0.494914, 2.364585, 0.353952, 0.255502, -0.483772, 0.18463, 1.412651, 0.406099, -0.750027, 0.278783, -1.075091, -1.598035, 1.819458, -2.192425, 0.556227, 0.339278, -0.29408, 1.4006, 0.37721, -0.747155, 0.693615, 0.929629, 0.286192, 0.549796, 0.121701, 0.632801, -0.431564, -0.581331, 1.456272, 1.572148, -1.413966, 1.207159, -0.589174, -0.978989, 0.012542, -0.952311, -0.420708, 0.070261, -1.081786, 1.446557, -1.144653, 1.041835, -2.256856, -0.472579, -0.564491, 1.156089, -1.256814, -0.747203, -0.223737, 0.757887, 2.7767, 1.51909, -0.46817, -0.412292, 0.050812, -0.216623, 0.87817, 1.39715, -0.836018, 1.249981, -0.822556, -0.081385, -0.379622, 0.23959, -0.603179, 1.573186, -1.212726, 0.199211, -0.86357, -0.533626, -1.244477, 0.579078, 0.061689, 1.510165, -1.087853, -0.057155, 0.430296, -0.76011, -0.260946, -0.99036, 0.567337, -0.516977, -0.434559, -1.572595, -1.453156, 0.169641, 1.876049, -0.073536, 0.199928, 0.367874, -1.352253, 0.793537, 0.649751, 0.327256, -1.345301, 0.49367, -0.647722, -2.036957, 0.71389, -1.164622, 0.919058, 0.550101, 0.138069, 0.359623, -1.734383, -0.02277, -0.5706, -1.598092, -0.06742, -0.94274, 0.376032, 0.557628, -0.806993, 1.316277, -0.0175, -1.381687, -0.461863, 0.300897, -0.956856, 1.176587, 1.386844, 0.796643, 0.008853, 1.887067, 1.475463, -1.805368, 1.425386, -0.060431, 0.588327, 1.030449, -1.68759, 0.696342, 0.421731, 0.678905, -0.01516, 0.342866, -0.356843, 0.535141, 0.351861, 0.992637, -0.558062, -1.645619, 1.270723, -0.457407, 0.425107, 0.972476, 1.812996, 0.303618, 0.434664, 3.416309, -0.454915, -0.861308, 0.111741, 0.776886, -0.872958, -0.319726, 0.576674, -0.701103, 0.245621, 0.855323, -0.245257, -0.973512, -0.481792, -0.667786, 1.129918, 0.186476, 0.050897, 0.253362, -1.393845, 2.071093, -0.945931, 0.01761, -0.013283, 1.420512, 0.107937, -0.321325, -1.098468, 1.896285, -0.080864, 1.380431, -1.334681, 1.755457, 0.127375, 0.161151, 0.640694, 1.933365, -0.499876, 2.236248, 1.240938, -0.329127, -0.703904, 0.938283, 0.194188, 0.833095, -0.367144, 0.819989, 0.625424, -0.823569, -0.015876, -0.63998, -1.682508, -0.617106, -1.443365, 1.312394, 0.696623, -0.80476, 0.250343, -0.846888, -0.921007, -0.275424, 0.846569, -1.42148, 2.698717, 0.318282, 1.15133, 0.378764, -0.344396, 0.147649, -1.105876, -0.720408, 0.211705, -0.611233, -0.958011, -0.239646, -0.415217, 0.01069, 1.674678, 0.702549, 0.365099, 1.143772, 1.839598, 1.114849, -0.435297, -1.160654, 0.171956, 0.646075, -1.095491, -0.339522, -0.486116, -0.954516, -1.321992, 1.483806, -0.104351, 0.668782, -0.065761, 0.881272, 0.060455, 0.113497, -0.652205, 1.915166, -1.884306, 0.308338, 1.769659, -0.57607, 1.707132, -0.315077, -0.198617, -0.525772, 0.432911, 1.068478, -1.055702, -1.664939, -1.441645, 0.349091, 0.853483, 2.11516, 0.584123, 0.694719, 0.301477, -0.576757, -0.210404, -0.797115, 0.211058, -0.067253, 0.241247, 1.032242, 0.202558, 0.388771, -1.469169, -1.00221, 0.242032, -0.069061, -1.519696, 1.374319, -0.478876, 1.417415, -0.329445, 0.767315, -0.819866, -0.337599, 0.494536, -0.510947, 0.924332, 1.960055, 1.893484, 2.961917, -0.470092, 0.086375, -1.929707, 0.662018, 0.085955, -0.258234, -0.087639, -0.804646, -0.057599, -0.249321, 1.281164, 0.396244, -1.550699, 1.780042, -0.109037, -0.921609, 2.743361, 0.670735, -1.435803, 2.376617, 0.436101, -1.556144, -0.56798, -0.159963, 0.29488, -0.087436, 0.781125, 0.313597, -0.760917, -3.158688, -1.453403, -0.370641, -0.439768, 0.458512, -0.06432, 1.788554, 0.004837, -0.249115, 0.433197, -0.599604, -0.580117, -0.014282, -0.156272, 1.277076, 0.619507, 0.74623, -0.912227, -0.719631, -1.751091, 0.05917, 0.455225, 0.611658, 0.310661, -0.604919, -1.775928, -0.186121, -0.510358, -1.255458, 1.006714, 1.296953, 0.691717, 0.735127, 1.322003, 0.528926, -1.579364, 0.777087, 1.224333, -1.512029, -0.218939, -0.17836, -1.287898, -0.618673, -2.842077, -0.054707, 0.282728, 1.147899, 0.941017, 2.172655, -1.626585, 1.543414, -0.394061, 0.047815, -1.500773, 0.747798, -0.587507, -0.734084, 0.913568, -0.586808, -0.41854, -0.766804, -0.679488, 1.326323, 0.293351, -0.859743, -1.217986, 2.253767, 0.10572, 1.35586, -0.54272, 0.342711, -0.686139, -1.0212, 1.559512, -1.302472, -0.257135, 0.827582, 1.060465, -0.867498, -1.034122, 0.965188, -0.057553, 0.097606, -2.070507, 1.218734, 0.598704, 0.421679, -1.089987, 1.741917, -1.0673, 0.600746, -0.73805, 0.243941, -0.858023, -1.015388, -0.049579, -0.109818, 0.966027, 1.26378, -0.339642, -0.048279, -1.930803, 0.494483, 0.706652, -0.498152, 1.541665, 0.358863, -0.437139, -1.194326, 2.273582, 1.293672, -1.016276, -0.304519, -0.839853, 0.440889, -0.405478, 0.276192, 0.348334, -1.478777, -0.416931, -0.33516, -0.246011, 1.411455, -1.299682, 1.244722, -0.453019, 1.545138, -0.512401, -1.69519, -0.111695, 0.764338, -0.960141, -0.194818, -0.300945, 1.836218, 1.862347, -1.722859, 0.228699, -0.022556, -1.147201, -0.469719, -0.843392, -1.271755, -0.248257, 0.936834, 1.140586, 0.484239, -0.402741, 0.235838, 0.027762, 0.18628, -0.391492, 0.467309, 0.097258, 1.566822, -0.421311, -0.178184, -2.251231, -0.004764, -0.15455, -0.91652, 0.797534, 0.125751, -1.312869, -0.046619, -3.156733, 0.111161, 0.750883, 1.863703, -0.772254, -0.479442, 0.483314, -0.088538, 1.906462, 1.816016, -1.149954, 1.28146, 0.836176, 1.358381, 0.607633, -0.127035, -0.315228, -0.825147, -1.084937, -0.148615, 0.16175, -0.72782, -0.85691, 2.601135, -0.991464, 1.607505, -1.685255, -0.175155, -0.626416, -1.861531, 0.098638, 0.811682, -1.181089, 0.127542, 0.874009, 0.073232, 1.418857, 1.005811, -0.403659, 0.431473, -0.859258, -0.857983, -0.335288, -0.692432, 1.397147, -0.742905, -0.55009, 0.068614, -0.934704, -0.203435, 0.441064, 0.455253, -1.034332, 0.144914, 0.248989, -0.394746, 0.595708, -1.512081, 1.439907, 0.418855, 0.205409, 0.750721, -0.350989, -1.0425, -1.986715, 0.265651, 0.142972, -0.761824, -1.731595, 0.995307, -1.002415, -0.449468, 1.489036, 1.650465, -1.248756, -0.113522, -1.372964, 1.097959, 1.35419, 2.001239, -0.798646, 1.019092, 0.018508, 0.565112, 0.69858, 0.375671, 1.123961, 0.463493, -0.718549, 0.047177, -0.380195, 0.194217, -1.458791, -0.607527, 0.368314, 1.228077, -0.292365, 0.422932, 0.32836, -1.705101, 1.791653, -0.936998, -0.365309, -1.487128, 0.501525, -1.303159, 1.767938, 0.223688, -0.307793, 1.431294, -0.74965, 0.376193, 0.252585, -0.620893, -0.912006, 1.401386, 0.435582, 0.983977, -0.777788, -1.290573, 0.587649, -1.680783, -0.234956, 1.222832, 0.265599, 0.509705, -0.572108, 0.132408, -0.954239, -0.740182, -0.481445, 0.270903, -0.327243, 1.535791, -0.945067, -0.375027, 0.939996, -0.246551, 0.025821, -0.764389, 1.080556, -0.127732, 0.702541, 0.946027, -0.800124, 1.369294, 0.729191, -2.254242, 0.325852, -0.515899, 0.249357, 1.595813, -0.601748, 0.707866, -0.847017, 0.101759, -0.920016, -0.787954, -1.369556, 0.817088, -0.288821, 0.918784, 1.498188, -0.213007, 0.973628, 0.831656, 1.791441, 1.508074, 0.290359, 0.367844, 0.69659, 0.310236, 1.988019, -0.569892, 0.012499, -1.03972, -1.018149, -0.320833, -0.584623, 0.23864, -1.497621, 1.218844, 1.280446, 0.613509, 0.535429, 0.484954, 0.897884, 1.805997, 1.286154, 0.470252, -0.726062, -1.690337, -0.517958, -1.340132, -0.358852, -1.736161, -0.572839, -0.835439, -1.198925, 0.663598, 1.155949, 1.255872, 0.801829, 0.333476, -0.35712, -0.03115, 1.447922, 0.614402, -1.326488, 0.614282, 0.370929, -0.340138, 0.762479, 0.431404, 1.148932, 0.225858, -0.667078, 1.07368, 0.517086, -0.857797, -0.743876, -0.531726, 0.731705, 1.552698, -0.36216, 1.04009, 0.357934, 0.204599, 0.583658, -0.435894, -0.315161, -0.312402, -0.222627, -1.543724, 0.160318, 1.121862, 0.970989, -0.746282, 0.050019, -0.743086, -1.477846, 0.001413, 0.458676, -0.688624, -0.370092, 0.73112, -0.92485, 0.649531, 0.648642, -0.582197, 0.62792, 1.449535, 0.845325, 0.505496, -1.693655, 0.85786, -0.564484, 0.08447, 0.41506, 0.221894, -0.293002, -0.318068, -0.332454, 0.68277, 0.041397, 0.375963, 0.051693, 0.991763, -0.912826, -0.084647, -0.568028, 0.309604, -0.414447, 1.6673, 1.172323, -1.224574, 0.548922, -0.714259, -1.258403, 0.724529, -0.331628, 1.636123, -0.982272, -2.614668, -1.250811, 0.922848, -2.022308, 1.987282, -0.01199, 0.120836, 0.111008, -0.368572, -1.159268, 0.501756, -0.323181, 0.833311, -1.206522, -0.01731, -0.408857, -0.396396, -1.279888, -2.076724, 1.320541, -0.050801, -0.839374, -0.829964, -0.357923, 1.787978, 0.099401, 2.956522, -1.408859, 0.038851, 1.20987, -0.704926, 0.582354, 2.572051, -0.289288, -0.470123, -0.956241, -0.260936, 0.348877, -0.641881, -1.526445, -0.252502, -0.856789, -0.669886, -1.456508, 1.531453, 1.328359, 0.755123, -0.061153, 2.298093, 1.858691, -0.339297, -0.218589, -2.194122, 0.246727, 1.030788, 1.336888, -1.431971, -0.39375, 2.004691, 1.067628, 0.980095, 0.141087, 1.008197, -0.796433, -1.041092, 1.857627, -0.400296, -0.540972, 1.084969, -0.299765, -0.690831, 0.473142, -1.290721, -0.554029, -1.078649, 0.437572, -0.28375, -0.906443, 0.653898, 0.892679, 1.6476, 0.291306, -1.184233, -0.277405, 1.16686, -0.728507, -1.206522, -0.084729, 1.030869, -1.181684, 1.736538, 0.057359, 