{"arch": [768, 64, 1], "scale": 600.0, "layers": [{"w": [0.913824, -1.431279, 2.540934, -2.321587, -0.005043, -2.451944, -1.408769, 1.419363, 1.771932, -0.100189, 1.174173, 0.943487, 0.339469, 1.222164, -0.539169, 0.621447, 0.108926, -1.514392, -1.124102, 0.531373, -0.350588, -1.322898, -0.374539, -0.860658, 0.804259, -1.189936, 0.943101, 0.436301, 0.04155, -0.97515, 2.258086, 1.177674, -0.566436, -1.097472, 0.281748, -0.789317, -0.489803, -0.991248, 1.431492, -0.018025, -0.577557, -2.236782, 1.517907, -0.991589, 2.27071, 1.542119, 1.256282, -0.271446, -0.588622, 0.845338, -0.914284, 0.105454, 0.617559, 0.00155, -0.056146, 2.011766, 3.271546, 0.505136, -0.755198, 0.260391, -2.312878, -0.175914, -0.414967, -1.587494, -0.369764, 1.824534, -0.750214, 0.622238, -2.06463, 0.171812, -1.0796, 0.886032, 0.563522, 0.754946, 1.49852, -0.759821, -1.056243, 0.395, -0.818251, -0.469671, -0.472639, 1.254684, -1.020357, 0.544554, 0.939259, 1.121378, -0.885362, 0.164709, 0.737903, -1.207401, 1.286638, -0.060975, 0.329578, 0.210609, 0.165292, 0.331131, -0.185776, -1.363112, 1.386716, -1.340449, 1.935221, 1.584369, 2.049787, 0.945207, -0.340136, 0.357403, 0.261819, 1.712121, 0.318813, -0.170035, -0.19426, 0.244464, -1.230072, -1.268525, 0.38292, -0.192207, 0.768956, -1.09713, -0.087615, -0.578947, 0.051092, 1.804322, -0.197369, 0.772684, -0.946131, 0.95953, -0.423369, -0.254175, 0.024236, 0.973192, -0.483506, -0.544544, -1.353123, 0.438311, -0.541934, 0.324403, -0.747275, -0.678277, -0.079317, -0.234965, -1.013179, -0.119183, 1.173636, -0.213074, 1.456227, -0.413893, 0.27674, -1.001203, -1.260192, -0.477594, -0.269627, 0.021031, 1.714785, -0.37678, 1.163651, 1.524867, -0.682062, 0.081382, -1.67629, 0.692785, -1.404504, 0.298332, 0.330297, 1.37749, -0.847088, 0.812084, 0.169976, -0.446397, -1.638694, 1.840441, -0.091225, 0.624899, -1.605517, -1.090622, -0.504762, 1.341511, -0.29809, -0.203061, -0.648825, -1.199547, 1.303303, -1.205749, 0.448028, 0.310521, 1.018654, -1.355318, 1.82434, -0.145274, -1.107503, 0.324954, -1.772014, -0.872206, 1.123858, 0.212054, -0.459038, -1.785256, 2.08904, 1.887443, -2.301075, 1.241323, -0.228466, -1.725767, -0.850659, -0.545768, 1.054112, 0.219543, 0.346087, 0.286448, -1.138762, 1.37714, -0.628076, 1.260919, -2.575884, -1.307141, 1.685969, 0.143704, 0.483327, -2.147178, 0.993583, -0.254236, -0.568642, -0.734187, 1.857066, -0.362403, -0.840892, 1.319336, -0.168401, 0.465792, -0.547577, -0.190708, -0.719306, 1.25529, 1.11325, -0.650563, 0.996468, 0.670748, -0.794518, 2.333058, -0.037752, 1.164691, 0.329836, -0.618839, 2.61912, 0.693878, -1.5541, 2.439775, -0.232352, -0.521213, -0.155874, 0.30182, -0.273949, 0.427025, -0.274406, -0.416882, -2.907231, -0.020304, -0.36335, -2.239064, -0.500131, -0.071664, 0.539386, -0.367966, 1.035209, -0.273623, -1.130056, -0.440566, -0.129562, -0.841374, -0.454707, 2.641175, 0.808964, 0.231133, 0.560287, -0.499307, 0.337072, -0.942958, -0.163489, -0.643402, -0.556415, -0.536367, -0.172934, 0.058075, -0.802018, -1.271892, -0.065967, -0.431963, 1.237044, -0.33926, 0.652864, -0.276716, 1.32933, 0.771877, 2.851398, -0.984325, 0.120816, -0.367114, 1.800683, 0.974573, 0.641974, -0.616777, 0.910266, 0.522532, -1.830657, 1.265552, -0.819742, -1.81325, 1.585542, -0.517935, 0.465591, -0.228329, 0.128179, 1.683058, -1.840621, 0.241322, -0.94064, 2.418672, -1.181203, 0.233225, 0.632145, -0.355978, 0.261359, 1.31277, -1.227139, 0.511144, 0.54197, 2.138421, 0.093329, -0.214551, 0.380562, 1.433069, -0.050144, -0.326064, -0.575644, 1.936307, 0.265483, -0.040599, -0.646882, 0.794977, 0.490142, -0.614711, 1.687186, 0.235578, -0.438696, -0.511175, -0.350345, 1.560362, 0.604448, 0.76371, 1.155863, -0.663481, -0.202366, -1.163811, 0.449589, -0.182766, -0.231677, 1.806866, -0.222286, -1.042668, -1.607068, -0.629065, -1.910211, 1.994514, -0.764376, -2.689644, -0.699419, -0.337732, 1.17276, -0.147589, 1.549257, -1.721841, -0.178412, -0.492175, -1.379799, -0.212441, -0.10626, -0.199992, 0.433206, -0.368675, 0.615405, -1.224284, 0.413419, -0.270934, -0.760057, 0.249789, -0.63775, -0.898577, -0.357652, -2.002859, 0.257203, 0.295704, 0.232031, -0.781429, 0.25213, -0.913007, 0.024483, 1.631874, 0.231221, 2.135837, -2.067752, -1.08209, 0.635348, -0.66262, 0.636261, 1.733036, -0.156204, 0.550144, 1.297969, -0.811905, 1.132212, -0.157401, -1.953816, 0.288089, 0.135256, -0.249286, 1.1185, 0.172099, -0.605681, 1.430569, 0.395768, 0.791459, -0.19327, -0.436234, -0.551848, -1.390313, 1.333905, 1.002337, -2.059886, 1.090416, 0.55912, -0.6085, -1.057515, -1.633213, -1.043499, 1.179001, -0.993061, 2.019927, 0.718521, -0.988039, 1.64007, -1.437766, 0.196251, 1.187524, -0.343646, 1.282549, -0.610626, 1.225512, 0.611811, -1.377354, -1.425594, -0.156106, 0.147237, 0.417144, 0.80747, -0.931839, 0.36132, 0.010439, 1.182291, -1.567202, -0.349633, 0.122693, -1.969448, 0.513408, -1.279244, -0.601867, 0.752969, -0.051748, -0.42288, -0.478672, -0.497008, -0.314948, -2.15544, 0.485512, 0.853803, 0.807401, 0.043098, -0.320007, 0.372015, 0.555568, -1.113172, 1.821163, 0.362394, -0.117272, 0.50531, 1.141222, -0.577605, 0.049627, -1.072122, -0.8371, -0.603708, -0.098503, 1.23636, -0.591467, 0.163801, -1.134506, -0.149424, -1.376657, 0.152751, 0.737938, -0.227505, -0.19704, -0.397575, -0.553215, 0.925319, -0.852997, 0.190062, 2.552214, 2.293843, -1.801552, 0.228696, -1.228286, 1.312693, 0.306353, -0.169836, 0.159143, 1.552137, -1.061509, -0.029691, 0.988383, 1.570285, 0.040205, -0.999413, -1.116374, 0.175087, 1.357872, 0.902279, 1.704464, -1.616224, -2.042168, 1.20804, 0.940608, 0.858829, 1.5232, -0.544287, -0.382826, -1.284138, -0.228455, -0.558053, -1.048321, -0.175064, 0.858709, 0.572599, -0.341194, 0.412987, 1.144952, -0.133108, 0.435258, -1.407111, 1.582321, -0.008938, 0.86553, -1.128709, 0.172336, 1.922679, -0.260025, 0.032499, -0.066652, -0.519264, 0.317886, -2.182577, -0.289221, 0.817552, 0.033808, 0.621166, 0.695437, 0.123543, 2.115159, 0.666715, -0.85445, -0.285446, 0.228588, -2.853888, -0.781871, 0.049709, 1.438368, -0.019876, 0.592286, -0.398724, 1.161528, 0.234987, -1.762745, -0.265375, 0.926011, 0.063816, -0.214482, 2.515469, 0.798967, 1.493032, -0.140525, 1.466714, -0.18039, 0.379343, 1.301037, -2.40985, 1.063676, 0.283588, 1.007086, 1.339798, 1.039781, -0.147613, 0.879644, 0.450626, 0.644462, -0.470466, 0.139366, 0.435772, -1.261874, -0.712901, 1.205742, -0.515855, 1.327539, 0.154817, -0.830018, 0.742886, -0.30654, 0.473982, -1.425933, 1.590198, -0.435946, -0.345192, 1.032284, -0.730161, -0.099099, 0.766317, -1.387448, 0.244802, 0.958998, 0.511226, 0.049717, 0.912301, 0.434447, 1.017337, 1.276457, 0.347668, 1.188673, -0.611534, -0.190525, 0.57637, -1.023493, 1.17561, 1.103258, -0.018795, 0.395859, 1.126383, -1.466281, -0.088252, 0.590928, -0.221119, 0.824396, -0.360189, -0.107332, 0.593847, -0.043484, 0.518852, 0.947765, 1.056121, 0.850643, -1.429076, -0.819315, 0.802565, 0.55758, 1.432674, -0.266682, 0.394545, -0.431305, 1.126579, -0.920378, -0.050033, -0.665768, 0.48891, -0.276153, 0.272251, -0.693663, -0.600437, -0.114851, 0.456516, 0.030349, 1.094976, -0.150109, -0.335514, -1.639063, 2.127923, -1.335575, 0.432465, -0.113658, -0.478241, 0.596893, -0.057446, -0.173893, 0.201103, 0.786285, 0.071697, -0.724632, 0.232738, -1.673706, -1.757048, 1.289585, 0.630772, -0.076342, 0.093399, -0.298057, 0.770072, -2.22495, 1.583284, 0.343745, 0.497536, -0.262318, 1.130534, 0.208206, -1.116202, 0.920374, 1.268452, -0.853762, -0.379453, -0.915314, -0.187955, 0.180262, 0.777453, 1.10339, 1.507897, 0.131794, -0.589829, 0.923784, -0.178748, -1.181932, 1.365902, 0.977308, -1.368052, 1.238205, 1.218065, 0.65356, 0.862985, -0.270525, 0.291179, 0.072081, -0.807522, 1.700476, 0.308288, 0.408889, -0.595167, -0.089943, 0.67058, -0.488825, 0.130567, -1.106892, 1.342406, 0.318759, 0.821686, 0.564, 0.359137, -0.441176, -0.286229, 1.435459, 2.242743, -0.030431, 0.304189, 0.986486, 0.118533, -0.740288, 0.941126, 0.579766, 1.883226, 0.608153, -0.444184, 0.879405, -1.015728, 0.328756, -0.966249, 0.196494, 0.301069, 0.276586, 0.292019, 1.518095, -1.511168, -0.221862, -0.426027, 0.011277, -1.128873, 1.539113, 0.850868, -0.273275, 0.071869, -0.336016, 0.235218, -0.107129, -0.215117, 0.241252, 0.174222, -0.313338, 0.396659, 0.071922, 0.462041, 0.57617, -0.181343, 0.858929, 0.147878, 1.794591, 1.003279, -0.777809, 0.718331, 2.277104, -0.618432, 1.118572, 1.008411, 0.962655, 1.460789, 0.41496, -0.948175, -0.470658, 0.669702, -0.591319, 0.644988, -0.73551, 0.624338, 0.670797, -0.236223, 0.442826, -0.250118, -0.168378, 1.276973, 1.427633, -0.448378, -1.54727, -2.370665, 0.20611, 0.729598, 1.003055, -1.616245, 1.885339, 1.844117, 0.402685, -0.416106, 0.094128, -0.327394, 0.493365, -0.049261, 1.862997, -1.15604, 1.80796, -1.140724, -0.23369, -1.767332, -0.02696, 0.727034, -0.463496, 1.373678, 0.526299, 2.351769, 0.287927, -1.36145, -0.012436, 0.117622, -0.638207, 0.092915, 0.946986, 0.841702, 0.395581, 1.404651, 0.25664, 0.996643, -1.099773, -1.510235, 1.609099, 1.156564, 0.488756, -0.111367, -0.244026, 0.337794, -0.933383, 0.0968, 0.3653, -1.499721, -0.007994, -0.533414, -0.370446, -0.35714, -1.974371, 1.059292, 1.658809, -1.027399, -0.585356, 0.945238, 0.28371, 0.50641, -0.060894, -1.672355, -0.105476, -0.488463, 0.217919, 0.636731, -0.826314, 1.423129, 1.29018, 1.125306, 0.401496, -0.294215, -0.249043, -0.593229, 0.316978, 0.056097, -0.300693, -0.764714, -0.598784, -1.542908, 0.179749, 0.186242, 0.587224, -0.992124, 0.542054, -0.404406, 1.645859, 1.446926, -0.660937, -0.453961, 1.536586, 0.50515, 1.070675, 0.371138, 1.86162, -0.264945, 0.383691, -0.541289, -0.733362, -1.284815, 0.580159, 2.138813, -0.481965, -0.881864, -1.846022, -0.461619, -0.189307, -0.591086, 1.54438, -0.072716, 1.502549, -0.055739, -0.232422, 0.241445, -1.915061, -0.385239, 1.608826, 0.476359, -1.292836, 0.634584, -1.252908, 0.641882, 1.1951, 0.515537, -0.232268, -1.015789, 1.243132, 0.199038, 1.123266, 0.204496, -1.517779, 0.914626, -0.53112, -1.451862, -0.033431, -0.441692, 0.322566, -0.026687, 1.435338, -0.468647, -0.828467, -0.431742, -1.543485, 1.020147, -0.71542, -1.352053, -0.342996, -0.632477, 1.503035, 0.356332, 0.049992, 0.086992, 0.633241, 0.539309, 0.550575, 0.30518, 1.667743, -1.114611, 0.742446, -0.54767, 0.20435, -0.488094, -0.3919, 0.598537, 1.108676, -0.41648, 0.323322, -0.479848, -0.214385, 0.132835, 1.673163, -2.253152, -0.086368, -0.67767, 0.378315, -1.477692, 0.773059, 0.37252, 0.265375, -0.63872, 0.02757, 0.845365, 0.443565, -1.805028, 1.354384, 0.884158, -0.379939, 0.99044, 0.263993, -1.397806, 1.095804, -0.101246, -0.604658, 1.436816, -0.719911, -0.145337, 1.189963, 0.732946, -1.925896, 0.072354, -0.058418, 1.813583, -1.243666, 0.733587, -0.83942, -0.410181, -0.520454, 1.618618, -0.251647, 0.632126, 0.630707, 0.100222, -0.732877, 0.289831, 2.334199, 1.784379, -0.349818, 1.000758, -0.161448, 1.092867, -1.075423, -1.25544, 1.264727, 0.656754, -0.287063, -0.553831, 1.145225, 0.04604, 0.174445, 0.209816, 0.189416, 1.725444, 0.939653, 0.532081, 0.608029, -0.149152, -0.282868, 0.867716, -2.116484, 0.418409, -0.324934, 1.264895, -1.074748, -0.35771, 0.666526, -0.711627, 0.30564, 0.983499, 1.541914, -0.190361, 0.124794, 0.171378, 0.714076, -0.084861, -0.914684, -0.001822, 0.74837, 0.162402, 1.051764, -0.36948, 0.739172, 0.161067, -1.047615, 0.380966, 1.520395, -0.024143, 0.59145, 0.852419, -1.130045, 0.077313, -1.360564, -1.027211, 0.494547, 0.239548, -0.051061, 0.862803, -0.186692, 0.847299, 0.823413, 0.090128, 0.230761, -1.712262, 0.028539, 0.785967, 0.810398, -0.408283, -0.823333, 0.682273, 0.284632, 0.780768, -0.475295, -0.989927, 0.284998, 1.009769, 1.329696, -1.865112, -0.077023, 0.97656, 1.719119, -0.307944, 0.258544, 0.269869, -1.004764, 0.037692, -0.766699, 1.324891, 0.371863, 0.76351, 0.800051, -0.737826, 0.365292, -0.356192, 1.698422, 1.917664, 0.200864, 0.590939, -0.258601, 1.479264, 0.674954, 1.236541, 0.376524, 1.533095, 0.170011, -1.060819, 1.602681, 1.122584, 0.980079, 1.05126, 1.078611, -0.524598, 0.289063, 0.452555, -0.779954, -0.891547, -1.448745, -0.43782, 0.313825, 0.963056, 0.153533, 0.363667, -1.065506, 0.413061, 1.421502, -0.925557, 1.919571, -0.39753, 1.097278, -0.807351, -0.597567, -0.746816, 1.508909, -0.07489, 1.699575, 0.768311, -0.421564, -0.118074, -0.218812, 0.192467, -0.451874, -0.17289, -0.157541, 0.38549, 0.36192, 0.446284, 0.637172, -0.344427, -0.298763, -0.325122, 0.161435, -0.717571, 0.135825, 0.897851, 0.360987, -0.352836, -0.223739, -0.131235, 0.63082, 1.23505, 0.641361, 0.186871, 0.289425, 0.528568, -2.077499, -0.724592, 1.171613, 0.408731, -1.443537, 0.775313, -0.067651, -0.894983, -2.367713, 0.263307, 0.179348, 0.058587, -0.757808, 0.575445, 0.447408, -0.972806, 1.800795, 1.122269, -0.386751, 0.113911, -0.484075, 0.771283, -0.586772, 0.290291, -0.506177, 0.545063, -0.591854, -0.366164, -1.400282, -0.113709, -0.547938, -0.334676, 0.367877, 1.324224, -0.683833, -1.017945, -0.196585, 0.089856, 1.327407, -0.889241, 0.782404, -0.357013, 0.034669, 0.4601, 0.264617, 0.15272, 1.78387, 0.101029, 1.665047, 0.467145, -1.089096, 2.06101, -0.477903, 1.165857, 0.240604, 0.348026, 0.008121, 0.69056, -0.218181, 0.262387, 0.268853, 1.119689, -0.537225, 0.091205, -1.969669, -0.444469, -0.849284, -0.760228, 0.161587, 0.114746, 1.283357, -0.397304, -0.451913, 0.967634, 0.810841, 1.162151, 0.523436, 1.001218, 1.682828, -0.837412, 0.654765, -1.659204, 0.416043, 1.684462, -0.457099, 1.071272, -0.488918, 0.766455, 0.899677, 0.462815, -0.854754, -0.896175, -0.022824, 0.66034, -0.177085, 0.884424, -0.47242, 0.74354, 0.190597, -0.030324, 0.644207, -1.315644, -0.516497, -0.273006, -1.128548, -0.576107, -0.007803, 0.953033, 0.333125, -0.314665, 0.020584, -1.903696, -0.297831, -0.412888, 0.291825, 1.600117, 0.613716, -0.309269, 0.809059, 0.691885, 1.445359, -0.742097, -0.317954, -0.226968, 0.672561, -0.378782, -0.5287, 0.072931, -1.301662, -0.506732, -0.062715, -0.024454, 0.210868, -0.382619, 0.178642, 0.718274, -1.125209, 1.204934, 1.522797, 0.17175, 0.858571, -0.467873, -0.239825, -0.012448, -1.130702, -0.831994, 0.236734, 0.98215, 0.94356, 0.057356, 0.031764, 0.777744, 0.582827, 0.037518, -0.002645, 0.165578, -0.857404, 0.745647, 1.054247, 0.682481, 0.303623, 0.614811, 0.044331, 0.41704, 1.062759, -0.048935, 1.455803, 0.168297, -0.223067, 0.487206, -1.323758, -0.526166, -0.356896, 0.542351, -0.323906, -0.602803, 0.813022, -1.148608, 0.290651, 2.072202, -0.790418, -0.479375, 0.319568, 0.478081, 0.374294, -0.759364, -0.031047, 0.144093, 0.224703, -0.788976, -0.7426, -1.06514, 0.021135, 0.741943, 0.334022, -0.014004, 1.605495, 0.057253, 2.434835, 0.716808, 1.157999, 0.391619, -0.371252, -0.394439, 0.874849, -0.20494, 0.329276, -1.057971, -2.127122, -0.653586, 0.74088, 0.689709, 0.262474, 0.215028, -0.22502, 0.035, 0.605279, 0.996756, -0.558268, -0.081096, 0.53921, 0.146133, -0.825041, 0.182866, 0.642693, 2.566662, 1.438992, 0.611006, 0.430967, -0.459683, 1.333262, 0.921237, -2.13901, -0.658852, 0.008251, 0.113126, -0.143482, 0.833677, 1.049702, -0.33291, -1.078028, -0.070944, 0.299279, -0.171769, -0.266916, -0.272196, 1.454382, -0.062441, 1.07012, -0.67823, 0.653798, -1.31664, -0.276321, 0.326468, -0.410636, -0.670831, 0.096294, 0.518199, 0.623929, 0.025304, -0.378277, 2.485092, 0.624555, -0.045652, 0.338572, 0.756136, 0.510537, 1.1683, 0.168906, 0.643257, -0.43503, -0.198066, 0.267855, -0.929692, 0.616974, 0.976665, 0.085895, 0.46725, 1.099848, -0.465638, -0.389723, 0.74958, -0.36046, -0.218016, 1.184711, -0.143764, 1.498361, -0.013022, 0.594507, 0.452346, 1.106959, 0.623038, 0.263123, 1.090865, 0.330532, 0.721477, -0.655842, 0.906871, -0.272115, 0.493022, 0.258325, 0.505817, -1.510615, -0.913653, -0.179335, -0.384008, -0.099993, 0.299027, 0.98996, -0.167976, -1.131706, 0.100198, 0.36802, -0.087531, 0.419309, 0.713212, 1.764235, 0.192061, 0.325016, 0.791764, 0.577131, 1.509609, 1.84178, -0.386768, -1.528876, 0.282024, -1.380927, 0.699787, 0.801616, 1.409303, 1.049652, 1.099332, -0.577591, 1.108131, -1.21782, -0.518724, -0.915397, 0.791811, 0.259176, 1.963284, -0.296406, -0.180829, 0.906674, -0.008105, 0.560868, -0.11773, 1.59191, 0.916425, 0.515359, 0.621165, -0.959718, -1.13794, -0.492516, 0.891402, 0.209758, 0.370677, 0.468831, -0.262076, 0.16887, 0.36996, 0.333583, 0.868133, 1.715271, -0.4862, 0.899254, 0.094206, 0.672282, -0.570954, -0.234783, -1.0423, 0.991888, -0.034631, -1.80763, -1.037697, -0.028233, -0.43825, -0.06325, -1.299751, 0.262621, 0.90913, 0.093184, 0.892157, 0.291114, 0.781945, -0.52594, -0.286196, -0.202728, 0.409628, 0.618631, -0.43189, 1.459222, -0.745972, -0.290446, 1.187997, 1.49081, 0.059069, 0.424083, 0.270609, -0.731689, -0.280762, 0.917235, 0.5132, -0.357792, 1.339407, 0.813276, 0.146791, -0.210084, 0.747061, 0.289489, 1.006199, 1.404806, -1.617553, 0.538479, 0.537079, 0.906792, -0.787143, 0.809884, 0.626819, 1.497755, 0.829881, -0.252814, -0.125624, 0.268192, 1.30003, 0.399939, -0.246674, 0.604123, -0.891747, 0.042164, 2.320611, 1.197129, 0.571624, -0.193649, 0.322407, -0.065457, 0.904294, 0.137174, -0.320286, 0.635981, -1.596392, 0.45822, 0.972354, -0.798799, -0.291278, 0.779679, 0.261252, 0.250726, 0.465341, -0.677732, 1.10082, -0.650964, -0.099103, -0.887537, 0.411945, -0.168602, -0.534718, 0.071404, 0.617768, 0.692813, -0.641774, -1.122568, 0.69575, -0.513508, 0.294229, -0.079737, -0.231845, 0.674739, 0.366918, 0.76853, 0.251113, -0.36932, -0.001028, 0.229966, 1.655472, -0.892035, -0.149264, 0.398815, 0.036922, -1.59712, 0.288696, 0.98752, 0.333317, 0.704118, 0.64799, -2.007717, -0.837841, 1.066709, -0.898627, -0.979175, -0.71239, -0.636455, 0.045442, 0.192904, 0.225009, 1.934106, 0.898894, 0.125884, -0.680201, -1.452443, 1.020373, 1.120295, -0.698142, 0.49328, -0.512402, 1.443008, -0.459786, 1.054874, 0.218527, 0.027198, -0.57441, 0.416465, 1.170787, -1.487452, -0.721918, 0.449832, 0.860361, 0.101891, -0.029758, 1.067056, 0.183893, 1.370661, 0.770111, 0.544354, 1.574865, -0.119551, 0.213067, 0.151092, -0.804871, -0.198426, -0.46352, 0.871864, 0.989733, 1.308264, 0.576615, 0.989667, -0.512557, 0.822749, 1.057665, -1.697781, -0.852594, -0.150471, 1.410849, 0.247928, 0.374175, -0.572089, -0.895718, 0.278937, 0.265433, -0.472323, 0.83489, 0.95324, -0.795335, 0.512244, -1.215965, 0.055301, -0.083878, 0.533441, -1.120905, -0.221977, 1.397792, -1.085312, -0.73493, 1.478143, 0.768842, 2.539725, 0.970262, 1.457079, -0.222066, 0.608201, 0.330027, -0.032646, 1.669878, 0.651287, -0.131663, 0.866816, -0.393903, -1.456833, -0.610332, 0.102816, 2.338959, -0.780102, 0.092506, 0.678765, 0.127374, 0.749235, 1.61275, 1.169539, 0.275981, -0.472409, -0.266459, 0.516656, -0.412014, -1.496364, -0.675058, -0.414486, 0.174143, -0.660032, -0.005638, 0.177189, 0.450445, -0.297399, -0.401219, -0.755057, -0.027102, -1.986819, 0.949383, -1.048349, 1.049086, -0.402266, 1.184283, 1.419455, -0.532695, 0.468385, -1.449901, 0.923272, 1.165049, -1.118351, 0.127805, 0.564293, -0.697492, -0.392034, 1.862937, 0.577185, -0.01284, 0.58621, 0.326485, -0.509799, 0.992663, 1.627977, -0.384409, -0.009245, 0.727807, -0.098531, -1.205652, -0.640577, -0.259498, 0.295262, 0.041365, -1.271566, 0.208664, -0.533248, 0.407747, -0.813054, -0.287911, 1.12025, 0.90171, 1.195828, 0.373255, -0.492329, 1.6897, 1.172921, 0.819296, -0.270858, -0.335311, 0.136856, -0.420363, 0.771827, 0.907437, 0.311279, 0.897854, 0.277539, 0.726333, -0.14398, 0.568332, -0.102577, 0.570023, -0.039317, -0.043536, -0.503543, 0.617396, -1.73826, -0.073376, -0.618551, 0.577455, 1.95356, 0.637102, 0.754732, 1.142385, 0.576335, 2.28158, 0.211068, -0.532449, 0.611409, -0.521469, 0.74826, -1.512572, 0.502374, 0.136419, 0.141429, 0.343806, 0.507592, 0.034378, 1.007722, 0.600871, 0.216131, -0.01905, 1.028706, 0.374579, -0.236213, -0.341703, -0.401498, -0.194529, -0.169369, 0.026768, -0.445856, -0.858153, -1.795927, 0.314729, 0.457812, 1.207406, 0.611809, 0.245094, -0.296967, 0.342287, 0.059536, 0.19452, 0.421294, -0.588318, -0.638333, 0.048232, -0.226255, 0.07404, -0.207293, 0.729176, 1.347321, 0.962829, -0.476889, -0.075458, 0.478352, -0.204959, -0.206583, 0.524855, 0.141796, 0.289997, -0.215539, 0.587928, 0.293102, -0.567501, 1.249648, 0.117264, 0.569899, 0.968456, 0.304726, 0.656785, -2.52617, 1.329249, -0.633928, -0.121447, -0.052416, 0.033221, -0.251066, 0.112098, -0.407234, -0.01104, -0.174506, 1.497418, 0.761792, -0.662394, 1.376367, 0.333401, 0.501864, 1.176488, 1.395237, 0.475912, -0.822879, 0.093631, 0.030685, -0.200588, -0.145643, 0.881123, 2.463955, -0.531319, 0.042358, -0.438934, 0.398184, 0.654376, 1.023034, -0.925537, -0.939569, 0.428352, -0.146886, -1.366632, 0.186318, -0.162509, -0.175349, 0.17809, -0.407852, 0.176639, 0.825829, 0.433721, 1.096321, -0.252381, 0.189782, 0.267829, 0.680078, 0.350811, -0.644429, -0.114408, 0.578254, -0.303152, 0.073267, 0.548101, 0.570796, 1.272625, 0.613579, 0.307333, -0.269219, -0.6699, 0.023127, 0.870324, 0.452833, -0.211381, 0.04765, 0.552108, 0.016443, -0.22739, 0.213851, -0.497988, 0.296027, 1.401545, -0.099343, 0.590297, -0.52483, 1.517892, -0.992369, -0.634635, 0.371853, 1.756047, -0.225305, 0.41174, -0.051289, -1.030333, -0.344152, -0.187147, 0.462329, 0.074769, 0.016899, 0.447791, 1.494409, -0.532222, -0.279488, 0.62505, 0.878357, 0.557123, -0.023897, 1.03744, -0.450065, 0.109628, -1.428824, -0.596218, 1.077378, 1.682461, -1.389559, 1.002047, -0.165336, -0.366742, -0.726253, 2.050461, -0.458382, -0.689918, 0.509947, 0.65229, 0.031996, 0.871673, -0.422502, -1.061646, 0.25803, 0.370071, -0.885622, -0.004975, 0.09191, -0.326426, 0.567837, -0.520101, 1.097045, -0.718983, 0.04608, 0.321397, -2.062775, 1.081306, -1.636145, 0.487467, 0.063281, 1.092124, -0.779446, -0.049313, 0.422055, 0.277911, 0.71237, 0.813941, -0.050863, -0.922868, -1.535069, -0.511799, 1.074472, 0.193313, -0.114555, 0.057365, -1.608393, -0.176919, -0.511027, -0.066909, 0.471963, 0.723787, 2.766992, 0.093157, -0.206496, 0.208031, 1.413672, 0.799375, -0.613801, 0.336274, -0.424709, -1.948653, -0.045793, 0.396804, 0.992998, 0.579153, 0.781734, 0.369371, 0.954965, 0.301433, 1.118621, 0.227095, 0.825078, 0.428622, 0.992056, -1.027474, 0.650006, 0.162364, 0.251554, 0.357534, -0.160832, -0.628796, -0.73836, 1.0657, 0.524477, -0.848641, 0.578394, -0.891161, 0.680406, 1.021649, 0.135383, -0.444323, 0.557607, 1.697846, -0.58681, 0.62959, -0.792813, -0.399038, 0.287965, -0.1523, 0.64431, 0.023434, 1.384764, 0.564689, -0.540276, 0.953333, 0.79678, 0.927005, 0.03884, 1.728801, -1.353927, 0.577361, 0.396165, -0.001002, 0.192898, 0.292198, 0.772335, 1.324278, 0.183796, 2.201541, 1.162333, 0.173904, -1.162873, -0.316305, 0.274724, 1.120352, 1.12519, 0.155555, -0.766237, 0.347535, 0.422983, 0.309854, 1.892477, 0.897235, 0.333968, -0.47671, -0.697775, 0.704079, 1.876644, 0.016338, 0.872681, -0.243431, -0.415358, 0.888912, -1.230908, -0.533503, 0.401067, 0.097659, -0.728365, 1.811383, -0.694181, -0.215096, 1.2027, 0.16932, 0.585223, -0.522442, -0.852681, -0.013408, 0.47001, 0.065959, -0.217581, 0.54269, 1.02426, -0.974782, -1.057951, 0.488807, 1.007871, 1.945013, -0.104925, -0.114636, -0.020321, 1.004722, -1.347037, 0.064345, 1.868026, 0.115571, 0.491993, 2.059619, 0.783189, 0.265027, 0.564332, 0.878542, -0.416542, 0.518718, -0.26753, 0.709231, -0.172157, 0.296657, -0.640091, 0.390654, 0.288907, -0.114107, -2.084963, 0.424984, 0.21847, 0.553345, 0.320465, 2.444189, 1.043531, 0.108756, -0.260649, 0.192959, -1.356506, -0.298385, 0.662356, 0.576421, 1.184908, 1.668812, -1.592025, -0.917494, 1.454265, 0.476967, -0.547769, 0.251043, -0.891154, 0.061046, 0.241914, -0.588661, -0.00834, 0.821105, 1.322245, -1.517734, -1.060719, 0.706889, 1.944044, -0.716496, 1.164203, -0.311543, -0.187666, -0.116058, -0.481387, -1.304311, 0.232128, -0.584612, 0.68797, 0.931669, 0.773915, 1.481512, -0.889685, -0.203596, 0.374503, -0.225432, 1.277134, 1.326997, -0.419225, 0.553573, 0.410277, 0.404459, 0.586164, -0.511811, -0.543444, -0.287385, 0.530017, 1.954468, 0.049642, -0.027084, -0.820186, 0.417923, 0.546323, 0.261838, 0.06351, 0.884316, -0.85393, 1.03007, -0.509318, 0.209416, 1.532048, -1.154427, 0.612271, 0.639774, 2.06978, 0.834335, -0.180544, -0.504, 0.053291, 0.753937, -0.151895, -0.082688, 0.703759, -1.52975, -0.186858, 0.098771, -0.551801, 1.209912, -1.098909, 0.805792, 0.220768, 0.819193, 1.478642, 1.794262, 0.730168, -0.421602, 1.720263, -0.001931, -0.559249, 0.558532, 0.691752, 0.883595, -0.513077, 0.496963, -1.55879, -1.677567, 0.004488, 0.184887, -1.088162, 0.97898, 0.952718, -0.931791, 0.810862, 0.812386, 1.090387, 1.424401, 0.989934, 0.382143, 0.428375, -0.400438, 0.244885, -1.877856, 0.944396, 0.673325, -1.153195, 0.102533, 0.117713, 0.168295, 1.018417, 1.657491, -0.682839, 0.042465, -0.566379, -0.266063, -0.755478, 0.634525, -0.444899, -0.563503, 0.166939, -0.522649, -0.126639, -0.924734, 0.49501, 1.115582, 1.464304, -0.282995, 0.833241, -0.783687, -0.321875, -0.501635, 0.883081, 0.949707, -0.035866, 0.73785, 0.027035, -0.001079, 0.598524, -0.354385, 0.913449, -0.006507, 1.213704, 0.985169, 0.260585, 0.555775, 0.077977, -0.329631, 0.043886, 0.357359, 0.294172, -1.786119, 0.080782, 1.006528, -0.765459, -1.231168, 0.21985, 1.27797, -0.018618, -0.118049, 2.255549, 1.282684, 1.459363, -1.435059, -0.221929, 0.590243, -0.232456, -0.588509, -0.211273, -0.081886, 1.05904, 0.74415, -0.071628, -0.550992, 0.416971, 1.893395, -0.327618, -1.496834, -0.008958, 0.461573, -0.563514, -0.201526, 0.479069, 1.176238, 0.56249, 1.156362, 0.337308, -0.537088, 1.413654, -0.054581, -0.971706, 1.860534, 1.318657, -0.063461, 1.297298, -0.303474, -0.199873, -0.633705, 1.118778, 1.569127, 0.423711, 0.068221, 0.936338, 1.278157, 0.628172, 0.841959, 1.500231, 0.110775, -1.006651, 0.010143, -0.775722, 1.109532, -0.278167, 0.064772, -0.116082, -0.467439, 0.669554, -0.132075, 0.280733, 0.15073, -0.296941, -0.229904, 0.832061, 0.152665, 0.219913, 0.665023, -0.843072, 0.280982, 0.671317, -0.276578, -0.112504, -1.72452, -0.173875, 0.46256, 0.115537, -0.214914, -0.037275, 0.344487, 0.424757, 0.067966, -1.070284, 0.269392, -1.03138, 0.019549, 0.414196, 0.851323, 0.285113, 0.176127, -1.364017, 1.617341, 0.74421, -0.248679, 0.932391, 1.692881, -0.10234, -0.865316, -0.31823, -0.213221, 0.519501, -0.768192, 0.028738, 1.617627, 1.070372, 1.272509, -0.336586, -1.091399, 0.167009, 0.587946, 0.351955, 1.308949, 1.556523, 0.602783, 0.301969, 1.35257, 1.173242, -2.493003, -0.050281, 0.737545, 0.47761, -0.719321, -0.025192, 0.412642, -0.636115, -1.570714, -0.737941, -0.207454, 0.891579, 2.113663, -0.312108, 1.06232, 0.222624, 0.361193, 0.54687, 1.151015, 0.593429, 0.155424, 0.286551, 0.561412, 0.643497, 1.944569, 1.460902, 1.17319, 1.76345, 0.393211, -1.356555, 0.405956, -0.340986, -0.485059, 1.863153, 1.022111, 0.919264, -0.669137, -1.426103, -0.088095, 0.511639, -0.435008, 0.14454, -1.610829, 0.135459, -0.054382, 0.614778, 0.02508, 1.871417, -1.077056, -0.244104, 1.56673, 1.401496, -1.061744, 0.729873, 0.512242, -0.997388, -2.088179, 0.329127, 1.067322, -0.203442, 0.693966, -0.444229, 0.255083, -1.121465, 0.802503, 1.953718, 0.633788, 0.829171, -0.134156, 0.458808, 0.985714, -0.205399, 1.466144, -0.340228, 0.741669, -0.520569, 1.362294, 0.452649, 1.433442, 1.489499, -0.536349, -0.995324, -0.582488, 0.623202, -1.336516, 1.566293, 1.107474, 0.489451, -0.215938, 1.566131, -0.172539, -0.684952, -0.14124, 0.112511, 0.176773, -0.000428, -0.311306, 0.104143, 0.245062, -0.13111, -0.09903, 0.860704, -0.608882, -2.515587, 0.586242, 0.824644, -0.704246, -0.019126, -1.433058, 0.804952, -0.62641, -0.170958, 0.565364, -0.432015, -2.629176, -1.151402, -0.860647, -0.01614, -1.082083, 0.832879, 1.217029, 0.891261, 0.751085, 1.492591, -0.843791, 0.800937, 0.504871, -1.841401, 0.789688, -0.263575, -0.64876, -0.604166, -0.503663, -0.487116, 0.445037, 1.095894, 0.85976, 0.051629, -0.64513, 0.108338, 0.335084, -0.800071, -0.5046, 1.168155, 0.911706, -0.197392, 0.49876, 1.995481, -0.81895, 1.174685, 0.282522, 1.279389, 0.720702, 0.35469, 1.656406, 1.106759, -0.293431, 2.235566, -1.169108, 0.53468, -0.252991, 0.087544, 0.942867, -0.027333, 0.224159, 0.777543, -0.225166, 0.655051, 1.904675, -0.173981, 0.596625, 1.298218, 2.363234, -1.003011, -0.966031, 1.215941, 1.093879, -0.088976, -1.317641, 0.093279, 0.441788, -1.670051, 0.558125, -1.934228, -0.108275, 1.304898, 0.81923, 2.36159, -0.460192, -0.702968, 0.859884, 0.194005, 0.610102, 0.85635, 0.679288, 0.917657, 0.973809, 1.218911, 0.288645, -1.628459, 1.137569, 0.65921, -1.392424, -0.39228, -0.488751, 0.533473, 1.275691, 0.773233, 0.613064, -0.485597, 0.398022, -0.55021, 0.716731, 2.389477, -0.16044, -2.400303, 0.688581, 0.889396, 0.873307, -0.115615, 0.508287, -0.526444, -1.053623, -1.732371, 0.373966, 0.53126, -0.894219, 0.877149, 0.776946, 1.076556, -0.190859, -1.344774, -0.884696, 0.145801, 1.858534, 1.742496, 0.030438, 0.211102, 0.988323, 1.230837, 1.786812, 1.354904, 0.882219, -1.047897, -0.359892, -0.641002, 0.632075, -1.353319, -0.107347, -0.057454, 1.95586, 1.071741, 1.398087, 0.93844, 0.058055, -1.666513, 0.810106, 0.301488, -0.270371, 0.124903, 2.848123, -1.886888, 0.59855, 1.06868, 0.34395, -0.928821, 2.350536, -2.936622, 2.073043, 0.685628, 0.511287, -1.007362, -1.800713, 0.634817, -0.472732, 0.870641, -0.45308, 0.951739, -0.011422, -3.379041, 0.732027, 1.183039, 0.560786, 1.469625, -0.286561, -0.059436, -0.252321, 1.465052, 1.510626, 0.409926, 0.871727, 0.178169, -0.203628, -0.09755, -0.486998, -1.632201, 0.342337, -0.269708, 1.328692, 0.409291, 0.232269, 0.559186, -0.562543, 0.130595, -2.337682, 0.160703, -0.383522, -1.291094, 1.197822, -1.633969, 0.5171, -1.322935, 0.384262, 0.752713, 0.174416, -0.556245, 0.298305, -0.075678, 0.093388, 3.473772, 2.253833, 0.775255, -0.092254, 0.903061, 0.296056, -0.421713, 0.326842, 0.999054, -0.870399, -0.148489, 1.61071, -1.232089, 2.779169, 0.363915, 2.447878, 1.949432, 0.223701, -0.799658, 0.116839, -0.363499, 0.221591, -0.056024, 0.968717, -1.999084, -0.640059, 0.70556, 2.090372, 1.126143, 1.491284, 0.591291, -1.54037, -0.950838, -0.061812, -0.540967, 0.795904, 0.032346, 1.147506, -0.633904, 0.544473, 1.400678, 1.049138, 1.125659, -0.88723, -1.762856, 0.213513, 0.180128, -3.959652, 0.559292, -0.985109, -0.262361, 1.397008, 2.153999, 0.422081, -0.248856, 0.544939, -0.709938, 2.061085, -0.318363, 0.854236, -0.464467, -1.377266, -1.217645, 1.579486, 0.637415, -0.125668, -1.91267, 0.135708, 0.868397, -0.476724, -0.337921, 1.517461, -0.217046, 0.732524, -0.145087, 0.350715, 2.238159, 0.425858, -0.409966, 2.630057, -1.064198, 0.662213, -0.204181, -0.195081, 1.030198, -1.968519, -0.224233, -1.244702, 1.153381, 0.536675, -0.182491, 0.378507, 0.932138, -0.357342, -0.981396, -0.470406, -0.367029, 0.986813, 0.892164, -0.302909, -0.630917, 1.278497, 0.162112, -0.52095, 0.232224, 1.261198, -0.955398, 0.211621, 0.106641, -2.613342, 1.050545, -0.316593, 0.467933, -1.136429, 0.258381, -1.093751, 0.839872, 2.183469, -1.246058, 1.022149, -0.31706, 1.794731, 0.213482, 0.6947, 0.365448, 0.994539, 0.886249, -0.257132, -0.580165, 2.564306, -0.875294, -1.692801, 0.653593, 0.612966, 0.189943, -0.611973, 0.941664, 1.386718, -0.282254, 0.664606, -1.28537, 1.161026, -0.46071, -0.343072, -0.948311, 0.990029, 0.323733, -0.307196, 1.228583, 0.523566, -0.366008, -0.472129, -0.833351, -0.188207, 1.473953, -0.670959, 0.275225, 0.872725, 0.480775, -0.110108, -1.506321, -0.374762, -0.901113, -0.719707, 1.362478, -0.36915, 1.70245, 0.748333, 0.715068, 0.403442, 0.250594, 1.022421, 0.864064, -0.444316, 2.391014, -1.851716, -0.10729, 0.936302, 1.663673, 0.459223, 0.863524, -0.756556, -0.360442, 0.104927, 0.30882, 0.119153, -1.26982, 0.368613, 0.901369, -1.129022, -0.306676, -0.008978, 0.123439, -0.698857, 0.702351, -0.167171, 0.883753, 1.378942, 0.178195, -0.012947, -0.153722, -1.64483, 0.007106, -0.727939, 0.395738, 0.737508, 0.749981, -1.039364, 0.862607, -3.503094, -0.243704, -0.667114, -0.622296, 1.493071, 0.971643, 1.097275, 0.150987, 0.434612, 1.322289, -0.406, 0.973427, 0.625512, -0.685126, 0.90824, -2.479287, -0.390598, 0.006976, -0.89863, -0.597114, -0.538615, 1.352797, 1.019464, -3.21739, 2.793226, 0.186151, 1.419391, -1.413801, 1.244235, 0.443326, 0.383133, 0.214832, 1.393557, 0.025675, 1.384543, 1.84667, -1.46013, 0.442151, 0.999926, -1.35987, -1.001501, 0.28611, -0.310739, -0.235387, -1.864611, 2.078704, 3.030841, -0.206455, 0.3307, 0.22281, 1.430714, 1.53372, 0.127873, 0.079225, -0.481263, -0.375309, 1.665757, 0.610918, 1.263771, 2.700173, -0.110549, 0.225309, -0.527606, 0.507315, 1.660122, 0.587958, 0.063318, -0.313657, -4.240736, 2.242627, -2.381468, -0.895858, -0.609305, 2.419794, 0.859122, 0.445581, 2.076188, -1.439802, -1.169488, -1.388286, -0.868435, 0.959043, -1.045786, 0.083031, 1.32343, -0.292318, -0.198666, 0.813025, 0.628191, -0.74372, -0.080525, -0.581462, 0.008584, 1.904308, -0.292763, 0.111541, 1.584152, -0.957952, 0.946145, 2.749953, -1.717323, -1.016638, 1.024752, 0.311131, 0.250174, 0.951711, 0.340268, 1.444006, -1.314763, -0.663367, 0.236339, 0.268396, 1.301849, -0.336817, 0.137351, 0.831416, -0.343501, 1.680051, -0.021299, -0.57413, 0.072433, 0.300643, 0.116922, 0.263012, -0.492456, -0.447298, -1.252378, 0.252853, -0.092607, -2.028175, -0.601248, -0.341605, -0.55704, 1.660728, -0.942494, -1.708078, -0.322095, 0.657573, 1.9468, 0.187979, 1.366226, -1.866386, -1.261926, 0.702191, 0.670417, -0.714233, -0.5967, -1.271665, -1.518877, 0.866713, 0.394033, -0.640162, -0.430388, -1.131304, 1.3675, -0.54533, -0.284522, 0.598334, -0.373603, -0.887954, 0.636418, -0.446026, 0.371889, 0.346465, -0.565498, 0.414648, 1.620185, 1.809027, 0.825296, 1.630623, 1.036851, -1.538362, -2.557857, -1.204336, -0.061897, 1.03005, 1.298197, 2.632733, -1.143487, -0.31604, -1.562691, -1.537748, 0.02029, -1.206362, 0.923369, 0.262538, 0.418717, -0.84107, 0.038334, -0.258397, 1.869314, 1.352004, -0.280938, 0.26354, -1.401797, 0.369284, -1.627582, 2.009701, -0.190099, -0.53742, -1.014181, -0.64796, 0.57018, 1.280632, -0.295655, 1.676706, -2.033854, 0.647126, -0.675372, 1.958122, 0.846888, -1.068531, 0.223649, 0.55323, 0.652217, -0.162099, -2.289333, -2.631722, -0.027692, 0.145315, -0.4169, -1.489045, 0.779802, 0.860454, -0.197249, 2.748426, 1.784736, 1.393996, 0.180488, -2.114973, -0.543032, 0.999578, 0.074834, 1.276121, -0.367948, 1.853348, -2.044316, 0.861107, 0.15559, -0.393069, 0.752936, -0.246555, 0.139344, 0.626211, -1.315308, -0.167882, -0.309445, 1.46177, -0.548344, 0.0414, 0.095833, 0.988265, 0.188557, 0.418031, 0.078193, 2.897801, 0.694715, -1.396632, -0.072288, -0.60156, 0.985247, 1.096679, -2.474307, -1.430792, -0.042145, -1.414021, -0.133729, 2.176051, 0.329672, -2.576643, -0.2754, -0.187274, -0.726952, 0.069461, -0.741216, 1.550314, -1.04762, 0.568917, 0.191538, 0.970183, -0.180022, -0.452591, 1.168192, 2.190096, 1.124045, -0.227937, 3.768622, 1.155673, -1.909638, -1.824011, -0.891805, 0.205261, 1.236303, 0.055406, 1.277441, -0.789692, 1.407141, 0.792615, 1.206684, -0.83134, -1.350241, -1.182546, 1.805129, 0.356154, 2.033617, 0.500801, -1.956614, 0.856305, -1.10526, 0.544982, -0.273221, -0.141761, 0.668046, 1.48315, 1.35078, 0.81993, -0.749861, 0.93435, 1.33474, 0.12933, -0.825779, -0.104388, -2.188763, 0.637213, -0.571586, -0.004541, -2.059896, -0.281976, 0.363764, 1.492068, 0.979549, 0.205687, 0.645901, -1.837642, -3.944487, 0.489063, -0.829979, -0.01843, -2.498852, 0.199949, -0.701339, -0.6042, -0.081456, 1.521927, -0.563345, 0.050486, 1.761461, 0.606674, -1.968133, 2.982549, 0.583454, 0.587438, 1.008569, -0.123413, 1.642435, 1.188438, -1.804247, -2.216563, -0.26789, 1.007702, 1.49991, 0.198761, 1.064502, 0.628045, -0.534033, 1.605122, -1.789524, 2.10422, -0.750104, 0.047545, 0.957712, -0.18791, 1.122151, -0.401271, -0.680986, 0.057504, 0.233074, -0.242876, -0.438504, 0.569706, 1.498434, -0.865466, 0.918868, -3.125185, 0.422015, -0.598412, -0.188559, -2.377606, -1.302546, 1.05215, -0.018826, -0.202083, -0.547666, -0.10919, 0.211863, 0.158914, 2.389612, -1.794115, -0.546902, -1.197036, -0.219689, -0.38151, -1.660552, -0.421217, -1.065574, 0.008461, 1.086354, -1.560083, -1.090343, 0.825899, -2.35201, 1.068438, -0.86206, 0.337886, -1.605492, 1.520028, 0.447897, 1.476757, 0.61724, 1.909975, -0.647037, -0.827086, 0.80348, 1.046845, 2.524618, 0.720174, -0.147119, 0.010971, -3.891169, 0.571527, -0.209491, 0.982641, -0.704406, -1.411796, -0.998233, -0.045481, 0.570509, 2.24994, -0.945833, -0.463872, 0.525788, 0.670583, 1.798196, -0.226942, -0.027237, -0.86467, 0.98134, -1.161904, 2.003114, -1.15545, -0.230186, -2.857821, -1.86154, -2.280254, 0.233822, -1.533726, 2.587417, 1.313963, -0.899432, 0.480265, 1.165992, -0.204614, -0.161703, -0.266125, -0.438121, 2.536015, -0.747717, -1.125586, 0.154047, 1.247795, 0.099895, 0.524517, -0.880846, -0.144029, -1.544335, 0.578027, -0.706858, 0.247743, 2.687563, 1.096048, 0.716476, -0.188984, 3.630885, 0.10339, 0.946871, -1.35479, -1.421499, 1.803778, 1.690569, 0.485581, -0.405581, 0.434004, -0.08521, 1.12614, 0.529764, 0.040397, -0.948202, -1.77918, 0.462977, -0.477134, -0.395738, 0.973532, 0.346096, 0.989156, -1.35036, 0.50183, -0.050501, -0.559197, 1.365305, -0.027427, 0.679199, 0.055238, 0.532174, -0.926715, 0.604718, -0.741108, -0.222617, 0.488608, 0.221309, -0.453584, -0.631591, 2.141043, -1.354727, -2.930513, -0.349798, 1.390314, -1.58163, -0.706495, 1.520594, -0.066341, 1.315654, 0.659106, 0.122218, -2.457002, -0.095968, -0.490498, 0.009678, -0.840882, -1.303878, 1.366006, 0.605772, 1.569715, 0.739117, -0.126338, 1.282143, -2.276002, 0.347489, -0.320048, 1.416143, -0.954174, 0.212942, -0.905885, -0.446367, 0.83562, 0.966697, 0.157869, 0.338811, 1.591787, -0.04654, -0.183073, -0.092339, -0.448916, 1.333811, 0.948801, -1.310996, -0.434087, 0.86786, 0.63456, -0.256406, -0.073686, -0.283237, 0.642581, 0.148175, -1.821428, -0.600871, -0.695779, -1.293673, -0.300351, -2.503054, -0.970898, 0.379839, 1.754681, -1.140086, 1.276058, -0.71024, 0.08859, -0.077892, -1.593212, -0.487191, -0.809519, -0.003566, -1.052461, 0.538323, 1.661189, -0.629303, 1.012719, 2.610973, -0.468485, -1.198152, -1.016298, -1.621314, -0.401998, 0.15351, -0.789151, -1.27817, 2.296639, 0.975936, 1.469198, -0.241088, -1.513326, -0.423148, -0.667963, -2.976809, -0.456037, -0.785667, -0.521285, -0.895798, -1.328362, 0.246178, 0.088535, -0.349851, 0.410125, 0.555296, -1.395091, 0.825371, 0.336266, 0.267823, 1.967494, -1.171456, 1.353295, -1.080826, -0.407629, 1.384058, 2.063916, -1.544611, 0.649753, -0.736997, -0.333478, -0.239174, 0.537544, 1.847919, 1.241556, -0.514391, 1.825479, 0.479545, -0.619158, -0.849837, -0.192992, 0.585946, 1.345738, 0.62425, 0.274044, -0.614265, 0.017442, -1.272408, -0.050166, 0.924958, 0.944825, -0.981203, -0.695529, 0.425664, 0.093351, -0.194896, 2.128117, -0.176888, 0.104076, -0.788749, -0.13447, -1.774921, 0.321545, 0.846022, -1.579896, -0.653111, 0.122092, 0.030053, -0.945932, -1.956903, -1.087131, 0.338809, 0.003016, 0.518034, 0.253446, -0.916905, 0.23693, -0.279126, 0.345635, 0.00746, -0.799155, -0.196473, -2.62769, -0.472636, 0.798686, 0.345507, 1.688697, -0.717629, 0.702813, 0.039527, -2.356763, -0.299043, -0.103945, 0.069541, -2.189662, -0.864735, 0.446591, 0.541104, 0.749014, 0.077781, -0.012312, -0.417935, -0.560629, 0.172387, -0.061661, 0.527306, 1.174871, -1.026661, 1.753978, 0.109909, -0.387329, 0.339802, -0.718831, -0.835634, 0.389743, 0.156736, 0.182146, 0.399497, -0.145648, 0.084254, 1.895227, 0.888833, 0.39269, -1.389079, 1.16955, -1.309682, -1.615301, -1.555622, -0.929059, 0.021603, 1.269345, -0.508561, -2.049482, 0.773025, 0.32845, -0.597929, 0.505546, -0.334184, -0.048344, -0.31107, 0.611101, 1.831833, -0.045922, 1.111419, -0.778749, -1.784946, -0.456032, 0.462069, 0.190969, -0.516144, -0.447392, 0.01535, 1.083306, -2.103976, -1.407434, -0.188457, -0.497088, 2.124492, 0.158906, 0.908026, 1.156716, 0.706401, 0.448477, 0.063124, -0.912591, -0.843385, -0.119616, -0.296786, 0.391797, 0.61203, 0.769853, 0.197876, 0.819509, 1.117016, 0.005769, 0.240649, -0.002883, -1.3352, -0.245846, 0.326249, -1.436868, 0.371734, -0.654024, 0.085177, 1.316811, -0.08269, -0.744914, -0.579369, 0.765605, -0.518138, 0.863827, 0.151985, 0.451143, -1.111467, 0.150987, -2.35019, 0.830397, -1.325792, 1.169007, -2.125087, -0.427131, 2.183907, 0.101736, 0.90005, 0.250379, -0.673719, 0.812114, 2.953156, -0.692944, -1.36754, 0.53257, 0.662952, -1.167732, -0.66847, -1.149207, 1.969157, -0.623098, -0.163342, 0.774793, 0.542814, -0.216053, -2.566478, -0.386933, -0.14249, -0.380722, -1.304211, -0.733999, -0.851523, -1.001854, -0.277795, 0.872385, 0.046665, 0.542896, 0.431855, -0.122917, -2.211815, -0.444358, -2.079641, -0.666194, 0.627205, -0.050662, -0.676398, -1.413872, 0.533978, -0.784893, -0.579033, 0.301747, -0.498979, 0.152752, -0.581368, 0.096478, 0.159873, -0.008054, -0.639149, -0.490984, -0.072912, 0.468711, 1.887632, -1.213103, -0.751863, -0.006356, -0.586195, -0.480136, -1.14193, -1.020408, 1.355073, 1.850207, 0.009805, 0.0043, -0.801246, 3.024372, -0.113904, -0.532348, -0.118809, -0.649074, -1.374526, 0.471433, -0.967684, 0.560568, 1.673411, -1.637124, -0.967543, 0.740253, -0.535507, -1.419906, -1.055317, 0.454966, -0.150987, 1.573948, 0.302211, -0.868521, 0.00865, -0.322099, 0.161172, 2.286813, 0.679881, -0.199173, 0.522807, -0.59727, 0.242281, 1.369453, -0.531121, 0.494021, -1.458151, 0.581898, -0.300694, 0.574574, -0.219724, 0.247275, 0.256708, -1.196171, 0.096639, -0.205041, 0.719226, -0.44024, -1.198513, 1.665216, -0.775091, 1.313226, 1.723207, 0.644077, -0.261639, 0.716317, 0.305591, 1.292548, -0.792686, -0.155455, -0.274567, -1.474687, 1.87104, 0.92614, -1.54182, -0.295015, -0.627965, 1.155781, -1.204941, -1.568388, -0.224792, -1.240021, 0.579721, 0.439225, -0.117902, -0.722424, 0.013678, 1.12381, 0.975331, -1.080972, -1.939791, -0.136428, -0.153752, -0.809285, 0.620043, -0.327244, -0.261161, 0.320243, 0.045324, 0.476779, 0.219911, 0.345746, -1.125592, 0.834994, -0.447336, -0.323375, 0.091475, -0.559314, 0.872431, 2.448936, -0.65674, 2.619292, -0.483957, 1.684796, -0.187542, 1.723831, 0.391389, -0.584623, 0.561068, 1.08084, 0.620915, -0.223653, 1.098781, -0.787266, 0.163071, 1.194873, -0.94142, 0.653026, -0.896338, -0.311839, 1.762984, -0.396752, 1.063583, -0.275712, 1.758034, -0.562642, 0.210941, 1.346291, -0.857326, 0.71812, 0.709496, 0.339932, -1.642061, 0.965768, -0.114107, -1.310477, 0.780248, -0.562641, -0.738087, 0.915267, -2.103476, 0.644465, 0.740521, 0.968635, 0.121195, 0.498667, 0.93496, -0.805459, -1.304066, 0.280168, 1.561174, 0.29811, 0.5419, -0.605567, 0.849273, 2.052552, 0.417565, 0.984232, 0.471758, -0.321236, 0.049648, -0.696831, 0.155266, -1.365429, -0.487733, -0.948305, -0.182661, -0.023069, -0.751114, -1.541547, 0.204806, 0.392788, 0.16298, -1.16081, -1.302055, 0.636865, -1.400244, -1.432663, -0.472083, 0.80084, -0.760063, -0.312576, -0.471209, -1.470485, 0.508126, -0.259642, 0.273771, -0.046117, 0.787119, 1.774566, 0.761261, -2.207117, -0.548849, 0.782514, 2.208095, 0.304874, 1.140865, 0.797053, 0.066422, 1.350449, -1.867267, -0.55793, 1.45938, -0.538788, -0.705865, -0.258544, -1.02164, 0.371862, 0.28171, -0.064287, 0.020032, 1.416487, -1.046502, -0.118886, -0.139609, 0.369114, 0.694482, -0.34894, -1.19627, -0.311342, -0.28677, 0.454996, -0.452944, 1.521564, -2.383878, -0.09607, -0.802076, -1.816562, -0.674247, -0.944185, 0.346159, 0.57068, 0.211884, -1.04037, 1.915379, 0.7579, 0.024925, -0.011135, 0.038472, 0.353094, -0.474225, -0.354841, -0.118301, -2.120364, -0.388512, -0.706491, -1.734785, 0.162997, 0.596043, -0.761854, -0.439626, -0.042617, 0.159041, 1.458758, -1.556866, -1.163269, 1.016439, -0.135534, -0.327812, 0.365484, -1.520969, 0.561967, 0.853898, -0.462671, -0.804141, -0.61026, 0.43601, -0.697612, 1.31753, 0.52588, -0.744222, 1.247632, -0.058182, 0.73112, -0.75808, 1.018631, -0.018606, 0.218759, 0.623998, 1.03213, -0.001556, 0.059651, 2.220193, 0.031581, -0.832649, 0.877974, 0.723693, -0.14281, -1.638534, -1.145352, 1.166664, -0.466468, -0.129255, -1.546898, -1.233042, -0.553187, -0.681062, 0.559575, 0.929795, 0.501901, -0.196038, -0.532108, 1.523952, 0.651187, -0.078955, -1.322625, 0.228797, 0.024307, -1.206451, -0.564142, -0.032788, -0.781104, -0.062348, -0.035915, 0.032255, -0.531946, -1.62902, -0.426146, 0.303719, 2.204396, 0.274667, 0.302706, -0.350535, -1.104029, 0.526089, -1.157585, -2.770442, 0.539417, -0.248273, -0.996235, -0.060386, 0.951693, -0.682613, -0.156266, -1.769018, -0.789114, -0.026067, -1.320125, 0.774041, 0.54006, 0.590193, 0.446309, 0.993862, -0.092672, -1.235753, -0.04326, 0.962896, 1.561781, -0.705127, -1.05918, -1.669445, 0.788488, 0.135154, 0.067365, -0.441714, -1.609038, -0.953666, 0.719113, -1.085467, 0.738843, -1.118302, -1.177561, 1.858313, 0.272948, -1.249821, 0.485154, -0.142527, -0.09717, -0.364071, -0.3394, 1.443992, 0.42774, 0.155017, 1.490287, -0.48047, 0.750386, -1.162886, 0.012407, -1.98463, -1.017552, -0.53904, -0.336237, 0.254555, 0.055912, 1.968597, -1.135154, 0.538435, 0.100506, -0.106294, 0.618361, -0.562996, 0.517802, 0.617577, -0.391689, 0.503473, 0.10699, 0.140475, 1.37833, 1.587673, 0.281134, 0.171262, 0.409979, -1.61198, -0.247512, -0.125483, -0.079102, -1.389759, 0.700641, -0.557347, -1.013676, -0.64591, -0.771858, 0.713274, 0.183607, -1.489593, 2.041903, 0.799306, 0.211745, 0.621438, 0.340842, 0.551344, 1.863586, -1.240929, 0.094154, 0.409248, 0.193034, -0.088709, -0.326869, 1.626784, -1.604043, -0.779953, 0.197478, 1.49104, 0.472389, 0.380333, 0.516536, 0.8105, 0.227185, 0.070422, -0.198976, 0.442511, 1.519049, 1.287895, -0.191206, 0.176025, -0.694335, 0.450725, -1.266427, 0.463781, -0.35906, -0.67916, 0.027726, -0.670205, 0.165821, -0.527219, -0.046668, 0.399044, 1.355644, -0.810821, -0.741616, -0.609979, -0.188182, 0.063009, -0.624033, -0.715294, 0.114932, -0.12905, -1.728755, 2.473387, -0.390077, 1.041153, 1.679944, -0.702211, 3.079643, -0.96687, 0.562595, -0.111909, 0.110537, -1.280069, -0.68716, 1.72301, -0.761178, -1.798103, 1.549633, 0.018852, -1.059607, -0.361399, 0.594912, 0.121591, -0.934927, -0.02201, -0.753264, 0.15896, -0.218903, 0.807431, 0.365309, 1.566763, -0.810978, 0.871236, -2.502635, 1.959357, 0.544509, 1.723783, -1.691168, -0.567313, -0.293675, 0.479403, -1.203773, 0.275991, -0.812518, -0.524589, -2.055706, 0.4107, 0.589217, 1.224799, 1.369053, 1.309181, -0.020371, 0.527965, 0.47612, -0.467056, -1.695716, 0.807912, 0.675348, -1.639756, 0.290578, -0.0712, 0.167447, -0.32579, 1.008921, 1.246808, 1.317269, 0.660831, 0.295174, -0.450088, 1.91135, -0.090118, 1.244861, -0.969801, -1.04568, 0.938726, -0.100513, 0.33535, 0.32256, -0.396406, 0.494936, 0.879334, -0.402255, 0.315545, -2.073313, 1.208439, -0.275194, -0.021319, -1.27952, 0.506849, 1.661394, -0.259957, -0.687593, -0.76463, 0.567622, -1.091665, -0.855994, 0.996794, 0.145087, 0.598248, 0.075228, -0.46299, 0.162877, -0.704044, 0.269189, 0.91409, -0.130632, -1.155549, 0.584366, 0.348461, 1.812423, 1.243024, 0.719959, 0.595727, 0.387829, -1.540521, 0.656705, -1.942949, 0.20331, 0.705626, 0.100488, -0.095667, 1.864522, -2.202021, 0.687702, -0.499146, -0.004537, 0.42093, 0.512121, -0.606492, -1.22304, -0.684655, 0.106287, -1.491289, -0.593122, -1.011035, -0.625688, 1.020337, -1.299229, 0.613549, -1.60217, -1.255413, -0.997235, 1.694841, -1.660576, 2.272402, 1.910381, -0.788345, -0.509393, -0.943353, -0.853663, 0.58249, -0.048437, 1.153767, -0.109477, -1.05974, -0.899281, -0.766432, 1.192253, -0.893462, -0.956935, 0.868382, -0.207239, 0.429936, 0.09567, 1.916426, 0.651053, -0.835473, 0.86181, -0.733805, 1.092985, 1.13543, -1.452216, 0.481709, -0.802818, -1.287141, 0.310361, -2.482799, 1.221532, -0.135282, 1.47366, -0.335164, 1.148001, 1.108066, -0.067441, 0.398934, 1.43118, 1.63578, 1.258, 0.696221, -0.217439, 0.183998, -0.329723, -0.522579, -0.472849, 0.216315, -1.903396, -0.566875, 0.784218, -0.312903, -0.612029, -0.979893, 0.542688, 0.282493, -0.057541, -0.556038, 0.716455, 0.129863, 0.288417, -0.363679, 0.699946, -3.180459, 0.610897, 0.017374, 0.53953, 1.495308, 1.270835, -1.074215, -0.201415, 0.458105, 0.99262, 2.266163, 0.718575, -1.709818, -3.236665, 0.449939, -0.47062, -0.91016, -0.570652, 0.507817, -0.361443, 0.364387, 0.06231, 2.314966, 1.066699, 0.356547, 0.89123, 0.010543, -0.057726, 0.024995, -0.050829, 0.124208, -0.681162, -0.824888, 0.327416, -0.730482, 0.39477, -0.055083, 0.149318, 0.370239, 2.152475, 1.431311, 2.650385, 0.534591, -1.769173, -1.759964, 2.05244, -0.843219, 0.426036, -1.226689, 0.483052, -1.54347, 1.069575, 0.784533, 1.099775, -0.347126, -0.180337, 1.164957, -0.173574, 0.736184, 0.111831, -1.967222, 0.889787, 1.908516, -2.602257, 1.921484, -0.222552, 1.024884, 1.00109, 1.801476, 0.06866, 2.165439, -1.157289, 0.376421, 0.52269, 2.214875, 1.533471, -0.398783, 0.607114, -0.986857, -0.10875, 1.274487, -0.735688, -1.171319, 0.324266, -1.221642, -1.67047, 0.198053, 1.08425, -0.396531, 0.640339, 0.948731, 0.759792, -0.326558, 0.678431, 0.110994, 1.192564, -0.676167, -0.412045, 0.923086, 0.881653, -0.295472, -1.221213, -0.419078, 1.092694, 1.541376, 0.320165, 0.882168, -0.423515, -0.990172, -0.801156, -0.834865, 0.849064, 0.030185, -0.33698, -1.126237, -0.177993, 1.802335, -0.344669, -0.947494, -0.100252, -0.107047, 0.359842, 0.136491, 1.027245, -0.017104, -0.193528, 0.225795, 1.313197, 1.139256, 0.692424, 0.335241, -0.967274, 1.359438, 0.615946, 0.819041, 0.335039, 1.512103, 1.860551, 0.334442, -0.017349, -1.202514, 1.494438, -2.218714, 0.633308, 1.932036, -0.513357, 0.550307, -0.778966, -1.853938, -1.232906, -0.205329, 1.726524, 0.862374, 1.196992, 1.064195, -0.393392, -1.012673, 0.183855, 2.309225, 1.999836, 0.170391, -0.487367, -1.176093, -0.497234, 0.676138, -1.195933, -0.362036, 0.081643, 0.544299, -1.124016, 0.346791, -0.559502, 0.256464, 1.173952, 0.77783, 1.24219, -1.312516, -0.165661, -0.711486, -0.414013, 0.081543, 1.115252, 0.080394, -0.795605, -0.212801, 1.982838, 0.043254, -0.256549, -0.567448, 0.154863, 0.570598, 1.993998, 1.250842, -1.429987, 1.548914, -2.358134, 0.400614, 1.449296, 0.27132, 0.032275, 0.138166, -1.761321, -0.572482, -0.155246, -3.007375, 0.18963, -0.74201, 1.266871, 0.039656, 0.968456, -0.819508, -0.175014, -1.377397, -0.579939, 0.795972, 0.193227, -0.358084, 2.008841, -0.437135, -1.696049, -1.379493, 0.776308, 1.744131, 0.446447, 0.134563, -0.26571, -0.481401, -1.477802, 1.064693, -0.453132, -0.131931, 1.616932, 0.351263, -0.187731, 2.221785, -0.635439, -0.729725, -0.825273, -0.349707, 0.648862, -0.422901, -1.178532, 0.466394, -1.03671, 1.251737, 0.99579, -2.582806, 0.082203, -1.077416, 0.09319, 0.924151, 0.333884, -0.469937, 0.558266, 0.068142, 0.64332, 0.44155, -0.977673, 1.606991, -0.966797, -0.895502, 0.456861, -0.183797, -0.127029, 0.015793, -2.458586, 0.563389, -0.192417, 0.387385, 0.05716, -1.297834, 0.087356, 0.988074, 0.696583, 0.351551, -0.784124, -2.034349, 0.483762, -0.496385, 0.714698, -0.037068, 0.600768, 1.083592, -0.783584, -0.632813, -0.217018, 1.54302, 0.21859, -1.697149, 0.69243, -1.06514, -1.399952, 1.359273, -1.215244, -0.322791, 0.561909, 0.160781, -1.484732, -0.39283, 0.269675, 0.673593, 0.162113, -0.874528, -0.008444, -0.296341, -0.316316, 0.059194, 2.405508, 0.791669, 0.745485, -0.015668, -0.356596, 0.435938, 1.304087, -0.268021, 0.397064, -2.887548, 0.391374, 1.817132, -0.218065, 1.905466, -2.698384, 2.600117, -0.432457, 2.327447, 1.528876, -0.409998, -0.857024, -0.634891, -2.895984, 1.3472, -0.549553, -1.064949, -0.660162, -0.893963, 1.014219, 0.985894, 0.736596, -1.565318, 1.351746, -0.495906, -1.036794, -0.528693, 1.352826, -0.822944, 2.560172, 2.342304, 0.347709, -0.118254, 0.244391, 1.138015, -0.040597, -0.329574, 0.280074, -1.819827, -0.951596, 0.245713, -0.185947, -0.795545, 0.091474, 1.799247, 0.661252, 1.251743, -0.437277, -0.773907, -0.738613, 0.855893, 0.30825, -0.60612, -1.17108, 2.53411, -0.433577, 0.391265, 0.270476, -2.510051, -0.816432, -0.253022, 1.468869, 0.971304, -0.635234, -0.731021, 0.525283, 0.607004, 0.343129, 2.624153, 0.412187, 0.580589, 0.191494, 2.380629, 1.337855, 0.581407, 0.373027, 1.342995, -1.047277, 1.213776, 2.012582, -3.25545, 1.372615, -0.396112, 0.810227, 0.859255, -0.74654, -0.328725, 0.170225, 0.594347, 0.368913, 0.350227, -0.265661, -0.8768, 1.284426, -1.022521, 1.297799, -0.038704, -0.179886, 2.725927, 2.162685, 0.806094, -0.250929, -0.677803, -0.502124, 1.130742, -0.98021, -2.28136, -1.154594, 0.501722, 0.13679, 1.525187, 0.053429, 0.365143, -0.927216, 0.592452, 0.468739, 0.302395, -1.18688, 0.152965, 1.349311, -1.31819, -0.815761, -0.921576, -1.803035, 1.277217, 1.483822, 2.67784, 0.676905, -0.967003, 0.396512, 0.966882, -1.554467, -1.340352, 0.637313, -0.079071, 2.561388, 0.151714, 2.470689, 0.546463, -0.632361, -0.027994, -0.638037, 0.610943, -0.31373, -2.685018, -1.770608, 1.393256, -0.272851, -0.450461, 0.426261, 0.895194, -0.160736, -0.52504, 0.571099, 2.421839, -0.754239, 1.341107, -0.03154, 0.971962, -0.696114, 0.156058, -0.642884, -0.449316, 0.589174, -0.332946, 0.764534, 0.397424, 1.428089, -0.172712, 0.541845, 1.3741, -0.739145, 0.760119, -0.405728, 2.523265, -1.277868, -0.87204, 1.616079, -0.171988, 0.076789, -1.320539, 1.255801, 0.864041, 2.001778, 0.595267, -0.800262, -0.494774, -0.690497, 1.541783, 0.338232, 1.074515, 1.502027, 0.753397, 0.377609, 0.989466, 0.836772, -0.972792, -0.602159, 2.339368, -1.618757, -0.054608, 0.642493, 1.064586, 1.33672, -0.443187, 1.566063, 1.821569, 0.300853, 0.274268, 0.438001, -0.233334, 0.4293, -0.693637, 0.926591, 1.525677, 0.716477, 0.799114, -0.610915, 2.651156, 0.354321, 0.17153, -0.367039, 0.755809, -0.010249, -0.642467, 0.272616, 0.992694, 0.214694, 0.54558, 1.108074, 1.811553, 1.105342, 0.007395, -2.750457, 0.393351, -0.191041, -0.106776, -2.810069, 1.453357, 0.425119, 1.034387, 0.365852, -0.038271, 1.646688, -0.983878, 0.060712, -0.184985, 1.997726, -0.379224, 0.177654, 0.167807, 0.69079, 1.329554, 1.329206, 0.303247, 0.222525, 0.717814, 1.594174, 0.780477, 0.725903, 0.304374, 0.236237, 1.10349, -0.438291, 1.28415, 0.447198, 0.830481, -0.377371, 1.228871, 0.382077, -1.359195, 0.893443, 1.20993, 0.394363, -0.310673, -0.053624, 0.276448, -0.462524, -2.785179, 1.559997, -1.796822, -0.034568, -1.066716, 1.154939, -0.085166, 0.22232, 0.205547, -0.47074, -0.990806, 0.874274, 0.170369, 0.475994, 0.58026, -1.498663, 1.505833, 0.285942, -0.403108, -0.912347, -0.405103, -0.343838, 0.110725, 0.198777, 2.029522, 0.079672, -0.658906, 1.839077, -0.02655, 0.157148, 0.404911, -0.071461, -1.364505, 1.387964, 0.7176, -0.543942, 0.614689, 0.072794, 0.394828, 0.971062, 0.004471, 0.873305, -0.555805, -0.223761, -0.009708, -0.666107, -0.859925, 0.680049, 0.679104, 1.775103, -2.282774, 1.713605, 1.26325, 0.031351, 1.203193, 0.434279, 0.731647, 0.996322, -1.047002, -1.460832, 0.205559, 0.531444, -0.143254, 0.458848, 0.209633, -0.022876, -0.040882, -0.729354, 0.057498, 1.704173, 0.052493, 0.229759, -1.309956, 0.219858, -0.99928, 1.158358, -0.063687, 0.979536, -0.488423, 0.727007, 0.569354, -0.803155, 0.482691, -1.28461, 0.020507, 0.554467, -0.528323, 0.381709, 0.603534, -0.573393, 0.069595, -2.358943, 0.594154, -0.434773, 1.093846, -2.385618, -0.96855, 0.456663, 1.363045, -0.670135, 1.485146, -0.064217, -0.656033, 0.012421, 1.613159, 0.563031, -0.173016, 0.782633, 0.450557, -0.242368, 0.307886, -1.89931, 0.33482, 0.384583, 0.736484, 0.437405, -0.440451, 0.866702, 1.780286, 1.240449, 0.950729, 0.104489, 0.177189, 0.928625, -0.858128, -0.157093, 0.557163, -0.246407, 0.068151, 0.94831, 0.996149, -0.110635, -1.463853, 1.351539, 0.136486, -0.921351, -0.69225, 0.454087, 0.700242, -0.45155, 0.818632, 1.671118, 1.000448, 0.102234, -0.155692, -0.268426, 0.736799, 1.710629, -2.203973, 0.606513, -0.298711, 0.49379, -0.218815, -0.006028, -0.381895, -1.36996, 0.721073, 0.232846, -0.748283, 0.277438, 1.151409, -0.615019, 2.019795, -0.882114, -1.123642, -0.193161, -0.275083, 0.397588, 0.676145, 1.455249, -1.095899, 0.28079, 0.478776, 1.197676, -0.517033, 0.899427, 0.897033, -0.359914, -0.198973, -0.393949, 1.329633, -0.170283, 0.453974, -3.134195, -0.511083, 1.709412, 0.19202, 0.154252, 0.957977, 0.838356, -0.459002, 1.19081, -0.643384, 0.318418, 0.307454, 0.357722, -1.044932, 1.314523, 0.003555, 0.318226, 0.282967, -0.492119, 0.431815, 0.33338, 2.090109, -0.502556, -0.805851, 0.257677, -0.422186, -0.347446, -0.350412, -1.939941, 1.081148, 1.470458, 1.057708, -1.336269, -0.308736, -0.581821, -0.319362, 1.652169, -0.033265, 0.300213, 0.329206, 0.949618, -0.817489, -1.745814, 0.017238, -0.01441, 2.995474, -0.871852, -0.765135, 0.379934, 0.538376, -0.9023, 1.518712, 0.180763, 1.243884, 1.779738, -0.214794, 0.306904, 0.542361, -0.190389, 1.474105, -0.679936, 0.648347, 1.173826, 1.715763, 1.064351, 1.874747, 1.382118, -1.375481, 1.375087, 0.389706, -0.958746, 0.909678, -0.927599, -1.034773, 0.901368, -0.306696, -0.220674, -0.157317, 2.087785, 0.085388, 0.991222, 1.619008, 0.445186, -0.919735, -0.098801, 0.721056, 1.04555, 0.782373, -0.908611, 0.460668, 0.011337, 0.937841, -0.835061, -1.979643, 0.679048, 0.898337, 1.846905, -1.083565, 0.219642, -0.203486, 0.084607, -0.001854, 0.088577, 0.564777, -0.097686, 1.336026, 1.164759, -0.3172, 0.542333, 1.739527, -1.04646, -1.379257, -0.178433, 0.060223, -0.460983, -1.674916, 0.13936, -0.057008, -1.058329, 0.601683, -0.001884, -0.452892, -0.501676, -0.747545, 0.403558, 0.747719, -0.231844, 1.69656, 0.382543, 0.173364, 1.25638, -0.201126, 0.253494, 1.07337, 0.95513, -0.041314, 0.154137, -1.97532, 1.111286, 0.775345, -0.144448, -0.660089, -0.801355, 0.326983, 0.117483, -0.162813, -0.094516, -0.689619, 1.707907, -0.169583, 1.629608, 0.581887, -0.127106, -0.417595, -1.089293, 0.969538, -0.002397, 1.204244, -2.050203, -0.603119, 0.889154, 0.607984, -1.288471, -0.829533, 0.456668, 1.140248, 0.596414, -0.705692, 1.566242, 0.370268, 0.588616, -0.246776, 1.018516, -0.05636, -0.41822, -0.283653, -0.03185, -0.606265, 2.093668, 1.220955, 0.032327, 0.413514, -0.218869, 0.935933, 0.497988, 0.765305, -1.129674, 0.999481, -0.415388, 0.867174, 1.146034, 0.076938, 1.436889, -1.030703, 1.806831, -1.253588, -0.452854, -2.698632, 0.847734, 0.59232, 0.072519, -1.057559, 0.035982, -1.262028, 0.918447, 1.408073, 0.458664, 2.142064, 1.002662, -0.259351, 0.415995, 0.1288, -0.043919, -0.917888, 2.146181, 0.797612, -0.002114, -0.23557, 0.643185, 1.896572, 1.211933, 1.193572, 0.119587, 1.920749, 0.325954, 0.172558, -0.089923, 0.256087, -0.350697, 0.210321, 1.106696, 1.667359, 0.662932, 0.295966, 2.127582, -1.394648, 0.737877, 2.570873, -0.815277, 1.100854, -0.124991, 0.353166, -0.411871, 1.804132, 0.354449, -0.102403, -0.736943, -1.295008, 0.372468, 1.43851, 0.091802, 0.936994, 1.355884, 0.691685, 0.087627, 0.410623, -0.353857, -0.800378, 0.317027, -0.659456, 1.595259, -0.835072, 0.304927, 0.692439, 0.325402, 0.366983, 0.089246, 0.084152, -0.337127, -0.528267, 1.781762, -0.581223, 0.934982, -2.280311, 1.571963, -0.439379, 0.366427, 0.30408, 0.017834, 1.247263, 0.772685, 0.561731, -0.31633, -0.218941, 0.649138, 1.238954, -0.644372, 0.742758, -0.493291, 0.935765, -0.028366, 0.232042, -0.562983, 1.739348, 0.017424, 0.529652, -0.763072, -1.054611, 0.677569, -0.337554, -0.326607, 0.849867, -0.529787, 0.322832, 0.099842, -0.52076, 0.985883, 0.242163, 2.198306, -0.159305, -1.841948, -0.689529, 0.814614, 1.039676, -1.980225, -0.879606, 1.076289, 0.63051, -0.815108, 1.130533, 0.589961, 0.424797, 0.914747, 1.530221, 0.616043, 0.336967, -0.278442, -0.407252, 0.44059, 0.850562, 0.362472, 1.730933, 1.656407, 0.840095, 0.678813, -0.060511, 1.718707, 0.245112, 0.336784, -1.006972, -0.271379, -0.591708, 0.704556, -0.741942, 1.21687, 0.762052, 0.496657, 1.297364, -1.307639, 0.608385, 0.304817, 1.438548, 1.026019, -0.276667, 0.205696, 0.075712, 0.103139, 0.018944, 0.176217, -0.504176, -1.109109, -1.112782, 0.90924, -0.394367, 0.900771, 0.334442, 0.445717, -0.020945, -1.256633, -0.061411, 0.617941, 0.426966, -0.055555, -0.486419, 0.730639, 0.76092, 1.991148, 0.343742, 1.101275, 0.484868, 1.06818, 0.147251, -0.161607, 0.89868, 0.465811, 1.463393, -0.042573, 1.047881, -0.536213, -1.301272, -0.269392, 2.065516, -0.952592, -0.421317, 1.527335, 0.554508, -0.311297, -1.333334, 0.212443, 0.148114, 0.768095, -1.769517, 0.082273, -0.850577, 0.06689, 1.232543, 0.717766, 1.304277, -1.210334, -0.449093, 0.440912, -0.057229, -0.192575, -1.136865, 1.202612, -0.538335, 1.259792, -0.183649, 0.861131, -0.227932, 0.799038, 0.787502, -0.039093, 0.305501, -0.185795, 0.165506, -0.80216, -0.218662, 0.026685, -0.936081, 0.138315, 0.013578, 0.422671, 0.464843, 0.807706, -1.373895, -0.710232, 1.300606, 0.58498, 0.053534, 0.00933, 0.543704, -0.434589, 0.649344, -0.308629, 0.639077, -0.412511, 1.269182, 0.062671, -0.994029, 1.778322, -0.121054, 1.334898, 2.097557, -0.737869, -0.36225, 0.409428, 0.96064, 1.155563, 0.365793, -1.136139, 0.96128, 1.401037, 0.908044, 0.601432, 0.097305, -0.090395, 0.109289, 0.865135, 1.142225, 0.129659, 1.38172, 0.223933, 0.336056, 1.06519, -0.273265, -0.098321, 1.2004, -0.89293, 0.866509, 2.176298, 0.165035, 0.056467, 0.439099, -2.104295, 1.022769, 1.3081, 0.573002, -1.374235, -0.804015, -0.657596, -0.492029, -0.121095, 1.043979, -0.526734, -0.12652, -2.803952, 0.813569, -1.398453, 1.948609, 0.327759, -0.192249, 1.096542, 0.608708, 1.453052, -0.572476, -1.621969, 0.377889, 0.418404, 0.058931, -0.689679, 0.760585, -0.572175, 2.053052, 0.904739, -0.136272, 0.34089, -0.418795, 1.331994, 1.821596, -0.651392, 0.995625, 0.32091, -0.348324, 0.511393, -1.549464, 0.626658, 0.158028, 0.579028, 0.265096, -0.448946, -0.619957, 1.66446, 1.493671, 0.309846, 0.079219, -0.60697, 0.353401, 0.458134, -0.066667, -1.91444, -0.765312, 0.36316, 1.087253, 0.486231, -1.256946, 0.329712, 1.081922, -0.314482, 0.203283, 1.606616, -0.417618, 0.55525, -0.527558, -0.729533, -0.402178, 1.002593, 0.364625, 1.052966, 0.119543, -0.435013, 0.221661, 1.462426, -1.590286, 0.30288, 0.352291, -0.02748, -0.246954, -0.137056, 0.304977, -0.489534, 0.394437, -0.049808, 0.767126, -0.261728, 1.075536, 1.724033, -1.304451, 0.899893, 1.215252, -0.518374, -0.766769, 1.199445, -1.800302, 0.908374, -0.758718, 0.602201, 1.004992, 0.265209, -0.469141, 0.760206, 0.114156, 0.300878, -0.446365, -0.557676, -0.496026, -0.701656, 0.582756, 1.314655, -1.043204, 1.18579, 0.182029, 0.278589, 0.16357, -0.966818, -0.568994, 1.728645, 1.084569, -1.008809, -0.268504, -0.74457, 0.291258, -0.37858, 0.160524, -0.170519, 0.079446, 0.130763, -0.388145, 0.245366, -0.241872, -0.412787, 0.270537, 0.016798, 0.544286, -0.114668, 0.755625, 0.04541, 0.482901, 0.283807, 1.041534, 0.324154, 0.45215, -0.23632, 2.353008, -0.15146, 0.747566, 0.211924, 0.84413, 0.933946, -0.56339, 0.730916, 1.363218, 0.279252, 0.564727, -0.431728, -0.84844, 1.051522, 1.782979, 0.041373, -0.898664, -1.009807, -1.028373, 0.021898, 0.424273, -0.22266, -0.988927, -0.609738, 1.128314, 0.750278, 0.160316, 1.223436, -0.600067, 2.065485, 0.761238, -2.188433, 0.518951, 0.93959, -0.134037, 0.619205, 0.812512, 2.994728, 0.979088, 0.632402, -1.0511, 1.127827, 0.583855, 0.267323, 0.677805, -0.507693, 0.904444, 0.279485, 1.051175, -0.194367, 0.035622, 1.46851, -0.017813, 0.699461, 1.436429, -1.738506, 0.695701, -0.029811, -0.193518, -0.445824, 0.143065, 1.416676, -0.546061, 0.285303, 0.5556, 0.111088, -0.259341, -0.122273, 1.158257, -0.299178, 0.773718, -0.18085, 0.484975, -0.756067, 0.573977, -3.039569, 0.084714, 0.732302, -1.098825, -0.002221, -0.224148, 0.96794, -2.234119, -1.578768, 0.183793, 0.912536, 0.39525, -1.114358, 1.884956, 0.154828, -0.352665, 1.404497, -2.982482, 0.545311, -0.481297, 0.281231, 0.083005, -0.065179, -0.791345, 1.856727, 1.101588, 2.491924, 0.085218, -0.693384, -0.403696, 1.449022, -1.168574, -2.108623, -0.129014, -0.851052, -0.113723, 0.734427, -0.142283, 0.094008, 0.401978, -1.368278, 0.680344, -0.106855, 1.537167, 0.613674, 0.087888, 1.152586, 0.212778, 1.193122, 0.978434, -0.885958, 0.862233, 0.943568, 0.465034, 0.082549, -0.348963, 1.318169, 0.638408, 0.164869, 0.39566, 0.238181, -0.912345, 1.417776, 0.166878, 1.491281, 0.748984, -0.585541, -0.571191, -0.813709, 0.016159, 1.593107, 0.19502, 0.922686, -0.45445, 0.253201, 0.488118, -1.110887, 0.913981, -0.058567, -1.588895, 1.233756, 0.826841, -0.53375, -0.026076, -0.745361, 0.315874, 0.990438, -0.858985, -1.476766, 0.570131, -0.863457, 1.389665, -0.235545, -0.320241, -0.676135, 1.222356, 0.037042, 0.082423, 0.431313, -0.567642, 0.521755, 0.889008, -0.25718, -0.150071, -0.295117, 1.153619, 0.623054, 0.322398, -1.434626, 0.436266, -0.040546, 0.721805, 1.258625, 0.451245, 0.608258, -0.634162, 0.065803, 0.208001, 0.076098, -0.852098, 1.2172, -0.599268, 0.909172, 0.835653, 2.117918, -0.093967, -0.211052, -0.742561, 1.260273, -0.436587, 0.617052, -0.480753, 1.092589, -0.078096, 0.605735, 0.123515, 0.107022, -0.351408, -0.043265, 0.150673, 0.197513, -1.575622, 0.23164, -2.20393, -0.912177, 0.497425, -0.449221, -0.24021, -0.664711, -0.864116, 0.22616, 0.785703, -0.831955, 0.383785, -0.263936, 0.564239, -0.383529, -1.131275, -1.483249, -0.601316, -0.090471, -0.981686, -0.266444, -0.066354, 1.746063, 0.622388, -0.552506, -0.84236, -0.715101, 0.471989, -1.179521, -0.197657, -0.211779, -0.326296, 1.503354, -0.622612, -0.205012, 0.259082, -0.608242, -1.718272, 0.372871, 0.241983, -0.535478, 1.75118, 1.379082, -0.164224, -0.237026, 0.938537, 0.699529, 0.356462, 0.56681, -0.585579, 0.81041, 0.794391, 0.891503, -1.032482, -0.253098, 0.164423, 0.805017, 0.770711, -0.49812, -0.464518, 0.66465, 0.444732, 0.196598, -0.975053, 0.249917, -0.331485, 0.537774, 1.17198, 1.961541, -0.125483, 0.757181, 0.394807, 0.774569, -0.036263, -0.525463, 0.441007, -0.396254, 1.760095, 0.135667, -0.226867, 0.6983, 0.923993, -0.372219, 1.606586, 0.086727, 0.172972, -0.56682, 0.750083, -0.23293, -0.325672, 0.73168, -0.051998, -0.257333, 0.878132, -1.612984, 0.995309, 1.02147, 0.324546, 1.03186, 0.739052, 0.075809, 0.069683, 0.198793, 0.798861, -0.015169, 0.596492, 0.523662, 0.549723, -0.431989, 0.082898, 0.802705, 1.192636, 0.899244, -0.222707, 0.392669, -2.054058, 0.182624, -0.632554, -0.335804, -0.450534, 1.013092, -0.198124, 0.655224, -0.190434, 0.614816, 0.031415, 0.579039, -0.383282, 0.315794, -0.185895, 1.525253, 0.205235, 0.747583, -0.720777, 0.082889, -0.526941, -0.19147, 0.411673, -0.754242, -1.019671, 0.048779, -0.605331, 0.428456, 0.195194, 2.091091, 0.722861, 0.885394, 0.63677, 1.227629, -0.573445, -0.355103, 0.163028, -0.635357, -0.605409, 1.514872, 1.338689, 0.175324, 1.259764, -0.083444, 0.333222, 3.254302, -0.415928, 1.701133, -0.635069, -0.144042, 1.773529, -0.720193, 1.390599, 0.937158, -0.212778, 0.522933, -0.840771, -0.278837, 0.652314, 0.999375, 0.538339, 1.32782, 0.42069, 0.2702, 0.059188, -0.511173, -0.858047, -0.022683, 1.696185, 1.713907, 1.019314, -0.544952, 1.192692, 0.856876, -0.642639, 0.561924, -0.080707, 0.133061, 0.234821, 1.110083, -0.844899, 0.486214, 2.591368, 0.177043, -1.045839, -0.263406, 0.641446, -1.150236, -0.171142, -0.42907, 0.847363, 0.035453, -0.541203, 1.228946, 0.0234, -0.412867, -0.3803, -0.131277, 1.303251, -0.200957, -0.857019, -0.092559, -0.700383, 1.047841, -0.441392, -0.178596, -0.440076, -0.223946, 1.385523, 0.078493, 0.789122, 0.699482, 0.554367, 0.026964, 1.431213, 0.62192, 0.760045, -0.002119, -1.403616, -0.311515, 0.353413, 0.576697, 1.281887, 1.483394, -1.905256, 1.520723, -0.09997, 0.105049, 0.402202, -0.134925, 1.338562, 0.290591, 0.938928, -0.895166, 0.15413, -0.092441, -1.21225, 0.896177, 1.108477, 1.860219, -0.535793, -0.16322, 0.025726, 0.203479, 0.21418, 1.360072, 0.588971, -0.857013, -0.46517, -0.039374, -0.429749, -0.803239, -1.986913, -0.071373, 0.225457, -0.301189, -0.521272, 0.492519, -0.958395, 0.738663, -0.112163, -0.117814, 0.888475, 0.507344, -1.192385, -0.087974, 0.033701, 1.33251, 0.244415, 0.644929, -0.954616, 0.809481, 0.83661, -0.184994, -0.240739, 0.187628, 0.27202, 0.575307, 0.302611, -0.434863, 0.003693, -0.525681, 0.486231, 0.187566, 1.608375, 0.645049, 1.225935, 0.403033, -1.417138, -0.088306, -0.275044, -0.70177, -0.517188, 0.7244, -0.40872, 1.154697, 1.232842, -1.284793, 0.586298, 0.577013, 0.616038, 0.358176, 0.325406, 0.794287, 0.002373, 0.231712, -0.185301, 0.215644, -0.554946, 0.778984, -0.50405, -0.404727, 0.802113, -0.182083, -0.421779, -0.25375, -1.790431, 0.97126, 1.039586, -0.651025, -0.852358, -0.096589, -1.184926, 0.098778, 0.06318, 0.374941, 0.78738, 1.534796, 0.167638, 0.599951, 0.410992, -0.934388, -1.10244, 0.416882, 0.211286, 1.347894, 1.861458, 1.239818, -0.37168, 0.333989, 0.291051, -0.741705, 0.984086, 0.562033, 1.453948, 0.489614, 0.229637, 0.363024, 0.221514, 0.783292, -0.783964, 0.019548, 1.069313, 0.363824, -1.493123, -0.095613, 0.380483, 0.978842, -0.772343, -0.103796, -1.285276, -0.947412, -0.22434, -1.061914, -0.207544, -0.255479, 1.438453, 0.776702, -0.098829, 1.030864, 0.43216, -0.210698, -0.536668, 0.527761, 1.368866, -1.793865, 0.224592, 0.311294, 0.57097, 0.947548, 0.546076, 0.586512, 0.520914, 2.095395, -0.593777, -0.087991, 0.615123, -0.575465, 1.153081, 0.434826, -1.023303, 0.45383, 0.633101, 0.294372, 0.029625, -0.03697, 0.811017, -0.529462, 1.151815, -1.280302, 0.441265, 0.932208, -0.526577, 0.593522, 0.646517, 0.014556, 0.501167, 0.880694, 0.782827, -1.405243, -0.269376, 0.448218, 1.027712, 0.167387, -0.276665, -1.345286, -0.090099, 0.292885, 0.36284, 0.429822, 1.49689, -0.27472, -0.040123, 0.525289, 1.505587, 0.375868, 0.02339, -1.418916, -2.177964, 0.159081, 0.793513, 0.347315, -0.155699, 1.494225, -0.099078, -0.506484, 0.454778, 0.699256, -1.151684, -1.078879, -1.120071, 0.914496, -0.889525, -0.593252, -1.103297, -0.082133, 0.189717, -0.178989, -1.193859, 0.631306, 1.334763, -0.85667, -0.676505, -0.040436, 0.221083, 0.112973, -0.680502, -0.631299, -0.271832, 0.223376, 0.520357, -1.369055, -0.632525, 0.632964, 0.18031, 0.516917, 0.724913, 1.232155, -0.783409, 2.117254, 1.410423, -0.054433, 1.313038, -0.677642, 1.36548, 1.606883, -1.24382, 0.520077, -0.055516, 0.789905, -0.520975, -0.256963, 0.629882, 0.512305, -0.39036, 0.520087, -1.028406, 0.12657, -0.168499, 0.837568, 1.374893, -0.465104, -0.249933, 0.171898, 1.350452, 0.729633, -0.689186, 0.466477, -0.580148, -0.594072, 0.807107, 0.969069, -0.726909, -0.006767, 0.128923, 0.222813, 1.085376, -0.694494, 1.486878, 1.848661, 0.417869, 0.316705, -0.736386, -0.199645, 1.846126, -1.512617, 0.064738, -0.623255, 0.660047, -0.449885, 1.608482, -0.160141, 0.157032, 0.760744, -0.346827, -1.133646, 0.744658, -0.072577, 1.555356, -0.293368, 0.110002, -0.374782, 1.14689, 0.810406, -0.761061, -0.682463, 0.451897, -1.71281, -0.139691, 0.762059, -0.293075, 1.644316, -0.967292, -1.008365, 0.2326, 1.13682, 0.165311, 1.317613, -0.838518, 0.668688, -0.759179, 0.382775, -0.670935, 0.111176, 0.339092, -0.114843, 0.005178, -0.114166, -0.435897, 1.23595, -0.070126, 0.833786, -0.028858, -0.517651, -0.37555, 0.358026, 1.154191, -0.534928, -0.407408, -0.194356, 0.535987, -0.178485, -1.20988, -0.568831, 0.501368, 1.043019, -0.379877, 0.55693, 0.664207, -1.03302, -0.080251, 0.535067, 1.221867, -0.040469, 0.888022, 0.010307, -0.199521, 0.696815, 0.098107, -0.333815, 0.010463, 0.202802, -0.242509, 1.453323, -1.246705, 0.166321, 0.828201, -1.026628, 0.20407, -0.155115, 0.291912, 1.452104, 1.29523, -0.047001, -0.757706, 0.258742, 0.375807, -0.289497, 0.566744, 0.109397, -0.402232, 0.853143, -0.268408, -0.264123, -0.116247, 0.029481, 0.216573, 0.490898, 0.562022, -0.25266, 0.337464, 0.381569, -1.367674, 0.034987, -0.275637, 0.036932, -0.76973, 0.240327, 0.216211, -0.45134, -0.64871, -0.077159, 0.10677, 0.236746, 1.02852, -0.141462, 0.392673, -0.233772, -0.025506, -0.069563, 0.27835, -0.35037, -0.611907, 1.557824, 0.069314, 1.049747, 1.068434, 1.046157, 0.62576, 0.876485, -0.008459, 0.221707, -1.043297, 1.062048, 0.173292, 0.265738, 1.346609, 0.805526, -0.165779, -0.335505, 1.148888, 1.038869, -1.865415, -1.327516, 1.191862, 0.294426, 1.743895, 0.665956, -0.088012, 1.782079, -0.126705, -0.184336, 0.579016, 0.746535, -0.15585, -0.15038, -0.759749, 1.445102, 1.432871, 1.343493, 0.710213, 0.460535, -1.652802, -1.92096, -0.344713, 0.984355, 0.836218, -0.320418, -0.692899, 0.415307, -0.401058, 0.52457, -0.619608, 1.651458, -0.654095, -0.343819, -0.845807, 0.530614, -0.048251, -0.130595, -1.057692, 1.148557, 0.457591, -1.025521, -0.939601, 1.22588, 0.311485, 1.23905, 0.561679, 1.294997, 0.581327, 0.315989, -0.627097, 0.135834, -0.010124, 0.152745, 0.437023, 1.254636, -0.41597, -0.308496, 1.045991, 0.531184, -0.354121, 0.085885, -0.163087, 0.488235, -0.399831, -0.9521, 0.143795, 0.494452, 0.378012, -0.292987, -0.42864, 0.463681, 0.743958, -0.963949, 0.825552, 0.942679, 0.807945, -0.194718, -0.551728, 1.431895, -1.337053, 0.852288, 0.823541, -0.86599, -0.668328, -0.35942, -0.711554, 0.557795, 1.975871, 0.610196, -0.714487, -0.487105, 0.148776, -0.479328, -0.085447, 2.232446, 0.064767, -1.604777, -0.383717, -0.22692, -0.756584, -0.279922, 0.399523, -0.929983, -0.422493, -0.177646, -0.077603, 0.409734, 0.591212, 0.952945, 0.261274, 0.902403, 0.096165, -2.09701, -0.487732, -0.327884, -0.006594, -1.009259, -0.131343, 0.390803, 0.492242, 0.042844, 0.038758, 1.307217, 0.411947, -0.06913, 1.142574, 0.305369, 1.402601, -0.223873, 1.286956, -0.875076, 1.863953, 0.313459, 0.613735, 0.783088, 0.373117, 0.147956, 0.094429, 1.298305, -0.185188, -0.229918, 0.166864, -1.315673, 0.700525, -0.066029, -0.185137, -0.142261, -0.238846, 0.517696, -0.893086, 0.695157, 0.945493, -0.192609, -1.319938, -0.429704, -0.593978, 0.394402, 0.22612, 0.655201, 0.855215, -1.868427, 1.012827, -1.002679, -0.5718, 0.192646, -0.563818, -0.136278, -0.425655, 0.43125, -1.50982, 1.236715, 0.003425, 0.164637, 0.744069, 0.640075, 1.000006, 0.454811, -0.603023, 0.624019, -0.467949, 1.203215, 0.345803, 0.312329, -0.483952, 1.323218, 1.566515, -0.176781, 0.126395, -0.254078, 0.182422, -1.162659, 1.949809, 0.556083, -0.130173, 0.423685, -0.239978, 0.619797, 0.088774, -0.088699, -0.706703, -0.463446, -0.889933, 0.363106, 0.646255, -0.390031, 0.867206, 0.693378, 0.073378, -0.111467, -2.395313, -0.425104, -0.076648, 0.844628, -0.752233, 0.749368, 1.085633, 0.018079, 0.706327, -0.170013, -0.897796, -0.383102, 0.649344, 0.298199, 0.85836, -0.835561, 0.892155, 0.950071, -0.266542, 0.05578, -1.67605, 0.211585, 0.923004, 0.829015, -0.531947, 0.590717, 0.247786, 0.27369, 0.325515, 0.091665, -1.55345, 0.188723, -0.922487, -0.222396, 0.465382, 1.45221, 0.139317, -0.637779, 2.630052, 1.327549, 0.52007, -2.916923, -0.02136, 1.08172, 2.72933, 2.022829, 0.260863, 0.412856, 0.919987, -0.367459, -0.551689, 2.314794, 1.134211, 0.235124, -0.417408, 0.206789, 0.942479, -1.281595, 1.158543, 0.471682, -0.041144, -0.334305, -1.529627, 0.270469, -0.212279, 1.51352, 1.180133, -1.319577, 1.215532, -0.244641, 0.766836, -0.653851, 0.548545, -0.979452, -0.240301, 0.366086, 0.681904, 0.522466, -0.773357, 0.242073, -0.414382, -0.121441, -0.722271, -0.413426, 0.784542, 0.712965, 0.647099, -0.262364, 0.958505, 0.860322, 0.441275, -0.026047, 0.839017, 1.370529, -0.611496, -0.067601, 1.719569, 1.345753, 1.345521, 0.159559, -0.158592, -0.89756, -1.706734, -0.592357, 0.55843, -1.124958, -0.785328, -0.234389, 2.210004, -0.02011, -0.399046, 0.50591, 0.08453, 0.554342, 1.05149, 0.030174, -0.54763, 0.992287, 1.330477, 0.58768, 0.561841, 0.470769, 0.385782, 0.590361, -0.079765, 0.927335, 0.246913, 0.320567, 0.492388, -0.520773, -0.217342, -0.629522, -0.26247, -0.044195, 1.776253, 1.57552, -1.576527, 0.438878, -0.563985, 0.36289, 0.293091, -0.480362, 0.433196, 0.245802, -0.913493, -0.33658, 0.924662, -0.813395, 0.237224, -0.48644, 1.478182, -1.596651, -0.384885, 1.628776, 0.178451, 0.213256, 0.20453, 1.721213, -0.00403, -0.997963, 0.399481, 0.066818, 0.284974, 0.707377, 0.431862, -1.393598, 0.764588, -0.161025, -0.397859, 0.018793, -1.211349, 0.624567, -0.909424, -0.139622, 0.567593, 0.698508, 0.2445, 0.821828, -0.304362, -1.127163, 0.316454, -0.362809, 1.356061, -0.696261, 0.101552, 1.642046, -1.742331, -0.325706, -0.002595, 2.906341, -0.506621, 1.007853, 0.951305, 0.820311, -0.069794, -1.290647, -0.31218, 0.270969, 0.879896, 1.615322, -0.231997, 0.115048, -1.987245, -0.156664, 0.785034, 1.667579, 0.821178, 0.633329, 0.398993, 0.358694, 0.73681, -1.210547, -1.708421, 0.832851, 0.414747, 0.701528, -0.203068, 0.380403, 0.445516, 0.415392, 0.271336, 0.830795, 0.939428, -0.781432, -1.082982, 1.757027, 1.074954, -0.057965, 1.984243, -1.386768, -0.021671, 0.870793, 0.159377, -0.753061, -0.675637, 1.166945, 0.565537, 0.107406, -0.794986, -0.333421, -0.224303, 0.567496, 2.22204, 1.465365, 0.586324, 0.439437, 0.184133, 0.153594, -0.691885, -0.264476, 0.765787, 0.580999, -0.98161, 1.345841, 0.235937, 2.008957, 0.023445, -1.685513, 0.922448, -0.050829, -0.766718, -2.390071, -0.577981, -1.398958, -0.504179, -0.294363, -1.336791, 0.722677, 1.267886, 0.184572, 0.166767, -1.113231, -1.708645, 0.2826, 0.481638, 0.872312, 1.493361, -1.155916, 0.35771, -0.451352, -0.083045, 1.001848, -0.004538, 0.540378, -0.506921, 1.334558, 0.964777, -0.204324, -1.392115, 0.838529, 0.066762, 0.32181, -0.675614, -0.845493, -0.52883, -0.157318, -0.257175, 0.561205, -0.841204, -0.280565, 0.407256, -1.657121, -1.936794, 0.602412, 1.197341, -1.18851, -0.453403, -0.438634, -0.296914, 0.221132, 0.655494, -0.66661, -0.830092, 0.588582, 1.308593, 0.400374, -0.184173, -0.560322, 0.788816, 1.916013, 0.468534, 1.01626, -0.690095, -1.004619, 1.193968, -0.290243, 0.282492, 1.350727, 0.477954, -0.105377, -1.033962, 0.285107, 0.760606, 2.704614, -0.264709, 0.483539, -0.273236, -0.472772, 1.134023, 0.87497, -1.390249, -0.280264, 0.178789, 0.255422, -0.769678, -0.00277, 0.753315, 2.425101, 1.325984, 0.529714, 1.535034, 0.108019, -1.467196, 0.440255, 0.281258, 0.789886, 0.995463, 0.425603, 1.030833, -1.047088, 1.277022, 0.418793, 0.022872, -0.206519, 1.676402, -0.707284, -0.000119, 1.885301, 0.058532, 0.742216, 0.071966, 0.271982, 1.289469, -0.580806, 0.053852, 0.297778, 0.648353, 1.24554, -1.788947, -0.430126, 1.121576, -0.013324, 2.320892, 0.628158, 1.625149, 0.315043, -0.562847, -0.908464, -0.429575, 0.193457, 1.0274, -0.122288, 1.623649, -0.032713, -0.971125, 1.041243, 0.838571, 0.018239, -0.295036, -1.154461, -0.17294, -1.359633, 0.682062, -0.232008, -0.105868, -0.135857, 0.684651, 2.316299, 1.337555, 1.275851, -0.101067, -0.055817, -0.612219, -0.223284, 0.555148, 1.317383, -2.321417, -0.039611, 1.203352, 1.337702, 0.26539, 1.09997, -0.118592, 0.834145, 0.573309, -0.909442, -0.825244, 0.404448, 0.28848, 2.318626, 1.035932, -1.758528, -0.052237, 0.466841, 0.586309, -0.802876, 1.278601, 0.306722, 0.938253, 1.799453, 0.461237, 0.789752, 0.674184, -0.601076, 0.060108, -0.214944, 1.527471, 2.188972, 0.101912, -0.017382, -0.137298, 0.855428, 0.574152, 0.260227, 0.663559, 0.206847, -1.602983, -0.883908, 0.093757, -0.392315, 0.432674, 0.660323, -0.225013, -1.644267, 0.506227, -2.290297, 0.006549, 0.247055, 0.289818, -0.14774, 0.617843, -0.403675, -1.082087, -0.310067, 0.148216, 0.437943, 0.152856, 1.290759, -1.715392, 2.197679, -0.330126, -0.222375, 0.520073, 1.845248, -1.943151, 0.827262, 0.219141, -0.225985, -0.322701, 0.099769, -0.364464, 0.986125, 0.185256, 0.802685, 1.108951, -0.083492, 0.507165, -0.069146, -0.738019, 0.25735, -0.071814, 0.331689, 0.652169, 1.562684, 0.706836, 1.132137, 1.096592, -0.061772, 0.522413, 0.055215, 1.401597, 0.09739, 0.34206, -0.03363, 1.350271, -1.225445, 1.607977, -0.304225, -0.216317, 1.984489, 0.784459, -0.164423, -0.501954, -0.432507, 3.432676, 0.649971, 0.469206, -0.264711, -0.329899, -0.657245, -0.046491, 0.488023, -0.80383, 0.599626, 0.4887, -1.126267, 0.108479, 0.975817, 0.593267, 1.271456, -0.045119, 0.627818, 2.064024, -1.142354, -0.563372, -0.134548, 2.205378, 0.178092, 0.191124, -0.582202, -0.06698, 0.290995, 0.005945, 1.064049, -0.573378, -1.803291, -0.014837, -1.387771, 0.044826, 0.190081, 2.563362, -0.625181, -0.853163, 0.330541, -0.204075, -0.716092, 0.949597, 0.726505, -0.847042, -2.774664, -1.588321, -1.575836, 0.248071, -0.404628, -0.458542, -1.668927, 0.298559, -1.588273, -1.031222, 0.832661, -0.282183, -1.070203, 0.31605, -0.213886, 0.895383, -0.219568, 0.947723, -1.286583, -1.676791, 0.310028, 0.193289, 0.366335, -0.408848, -0.050107, 1.199279, 0.20444, -1.390601, 0.23271, 0.860721, -0.258388, -0.134678, -1.512861, 0.233835, -1.454029, 0.257791, -0.543589, -0.673895, 0.828852, -0.113336, 1.038298, -0.169942, -0.316856, -0.010562, -0.597003, 0.202627, -0.027885, 0.386879, -0.632901, 0.120502, -1.131974, -0.600492, 0.090864, 1.380881, -0.514131, -1.542777, -1.31911, 0.451796, 0.392552, 1.497483, -0.964147, 1.922182, 1.56048, -1.323207, -0.395375, -0.390756, -0.805949, -0.907579, 1.19653, -1.725103, -0.889715, 1.171587, 0.14448, -0.324284, -0.055047, -1.987731, 0.766926, 0.507539, 0.58357, 1.030442, 1.575287, -0.236218, 0.845346, -0.928589, 0.593804, 1.277, -0.142461, 0.576137, -0.189893, 0.349289, 0.91754, 0.769051, 0.405569, 1.40176, 0.915669, 1.432491, 1.14164, -1.367165, -1.148984, 0.622083, -0.265923, -1.945935, -1.211947, 0.550127, 1.044662, 0.55732, -0.156371, -0.066658, -1.237882, 3.12247, -0.156584, 0.463372, 0.199325, 0.34087, 0.212798, 1.310129, -1.098123, 1.786415, -0.122084, 0.294507, -0.115518, 0.018167, -0.348673, -1.618657, 0.393909, -0.171181, -0.110453, -0.957887, 0.475479, 1.112764, 2.017347, 2.273366, 0.392515, 0.519297, 0.589751, 0.624084, 0.918457, -0.106373, 0.669848, -0.93884, -0.671709, -1.13252, -0.12159, 0.026603, 0.741778, 0.658865, -1.147125, 0.294595, -1.257073, 0.836016, 0.885829, -1.84114, -0.738535, -0.436775, -1.153864, 1.577575, 0.303017, 1.340404, 0.828918, -0.410576, -0.265916, -1.067426, 0.967801, -0.920607, 1.092541, -1.080661, -1.128898, 0.431903, -0.934946, 0.458226, -1.453514, 0.753207, 0.566332, -0.076437, -0.224216, 0.604635, -0.575008, -0.409365, 2.032772, -0.359761, 0.056816, 0.204767, 0.974628, -0.520504, -0.379101, -0.443944, -0.78036, 0.026707, 0.177814, -1.62483, -0.784658, -0.65846, -0.212326, 0.384212, -0.439538, -0.436203, 1.086369, 2.234535, -0.800301, -0.155548, 0.644792, -1.22651, -0.389934, 0.016211, -0.005522, -1.343341, -0.033961, -1.253646, 1.098622, -0.104299, 1.152853, -0.279688, -0.072516, 0.274668, -0.015633, 0.382247, 0.912907, 1.201696, -0.353774, -0.362903, -0.08338, -0.114863, 0.052918, 1.044756, 2.310656, 1.106476, 1.869472, 0.60931, -0.725585, -1.258651, -0.059506, -0.369122, -0.191323, -0.36241, 1.031007, -0.805762, 0.243009, -1.315165, -0.864258, -0.515747, -1.032931, -1.408208, 1.684853, 0.346449, -1.123541, 0.527915, 1.072667, -1.989223, 0.913051, 1.269393, -0.55297, -0.607038, 0.627983, 1.172, -0.128976, 0.366537, -1.088412, 1.879459, -0.075893, 1.389329, 0.192603, 0.530386, -2.862808, 1.034145, -0.806364, -0.935391, 0.132727, -1.583245, -0.459459, 0.16456, -0.627559, -0.110391, 1.888195, -2.166074, -0.580971, -0.520319, 1.07661, 0.378207, 1.659303, -0.553344, 1.575392, 0.676262, 0.452119, 1.8199, -0.251655, -0.401269, -0.390668, -0.794329, -0.466892, -0.75849, 0.003459, -0.801194, 0.11945, 1.004857, 0.968263, -0.380471, -1.104632, -0.69688, -0.474548, 0.109585, -0.664393, -1.149006, -0.52058, 0.276664, -0.758772, -0.367119, 0.397754, -0.120366, 0.281828, -0.605773, 0.66142, -0.640284, -1.706739, 0.539122, 0.847294, -1.151596, -0.017724, -1.330321, 0.09306, 0.560633, 1.49321, 0.742683, -1.25, -0.981682, 1.870335, -0.879045, -0.256422, -0.391449, 0.339409, 0.116412, 0.826466, -0.47039, 0.086491, 0.893239, -0.273819, -0.508526, 0.800176, 0.741351, -0.016641, -0.764966, -1.04516, -1.41947, 0.842624, 1.881888, 0.329143, -1.074393, 0.209528, -0.326465, 0.836322, 0.000166, -0.125756, 0.071881, -0.749638, 1.302227, 0.018524, -0.291615, -0.441354, 0.949633, -2.015546, 0.67404, 0.075566, -0.817447, -1.148363, -2.847847, -0.311071, 1.178714, -0.287502, 0.634458, 0.310221, 1.37007, 0.298061, 1.690201, -0.180548, -0.105786, 0.974923, -0.32948, 1.232127, -0.646183, -1.344756, 1.744968, 0.978447, -1.626339, -0.578508, -2.412366, 0.899521, 0.570837, 1.046194, 1.126639, 0.1855, 0.433337, -0.504675, -0.876176, -1.603115, -0.456678, 0.763457, -0.814767, 1.437617, -1.353909, -0.524397, 0.057082, 1.601713, -0.762168, 0.217864, -0.55927, -0.168261, -0.375539, 0.437444, 0.688694, 1.027401, 0.361854, -0.921993, 0.626041, -2.193998, -1.859721, 1.171927, 2.181589, -1.00285, -0.697863, 0.191927, -0.058836, 1.336879, -0.991951, -0.890118, 0.087798, -0.747808, 0.172814, 0.279642, 0.469056, 1.331909, -1.570099, 0.197578, 0.475189, -0.557728, 3.077248, -0.102764, 1.167352, 0.052343, 0.726753, 1.161205, -0.481449, 0.875878, -0.078565, 2.009921, 1.480737, -1.101635, 0.505056, 0.378595, -0.355985, 1.005265, -0.938684, -0.082671, -0.282768, 0.723126, -0.3003, -0.629292, 1.104473, 0.991946, -0.191633, -0.097656, -0.017318, 0.952514, -0.381474, -0.845515, 1.70168, -1.163542, -0.575041, 0.850404, -0.797327, 1.143098, 0.780957, -0.538662, 0.268586, 0.039231, 0.636266, -2.175693, -0.510958, 1.07639, -0.453959, 0.155302, 1.408128, -0.143498, -1.659912, -0.382551, -1.117644, 1.882114, 0.714252, -1.187401, 0.5806, -1.260436, -0.095464, -1.693012, -0.288161, 0.513796, -0.806134, -0.897807, 0.133418, 1.370131, 0.626464, 0.916432, -0.041134, 0.629495, 0.819141, 0.787801, -0.704859, 0.631677, 0.12859, -0.418983, 0.078425, -0.76556, -0.258692, 0.733969, -0.64951, -0.176077, -1.383718, 0.218325, 0.057798, -0.112628, 1.404436, 2.158403, -0.625062, 0.950367, -1.439627, -0.365534, 0.16847, -1.360785, 0.963088, 0.753812, -0.38941, 2.700544, 0.073477, 1.108562, 0.440297, 1.193006, 0.660218, 0.604505, 1.524326, 0.954253, -0.895158, 1.028718, 1.395136, 0.691664, 0.811924, -0.646369, -2.640935, 0.489516, 0.589652, -0.472295, 0.643437, -0.26455, -0.64786, -0.944827, 0.663105, -1.565597, 0.101341, 0.463164, 0.051456, 1.981761, 0.86348, 0.22053, -0.474177, 1.69117, -1.018938, -0.23693, 1.322539, -0.681588, 0.982506, -0.016034, 0.066044, 1.244134, -1.876305, 0.647974, -0.961422, 0.099898, -0.785361, 0.022466, 1.205441, 0.843087, -0.13877, -0.315088, -0.814979, 0.727256, 0.884021, -0.206624, -0.775246, -0.529175, -0.535437, -0.372852, -0.020569, -2.104522, -0.337217, 0.808445, 1.002115, -0.281581, 0.598472, 0.268465, -0.181778, -0.975127, -0.14342, -1.087273, -0.091159, 0.518029, -0.771349, 0.127458, -0.016299, -0.717056, -1.129961, -0.973275, -1.013162, 1.040085, 0.133706, 0.11481, 1.875605, -0.963001, 0.608586, 0.015654, 0.04784, -2.224807, -0.299106, 0.637038, -1.249778, -1.72707, 1.124821, -0.245236, 0.267178, 1.483572, 1.561435, 0.525477, 0.341272, 0.54324, 1.708289, 0.139426, 0.601491, -0.337902, -0.356981, 1.756651, -1.27389, 0.884096, 0.234542, -0.160851, -0.109275, -1.195373, 0.710063, -1.53079, -2.192151, 0.775651, 1.646582, 1.551082, -0.098814, -0.057853, -2.313868, -1.415834, 1.291464, -0.950686, 0.247799, -0.067994, -2.162842, 0.793557, 0.372934, 0.241128, 0.209566, -0.044531, -0.87055, 1.803168, 1.59655, 2.870409, 0.077673, -1.125633, 3.08072, -0.445481, -0.197595, -0.811186, -1.449489, 2.007664, 0.547854, 4.042187, 0.450242, -0.854251, 0.133664, 1.350528, -0.226209, 0.626232, -1.432827, -0.427096, 0.517787, -0.284586, -0.706946, -1.194643, -0.234968, 1.95645, 0.592515, 0.877222, -0.444785, 0.981536, 0.203413, -0.276268, -0.865223, -0.229277, 0.287043, -0.761029, -2.008715, 0.611397, 0.269391, -0.054615, 1.338011, -0.608269, -0.340155, -1.789027, -1.701936, 0.915876, -1.332545, -0.868012, -1.416592, 1.533784, 0.587937, -0.538038, 1.261219, -0.6785, 0.795196, 0.952349, 0.324651, 1.889065, -0.651161, 0.820506, -2.454695, 1.263628, 0.185141, -0.838778, 0.20093, -0.369046, -0.694392, 0.575791, -2.492125, 0.619403, -1.758934, -0.90336, 0.05553, -0.10381, 0.942999, 0.867976, 1.574183, 0.296344, 0.228072, -0.144128, -0.454354, -1.692101, -1.143094, -0.151841, -1.5405, 0.067562, 1.004433, 0.978477, -1.715271, 0.585721, 0.178342, -0.309176, -1.82076, 0.039601, -0.269002, 1.486731, -0.522684, 1.329013, -0.06595, -0.168051, -0.64648, 0.478274, -0.949015, 0.196294, 0.567937, 1.15523, -2.232886, 0.393092, -0.644815, 0.59281, 0.722065, -0.589898, 0.879928, 1.867654, 1.122992, 1.073046, -0.112525, 0.020798, 1.363299, 0.130908, 1.097175, 0.827002, 0.44242, 2.477122, 0.120087, -0.355578, -0.325413, -0.606293, 0.011254, 1.793633, -1.606009, 0.395719, -0.146764, 1.316461, 1.61683, 1.384778, -1.536168, 2.031192, 0.453349, 0.146899, 2.294572, -0.205664, 2.46472, -1.172847, -0.751307, -1.66131, -0.722575, 0.00384, 0.271742, 0.962987, -0.346363, 1.846441, 0.241841, 0.353579, -0.569142, -0.492743, 0.174834, 0.196068, 0.796035, -0.183001, -0.171329, -0.869455, 0.721972, -0.134153, -1.583569, -0.446522, -0.556093, 0.408279, -1.590323, -0.866616, 0.396605, 1.446342, -0.128936, -1.138268, 1.158687, 1.949326, -2.500209, 0.634298, -0.666047, -0.695187, 1.113247, -1.275318, 0.709314, -0.032946, -0.313938, 1.593454, 1.246031, 0.038741, -1.589364, -1.455798, 0.345231, 0.062485, 1.317948, 1.430863, -2.239362, -0.075256, 0.771909, 0.895967, 0.222225, -0.761236, -1.984391, -0.248629, -0.606609, -0.753411, -0.114383, -0.785133, -0.022402, 0.283055, -0.319927, -1.616206, -0.963015, 1.81093, -1.872989, -0.391641, 1.492713, 0.494327, -0.548037, 0.746727, 0.232298, 0.267679, 1.14863, -0.280647, -0.806528, 0.386872, -0.389471, -1.570772, 1.172717, 1.113047, -0.134735, 0.155564, 0.054644, -0.003019, 0.411284, 0.69475, 0.644101, 0.395205, 0.123424, 1.977621, 0.495464, 0.639246, -1.798327, -0.00644, 0.403, -0.12327, -0.736885, -1.5598, 0.266528, 2.734113, -0.653036, -0.064704, 0.792685, 0.209769, 0.076784, -0.500952, -0.20328, 0.372792, -0.917032, 0.64624, -1.67946, 1.931166, 1.305622, -0.591626, -0.543589, -0.327142, 1.373085, -0.128385, -0.072794, -0.106435, 1.516385, -0.810173, -1.285887, 0.27894, -0.21698, 0.066633, -0.915259, 1.006071, 1.403118, 2.377954, 1.469089, -2.221032, 0.526143, -0.329107, -0.705813, 1.187051, -0.632228, -1.698315, 0.542812, 0.194465, 1.112019, 1.005089, 1.747989, 0.110957, 0.335816, 1.495653, -1.228002, 1.309488, -0.021863, -1.118646, 0.330033, -0.310792, -0.668934, 1.200891, -2.063709, 1.374112, 0.803647, -0.64476, 1.379974, 0.125327, -1.00019, -1.441088, 1.308492, -0.24978, 0.285014, 1.747882, -0.207903, 0.971988, -1.558442, -1.924519, -1.312362, 1.564996, 0.773578, 0.569607, -1.909103, 2.409638, 1.189027, -0.300307, -1.766086, 0.612432, 0.944389, 0.730476, 1.828312, 0.488977, 0.453639, -0.506635, 0.318953, -1.00474, 0.36511, -1.74054, -0.159235, -1.764972, -1.245857, 0.010435, -1.488506, 0.510637, -0.46836, 0.72616, 0.316357, 1.148882, 1.469689, 0.911861, -0.070471, 0.651262, -0.014508, -0.182483, -0.707423, -0.081068, -0.493906, 1.420685, 1.263952, -0.146047, -0.600426, -2.026377, 1.890184, -1.743967, -1.689324, 0.408098, -0.237654, 0.719136, -0.005709, 1.024972, -0.286263, -0.133791, 0.176487, -2.413911, 0.174981, 0.401984, -0.275094, -0.420844, 1.466161, -0.343192, 0.894454, -0.833134, -1.576443, 0.06509, 0.349184, 0.48777, -0.467494, -0.318304, 1.232534, -0.665129, -0.643058, -0.432387, -1.019687, -1.753477, 0.307155, -0.051185, 0.297774, -1.138328, 1.04104, -0.06857, 0.857428, -1.749779, -1.225258, -0.409913, -0.564905, 1.096184, 2.385586, 0.029897, 0.057322, 0.586327, 0.258116, 1.25404, -0.822833, -0.57535, 1.559752, 0.479454, -1.481761, 0.825562, 1.383579, 0.178109, 0.490802, -0.313968, -0.26287, 0.21143, 0.221461, 0.463382, -0.987525, -2.53579, -0.99812, 1.078348, -0.659941, 0.391172, 0.995816, 0.547833, 0.436507, -0.770659, -0.758717, -1.372806, 0.430132, 1.63424, -0.765822, 0.713283, 0.345851, -0.42636, 0.638447, -0.979118, -0.366487, 0.787446, 0.979534, 1.080053, -1.051817, -0.09193, 0.121677, 0.8768, 0.319721, -0.053475, -1.530911, 0.082581, 1.680903, -0.80457, 0.49499, 0.324165, -0.991223, -0.647984, 0.929156, -1.132233, -2.004511, -0.529082, 1.754691, 1.240953, 0.844953, 0.830959, -1.336664, 1.627471, 0.138794, 0.39386, 1.861876, -0.469122, -0.293695, 0.58691, -0.616316, 0.053, 0.116993, -0.887361, -0.1814, 1.688979, -0.211562, 0.569048, 0.148562, 0.398098, 0.982232, 0.62517, -0.247687, -1.142964, 0.016609, -0.052572, -0.959538, -0.155409, 1.104987, -0.302604, 0.194938, -0.850172, -0.650276, 1.135024, -0.665428, 0.690242, 0.800365, -0.24485, -0.288689, 0.832041, 1.394875, 0.349146, 0.483181, -0.221346, 1.173044, -0.781153, -0.117402, -0.965369, -0.593463, 0.764056, -0.640078, 0.324557, 1.627678, -0.540452, 1.438384, 0.325536, 0.703506, 1.835361, -0.081003, -1.237198, -1.602145, -0.756554, -2.020422, 1.105655, 1.024028, 0.053922, -0.982681, -0.091881, 1.179458, 0.34907, -0.594744, 0.152726, 1.226062, -0.916846, -1.359771, 0.601093, -0.550644, 0.373314, 1.583279, 0.896433, 0.804276, 1.53344, -0.977266, -0.552259, 1.999564, -0.564092, -0.951157, 1.650804, 0.997384, -0.267245, -1.062871, -1.215982, -0.537623, -0.398232, 0.570529, -1.129634, 0.519275, -0.019619, 0.444687, -0.258543, 0.105501, 0.385046, -0.241917, -0.210464, 0.31958, 0.465622, 1.580903, 0.045072, -0.9503, 0.159768, 1.969106, 0.232617, -0.169498, 0.504513, -0.633189, 0.333937, 0.829119, 0.058291, 1.848794, 0.352347, -0.010621, 0.199256, 0.053188, -0.489105, -1.448269, -0.344572, -1.92173, 0.039712, 0.43324, 0.920185, 0.863317, -0.526693, 0.455126, 1.215186, 1.521757, 0.799138, -0.118684, -0.337856, -0.727381, -1.14189, 1.161584, -0.090107, -0.064804, -0.136405, 0.331341, -0.255422, 3.225786, 0.202048, -0.159098, 0.389698, -0.516468, 2.284138, 0.502277, 0.12355, 0.527171, 0.299568, -0.028807, 0.052903, -0.655725, -1.019057, 0.207595, -1.632682, -0.081929, 1.605758, 0.291649, -0.603427, -1.322851, -0.671648, 0.480004, -0.169431, 1.491925, 0.306218, -1.531351, 0.625757, 0.316651, 0.252698, -0.165255, -0.520892, 0.569028, -0.115104, -0.346173, 0.693206, 0.901225, -0.735306, -0.959965, 0.442186, -0.686099, -1.205281, -1.538153, 0.335542, -0.844685, 0.408414, 0.471203, 0.87115, -1.772312, 1.493436, -0.522409, 0.15708, 0.846591, 0.805928, 0.78119, 0.090551, -1.699965, -0.570826, 1.130651, 0.025527, -0.233084, -0.064105, -0.711955, 1.733989, -0.916095, -1.63034, -0.186341, -0.371596, 1.32406, 1.778327, -0.559256, 0.030384, -1.070194, -0.276771, -0.290461, -1.286664, -0.157312, 0.568771, -1.160015, 0.495957, 0.263689, 0.35028, 0.826342, -0.149585, -0.332801, -0.083493, 0.714925, 0.238293, 0.009455, 0.746904, -2.155258, -0.807626, 1.113785, 0.376881, -0.56804, 1.149998, -0.754477, -1.216419, 1.263561, 0.793962, 0.222526, -0.692684, -0.934211, -0.199213, -0.909751, -1.186874, -2.046744, 0.617382, -1.449513, -0.980356, 1.616629, 0.934058, -0.62975, 1.693252, 1.613631, -0.935665, 1.202489, -0.415498, 0.326719, -0.026482, 0.920037, 1.653704, -0.842878, 0.134077, -0.625794, 0.120326, -0.995687, -0.851724, 0.374259, -1.020552, -0.33672, 0.744845, -2.188766, 1.487526, -0.205703, 2.133234, -1.538025, 1.124689, 0.622077, -1.537739, -0.977082, -0.450619, -0.846894, -0.160202, -1.909016, 1.977756, 1.72885, 1.084096, -0.059891, -0.929069, 1.189932, 0.268329, 0.23727, 1.126937, -1.315069, 0.539564, -0.268268, 0.150954, -0.245776, 0.313773, 1.32448, 0.154932, 1.231073, -1.574223, 0.355696, -1.297073, 0.624806, 0.379716, 0.251441, -0.610317, -1.782079, -0.278178, -2.413513, -0.575488, 0.491818, 1.194711, -1.138696, 0.264639, 0.166979, 1.568087, 2.006647, -0.520951, -0.179589, 0.428521, 0.230026, -0.511065, 1.154236, 0.330266, -0.233415, 0.736088, -0.519565, 0.53487, -0.228041, -0.123418, 2.323752, -1.887592, -1.100014, 1.340172, -1.492186, -0.239131, -2.49936, 1.314977, 0.865402, -1.738946, -1.322553, -0.85255, 0.985958, 0.971181, 0.546721, 1.29814, -1.685749, 1.965431, -0.551786, -0.117796, 1.919309, 0.776134, -1.142361, 1.605019, -0.335119, 1.879565, 0.781842, 0.518898, -0.100582, -2.039196, -0.011984, 1.200841, 2.574656, 0.026521, -0.775435, 0.710117, 0.10393, 0.487433, 1.257684, -1.545149, -0.424432, -1.211349, 0.144064, 1.592224, 0.069418, -1.530608, -2.110897, 2.018615, -0.524993, 1.20743, 0.79741, -1.323387, -0.088392, 1.210481, 0.381396, -0.88077, -1.784159, -1.358479, 0.493203, 0.450073, 0.48125, -0.07148, 0.990399, 0.472903, 1.42422, -0.466475, -0.218121, 0.440419, -0.642025, -1.056962, 0.953625, -0.329214, 0.437968, 0.4932, -0.468194, 0.828596, -1.109983, 0.626545, 0.453874, 0.684274, 0.519484, -0.193783, 1.262788, -1.765479, -0.656367, -0.066505, 1.382243, 1.237448, -0.055045, -1.46766, 0.593436, 0.679552, 0.218236, 0.232373, -0.969524, -0.741356, -0.192659, 0.471624, 1.66302, -0.422073, 2.48468, 0.873107, 2.094714, 0.02306, -1.310274, -0.771206, 0.7751, 1.691699, 1.717876, 0.258478, -0.603278, 1.539509, 0.596484, -0.503602, 0.408088, -1.545929, 0.325036, -0.010348, 0.796857, 0.303029, -0.992203, -0.385526, -0.961255, 1.366778, 0.230306, 0.57906, -2.596196, 0.095488, 0.87867, 1.898781, -0.79458, 2.426959, 2.273921, -0.128239, -1.103348, 2.365896, -0.087237, -0.223877, -0.352846, -1.296095, 0.909639, -0.077243, 0.330477, 0.414214, 1.477548, 0.714706, -1.074722, -0.646608, 1.88583, -0.716971, 1.070388, 0.110931, -0.15474, -1.466344, 0.664917, 1.311812, 1.348349, 0.562049, -0.634146, 1.317884, 0.661494, 0.846624, 1.227016, -0.814729, 0.311459, -0.995159, 1.451417, 0.217181, -1.38531, 0.239975, 0.288627, 1.7155, 1.48662, 1.689304, 0.149639, 0.932303, 0.471691, 0.222458, 0.459036, -0.369752, -0.238405, 0.53349, -0.96868, -0.175877, -0.563367, -0.341091, -0.564479, 1.170469, -0.577377, 0.916481, -2.485519, 0.509853, 0.392672, 0.04932, 1.819012, 0.269799, -2.001408, 1.655616, 0.01655, 3.339289, 0.056781, 0.546092, 0.764176, -1.350425, -0.067087, 1.339039, -1.279776, -0.514645, 0.292301, 0.977496, -1.086221, 0.00852, 0.200411, 0.75522, -0.331463, 1.73607, 0.237158, -0.395757, 2.176657, 0.561322, -0.107915, -1.192021, 1.015383, -0.333554, 0.652297, -1.749475, 1.287109, 0.689629, -0.393498, 0.564335, 1.232888, -0.28456, -1.742227, 0.686887, -0.362647, 0.834251, 1.585591, -0.315714, -0.280924, 3.069214, 1.811364, 3.219903, 0.506626, -1.33865, 0.358713, 0.344388, -0.488814, -0.476713, -0.251112, -0.197915, -0.083554, 0.451393, -0.566311, 0.744394, 0.833553, 0.940592, 0.039563, -0.873955, -2.272681, -0.177169, 2.850631, -0.43574, 0.072821, -0.939422, 0.450545, -0.383667, -0.791502, 0.368613, -0.153026, -0.135563, -0.864124, -0.178652, 0.333577, 1.123709, -1.244866, -0.284061, -0.566149, 1.289308, 1.268367, 1.495375, 0.049548, -0.977849, 0.105578, -0.676812, -0.747101, 0.59237, -1.73982, 0.153593, -1.260472, 1.277245, 0.687388, 0.952383, -0.097947, 1.179477, 0.351818, -0.578892, -1.582364, -0.598363, 0.106456, -0.397382, 1.114306, 1.306298, -0.968332, 0.529384, 0.420908, 0.879435, 0.254379, 0.857774, 0.327105, 0.185677, -1.219102, 0.490756, -0.674885, 0.470472, 0.254928, 0.304727, 0.53666, -0.263386, -2.446198, -0.891485, -0.916124, -3.486967, 0.232105, -0.366297, 0.055347, 0.682164, 0.816221, 0.367903, 1.084403, -0.167001, 1.37356, -0.529678, 0.882893, -2.048132, 0.932767, 0.305154, 0.513283, 1.02067, -1.992048, -0.815878, 0.98947, -0.856161, 1.609541, 1.044979, -2.066532, -0.719437, 2.431219, -0.345367, -0.706993, 2.30958, 0.147781, -0.216022, 0.232638, -1.916629, 1.128314, 0.383335, -0.17826, -0.566406, 0.155186, -0.641715, -1.523014, 1.163278, 0.128876, -0.420616, 0.638892, 1.095597, -0.550273, 0.767896, 1.913239, 0.041752, 0.235331, 0.026313, 0.777399, -0.737629, -0.171771, 0.235194, -0.600639, -0.535789, -0.346971, 1.44206, -1.361904, 0.258451, 2.838533, 1.288553, -1.886994, -0.021557, 0.729703, 1.692057, -0.655288, 0.73356, -0.826971, -0.170112, -0.718892, 0.238294, 1.912067, -0.116851, 0.490093, -1.881584, -0.068202, 0.881128, 0.380044, 1.518212, -0.94033, 0.700791, 0.53441, 0.386521, -0.763065, 1.710029, -1.641309, -1.831638, -0.03779, 0.135809, -0.469229, 0.433311, 0.589557, -0.170946, 0.660049, -0.578595, 0.895923, -0.771861, 0.369999, -2.578083, 0.18413, -0.832212, -1.694671, -1.186803, -0.839541, 0.319544, -0.700441, -0.087677, 0.772906, 1.044529, 0.214172, 0.365008, 1.795179, -0.153476, -0.059056, -0.895347, -0.693505, 1.167429, 0.613177, -0.409224, 0.523633, -0.485801, 0.57214, 1.562607, -2.07575, -0.883642, 1.29607, -0.357632, -0.110519, -0.384581, -1.551046, 1.044664, -0.497385, 1.299634, 1.573574, -1.318303, 0.393934, -1.178741, 1.133677, 0.46749, 0.78692, 1.084289, -0.170059, -0.227584, 0.463909, -0.343752, 0.995953, 1.744378, -0.228714, 1.247613, -0.615011, 0.508048, 0.722048, -1.341611, 1.070993, -0.166432, -0.131506, 2.806618, 0.500415, 0.788201, 0.968464, -0.677917, -0.007435, 1.298113, -0.900945, -2.451847, -1.85521, -1.320061, 1.173276, 0.266122, 