{"arch": [768, 64, 1], "scale": 600.0, "layers": [{"w": [-0.999564, -0.365682, 0.078832, 0.283874, 0.045568, 1.639471, 0.378396, -1.667078, 0.622369, 0.627541, -0.267831, 0.251022, 0.37539, -0.606826, 1.296263, 0.546022, 0.71654, 1.439455, -0.493856, -1.179507, -0.629774, 1.224628, -1.431658, 0.665897, 1.012602, 0.748286, 1.036903, -0.114778, 0.350914, 0.678568, 0.413164, -1.298511, 1.048747, 2.423078, -1.367509, -0.10538, -0.12301, -0.40758, 0.378097, 1.587902, -0.164106, -1.037036, 1.769995, -0.810091, 1.114264, -1.105653, -1.441735, -0.653847, -1.403627, -1.325379, 1.34755, 0.636416, 1.773394, -0.352076, 0.613055, -0.348162, 0.180357, -0.276183, 0.158888, 0.308382, 0.013465, -0.690319, 2.756874, 1.632327, 0.437085, -1.762223, 0.630764, 0.134097, -1.03602, 1.691365, -0.103904, 0.443706, -0.827017, 0.003019, -0.603628, -1.35106, -0.73798, 0.265643, -1.357061, 1.700611, -1.08674, 0.007939, 0.41949, -0.181394, 0.604264, 0.172409, -0.417908, -0.628553, 0.866536, 1.238552, -0.173146, -1.335365, -0.149382, 0.573421, 1.158653, 0.516539, 0.112666, -0.07503, -0.409926, -0.258808, -0.36768, -0.740318, 0.943264, 0.58845, -0.668141, -0.29051, -0.455732, -1.225184, -1.402452, 0.282142, -0.307258, 0.203631, -0.607421, 1.156733, 0.572604, 0.392109, 1.068653, 1.021814, -0.553291, 0.417716, 0.331665, 1.651292, 3.765074, 0.219149, 1.186725, -1.52172, -0.801767, -0.696828, -1.04714, 0.156862, 0.271818, -0.213288, -1.52131, -1.801186, 0.069617, -0.245414, -0.609459, 0.832416, -0.285799, 0.98435, -1.868409, 0.544564, 0.256895, -0.303092, 1.050443, 0.159805, -0.667604, -0.266338, 0.193331, -0.525113, -0.242771, -0.665157, -0.266907, 0.510097, -0.275945, 1.326143, -0.327252, -0.592645, -1.489539, -0.185852, -2.239491, 0.832061, -1.066125, 0.055751, -1.271969, 0.352107, -0.363841, 0.012074, -0.76193, 2.166699, -0.318977, -0.166657, 2.845928, 0.662946, -0.662122, 1.656834, 0.419506, -0.371421, -1.224748, -0.10896, 0.937537, -0.119991, -1.136722, -0.471386, 0.130612, 1.776051, -0.959924, -0.69348, 0.557209, 0.558564, -0.841719, 0.440251, -0.531848, -0.597488, 0.644801, -0.942346, 0.749735, -0.219716, 0.087153, -2.889471, -1.570343, -0.091644, -0.70286, 0.028644, 0.080434, 1.498801, -0.472011, 1.613546, -0.912872, 0.291429, -0.148206, 0.234914, -0.321744, 0.737906, 0.14761, -0.42671, 0.396658, -0.531557, 1.407588, -0.748307, 0.483236, 0.331607, -0.125394, 1.37251, 0.509677, -1.285061, -1.239291, 0.46969, 0.15473, -0.478032, 1.136896, 0.706484, -0.076587, 0.51469, 0.864501, -1.57881, 0.982558, 1.632015, -0.637115, -1.590543, 0.530525, 0.403921, -0.492888, 0.946231, -0.224753, -1.23077, -0.673064, -0.366487, 2.609069, -0.462583, -1.730603, 0.187919, -2.473133, 0.368544, 0.767739, 1.953308, -0.052302, 0.809352, 0.691515, 0.907683, -0.819286, -1.044812, 1.228207, -0.397203, 0.158698, 0.622387, -1.065036, 0.007016, -0.016499, -0.246965, 0.373486, 0.836135, -1.210945, -0.715703, -0.902915, 0.854798, 0.361164, 0.09127, 1.625955, 0.35077, 1.265553, -0.092035, -2.24247, 0.001867, 0.936188, 0.953808, -0.487886, -0.171707, -2.357674, -0.513198, 1.423758, -0.477926, 1.771845, -0.224803, -0.824807, 2.261116, -0.170359, -0.857865, 0.602649, 1.04744, 0.922304, -0.31781, -0.522609, 0.123921, 0.094878, -0.947645, 0.154273, -0.832875, 1.391011, -0.687186, 1.950086, 0.730909, -0.962993, 0.086159, 0.534469, -2.517345, 0.177396, -0.261321, -0.045987, -0.492858, -0.600004, 0.607065, 0.413992, 0.231962, 0.772166, 2.156893, 0.277111, 0.493056, 1.055362, -0.883118, -0.867782, -1.692762, 0.957132, -0.081849, -0.638596, 0.121835, 1.209786, -1.388289, -0.73794, -0.222925, 1.023265, -1.538259, -1.707672, 0.753348, -0.950754, -1.295061, 0.750466, -1.385606, -0.208906, -1.254421, -1.156607, -0.73636, -0.716018, -1.062383, 0.873913, 1.205599, -0.647151, -0.369427, -0.182013, -2.388896, 0.421761, 1.483364, 1.165892, 0.041574, -1.828427, 0.214784, 0.943549, -1.673716, 1.467023, 1.264434, 0.218474, 0.83034, 0.177471, 1.783077, -0.857018, -1.688649, 1.337146, -1.016988, 0.563142, 1.069964, -0.55274, 0.502321, -0.014326, 1.081602, -1.690102, 0.491879, -0.2551, 1.31702, -1.181591, -0.745856, 0.879527, -0.44979, 0.397753, 0.760328, 0.628261, -0.878699, -0.021509, -0.024682, 0.491959, 0.31628, -0.839509, -0.314596, -1.396664, 0.065094, -2.128485, 0.021775, -0.608954, -0.376727, -0.167883, -0.1288, 1.120384, -0.789389, 0.199981, -0.677071, 1.059181, 1.416047, 0.499716, -0.063293, 0.136543, -0.317115, -0.242173, -2.048934, -0.167452, -0.387526, -1.295811, -1.165721, -0.349188, 1.904821, 0.120864, -0.501779, -0.422104, 0.045658, -0.033696, -0.889408, -1.672182, 0.996533, -1.176746, 0.420437, -0.866446, -1.822613, 0.129685, -0.360105, -0.946924, -0.534896, 0.155501, 1.512817, 0.611084, 0.387009, -1.013727, -1.022738, 0.596905, -1.202448, 0.101428, -0.060101, 0.318638, 2.167135, -0.007936, -0.316099, 0.731336, 1.073027, -0.192718, -1.517817, 0.537113, -1.546893, 0.651306, -2.100857, 0.033728, -0.831769, 0.147897, -1.745319, 0.163482, 0.761508, -0.875458, -0.612882, 1.238432, 0.204636, -1.298314, -0.169784, 0.115088, 0.054786, -0.699612, -0.748542, -0.502765, 0.702131, -1.295528, 1.960657, 0.597295, -0.435589, 2.271086, -0.578902, 0.136707, 0.781965, 0.878717, 0.653935, 0.262077, 1.686324, -0.874415, -0.674069, -1.030992, -0.993088, 2.02247, -1.844551, -0.820067, 0.860663, 0.032221, 0.078327, -1.071648, 0.287268, -0.848537, -1.125167, -0.727758, 0.56037, -0.666785, 0.221122, -1.533227, 0.600564, 1.856955, 0.036414, -0.9472, -0.122635, 0.567275, 1.305913, 0.513665, -0.83588, -0.152878, 0.298325, -0.377665, 0.607746, -0.531135, 1.033016, -1.388012, -0.075717, 0.003578, -0.550731, 0.566627, -0.849337, -0.165563, -1.620677, -0.348682, -1.101829, 0.017556, 1.016399, 0.669429, 0.287029, 1.203612, -0.028879, -0.61513, -0.66035, -0.746087, 1.999514, -1.646373, 2.153285, 1.008103, 0.250046, 0.138551, -1.808906, 0.305626, -0.753071, 0.407387, -0.760909, 0.333064, -0.452706, -2.64359, -0.029018, 1.21181, -0.763011, 1.431325, -1.404309, -0.147206, 0.273789, -0.123223, -0.779607, -0.455707, 1.517786, 0.643883, -0.071231, -0.719508, 0.241705, 0.943828, 0.825932, -0.059454, -0.697023, -0.897759, -0.685862, 1.466326, 0.488707, 0.46567, 0.877705, 0.15711, 0.396245, 1.048635, 0.923533, -0.391097, 0.135514, 0.485576, 0.407819, -0.180474, 1.157679, 0.125347, 0.97558, 0.056685, 0.06064, -1.028904, -0.453529, 0.261094, 1.180726, -0.453099, 0.698839, -0.724458, -0.642616, -0.462017, -0.086027, -0.602974, 0.440647, 0.276653, -0.074484, 1.698545, -0.95768, -0.656532, -0.141715, 0.934018, -0.396056, 0.024814, -0.301442, 0.431325, 0.933872, -0.802874, -0.782455, -0.65088, 1.486304, 0.325485, 0.430654, 0.452808, -0.189795, 1.09692, -0.274502, 0.640507, -2.342491, -0.147315, 0.919845, -0.809978, 0.248325, 0.635743, 1.098993, 0.512969, -0.545583, 0.375387, -0.593371, 1.373243, 0.168104, 0.383889, -0.924987, 0.903381, -0.472848, 1.008535, 0.56769, 0.944711, 0.654314, 0.001517, -1.068376, 2.426572, 0.9445, -1.050454, 0.747664, 0.177383, 0.355675, -0.193391, -0.677273, 0.99047, -0.158862, 1.326194, -0.882387, 1.140642, 0.068301, 1.646008, -0.055604, 0.364601, -0.011607, -1.491892, 0.891719, -0.081961, -0.953485, 0.318468, 1.028372, 1.624329, 1.245823, 0.098104, -0.859993, 0.825095, 0.947969, -1.357261, 0.84136, 0.000334, -0.665107, -1.086666, 1.053811, 1.081839, 0.327707, 0.79449, -0.177641, 0.84198, -0.125557, -0.262609, 0.428444, -0.632153, -0.286707, 0.774176, 1.301351, 1.663925, -0.643744, -0.014045, -0.889107, -0.824949, -0.529965, 1.251873, 0.673574, 1.361595, -0.19842, 0.9817, -1.164391, 0.522406, 0.214863, 0.323548, -1.510259, -1.343863, 0.156891, -0.586179, 0.342206, 0.167619, 0.216937, -1.058711, -0.251763, 0.671849, -0.245967, -0.204279, -0.238716, -1.320976, -0.222148, -0.665071, 1.254222, -2.492094, 1.614269, -0.173819, 0.720067, -0.117753, -0.323388, 0.872629, -0.622983, 0.512197, -0.484274, 0.195283, -1.026872, 0.676028, -1.408742, -1.632444, 0.301148, 1.12864, 0.729619, -0.334865, -0.596075, -0.08831, 1.444377, 0.759195, 0.376011, -0.751823, -0.190628, 0.918501, 0.576772, -1.160747, -0.381239, 1.797963, -0.81859, 0.504149, -0.292985, -0.755582, -0.478226, 0.591111, -0.084162, 0.679288, 0.446891, 1.543197, 0.464217, -0.27173, 0.733179, -0.299768, 1.052948, 0.371825, 0.574629, -2.501748, 0.957921, 0.181292, -0.061344, -1.010839, 1.445778, -0.083978, 1.175598, 0.552868, 0.100565, -1.976932, 0.276994, 0.417681, 1.368915, 0.583023, 0.860259, 0.109338, 0.029457, 0.231088, -0.030442, -1.185411, 0.993251, -0.547614, -0.376552, 1.052995, -0.146302, -0.471913, 0.228423, 0.212138, 2.294018, -1.075857, -0.342589, 0.582545, -0.361554, -0.670872, -0.830909, 1.183201, 0.961579, 1.645589, 0.488702, 0.990083, 0.346699, 1.322021, 0.90889, -0.983394, 0.088084, 0.271604, 1.098888, 0.126303, 0.075038, -0.717494, 0.040609, 0.006014, 0.655276, 1.755377, -1.789114, 1.083772, -0.19146, 0.410372, -0.550784, -0.783, -0.510415, -1.136456, 0.945657, -1.050666, 1.643143, -0.177764, 0.898331, 0.465638, -0.286415, -0.842012, 0.382414, -0.471064, 0.071464, -1.641415, -0.747855, 0.656054, 1.87683, 0.188088, 0.770192, -2.035929, -0.28417, 1.82875, 0.380649, 0.193387, -1.144529, 0.946664, -0.283969, 1.184775, 1.13362, 0.996999, -0.817844, 0.211912, 0.219849, 0.73591, 1.413932, 0.729153, 1.37034, -0.329753, 0.647969, 0.561144, -0.146131, 0.009222, 0.060629, 0.664477, 0.873075, -0.438333, 0.924804, -0.446587, 1.742332, 0.552995, 1.435942, -0.408421, -0.688433, -0.775835, 0.237642, -0.487942, -0.271084, -1.381694, 0.100095, -0.812423, 0.080087, 0.639514, -0.567954, 1.110526, 1.196009, -0.463847, 1.002758, 0.05029, -0.993653, -0.851381, 1.399645, 0.175456, -0.07181, -0.799974, 0.424482, 0.425588, 0.155488, -1.686421, 1.249233, 1.405066, 0.355304, -2.833625, -0.492607, 1.090737, 1.016102, 0.144592, 1.257856, -0.99696, 0.679166, 1.074969, -0.525483, 0.237549, 0.865182, -1.287816, -0.377926, 1.614093, -0.133829, 0.852169, 0.005775, -0.804649, -0.068556, 0.523878, 0.399565, -0.27299, 0.652746, -0.935523, 0.341454, -0.308076, -0.906422, 0.969249, -0.352512, -0.809429, 1.503963, 1.399062, 1.883171, 0.055698, -0.022451, -0.670544, -0.152539, -0.872276, 0.018176, 0.980704, -1.241185, -0.554743, 1.569418, -0.329133, -0.004471, -0.374149, 2.381337, -1.045392, -0.071378, 0.404632, 0.740322, 1.105537, -1.004871, 0.587368, -0.419154, 0.455659, 0.16042, -0.978894, 0.98933, -1.0373, 1.29926, 0.880746, -0.231601, 0.456075, -2.892096, -0.61885, 0.987476, -2.577869, -0.127878, 0.671541, 1.541156, 1.470582, 0.508489, 1.812096, 0.72741, -0.205837, 0.782311, 0.997252, 0.51998, 1.017619, -1.767171, 0.532863, -0.182098, 0.974817, -2.288068, 0.864348, 0.047382, 0.368912, 2.764126, 1.269817, -0.268682, -0.138212, 0.293248, 1.477703, 0.930501, 0.71988, 1.203043, 0.142359, -0.364228, -0.323783, 0.098078, 0.274993, -0.132145, 0.338339, -1.522519, 2.787024, 0.726603, 0.189326, -0.486988, -0.439438, -0.751252, -0.547468, -0.06643, -0.365703, 1.219915, -0.271299, 0.870171, 0.20884, -0.416847, -0.103673, 0.28349, 0.467978, 0.75874, 0.413349, 0.730543, 1.949294, 0.321692, 2.27668, -0.309504, 0.608484, -0.131526, 0.217761, 0.290236, -0.789704, 0.43322, 0.863042, -0.423173, -0.50405, 1.75837, -0.390375, 0.046624, -0.233219, -0.661195, 0.348014, -0.347988, 0.769418, -0.505079, -0.107716, -0.719955, 1.062428, 1.632713, 0.303522, 2.494957, 1.02331, 1.601309, 1.668704, -0.222815, 0.805974, -0.428906, 0.046175, -1.293678, 1.272314, 0.918266, 2.526089, 0.240497, 1.187457, 0.801499, 0.642051, -0.676701, -0.865309, 0.382196, 0.201139, 1.84461, 0.050243, 0.663402, -0.009284, -1.164703, 1.160526, 0.188513, 0.419236, 0.750502, -0.45706, 0.476431, 0.742435, -1.111312, 0.86219, -0.484148, -0.109421, 0.012243, 1.739106, -0.271393, 0.111429, -0.48173, -1.160923, 0.273792, 0.03627, 1.537089, -0.364373, 0.120592, -0.974536, -1.853598, -0.302354, -0.988041, -0.157282, 0.12771, 0.75927, -0.312374, 0.869291, -0.545199, 0.625709, 1.14477, 0.038467, 0.078542, 0.856321, 0.546285, -0.855496, 0.375617, 0.626686, 0.131228, 1.360521, -0.21817, -1.503498, 0.852288, -0.361726, 0.225518, 0.649968, -2.545573, 0.390948, -0.397445, 1.577701, -0.364951, 0.658021, 0.039358, 0.97207, -0.014075, -0.190449, 0.344415, -1.023142, 0.332001, 1.343407, -0.898197, 0.336971, -0.007454, 1.26169, 1.331046, 0.555784, -0.703286, -0.173907, 0.655329, -0.361954, 1.29657, -0.605401, 1.273608, -0.073297, -0.927831, 1.109748, -0.64634, 2.15641, 0.257696, -0.060646, 0.893305, 1.463797, 0.307281, -0.933394, 0.68149, 0.75954, -1.721508, -1.898601, 0.089676, -0.295453, -0.706416, -0.075799, 0.30303, 0.256424, -0.782045, 0.060898, 0.393476, 0.146626, 0.483192, 0.443546, -0.391459, -0.223591, 1.041376, -0.149105, -0.338208, 0.448359, 0.537165, -0.064567, -0.630425, 0.598874, 0.227605, -0.574657, -1.246885, 0.459833, -1.299722, 1.554717, -0.610016, 0.342325, -0.034733, -0.812698, 0.536213, -0.675024, 0.099021, -0.532627, 1.580202, -0.334061, -0.013819, 0.334437, -0.420626, 0.00162, 0.384924, 0.518982, 0.359514, 0.136312, 0.101629, 0.05157, 0.21662, 1.491958, 0.743071, 0.182103, 1.270184, -0.096519, 0.463172, -1.631911, -1.058602, 1.558422, -0.632288, 0.186124, 0.20778, -0.570143, 0.925853, 2.04652, -1.146685, -0.315435, -0.228847, 0.955647, 2.167693, -0.675571, -1.633198, 1.015141, 1.176568, 0.170959, 0.370245, 0.484819, -0.993241, -0.48871, 0.84184, -0.039439, -0.519764, -0.011585, 1.097066, 0.795906, 0.554929, 0.823699, 0.190057, 0.101462, -0.646076, 1.030779, -0.804984, -0.516011, 0.101358, 1.313378, 0.061574, 2.405962, -0.132862, 0.44381, 0.738158, -0.815512, 1.318283, 0.573469, 0.233113, 0.361905, 1.623777, 1.304574, -1.219141, 0.418403, 1.07023, 0.036464, 1.121461, -0.450377, 0.726152, -0.241122, 0.257877, 0.91358, 0.08164, 0.298554, -2.057002, 0.802583, 1.519992, 2.041056, 0.931727, 0.26017, 1.328994, 1.031014, 0.260904, -1.187636, -0.728823, 1.246974, 0.682202, -0.710082, 0.539085, 0.391655, 0.402651, 0.596138, -0.38228, -0.311451, 0.035768, -0.477847, -1.422921, -1.31778, -0.587415, 1.00808, -0.761793, -0.217993, -0.698093, 1.98889, 0.734618, 0.209059, 1.313146, 0.328937, -0.767496, 1.290557, 1.023234, -0.117329, 1.661287, 0.378656, -1.733074, 0.37624, -0.00564, 0.994487, -0.092439, -0.224245, 0.338981, -1.369186, 0.916299, 0.980889, -0.001324, 1.628698, -1.391882, -0.857291, 0.98194, 0.247056, 0.367903, 1.581733, 1.340285, 0.757543, 0.114721, 1.415865, -0.16662, 2.040293, -0.22796, 0.18399, 1.777565, 0.939524, 0.220066, -1.018997, -0.334402, -0.134629, -0.597323, -0.563739, 0.856699, 0.037259, -0.251908, 0.674199, -0.604799, -0.165364, -0.951399, 0.869032, -1.454056, 0.322752, -0.050833, 1.220777, 1.66396, 0.976833, 0.21165, 1.230707, -0.320833, 0.004553, -0.868863, -0.061411, -0.069863, 2.209947, -0.147596, 0.456057, -0.897616, 1.434536, 0.272734, 1.330882, 0.433293, 0.000719, -0.33855, -0.766295, 2.455837, -0.688322, 1.138323, -1.207073, 0.117193, -0.191405, 0.834303, 0.674215, 0.61987, -1.973356, -0.435763, -0.461287, 0.15481, -0.241116, -0.310809, -0.543245, -0.378575, 1.15564, -0.9274, 0.995115, -0.092519, 1.036001, 0.879755, 1.781237, -1.71252, -1.007089, 0.211551, 1.634425, 0.404519, 0.342018, 0.997089, 0.948055, -0.15609, -0.550571, 0.986452, -0.762622, 1.781102, 0.715286, 1.419258, 1.127076, -0.067717, 0.897874, 0.033926, 0.399772, -0.476049, -0.964316, -1.717122, -0.190635, -0.514569, 0.577487, 1.325829, 0.819811, 0.920672, 0.90829, 0.009184, 0.620333, -0.189402, -0.089795, -0.475609, 0.389334, 1.746545, 0.946286, -0.232722, 1.501114, 1.677929, -0.139769, -0.27376, -0.467025, 0.356435, -1.757936, 1.63766, -0.778191, 1.578749, -0.626402, 0.433686, 0.759581, 0.549384, 1.019336, 1.311228, 1.095277, 0.598193, 0.127012, -2.319048, 0.248387, 1.246156, -0.045191, -0.283564, 0.75041, 0.32125, 0.54131, 1.300437, 0.841872, 0.975085, 0.292695, 0.753996, 0.399172, -0.041281, 0.996753, 0.071527, -1.954427, -0.469843, 1.27521, 0.840623, 0.850336, 0.193188, -1.669386, 0.3831, 0.140164, 0.211065, 0.50396, 0.598903, 0.405833, -0.079988, -0.005479, -0.738616, 0.008766, -1.444227, 0.070769, -0.331369, 0.943608, 0.118078, 0.20326, -0.93678, -0.336014, -1.248571, 0.308676, 0.52984, 0.152082, 0.184119, 1.345966, 0.409089, -1.210617, 1.387296, 0.915256, 0.817988, -0.087113, 0.648136, 1.786212, 0.029018, 0.744266, -0.620005, 1.026087, 0.601872, 0.225914, 0.298022, -0.396785, 0.321687, -0.683356, 0.331667, 2.251161, -0.691692, -0.233838, 0.880143, 0.503052, 0.493823, -1.265568, 0.073271, 0.515736, -0.350713, 0.572957, 0.358264, 0.677308, 0.789592, -1.367357, -0.800452, -0.329114, -0.942117, 1.361635, -0.041878, -0.461139, 0.518687, 0.108813, -1.203365, -0.992626, 1.063572, 0.700192, -0.522868, 0.684535, -0.641723, 0.903465, -1.492851, 0.123587, -1.346293, -0.196105, -0.233231, 0.732674, 1.556371, -0.224971, 0.314742, 1.063646, -0.218463, 1.277043, 0.29859, 0.607565, 1.581682, 2.054961, -1.497663, 0.558938, 0.853887, 0.503531, 0.242345, -0.924956, -0.562259, -0.408095, -0.620145, 0.619662, 0.943689, 0.180849, 1.252212, -1.012667, 0.606885, 0.234868, -0.624292, 0.438884, 1.312672, -0.529953, 0.983639, 0.389138, 0.934752, -0.637006, 0.483608, 1.679592, 0.69525, -0.517546, -0.464377, -0.424555, -0.450273, -0.574466, 0.482905, 1.538851, 0.113042, 2.252497, 0.883219, -1.35912, 0.052711, -0.299383, -0.565521, 1.60946, -1.068497, 0.668642, 0.660628, 0.355761, -0.486041, 0.075091, 0.206327, 0.301844, 0.104678, 0.18399, -1.027525, 1.174064, 0.099986, -0.297722, 0.880242, 1.463908, -0.998391, -0.021595, 0.852363, 0.69205, 0.185009, -0.019612, -1.56999, 1.459623, 0.438177, -0.287414, -0.294218, 0.893859, -0.19668, -0.057383, 0.672989, 0.537331, -0.338887, 1.209714, 0.284793, -0.032783, -1.55457, -0.35621, -1.474041, -1.365914, 0.227598, 0.801757, 1.487143, 0.093487, -0.673165, -2.00384, -0.132267, 0.752838, 1.101818, 0.55104, 1.161265, -0.899438, 0.721862, -1.193309, -0.39718, -0.419105, 0.79485, -0.566756, -0.591547, -0.096821, 0.198952, 1.202926, 0.713216, 0.981329, 0.631141, -0.967142, -0.090439, 0.284479, 0.295245, 0.11062, 0.556842, 0.465327, -1.288931, -0.24374, 0.201393, 0.419002, 0.990354, -0.459019, 0.093659, 0.681008, 1.097686, 0.049803, 1.035495, 0.983589, -0.91217, 0.358057, 1.00456, 1.179064, 1.967834, 0.018736, 0.416982, -0.336509, -1.279547, 1.403267, 1.903699, 0.130416, 0.490093, -1.343197, 1.327676, -0.125614, -0.538634, 1.038892, 0.628616, 0.190949, -0.205453, -1.05354, 1.324627, 0.104003, -1.059514, 0.161262, -0.375833, 0.435541, -0.618089, -0.933778, -0.075017, -0.257927, 0.136939, 0.202079, -1.497008, -0.392693, 1.547943, 0.406281, 0.862982, -0.50294, 0.02219, 0.072936, 0.357769, 1.49135, -1.516069, 1.110406, 1.16267, 0.503553, -0.203788, 0.221311, 0.110222, 0.540907, 0.43445, -1.117081, -0.173263, 2.09879, -0.494211, 1.800454, 0.846939, 1.636691, -0.454694, 1.647252, 1.48188, -0.308146, -0.059307, 0.181347, 0.320586, 0.859027, -0.532989, 0.091204, 0.387337, 0.084029, 0.21505, 0.456387, 0.160752, -0.56284, -0.324409, 0.711972, -0.223147, -0.445656, -0.03949, 2.666951, -0.305737, 0.16948, -1.237032, 0.32485, -0.124615, 0.330816, -0.206898, -1.714734, 0.209839, -0.485921, -0.765916, -1.024321, 0.713953, 0.560836, 2.473862, 0.483672, 0.383982, -0.860754, -0.219391, 2.087791, -0.88461, -0.874542, 0.830835, 1.584851, -0.047098, -0.397963, 1.434005, 0.332918, 1.568023, -0.811084, 0.137684, 0.926789, 0.498223, 0.560248, 1.349388, 0.965233, -0.517449, -0.849755, -1.288415, 2.20728, -0.426268, 0.434399, 0.773846, -0.128953, 0.385614, -2.058283, 0.68859, -0.224916, 0.922902, -1.310099, -0.090325, 0.119158, 0.922306, 0.364216, -0.342078, 1.466798, -0.228694, -0.441265, 1.164357, 0.740098, 0.211613, 0.280632, 0.319744, 0.100701, 0.795801, -0.63053, 0.531567, 0.141107, -0.767612, 0.284286, 0.081186, 0.08614, 0.525867, -0.979527, 0.337209, 0.530617, -0.59145, -0.464725, 0.520585, -0.409051, -0.800499, -0.242772, -0.266522, 0.155736, -0.421659, 0.583653, 0.816722, 1.308669, -0.305281, 0.151207, -0.835311, 0.686711, -0.45486, -0.135816, 1.847766, 0.588895, -0.639265, 0.606905, -0.632998, 0.290611, 0.10428, 0.261268, -0.284583, -0.538456, 0.493118, 1.824063, -0.084516, -0.251936, -0.135771, 1.237546, -0.721116, 0.37358, -0.243641, -2.146835, -0.659805, 0.256978, 0.006207, -0.259526, -2.295336, 1.280477, 0.794427, 0.263715, 1.3859, 0.701634, 1.592538, -0.610965, 0.463529, 0.691398, -0.728099, 0.239113, 0.061157, 0.672922, 0.65199, -0.139767, 1.655255, 0.912421, -1.28765, 2.725717, 0.052446, -0.928036, 0.244539, 0.48491, 1.661291, 1.895984, 0.151552, 0.631409, 0.599836, 0.63694, 0.180716, 0.620788, 0.694877, 0.65458, 0.891802, -0.604325, 0.36469, 0.036826, -0.73056, 0.485941, 1.484733, -0.455305, 0.079879, 1.565197, -0.586289, 0.828653, 0.085284, 1.245477, -0.625239, 0.585663, 0.773418, 1.387837, -1.089496, -0.478858, 0.829704, 0.372136, 0.063823, 0.024691, -1.463546, -0.498327, 0.379229, -0.550705, 0.873224, 1.374948, -0.87808, -0.402578, -0.087365, 0.421436, 1.632199, 0.074017, 0.679021, -1.366056, 0.503962, 0.89966, -0.924407, 1.860329, 0.112531, -0.20917, 0.009253, 0.684773, 1.22063, 0.18062, -1.615879, 0.07069, 0.10418, 0.358566, -1.682002, 0.155785, -1.732985, -0.232071, 0.241533, 0.758007, 1.000944, 0.756178, 0.979516, -1.0888, -0.220423, 1.512784, 0.749422, -1.197232, 0.855958, -0.233245, -0.026276, 0.019483, 1.966618, 0.916102, -0.709174, -0.528031, -0.863698, -0.130549, 1.447429, -0.103375, -0.462867, -0.445861, -1.146785, -0.018302, 1.251215, 0.3873, -0.060857, 2.331511, -1.304556, 0.695074, 1.902208, -0.200823, -0.03286, 0.584365, -0.097885, -1.55263, 0.831467, 0.169486, 0.606797, -0.012874, -0.188199, -2.058752, 0.944776, 1.002072, 0.037584, 2.060729, -0.597484, -0.557607, 0.910597, 0.340662, 0.989538, -0.258652, -2.351396, 0.976717, 0.141553, -0.835624, 2.854759, 1.383985, 1.161132, 0.883643, -0.469081, 0.062173, -1.279217, -0.409405, 1.180295, 0.630117, 0.607021, 0.677433, 0.110876, 0.819468, 1.009115, -0.414552, -1.560799, 0.404266, 2.69596, 0.289885, -0.02413, 1.334814, 0.431739, -0.328434, 0.520324, -0.573927, 0.0738, -0.380742, -0.65333, -0.431614, -0.679595, 0.792956, -0.200861, -0.561426, -0.423686, 0.866533, 0.924437, -0.617231, -0.64309, -0.306313, 0.234374, 1.256632, -0.135463, 0.652128, -0.986741, 0.44637, 0.352895, -0.451778, -0.298203, -0.224268, 1.140034, 0.530968, 0.282939, 1.70903, 0.47496, 0.547627, 0.463574, -0.027675, 2.182455, -0.459755, 0.61923, 0.728926, 1.823027, -0.543488, 0.85832, 1.565857, 1.075683, 0.398694, 0.808654, -0.039458, -0.360712, 0.478646, -1.535961, -1.211369, 0.349298, -0.810363, 1.512492, 1.112013, 0.27641, -0.117028, -0.078695, -0.983479, 0.773286, 0.337912, 0.83921, 0.790141, 0.244666, -1.215218, -0.448537, 0.155433, 0.094328, 1.03959, -0.681752, 0.391587, 0.446653, 1.822677, 0.002094, -0.042696, 1.150754, 0.055427, 1.908503, 0.034162, -0.826901, -1.045954, 0.177394, -0.38567, -0.297471, 0.150515, 0.229167, 0.359996, 0.22397, -0.568846, 0.585322, -0.472689, 0.982536, -0.97135, -1.152134, 0.594757, -0.471682, -0.215133, -0.895004, -0.777856, 1.495397, 0.550592, 1.541563, 1.152706, -0.317481, 1.091405, 0.322842, 0.72977, 0.889884, 0.337231, -1.251756, 0.7758, -0.933103, 0.152082, -0.211772, -1.047137, -1.248977, -0.83085, 0.640081, 0.122333, 1.211265, 1.289865, 0.524271, 0.984146, -0.703674, -0.669894, 0.699077, 1.403445, 1.063645, 0.149107, -0.761893, 0.600677, -0.469766, -0.097564, -1.000305, 0.338854, 0.296882, 1.116036, 1.875896, -0.140542, -0.686339, 0.742158, -1.342653, -0.317578, 0.735627, -0.852928, -0.298751, 0.753499, 0.548915, -1.460737, 0.861179, 1.795416, 0.986861, -0.08657, 0.83657, -3.32577, 1.162691, -0.454237, -1.053266, 1.435945, 0.509848, 0.760061, 0.479918, 0.108528, -0.889659, -0.099315, -0.608181, -1.881683, 0.042997, 0.694636, 0.607013, 1.348241, 0.688927, 0.079133, 0.272936, 0.272909, -2.15321, 1.12516, 0.288061, -0.157031, 0.201685, 0.838878, 0.334776, 0.513915, 0.854161, 1.446567, -0.25369, -0.56764, 0.281088, -0.106099, 1.746962, -0.207314, -0.092902, 1.819371, 0.540704, 0.969941, 0.841325, -0.107774, 0.304436, 2.850058, 1.244836, 0.640365, -0.016329, 0.743845, 0.236248, -0.217588, 1.051752, 0.200044, -0.144449, -0.622313, 0.886821, -0.151832, 0.38456, -0.94203, -0.829297, 0.808557, -0.574215, -0.149318, -0.244266, -0.670018, 1.343767, -0.527269, 1.161703, -0.914003, -0.134501, 1.003883, -0.847192, 1.484338, 0.984565, -1.207035, -0.880967, -0.357825, 0.408017, 0.598506, 0.362673, 0.019194, 0.181635, 0.60334, -0.083109, 1.061286, -0.774224, 2.045025, 0.562537, 0.13341, -0.319484, -0.71706, 0.519706, 0.905269, 0.377433, -0.378925, -0.387943, 1.768669, 2.03844, 0.446819, -0.280573, -0.359228, 0.480894, 0.243282, 0.616148, -0.652616, 0.279326, -0.8337, 1.219928, 0.848804, 0.139352, 0.504601, 1.285782, -1.034075, 2.020859, -1.120058, -0.092574, 0.735818, 0.587567, 0.731197, 0.23246, 0.995491, -0.652582, 1.193719, -1.295367, 0.052854, 1.631578, -0.062563, -0.520445, -0.340747, 0.461654, -0.557324, -0.601541, -0.945252, -0.254514, 0.346719, -0.476873, -0.819295, 0.874529, -0.752057, -0.942041, 0.334958, 0.828854, -0.382084, 1.155042, 0.185903, 0.302839, 0.335672, 0.006009, 0.451215, 0.197594, 1.417581, -0.914747, -0.014164, -0.778018, 0.00888, 0.506275, 0.361108, 1.529431, 0.044163, 0.913882, 1.708392, -0.542456, -0.900019, 1.163568, 2.065869, -0.517484, 0.256258, -0.201611, 0.687246, 0.820384, 1.515931, -0.712043, -0.228506, -0.828135, 2.428284, 1.788926, 0.245255, 0.85316, -0.648871, -0.909859, -0.699206, -0.699494, -0.335675, 0.268832, 1.805488, 0.643742, -0.094583, 1.392783, -0.702187, -0.631411, -0.247202, 0.14291, 0.465317, -0.35888, -0.066069, -1.205901, 0.469712, 0.29333, -1.494122, 1.731876, 0.698116, 0.401456, -0.643018, 0.866695, 0.613156, 0.658925, -1.28874, 0.072023, -0.008308, 0.940134, -0.790954, -0.814707, -1.787808, 0.105397, 0.954929, 0.485754, -0.855013, 1.167973, -0.239077, 0.315017, 0.069267, 0.729506, -0.796755, 1.091526, -0.347071, 0.661339, 0.45009, -0.001488, 0.296985, -0.977248, 0.86872, -1.85176, 2.262221, -0.927752, 0.404002, 2.242425, 0.431212, -1.376078, 1.670318, 0.177525, 0.374025, 0.196181, -0.300673, -0.119129, -0.788864, 0.51426, -0.905445, 1.534385, -0.262921, 1.761215, -0.030031, -0.060829, 1.036874, -0.153457, 0.346129, -0.046083, 0.593123, 1.045837, -0.287249, 0.727712, 1.785567, 1.30987, -0.831332, -0.283149, 0.49019, 0.510085, -0.848113, -0.621409, -0.87422, -0.622546, -0.02811, -0.943322, 0.710503, -0.033715, 1.53459, -0.179128, 0.421892, 1.044625, -0.363908, -0.000771, 0.219177, 0.741224, -0.857019, 0.539611, 3.119851, 0.906519, -0.924961, -1.009318, 0.108071, -0.342666, 0.244631, -0.713143, 0.870659, -0.343419, 0.308187, 1.155192, -0.460361, 0.125108, -0.343641, 1.150463, 0.911284, 1.112472, -0.797769, 0.383094, 0.142478, 0.574944, 0.163123, -0.274977, 0.032855, 0.019581, -1.188296, 0.080876, 0.564779, 0.445593, -1.178399, -2.032029, 0.858623, 0.03489, -0.293091, 0.008935, 0.726699, -0.801552, -0.766142, 0.547264, 0.444683, -1.337008, -2.094074, 0.135701, -2.322617, -0.123775, 0.759212, 0.310543, 0.594558, -2.311099, 0.85154, -0.057248, -1.488423, -0.662737, 1.296082, 1.386898, 0.423484, -0.580682, 0.016796, 0.77038, 0.771167, -0.612584, 0.635271, -0.031181, 0.12275, -1.386552, 0.208642, 1.07864, 0.940907, 0.160462, 1.086462, 0.858505, 1.501565, -0.12979, 1.250783, -0.788021, -0.802592, -0.628736, 0.955922, 0.549816, -0.591615, -0.587074, -0.091785, 1.813216, 0.351442, 0.749781, 0.221978, 0.457128, -0.835188, -2.284233, 0.516213, 0.615614, -2.344059, 1.78626, -0.125516, -2.774955, -1.053296, 0.595604, 1.475754, -0.567954, 2.288941, -1.121086, 0.526681, 1.008904, 0.876511, -0.895558, 1.188618, -2.316634, 0.627395, 0.981702, -0.34659, 0.258879, -0.720653, -0.588009, -2.002433, 0.810782, 0.241025, 0.749219, -0.216263, -0.478763, 1.693886, -0.055666, 0.450154, -0.079505, 0.294175, -0.070763, -1.03983, -0.6955, 0.294641, -1.067071, 0.169751, 0.087928, 0.284092, -0.233505, -1.614736, 1.444342, 0.446495, -0.228477, 0.008651, -0.048292, 1.583587, 0.027248, -1.433479, 1.14842, 0.670514, 0.097101, 0.424071, 0.32165, 0.373684, -0.279556, 0.501041, 2.340482, 1.309229, -0.367208, 0.245123, 0.26872, 0.719172, 0.098177, -0.678013, -0.074342, -0.843677, 0.187159, 1.736405, -0.046452, -0.490814, 1.613355, -0.808088, 0.092771, 2.023276, 1.001159, 0.145412, -0.659847, -0.405625, 1.478252, 1.054549, 0.292531, -0.564594, -1.026778, 0.043068, -1.483126, -0.415344, 0.186188, 0.177091, -0.052679, 0.980914, 0.084962, 0.72411, -1.348431, 0.943147, -0.973458, -0.201583, -1.011559, 0.291461, 1.244635, -0.408874, -1.302675, -0.022613, 1.589442, 0.29848, 0.721288, 2.372738, 0.486145, -0.261664, 0.909666, -0.062527, -0.045601, 1.487998, 1.053901, 0.846242, -0.603539, 0.392998, 2.158009, -0.725132, 1.744467, 0.007089, 0.556443, -0.586605, -0.010035, 0.651099, 0.440397, -1.107913, 1.14131, 0.190568, -0.999377, 0.396062, 0.508214, -0.005595, 0.619187, 0.740857, 0.307452, 0.574102, -0.191395, 0.453272, 0.597687, 0.106997, -0.88652, -0.242273, 0.841572, -2.276389, -0.61898, -0.225285, -1.452947, 2.014321, -0.411656, -0.65049, -0.926307, 0.590068, 0.778151, -1.014331, 1.362278, 0.096036, -0.558596, 0.002088, 0.072912, 0.352918, 1.013486, -0.17079, 0.246905, -1.232678, -2.35806, 0.253731, 1.768238, 0.594839, -0.64988, -0.208551, 1.793215, 2.024543, 0.804256, 0.429685, 0.08854, 0.934168, -0.616311, 0.826007, 0.882093, 1.123554, -0.241386, -0.883686, 0.338565, 0.816668, 0.58347, -0.475529, 0.513036, -0.737087, 0.224187, -0.295085, 0.936323, -0.618573, -0.152656, -0.750155, 0.982687, -0.275952, 0.461951, -0.834849, -0.318678, 1.538874, -1.339737, 0.035719, -0.523247, 0.057218, 0.172308, -0.985476, 0.227353, -1.194824, 0.878366, 0.51177, 2.016824, 1.333801, -1.063776, 0.372479, 0.372644, 2.168866, -0.707862, 0.712812, -0.037696, -0.02938, -1.027116, 1.047056, -0.781766, 2.279013, 0.263669, -0.004773, -0.066873, -0.800595, -0.25617, -1.783947, 1.699116, -1.386189, 0.420566, -0.030397, 1.473064, -0.194769, -0.004771, 1.226395, -0.342618, -0.637414, 0.802074, 0.867435, -1.32193, 0.919373, 1.385638, -1.122614, 0.159098, 0.765395, 0.429522, 0.449786, -0.082035, -0.248945, -0.024949, 0.571538, 0.97099, 0.086925, 0.074234, -0.152912, 0.024618, 0.810005, -0.029123, 1.001465, 0.201254, 0.363196, 0.348201, 1.079881, -0.772905, 0.725059, 0.066788, -1.456201, 0.125191, -0.554638, -0.261807, -0.188931, -0.098169, -0.45887, 0.33566, -0.764321, 0.369396, -0.990218, 2.013935, -0.181231, 2.152272, -0.203372, 1.480228, -0.916384, -1.131217, -0.325123, 1.147064, -0.93966, -0.605289, 1.307558, 1.078055, -0.422667, -0.132982, -1.603225, 1.126597, 0.937727, 0.632035, 0.276904, -1.790714, 0.194731, -0.214502, 0.665512, -0.666372, 1.126337, -0.656583, 0.013137, 1.135876, -0.286093, 0.658868, 1.568321, -0.388627, 1.46595, -0.01318, -1.938881, -1.031358, -0.54751, 0.525498, -0.775775, 0.706962, 0.243689, 0.146682, 0.405917, 0.119791, -0.400437, 0.843849, -0.264509, 1.278494, -1.642851, -0.126774, -0.676302, 0.875642, 0.911889, 0.211864, 1.863944, 1.012527, -1.558109, 0.853948, -0.042625, 0.400854, 0.091727, 1.009112, 0.141273, 0.757352, 0.302097, -0.941255, 0.000408, -2.29819, -0.100931, 0.89091, 1.804114, 0.323146, 1.270573, -0.746912, 0.080462, 1.085475, -1.16967, 0.521894, 0.174859, 0.807366, -0.156068, 1.008633, -1.439541, -1.762804, -1.420581, -0.364306, -1.841061, 1.194993, 0.372163, 1.753508, 1.122745, -0.338992, 0.664748, 0.177461, -0.21064, -0.85349, -1.321389, 0.870097, -0.627583, 0.343788, -0.487112, 0.551158, -0.693089, -1.518743, 0.812345, -0.325567, -1.401211, 0.708093, -0.481589, -0.613928, -0.43481, -0.411646, 1.398157, -1.634106, -0.277068, 0.586122, -1.126708, -0.486178, 1.277425, -0.258845, 0.920768, -0.726246, -0.650041, 0.711171, 1.002885, -0.270075, 0.384627, -0.669516, 0.901615, 1.841295, -1.062142, 0.205461, 0.59238, 2.320987, 1.266292, 0.414328, 0.888019, -0.605441, 1.225224, 1.699946, 2.328718, 0.807249, 0.605209, 0.169006, 0.001734, 0.948325, 0.555784, 1.806989, -0.258807, -0.500157, -0.054993, -0.519712, 0.62085, -0.340807, -0.029785, 0.48513, -0.696621, 1.265179, 0.490299, 0.717846, 1.361813, 0.041955, 1.096845, 0.21952, 1.664806, 1.501652, -3.332096, -1.32309, -1.839877, 0.711092, -0.050704, -0.244136, 0.902661, -0.555594, -0.766986, 0.83592, 0.323836, -1.225013, 0.484027, -2.005629, -0.252103, -0.76777, -1.06084, -0.304199, -1.812982, 1.508211, 1.753684, 0.956354, 0.567046, -1.17859, -0.005154, 0.548338, 0.11101, 0.99955, -0.406707, 2.519629, 0.476103, -0.904233, 1.773707, 0.117122, -1.14566, 0.618968, -0.736937, 0.025443, -0.268885, -0.199634, -0.885329, 0.361717, -0.27543, 0.587798, 2.670635, -1.208128, -0.158651, -1.07246, -0.76129, 1.398764, 2.048688, 2.05848, -0.613992, 0.527205, -1.30394, 1.001218, -1.103008, 0.315242, -1.352353, 1.978218, 1.113194, -1.331723, 0.454397, -0.606713, -0.343932, -0.879318, 1.570697, -2.205923, -0.577958, 0.238804, -1.316843, -0.506284, 0.488115, -1.216538, 0.362469, 1.168249, 1.510646, -0.863677, -0.192055, -0.258195, 0.351776, 0.450736, -1.030234, -0.526531, -0.262051, 0.155282, -1.121344, -0.38012, 2.053658, 0.959683, -1.229293, 2.655495, 1.619269, -0.36257, 1.332907, -0.597788, 0.173068, -0.748492, 0.156065, 0.379641, -0.782378, 1.873012, 0.940101, 0.45139, -1.371513, -0.588867, 0.549206, -0.560714, 0.434828, -0.965738, 0.780194, -1.092586, -0.4877, 0.990069, 0.169113, 0.682983, -0.565794, 0.263503, 1.166394, 0.5477, 0.669771, 0.618806, -0.461852, 0.210308, 1.28335, -0.660626, -0.942564, 0.497184, -2.505908, -1.468996, -1.829469, -0.938721, 1.364328, 0.643654, 0.510727, 2.16923, 0.4144, 0.724179, 0.217044, 0.51196, 0.577545, -0.968316, 1.226166, 0.624022, -0.585187, 1.995438, 0.427642, -2.336325, 1.121054, 0.981737, -1.380633, -0.129343, 0.606823, 1.623532, -0.205266, -0.940212, 0.364161, 0.396184, 2.055817, 0.133853, 0.563718, -0.736536, -0.037488, -1.57121, -1.048835, 1.335461, 0.490723, 1.387245, -2.237648, 0.646921, 0.523286, 0.609863, 2.427027, 1.680788, -1.876013, -1.726105, 0.115634, 1.175336, 0.860608, 0.965055, 0.898324, -1.36646, 0.146311, 0.243842, 0.467835, -0.405375, -1.24785, -2.020614, 0.462402, -0.061382, 1.270103, 0.037583, -0.891009, -1.153531, -0.710378, -0.457204, -0.403027, 0.293724, 0.18916, -0.057124, -2.191082, -1.235218, 2.015754, -0.766895, -0.575815, 0.431472, 1.625057, 1.129678, 0.318425, 1.199972, -1.298992, -0.526228, 1.904494, -0.043058, 0.034006, 0.092039, 0.688298, 0.246416, -2.546472, 0.217405, 0.059265, 0.252539, 0.00613, 0.350758, -0.423702, 0.50981, -0.155944, -0.660407, 2.097827, 0.516259, -1.967088, 1.363427, -1.059637, 0.367343, 2.838268, 0.649239, 1.902878, -1.395805, -0.865781, 0.101366, -0.006132, 0.412568, -0.457098, 0.42161, 0.238257, -1.14315, 0.007381, 0.488816, 0.316598, 1.751209, 0.323615, -1.202178, 1.333549, 1.792886, 0.486083, 1.500708, 0.566686, 1.210562, -1.42798, -0.12675, 0.860255, 1.918095, 1.375397, 1.006502, 0.506354, 0.445181, 1.100719, 0.362175, 0.10715, 0.671128, -0.205792, 1.434311, -0.875076, 0.284881, 0.563563, 1.275843, -0.338141, 0.869249, -0.0071, -1.451836, 1.116977, 1.111441, 1.569165, 0.422307, -0.491506, 0.407038, 1.582547, -2.926646, 0.528295, 1.195316, -0.964176, 1.883926, 1.18212, -0.280086, 0.482522, 2.647881, -1.573443, -0.030799, 0.145568, 0.229479, 0.425689, 1.228007, -0.875747, -0.308812, 1.855796, -0.518815, 1.250828, -0.558479, 0.652985, 1.302413, 0.142456, 0.849695, 0.371046, 1.114963, 0.577336, 0.941333, 1.191271, -0.393388, -1.481974, 0.190428, 1.056852, -1.377875, -0.184253, -0.331433, -0.431036, -2.007601, -1.119894, -0.312286, -0.432873, -1.313422, -0.780722, 0.27935, 0.004785, -2.34178, -0.04243, 2.707325, -0.785928, -0.581839, -0.190589, -2.382095, 2.159172, -0.25055, -1.204122, -0.623149, 1.44272, 1.665001, 2.781968, 1.569865, 0.900844, 1.947526, 0.661947, -0.162686, 1.71035, 0.388728, -0.28217, 0.232174, 1.335617, 0.300705, -2.297553, 0.560607, -0.698774, -0.111048, -0.167195, -0.248264, 0.518924, 0.625943, 1.355165, -1.026597, -1.152376, -0.502762, -0.154098, 1.770107, 0.768232, 1.330607, -0.61869, 0.193521, -0.349631, -1.073545, -2.004875, 2.614193, 1.041967, 0.076717, -0.051271, 1.487592, -0.624925, 0.664651, -1.518951, 2.754779, 0.650086, -0.356652, 0.139321, 1.8908, 0.916075, -0.88161, 1.109313, 1.047845, -2.195005, -0.276149, -1.556777, 1.143821, 1.192826, -2.168512, 0.883729, -0.975819, 1.662848, 1.41359, 0.103526, 2.025343, 0.202903, -1.190168, 0.797169, 1.587197, 0.380117, 1.754359, -0.118655, -1.048908, -1.06686, -1.189698, -0.490416, 1.57045, 1.010775, 0.255139, -1.003689, -1.585775, -0.445527, 0.708173, 0.220467, -0.871567, 1.452496, -0.149903, -0.58723, -0.885655, -1.461046, -0.158491, 0.166824, -2.069517, 0.925267, 1.657193, 1.516324, 1.269968, -1.887655, -2.658872, 1.405175, -0.663377, 0.202811, -0.16363, 0.176436, -0.085631, -0.987229, -0.084219, 2.538213, -0.077156, -1.031116, -1.034768, -0.41734, 0.401446, 1.953977, 0.89938, -0.702056, -0.197996, -1.981888, 0.879984, -2.003968, -1.389141, -0.513539, -0.134377, -1.639892, -0.749127, 0.931449, 1.850763, 1.416616, -0.288483, -0.930281, -0.206461, -1.544723, 0.526358, -1.628301, 0.383481, -0.286587, -1.358624, -0.006103, -0.404486, -0.394859, 0.369813, 0.451042, 1.198738, -0.532014, 2.20305, 0.165761, -0.353515, -1.036858, -1.375236, 0.315151, -0.742594, 0.557566, -1.73352, -0.640245, -0.879746, -0.406899, 2.33092, 1.526748, 0.457998, 0.371507, -0.284783, -0.310802, 0.809848, -0.223625, 1.986581, -0.319307, 0.636689, 1.723022, 2.200145, -1.216685, -0.264908, -1.608508, 0.346111, 0.407404, -1.250731, 0.133056, 0.254833, -1.525031, 0.301032, 0.344607, -0.23073, 0.486455, 0.257538, 1.1741, -1.784626, -0.342754, -1.675566, 0.505801, 0.82138, 0.312209, 0.268157, -0.265989, 0.384012, -0.770774, -0.261897, 2.266919, -0.277158, 0.751249, 1.705454, -0.055973, -0.296179, 0.62897, -0.863222, -0.994067, -0.725239, 0.478983, -0.757846, -1.816783, 0.970637, -1.467317, -1.183283, -0.255889, 1.535668, 0.23818, 0.250186, 0.675157, 0.074686, 1.567181, 1.032948, 1.163425, 0.628221, -0.733635, -0.783846, 0.209955, 0.549492, -0.761221, 0.183809, -1.210783, 1.178568, -0.275097, -0.986917, -0.653677, -0.43567, 0.188625, -1.313816, -1.165043, 1.36467, 1.926797, 1.046998, -1.89892, 0.372145, 0.250489, 0.521716, 0.385615, 0.685339, -0.780977, 0.160235, 1.482716, -0.478193, 0.394094, -0.760633, 0.649309, 0.63336, 1.247975, -1.471599, -0.883896, -0.058501, -1.076692, -1.588555, -0.688266, -0.843947, 0.389973, 0.1599, -0.980743, 0.541395, -0.121648, 0.025758, -0.305437, -0.479468, -2.78503, -0.101246, 0.199595, -0.451198, -0.465157, 0.337614, -0.991555, 0.077864, 0.606889, -0.877818, 0.985639, -1.004828, 0.595709, -0.027841, -1.064276, 1.04904, -0.936306, 0.472726, 0.617113, -0.304995, -0.202907, 1.068395, -0.760522, 0.27832, 0.319926, 0.526242, 0.421165, -0.567442, -0.329446, -1.547153, 0.000921, -0.894019, 1.466429, 0.981534, 0.358289, 1.096418, 1.029067, -0.90821, 1.391824, 0.846147, -0.644685, 0.519934, 0.686314, -1.078773, 0.029644, -0.521501, 0.719022, 0.278182, 1.14784, -0.514776, -1.637251, 0.146573, -0.381979, 0.900176, -0.441706, -0.02119, 1.496847, 0.454849, 0.001253, -0.446402, -0.698802, -0.563527, 0.984076, 2.100518, -0.310319, 1.698683, 0.657219, 0.620056, 1.592427, 0.887455, -0.28084, 1.084803, 0.47831, 0.366645, 0.126016, 0.325163, -0.443862, 0.006733, 0.427416, -0.138209, -0.851189, 0.353465, 1.512173, -1.012313, 0.462791, -0.047385, -1.022367, -0.37341, -0.718709, 1.548687, 0.182767, 1.365629, -0.71685, -0.452955, -2.167562, -2.26205, -0.216225, -1.346087, -0.082155, 0.10947, 0.257067, 1.148933, 0.661954, -0.883242, 0.165516, -0.804226, 0.499597, 1.133919, -0.012088, -0.206527, -0.388849, -0.501295, 0.463332, -1.179546, 1.083941, 0.325355, 1.625609, -0.758339, 0.224042, 0.435341, -1.500519, -1.619527, -0.197655, -0.239664, -2.073972, 0.06227, -0.372488, 0.394903, 1.184315, -0.607434, -0.604928, -0.066916, -2.300414, -0.734284, 1.067438, -1.40099, -0.41187, 0.580274, 0.629288, -0.242774, -0.856263, -1.422022, -0.850361, -0.414292, 0.944123, -1.4875, 0.795059, 1.592204, -0.62825, 0.685535, 0.994127, -0.739254, -0.110612, -0.947833, -0.377738, 1.25443, -0.151098, 1.112298, -0.362882, 0.996662, 1.262381, 0.034831, -0.424074, -2.963289, 0.515079, -1.681221, -2.039025, -0.706223, -1.583346, 1.260557, -0.924361, -0.368856, 0.233604, -0.741016, -0.540388, 1.080564, 1.315298, 0.391362, 1.34215, 1.223132, -0.028822, 0.030923, -2.166089, 0.504809, 0.942846, -0.456719, -1.700851, 1.146887, 1.522432, 0.687541, 0.308714, 1.68678, -1.101556, 1.461772, 0.023617, -0.409082, -1.609912, 0.269931, 1.777028, 1.083319, -1.025893, 0.564303, -0.770242, 0.931811, 0.720978, -0.202517, 1.428356, 0.385699, 0.003886, 0.262061, -0.47432, -0.209129, 0.6785, -0.30653, 2.042787, -1.827158, -0.710858, -0.79098, 1.212873, 0.639123, -0.092005, -0.563637, -0.226782, -0.754212, 0.787962, 0.55735, 1.770964, 0.351169, -0.923257, -2.895234, 0.358673, 0.65056, -0.553695, 0.881366, -0.81269, 1.813684, 2.307027, 0.47708, -0.975274, 0.596671, -1.89651, -1.574292, -0.482614, 0.89857, 0.081045, 0.201276, 0.478794, -0.014889, -0.425509, -0.604458, 1.148801, 0.873729, 1.448343, 0.269218, -1.041314, 0.999618, 0.729699, -0.988007, 0.941058, 0.326105, 1.369567, 0.601783, -0.469601, -0.340914, -1.256821, 0.027619, -1.803188, 1.059764, -0.807331, 1.463538, -1.62397, 0.039311, 0.434693, -0.114343, -1.366634, -1.055596, 1.420648, -1.478655, -0.772117, -0.611074, 1.193924, -1.444626, 0.207868, -0.764222, -2.206582, 2.319912, 0.328816, -2.0196, 0.252345, -0.554947, 0.022436, -0.043667, -1.360404, -1.226061, -0.746708, -1.288852, -0.949143, 0.271851, 0.341538, -0.638285, -0.601187, -1.041593, 1.584885, 1.011029, 1.51228, 0.707393, 0.250686, -2.461238, -1.483853, 1.48701, 2.240024, 1.821951, -0.087746, -0.149856, 0.99946, 0.215581, 0.596946, 0.688326, 1.125286, 0.76479, -0.532127, -1.17032, 0.336146, 0.65954, 0.279084, 0.679521, -1.253523, -1.932406, -1.287396, 1.017307, -1.265703, -1.547619, -0.081401, -0.015287, -0.042903, 0.239841, -1.037814, 0.308207, 0.196639, -0.753457, -0.607056, -1.341809, -1.747672, -0.615999, -0.113643, 0.040829, -1.372486, -1.782984, 2.246347, 2.269072, -0.234358, -0.213914, -0.022972, -1.196872, 0.860432, -0.733009, -0.309413, -0.146639, -1.030556, -1.644752, 1.09428, -1.292468, -0.936547, 0.459372, 0.462781, 0.817654, 0.42232, -1.465967, -1.627859, -1.451766, 1.347201, 0.565516, -0.481838, -0.244561, 0.569717, -0.365774, -1.299834, -1.342873, -0.449674, -0.218725, 0.126801, -1.585592, -0.811106, 0.062575, -0.513258, 1.45906, 0.425057, 1.130723, -1.293846, 0.955342, 0.211222, -0.099499, -0.658968, 0.955803, -1.706664, 0.166032, -0.273566, 1.23623, 0.66513, 0.236656, 0.236765, -1.244162, 0.345521, 0.242551, -1.426747, 0.805305, -0.006418, 0.869029, -2.477618, 1.550203, -1.8977, 1.398707, -1.894543, -1.446814, 0.565471, -0.216764, 2.140317, 0.479709, -0.062508, -0.087279, 0.202618, -0.698626, 0.58554, -0.297536, -0.112966, -0.993133, -1.055627, -1.956875, -2.03481, -0.044796, -0.526828, 1.307389, 0.57902, 1.161676, -0.301282, -0.439827, -0.80388, -0.328546, 0.477004, 0.084506, 0.038124, 1.363562, 0.852417, -1.181915, -0.470912, 0.366609, -0.987587, -0.50453, 0.692937, 0.04148, 0.031321, 0.544025, 0.963773, -1.549906, 1.465522, -1.376718, -1.153766, -0.510694, 0.218428, 1.148311, -0.46144, -0.403764, 0.285519, -0.790494, 0.383715, -1.346834, 0.893052, -2.155302, 1.823591, -0.42444, -0.584822, -0.422654, 0.096352, -0.195052, -1.143161, -0.075206, 0.354899, 0.132861, -0.356745, 0.517631, -1.038999, 1.157807, 0.461538, -1.338878, 1.866041, -0.179542, 1.037929, 1.577152, 1.006854, -0.713137, 0.762578, -1.229711, -0.92664, -0.954789, 0.859048, -0.427727, -1.664546, 0.136933, -1.186413, -1.186568, -1.266064, 2.897431, -0.147675, -0.216533, 1.384376, 1.202838, -1.37232, -0.654847, 0.109655, 1.008716, 0.670596, 0.512572, 0.233788, 1.419893, -1.234393, -1.487596, -1.593154, 0.81018, -0.7526, 0.165647, -0.914275, 0.306271, -0.842693, -0.611151, 1.215252, -0.651833, -0.229856, 0.31578, -0.433465, -0.791043, -0.508838, -0.02784, -0.211228, -1.219766, -0.389984, -0.53499, 0.847606, -0.381699, -0.58259, -1.979482, 0.652833, 0.915644, 0.394369, -0.140864, -0.680619, 1.180471, 0.011751, 0.522551, 0.882967, -2.302405, -0.346796, 1.062009, 0.782508, -0.058416, 0.107819, -1.642192, 0.747338, -1.147854, 1.615636, -0.777145, 1.17213, -2.756645, 0.144538, 1.882615, -1.008839, 0.527099, 0.942619, -1.380626, -0.491485, 0.687553, -1.285719, 2.054424, 0.661792, 0.400036, 0.211875, 0.70009, 0.491032, 0.005781, -0.843957, -0.907681, -1.680217, -1.098457, -0.589425, -0.253684, -0.130193, -0.640326, 0.685002, 1.360471, -0.500259, 1.765299, 0.565287, -0.391647, 0.561618, 0.948562, -1.047645, -0.859769, 0.55487, 2.488164, -1.254457, -1.875794, -1.280148, -1.091285, 0.796137, 0.310627, -1.235694, 1.253848, -0.280682, -0.222761, 0.258959, 1.138599, 1.320454, -0.834929, -0.347859, 0.156755, 0.086457, 1.125313, -0.562483, 0.83565, -0.609313, 0.089262, 0.100556, -0.27549, -0.377387, 0.994928, 0.988052, -0.055744, 2.246602, 0.158101, 1.8564, -1.644881, 0.815104, 0.690357, -0.013556, -0.546001, -0.076121, 0.224409, 0.968605, -1.351394, -1.189047, -0.38782, 1.677155, -0.207843, 0.518972, -0.882777, 0.507556, -2.30976, 0.450448, 0.434177, -0.946699, 0.068902, -0.243378, 0.030015, -1.169647, -1.19586, -0.627055, 0.857908, -0.767569, 0.278453, 1.123433, -1.114827, -0.111382, -0.966025, -0.194825, -1.092299, -0.147846, -1.065313, -1.450886, 0.194642, 0.299568, -2.351866, 0.440133, 1.304464, -1.307866, 1.719246, 0.09294, 0.974647, -0.34213, -0.833825, 0.226194, 0.841382, -1.096169, 0.058005, -0.520298, -0.312384, 0.874419, 0.364878, -0.958241, -0.819763, 1.175983, -0.538696, 0.612411, -0.915312, -0.35105, 0.70301, 0.451545, -1.000189, -0.475651, -0.354267, 0.986199, 0.231073, -0.824625, 0.963261, -0.258261, -0.391043, -0.704071, 1.73206, 0.313214, -0.410563, 0.610832, 1.968831, 0.568779, -0.955691, -0.047542, -3.436664, -0.507117, -0.260755, -0.541169, 0.399492, -0.208922, -0.44159, 1.389241, -0.284396, -0.780339, -1.575207, -0.172838, 1.536036, 0.378801, -0.467069, 1.224345, -1.338812, 0.658233, -0.214876, 0.270143, 0.26069, -1.588691, 0.337307, 0.723856, 1.942941, 0.939996, -0.817651, -1.754801, -0.178148, -1.267624, 0.725506, -0.443744, 1.078854, -0.610751, -0.781291, -1.723956, 0.004413, 0.243836, -0.255299, -0.599634, 0.637005, 0.188817, 2.483905, 0.450745, 0.534666, 1.121334, -0.611049, -2.252794, -0.340491, -0.396707, 1.080125, 0.714206, -0.45199, -1.402887, 0.851047, 1.88209, -0.787392, 0.220479, 1.126512, -0.550961, 1.249848, 0.962765, -0.439405, -0.720101, 1.007083, -1.126572, -0.40201, -0.012963, -1.630391, 0.305249, -0.756977, 0.739445, 1.136866, 0.099984, -0.608719, 0.783639, 0.705553, -0.207921, 1.131683, -0.836516, 0.188656, -0.007268, -1.909549, 0.805536, -0.671516, 0.708738, -1.337885, 0.037034, -0.226818, 1.183032, 0.922208, -0.756598, -1.290592, -0.415728, -0.084832, -1.1426, -0.278491, -0.038485, -0.300909, -1.803422, 0.517454, 0.115113, -0.855811, 0.065738, 1.634655, -0.296036, -0.591842, 0.539845, 0.310413, 1.334324, 0.983196, -0.56315, -1.68744, -1.851997, -1.149649, 0.510763, -0.84468, 2.015863, -0.607862, 0.113801, 0.724376, 1.178878, -0.046948, 1.27262, -0.143156, -1.097427, -0.015859, -1.869955, 1.200914, -0.962383, -1.168694, -0.792864, 1.412246, -1.088133, -1.086654, -1.281541, -0.453161, 0.576326, 1.868717, -0.847042, -0.487605, 0.841871, -0.671665, -1.646068, -0.237129, 0.443096, 1.300526, 1.061884, 0.507589, -0.930726, -1.291966, -0.627277, 1.407156, -0.67972, 0.60691, -0.376477, 0.312718, -0.450837, -0.392966, -1.281471, 1.24429, 0.450802, -0.536905, -0.501283, 0.81603, 2.684818, -1.289397, 0.318677, 0.658471, 1.057538, 0.962612, 0.0914, 0.540096, -0.113208, -1.537359, -0.043099, -1.250786, -0.288669, 1.038796, -0.435538, 0.603251, -0.07851, -0.236125, 0.857552, 0.110525, -1.253282, -0.133782, 0.15876, 1.537972, 2.311675, -1.222798, -0.239457, -0.370441, -1.291518, 0.390898, 1.570757, -0.558782, -1.483529, -0.727094, -0.140243, -0.260397, 1.531064, 0.513675, 0.813991, 0.524184, 0.734126, 1.47192, 1.310627, 0.605192, 1.463911, 0.989239, -0.255665, 1.264508, 0.464338, -0.044554, -0.50358, 1.210015, -0.469102, -0.072391, 1.07102, 1.412351, 0.825131, -1.064495, -0.818958, -0.141417, -1.370104, -1.221814, -0.706801, 0.214072, -0.740599, 0.867107, 0.837061, -0.053753, -0.513713, 0.316014, -1.02534, -1.391737, 1.58001, -1.74566, -0.423026, 1.368988, 0.918989, 0.306096, 1.647166, -0.120253, 1.421682, 0.014788, 0.268351, 0.369128, 0.344842, 0.808667, 0.693465, 1.464955, -1.48818, 0.442858, 0.491508, 1.444306, -0.938014, 1.670832, 1.059066, 0.393149, -1.02923, -0.606641, 0.42221, 1.534917, -0.564973, -1.268118, 1.045817, 2.136762, -0.549041, 1.723814, 1.139139, 0.134293, -0.601177, -0.628524, -0.186795, -0.354505, 1.203769, 0.288093, 1.608572, 0.207717, -0.827666, -0.888004, 0.002173, 0.989016, 2.093489, 1.110204, 0.992167, 0.755491, -0.172217, 0.33817, -1.25509, -0.026215, 0.391892, 1.823927, -0.13358, -0.86165, -0.94002, 0.550452, -1.373657, -0.242886, -0.022435, -1.111103, 0.645627, -0.122009, -0.147942, 2.698153, 0.483195, 2.395011, -0.158508, 1.63956, 1.029149, -0.71435, 0.985555, -0.024698, -0.343416, 1.149731, 0.51861, 0.868692, -0.304582, 1.136695, -0.014517, 0.50333, 1.751643, 0.20862, 0.638526, -0.10359, -1.354433, 1.114453, 0.813361, 1.220149, -0.551114, -1.032535, -0.681846, 1.090729, -0.371403, -0.225708, 0.549738, 0.584693, 0.244164, 0.826738, 0.647327, 1.092543, -0.166197, 1.209783, 2.552106, -0.319822, 0.3593, -0.335577, -0.095514, 0.017941, -1.087186, 2.038263, -1.709982, -0.230484, 0.954696, -0.458986, 0.184163, 0.331684, -0.773899, 0.470428, 0.93417, 2.665111, -0.01948, -0.841022, 1.173825, 1.166236, 1.879582, -0.394421, 0.981008, 1.691247, -0.815461, -0.102773, 0.668479, -1.453554, 1.007982, -1.219922, 0.079667, -1.366925, 3.040002, -2.013112, -0.372717, -0.819434, 0.292966, 0.93737, 1.28422, 1.762304, 0.762191, -0.590119, -0.56742, 0.185602, -0.143121, 0.472266, 0.239622, 1.161689, -1.562939, -1.595815, 0.183328, -0.798253, 2.903175, 1.343795, 1.329445, -0.463405, -0.869527, -0.97037, 1.227173, 0.29258, -0.100037, 1.359027, 1.128817, -1.310424, -0.717096, 0.703346, 0.956691, -1.554139, -0.87576, 1.177459, -0.229722, -0.08288, 0.154616, 0.811755, 1.17791, 0.180024, -2.980898, -1.082498, -1.416031, 2.208414, -1.290891, 2.358452, 1.774436, -1.531199, -0.553316, 0.724895, -0.949916, -0.688516, -0.516258, 0.319384, 0.537868, -0.170087, 0.77629, 0.389976, -0.171541, 0.515662, 0.020478, 1.974066, -0.800032, -0.229561, -0.699814, 0.460718, -0.012179, 0.572194, 1.946192, 1.089871, 0.576119, -1.371062, -0.618985, -0.272209, -1.278364, -0.328941, -1.207409, -0.61836, -0.837313, 0.047071, -1.612736, 2.103412, 0.774932, 0.93458, -0.466446, 0.743155, 0.53906, -1.071737, -1.978063, 0.895114, 1.064095, 0.164623, -0.597572, 0.520334, -0.163877, -0.867014, 0.123436, 1.434472, -0.376169, -0.573554, -0.358062, -1.757063, -0.600868, 0.044391, -0.089745, 1.046807, 0.347488, 0.754028, -0.097092, -0.909368, 0.051211, 0.270124, 1.447565, -1.570056, 0.976285, 0.089424, -0.580743, 1.371068, -0.282058, 0.542558, -0.241332, -0.401461, 2.230132, -0.466705, 0.520093, 0.28405, 0.707582, -0.744774, -1.230658, 1.246975, -0.432314, 0.857003, 1.114828, 1.758809, 0.902628, 1.823444, 0.826995, -0.517184, 0.906435, 0.993013, -1.523994, -1.028997, 0.054418, -1.12422, 0.784891, 1.064634, 1.445873, 1.068016, -0.881246, 0.654541, -1.75939, 1.553231, -2.360483, 1.79737, -0.82309, 0.496072, 0.776308, 0.574334, -0.078476, 1.847172, 0.275265, -1.312754, 0.343874, 0.028158, -0.736731, -1.359383, 2.277251, 1.647266, -0.250763, 0.835056, -0.865603, 0.674493, 0.366968, 0.477739, 0.649651, -0.167074, 1.502267, -0.056956, -0.48473, -0.966324, -1.327679, 1.182782, 1.81407, 0.732763, 0.254098, 1.694945, 1.700219, 0.217183, 0.948155, -1.329896, -1.17344, -0.739191, 0.539327, -1.668038, 0.638149, 1.174678, -0.1357, 1.265315, -1.089343, -1.676858, -0.683975, 0.93408, 0.562329, 0.949567, 1.175276, 0.316883, -0.634234, 1.41485, 1.013813, 0.634306, -0.995989, -0.185129, 0.693326, 0.18527, 0.750701, -0.818619, 0.524788, 0.563263, 0.221667, 0.273843, 0.651755, 1.531321, 0.08944, -1.918941, -0.391227, -0.038155, 0.078057, 0.766985, 1.146624, 1.336163, 0.365034, -0.228699, -0.964612, 0.142664, -0.183027, 0.279125, -0.370055, -0.476475, -0.313963, 0.903305, 2.921517, -0.594153, -0.777175, -0.594557, -0.013894, 2.651933, -0.056292, -0.27498, 0.247649, 1.555665, -1.485419, 2.401087, 0.291344, 0.550973, 0.222947, -2.829148, 0.253056, -1.444093, 0.577816, 0.237217, -0.53098, 0.926979, -0.771176, 1.430329, 0.752098, 0.488737, 2.134631, 0.909407, 1.470697, 0.143021, -0.009576, -1.643551, 0.360128, 0.583613, -0.062665, -0.586827, -0.806763, 0.326806, 0.631466, -0.744226, 0.169024, 1.356693, 0.174015, 1.779628, 1.560184, -0.258734, 0.513929, -0.509375, -0.081741, -0.745352, -0.715622, -0.128211, 0.665815, 1.111837, 0.416773, -2.220909, -0.861106, -0.509013, 1.406777, 0.110765, 0.215828, 0.61327, 0.82577, -0.221323, 1.307108, 0.586396, 0.309997, 1.339741, 0.843286, 0.259695, 0.135677, -0.598426, -1.823713, -1.424003, -1.684524, -0.24609, -0.050583, -0.194282, 0.174507, 0.66365, 0.093834, 0.509628, 0.407252, 0.767985, 0.572232, 1.747824, -1.556822, -0.000595, 0.477162, 0.021751, 0.23829, 0.268672, -0.352131, 0.782867, 0.411106, 1.423613, -2.730587, 1.264196, 0.183622, -0.320406, -1.585687, -0.964623, 2.097714, -0.008326, 0.674563, -0.926604, -0.916709, -0.394182, 0.036717, 0.406509, 0.008932, 0.984114, 1.233963, -3.002734, 0.058104, 0.466445, -2.380403, 1.219258, 0.654036, 0.158635, -0.413866, -1.141394, 0.511716, 0.352455, -0.822048, -1.361033, 0.190959, 1.048822, 1.055158, -0.864137, -0.15639, 0.519181, 0.906107, 0.206432, -0.823805, -0.133477, 1.625851, -0.274024, 1.750391, 0.612577, -1.014656, 1.234929, -1.050742, -0.724359, -0.193736, 1.875491, 0.747194, 0.696575, -0.603057, -0.643614, 1.565957, 0.66105, 0.406411, 0.084865, 1.080667, 0.327236, 0.584583, 0.424267, 1.224704, -0.684611, -1.467726, 1.145085, 0.488278, 0.699903, 0.620691, 0.866624, 0.638047, 0.410468, -1.099697, -0.134472, -0.164088, 0.660302, 0.424374, 0.441783, 0.170355, 0.505972, -1.796227, -1.563897, 0.734349, -0.190769, 2.052167, 0.146767, -1.169544, -0.45808, 0.657169, -1.057232, 0.389079, 1.11164, -0.478913, -0.764144, -1.410831, -2.171725, 1.68155, 0.497345, -0.358133, 0.784178, 1.423306, 0.226037, -0.798269, 0.162318, 0.166692, -0.47954, 0.910632, 0.673044, 1.622057, -0.291689, 1.195818, 0.093226, -0.012662, -2.247806, 2.165581, 1.105839, 0.941556, -1.612504, 0.291604, 1.089489, 0.248318, -0.398378, -0.040033, 0.55722, 1.498271, -0.418428, -1.441771, -1.237415, 0.438051, 1.373211, 0.098808, -0.715884, -0.069723, 1.207875, 0.952812, 0.33464, 1.310858, 0.460837, 1.484968, -0.269475, 0.14203, 0.564129, -0.341973, -0.710167, -1.829306, -0.295934, 0.1346, -1.109386, -0.884474, -0.419887, 1.023091, -0.553364, -0.055508, 0.709453, -0.494648, 0.646689, -0.093687, 1.658997, -2.648633, 1.927322, 0.465927, 0.067075, -1.206424, 0.14454, -0.685347, -0.072756, 0.45932, 0.682547, -0.173168, -1.696445, 0.017888, -0.196816, -0.197816, 1.63794, -0.305969, 0.475053, 1.167184, 1.99308, 0.908597, 0.732316, 0.583894, -0.621407, 0.763578, -1.533718, 0.603238, -0.3074, 0.861894, 0.056849, 0.433929, -2.031823, 0.046282, 0.771158, -0.936804, 0.088451, 0.227071, 0.964134, 2.417076, 0.158035, 1.137004, 0.542448, -0.658808, 0.081487, -0.405442, -0.701597, 1.491006, 0.195849, 0.53685, -1.591577, -0.64561, 2.075998, 1.100612, 1.207257, -1.481671, -0.491122, -1.538503, -0.089194, 0.288157, -0.245564, -0.190499, 1.17713, 0.697285, 1.084688, -1.053093, -1.083033, 0.86893, -0.60586, 0.069571, -0.87219, 0.110359, 1.316494, -0.663131, 2.085922, 0.319197, 0.15961, -1.259909, 0.554877, 1.087644, 1.476442, 0.363622, 0.480074, 0.809143, 0.787111, 1.068608, 1.184787, 0.005449, 1.189112, -0.087962, 0.59844, -0.080732, -1.257257, 0.12247, 0.636169, 0.073917, -2.211692, 0.854487, -0.966626, 1.137984, 0.071292, 1.124018, 0.808456, -0.706161, -0.029366, -0.245982, 1.236369, -0.39387, -0.142678, 1.926467, 0.733114, 1.219561, -0.211926, -0.237296, -1.766081, -0.194538, 2.189371, 1.650529, 0.718309, 0.013616, 0.104158, -0.136535, 1.257708, 1.143078, 0.145687, -1.119599, 0.614214, -1.297672, -1.602719, -1.360093, 0.846876, 0.878635, -0.11706, 0.603703, -0.707644, 0.877414, 1.208298, 0.537353, 0.269336, 0.590911, -0.014504, -0.182361, -0.191676, 1.38823, 0.380615, -0.313595, 0.034741, 0.529907, -0.038992, 1.297024, -0.613741, 0.994869, -0.431541, 0.483354, 0.654239, 1.074311, -0.879389, -0.109531, -0.043734, -0.697948, -0.975103, 0.624704, 0.242168, -0.732547, 1.698894, 1.68263, -0.248488, 1.755297, 0.826666, 1.194517, 0.274896, -0.044831, -0.152486, -2.003304, -0.367634, 0.107635, 0.88554, 0.500583, 0.818671, -0.46466, -0.415137, -1.116414, 0.086259, 1.438956, 0.082886, 1.161157, -0.849958, -0.212673, -0.573998, -0.26837, -0.886601, -0.15053, -0.699778, 1.669503, 0.883782, 0.007608, -0.607, 0.747006, 0.728366, -0.487118, 1.488107, 1.112135, -0.896365, -1.106595, -0.962612, -0.21974, 0.348949, 0.680531, -0.392579, 0.209026, 0.576688, 1.31833, -0.105742, 0.82093, -0.096233, 0.623598, -0.352691, 0.311754, -0.560592, 0.661716, 0.334756, 1.313716, -0.132407, 0.144217, 0.872523, 0.48253, 0.222335, 0.344104, 0.676708, 0.11221, -1.073394, -0.513457, -0.137419, 0.46861, 0.879003, -0.689568, 0.51569, -0.819304, 0.378423, 1.104079, 1.481273, -1.545668, 0.195436, 1.261789, -0.465504, 1.068223, 0.694398, -0.964794, -0.203585, 0.28437, 1.047104, 0.212341, 0.626005, 0.934566, -0.266799, -0.252879, 0.388402, 0.160311, -1.03444, 0.999887, 0.031181, -0.599123, 0.614083, -1.027025, -0.484146, -0.467675, 0.589193, -0.298058, -0.714291, -0.742594, -0.644039, -0.886959, 0.464145, -0.397688, -2.162935, 0.033806, 1.592875, -0.182136, 0.194437, 1.903374, 0.45226, -0.719709, 1.13684, -0.787019, 1.617701, -0.986767, 0.314642, -1.132226, -0.42146, 0.569336, -1.023202, -0.935382, -0.366661, 1.551166, -0.379059, -0.583595, 0.224094, 0.373376, 0.875529, -0.016659, 0.960421, 1.032711, -0.722068, 0.599027, -0.190172, 0.150526, -0.930757, -0.636863, -1.173228, 1.337876, 0.339436, 1.149571, 1.78448, 0.95959, -0.86269, 0.835413, 0.238954, -0.972947, -1.099929, 0.828902, -0.575149, 0.549224, 0.198001, -0.872397, 0.581968, -0.931672, -0.186497, -0.821133, 0.173715, -1.492999, 0.473319, 0.195131, 0.284455, -0.887696, -0.305852, 0.903937, 0.389338, 0.119819, -0.660534, 0.634584, 2.569239, -0.503552, 0.572271, 0.613768, -0.957542, 1.192707, -1.364087, -0.617014, 1.386326, 0.424341, 1.565717, -1.360182, -0.274207, 0.231642, 0.096528, -0.28437, 0.519594, 0.355537, -1.732899, 1.077915, -1.448501, -0.511643, 0.824301, -1.425896, 0.122092, -2.136047, 0.278506, 0.268855, -0.640099, 0.167437, 0.279853, -0.404559, -0.303849, -1.06035, 1.321695, -0.193515, 0.395402, 0.066883, -0.472207, -1.613545, 1.508282, -0.548937, 1.240692, 0.9551, -0.756001, 0.438807, 0.22068, 0.688195, 0.528684, -0.696748, 0.066495, 2.1965, 0.172929, 1.910063, 1.358108, -2.404674, 0.250544, 0.114136, 1.315371, -0.168506, -0.855655, 0.24447, 0.021347, 0.790732, -0.557234, 0.010435, -0.700098, 0.713977, -0.120472, -0.619369, 0.619599, -0.706749, 0.869532, 1.233054, 0.499205, 0.160425, -0.21532, 0.451494, -0.380512, 0.481103, 0.90397, 0.736964, 0.556904, 0.010296, 0.324367, 0.04292, 0.272629, -0.024841, -0.04867, -1.046134, 0.938674, 0.676037, 0.303457, -0.611086, -0.039028, 1.150224, 0.268022, 0.9477, 0.917493, -0.330965, -0.037123, 0.451935, 0.17448, 0.638927, 0.173652, -0.567014, -0.920297, 0.514417, -0.006275, 1.548928, -0.558547, 1.050153, 1.398812, -3.177095, 0.688163, 0.089523, 0.57549, -0.352085, 0.195398, -0.954218, -0.327809, -0.613353, -1.44486, 0.014702, 0.778581, -0.029001, 0.368399, -1.670976, 1.108977, 0.49703, 0.686338, 0.694743, 0.904428, 1.710763, 0.140572, -0.595936, 1.37152, 0.744218, -0.603779, 0.144012, -0.542657, -0.005568, -0.827729, -0.512425, -0.132251, -1.165378, 0.365494, 1.056134, -0.656974, 0.059538, 1.046956, -0.747831, 0.998433, 0.883469, 0.177185, -0.189608, -0.095696, -0.2928, -0.320206, -0.411155, -1.380431, -0.151182, 2.44068, -0.863996, -0.070077, 0.636456, -0.075026, -0.406246, -0.672715, 0.317872, -1.673786, 0.33482, -0.694433, 2.249262, 0.220473, 0.21806, 0.372651, 1.335879, -2.219125, 0.37168, 0.187696, 0.322329, 0.325162, -0.301016, -0.066076, -0.989126, -0.475824, 0.774314, 0.74081, -0.804146, 0.823122, 0.211412, -3.110796, 0.207553, 0.107712, 0.703385, 1.143372, -0.13018, 0.620501, 1.962291, 0.456533, 3.019434, -0.130268, 0.082425, 1.964662, -0.09787, 1.088785, -0.510437, 0.911527, 1.471138, 1.348851, 0.342536, -0.846887, 0.737862, -0.666571, 1.056389, 0.817582, 1.037375, -0.372601, 0.041171, -1.028368, 0.754782, -1.047834, 0.681412, -0.220273, 0.628416, -0.216138, 1.012403, 1.010126, -0.104871, 0.294541, 0.181328, 1.631039, 1.866559, -0.76852, -1.178929, 1.085799, 0.483313, 1.647765, -0.016366, -0.680883, 1.498793, 0.779205, -0.198171, -0.836884, 1.171315, 1.11579, -0.342077, -0.786565, 0.697879, 0.226555, -0.660344, 0.621842, -0.318634, 0.021606, 0.858222, -1.154674, 1.105452, 0.372719, -0.219592, 2.407152, 0.477262, -0.160717, -0.398004, 0.323835, 1.062327, -0.192471, -0.171372, -0.246874, 1.468671, 1.576176, 1.265696, 0.520292, -0.385801, -0.329251, 0.76834, -0.754748, 0.254311, 0.285889, -0.627263, 0.894061, 0.565375, -0.437657, -0.910012, 1.458211, 1.359182, 0.859769, -0.31808, -0.18772, -0.037395, 0.080577, 0.144913, -0.15973, -0.966174, -1.565546, -0.227642, 0.324433, -0.823364, 1.245332, 2.064361, 0.611854, -0.975154, -1.12797, -0.789852, -0.318466, -0.841417, -2.094032, -0.713227, -0.435584, 0.488304, 1.369115, -0.229368, -0.526723, -0.953721, 0.334745, 1.032699, -0.592691, 0.623462, -0.032436, -0.318981, -0.654647, -0.576276, -0.057718, 0.348163, 0.827574, 0.55408, 0.452639, 0.318322, -0.572169, -0.133905, 0.209419, 1.479216, -0.719398, 0.426078, 0.009715, 1.135507, 1.274687, 3.416849, 0.087209, 1.594944, 1.060369, 1.200068, 0.785365, 0.613154, 0.832237, 0.068973, 2.050044, 1.046061, -0.243103, -0.004759, 0.657216, -1.167918, 0.896247, 1.281506, -0.190253, -0.998925, -0.169153, 1.66867, -0.540476, 1.636412, 1.085371, -0.032245, -0.408842, 0.509601, 0.472019, 0.374272, 0.252256, 0.648746, 1.217663, 0.808005, -1.709107, 0.047953, 0.576804, 1.26355, 1.418976, -0.281049, 0.257718, -0.187723, 1.154471, -0.784728, -0.55598, 0.003277, 1.227947, 0.258096, -0.43219, -0.37676, 0.180738, 1.943999, 0.217955, -0.662645, 0.395605, 1.380396, 0.877104, -0.00042, -1.222143, 0.017375, 0.628158, -0.554197, -0.365476, 0.643484, 0.848107, 0.611683, 1.37979, 0.756378, 0.338777, 2.307452, 0.475543, 0.497759, 0.330177, -0.027619, 0.737311, 0.577925, -1.048779, 0.903908, 1.059769, 0.701108, -0.206839, -0.961357, -0.508814, 0.024924, -1.615249, -0.518569, -1.363646, 0.25843, -1.287545, -0.377406, -0.79772, 1.264205, -0.288813, -0.395534, -0.650447, 0.905643, 0.215704, 0.747267, -0.773507, -0.649423, 0.524836, 0.47775, -0.764836, 0.006233, 0.662113, 0.658201, -0.489099, -0.55981, 0.249121, 0.317473, 0.759121, 0.287147, 0.382335, -0.604527, 1.451929, 0.486348, -0.773084, -0.577874, -0.201686, 0.334362, 0.391609, 2.424362, 1.317275, 0.424074, 0.655193, -0.834304, -0.712582, 0.717349, 1.582148, 1.107246, -0.071553, 0.994689, 1.471737, 0.335093, 0.371695, 0.592472, 0.166446, -0.844779, 1.401992, -0.443738, 2.286515, -1.013678, -0.313561, 0.389463, -1.300111, -0.242216, 0.864692, -0.979642, 0.374781, -0.660138, 1.596539, 0.582976, 2.00703, -0.260654, -1.010905, 0.255234, -0.098644, -0.021941, -0.067747, 0.220024, -1.573086, 1.403315, -0.097903, -0.807823, -0.081435, 0.122978, 1.063261, -0.142502, -2.72971, -1.200076, 0.556305, 0.215266, -0.411389, 0.881847, 1.831831, 0.426408, -0.844228, 1.867102, 0.260597, 1.018939, -0.722008, -0.182132, -0.486721, 0.839076, 0.911902, 1.905223, 0.99426, -0.303674, 1.065932, -0.141258, -0.096801, -0.094217, -0.200295, -0.367707, -0.231437, -0.233241, 1.471143, -0.73451, 1.081697, 0.19766, 0.151487, -0.940078, 1.025722, 0.199004, 1.361288, 0.581193, -0.053926, 0.699774, -0.100978, -1.078093, 0.265725, -0.367553, 0.347552, 0.83227, -1.272108, 0.387783, 0.107939, 0.672237, 0.633302, -0.54564, 0.621046, 0.18295, -1.825209, -1.440274, 0.248554, -0.588144, -0.303265, -0.55871, 0.103195, 1.618946, 0.339959, -0.523314, -0.083071, -0.080353, -0.209158, -0.555642, -0.410835, 0.935152, 0.496434, 0.199521, -0.9474, -0.503863, 0.186067, -0.130817, 1.309947, -0.338899, 0.912, 0.242879, -1.165159, 1.17452, 0.640418, 1.102968, -0.116266, 2.033558, -0.04043, 0.957085, 0.709593, -0.094009, 1.620842, 1.040424, 0.366114, 0.250167, 0.673734, 0.250119, 0.913403, -0.448666, 0.876239, 0.748676, -0.397801, 1.808516, -0.835829, 0.141634, 0.313393, 1.351039, 0.042248, -0.384337, -0.245035, 1.627249, 0.29901, 0.860646, 0.060156, -0.694625, -1.191148, 0.791063, 0.880554, -0.387757, 1.903298, 1.370351, -0.504091, -0.898154, 1.126637, -1.487259, 0.318397, 0.994768, 0.657276, 0.649224, -1.291509, -0.558739, 0.525958, -0.128035, 2.989599, 1.6771, 0.435624, 1.620966, -1.487078, 0.029439, -0.308188, 0.055379, -0.262016, 0.579975, -1.322678, -0.097556, 0.0089, -0.053955, -0.47617, -0.252054, 0.210241, 0.468738, 1.101652, -0.836625, 0.999712, -0.025126, -0.461162, -0.22847, -0.383756, 0.14958, -0.490541, 0.125385, -0.247348, 1.993577, -0.305057, 1.405653, 0.022378, -0.258355, 1.278161, 0.436285, 1.096885, -0.197706, 1.003724, -0.515396, 0.906271, 0.757851, 1.207219, 0.387871, 0.792316, -0.39326, -0.534534, -0.567482, -0.971317, -1.308066, -0.651763, 1.359058, 0.662214, -0.516131, -1.494116, -0.667837, 1.390046, 0.561234, 0.100878, -1.430372, -1.358582, 0.384744, 1.283628, 0.619764, 0.038065, -0.597326, 0.210077, -0.129983, -0.04602, 0.668982, -0.017447, 0.441832, -0.733084, -0.306015, 0.723173, 0.247836, -0.048832, 0.535228, 0.002398, 1.740573, -0.885137, 0.836126, 0.920837, 0.722113, -0.694521, 1.764815, 0.496854, 1.681668, -0.03521, 0.281601, 0.441944, -0.293128, 0.457422, -0.650601, 2.081346, 0.503252, 0.219323, -0.017701, 0.353818, -1.012993, -0.901294, 1.108939, 0.333258, -0.732626, -0.646139, -0.888237, -1.359115, -0.322503, 0.578755, 2.198065, -0.674592, 0.64498, -1.803911, 1.375236, 0.022214, 1.724103, 0.37988, -1.014579, 0.232132, 0.166827, -0.034885, 0.135101, 0.668823, -1.569733, 0.729964, -0.107034, 0.849138, 0.163764, 0.413397, 1.572092, 0.665461, 0.776004, -0.147488, 0.27549, 0.252542, 0.056315, -0.929472, -0.371109, 1.195621, -0.096211, 0.142441, 1.284094, -0.32017, -0.14469, 1.381839, 1.324295, -1.665513, -0.619089, -0.307931, 0.736946, 0.43722, 1.148838, 0.590079, 0.353931, 0.248484, -0.275071, 1.073226, -0.259426, 0.950915, 1.158694, 1.182709, 0.674119, 0.359268, 0.616529, 0.860837, 0.692717, 0.152325, 0.615575, 0.575738, 1.295969, 0.482103, 1.465117, 1.159355, 1.303517, 1.270465, -0.077601, -0.742862, 1.134091, -0.109599, 1.225375, 0.320213, -0.909323, -1.508255, 0.811841, -0.188399, 0.659146, 0.601072, -0.233105, 0.232742, -0.622591, 1.30758, -0.435746, 0.631369, 0.438108, 1.102594, -0.918001, -0.34542, 0.361458, -0.455352, 0.042952, -0.265945, 1.207239, 0.410164, 0.958174, 0.276336, 0.809003, 0.195529, 0.815147, -0.183259, -0.023658, -1.47884, -0.897329, 1.563744, 0.580342, 0.297541, -0.132572, -1.287302, 1.094061, 1.26979, -0.4984, -0.681865, 0.224637, 0.561298, 0.56948, 0.290304, 1.269455, 1.36066, 0.929365, -0.431812, -0.218804, -0.269595, -0.039103, -0.339429, 0.534291, -0.066426, -0.420673, -0.274282, -0.220426, -0.892107, 0.915099, 0.798138, -1.444541, -0.041907, 0.25171, 0.087017, -1.641379, 0.591725, 1.243386, 0.443802, 1.473718, 0.122173, -0.261593, -0.945848, 0.468695, -0.344905, -1.191278, 0.324624, 0.358867, 0.636015, 0.4468, -1.339997, 1.54472, 0.396624, 2.204706, 0.029975, 0.618916, 0.074179, 0.785257, -0.155966, 0.292851, -0.803869, -0.867365, 0.019453, -0.198857, 0.03128, 0.773309, -0.090254, -1.108349, 0.27456, 0.822952, -0.352145, 0.205406, -0.08704, 0.142556, 1.447276, -1.244515, 0.962677, 0.57781, 0.38311, 0.0261, -1.059865, -0.527166, -1.497906, 0.718104, -0.260901, -0.110795, -0.714106, 0.076898, 0.529802, 0.728732, 0.011893, 0.854979, -0.744211, 0.575335, 1.767364, 0.492831, -0.296293, 1.263501, 0.846416, 0.792674, 2.527514, -0.770164, 0.446222, -0.037729, 1.243053, 0.214344, -0.212276, 0.714579, 1.265803, 0.684545, 0.537164, 0.993637, -0.392558, 0.385789, 0.718556, -0.368013, 0.095782, 0.288547, 0.584202, -0.605634, 2.067409, 1.250828, 0.466179, 0.651658, -0.316334, 1.068572, -0.135571, -0.350528, -1.138079, 0.013193, -0.051157, 0.271305, 0.34415, -0.056483, -1.612667, -0.170757, 0.443384, 0.063954, -0.166508, 0.010681, -0.445169, 1.020272, 0.253822, 0.074176, -0.674002, -0.218857, 0.501354, -0.777061, -0.075892, 0.315084, 0.140955, -0.799824, 1.047611, 0.022992, -0.118571, -0.164121, 0.335424, 0.074755, 1.126844, 1.916441, -2.488476, 1.176157, 0.135275, 0.097073, 0.251741, -0.885344, 0.065449, 0.906929, 1.134894, 1.552316, 0.374634, -0.607064, 0.752487, -0.450262, 0.787403, 1.050167, -0.108146, 0.057075, 0.836652, 0.684737, 0.683593, 1.288121, 0.829947, 2.362883, 1.609388, -0.552651, 0.075494, 0.183956, 0.703573, 1.033957, 1.592482, -0.457278, 0.198099, 1.044351, 2.112601, 0.09179, 0.789301, 0.122053, 0.048069, 0.381938, 0.632411, 0.180495, -0.008515, -0.840746, 0.123337, 0.184617, -0.608196, 0.630075, 1.108524, 1.578454, 0.19117, 0.07239, -0.083299, 0.490266, 0.150179, 0.80249, 0.007345, 0.838396, 0.446204, 1.763629, -0.442253, 0.124312, -1.649392, -0.557794, -1.70973, 0.027993, -0.151319, 0.179424, -1.78637, 0.292416, 0.381636, -0.069485, 0.888524, 2.54379, -0.163975, -0.140872, -0.433986, 1.679927, 2.187953, 0.958458, 0.284446, 0.532506, -0.973337, -0.162283, -0.377186, 1.360161, 0.34071, 0.663608, 0.06641, 0.849588, -0.626235, -0.251523, 1.364385, 0.299176, 0.036615, 0.165283, 0.639992, 0.373149, 0.791244, -0.387025, 0.281641, 0.503222, -1.626804, -0.213838, 0.535842, -0.201856, 0.228939, 0.901894, -0.024074, 0.807864, 0.703139, -0.118684, 1.814299, -1.502458, -0.102621, -0.128719, -0.784452, -0.84407, 1.87108, 0.769386, -0.925114, -0.173728, 0.015304, -0.412535, 0.948201, 0.676218, -1.058076, 1.113319, -0.368607, 0.366315, 0.400975, -0.338086, -0.520463, 0.628808, 0.651252, -1.071972, -0.394938, -0.595008, 1.740813, -0.32346, -0.325652, -0.266926, 1.742859, 0.992204, -0.725396, -0.700961, 1.954663, 1.327202, -0.643273, -0.018969, 1.890466, 1.351881, 1.87243, 0.201601, -0.258466, 0.028354, 0.7722, 1.592113, 1.290234, -0.216438, -0.878552, -0.944337, -0.482558, 1.60511, -0.183754, -0.194802, -1.747761, 0.664197, 1.531902, -1.602251, -0.111016, 0.822602, 0.214569, 0.310476, 0.003113, -0.606098, 0.135032, 1.184829, -0.160618, 0.181918, 0.348769, 0.690059, 0.662631, 1.942292, 1.197649, -0.478162, -0.165357, 0.473974, -0.636326, 0.868608, -0.215755, 0.190573, -2.542455, -0.954925, 1.417804, 0.155497, 1.098049, -0.890183, 0.114233, 1.932092, 0.639479, -0.358904, -2.060099, -0.574856, 0.467162, -0.607652, -0.150752, 0.75213, -0.686894, 0.258274, 0.142426, -0.476231, -0.14967, 0.317285, 2.239512, 0.832528, 0.498925, -0.650842, 0.055973, 0.740726, 0.462303, -0.875885, -0.318143, -1.309673, 0.906825, -1.22329, -1.07083, 1.308694, 0.357089, 0.097942, -0.172873, 0.174187, 0.875803, -1.027937, 0.20625, 0.297398, 0.321988, 0.653905, -0.064841, 1.287964, 0.722592, -0.520584, 0.859266, 1.245826, -0.425061, -0.914811, 1.157569, 0.753469, 0.408685, -0.980782, 0.76524, 0.781814, 0.377809, 0.606704, 1.669886, 1.360646, -0.194766, 0.453386, -0.728133, -2.966771, -0.377501, 0.369468, 0.73284, -0.71385, 0.196482, -0.390089, -1.16948, 0.17643, -0.973926, 0.465402, 0.086757, 0.952227, 0.829084, -0.205486, -1.549534, 0.799371, 0.177022, 1.60329, 0.621868, 0.073423, 0.063661, -0.047337, 0.748654, -0.561316, 0.754998, 1.037213, 1.890343, -3.395575, 0.057394, -0.218028, 1.96628, -0.267537, 0.981144, 0.286909, 1.111439, 1.028058, -0.217985, 0.188098, 1.30371, 0.291698, 0.044498, -0.6078, 1.179343, 0.565188, 0.889623, -0.883823, -1.680858, 0.773571, 1.524333, 0.537606, -1.004056, -0.167459, -0.280174, 0.176322, 0.887717, 1.644498, 0.833086, 0.116648, -0.681538, 0.873204, -0.301011, 0.680339, 1.186564, 0.153276, 0.270167, -1.098966, 1.147437, 1.091069, 0.335748, -1.588181, 1.54626, 0.120508, -0.388362, -0.331221, 0.291592, -0.216665, -0.933384, 1.223057, -0.896777, 0.967469, -0.192514, 0.564106, 1.667644, 2.362151, -1.344923, 0.060757, 0.393476, 1.419439, 0.132895, -0.970827, -0.87715, -1.459512, -0.310698, -0.175076, -0.449684, 0.717762, 0.813912, -1.079102, -1.095812, -0.032066, 1.143569, -0.184089, 1.015327, -1.542007, 1.755041, 0.095698, -0.707889, 0.526834, -0.059992, -0.266665, -0.877411, 0.609612, -0.985413, 1.374405, 0.466757, -0.28534, -0.288601, -0.252583, 0.633325, -0.091051, -0.218246, 0.435858, 0.661524, -0.664687, 0.744196, 1.473833, 2.069537, -2.367338, -0.354313, -1.321925, 0.801371, 0.561249, 0.203863, 1.836284, 0.058424, 0.102407, -0.155204, -1.236199, -0.256361, -0.271762, 2.617768, -1.018143, -1.188171, -0.378594, 0.428222, -0.327137, -0.28422, 1.02915, -1.361326, -0.730903, -0.311685, 0.804547, -0.003833, -0.159887, 0.768325, 0.092032, 0.661894, -1.041429, 0.432953, 0.6716, 0.674694, 1.648626, -1.023798, -0.70623, -0.489939, -0.290302, -0.38255, 2.357341, -1.142987, -0.52294, 1.437018, -0.680791, -1.934076, 1.369987, 0.326576, -0.176863, 0.526964, 1.088689, 1.302481, 1.654591, 0.268545, 0.282252, 0.36328, -0.043652, 0.264316, -0.075788, -0.263778, 0.083657, 0.709686, 1.552555, -1.263727, -0.57737, -0.066152, 0.263746, -0.604468, 0.923057, -0.445605, 1.455019, -0.199175, -0.150615, 0.650968, 0.038609, 0.445146, -0.102889, 1.0926, -0.37918, 0.615077, 0.34823, 0.79614, -0.338934, -0.333695, -0.156536, -0.605143, 0.990777, -0.007367, 1.517679, 0.271131, 1.160171, 0.465799, 0.221163, 0.143442, -1.14252, 0.466727, 0.018889, 0.561703, -0.338226, -0.700817, 0.182028, 0.994684, -0.336824, -0.402095, -0.985207, -0.179663, -0.007659, -0.718669, 0.115079, 1.648419, -1.406905, 1.231994, 1.052026, 0.518605, -1.150156, 0.593073, 0.816571, 0.205446, -0.803193, -0.376892, -0.20878, 0.150633, 1.171688, -0.265317, 0.079908, -1.199014, 0.460063, 0.061204, 0.435759, 0.352264, 2.312258, -1.00897, 0.922912, -0.262753, 1.797509, 1.226866, -0.026379, 0.882279, 1.211817, 1.947109, 0.823636, -0.410194, 0.708771, -0.196306, 0.11964, -0.21572, 1.251261, 0.271016, -0.150756, -0.566091, -0.055558, -2.900851, -1.042379, -0.445679, -0.519261, -0.689164, 2.177054, 1.46639, 1.080519, 0.376952, -1.3779, 0.191757, -0.63973, -0.135785, -2.022092, 0.270067, -0.038812, 0.541884, 2.14328, 1.452533, 0.918428, 1.041439, 0.39607, -0.40654, 0.166497, -1.216987, 1.916453, -0.595864, -1.193117, 0.953533, -0.129183, 0.110088, -0.599004, 0.320961, -0.337341, 0.113539, -1.218868, 0.834448, -0.291404, 0.726954, 0.399865, -0.08308, -0.196011, 0.546832, -0.593757, -0.390147, 1.267946, -0.850491, 2.219822, 1.427281, -0.930212, 0.401445, -0.405128, 0.745929, 0.964171, -0.938822, -0.115865, 0.243182, 0.33102, 1.777757, -0.279063, 1.033629, 1.262245, -1.683169, 0.00623, -0.564247, 1.067019, -0.513423, 0.618334, -0.589481, -0.152697, 1.109272, -0.721479, -0.137387, 1.248145, -0.608382, 1.12264, -1.560049, 0.799983, 0.417718, -0.721389, 0.188499, -1.283383, 0.739995, 0.348497, -0.055593, 0.582327, -0.489545, 0.504194, -0.496704, 0.591623, 0.232641, -0.570714, 0.373376, 1.457369, 0.441474, 0.99621, 0.789109, 0.235392, 0.247509, 0.079927, 0.331614, 0.056441, -0.441284, 0.285725, -1.070311, -0.150422, 1.468949, 0.274407, 0.379486, -0.191891, 0.198813, 1.517983, -0.597906, 0.172817, -0.644403, 1.334764, -0.12472, 0.390742, -0.9613, 0.039313, -0.955552, 0.29349, 0.311247, 1.357542, -0.857965, -0.021, 0.424754, 0.625265, -1.062407, -0.432945, -0.339059, 1.363719, -0.838888, 0.590485, 1.191557, -0.992824, 0.405751, 0.416258, 0.397966, 0.438304, -0.343999, 1.039786, 0.100116, -0.059035, 0.714889, 1.76439, -0.995443, -0.38362, 0.433561, 1.06441, 0.526272, -0.412421, -1.187815, -0.29858, 0.623329, -0.939775, 0.856104, 2.204912, 0.784008, 0.312266, 0.42365, 1.319472, 0.659117, -0.323673, 1.404397, 1.282976, -0.009015, 0.193577, -0.159033, 1.078535, 0.322918, -0.3414, 0.735005, 0.303259, 0.246114, 0.366344, 1.913255, 0.255659, -0.977164, 1.65945, 0.659101, 1.196858, -0.193721, 0.041396, 0.569258, 0.574482, 0.80552, 1.188763, 0.669579, 0.287871, -1.202299, 0.928411, -0.40387, -0.184409, 1.038435, 1.02156, 0.604748, 0.963038, -1.860487, 1.655159, 1.207706, 1.307919, 0.70976, -1.077635, -1.307531, 0.566167, 0.700884, 0.557654, -0.224865, 2.134436, 0.070212, 0.005786, 2.524937, -0.352793, -0.914216, 0.174383, 0.012229, -0.493498, 0.741808, 0.47286, 1.34879, 0.469638, 0.807214, 0.13232, 1.49114, 0.787916, -0.378457, -1.200917, -1.014205, 0.830642, -0.083628, 0.862328, -0.389764, 0.142083, 0.356705, -0.796629, 0.650873, 1.441875, -0.684925, -0.944415, -0.081047, -0.238265, -0.446648, 1.263622, -0.805155, -1.477016, -1.927318, 0.43961, 0.595469, -0.419046, 1.201827, 0.843012, 1.110325, -0.772555, 0.219383, 0.311699, 0.87388, -0.347152, 0.092803, -1.170152, 0.08393, 1.434661, 1.191115, 0.238398, -1.387141, -0.848609, -0.051813, -0.456938, 0.335033, 0.402287, 0.926845, -0.467542, -0.14011, 0.169155, 0.747634, 0.095114, -0.121021, 0.363148, -1.865087, -0.489688, 1.07391, -0.244034, 0.653219, 0.570149, 0.820627, 1.94966, -1.455724, -0.649433, 1.08711, 0.14075, -1.757213, -0.643744, 0.612973, -0.425997, 2.050823, 1.156369, 2.853038, -0.977718, 0.427861, 0.164306, 0.215854, 1.29549, -0.600496, 0.996227, -0.956249, -1.173061, 0.080208, 0.204908, -0.174703, -1.444529, 1.219622, -0.340204, -0.363009, 0.870176, 1.311833, 0.547134, 0.290205, 0.917178, -1.249148, -0.68184, 0.43337, -0.041596, -0.590638, -0.015594, 0.423282, -0.552207, 0.496649, -0.146086, -0.530158, -0.99846, 0.584048, 0.885595, 2.091373, 0.191547, 0.560679, -2.077476, -0.54993, 0.688285, 0.906777, 0.295175, 0.223121, 1.401305, -0.878571, 1.283665, 0.628583, -0.117956, -0.202796, 0.226574, -0.819731, -1.214378, -1.912799, -0.246249, 0.92752, 0.595742, -0.699814, 0.263909, 0.88147, 1.428834, 0.399258, -0.089937, -0.195729, 0.244603, -0.292106, -0.433579, -0.123148, 1.271503, 0.52497, -1.114312, -1.051439, -1.026169, -0.532874, 0.29151, 0.381467, 0.105367, -0.179466, 0.602281, -1.002218, -0.430285, 0.132305, 0.614094, -1.189046, -0.905311, -0.108768, 0.466443, -0.867422, -0.243025, -0.058072, -1.363398, -1.417058, -0.422446, 0.459324, 2.324882, -0.125476, 2.828424, -0.370982, 2.062486, -1.246184, 0.434103, 0.655417, -1.709077, -0.337002, -2.108298, 0.772411, 0.992608, -0.394904, -0.134797, 0.367689, -0.481091, -3.38081, -1.072143, -0.785521, 0.374423, -0.016801, -0.198106, 0.911569, -1.33605, -0.518424, 0.772209, 2.411679, -0.77651, 0.36181, 1.315294, 0.490963, -0.435442, -0.599969, 0.278695, -0.151897, -0.617295, 0.712649, -0.990241, -1.637341, 0.329246, 0.597034, 0.888487, 0.167787, 0.876237, 0.378827, 1.169019, -0.438478, 0.218129, 1.078809, -0.300224, 0.092796, 1.478766, 0.722222, 0.268062, 1.112421, -0.650337, -1.978722, 0.843173, -0.71197, 1.396904, 0.541355, 1.217837, 0.673957, -1.036956, 0.309889, 1.123044, 1.013346, 0.606143, -0.9268, -0.198971, 0.118971, -0.309588, -0.66073, 1.218349, -0.205764, -0.05546, 0.644283, 0.948035, 1.218933, -1.138147, 0.754587, 1.04093, 1.835205, -0.369628, -0.608592, -0.161484, 0.264729, -0.566575, 1.179954, 1.318193, 1.137193, -1.077853, 0.506834, -1.492487, -0.203331, 0.576878, 1.589615, -0.005412, 0.582949, 1.891324, 0.742404, -1.031857, 0.946916, -0.527749, -1.987159, 1.182372, -0.329897, 0.63451, -0.378199, -0.299399, 1.144765, 0.519587, 0.026708, 0.907544, -0.511864, 1.043128, 1.066925, 0.026453, 0.56284, 1.07471, 0.595959, 0.472271, -0.636022, 0.650159, -1.201112, -0.770138, 0.733297, 1.770691, -0.944029, 2.953686, -0.244012, 0.466828, -0.190274, 0.45106, 0.812454, 0.434741, 0.38071, -1.781378, -0.131248, -0.552565, 0.173654, 0.089821, -1.190344, 0.796361, 0.47011, 0.206703, 0.194267, 0.364278, -2.181582, 0.796065, -0.307348, -0.302609, 0.977504, 1.001385, 0.510981, 0.601131, 0.556646, -0.58591, 0.508142, 1.681576, 0.358663, -0.912676, -0.003752, 1.342178, -0.996398, -1.285771, -0.139689, 0.304691, -0.472698, -1.02012, 1.119367, 2.319217, -2.411005, 0.581842, 0.21211, -1.235992, 0.603688, -0.716562, 1.137802, -0.427797, 0.159662, -0.422198, 0.803387, 0.314999, -1.546766, -2.242353, 0.984651, 1.159901, -1.646769, 1.801274, -0.489131, -0.833102, -0.340545, -0.594886, -0.539311, 0.1089, -0.60394, -0.261344, 0.227928, 0.100652, -0.453347, 0.19041, -0.768686, -1.524465, -1.996718, -0.701988, -0.48075, 1.185192, 1.230545, 1.954916, 1.018186, -1.170125, -0.265509, 1.557618, 0.779017, -1.204997, -1.827309, 1.058671, -0.449367, -0.12179, -0.326659, -1.926998, 1.06196, 1.656886, -0.474969, 0.333484, -0.743719, 0.553122, -0.07261, 1.39141, -0.074444, 0.593402, -0.735735, 0.336954, 0.45938, -0.126153, -0.989982, 0.257398, 0.221783, 0.147109, -0.247575, 1.550461, 1.113781, -0.198207, 0.084964, 1.006652, -1.708335, 1.127907, 1.287319, -1.232745, 0.943391, -1.918669, -0.032242, -1.593491, -0.385965, -0.673038, -0.713621, -0.838754, 0.667562, -1.342451, 1.101016, 0.283985, -0.194827, 0.061363, -0.418363, 0.001569, 0.25979, -0.451165, -0.012503, 0.438217, 0.376274, -0.730489, 0.575637, 0.636983, -0.268888, -0.832359, -0.850652, -0.625987, 0.043492, 1.003842, -0.20704, 0.107814, -1.205691, 0.038499, 0.331547, -0.035014, 0.426684, 1.182139, 0.707255, 2.093897, -0.330027, -0.191871, 1.658031, 1.769055, 1.148795, -0.01326, 0.161122, -0.805668, -0.52596, 1.754127, -0.084565, 0.625793, -0.649475, -1.798145, 0.083346, 1.328829, -0.830763, -1.152106, 0.383442, -0.536098, 0.227763, -0.175145, 0.09893, -0.004873, -0.955434, -1.007858, -0.696786, -0.59003, -1.132597, -1.6887, 1.292617, -1.311225, -0.408393, 1.814268, -0.556665, -0.697413, -1.537685, 1.276803, -0.219999, -2.327423, 0.021173, 0.15559, 0.949624, 1.166633, -0.511843, 1.650434, -2.233339, 0.218386, 0.362094, -0.424764, 0.26082, -0.168229, 0.658038, 0.382978, -0.165295, 1.361488, -0.725993, -1.529979, 0.295942, 0.276738, 1.491363, 0.095129, 1.137887, 1.021322, -0.845436, 1.00343, 0.281789, -2.122492, -0.128798, 0.007209, -0.020699, 0.184578, 0.909112, -0.000305, 0.394564, 1.60415, 0.567757, -0.61718, -0.055284, 1.227648, -0.220509, -1.319455, -0.442147, -0.787756, 0.462124, -1.699433, 0.001941, 0.867849, -0.165297, 1.493096, 0.060217, 1.479807, 0.128189, 0.732745, 0.981745, -1.292402, 0.710347, 0.794469, 2.40719, -1.308023, 0.461043, -0.689906, -0.095669, 0.635644, 0.421765, 0.307211, 0.805435, -0.159965, 0.103209, 0.458749, -0.035495, 0.191398, -0.305679, 0.338063, -1.023798, -0.042643, -1.816414, 0.847743, 1.280308, -0.894336, 0.699789, -0.518894, 0.310077, 0.095802, -0.098753, 0.584462, 0.131264, 0.455931, 0.892669, 0.891883, -1.850064, 0.250545, -0.423807, -0.809658, 0.096522, 1.017634, -1.234156, -0.815322, -0.475051, -1.016996, 0.554212, -0.997707, -1.233682, -0.853698, -0.150701, 1.382888, -0.739728, 1.582312, 1.714427, 0.144442, 0.014257, 0.68121, 1.142916, -0.050797, 2.035197, -0.735413, -0.861997, -1.270809, -0.266252, 2.59522, -0.76586, 0.19741, 0.06195, -0.499312, 0.774292, -1.519954, -1.727546, 1.404443, 1.558521, 0.800173, -0.287749, 1.588269, 1.385695, -0.470904, -0.141073, 0.401607, 1.921432, -0.195134, 1.388141, -0.121047, -1.372936, -0.268033, 0.929225, -0.333356, -0.663718, -1.830578, 1.721171, -0.4551, -0.434547, -0.191095, 1.049032, 1.122808, 0.81166, -1.696401, -0.657475, -1.957552, 2.122544, 0.416369, 0.165781, -3.108252, 0.353401, 0.7418, -0.420203, 0.281043, 2.543761, 0.986941, 0.020185, 0.652956, -0.236024, -0.142884, 1.957206, 0.115806, 1.193348, -0.938669, -0.986443, 0.656057, -0.843979, -1.834041, 0.777183, 1.229955, 1.052877, 0.111884, 0.167024, -0.443702, 1.151924, -0.683317, -0.140621, 0.48619, 0.158517, 0.534856, 0.481502, -1.048768, 1.345258, 0.588626, 0.008285, -0.073991, -1.39878, 2.437731, -0.404057, 0.202038, 0.169787, -1.042766, -1.840227, -0.951074, 0.308565, -1.784892, -0.041439, 0.191617, -1.064811, 1.446771, 0.897297, 0.426066, -0.573871, -1.885586, 0.402386, 0.400698, 0.15878, -0.479336, -0.111035, -1.341392, -2.493181, 0.117384, -1.637473, -1.230454, 1.341227, 0.69342, 0.440392, 1.522068, 0.534432, -0.756257, 0.852563, 0.452744, 0.828448, -0.888622, 1.549042, -2.387414, -0.691142, 1.656663, -0.576783, -1.086506, -1.82317, -1.110245, -0.918419, 0.418756, -0.468883, 1.802481, 2.492333, -1.272022, 0.031551, 0.392471, 1.30655, -1.28988, -1.796525, 1.418855, 0.875461, 0.056894, -0.893319, 0.542967, 0.229779, -1.897908, 1.330432, -0.457588, -0.321519, -0.707856, -1.458244, 0.950572, 0.241079, -0.866972, -0.014035, 0.38444, -0.76706, 1.421052, -1.194718, -0.494365, -1.263151, -1.79843, 1.317512, -0.235813, -0.448439, -0.114467, 0.398395, -1.207921, -0.727129, 0.136826, -0.043931, -0.038213, -0.00976, -0.322661, 1.153948, -0.514994, 0.036515, -0.232551, 1.588395, 0.116573, 0.296268, -0.174812, 0.996929, -1.250188, 1.179259, 0.621766, -0.702765, 0.350831, 2.448076, -0.622409, 0.497165, -0.370974, -0.492068, 0.632459, 2.022876, 0.669771, 1.273012, 1.13835, -0.330202, 1.351578, -0.85172, 1.380656, -2.717394, 1.186603, -0.175899, -1.007668, 0.465618, -1.447737, 0.184948, 0.909637, 0.167166, -1.02762, 0.72074, 0.200279, 0.406416, -1.26055, 0.165998, 0.099016, 0.793811, 1.580232, -1.185931, -0.108692, 0.669896, 0.385887, -1.165847, -0.539235, 0.251758, 1.963591, 2.415622, 1.641391, 1.50799, 0.125519, -1.632544, -0.118746, -1.17308, -1.448902, 0.43155, 0.235633, -0.051677, 0.58167, 0.029853, 0.825878, -1.171565, 1.973037, -0.014726, -1.798535, -0.343111, 0.441216, -0.554282, -0.867546, -1.057327, 0.588655, 2.071228, -0.17669, -1.486911, -0.672974, 0.194228, 0.566775, -1.545728, -0.054794, 1.326259, 0.134776, 1.437779, -0.774766, 0.243878, -1.549049, -1.851945, 0.027616, -0.209581, 0.534549, 1.420928, -0.989109, 0.026028, 1.44041, 0.600335, 0.908698, 0.988704, -1.301445, -1.209815, -1.167012, 0.586532, -0.442118, -0.008935, -0.927247, 2.155249, 0.317685, -0.574409, -0.984481, -0.97453, 1.544843, -0.095029, 0.020955, -0.988434, 1.866596, 0.566764, -0.340346, -1.013177, -0.740528, 1.408462, 1.736881, 1.507603, -0.930156, -0.524338, -0.766998, -0.748255, 0.802374, 1.795596, 0.185836, 0.252658, 0.424153, 0.100988, 1.472062, -0.955949, 0.909396, 0.468316, -0.153204, 2.379664, -1.656191, 0.543048, 0.090339, -0.431334, 0.223427, 0.995005, 0.890179, -1.012318, 0.287156, 1.812103, 0.543529, -1.563239, 0.615319, -0.422972, 0.737667, 0.882543, -0.562917, 1.571572, -1.747659, -0.653622, 0.210458, 0.906731, -0.98139, -0.617927, -0.518141, -0.266573, 0.009113, -0.863082, 0.083209, 0.586769, 0.879358, 2.13772, 0.178503, -0.045193, 0.420348, 0.244774, -0.327321, -3.377386, 0.360225, -2.298526, 0.437375, -2.447835, -0.526509, -0.218594, 0.025343, -0.613516, 0.626267, -2.930091, -1.543547, 0.336016, -0.674433, -0.39829, 0.978775, 2.131722, 1.183492, 1.195064, -0.734412, -0.129127, -0.79866, -0.421844, 0.074514, 1.135544, 0.790103, 0.189203, 0.732771, -0.208055, 1.163563, -0.694023, 1.524507, 2.149209, -1.012653, -0.965241, -0.870079, 1.752014, 0.364524, 0.515973, -0.515352, -1.406347, -0.062047, 0.07602, -2.090029, 1.36687, -2.424131, 0.28612, 0.8811, 0.111618, -0.026735, -0.433482, -1.088306, -0.415741, 0.129426, -0.16733, -1.315162, -0.790469, 1.751188, 0.58456, 0.105809, -0.512874, 0.934436, 1.309416, -0.306025, -0.248767, -1.055376, -0.865339, -2.981361, 1.130448, -1.748575, 2.060997, -1.415147, -0.427979, 1.268016, -0.855419, -0.348849, -1.971533, 2.041413, -1.029966, 0.59001, -0.884512, 0.915828, -1.3989, 0.244439, -0.785263, -0.395347, 0.701139, 0.389548, 0.443086, -0.996888, 0.082598, -1.099064, 2.525217, 0.886026, -1.060431, 0.099597, 1.44597, 0.016266, -0.860652, -0.272824, 0.197762, -1.762301, 0.408978, -0.468207, -1.72277, 2.11307, -0.985603, 1.082161, 0.578261, 1.042831, 0.906553, 0.781146, -1.479668, -0.388131, -0.627145, -1.577544, -0.51624, -0.331802, 0.353108, -0.679832, 0.956246, 1.516172, 1.500857, -0.051183, 0.213898, 0.808086, -0.573167, 0.322417, 0.924168, -1.206574, -0.081862, 0.902218, 1.428848, 0.937286, 0.469764, 0.574798, -0.588563, 0.812813, -0.549317, -2.242802, 1.073078, -1.158824, 1.009829, 0.102086, -0.408683, 1.593543, -0.021401, -1.484237, -0.94063, -0.33679, 0.949436, 0.239404, 0.376036, 0.019925, -0.114328, -0.450085, 2.24889, 0.464173, -0.216625, -0.655123, 0.140654, -0.552381, 0.080348, 1.009138, 2.053539, -0.92756, -1.324935, 0.406563, -0.281461, -0.24254, -0.878843, -0.976785, 0.695419, -0.851621, -1.094861, 1.045089, 0.492075, -0.397788, -0.96448, -0.269544, -0.851228, 0.126769, 1.629467, -1.05212, 2.065199, -1.247849, 0.395096, 1.045026, -0.435203, -0.249756, -1.207088, 0.172977, -1.565062, -1.715688, 1.526957, -0.617297, 1.502349, 0.317926, 1.447547, -0.036033, -1.144906, -0.812487, -0.236024, 1.247246, 1.431748, -0.333613, 0.801202, 0.556382, -0.911007, 0.159701, 0.171762, -0.111028, -1.57999, -1.274231, 0.095782, 1.631406, 0.065401, 1.370361, 0.324145, 0.392603, 0.941224, 0.645913, -1.586923, -2.450487, 0.062993, 0.500611, 0.023949, -1.404349, 0.007336, -0.240783, -1.426494, -1.408287, -1.341885, -0.83718, -0.080167, -2.860731, 0.758862, 0.490335, -0.704642, 1.424796, -1.649893, 1.067615, 0.265284, 0.50106, -0.25417, 0.194587, -0.803066, 0.39818, 0.202574, -0.489759, -0.690586, 0.276672, -0.598058, -0.623753, 0.233558, -0.604499, 0.703877, 0.153878, 0.422709, -0.734205, -1.094332, -0.561391, -1.203408, 0.556837, 0.121776, 0.78679, -0.192349, 0.372688, 0.631989, 0.374213, 0.719203, 1.511781, 1.569856, 0.260522, -0.571592, -1.820013, -0.758157, 0.720563, -1.010299, 1.087331, -0.380749, 1.198729, 2.498861, -0.033791, -0.176352, -0.106999, -1.218164, 1.252807, 0.157782, 1.742949, -1.337858, 0.535039, 0.668526, 0.182613, 1.601226, 2.250971, 0.826377, 0.282803, 0.332674, 0.947045, 0.825867, 0.202432, 0.960664, 0.633224, 0.424203, 0.529385, -1.424325, 0.000661, 1.144144, 2.652123, 0.038741, 1.15705, -2.090129, 1.078517, 0.209526, 0.920075, -2.112637, 1.879999, 0.834213, 1.214735, 0.017375, -0.110202, -0.70494, 2.329963, -0.567619, 0.809538, 0.442996, -1.230771, 0.277246, -0.311886, 0.761275, 2.213929, 0.409428, -0.266672, -0.547359, -0.67831, -0.998215, 0.258591, -0.141822, -0.877452, -0.413154, -0.539433, 0.33005, 0.765257, 1.182414, -0.420709, 0.494743, -0.005243, 0.153528, -1.166168, -0.8924, 0.602772, 0.607893, 0.058333, -0.920694, -0.801643, 0.861442, 0.146097, 0.322777, 0.428858, -1.630978, 0.531595, 0.319592, -1.161229, 0.584653, -0.397639, 0.424123, 0.13115, 0.906425, 0.938913, 0.820553, 0.434612, 1.201162, -0.849723, -1.487817, -1.140448, 0.306184, 2.140874, 0.672374, -0.432254, -0.095393, 1.63879, -0.837439, 0.496716, -0.764241, -0.057175, 2.517846, 2.927145, -0.515612, 0.746708, -0.261846, 0.078606, 0.25767, 1.859395, 0.075833, 1.583844, 0.288219, -0.666749, -0.318984, 1.377159, 1.60061, 0.208515, -1.349042, 0.060322, -1.638693, 0.674996, 0.576282, 0.41251, 0.590628, -0.247024, 1.794883, 0.69422, 2.149757, -0.700491, -0.119048, 1.616064, 0.916273, -1.483628, 1.061753, 0.191718, 1.631966, 2.061326, 1.711707, 0.212374, -0.43794, 0.982478, -0.922657, -2.06601, 0.49819, 0.476248, -0.446405, 1.555114, -0.209001, -0.542107, 0.232347, 0.786618, -0.037804, -1.495523, -0.854959, -0.293942, 0.792616, 1.381596, 0.57853, -1.549223, 0.321595, 0.517912, -0.395749, -1.443286, -2.08496, -1.569946, 0.086335, 1.458971, 0.042966, 0.209202, 0.056139, -1.475644, -0.426576, 0.402397, -0.090202, 1.106399, 0.767929, -1.252223, -1.549697, 0.274796, -0.905457, 0.195922, 0.412642, 1.211057, -0.643729, -1.208846, 0.799716, -0.394519, 0.524848, 1.147429, 1.160883, -1.829755, 1.02655, 0.606363, -0.105479, 1.413009, 0.174229, 0.841381, 1.078913, -1.49799, -0.562276, -0.22408, 0.404962, -1.091158, -0.036097, -0.363433, -0.628977, -0.450664, -0.164534, 0.925705, 0.481358, 0.6994, 1.233804, 1.210137, -0.051718, -0.213701, 0.237863, 2.005712, -0.48114, -1.04045, 0.129118, 0.661398, 0.095521, -1.003068, -0.372693, -0.024117, 0.407525, 0.921764, 0.632418, -1.063252, -1.331146, -1.215701, -0.582914, 1.138065, -1.38789, -0.625675, 0.967112, 0.222086, 0.483416, -0.139571, 1.06785, -0.916505, -0.776544, 0.23515, 1.850949, 0.588743, 0.528436, -0.838074, -1.481183, 0.159226, 0.264942, 0.070772, 1.165887, -0.872794, 0.671516, -0.51244, 1.45052, -1.718477, -1.80583, 1.50944, -1.554545, -0.009798, -0.457764, -2.352704, 2.223765, -0.489805, 0.754428, -1.178822, 0.850253, 0.938624, -0.824393, -1.193106, 0.344411, -0.241606, -0.582637, -1.121599, -0.508883, 0.302348, -0.810434, 0.468612, 1.587418, 0.777878, 1.055911, 1.486376, -0.553455, -0.406657, 2.336449, -0.619595, 1.194914, -0.623558, 0.538067, -0.951884, -1.165561, -0.102632, -0.509701, 0.396135, 0.852148, 0.30891, -0.013938, -1.158174, 1.16677, 1.327837, -1.158304, -0.303124, 0.230144, -0.317762, -1.474404, 0.51271, 0.277567, 1.330994, -0.542568, -0.39108, -1.431527, -1.035337, 1.004044, 2.013015, 0.62181, 0.691061, 0.80642, 0.730329, 1.730242, -0.835437, -1.495299, -0.453466, 0.680942, -0.95897, 0.852186, 0.244661, 0.932361, -0.028907, -0.315032, -0.113445, 0.348783, -0.460314, 0.827452, -0.192096, 1.703737, 0.896669, -0.718859, 0.461216, 0.768506, 1.667856, -1.239938, 0.323896, 0.955722, 1.558027, -0.055086, 0.018205, 0.660932, 0.64735, 0.415124, -1.252949, -0.72697, 0.802643, 0.270423, 0.467485, 0.848441, 0.738423, -1.214607, -0.258692, -0.749348, -1.10796, -0.50032, 0.471581, -0.856895, -0.769674, 1.221622, 2.897153, -0.272036, -1.039921, 0.253308, 0.314815, -0.88355, -0.629611, 0.910398, 1.698906, -1.467435, 0.41118, -0.330592, 0.383423, -0.596785, 0.627626, -0.33499, -0.461125, 0.902092, -2.445417, 0.977627, -0.216882, -0.116865, 0.994234, -0.443254, -1.087227, 1.093001, 0.019289, 1.406473, 0.551649, -1.449777, -0.328442, -0.607416, -0.331638, 1.050982, -0.095418, 0.968145, 0.470936, -1.088216, 1.265133, -0.83034, -0.155961, 2.209426, -0.698199, -0.893331, -0.898214, -0.350231, 0.255183, 1.433241, -0.795614, -1.227473, 1.264485, -0.692241, -0.266025, -1.964951, 1.567396, -0.591017, 0.783349, 1.291661, -0.066133, -0.258864, -0.955953, -0.831611, 1.099845, -0.016828, 1.053074, 0.469862, -1.521047, -1.27808, 0.683059, 0.473616, 0.427261, 0.119639, -0.763033, -1.547686, -0.752544, 0.475607, 0.566936, 1.602327, 1.263044, 0.090209, -0.305372, 1.108137, -0.803096, -1.375476, -1.240754, 1.684708, -0.123449, -0.793586, -1.674441, -0.303144, -0.925456, -0.318363, -0.279409, 0.107761, -0.282846, -0.45889, -0.571938, 0.459022, -0.212682, -0.432436, 2.13216, -0.393006, 0.534966, -0.270854, 0.437813, 0.394415, 0.391562, -0.545959, 0.778686, -0.908567, -0.612126, -0.05046, 0.379594, 0.55329, 0.033181, -1.378598, 1.115599, 1.418608, -0.429148, 1.815662, 0.200474, -1.636263, 0.394491, 0.290576, 0.872011, -0.458159, -1.314891, -1.606986, 1.6451, 1.271974, 0.377532, -0.288583, 0.704387, 0.706116, 0.622342, -1.031141, -1.094042, -0.930293, -0.048916, -0.267434, 0.73826, 0.638219, 1.313657, -0.926925, 1.371365, 1.346822, -1.104657, -0.669252, 0.617661, 0.226085, 1.909947, 0.624672, 0.474572, 0.52811, 0.079494, 2.257381, -2.24473, -1.428388, 0.083539, -0.188925, -0.401254, 1.719605, 0.60399, 0.675835, -0.872218, -0.287168, 0.717, -1.672809, -0.704097, 1.156953, 0.978589, 0.48846, -0.137291, -0.51028, 0.165498, 0.845204, -1.010815, -0.373443, 0.947477, -0.366086, 0.454671, -0.421825, 0.830734, -0.720642, 0.101205, -0.396971, -0.798944, -0.40703, -0.802124, 0.766439, 1.198444, 0.178164, 1.303028, -1.505552, 0.403163, -1.090879, 0.388391, -0.252678, -0.673687, -0.612189, 0.133135, -0.436887, 0.326559, -0.284936, 1.127232, -0.161835, 0.578537, -1.544851, -1.24789, 0.762908, -1.223589, -1.52658, 0.579473, 0.20916, -1.860797, 0.63555, -0.162831, 1.005592, 0.761854, 0.234195, -0.041698, 0.645204, -0.849493, -0.44399, -0.290246, -0.53925, 0.825275, -0.773035, 2.334019, 1.006568, -0.204403, 0.630152, 0.439855, 1.494194, 0.11533, 0.88633, 1.9142, 0.652445, 0.366227, 1.742017, -1.696268, 0.1618, 1.121852, 0.089922, 2.609327, 1.71031, -1.054331, 0.249296, 1.145789, -0.694934, -0.949068, 0.282009, -1.116282, 0.167754, -0.667257, 0.308788, -0.112558, 0.271015, -1.260737, -0.284259, 1.548864, 0.424415, 0.283309, 0.026169, 0.407855, -0.38445, -1.506885, -0.852856, 1.928469, 0.41076, -0.842841, 1.37, -1.247826, 0.759899, 0.526711, -0.302845, -0.753764, 1.396512, -0.430438, 0.174655, -1.867351, 1.361164, 0.272493, -2.183001, -0.786302, 0.311586, 0.301599, 0.562943, -1.631548, 1.372155, -1.149333, -0.462602, -1.20276, 0.231629, -0.44448, 0.817995, 0.640125, -0.218081, 0.638122, 0.974231, 1.105629, -0.077107, 0.104517, 0.310156, -2.507282, -0.833107, 1.375356, -1.671485, 1.09826, 0.998725, -0.250186, 2.308303, 1.517224, 0.446475, 0.799078, 0.72499, 0.236582, 0.274729, 0.193624, 0.145796, 0.438158, -0.190747, -0.967672, -0.209374, 2.526436, 0.078629, 1.420661, -0.032563, -0.960929, -1.496386, 0.223291, -0.212297, 0.368448, -0.018599, 1.283224, 0.451904, -0.256417, 0.1459, 0.124313, -1.761418, 0.210253, -0.169117, 0.363368, -0.455449, 0.201902, 0.741605, 0.790351, -1.800449, -0.56692, -0.694639, 0.647335, -0.43669, 0.903857, 0.247486, 0.717982, 0.427366, -0.264594, -0.111679, 0.835005, -0.384602, 1.320696, 0.098651, -0.9715, 0.368559, -0.911024, 2.039562, 0.861776, -1.150116, 0.478352, -0.681892, 0.393673, 1.847803, 1.101527, 0.992819, -0.422569, 0.575437, -2.872015, 0.682494, 0.765724, -0.499836, 0.833805, -1.979531, -0.802593, 0.241611, -0.834619, 0.900712, -0.626393, -0.187398, 0.943732, 0.6762, -0.588019, -1.304004, -0.991095, -1.376577, -0.090986, -2.022291, 0.05449, 0.975456, 0.016075, 0.027742, 0.633306, 1.593413, -1.394721, 0.527518, 0.222497, -0.955089, 0.604115, 0.665306, -1.87861, 1.445149, 0.492296, 2.462514, 0.646706, -1.312978, 1.241542, -0.244783, 0.611567, 0.777861, 0.552286, -0.099516, -0.61371, 0.217666, 1.300713, 0.139472, -0.246595, 0.857746, -1.4817, 0.153298, -1.783501, -2.778727, -0.162006, 1.683489, 0.628762, 0.412348, 1.018899, 1.097862, 1.064412, 1.807693, -1.11545, 0.238689, 0.300848, -0.801014, 0.348539, 0.496659, -1.840599, 0.623435, 0.392919, -0.052223, 1.760964, 2.431429, -0.479647, -0.575087, -0.104175, 0.762455, 0.083437, 0.156876, -0.482141, -1.072233, -0.879552, -0.497239, 1.972148, -0.147985, 1.895466, 0.414551, 0.402198, -0.368111, -0.961582, -0.381757, -1.207644, -0.954938, -1.310698, -1.260756, 0.739615, 1.311514, 0.17578, -2.11299, -0.240603, 1.135823, -0.364346, -0.950289, -0.290703, -0.171788, -0.448072, 1.665441, 1.612039, 1.464241, 1.049315, -1.694617, -0.067527, -0.290755, 0.723886, 2.054211, -0.011035, 0.474256, 0.124264, 1.387854, -1.163302, 0.30318, 1.375191, 0.263459, -1.038795, 1.445745, 0.374199, 2.558617, 0.476517, -0.229466, -0.233125, -0.699172, -0.925518, 0.243759, 0.489098, -0.95303, 0.727332, -0.04212, 0.207633, 0.299349, 1.003276, -0.501498, 1.532986, 0.336211, 0.174624, -1.609887, -0.631176, -0.981953, 0.037313, 0.647667, -0.916958, 1.102494, -0.563172, 0.54961, 0.102752, -0.220639, 0.338577, 0.22005, 1.369358, 0.959365, -0.412528, 1.115478, 0.516731, 0.729757, -0.795943, 0.083919, 0.174841, -0.617986, -2.939738, 0.406179, 0.436797, -0.595638, 0.556116, 0.625413, 0.905434, -1.683838, 0.992937, 1.298884, -0.408628, 2.067034, -0.328793, -0.404631, 0.812366, 1.651131, 0.478815, -2.336538, 0.027996, -0.238277, -1.257546, 0.391644, -0.846851, 1.211978, -0.613053, -0.739278, -1.047013, -0.892308, -0.091158, -0.399913, 0.152748, 1.314717, -0.611112, 0.460346, -0.108173, -0.138859, 0.967104, -0.372159, 0.464512, -0.536752, -0.316314, -0.588512, -0.336442, -1.392226, 0.027191, 1.5768, 2.306894, -0.27212, -1.621241, -0.922919, -1.755433, 0.009258, -0.152351, 0.099418, 0.233524, 0.852816, -1.350152, 2.477677, 1.177761, -0.185008, -1.385912, 1.599738, 0.701378, 1.097993, -0.704219, 2.099358, -0.079031, -0.469254, -0.568203, -0.014035, 0.877259, 0.385282, -0.027033, 1.027801, -1.814307, 1.118735, 1.227345, 0.805544, 0.935462, 0.439088, 0.231914, 0.198276, 0.4087, -0.435191, 0.427391, 1.619686, -0.03482, 0.348285, 0.613727, -1.333184, 0.818159, 0.832, -0.340575, -0.710454, -1.401555, -0.840689, 0.617746, 1.940592, 0.57981, 1.039667, -1.416428, 0.475503, 0.869513, 2.094519, -1.204628, 