{"arch": [768, 128, 64, 32, 16, 16, 16, 16, 16, 16, 16, 1], "scale": 600.0, "int": true, "quant": {"qa": 1024, "qw": 1024}, "layers": [{"w": [-61, -913, 100, 164, 0, 543, 498, 723, -416, -1902, 634, -678, -2090, -93, -1092, -785, 1525, 1137, -457, 283, 479, -1013, -107, 936, -305, -1237, 741, 951, -208, 1574, -880, 1204, -244, -1868, -380, 1090, 1535, 925, 198, -630, 1128, -1677, 785, -1405, 172, -588, 187, -591, 1581, 589, 82, -299, -830, 488, 2084, 2217, 1497, 1369, 945, 161, -420, -231, -722, 1126, -61, -913, 100, 164, 0, 543, 498, 723, -416, -1902, 634, -678, -2090, -93, -1092, -785, 1525, 1137, -457, 283, 479, -1013, -107, 936, -305, -1237, 741, 951, -208, 1574, -880, 1204, -244, -1868, -380, 1090, 1535, 925, 198, -630, 1128, -1677, 785, -1405, 172, -588, 187, -591, 1581, 589, 82, -299, -830, 488, 2084, 2217, 1497, 1369, 945, 161, -420, -231, -722, 1126, 1607, -1293, 1753, -469, -745, -1097, 586, -73, -873, 336, -469, 1143, 797, -208, -557, -888, -1205, -506, -265, -1209, -1095, -931, -1000, -1204, -344, 519, 1380, -392, -595, 947, 1144, -282, 949, -975, 436, -2254, -1431, 6, -385, -1720, -337, -1516, -2193, 377, 402, -705, 1850, -956, -374, -1485, -1935, -2066, 232, 618, -352, 297, 962, -1212, 371, -1046, -509, 824, -1402, -298, 1607, -1293, 1753, -469, -745, -1097, 586, -73, -873, 336, -469, 1143, 797, -208, -557, -888, -1205, -506, -265, -1209, -1095, -931, -1000, -1204, -344, 519, 1380, -392, -595, 947, 1144, -282, 949, -975, 436, -2254, -1431, 6, -385, -1720, -337, -1516, -2193, 377, 402, -705, 1850, -956, -374, -1485, -1935, -2066, 232, 618, -352, 297, 962, -1212, 371, -1046, -509, 824, -1402, -298, -660, -162, 3323, 925, 934, 1019, 1520, -1554, 1032, -215, 1219, 15, 1764, -94, 2645, 512, -142, -2334, 134, -3, -1625, 1592, 168, 275, -512, 50, -1594, -1012, -12, -1020, 903, -29, -625, -620, 329, -859, 772, -1419, 667, 1235, 2074, -472, 179, 48, -416, -843, 941, 1034, -939, -65, -1053, 2504, -1420, -2613, 145, 501, -657, -475, 70, 1578, 1517, 39, -1392, 5, -660, -162, 3323, 925, 934, 1019, 1520, -1554, 1032, -215, 1219, 15, 1764, -94, 2645, 512, -142, -2334, 134, -3, -1625, 1592, 168, 275, -512, 50, -1594, -1012, -12, -1020, 903, -29, -625, -620, 329, -859, 772, -1419, 667, 1235, 2074, -472, 179, 48, -416, -843, 941, 1034, -939, -65, -1053, 2504, -1420, -2613, 145, 501, -657, -475, 70, 1578, 1517, 39, -1392, 5, -258, 1114, 1222, -745, 424, -133, 1052, -386, -1543, 739, 143, -447, 522, 97, -855, 439, 855, -492, 84, 778, -712, -204, -484, 1740, -1604, 930, -582, -254, 491, 287, -899, -1219, 975, 1429, -767, -1102, 1620, -167, -413, 582, 628, 351, 546, 508, 758, 2473, -1296, 590, -933, -1630, 675, -835, 458, 645, 430, -201, -1708, -573, -129, 116, 78, -1752, -1343, -754, -258, 1114, 1222, -745, 424, -133, 1052, -386, -1543, 739, 143, -447, 522, 97, -855, 439, 855, -492, 84, 778, -712, -204, -484, 1740, -1604, 930, -582, -254, 491, 287, -899, -1219, 975, 1429, -767, -1102, 1620, -167, -413, 582, 628, 351, 546, 508, 758, 2473, -1296, 590, -933, -1630, 675, -835, 458, 645, 430, -201, -1708, -573, -129, 116, 78, -1752, -1343, -754, -575, 1861, 1052, -128, 1529, 1071, -326, -1106, -944, 376, 2512, -61, -983, -1600, -282, 222, 1254, 2105, -46, 1280, 2183, 1543, -926, 1332, 6, -2, 320, -110, -1139, -206, 33, -1027, -155, 1061, -992, 714, 354, -574, -642, 754, -472, -98, -849, 41, 251, -926, 1960, 567, -1317, -2, 497, 665, -238, -519, -768, -598, 113, -503, -262, -601, 301, -685, -575, -76, -575, 1861, 1052, -128, 1529, 1071, -326, -1106, -944, 376, 2512, -61, -983, -1600, -282, 222, 1254, 2105, -46, 1280, 2183, 1543, -926, 1332, 6, -2, 320, -110, -1139, -206, 33, -1027, -155, 1061, -992, 714, 354, -574, -642, 754, -472, -98, -849, 41, 251, -926, 1960, 567, -1317, -2, 497, 665, -238, -519, -768, -598, 113, -503, -262, -601, 301, -685, -575, -76, 417, -727, -137, 2078, 1247, -588, -93, -801, 1565, -30, 40, -140, 298, 1067, 1068, -651, 260, -613, -1151, -777, 1814, 2797, 221, -218, -968, 1491, -1293, -307, 170, -352, 191, -1333, 1079, 302, -280, -534, -268, 1544, 133, 888, -634, 698, 555, 99, -1599, 803, -1269, -2064, 483, 230, 1068, -1491, 97, 942, -2306, 171, 1579, 266, -59, -483, 615, 412, 623, 375, 417, -727, -137, 2078, 1247, -588, -93, -801, 1565, -30, 40, -140, 298, 1067, 1068, -651, 260, -613, -1151, -777, 1814, 2797, 221, -218, -968, 1491, -1293, -307, 170, -352, 191, -1333, 1079, 302, -280, -534, -268, 1544, 133, 888, -634, 698, 555, 99, -1599, 803, -1269, -2064, 483, 230, 1068, -1491, 97, 942, -2306, 171, 1579, 266, -59, -483, 615, 412, 623, 375, 712, 1835, 298, -1237, -539, 29, 1205, 697, 1062, -303, -1267, -743, -1208, -958, -200, -3, 1703, 2130, -778, -16, 1691, -1619, 699, 653, -2742, -2393, -398, -104, -12, -608, 416, -1445, 488, 233, 476, -640, 304, -1700, -24, -418, 869, 632, -1038, -339, -650, -479, 1301, 1101, -743, -1152, -431, -1474, 953, 3016, 1128, 1150, 701, -1385, -134, 582, -19, 123, -544, -649, 712, 1835, 298, -1237, -539, 29, 1205, 697, 1062, -303, -1267, -743, -1208, -958, -200, -3, 1703, 2130, -778, -16, 1691, -1619, 699, 653, -2742, -2393, -398, -104, -12, -608, 416, -1445, 488, 233, 476, -640, 304, -1700, -24, -418, 869, 632, -1038, -339, -650, -479, 1301, 1101, -743, -1152, -431, -1474, 953, 3016, 1128, 1150, 701, -1385, -134, 582, -19, 123, -544, -649, -976, -1236, -1729, -1747, 1529, 48, 985, 1664, -2749, 398, -1182, 1250, -1422, 169, 699, -2781, 514, 518, 690, 1603, -1131, -2386, 780, -142, -2703, 695, -1920, 1318, -66, -381, 509, -800, -158, -928, 397, -2045, -401, 1191, -244, -1206, 621, 1974, -944, -1127, -453, -4, 392, 130, 174, -759, 315, -687, 1930, 2285, 256, -1120, -989, -1293, -556, 390, -87, 574, 853, 437, -976, -1236, -1729, -1747, 1529, 48, 985, 1664, -2749, 398, -1182, 1250, -1422, 169, 699, -2781, 514, 518, 690, 1603, -1131, -2386, 780, -142, -2703, 695, -1920, 1318, -66, -381, 509, -800, -158, -928, 397, -2045, -401, 1191, -244, -1206, 621, 1974, -944, -1127, -453, -4, 392, 130, 174, -759, 315, -687, 1930, 2285, 256, -1120, -989, -1293, -556, 390, -87, 574, 853, 437, 291, 204, -408, -2788, -1087, -537, 280, 321, -292, 1053, -302, -63, 495, 274, 1316, 1600, -747, 650, -31, -904, 274, 731, -424, -915, 854, 660, 1083, 15, 1064, -14, 443, -268, 1062, 655, -443, 282, 797, -1210, -975, -1494, -632, 109, 722, -355, -1203, -1096, 418, -476, 1230, -1507, 246, 804, 429, -85, 983, 212, 468, 495, 254, 1104, 243, 1276, 175, 1455, 327, 125, -470, -1703, -935, -317, 492, 307, -382, 1005, -82, -61, 528, 664, 1232, 1476, -694, 610, -330, -807, 295, 225, -287, -840, 865, 95, 1036, -19, 1064, 77, 392, -298, 654, 496, -526, 323, 848, -1300, -825, -1385, -369, 233, 692, -169, -1070, -1033, 602, -431, 1174, -1287, 195, 955, 319, -274, 1035, 442, 569, 358, 191, 1222, 333, 1429, 234, 1430, -372, 470, -1016, 279, -1666, 180, 933, 828, 1560, 680, -438, 364, 44, 590, 372, 690, 566, 311, 143, -362, -141, 293, -1134, 91, 664, 59, 250, -275, -336, 1039, 39, -1819, 441, 486, -1497, -583, 760, 1477, -473, -609, -971, 471, 159, -185, -278, 1435, -698, -325, 342, 346, 1853, 245, 477, -536, 888, -82, 415, -220, -33, 1103, -1717, 1499, -73, 1858, -299, 366, -773, 365, -1277, 31, 1000, 824, 1829, 634, -510, 353, 64, 917, 271, 754, 619, 280, -173, -294, -128, -242, -976, 119, 958, -20, 220, -293, -359, 1019, 28, -1890, 399, 496, -1424, -515, 1019, 1465, -585, -573, -497, 510, 225, -65, 124, 1257, -644, -314, 293, 109, 1833, 351, 375, -585, 870, 96, 468, -346, -69, 1300, -1733, 1610, -54, 1852, 662, -198, -168, 277, -650, -866, 314, -811, -100, -404, 21, 887, 336, 63, -113, -615, -66, -163, 650, 545, 342, 300, 707, 299, 1335, 583, 201, 581, 1205, 569, -311, 573, 52, 675, 748, 1378, 937, -492, -423, 194, -814, 282, -225, -199, 402, 799, 241, 407, -172, 243, -1438, -11, 85, 1365, 55, -579, 930, -556, -1181, 584, -139, 1254, 408, 1183, 672, -344, 40, -161, -286, -639, 506, -738, 96, -465, -161, 898, 223, 237, -261, -392, -154, -228, 466, 475, 328, -450, 879, 297, 1259, 848, 199, 515, 1183, 438, -350, 591, -343, 452, 833, 1387, 825, -659, -568, 467, -478, 264, -366, -80, 552, 788, 333, 402, -255, 145, -1442, 106, 63, 1221, 75, -329, 974, -722, -1238, 600, -619, 1329, 485, 1138, 292, 632, -212, 36, -538, -481, 87, 1480, -647, -900, -385, -249, -172, -536, 1063, -850, 621, -348, 160, -1681, 399, 158, -1275, -520, 338, 818, -719, -725, 1156, 603, 346, -860, 177, 555, 93, -251, -476, -419, -134, 887, -807, 1287, 1287, 311, 127, -17, 511, -71, -256, 33, 392, -150, 48, -105, -410, -392, 1199, -903, -400, 149, -955, 323, -431, 1150, 296, 554, -654, -193, -857, -509, -20, 1343, -649, -878, -643, -279, -220, -708, 958, -847, 696, -369, -26, -1264, 391, -677, -1126, -497, 618, 358, -763, -838, 1098, 404, 339, -838, 229, 429, 168, -205, 4, -496, -397, 898, -82, 1278, 1586, 141, -39, -44, 510, -96, -305, 98, 367, -154, -31, -207, -426, -205, 1157, -1244, -205, 38, -935, 185, -461, 1152, 344, -515, 489, 153, 597, -1246, 236, 1846, -19, -226, -797, 1325, 390, -577, 1100, -395, 108, -850, 1606, -635, -381, 100, -429, 203, 968, 1417, 484, 359, 645, 556, -1308, -38, -595, -204, 902, 1439, -714, -1091, -104, 770, 214, -335, -142, 175, 351, 524, 627, -132, 3, 260, 211, 0, -466, 836, -358, -29, -677, -1057, -1700, 463, 155, 658, 909, 294, 308, -485, 409, 251, 971, -1220, 548, 1710, -203, -254, -21, 1340, 466, -405, 1107, -339, 166, -807, 1482, -613, -323, -225, -206, 251, 1080, 1416, 447, 250, 632, 502, -1394, -108, -633, -460, 881, 1486, -426, -1031, -309, 718, 762, -357, 11, 348, 413, 572, 719, -53, -86, -22, 170, 61, -952, 250, -329, 55, -599, -1216, -1702, 626, 12, 725, 849, 260, 529, -439, -419, -226, -164, -99, -1299, 194, -252, -131, -742, -535, 660, -1892, 473, -536, 168, -535, 691, -565, 1779, 103, 279, -1166, -329, 869, 89, -630, 1110, 952, -719, 632, -297, -335, -248, 16, 195, -712, -503, 663, -63, -826, -495, 298, -341, 854, -239, -474, -438, -357, -516, 1550, -635, -149, 17, -263, 78, -1036, 82, 969, 758, -183, -32, 585, 589, -456, -163, -457, 13, 268, -1555, 46, -167, -142, -827, -566, 630, -1722, 456, -424, 186, -560, 736, -381, 1778, -274, 439, -951, -301, 690, 112, -767, 1087, 1003, -764, 602, -633, -353, -197, 25, 447, -494, -568, 903, 246, -828, 0, 338, -64, 844, 72, -481, -535, -396, -541, 1569, -825, -410, -3, -395, 36, -1204, 86, 1090, 856, -275, -50, 541, -93, -1135, -846, 145, 177, -84, -1473, 1184, -420, -268, -704, -45, -34, -808, 1593, 16, -234, 768, 867, -258, -318, -384, -210, -267, 288, 101, -1075, 61, -903, 592, 313, -294, 1146, -422, -134, -514, -216, 324, -442, 268, 909, -870, -1793, -321, 233, 62, 1750, 721, -363, -399, -758, -1295, 185, 178, 898, -1495, 190, -513, 97, 609, 1332, 814, -205, 984, 90, -1180, -718, 112, 577, -173, -1175, 1134, -58, -290, -412, -17, -81, -174, 1407, 57, -275, 759, 591, -465, -290, -491, -64, -289, 317, 129, -1091, 46, -907, 618, 260, -268, 1001, -505, -94, -494, -470, 304, -602, 477, 1116, -694, -1767, -250, 428, -169, 2027, 723, -402, -505, -758, -1053, 161, 52, 876, -1583, 239, -448, -109, 721, 1239, 903, -132, 921, -900, -23, -777, 476, -196, -258, -332, 1545, 143, 1667, -1065, 216, 743, -1150, 902, 294, 324, 100, 55, 588, 124, 426, -567, 2495, -559, 471, 140, 190, -1140, 572, -359, 1051, 719, 48, 277, 851, -14, -784, 2, -397, -943, -112, -665, -910, 861, 930, -72, 232, 2341, 1339, 682, 454, -922, 352, -76, -858, 133, 672, 1442, -594, 1014, 171, -61, 497, -990, -149, -801, 372, -112, -231, -421, 1562, 200, 1634, -837, 224, 656, -973, 815, 401, 433, 43, 31, 368, 125, 464, -377, 2636, -494, 30, 110, 78, -1155, 614, -420, 1111, 403, -105, 351, 850, 327, -948, -74, -189, -582, -84, -276, -842, 902, 799, 56, 234, 2239, 933, 639, 557, -952, 113, -53, -647, 149, 464, 1462, -441, 918, 156, -54, 453, 990, 1971, -385, 1131, -1017, 8, 869, 245, -239, 1903, -514, 528, -173, 347, 743, -653, -365, 419, 469, -216, 338, 126, 1223, 377, 834, 620, -170, -204, 432, 131, 831, -145, 222, -209, -560, 677, 12, -105, -205, -670, 261, -474, 1072, -746, -101, -610, -179, -132, 538, -900, -403, 832, 65, -403, 642, -80, 259, -298, -94, -108, -102, 843, -83, 752, 1151, 1907, -460, -63, -494, 812, 642, 75, 14, 1864, -109, 432, 77, 862, 492, -240, -382, 491, 220, 788, 433, -104, 1409, 239, 850, 447, -223, -434, 454, 228, 755, -191, 276, -555, -566, 718, 156, -141, -584, -650, 289, -296, 1436, -396, 330, -922, 168, -84, 466, -1036, -438, 737, -733, -186, 587, -196, 227, -700, -146, 321, -774, 790, -125, 729, 741, -91, -79, 1339, -2342, -308, 643, -545, -604, 1124, -331, -174, -324, 505, 507, -98, 0, 658, -36, 590, 115, -574, 205, -166, 1323, 569, 2153, 229, 1038, 1207, 815, 438, 691, 725, 47, -490, 597, 379, -182, -926, 563, -460, 1015, -752, -146, 915, -1194, 254, -176, 280, 127, 1907, 851, 769, 282, -519, 995, 61, -800, 1140, 788, 562, 275, 985, 880, -84, -84, 972, -1373, 20, 718, -845, -300, 1193, -192, -263, -148, 657, 339, 207, -174, 681, -266, 777, 87, -859, 322, -312, 1722, 394, 2063, 206, 999, 829, 846, 316, 617, 391, 390, -403, 878, 782, -914, -206, 391, -343, 1210, -491, 9, 755, -236, 203, -169, -48, 163, 1870, 266, 953, 259, -194, 995, 38, -410, 1340, 606, 676, 213, 994, 593, 738, -209, -14, -228, 208, 531, 550, -325, 561, -761, 668, -670, -269, -372, -5, 258, 1255, -192, -296, 694, -550, -258, 301, 740, 64, -202, 512, 17, 667, 326, 176, 848, 659, 1527, -382, 565, -636, -681, -13, -30, 1299, 548, 143, 12, 619, 86, 523, 721, 347, 260, 1766, 405, 738, -48, -275, 1360, -387, -132, -8, -1359, 358, 1155, 1651, 695, 630, 40, -116, -571, 475, 546, 466, -566, 647, -953, 639, -536, -78, -453, 19, 98, 1360, -357, -293, 634, -1110, -132, 430, 975, -263, -132, 330, 14, 578, 378, 86, 874, 600, 1540, -283, 904, 20, -1114, -153, 10, 1351, 938, 82, -73, 534, 340, 535, 610, 75, 240, 1689, -40, 646, -51, -243, 1267, -952, 82, 66, -1476, 99, 1200, 1673, 91, 1604, 52, 118, -176, -1109, 1081, -102, -826, 0, -145, 666, -205, -655, 194, -691, 875, 1049, 254, 391, -496, -1089, -735, 373, 1018, 406, 183, 1457, 185, 462, -137, 1295, 1025, 852, 358, 1539, -695, -577, -287, 835, 478, -5, 411, 426, 763, 667, 945, 766, 314, 193, -259, -410, 72, 484, 169, -30, 491, -140, -1932, -63, 695, 899, -121, 1508, 183, 1400, 264, -174, -72, -814, 1450, -200, -397, -17, 202, 581, -85, 246, 100, -773, 661, 987, 172, 327, -442, -1238, -643, 446, 1209, 314, 164, 1359, 147, 691, -162, 1240, 1046, 592, 731, 1479, -558, -202, -552, 675, 452, -21, 1130, 312, 1048, 372, 901, 740, 355, 7, -243, -372, -453, 588, 224, 42, 463, -510, -1749, -128, 120, 946, 10, 1500, -545, 1684, 288, 241, -598, -777, -167, 315, -689, 980, -1003, 448, -184, -1878, 614, -613, 361, -392, -25, -1768, 452, -1074, -243, 79, -244, 248, 187, 222, 1057, 688, 981, 520, 778, 939, 62, -148, 309, 295, -403, 845, 66, 216, 1868, 826, -517, 585, 1710, 291, 483, -103, 557, 130, 427, -786, 274, -16, 1626, -1073, -177, -120, 180, -769, -454, 714, -32, 1365, 741, 44, -150, -549, 53, 227, -1054, 1022, -611, 421, -212, -1717, 492, -168, 266, -316, 62, -1157, 432, -1879, -203, -56, -2, 180, 81, 346, 1040, 518, 905, 456, 232, 858, 224, -141, 155, 134, -556, 1231, 140, 252, 1791, 745, 382, 563, 1563, 246, 385, -233, 605, 151, 179, -977, 227, 290, 1612, -1661, -337, 198, -117, -453, -462, 654, 283, 850, -228, -122, 1016, -230, -373, 616, 155, 1970, -359, 1472, 107, -889, 1120, 86, 113, 673, 658, -55, 1013, -989, -148, -525, -691, 1365, -423, 88, 430, 850, 24, 23, 255, -408, 793, -98, -185, 870, -84, -103, 1588, -699, -802, -36, 77, 238, 1298, 715, 335, -285, -473, 714, 365, 311, 129, -595, 1208, -345, -1404, 763, 522, 1287, 439, 1018, 129, 986, -73, -348, 1583, -232, -159, 419, 348, 1955, 391, 1310, 110, -374, 1134, 111, 15, 612, 639, 317, 1056, -1195, -142, -267, -273, 888, -476, -45, 455, 946, 19, 41, -87, -505, 705, -131, 53, 925, -136, -67, 1427, -491, -261, 280, -6, 233, 1022, 696, 296, -298, -537, 703, 81, 527, 171, -57, 1110, -699, -1075, 885, 194, 801, 411, 996, 468, 257, -524, -76, 603, 477, -1218, -521, -66, 854, -885, 1079, -767, -1550, 674, -1, -13, 199, 402, 237, 366, -626, 1299, -874, 556, -928, -35, 43, 558, 587, 379, 910, 977, -370, 793, 359, -102, 897, -58, -713, 497, -497, -531, -274, 663, 85, 1440, -437, 782, -667, 768, -66, 350, 94, -217, -77, -206, -217, 539, 571, 1744, 1591, 938, -793, 897, 171, -581, 158, 519, 963, -761, -460, 393, 820, -934, 1077, -451, -1570, 735, 46, -83, 164, 229, 698, 390, -986, 1432, -902, 701, -228, -43, -13, 545, 399, 339, 875, 638, -621, 877, 398, 2, 933, -292, -736, 764, -326, -124, -36, 900, -250, 1532, -423, 778, -412, 795, 183, -174, -56, -186, 254, -169, -561, 531, 616, 1006, 1847, 1050, -819, 97, 609, -1023, -276, 342, 18, -15, 202, 527, 1069, -211, -156, -985, -250, 604, 483, -668, 786, 415, 332, 931, 52, 433, 129, 824, -24, 446, 699, -422, 1103, -629, 2389, 579, -193, 736, 1435, -1020, -727, 290, 742, 237, -71, -364, -48, 15, 678, 160, 918, 1411, 1317, -2, -100, -116, 528, 1062, -739, -193, 718, 106, -362, 1204, 69, 158, 1219, 328, 696, -432, -591, 692, 650, -289, 113, 238, 1085, 458, -315, -678, -254, 669, 575, -1069, 894, 53, 680, 1075, -421, 619, 375, 883, -46, 425, 495, -507, 1087, -685, 2228, 348, -701, 540, 1542, -855, -572, 121, 625, -420, -146, -316, 174, -285, 87, 941, 1082, 1345, 1075, -112, -148, -516, 469, 1081, -705, -209, -38, 322, -7, 715, 247, 206, 1341, 503, 1696, -499, -284, -81, -685, 567, -1696, -1511, 908, -52, 343, 54, 442, 822, 544, 355, 1255, -131, -310, -254, -6, 581, 455, 1272, -57, 1432, -693, 996, 796, -641, 291, 434, -986, 364, 146, 263, -721, -421, -1163, 809, -480, 440, 177, -227, -1285, 458, -1162, 1138, -1670, -188, 168, 59, 274, -80, 399, 54, -346, -2, 1030, 193, 1504, 817, 878, 719, 1528, -235, -124, 346, -273, 652, -1710, -979, 894, 28, 358, 53, 1186, 772, 716, -30, 1186, -212, 304, -291, -258, 737, 696, 1333, -222, 1354, -773, 965, 565, -606, 306, 365, -1176, 527, 177, 624, -780, -321, -766, 527, -254, 1458, 329, -259, -1066, 428, -1169, 979, -1528, -184, 185, -281, 82, -34, 190, 26, -597, 230, 1088, -60, 1282, 774, 879, 938, 1465, -1176, 867, -315, 412, -665, 186, -473, 1216, -1022, -847, 635, 89, 905, 699, 603, 1811, -12, -280, 493, 84, -15, 56, 288, -105, 775, 698, 245, 907, 1319, -520, 167, 992, 1871, 505, 844, 1020, 25, -209, 146, -402, 177, -523, -367, 574, -1033, 483, 34, 264, 116, 939, 345, 1037, 41, 350, 89, -496, 182, 179, -1169, 420, 470, 641, 1024, 1413, -688, 770, -230, 382, -328, -122, -325, 1229, -733, -941, 377, 660, 792, 570, 397, 1782, -272, 5, 447, -98, 17, 41, 614, -200, 693, 717, 275, 665, 1315, -539, -112, 243, 2058, 494, 1057, 1130, -436, -191, -182, -280, 342, -357, -176, 544, -955, 448, 18, 119, 105, 863, 54, 1013, 34, 657, 46, -803, 414, 492, -1496, 302, 392, 619, 422, 796, -229, 665, -961, -1383, 312, -685, -771, 788, -260, 522, 588, 433, 410, 382, 23, -457, -265, 622, -793, -459, 516, -62, 626, 340, 1065, 1314, 1755, 856, 1135, -16, 597, 757, 1374, 1047, 462, -453, -73, -300, 317, -813, 1026, 17, 387, 332, -278, 451, -478, 158, 1308, -321, 79, 2226, -576, -93, 152, 80, -1608, 314, 1105, 1060, 343, 1179, 661, 797, -35, 116, -722, -713, 520, -560, -840, 744, -409, 503, 666, 281, 541, 209, -184, -529, -179, 718, -788, -1006, 651, 49, 804, 296, 1103, 1177, 1753, 920, 1046, 2, 306, 320, 1265, 1116, 612, -41, -510, -83, -29, -759, 1470, 131, 337, 341, -74, 437, -513, 24, 1268, -217, 281, 1975, -589, -107, 34, 12, -793, 596, 547, 846, 438, 1152, -529, 1372, -340, 425, -622, 331, 569, -764, -759, -379, -1000, -128, 135, -1228, 1592, -674, 744, 347, -114, -455, -41, -826, -100, 67, -402, 249, 720, 1783, -269, 978, 1605, 863, 588, 1501, 781, -345, -394, -76, -207, -312, 428, 811, 1427, 87, -280, -149, 68, 458, 16, 588, 865, 680, 112, 332, 485, -517, 1745, -608, -21, -130, -948, -420, 149, -130, -107, 1470, -332, 550, -371, 638, 953, -806, -880, -365, -1119, -104, 234, -1016, 1601, -564, 621, 307, -52, -230, -41, -1036, 130, -57, -212, -319, 672, 1819, -201, 882, 1529, 841, 429, 900, 896, -303, -232, 302, -468, -323, 541, 834, 1508, 322, -287, -698, 108, 524, -12, 111, 820, 765, -18, -122, 503, -117, 1716, -557, 431, 330, -728, -239, 53, -218, -670, 1106, 38, 567, 422, -713, 120, -81, 519, 872, -581, 1272, 69, -907, 75, 311, 198, 668, 154, 302, -219, -930, 592, -157, 66, 764, 462, 1606, 147, 686, -510, 1463, 811, 651, 1559, -172, 106, 557, -466, 290, 1111, -1165, -154, 401, 274, 532, 151, 364, 365, 115, 563, 919, 257, 1402, -24, -442, 824, 168, -1523, 128, 1073, 1394, 1056, 399, -336, 900, 496, 768, 367, -700, 420, 144, 350, 844, 92, 1255, 60, -336, -20, 457, 42, 567, 82, 598, -183, -1557, 794, 226, 27, 375, 602, 1632, 197, 341, -679, 1476, 234, 626, 1643, -119, 320, 963, -215, 728, 844, -954, 553, 288, 593, 179, 843, 383, 339, -102, 554, 1033, -3, 1317, -46, -302, 738, -404, -1408, 188, 894, 901, 1051, 278, 70, 1090, -26, 27, -308, 402, -412, -1162, 624, 735, -1029, 1789, -412, -2305, 403, -656, 914, 1148, 106, -696, 527, -646, 737, 537, 342, 1233, -141, 623, 224, 278, 384, 1668, 392, -598, 1021, 677, -561, 734, 23, -838, 880, 471, 618, 378, -178, 153, -168, -592, 854, -147, -757, 1053, -64, -492, -59, 349, 641, -611, -47, -257, 1025, 421, 788, 538, 92, 964, 235, -309, -8, 469, -209, -1092, 740, 677, -921, 1822, -75, -1796, 438, -502, 640, 1051, -152, -63, 558, -887, 811, 411, 477, 606, -139, 695, 220, -71, 397, 1671, 4, -778, 972, 666, -183, 1122, -80, -521, 885, 573, 781, 519, 339, -418, -224, -672, 851, -689, -746, 1244, -199, -574, -99, 436, 654, -803, 516, -141, 421, 217, 799, 487, 205, 379, -602, 609, 721, -228, -1466, 102, 801, 1048, -63, 389, -474, -743, 500, 280, 262, 504, 54, -179, 447, -354, 1244, 116, -661, 724, 285, 1175, 968, 131, 647, 1423, 935, -215, -429, -591, -667, -515, -100, -567, 645, -1026, -411, 483, 525, 15, 92, 122, 1081, 283, -75, -40, 244, 591, 411, -1610, 723, 87, -748, 466, 78, 389, 1023, 78, 112, 120, -399, 364, 872, 173, -699, -214, 1315, 1065, 169, 450, -166, -572, 608, 587, 307, 478, -7, 33, 353, -960, 1235, 48, -383, 174, 309, 1109, 861, -519, 681, 1321, 687, -279, -283, -532, -227, 253, -388, -739, 631, -1065, -369, 420, 631, 61, 692, 39, 1033, -301, -113, -46, 224, 409, 355, -1583, 692, -705, -144, 555, -66, 568, 1005, 117, -459, 1013, -569, 136, -101, 816, 447, -429, -342, 1196, -1704, -382, 220, -701, 1133, 917, 692, 571, 519, -208, 518, 651, 1019, -177, 506, 494, 356, 266, -468, 1231, 67, 504, 786, -902, -470, 1251, -821, -915, 415, 326, 86, 951, -117, -87, 168, 955, -58, 231, 1781, 1752, 1054, -44, -785, 569, -313, -651, 1056, 758, -126, -1244, 482, -378, -442, -336, -385, 1096, -183, -215, -81, 1054, 740, -497, -205, 1236, -914, -557, 582, -870, 950, 1433, 863, 520, -121, 273, 606, -89, 937, 226, 903, 501, 439, -114, -482, 1093, -36, 306, 451, -1147, -442, 1449, -987, -546, 139, 498, -171, 1065, 383, 92, -177, 954, 1113, 322, 1942, 1398, 1028, -69, -1218, 423, -248, -153, 1085, 624, -19, -917, 245, -611, -559, -287, 609, 606, -465, 1824, -55, 901, -1045, -577, -1495, 209, -955, -1059, 213, 476, 824, -23, 25, -1222, 975, -490, -786, 203, 324, 2217, -431, -240, 353, -153, 481, 633, 169, 676, -1152, 8, 1916, -368, 696, -873, 434, -294, 942, 593, -841, -1028, -537, 345, 126, -352, 306, -376, -230, 725, -632, 2768, 210, 46, -150, -2562, -36, 1118, 321, 500, -37, 1906, 1001, 577, -402, 1379, 374, 1003, -1053, -880, -1198, 164, -566, -1042, 452, 1111, 809, 371, 389, -1222, 1197, -536, -608, -170, 514, 2446, -115, -995, 213, -142, 482, 803, 123, 543, -1560, -564, 2005, -334, 961, -458, 291, -85, 711, 471, -837, -846, -151, 402, -227, -299, 375, -799, -232, 1091, -482, 2643, 261, 403, -21, -2422, 488, 1093, -371, 640, -17, 1897, 1111, 857, 448, 777, -1544, -2228, -239, -1455, -957, 1781, -1032, -1463, 349, 554, 895, 926, 241, 1833, -335, 338, -485, -1229, -213, 1112, 131, -275, 92, 511, 1058, 1071, 758, 714, -54, -724, 1835, 1966, 707, -112, 586, -943, 1322, -1372, 514, 1225, -244, 1092, -642, -679, -32, -301, 2029, -814, -261, -17, -86, 570, -1012, 241, -1345, 2039, 1331, -2, 590, 1794, 1220, 771, 497, 716, -1230, -1345, -448, -1592, -392, 1859, -1150, -1369, 526, 989, 801, 983, -69, 1943, -455, 605, -511, -939, -13, 1015, 56, -482, 58, 471, 1073, 908, 732, 614, -335, -1225, 1962, 1874, 725, -66, 654, -894, 1376, -1246, 1115, 1072, -64, 853, -284, -719, -173, -848, 2044, -638, -977, -69, -94, 92, -1070, -684, -990, 2056, 999, 193, 758, 1742, 284, 1568, -1378, 1910, -1056, 859, -1402, 324, -227, 199, -1755, -473, -9, -111, 95, -939, 1424, 548, -371, -209, 1432, -267, -1045, 498, -1226, 640, 852, 1261, 719, 1549, 715, 180, -226, 626, 2347, -136, 926, 44, 153, -195, 254, -324, 304, -1311, -1275, -269, -578, 565, 1847, -773, 724, -217, -185, 1770, 243, 0, 726, -1423, -350, -770, -944, -1290, 464, 442, 686, 1406, -793, 2037, -214, 1018, -982, 414, -1184, 96, -1263, -513, 119, 202, 49, -134, 1043, 563, -202, 220, 1560, -986, -636, 811, -929, 160, 825, 1084, 648, 1772, 584, 171, -832, 902, 2305, -142, 700, 619, 56, 130, 358, 166, 1005, -1005, -579, 127, -927, 545, 1771, -417, 739, 236, 149, 1291, 247, 115, 806, -1404, 13, -381, -1209, -1474, 564, 427, 180, 1683, 44, 1280, -137, -2305, 34, -573, 42, 1193, -21, 918, 654, 251, 621, 19, 375, 2090, -33, 634, -202, -758, -931, -298, -1112, 972, 1163, 1487, -5, 760, -456, 159, 154, -18, 2672, 45, -616, -496, -114, -678, 1471, -345, 39, 932, 678, 385, 117, 970, -103, -583, 792, 292, 338, 1750, -353, -608, -61, 615, -1784, 540, 1787, 1067, -120, 807, 683, 1316, 99, 1211, -62, -1445, 697, -409, 358, 1155, 40, 993, 583, 327, 729, 880, 35, 1875, -41, 758, -218, -1148, -785, 241, -1117, 700, 1176, 1692, 8, 1132, -466, 186, 194, 67, 2892, -61, -659, -706, 30, 4, 1614, -189, 607, 1386, 670, 236, -158, 1038, -140, -509, 889, 665, 232, 1552, -297, -379, 27, 533, -1433, 447, 1852, 1081, 98, 740, 605, 2051, -356, 1331, -1919, 1076, -824, 15, 460, 2212, -1465, 1977, -274, -1985, 963, -3915, 1398, 2043, 1003, -474, 724, -298, 48, 1639, -334, 1208, 490, 1040, 259, -309, 984, 724, 432, -617, 266, 1151, -1585, 483, -603, -1282, 952, 1218, 18, -74, -1356, 1037, -285, 92, 285, -290, 187, 748, 153, 419, -418, 171, 324, -803, 552, -187, -382, -2318, -476, -68, 898, 1734, -275, 2025, -1423, 1460, -330, 438, 467, 2126, -1163, 1978, 23, -1819, 589, -2793, 1306, 1920, 887, -507, 742, -756, 264, 1166, 151, 303, 518, 1070, 249, -700, 981, 782, 78, -846, 403, 1154, -1421, 687, -421, -820, 1304, 1477, 584, 170, -927, 604, 52, 151, 195, -1435, 202, 1044, -447, 97, -428, 532, 381, -1189, 689, 64, -988, -2024, -397, -118, 584, 541, -459, 1169, 696, -1817, -347, -259, 1457, 1254, 228, 1684, -214, -729, 1966, 1408, 1213, 314, -159, 460, 960, -360, 94, 297, -565, 1184, -14, 1127, 799, -282, -20, 838, 782, 727, -7, -405, -1352, 52, -570, -226, 762, -1374, -740, 346, -147, 872, -1040, 750, 70, 1479, -24, 740, 271, 1253, 170, -1482, -187, -92, -836, 479, 379, -352, -196, 970, 537, 392, -228, 483, 785, -922, -686, -126, 1424, 1225, 571, 1705, -348, -768, 1837, 1578, 1057, 309, -426, 809, 939, -723, 343, 686, -641, 937, 1, 1103, 713, -1099, -139, 899, 499, 929, 0, -301, -1325, 151, -447, -336, 1162, -1226, -435, 202, -192, 756, -1023, 640, -148, 903, -5, 813, -123, 1007, 137, -1054, -336, -370, -794, 392, -244, -201, -62, 959, 984, 1415, -664, 940, 52, 419, -1338, -957, 225, 1390, -2517, 1112, -963, -1686, -216, -10, 1859, 1409, 2, -51, 1195, 178, 694, 698, 109, -122, -588, -137, 417, 41, 720, 1523, 520, -1192, 205, 388, -605, -894, -194, 145, 1273, 1963, 929, -1320, 31, 646, -358, 481, 435, 720, 1195, 2536, -316, 580, -434, 59, -236, 208, 14, -557, 188, -958, 975, 557, 933, 1559, -340, 1297, -24, 429, -848, -531, 582, 1354, -1653, 1193, -717, -1263, -218, 188, 1510, 1354, -211, 31, 1141, -582, 895, 773, -179, -525, -279, -70, 366, -387, 529, 1415, 687, -1319, 52, 423, -185, -117, -336, -133, 976, 1926, 1060, -982, 15, 692, 124, 551, 429, 715, 1192, 2602, -555, 455, -489, 390, -265, 540, 557, -444, 411, -1016, 1088, 455, -705, 2601, -604, 609, 766, 43, -75, 178, 1232, 1813, 46, -147, 1150, -1184, 1088, 2419, 606, 641, 781, -335, -161, 394, 757, 1021, 582, 415, 421, 143, 984, 1924, -28, -1007, 1040, 199, -90, 1431, -1105, -590, -240, 786, -1308, -467, 23, 828, -348, 1706, 734, 1297, 957, 2469, 1011, 256, -402, 2290, 2294, -2176, 653, 860, -1073, -91, 105, -305, -158, 509, -590, 2594, -418, 87, 1153, 577, 440, 23, 1817, 1781, 307, -125, 1250, -314, 1168, 2732, 748, 655, 450, 456, -73, -346, 689, 1171, 1082, 568, 374, 176, 1007, 1718, 54, -997, 728, -302, -80, 1368, -845, -292, -232, 1040, -972, -300, -427, 995, -399, 1842, 2022, 1376, 957, 2506, 959, 404, 32, 2468, 2314, -1863, 746, 331, -1052, -65, -198, -263, -161, 517, 2035, -1141, 596, 457, -3741, -1768, -2536, -1005, -674, 70, -784, -739, 1631, 91, 832, 910, 983, -3, 946, -2228, 1052, -2597, -593, 1340, -233, -296, 1149, -43, 1746, 503, 521, 428, 195, -2011, -846, -1166, 107, -2305, 1711, -2813, 206, -1482, 521, 1707, 1294, -1808, -151, 46, 1193, -1433, 1063, 588, -2394, -75, -2089, 625, -1236, 753, -1700, 2112, 1995, 2407, -29, 724, 2248, -1573, 350, 581, -3788, -1397, -1025, -1162, -566, 16, -771, -825, 1303, -31, 663, 1048, 1106, 27, 705, -1902, 1151, -1423, -431, 1671, 13, -1372, 1100, -59, 1782, 776, 499, 483, 216, -2396, -376, -1259, 188, -2207, 1439, -2608, 722, -1507, 735, 1647, 1584, -2350, -372, 112, 1178, -1724, 1037, 758, -2926, -452, -1958, 707, -1159, -137, -890, 2203, 2282, 3044, -68, 708, 1515, 729, -3667, 1661, -1182, 958, -968, 449, -2104, -153, -1658, -3369, -796, 702, 884, -168, 235, 177, 761, -1697, -887, -1377, -283, 3159, 746, 455, 126, 698, -98, 466, 1091, 733, -1511, -139, -479, 699, 1260, -313, 983, -219, 1338, -1191, -704, -747, -1968, -2821, -1121, 1888, 1469, -1176, 2376, 2074, -1283, 677, 763, 868, -644, -2487, -143, -317, 44, -1518, -567, -170, 2007, 412, -2059, 1951, -239, 907, -975, 225, -1238, -73, -1484, -3354, -797, 634, 729, 236, 130, 309, 576, -1712, -868, -1071, -152, 3429, 885, 498, 38, 991, -89, 276, 1243, 734, -1531, 58, -375, 642, 1333, -319, 729, -79, 1348, -684, -773, -760, -1700, -2773, -271, 1863, 1340, -1062, 2336, 2046, -1698, 832, 706, 1422, -687, -2871, 337, -310, 319, -1299, -397, -177, 924, 757, 157, 174, -2717, -3342, -2351, -403, -396, 280, -1451, 1188, 1406, 60, -94, 1311, 1001, 674, -708, -1025, 714, -1522, -1598, 2498, -1980, 1434, 294, 1580, 1869, 2030, 533, 963, 99, -432, 9, 399, 1445, -3684, 1165, -3420, 2931, -519, -1347, 1082, -160, -2050, -1892, 433, 1833, -839, 2040, -108, -415, -144, -142, -110, -1280, 271, -1173, 2845, 2417, 1606, 696, 1435, 974, 565, 63, 273, -2633, -2433, -1653, -215, -912, 224, -1041, 1202, 1167, 178, -217, 1889, 763, 645, -1010, -277, 801, -1392, -1470, 2565, -1417, 1448, 329, 1528, 1860, 1971, 448, 881, -60, -694, -131, 433, 1294, -2949, 1692, -3051, 3318, -725, -1106, 951, -53, -2606, -2138, 488, 1828, -1159, 2057, 232, -1494, -167, -163, 195, -1303, -171, -1050, 2853, 2635, 1536, 816, 1359, 800, 64, -4357, 2369, -2556, -6, -1422, 145, -760, 787, -969, -1052, -1600, -735, 2867, -2017, 1793, 1100, -719, -802, -169, 546, -2824, 1988, 1031, 2578, 1013, 1332, -173, 2273, -1153, 600, 255, 1447, 1168, 695, 627, 101, 117, 1346, 2977, 169, -980, 237, -535, -2787, -2111, 1848, -586, 2111, -420, 1898, 374, 1912, -224, 623, 306, -249, 212, -351, -1459, -4380, -358, 298, 950, -143, -3329, 2461, -2207, 335, -927, 270, -947, 752, -815, -918, -1263, -683, 2752, -1641, 1723, 1055, -1224, -497, -87, -295, -2381, 2095, 1062, 2919, 926, 1514, -146, 2230, -1151, 554, 729, 1173, 953, 687, 686, 574, 452, 1639, 3563, 324, -997, 329, -276, -3148, -1248, 1861, -626, 2172, -410, 2094, 462, 1739, -250, 1140, 363, -499, 42, -525, -1304, -3541, -345, 218, 770, 2743, -510, 1793, -740, -4447, -1291, -541, 1426, -222, 303, 2054, -145, -612, 1476, 1582, 1858, 1003, 433, 950, 652, 33, -2732, 3288, -1679, 2294, 1287, 623, 188, 215, 652, 2870, 477, 1646, 734, -1752, 215, -1111, -109, 418, 2092, -81, -1484, 641, -230, 520, -1125, 706, 97, 3077, 985, -666, 787, 1233, -55, -1086, -116, 499, -960, 2064, 1767, 827, -423, 1663, 605, 2517, -280, 1484, -186, -3646, -1090, -262, 1621, -330, 203, 1990, -312, -550, 1266, 1955, 1854, 834, 218, 1670, 535, -352, -2620, 3493, -1856, 1980, 1197, 613, 261, 16, 717, 3181, 522, 823, 212, -1604, 875, -942, 296, 969, 2707, -97, -1539, 634, -112, 331, -803, 703, -10, 3263, 1000, -158, 740, 1034, -118, -1454, -87, 125, -437, 2361, 2122, 1027, -466, 1696, -421, 1673, -1901, 1728, -1668, -774, -2948, -810, 1437, 598, -2747, 669, 1100, -3129, 1230, -777, 1813, -323, 1393, -3197, 1154, 2649, -943, 2350, -262, 2173, 218, -384, 862, -1967, -95, 350, 711, -973, 334, 1294, -395, 337, -1612, 1356, 1214, 401, -50, -966, 690, -18, -1690, 1270, 486, 3997, -459, 3307, 0, 3447, -73, 609, 124, 1758, 54, 336, -1758, -1952, -1205, 656, -345, 1665, -1500, 2116, -1946, -472, -2733, -429, 1932, 478, -1797, 644, 931, -2273, 1076, -634, 1101, -302, 1128, -2067, 1192, 1718, -993, 2466, -384, 1807, 152, -378, 799, -2165, -21, 120, 658, -1097, 175, 1228, -343, 899, -1632, 1505, 1245, 161, -404, -994, 606, -274, -1387, 1254, 590, 4184, -493, 3454, -790, 3568, -62, 1081, 34, 1550, 271, 393, -1858, -1543, -974, 619, 82, 2877, -275, 2829, 550, -613, -1804, 125, 694, 229, 139, 1367, 1197, -917, 471, 2683, -24, 38, 982, 721, 1335, 432, 638, 2574, -2925, 181, 2339, -234, 1001, -962, 266, 1224, 2474, 920, -1567, -1661, -958, -517, -934, 736, -2347, 812, 173, 947, -665, -46, -630, 459, 726, 5006, 61, 2187, -387, 1302, 389, -2064, 1244, 81, -1237, 361, 1053, -1658, -650, 1366, -270, 2934, -447, 3311, 870, -169, -1814, 383, 991, 208, 3, 1426, 1051, -844, 454, 2643, -280, 59, 775, 1200, 1255, 235, 1050, 2572, -2318, -212, 2500, -491, 970, -1236, 112, 1112, 2058, 759, -1989, -1522, -1137, -803, -1042, 780, -1530, 678, 490, 1090, -400, 24, 123, 440, 654, 4793, 77, 2361, -505, 991, 341, -1734, 1230, 193, -1130, 380, 1160, -1119, -551, 1338, -477, 2707, -387, -194, -33, 228, -1160, 470, -37, 853, -2481, -1219, 1723, -2180, 1452, -555, 102, 1175, 421, -1225, 578, 2023, 1449, 180, 944, 1945, 772, -319, 254, -533, 543, -1411, 957, -1508, 508, 623, 1019, 571, -1183, 762, -1766, 2660, 1871, -1684, 457, 831, 63, -634, 136, 4399, 525, 1202, -492, 2112, -446, -386, 414, 2213, -1959, 4, 71, 787, -459, -628, -625, 2957, -407, 667, -270, 130, -944, 583, 684, 1042, -1575, -1089, 1646, -2600, 1419, -686, 239, 1217, 476, -341, 625, 1795, 1371, 150, 651, 1776, 887, -153, 241, -626, 414, -1859, 888, -2348, 340, 756, 966, 591, -1643, 741, -2050, 2280, 1644, -1420, 345, 896, 942, -634, 230, 4171, 580, 1052, -931, 2195, -315, 465, 429, 1853, -994, -24, 224, 455, -255, -721, 864, -798, -4987, 3426, -155, 1810, -822, 2401, -2012, -4178, 1115, 297, 1443, -276, -672, -2056, -8, -434, 2387, -5148, -140, -206, -795, 1564, -333, 415, -817, -2759, 2313, 718, -635, -156, 955, -404, -806, 12, -469, 947, 1669, -582, 529, -85, 99, -114, -534, -1253, -1045, 858, 297, -3428, 1055, 321, -2119, 1376, -66, -1981, 1583, -2985, -1887, -1098, 1225, 5003, 780, 51, 1029, -960, -4508, 3177, 64, 1548, 324, 2475, -2222, -4150, 1132, 210, 1554, -598, -738, -1364, 54, -362, 2259, -5047, -86, -589, -790, 1358, 350, 439, -1125, -2997, 2322, 540, -425, -140, 913, -280, -399, -11, -446, 1979, 1567, -604, 690, 12, -484, -117, -409, -1217, 40, 999, 192, -2746, 1012, 457, -1516, 1472, 69, -1293, 1612, -2211, -1216, -1478, 760, 5855, 757, 112, 614, 808, -1155, -1182, -7082, -4793, -897, -436, -2145, 1694, -751, 1114, 1588, -2912, 3339, -739, 1167, 563, 1590, -4735, 840, -4413, -5236, 2527, -2854, 632, -335, -2594, 2049, -1144, 188, -301, -624, -4617, -5524, 121, 655, -1848, 1550, -2423, 332, -3189, -845, -714, -567, 332, -1430, 389, 2151, -5224, 1719, 1568, -3303, -2546, -896, -502, -113, 1668, -3953, 1478, 1272, 5004, 1129, 1156, 661, 628, -689, -643, -7422, -4317, -355, -334, -2579, 1672, -373, 1137, 1910, -3220, 3238, -464, 1219, 779, 1451, -4180, 935, -2844, -5345, 2493, -2244, 91, -366, -2804, 2065, -1822, 249, -334, -722, -4024, -5625, 74, 500, -1213, 1931, -2456, 1122, -3070, -670, -779, -371, -70, -331, 372, 2071, -5387, 1632, 1639, -3108, -2472, -1045, -392, -187, 1348, -3665, 1407, 1906, 5021, 1076, 1091, 2295, 1816, -4202, 1220, -5481, -1097, -1002, 879, -4175, -2708, -247, -4068, -229, -2776, 3659, -1226, 2447, 1507, 789, -5654, 1546, -1989, -9331, 1016, -3447, 311, -649, -691, 1241, 291, -462, 39, 245, -2439, -1119, 474, 1227, 134, 1269, 243, 965, 209, -2145, -1634, -892, -8229, -1969, 921, 1848, -2469, 688, 834, -2424, -312, 660, 263, -913, 810, -2235, -990, -790, 5035, 915, 1410, 2107, 1562, -4525, 997, -5257, -836, -594, 925, -4100, -2760, 91, -3994, -460, -2915, 3526, -1667, 2371, 1582, 595, -6202, 1485, -1793, -9029, 1107, -2915, 614, -680, -520, 1263, -9, -428, 164, 239, -2586, -1368, 528, 1343, 591, 1237, 470, 950, 690, -1941, -1579, -804, -8079, -1552, 887, 1664, -1722, 579, 838, -2470, -27, 496, 886, -1166, 521, -1892, -996, -697, 5022, 687, 1343, 2918, 2017, -679, 3873, -6475, -5066, -2053, 286, -911, -249, 1076, -2152, -146, -3725, 700, -2008, 2725, 1326, 2249, -1679, 271, -2499, -4219, 2847, -1503, -278, -1989, 567, 655, -1262, -740, 1508, -59, -3616, -1118, -509, 1185, -4206, 1119, -3145, 3304, -1133, -2561, -1179, -3978, -2293, 44, 521, 3357, 876, -46, 774, -1568, 762, -71, -1596, 935, 637, -2378, 2573, 1717, 4391, -90, 1740, 2978, 1974, -344, 4213, -6030, -5322, -2196, 427, -1020, -152, 981, -2025, -462, -3871, 662, -1771, 2894, 1387, 2185, -748, 237, -2898, -4309, 2977, -1198, -242, -2097, 567, 613, -1590, -657, 1437, -247, -3630, -2123, -458, 1255, -4594, 798, -3166, 3712, -1170, -2115, -857, -4102, -2867, -200, 514, 3198, 1258, -167, 657, -1710, 550, -190, -1486, 882, 364, -2213, 2648, 2044, 4441, -80, 1729, 1744, 3004, -2210, 3555, -4943, -249, -3001, 155, -4460, -815, -2376, -64, -1677, -3075, 2470, -845, 2812, -1560, 780, -2914, 1058, -32, -7769, 2053, -2542, 2083, -658, -1158, 1060, -1390, -246, 567, -1389, -2730, -532, -1290, 1621, 713, -371, 1199, 2707, 1109, -3295, -4882, -3014, -1464, 1682, 1034, 1648, 3789, -358, 3118, 490, 2958, -392, 744, 271, 2338, -3495, 1597, -2542, 461, -248, -699, 1395, 3275, -1780, 3968, -4899, 350, -3823, 61, -4587, -860, -2454, 105, -1103, -2973, 2455, -702, 2759, -1447, 737, -2312, 935, 45, -7426, 2172, -2004, 1997, -684, -1244, 1036, -1747, -56, 684, -1813, -3797, -536, -1099, 1618, 1324, -71, 1288, 2864, 1111, -3373, -4355, -3213, -1759, 1778, 1007, 1478, 3937, -368, 2826, 231, 2835, -440, 1100, 194, 2022, -3670, 1549, -2752, 822, -427, -666, -2120, 2088, -1211, 1617, -5489, -4389, -2337, 562, -2379, 1353, 802, -2957, -996, -2953, 3871, -1335, 2603, 202, 1365, 543, 631, 749, -6641, 2642, -4546, 1009, -958, -1779, 1494, -2664, -531, 2602, 320, -1533, -170, -238, 1097, -565, -788, -591, 2256, 2374, -1000, -234, -2414, 1729, 644, 1586, 1241, 4829, -520, 1749, 732, -950, 85, -1492, 913, 1811, -1640, 2598, -337, 3422, -2289, 1246, -2188, 2240, -1287, 2169, -5550, -4829, -2216, 338, -2381, 1335, 1204, -2832, -903, -2386, 4065, -582, 2115, 274, 1528, 498, 550, 664, -6340, 3000, -4186, 440, -836, -1845, 1462, -3336, -512, 2514, 165, -1865, -689, -125, 1291, -978, -1324, -572, 2477, 2172, -1145, -373, -2527, 1927, 217, 1488, 1064, 4808, -592, 1638, 1062, -1270, 41, -1414, 819, 1292, -2282, 2493, -282, 3222, -2248, 1271, -1641, 2362, -1305, 1425, -6133, -1938, -989, -295, -2321, -579, -2652, -3717, -404, -2730, 1357, -2148, 1994, 338, 1769, -5224, 2387, 1666, -4488, 951, -1204, 1192, -849, -1314, 1885, -4338, -604, 711, 379, -4055, -839, 174, 1887, 5590, -2293, 665, 1046, 2191, 743, -3730, 780, 1550, 3542, 1065, 1663, 5788, -627, 1509, -690, 1312, 1024, 1344, 931, 2416, -5081, 2803, -1714, 421, 964, 593, -2225, 2480, -1165, 556, -6240, -1441, -395, -374, -2508, -539, -2707, -3932, -760, -2584, 1258, -2510, 1868, 537, 1823, -5387, 2330, 1007, -4369, 884, -572, 355, -1010, -1396, 1849, -4060, -374, 807, 361, -3761, -950, 227, 1873, 5898, -2423, 917, 1341, 2261, 1293, -3114, 383, 1331, 3914, 1049, 1542, 5898, -692, 1387, -409, 1179, 951, 1435, 982, 2490, -4901, 2989, -1220, 1382, 840, 675, -1152, 2422, -136, -1372, 650, 816, -238, -408, -246, -470, -400, -894, 181, -1693, 2049, 1030, -2213, 1654, -1253, 2141, -333, 425, 2755, 2782, -1864, 2973, 1911, -2938, -95, -887, -368, -582, 2732, -91, 645, -610, -2114, 1051, -918, 67, -2624, 451, 1765, 238, -2305, 1411, 1245, -1408, -1541, 5454, 484, 161, 136, 8, 779, -1627, 490, -134, -1396, 1492, 117, 3093, -1852, 2361, -1203, 2484, -311, -1925, 1101, 561, 79, -323, 586, -357, -498, -718, -161, -1505, 1957, 1725, -1972, 1722, -1287, 1771, -166, 395, 2936, 2412, -1019, 2460, 1845, -3070, -194, -660, -439, -808, 3015, 38, 1033, -705, -2008, 1050, -965, 346, -563, 381, 1449, 449, -1952, 1560, 518, -1297, -1565, 5097, 516, 438, 296, 294, 737, -2207, 648, 479, -1468, 1501, -563, 3177, -1621, 2370, -1742, -647, -1462, 1344, -635, -1777, -2007, -233, 1133, 1482, -1819, -752, -102, 730, 128, 366, -35, 683, -1160, -1319, 198, -93, -1365, 942, 1161, 1716, -784, -1098, -1192, 547, -889, 107, -141, 2368, 610, 531, 431, -391, 678, -246, -2262, 405, 418, -1244, 135, 222, -1532, 632, 1717, -1134, -492, 623, 88, 832, -356, -580, 1186, 719, 842, -978, -189, -351, 841, 333, -1742, -647, -1462, 1344, -635, -1777, -2007, -233, 1133, 1482, -1819, -752, -102, 730, 128, 366, -35, 683, -1160, -1319, 198, -93, -1365, 942, 1161, 1716, -784, -1098, -1192, 547, -889, 107, -141, 2368, 610, 531, 431, -391, 678, -246, -2262, 405, 418, -1244, 135, 222, -1532, 632, 1717, -1134, -492, 623, 88, 832, -356, -580, 1186, 719, 842, -978, -189, -351, 841, 333, 771, -1094, 500, -1428, -695, -1999, 633, -918, 102, 791, 978, 175, 10, -211, -276, -1317, 2108, 360, -1101, 782, 1355, 1339, -191, -445, -399, 431, 1153, -1766, -308, -2298, 532, 758, -1118, -420, 1055, -1242, -1483, -656, -546, -478, 804, -940, 867, 231, -2273, 1087, -375, 441, 910, -2424, 1488, 896, -277, -554, 1914, -1477, 1684, 12, -279, 198, 1193, 1041, -262, 388, 771, -1094, 500, -1428, -695, -1999, 633, -918, 102, 791, 978, 175, 10, -211, -276, -1317, 2108, 360, -1101, 782, 1355, 1339, -191, -445, -399, 431, 1153, -1766, -308, -2298, 532, 758, -1118, -420, 1055, -1242, -1483, -656, -546, -478, 804, -940, 867, 231, -2273, 1087, -375, 441, 910, -2424, 1488, 896, -277, -554, 1914, -1477, 1684, 12, -279, 198, 1193, 1041, -262, 388, 1494, 1539, 525, 865, -283, -6, -964, -341, -67, -1345, 1232, 465, -480, -1315, 859, 929, 347, -869, -1090, 1126, 578, -1197, 51, 71, -137, -1660, 1120, -1044, -1172, 826, -155, -1438, 927, -1202, 735, -891, -1800, 55, 136, -914, -60, 1596, 245, 447, -752, 188, -321, -1997, -1575, 1233, 1904, -813, -463, -795, -1229, 142, 445, 1717, 398, 174, 880, -1688, 543, 1377, 1494, 1539, 525, 865, -283, -6, -964, -341, -67, -1345, 1232, 465, -480, -1315, 859, 929, 347, -869, -1090, 1126, 578, -1197, 51, 71, -137, -1660, 1120, -1044, -1172, 826, -155, -1438, 927, -1202, 735, -891, -1800, 55, 136, -914, -60, 1596, 245, 447, -752, 188, -321, -1997, -1575, 1233, 1904, -813, -463, -795, -1229, 142, 445, 1717, 398, 174, 880, -1688, 543, 1377, -445, -1069, -2026, -318, -73, -1027, -438, 1860, 10, 1322, -991, -1226, 1164, 703, 875, -1005, 1243, 1088, -411, 524, 337, 1150, 1859, 388, 340, -1011, 944, -680, -661, -474, 979, 1614, -2350, 1592, 1301, -275, 561, 591, -1114, -244, -931, -310, 278, 721, -389, -2181, 645, 1591, -875, -45, 2147, 710, -867, -432, -1165, -606, 856, -817, -727, -1216, 307, 326, 111, 258, -445, -1069, -2026, -318, -73, -1027, -438, 1860, 10, 1322, -991, -1226, 1164, 703, 875, -1005, 1243, 1088, -411, 524, 337, 1150, 1859, 388, 340, -1011, 944, -680, -661, -474, 979, 1614, -2350, 1592, 1301, -275, 561, 591, -1114, -244, -931, -310, 278, 721, -389, -2181, 645, 1591, -875, -45, 2147, 710, -867, -432, -1165, -606, 856, -817, -727, -1216, 307, 326, 111, 258, 1844, -53, -128, 155, 41, -188, 227, 2311, -641, -1131, -1334, -731, 331, -1899, 452, 347, -317, 25, 911, 630, -837, -294, 459, 88, -688, -527, -1594, 1504, -855, 1903, -631, 3120, -1129, 494, 60, 1488, 428, -376, -1512, -138, -406, 560, -358, -279, -265, -322, 1231, -130, 1419, 1617, -164, 1562, -1107, -520, 340, 1646, 1276, 1401, 815, -1775, 347, -1147, -363, -1296, 1844, -53, -128, 155, 41, -188, 227, 2311, -641, -1131, -1334, -731, 331, -1899, 452, 347, -317, 25, 911, 630, -837, -294, 459, 88, -688, -527, -1594, 1504, -855, 1903, -631, 3120, -1129, 494, 60, 1488, 428, -376, -1512, -138, -406, 560, -358, -279, -265, -322, 1231, -130, 1419, 1617, -164, 1562, -1107, -520, 340, 1646, 1276, 1401, 815, -1775, 347, -1147, -363, -1296, -1422, 1004, -652, 1079, 184, 345, -1433, -558, -1648, 26, 1974, 947, -181, 188, 1140, -1161, -609, -847, 609, 666, -376, -540, -464, 2403, -554, -1363, -27, 1460, 754, -527, -631, 1437, 834, 543, -4192, -642, -1741, -398, 21, -245, -2258, -788, 826, 221, 1084, 1475, 488, -739, 258, 271, -46, -45, 1534, -619, -774, -926, -127, -221, -371, 568, 56, -2150, 550, -1164, -1422, 1004, -652, 1079, 184, 345, -1433, -558, -1648, 26, 1974, 947, -181, 188, 1140, -1161, -609, -847, 609, 666, -376, -540, -464, 2403, -554, -1363, -27, 1460, 754, -527, -631, 1437, 834, 543, -4192, -642, -1741, -398, 21, -245, -2258, -788, 826, 221, 1084, 1475, 488, -739, 258, 271, -46, -45, 1534, -619, -774, -926, -127, -221, -371, 568, 56, -2150, 550, -1164, -295, 34, -1229, -81, 48, -1462, -35, -503, -1429, 1007, 189, 1829, -1377, 363, 187, -1506, -385, 404, -1114, 1087, 984, -957, -1116, 153, 2070, 95, 1722, 1327, -605, 1989, 1241, -1130, -1502, 374, 526, 1886, 652, 26, -1312, -2129, -170, 1156, 1388, -381, -314, 509, 94, -1207, -2843, 231, -2040, 1738, -2067, 816, -795, -304, 1123, -263, -350, 1527, 94, -225, 1618, -1149, -295, 34, -1229, -81, 48, -1462, -35, -503, -1429, 1007, 189, 1829, -1377, 363, 187, -1506, -385, 404, -1114, 1087, 984, -957, -1116, 153, 2070, 95, 1722, 1327, -605, 1989, 1241, -1130, -1502, 374, 526, 1886, 652, 26, -1312, -2129, -170, 1156, 1388, -381, -314, 509, 94, -1207, -2843, 231, -2040, 1738, -2067, 816, -795, -304, 1123, -263, -350, 1527, 94, -225, 1618, -1149, -488, -535, 1043, -332, -939, -835, 478, -376, -811, -82, -1252, -502, -1465, -188, -500, 33, 1514, 579, 522, -1, -1872, -1812, -517, 1613, 290, 674, 1058, 1287, -769, 414, -1124, -1571, -1128, 302, 429, 1276, 449, 1192, 535, 220, -2227, -896, -1789, 836, -235, -1041, 1324, -1966, -1349, 1484, -469, 2686, -619, 216, -615, -628, -808, 42, -205, -561, -72, -756, -634, 258, -488, -535, 1043, -332, -939, -835, 478, -376, -811, -82, -1252, -502, -1465, -188, -500, 33, 1514, 579, 522, -1, -1872, -1812, -517, 1613, 290, 674, 1058, 1287, -769, 414, -1124, -1571, -1128, 302, 429, 1276, 449, 1192, 535, 220, -2227, -896, -1789, 836, -235, -1041, 1324, -1966, -1349, 1484, -469, 2686, -619, 216, -615, -628, -808, 42, -205, -561, -72, -756, -634, 258, 1053, -1957, 172, 1306, -281, -281, 850, 1521, 1271, 183, -1037, 1893, -775, -229, -337, -257, 1167, 324, -1227, -214, -378, -384, 369, 395, 1087, 1690, 901, 395, 2386, 560, 93, -1468, 710, 1033, -520, -101, 1535, -957, -646, -145, 1706, -651, 513, -508, -559, -746, -772, 1712, -1997, 642, -531, -1770, 614, -471, -1211, -148, -358, -482, -980, 1117, 1027, -65, 246, -854, 1053, -1957, 172, 1306, -281, -281, 850, 1521, 1271, 183, -1037, 1893, -775, -229, -337, -257, 1167, 324, -1227, -214, -378, -384, 369, 395, 1087, 1690, 901, 395, 2386, 560, 93, -1468, 710, 1033, -520, -101, 1535, -957, -646, -145, 1706, -651, 513, -508, -559, -746, -772, 1712, -1997, 642, -531, -1770, 614, -471, -1211, -148, -358, -482, -980, 1117, 1027, -65, 246, -854, 252, -582, -1107, -1645, 539, 1599, 1885, -407, 660, -648, 40, 317, 3020, -206, 194, -902, 1171, 113, 651, 357, 768, 482, 152, 826, 738, -117, -3157, -287, 333, 1003, 1324, -1824, -1275, 777, 1751, 681, 1423, -144, 191, -435, 1045, 397, 966, 724, 1870, -955, -518, -1329, -297, -896, 2964, -909, -1883, -697, -1209, 252, -645, -1184, -664, -942, -1212, -1609, 389, 1128, 252, -582, -1107, -1645, 539, 1599, 1885, -407, 660, -648, 40, 317, 3020, -206, 194, -902, 1171, 113, 651, 357, 768, 482, 152, 826, 738, -117, -3157, -287, 333, 1003, 1324, -1824, -1275, 777, 1751, 681, 1423, -144, 191, -435, 1045, 397, 966, 724, 1870, -955, -518, -1329, -297, -896, 2964, -909, -1883, -697, -1209, 252, -645, -1184, -664, -942, -1212, -1609, 389, 1128, -541, -702, -833, 516, 1230, 81, 1380, -478, 48, 345, 99, 1040, -1360, -1157, 238, -751, -1405, -581, 776, -997, 1177, -226, 304, -287, 838, -38, 1736, 105, 226, 1004, -541, 307, 82, -308, -387, -116, -499, -658, -1047, -771, 463, 1171, 447, 177, 1142, 331, 44, 342, 877, -248, -1264, 2164, -18, -648, 348, -935, 873, -399, -1045, -1386, 382, 312, 451, 336, -541, -702, -833, 516, 1230, 81, 1380, -478, 48, 345, 99, 1040, -1360, -1157, 238, -751, -1405, -581, 776, -997, 1177, -226, 304, -287, 838, -38, 1736, 105, 226, 1004, -541, 307, 82, -308, -387, -116, -499, -658, -1047, -771, 463, 1171, 447, 177, 1142, 331, 44, 342, 877, -248, -1264, 2164, -18, -648, 348, -935, 873, -399, -1045, -1386, 382, 312, 451, 336, 262, 90, 292, -1062, -669, -423, 520, -424, -732, 371, 39, -1149, 36, 284, -565, -1107, 434, -1151, -1703, -1241, 1811, 168, 306, -146, 1972, -1012, -128, 1415, -1006, -1778, -1100, 615, -1472, 455, 1260, 60, 165, -470, -688, 761, -1010, -28, -362, -899, 1397, -696, 333, 1047, 102, 1878, -1159, 390, 472, -215, 639, -545, 60, 785, 225, 799, -698, -618, 1546, 1160, 262, 90, 292, -1062, -669, -423, 520, -424, -732, 371, 39, -1149, 36, 284, -565, -1107, 434, -1151, -1703, -1241, 1811, 168, 306, -146, 1972, -1012, -128, 1415, -1006, -1778, -1100, 615, -1472, 455, 1260, 60, 165, -470, -688, 761, -1010, -28, -362, -899, 1397, -696, 333, 1047, 102, 1878, -1159, 390, 472, -215, 639, -545, 60, 785, 225, 799, -698, -618, 1546, 1160, -289, -955, 1185, -187, 788, -177, 878, -1758, -198, -659, -291, 528, -789, 46, 1188, -569, -1144, -82, -1747, 412, -875, 1371, 76, -1297, 1467, -658, 734, 2012, 810, 1482, 687, -895, 46, 294, 176, 356, 1613, 577, -607, 1804, -375, -223, 135, -696, -455, 730, 900, -2053, -1290, 11, 1418, -2132, 1099, 140, -2098, 1458, 684, -1496, 1265, -1251, 782, 1058, -567, -556, -289, -955, 1185, -187, 788, -177, 878, -1758, -198, -659, -291, 528, -789, 46, 1188, -569, -1144, -82, -1747, 412, -875, 1371, 76, -1297, 1467, -658, 734, 2012, 810, 1482, 687, -895, 46, 294, 176, 356, 1613, 577, -607, 1804, -375, -223, 135, -696, -455, 730, 900, -2053, -1290, 11, 1418, -2132, 1099, 140, -2098, 1458, 684, -1496, 1265, -1251, 782, 1058, -567, -556, -1205, 1370, 321, -1436, 1488, 893, -7, -918, 433, 387, -1439, 998, -153, -1501, -252, -1253, 1122, -1291, -264, -863, 2446, 904, -2216, 208, 112, 592, 117, 618, -96, 18, -773, 298, -608, 498, 2315, -701, -1166, -719, 202, 461, -485, 1675, 922, -1890, 1016, 916, -1438, 1392, 618, -497, 821, 827, 369, -123, -298, -767, -701, 1747, -691, 236, 418, 322, -1106, -223, -1205, 1370, 321, -1436, 1488, 893, -7, -918, 433, 387, -1439, 998, -153, -1501, -252, -1253, 1122, -1291, -264, -863, 2446, 904, -2216, 208, 112, 592, 117, 618, -96, 18, -773, 298, -608, 498, 2315, -701, -1166, -719, 202, 461, -485, 1675, 922, -1890, 1016, 916, -1438, 1392, 618, -497, 821, 827, 369, -123, -298, -767, -701, 1747, -691, 236, 418, 322, -1106, -223, 646, 267, -160, 1045, 893, -288, 172, -725, -958, 788, -612, 376, -394, -1322, -595, -1525, 133, -209, -302, -253, -1127, -71, -1249, 474, 541, -2213, 1322, -473, 966, 631, -1770, -482, 1597, 869, -237, 148, -2490, -1441, 759, 323, -317, 1214, -435, 711, 645, -1371, 92, -560, 263, -52, -956, -38, -580, -1169, -421, 310, 152, -907, 798, -2284, -525, 887, -142, 301, 646, 267, -160, 1045, 893, -288, 172, -725, -958, 788, -612, 376, -394, -1322, -595, -1525, 133, -209, -302, -253, -1127, -71, -1249, 474, 541, -2213, 1322, -473, 966, 631, -1770, -482, 1597, 869, -237, 148, -2490, -1441, 759, 323, -317, 1214, -435, 711, 645, -1371, 92, -560, 263, -52, -956, -38, -580, -1169, -421, 310, 152, -907, 798, -2284, -525, 887, -142, 301, 128, -593, -1265, -1556, -759, -569, -1220, -946, 155, -578, 158, -1906, 1165, 591, -783, -1477, -1670, 596, -341, 1094, 68, -1279, -592, 1249, -590, -1045, 244, 535, 2234, -1345, -1895, -1209, -22, -1468, 310, 729, 782, -772, 400, -347, -413, -411, -3233, -502, 150, -2441, -1177, 377, -760, -1797, 972, -795, 543, 339, 569, 239, -11, -653, 232, 655, 448, 182, 174, -1538, 128, -593, -1265, -1556, -759, -569, -1220, -946, 155, -578, 158, -1906, 1165, 591, -783, -1477, -1670, 596, -341, 1094, 68, -1279, -592, 1249, -590, -1045, 244, 535, 2234, -1345, -1895, -1209, -22, -1468, 310, 729, 782, -772, 400, -347, -413, -411, -3233, -502, 150, -2441, -1177, 377, -760, -1797, 972, -795, 543, 339, 569, 239, -11, -653, 232, 655, 448, 182, 174, -1538, -2074, -568, -456, -1078, 2451, -1748, -92, -3914, -4894, -1926, -205, -1227, 2134, -676, -937, 410, 2167, 221, 493, -788, 1487, -1243, -1204, -28, 1821, -2212, 871, 1300, 1481, -1130, 1434, -1358, 200, 2117, -501, 2371, -1691, -3579, -263, -48, 227, -425, 278, 1005, 2058, -6638, 1857, -2110, 741, -1402, 784, 641, 1835, 100, -481, -2897, 1869, -1413, 742, 1458, 1977, 430, 1037, 667, -2745, -469, -399, -1055, 2313, -1632, 177, -3284, -4788, -1951, 123, -1318, 1091, -459, -821, 59, 1725, 148, 431, -1194, 1452, -92, -1460, 19, 1561, -2689, 880, 1203, 1500, -1467, 1423, -1590, -290, 1896, -1263, 2378, -1416, -3077, -668, -73, -101, -600, 1298, 854, 2047, -5701, 1625, -2162, 580, -1488, 708, 663, 1343, -153, -540, -3165, 1613, -1675, 563, 1542, 1983, 1, 927, 642, -3569, -2029, 417, -190, 2483, 1803, 2270, -927, -3080, 694, -2152, -553, 35, -1073, -1530, -2950, 237, -1373, 976, 65, 1376, 2209, 163, 117, 18, -2155, 558, -832, -1868, 940, -90, -1348, -1086, 3012, -4133, 1026, 92, 6670, -418, 1628, 176, -2366, -1639, 1010, 3409, -2958, -710, -979, -318, 292, 1199, -2440, -765, -677, -53, -535, 414, -1727, 413, 580, 4121, 159, 1412, -1133, -4186, -2007, 76, -205, 2229, 1786, 2046, -1616, -3741, 594, -2717, -516, 111, -914, -1410, -4061, 284, -1162, 960, -108, 1259, 1351, 309, 325, -625, -2711, 555, -1240, -1985, 906, -71, -1412, -2107, 2515, -4570, 943, 283, 6354, -518, 1575, 64, -2718, -973, 768, 3426, -2473, -605, -867, -472, 356, 1132, -2186, -915, -1000, -147, -641, 288, -1555, 989, 394, 4193, -1457, 1200, -1016, -2426, -3031, 1275, -2993, 897, 2438, -525, 800, -640, 1271, -1068, 269, 2172, -156, -2235, -650, 788, 265, 1164, 83, 1700, -1317, 952, -642, -54, -3327, -1340, -2713, -1400, -2439, 879, 243, -222, 1432, -296, 1340, 303, 3162, 424, 763, 1110, -2567, 2126, 372, 2333, -4581, -470, -2146, -391, 1046, 278, -98, 2513, 1026, -2840, -3959, -241, -1015, 58, 94, 2751, 891, 890, 988, -2932, -3060, 1014, -3267, 659, 2434, -114, -71, -383, 1280, -961, 408, 1988, 501, -2066, -597, 728, 49, 1089, -195, 1710, -2149, 869, -643, -266, -3667, -1324, -2815, -1403, -2209, 925, 339, -909, 1608, -395, 1321, 401, 2745, 129, 490, 534, -2809, 2224, 523, 2333, -4537, -971, -2303, -519, 1117, 254, 236, 2243, 910, -3045, -3806, -271, -745, 296, -319, 2444, 458, 938, 1002, -1963, -1567, 592, -1481, 975, 1890, 1352, 1278, 1917, 3542, -1738, 593, 1964, 720, -1616, -1864, 1814, -1193, -1014, 706, 588, 1630, 1383, 772, -1477, -3611, -1265, -790, -1400, -838, 345, -716, -794, 2089, -3644, 2598, 448, 6969, 565, 2091, -459, -4108, 1427, -1294, 2517, -1780, 294, 348, 1387, -1202, 1148, -1263, 120, 764, 404, 268, 1469, -1430, -278, -226, 1802, 949, 224, -297, -2273, -1529, 435, -1596, 778, 1493, 1439, 1394, 2259, 3498, -1334, 541, 1919, 672, -1633, -2834, 1564, -1256, -770, 859, 608, 1930, 1243, 702, -1535, -3579, -1207, -950, -1383, -1178, 240, -689, -1329, 1963, -4142, 2634, 533, 6469, 306, 2121, -1000, -3874, 1242, -1246, 2574, -2239, 458, 260, 1312, -923, 1157, -1194, -923, 893, 562, 320, 1192, -1429, 145, -349, 1925, 68, 148, -282, -2669, -3594, 648, -3338, 2299, 625, 382, -1957, 3148, 1481, -790, 566, 2454, 2250, -2515, -55, 1744, 1143, 644, -1007, 126, -1122, 3085, 820, -1138, -4212, -1569, -3008, -1234, -700, 893, 471, 653, 3029, -711, -214, 804, 4503, 964, 1753, 1451, -259, 2814, 575, 1975, -3908, -877, -398, -2734, 1622, 950, -1819, 2178, 1291, -2258, -2792, 68, -1617, -494, 1703, 1968, 503, 397, -735, -2922, -3425, 509, -3620, 2243, 469, 266, -1566, 3185, 1518, -164, 658, 2270, 2364, -2495, -217, 2739, 1308, 459, -919, 210, -1079, 2881, 779, -1121, -3874, -1581, -3353, -1309, -1458, 826, 399, 711, 2443, -952, 72, 601, 4025, 543, 1897, 1837, -231, 2806, 674, 1995, -3401, -1411, -515, -2603, 1564, 1022, -1893, 2103, 1551, -2292, -2272, 147, -1153, -832, 1846, 1593, 420, 406, -734, -1257, -1397, -1006, -1225, 50, 448, 794, -2482, 3486, 2862, -741, -261, -56, 516, -1875, -318, -2121, -656, -1277, -395, 1523, 2959, 1071, 462, -3485, -4810, 241, -952, -2008, -2763, 1839, -396, -1341, 3453, 1369, -1268, 946, 3641, -448, 1314, -658, 840, 2890, -341, 612, -1710, -1955, 570, 892, 626, 457, -953, -426, 1051, -393, 2735, -689, -2913, 647, -384, 2259, 1231, -1244, -508, -1897, -1415, -714, -1521, -934, 951, 1230, -1939, 3657, 2765, -204, -318, 119, 573, -2137, -172, -2212, -921, -1080, -487, 1525, 2734, 1294, 272, -3024, -4548, 32, -1060, -1965, -2714, 1774, -266, -2127, 3056, 916, -1094, 939, 2320, -771, 1184, -190, 972, 2736, -191, 393, -2000, -1654, 409, 786, 616, 550, -896, -467, 1072, -179, 2556, -673, -2107, 640, -463, 2137, 769, -1137, -492, -1395, -746, 693, -1124, -1476, 565, -679, -2424, 4386, 1402, -182, 516, 3, 1832, -2193, 562, 330, 873, 965, -2843, 728, -1348, 2368, 1571, 182, -5528, 1049, -4018, 285, -2269, 481, -1626, 2267, 4219, -3015, -745, -1402, 7710, -1139, 1896, -1142, 2399, 3027, -654, -807, -7506, -1089, 244, -1648, 2945, 448, -2601, 2199, 485, -2323, -580, 298, -4974, -2939, 315, 2577, 1818, 548, -1220, -1876, -1076, 557, -1742, -1288, 532, -285, -2170, 4385, 1431, -234, 399, -717, 1600, -2304, 862, 722, 780, 1016, -1525, 723, -2184, 2441, 1414, 156, -5408, 627, -4385, 259, -2275, 564, -1492, 2406, 3863, -3355, -769, -1421, 7217, -1287, 1902, -427, 2319, 2893, -667, 167, -7044, -1537, 131, -1803, 2801, 575, -2767, 1879, 422, -1784, -645, 506, -4555, -1690, 206, 2136, 2033, 572, -1161, -3329, -1238, -2413, -1674, 37, 338, 384, -1247, 4386, -65, 303, -87, -918, -681, -598, -425, 97, 1028, -603, 132, 2703, 1329, -1678, -2526, -2630, -920, -388, 540, -291, 119, 134, -116, -115, 1157, 3008, 965, -963, 1459, 92, 2056, -1509, 595, 1558, 1379, 205, -237, -547, 314, 776, 1290, 905, 368, -1710, 110, 61, 3310, 1941, -632, -3973, 57, -1781, 1183, 2226, -789, -3659, -1249, -1540, -1671, -80, 1049, 947, -1174, 4189, -216, -251, -110, -1092, -614, -462, -122, -9, 794, -412, 788, 2706, 860, -1619, -2929, -2323, -2536, -307, 458, -330, -252, -9, 70, -289, 1276, 2762, 922, -453, 1493, 444, 2205, -572, 434, 1723, 1416, 286, -21, -461, 193, 755, 1151, 872, 596, -2792, -106, -78, 3464, 1926, -1391, -3966, 197, -2247, -214, 2179, -846, -737, 589, 10, 326, 3294, 877, 1377, -2110, -7023, -1079, -1118, -656, 1357, -1664, 510, -2535, 543, -1321, -166, -146, 240, 1760, -1252, -333, 707, -498, -1234, -510, 269, 1770, 1674, -1024, -354, 1304, -4372, 2527, 448, 3737, -752, 1314, 173, 98, -798, 2009, 2176, -2052, -238, -931, 921, -248, 1914, -1930, -821, 78, 2061, -189, 125, -681, -180, 188, 1188, -275, -806, 340, -1017, 617, 271, 698, 3341, 1214, 1602, -2208, -7288, -1186, -866, -694, 1224, -666, 462, -2632, 128, -1470, -248, -577, 192, 1082, -692, -493, 534, -1003, -1110, -418, 161, 1754, 1713, -1359, -278, 1207, -4459, 2536, 603, 3445, -972, 1250, -261, 63, -1374, 2007, 2149, -2261, -376, -1002, 919, -951, 1997, -1729, -492, -125, 2163, -102, 199, -264, -421, 35, 712, -519, -605, 355, -838, -2369, 389, -1501, 2679, -233, 688, 689, -2108, 1640, -91, 171, 857, -858, -822, -1280, 814, -226, 1096, -417, 156, -989, 99, -508, 1271, 600, -692, -985, -595, -1800, 342, -2401, -1445, -509, 409, 1145, 1115, -1965, -1129, -496, 1367, -538, 322, 331, 484, -795, -340, -825, 3155, -800, 1227, 1075, 2100, -980, -922, -1718, 1057, -875, 1175, 989, 785, 1696, 1503, -211, -798, -2538, 596, -745, 3097, 22, 846, 426, -1918, 1607, -385, 103, 819, -385, -1064, -901, 577, -356, 575, -127, 302, -705, 251, -610, 1577, 1055, -898, -865, -558, -2124, 264, -2631, -1718, -357, 483, 1181, 913, -2091, -836, -609, 1388, -264, 554, 330, 315, -2234, -414, -835, 3181, -1151, 1295, 1220, 1686, -818, -934, -2405, 954, -1079, 1381, 1165, 328, 1604, 1489, -175, 0, -682, 388, -1139, 2204, 1362, 1020, 1694, -3230, 1050, -625, 211, 962, -504, -1742, -1254, -149, -700, -629, 568, 357, 1789, -111, -1420, 140, -78, -1816, -1279, 903, 1194, 1105, -1751, -787, 70, -2706, 2087, 2020, 4874, -872, -72, 232, -2333, 1744, 1336, 477, -1263, -341, 1537, 651, 4, 475, -2273, -1300, 195, 695, 1125, 51, 577, 348, -443, 1621, -54, 488, 821, -213, -596, 84, -351, 2203, 1313, 942, 1960, -3798, 1004, -632, 222, 660, -473, -1792, -1333, 140, -959, -624, 689, 353, 822, -222, -1375, -83, -1217, -1760, -1262, 954, 678, 890, -1811, -750, -299, -3123, 2085, 1794, 4220, -867, -140, 56, -1991, 1706, 1699, 355, -1255, -149, 1274, 660, -340, 705, -1994, -1779, 189, 879, 1494, 46, 305, 615, -473, 1496, -496, 835, 689, -680, -2982, 84, -4306, 730, 2085, -253, 236, -284, 1460, -33, -115, -180, 714, -1290, 2929, 278, 979, 2528, 618, 1244, -2117, 852, -3088, -609, -580, -256, -350, 782, -390, 133, 523, -768, 374, 901, 917, 214, -1515, -1253, -1775, 786, -1233, 2130, -137, 595, -2880, -309, -227, 565, 2038, -535, 529, 2230, -1280, -580, -1214, 485, -241, 816, -340, 1683, 900, 74, 453, -1008, -3030, -11, -4552, 1325, 2370, -200, -117, -440, 1498, 86, -123, -637, 307, -1133, 2998, 580, 1159, 2568, 1066, 1419, -3147, 677, -2532, -304, 120, -170, -735, 696, -687, -72, 320, -1149, -45, 637, 900, 394, -1357, -1203, -951, 1045, -1105, 2381, 71, 509, -3097, -97, -233, 564, 2055, -620, 448, 1983, -856, -676, -438, 373, -46, 760, 200, 1140, 299, 85, 387, 61, -1447, -510, -1226, 226, 1989, 254, -1378, 614, 647, 419, 695, -101, 584, -648, 1461, -637, 297, -1288, 1153, 7, 2627, -1039, -906, -329, -913, 189, -760, -119, -1201, 833, 1518, -1222, 2388, -2027, 1205, 1186, 3149, -1042, -101, -1130, -2163, 821, -521, 1955, -610, 1123, 1239, 688, -895, 393, -237, -2086, -138, 354, 458, 822, 192, 341, -81, 78, -59, -944, 5, -164, -1197, -127, -145, 467, 2467, 62, -1765, 407, 729, 474, 636, -148, 863, -659, 1099, -124, 338, -2094, 1451, 209, 2432, -919, -1227, -307, -1414, -386, -925, -47, -1257, 812, 1639, -1133, 1460, -1899, 1137, 1236, 2943, -1545, -94, -842, -1771, 593, -280, 2788, -713, 1680, 1008, 711, -1188, 416, -339, -2960, 139, 405, 586, 687, 107, 185, 232, -466, -1048, -883, 8, -1787, -3218, -41, -4197, 803, -12, -877, -736, 3132, 155, 1414, 866, 2515, 981, 2082, 2904, -502, 1578, 2754, 118, -200, -2506, 982, 843, 1200, 478, 736, -1569, -942, -1022, 576, 207, -464, 739, -2580, 607, 1336, 969, -666, -1233, -2232, 1153, 2004, 27, -620, -1883, -2028, 294, -1659, 1655, 255, -1335, 313, 692, -226, 1, 908, -141, -1196, -861, -1898, 1533, 2676, 485, -1396, -3301, -337, -4733, 815, 55, -1152, -1178, 2855, 212, 751, 848, 2492, 1082, 2027, 3138, -196, 1746, 2746, 159, -161, -2688, 1141, 757, 1401, 214, 715, -1787, -945, -1442, 469, 16, -540, 671, -2307, 549, 1497, 1335, -1038, -972, -1458, 1297, 2023, 12, -683, -2427, -2094, 315, -1844, 1721, 267, -1173, 1120, 598, -226, -549, 940, -487, 7, -611, -1012, 1316, 2465, 430, -324, -2152, 234, -28, 882, 1109, -1510, 66, 2316, 559, -733, 2164, -2032, 1252, -279, -294, -1549, 127, -471, -1681, 1450, 1954, 220, -3189, 156, -1377, 222, -623, -556, -371, 1282, 1030, 491, 539, 552, 2351, 679, 1284, -898, 485, -2321, 1448, 848, 1242, 1031, 520, 1691, 256, 1986, -782, 689, -1093, -2015, -496, 538, 1012, 1565, -266, -3073, 129, -223, 509, -122, 726, -703, -1878, 495, 674, 975, 1352, -658, 211, 2628, 391, -565, 1971, -2105, 1732, -163, -440, -1319, -51, -443, -772, 1594, 1393, 428, -2851, 409, -1632, 262, -980, -453, -610, 1129, 1041, 195, -51, 641, 2216, 1073, 766, -1110, 1064, -2263, 1562, 778, 1450, 1006, 261, 1655, 213, 1958, -550, 642, -741, -2717, -910, 600, 775, 1485, -41, -1956, 199, 79, -328, -47, 654, -1466, -2200, -417, -2846, 582, 708, -1092, -979, 2124, 365, 629, -303, 1241, 1053, 556, 1481, -12, 533, 1076, -762, 733, -1122, 426, -3127, -596, -1331, 984, -269, 682, -1067, 1408, 1178, 1509, 322, -1631, 299, -1336, 150, -312, 27, -89, 815, 2257, 1117, -2132, -1429, -304, -101, 475, 1076, 751, -1525, -121, -314, -470, 724, -152, 256, -2163, 722, -1033, 899, 1593, 1349, -921, -2634, -248, -3003, 394, 732, -808, -781, 1828, 328, 493, -264, 844, 978, 558, 1405, 274, 424, 1001, -165, 634, -1617, 568, -2872, -574, -2344, 1115, -89, 672, -2184, 1356, 1094, 1717, 1, -1807, 283, -1176, 683, -392, 324, 164, 717, 2205, 1096, -1795, -1989, -486, -14, 502, 1398, 782, -1399, -791, -665, -636, 951, -32, -220, -1935, 744, -889, 882, 1502, 1245, 320, -109, -348, 1601, 3069, -1081, 968, 146, -933, 899, 641, -324, 948, 34, 511, -1146, 405, -16, 1017, -204, -86, -683, 457, 627, 66, 847, 579, -298, -198, -992, 840, -1224, -1012, -669, -745, 918, 578, 568, 76, 608, -160, 595, 554, 1363, -162, 19, -1725, -74, -199, -854, 1078, 482, 1257, -404, 1423, -1137, 1262, -550, 1585, -339, -370, 1700, -915, 1052, 202, -230, -300, 1835, 2557, -252, 1685, -69, -1574, 868, 481, -406, 1166, 133, 445, -1011, -21, -69, 969, 320, -9, -500, 402, 750, 285, 574, 569, -361, -180, -1301, 778, -1220, -782, -802, -741, 913, 441, -58, -736, 309, 153, 741, 819, 1302, 181, -31, -696, 27, -115, -987, 1078, 355, 887, -526, 1506, -1297, 1313, -632, 2564, 99, -998, 1687, -760, 1059, 1283, -106, 347, -1371, 2326, 331, 232, 717, -2216, 1117, -1, 329, 68, -249, -248, -328, 544, 251, -216, -1180, 1244, 1971, -246, -330, 756, 515, -49, -883, 824, 490, 715, 21, -71, -384, -765, -119, 1476, 2273, -539, 1233, -191, -443, -222, 784, 1201, -1287, -1672, 1389, 618, 671, -186, 4, -521, 347, 1471, 306, -34, -511, 1062, 1194, -940, 1571, 842, -460, 1361, -120, 110, -800, 2071, 214, 735, 601, -1380, 1164, 241, 329, 346, 130, -212, -269, 350, 204, -290, -829, 1362, 1500, -213, -398, 1102, 371, -100, -814, 800, 399, 613, -66, -50, -522, -821, -53, 1582, 2443, -927, 1390, -143, -380, 34, 831, 1185, -1233, -1071, 1371, 604, 224, -158, 62, -922, -18, 1490, 282, -21, -583, 1462, 1394, -1374, 1724, 881, -478, -1042, -1446, 397, -248, 387, -42, 433, 1580, -1280, 741, 275, -712, -565, 155, -801, 346, 717, 1835, 2508, -60, -285, -1293, -320, -870, -143, 158, -107, -527, -255, -1146, 341, -484, -247, -998, 946, 843, 553, -2646, -1036, -237, 592, -1024, 847, -544, -420, -777, -1492, 704, 380, 828, 1169, 979, 1274, 137, 1590, -457, 2090, -880, 262, -944, 969, 783, 1271, 637, -1206, -1467, 681, 169, 1112, 292, 509, 1247, -1445, 730, 807, -793, -383, -125, -1106, 791, 439, 1881, 2199, 156, -245, -1757, -332, -1029, -83, 106, -76, -648, -353, -1095, 204, -541, -666, -1387, 1040, 830, 951, -1434, -1306, 461, 1107, -802, 899, -416, 72, -767, -976, 628, 379, 614, 1180, 1209, 1009, 279, 1455, 151, 2021, -1228, 755, -553, 161, 598, 1137, 594, 448, -532, 7, -714, -517, 1144, 402, 865, -642, -561, 210, 463, 109, 235, -539, 1001, -367, -35, 394, 737, 1071, 998, -1175, -1783, -430, 987, 255, 766, -733, -112, -440, 912, 159, 81, -1775, 241, -121, 1526, -536, -538, -215, -703, 1202, -16, 1078, -1104, 355, 1746, 594, 25, 557, -336, -1939, 1243, 2433, -336, 1242, -436, 753, 358, 261, 493, -262, -66, 536, -797, 254, -697, 63, 1070, 860, 610, -876, -481, 608, 328, 299, -365, -913, 899, -8, 40, 59, 1149, 1207, 765, -979, -1519, 175, 654, 200, 714, -743, -221, -565, 826, 619, -395, -1473, 345, 24, 1469, -1014, -304, 311, -129, 1324, 49, 1148, -1424, 287, 1672, 692, -91, 568, -225, -2716, 1392, 2397, 413, 1101, -748, 1010, 511, -4, 297, -291, -77, -2733, 8, 287, -1170, -630, 452, -1716, -315, 124, -125, 935, 1239, 1058, -308, -900, 1658, -921, 1613, 2376, 1425, 206, -1845, 319, 8, 976, -173, 1048, -378, 97, -195, 276, -116, -454, 104, -530, 839, 1966, -2302, -667, -175, 161, 235, -43, -1078, 1504, -1062, -508, 561, -161, 487, 307, -326, 1074, 769, 1963, -839, 566, -786, -12, -897, -897, 2553, 1019, 264, -2460, 313, 37, -1366, -35, 1021, -1362, -859, 287, -115, 358, 1225, 1250, 302, -790, 2075, -1007, 1582, 2464, 1549, 204, -2253, 475, -59, 551, 94, 1139, -507, 109, -605, 156, -284, -1614, -576, -686, 922, 1597, -1074, -999, 113, 127, 183, -329, -775, 1159, -855, -1127, 608, -203, 336, 254, -286, 1166, 603, 1998, -121, 559, -1744, 356, -666, -738, 2437, 901, 263, 620, -604, -6, -338, 227, 480, 208, 761, 889, 202, 323, 958, -1066, -707, 577, 891, -469, 580, 101, 1060, 795, 511, -991, -1071, 1535, 1865, -501, -97, 238, -1257, 380, 660, -1591, -144, 452, 1699, -616, 2534, -332, 688, -1, 619, 714, 744, 1988, -353, 1244, 40, 432, -304, 117, -118, -1008, -304, 530, 80, 793, 241, 189, -639, -1925, 1370, -50, 665, 397, -450, 73, 305, -292, 463, -290, 628, 1176, 280, 95, 876, -1187, 238, 546, 704, -292, 566, 142, 1091, 720, 598, -675, -767, 1739, 1703, -461, -157, 279, -1157, 332, 633, -1866, -408, 388, 1657, -142, 2457, -391, 570, 108, 506, 1209, 837, 2171, -356, 1470, -12, 416, -76, 129, 100, -1962, -370, 542, 62, 709, 466, 499, -320, -1419, 588, 96, 656, -852, -1459, 382, -758, -655, -229, -1913, 259, 1260, 1564, -221, -14, 1026, 549, 1720, 250, -262, 489, 616, -595, 746, -1117, 991, -1201, -242, 82, 1358, -258, 770, -840, 1794, 916, 1093, 11, -3097, 1978, 370, -4, -413, 1767, -426, 1381, 511, 486, 1030, -55, -899, 479, 997, 126, 1499, -1220, 261, -784, 2315, -1346, -475, 674, -659, -1171, -1208, 30, 1555, 1274, -773, -1398, 6, -1130, 879, 237, -1107, 487, 1214, 1552, -375, -66, 971, 1375, 1784, 794, -377, 423, 710, -74, 701, -1240, 1063, -1414, -592, 62, 1607, -423, 830, -906, 1620, 877, 1238, -613, -2806, 1980, 703, -205, -417, 2094, -365, 1329, 616, 397, 850, -408, -701, 542, 947, 340, 1561, -1088, -87, -1106, 2378, -648, -507, 238, -629, -616, -849, -16, 1571, 1183, -962, -1697, -267, -640, -809, 108, -1535, 942, 2090, 17, 51, -978, -1567, 847, 403, -1830, 85, -893, 1042, 39, -341, 1078, -956, -917, -270, 23, 411, 385, 652, -464, 473, 671, -96, -83, 2187, 21, -411, 2202, -149, 2362, -2078, 1156, -638, 909, -325, -1210, 1610, 692, 1272, 1168, -256, -1154, -519, 668, -564, 336, 2003, 793, -662, -965, 503, 1567, -114, 365, -697, -1735, -48, 785, -501, 974, -1080, 1054, 1564, -49, 133, -1039, -1120, 850, 403, -865, 238, -945, 999, 995, -258, 710, -656, -833, -207, -796, 604, 151, 638, -411, 323, 709, -356, -737, 2065, -45, -473, 2610, -772, 2507, -1443, 1070, -512, 954, -215, -1454, 2113, 772, 1289, 1500, -285, -1100, -251, 2, -558, 570, 1979, 241, -436, -1172, 376, 1529, -81, 294, 910, 1052, -350, 1414, 1493, 506, 332, -30, -578, 535, 604, -575, 481, 348, -98, -781, 684, 90, -469, -291, 682, 810, 551, 1843, 1481, 909, 1545, -266, -138, 369, 330, 312, 164, -636, -550, -268, 1075, 832, -788, -140, 195, 117, 76, 196, 633, -758, -1567, 351, 968, -1222, 198, 211, -113, -196, 161, 224, 131, -615, -135, 445, -438, 496, 534, 526, 934, 875, -545, 1040, 1512, 1006, 410, -263, -317, 662, 486, -629, 464, 656, -173, -330, 772, 131, -608, 591, 631, 1152, 653, 1433, 1891, 877, 1665, -185, -163, -48, 369, 186, 92, -480, -210, -204, 1052, 1074, -636, -184, 145, 184, 570, 574, 798, -986, -1310, 304, 1017, -1209, 227, 15, 258, -194, 139, 0, 142, -672, -371, 537, -873, 548, 661, 521, 351, -794, 188, -533, -90, -760, -107, 429, -575, 245, 507, -215, -265, 457, -452, 1252, 649, 171, -90, -679, 664, -406, -490, 337, 501, 331, 1529, -274, 1463, -1377, 953, -514, -128, -520, 900, 631, 431, -394, -958, 285, 282, 324, 423, 207, 669, 320, -1862, 958, 753, 561, 175, 80, 1199, 228, 45, 197, 199, -707, 713, 409, 102, 709, 32, 1579, 491, -831, 515, 25, 44, -185, 535, 464, -260, 183, 370, -276, -176, 526, -504, 1294, 624, 34, -270, -482, 738, -438, -502, 218, 419, 239, 1546, -392, 1508, -1437, 825, -487, -309, -935, 874, 684, 523, -201, -944, 346, -122, 540, 482, 356, 599, 15, -1015, 937, 762, 147, 199, 181, 900, -72, 73, 234, 199, -877, 842, 452, -539, 413, -66, 1538, 301, 446, 467, -845, -46, 201, 3, 2126, -1158, -229, 167, 455, 1102, 11, -619, 122, -116, -460, 391, 223, 215, 1062, -1002, -237, 460, 290, 585, 460, 1033, -548, 1018, 598, 721, 678, -250, 771, 363, 903, -355, 125, -503, 179, 9, 52, -282, -1090, -1171, 300, 1137, 496, 976, -1317, -884, 324, 388, 512, 564, -383, 356, -461, -547, 246, 730, 139, 368, 431, 415, -1020, 165, 482, 445, 1893, -811, -226, 276, 418, 1157, 214, -928, 508, -170, -444, 177, 505, 261, 595, -764, -227, 877, 214, 540, 369, 1011, -837, 947, 523, 598, 242, -77, 804, 489, 1199, -1125, 356, -91, 267, -239, 140, 244, -1600, -1340, 276, 1122, 66, 1000, -1238, -1131, 200, 452, 812, 516, -456, 701, -227, -1029, 398, 717, 150, -665, -167, -110, -431, -1111, 395, -238, 672, -727, 1467, 830, -1083, -887, 65, 7, 711, 865, 87, 1244, 160, -911, -995, -454, -829, -387, -93, 1742, -284, 2294, -582, 132, 309, -21, 271, 286, -114, -40, -1880, -761, 716, 800, 469, 581, -290, 1408, -365, -942, -433, -93, 458, 2933, 161, -189, 321, 1403, -213, 363, -685, -146, -519, 107, 397, -31, 541, -622, -295, 423, -99, -708, 439, 171, 530, -153, 1448, 1070, -1076, -890, -238, 102, 782, 925, 51, 1472, 269, -957, -1476, -388, -471, -230, -740, 1792, -377, 2272, -1126, 56, 203, -468, 212, 148, -43, 0, -1168, -984, 1002, 1180, 489, 798, -147, 1457, -497, -957, -417, -133, 645, 2900, 275, -261, 204, 1407, -7, 405, -747, 297, -622, -472, 270, -130, 498, -722, 707, 628, 89, -529, 627, -321, 1125, -231, 838, 549, 752, 163, -1131, -334, 1191, 324, 174, 29, 507, -158, 178, -937, -100, 940, 1130, 857, 697, 611, -588, 295, 388, 76, 30, -401, 895, 474, 873, -403, -45, 122, 1479, -893, -740, 1453, -347, 139, 213, 691, -118, 1284, 497, -1571, 208, 232, 32, 906, -779, 28, -627, -742, 512, 518, -227, -486, 693, 713, 398, -366, 853, -466, 879, 126, 978, 564, 648, 538, -353, -522, 1031, 71, 290, -231, 967, -100, -100, -786, -218, 1049, 680, 720, 680, 589, -789, 319, 276, -244, -68, -322, 1013, 636, 982, -415, 70, -238, 1520, -384, -521, 1537, -384, 928, 198, 660, -398, 1269, 262, -1753, 393, 294, 521, 841, -1222, 312, -343, -1251, 663, 567, -164, -1612, -71, 132, -496, -270, 149, -1653, 391, 536, 214, 635, 366, 536, -1124, 473, 990, 16, 989, 329, 964, 322, -1344, -141, -469, -24, 1025, 332, -269, -152, -200, -52, 1483, -712, 50, -1469, 801, 759, 72, 85, 331, 623, 121, -455, 424, 1394, -341, -783, -232, 32, 225, 1002, -885, 5, -265, -378, -593, 57, 255, 225, 8, -1342, 896, 1125, 1017, -1151, -103, 12, -952, -243, 270, -1473, 210, 555, 228, 1020, 401, 741, -168, 509, 1053, -1, 1054, 189, 859, 330, -1496, -152, -307, -10, 697, 362, -373, -203, -703, -99, 1362, -698, 32, -1261, 855, 837, 133, -275, 496, 718, 61, -100, 435, 1589, -654, -743, -260, 26, -9, 995, -825, -205, -424, -395, -27, 62, -313, 679, 264, -826, 651, 1030, 976, 202, -681, -125, 328, 87, 563, -1574, 543, -24, -79, -697, 691, -1506, -756, 32, 983, -741, 550, 455, -334, 828, -96, -1103, -657, 570, 154, 660, 676, 626, -568, 1479, 107, -1525, -214, 169, 1710, -323, 1431, -424, 954, -45, 804, 339, -204, 1153, -1067, 312, 218, 275, -219, 807, 381, 88, -682, -29, -241, -412, 448, -261, -1470, -690, -75, 1258, 1045, 196, -969, -89, 718, 45, 721, -1275, 547, 855, -43, -496, 709, -1418, -163, -65, 962, -905, 568, 391, -235, 778, -92, -701, -854, 923, 32, 561, 591, 596, -687, 1531, 116, -2060, -545, 249, 1718, 326, 1673, -475, 914, 175, 1017, 607, 206, 1289, -997, 648, 168, 172, -84, 865, 389, -224, -871, 60, 26, -355, 344, 298, -1347, -754, 79, 1269, 1028, -656, 81, -43, -1746, -40, -212, -1860, 388, 579, 730, -349, -548, -783, 736, 1082, 322, -219, 1166, 619, 391, 776, -299, 813, -940, -50, -260, 953, -16, -797, 353, -151, 475, 996, -375, 546, 1589, -863, 206, 510, 2746, -672, 253, 559, 2176, -1026, -1064, -831, 1887, 980, 1846, 1236, -1018, 277, -117, 790, -194, 147, 930, 48, -1485, 664, 1092, -295, 300, -725, -107, -217, -1133, -29, 83, -909, 559, 502, 753, -64, -537, -736, 586, 1035, 537, -235, 1077, 378, 819, 797, -532, 983, -963, -292, -330, 990, -95, -770, -71, -207, 446, 851, -543, 611, 1700, -1065, 471, 139, 2791, -483, 397, 583, 2137, -835, -792, -474, 1891, 920, 1840, 1224, -1257, 174, -342, 870, 253, 131, 578, -16, -1435, 556, 1086, -181, 264, 280, 755, 5, 1559, -458, 5, 458, 350, -957, 887, 676, -100, 358, 692, -68, -731, 442, -708, -409, -95, -25, 534, 33, 1595, 746, 687, 1351, -26, 519, -1479, 323, 130, -173, 104, -698, 110, 335, -657, -944, 164, 790, 252, -155, -11, 758, -626, -1264, 239, 1196, -555, 869, 785, 1138, 423, -445, -298, -323, -143, -556, 336, -51, -10, -184, 462, 210, 929, -392, 999, 245, 127, 774, 555, -140, 856, 508, 28, 420, 1000, -46, -408, 388, -722, -197, 214, -75, 73, 164, 1573, 644, 841, 1548, -280, 522, -1180, 132, 167, -532, -27, -856, 129, 360, -331, -760, 723, 1010, 373, 56, 342, 1102, -980, -1120, 356, 1048, -570, 857, 1020, 792, 383, -414, 50, -284, -809, -381, 557, 134, -1, -190, 329, 771, 833, 115, -845, -725, 296, 607, 11, -642, 304, -242, 1269, 873, 421, -306, 637, -514, 847, 218, -76, 733, 1003, -485, 187, -534, 455, -150, 442, 206, -518, 282, 972, 243, 144, -177, 1520, 317, 387, -670, 637, -9, -113, -655, -483, 570, -1142, -1254, 321, 952, 276, -181, -728, 52, 1084, 1153, 845, -63, -774, 517, 718, -263, 41, 2406, -162, 807, 659, 362, -1007, -185, 166, 1715, 127, -561, 345, -110, 1221, 1014, 928, -479, 623, -352, 802, 200, 175, 722, 916, -236, 52, -425, 256, -270, 411, 287, -570, 267, 1104, 113, -103, -69, 1528, 459, 648, -957, 841, -11, 20, -463, -410, 619, -1247, -893, 285, 862, 120, -219, -449, -138, 716, 1140, 997, -99, -1085, 811, 950, -614, -65, 2384, -255, -52, -435, 202, -448, 89, -416, 272, 1233, -169, 225, -61, -256, -628, 516, 489, -48, -484, -21, 1190, 459, -497, -275, -320, -311, -559, -679, 44, -654, 816, -843, 169, 600, 173, 720, 235, 684, -332, -729, -837, 116, 1240, 334, -667, -241, 272, 23, -1421, 1625, -524, 554, 574, -84, 130, 1420, -812, 277, 1428, 63, 27, -510, -1009, 542, 386, 215, 280, -469, 443, 94, 222, -275, 807, 1161, 327, 225, 205, -261, -488, 781, 436, 382, -807, -2, 1155, 540, -497, -710, -196, -392, -636, -1458, 104, -659, 824, -1444, 152, 541, -283, 443, 240, 716, -161, -276, -1064, 676, 1298, 436, -231, -52, 782, -50, -1188, 1673, -565, 398, 586, -37, -174, 1452, -771, 462, 1448, -113, 81, -234, -885, 335, 464, 221, -654, 1170, 492, -578, -681, 624, -19, 415, 68, 329, 591, 7, 1270, 126, 109, -825, -81, -1009, -99, -54, 813, 215, -296, -600, -543, -23, 950, -78, 2327, -1340, -164, 1119, 442, 712, 520, 721, 220, 1219, 56, 139, 139, 713, -548, -375, 1265, -886, -976, 989, 150, 235, -184, 195, -1496, 973, -131, 637, 1961, 165, 274, -676, -85, 381, -30, 285, -673, 1106, 390, -403, -669, 863, -66, 407, 242, 364, 780, -85, 1534, -87, -127, 59, -526, -984, -397, 465, 816, 70, -236, -818, 87, -250, 765, -139, 2303, -1496, -9, 1253, 825, 858, 707, 761, 526, 1278, -487, 141, 199, 801, -99, -198, 1711, -1355, -538, 954, 68, -134, -204, 280, -1846, 1033, -146, 914, 1855, 101, 357, -86, -249, 428, 103, 319, -1630, 247, 700, -461, -314, 189, -84, 761, 920, 1208, 482, -212, -297, -620, 1071, -843, -740, 939, -437, -204, -292, -818, 110, -112, 904, 355, 128, -1043, 933, 144, 721, 74, -503, 416, 376, 356, 1664, -767, 82, -630, 172, 156, -1458, -12, 545, -433, -863, 366, -222, 509, 1397, 32, -967, 1747, -120, 480, 362, 158, 344, -80, 138, 217, 539, 660, -1502, 123, 787, -441, 102, 599, -16, 645, 1346, 1180, 1045, -193, -229, -359, 1228, -20, -1014, 1053, -617, 301, -167, -1356, 196, -121, 1232, 127, 179, -1065, 916, 38, 702, -39, -906, 506, 308, 346, 1538, -560, -112, -228, 588, 260, -1041, 452, 1011, -708, -701, 418, -275, 304, 1374, 153, -1015, 1767, -156, 799, 418, -520, 303, 9, -540, -82, 605, 576, -808, 184, -1, 162, -150, 615, -311, 105, 1483, 463, 278, -199, 254, -799, 288, -657, 271, 3307, -732, 248, 1334, -213, -635, -492, 1154, 914, 335, 218, 243, -136, -71, -592, -929, 113, 161, 498, 407, 1728, -4, -75, 909, 124, -1125, 1546, 1081, -488, 322, 138, -218, -15, -108, 1636, -605, -49, 1646, 218, 1212, 191, 915, 381, -161, -229, -521, 1014, -701, 137, 371, 343, -39, 119, 146, 242, 1423, 516, 1017, -177, 379, -397, 327, -267, 329, 3361, -638, 28, 1399, -402, -346, -551, 1521, 646, 308, 86, 268, 74, -133, -667, -1326, -81, 374, 577, 327, 1965, -73, 255, 1276, 393, -991, 1587, 1306, -610, 952, 133, -246, -323, -95, 1539, -1037, -87, 1692, 580, 1229, 143, 829, 470, -840, -228, -452, 975, 394, -484, 351, -351, -365, 298, -2179, 191, 400, 248, -72, 383, 1263, -824, -645, 533, -228, 1637, 51, -678, 2313, -906, -222, -293, 200, 483, 399, 906, -624, -115, 317, 614, -460, 18, -900, -327, -340, 76, 145, -67, -450, 29, -489, -506, 857, -477, -466, 765, 1354, 149, -459, -206, 196, 1121, 338, -756, 1918, 658, -257, -486, -30, -15, 1118, 1770, 464, -566, 38, -366, 463, 475, -1840, 242, 884, 205, 194, 347, 1144, -451, -614, 914, -186, 1605, 94, -358, 2356, -952, -51, -100, 133, 6, 404, 822, -615, -137, 218, 606, -1314, -305, -646, -282, -459, 383, -99, 606, -104, 212, -673, -376, 951, -761, -312, 724, 1308, -123, -480, -79, -186, 1261, 337, -656, 1875, 570, 189, -397, -523, 52, 1046, 1696, -3, 13, -258, -336, -22, 1004, -961, 614, 185, 1561, -632, -1121, -763, -237, -637, 54, 821, 521, 521, 148, 2058, 491, 133, -1146, 469, 424, -326, 558, 774, 115, 220, -508, -960, 35, 936, -97, -882, 281, 319, 2433, -239, 618, -730, 1170, -155, -604, -11, 281, 1995, 1694, -228, -342, 266, 278, -907, -400, 116, 322, -376, -1028, 704, 1356, -882, 46, 127, 69, -296, 138, -684, 1229, -505, 661, 474, 1611, -226, -1140, -656, -29, -683, 599, 736, 414, 625, 167, 2055, 123, 242, -934, 507, 170, -411, 496, 783, 200, 53, -514, -1162, -526, 745, -10, -387, 1022, -77, 2519, -21, 718, -642, 1448, -257, -793, 489, 384, 1965, 1547, -252, -266, 220, -347, -815, -3, 148, 313, -366, -882, 296, 1745, -845, 26, 827, 387, -470, -223, -73, 852, 883, 765, 283, -842, -359, 1244, 521, 384, -1107, -36, -432, 270, -694, 655, 242, 1013, -590, 1814, 1825, 373, 862, -182, 251, -146, 2543, 121, -400, 417, 900, 472, 282, 727, -527, -327, 965, -600, 813, 278, -295, 546, -650, 610, 1642, 685, 392, -125, 1215, 354, -126, 233, -323, -588, -346, 429, 149, -635, 433, -157, 884, 375, -484, -735, 350, 1318, 902, 724, 672, -856, 224, 1284, 480, 270, -1085, 205, -489, 274, -923, 774, 230, 523, -525, 1937, 1686, 725, 1000, -177, 221, -117, 2450, 40, -293, 518, 932, 499, 452, 932, -504, -122, 1292, -564, 1050, 236, -598, 355, -517, 641, 1636, 656, 367, -63, 1065, 166, -152, 186, -309, -533, -325, 444, -11, -731, 409, -231, -184, -150, 743, -284, -777, -131, 1569, 501, 212, 283, -217, -411, -343, 1471, -283, 1424, 157, 471, 43, -232, -975, 128, -320, 749, -1041, -696, 196, -860, 279, -1053, 652, 264, -568, 84, 9, -1025, -586, 287, -1272, -144, 1850, 267, -615, 354, 1167, 735, -966, 1588, 419, 666, 329, 185, 1060, -143, -919, 902, -938, -215, 181, 1130, 539, -363, -315, -1465, -166, -122, 747, -118, -1109, -21, 2083, 472, 572, 263, -28, -436, -303, 1587, -337, 1453, 147, 428, 21, -192, -958, 20, -267, 744, -906, -460, 172, -924, 267, -1375, 576, 283, -529, -101, 61, -974, -397, 464, -1340, -332, 2152, 308, -188, 338, 1284, 594, -738, 1581, 405, 587, 299, 251, 787, -258, -921, 1028, -972, -381, 313, 1198, 294, -396, -343, -1523, 78, 638, -354, -838, 308, 330, 341, 367, -72, 1284, -290, 364, 1603, 664, 36, 176, -717, -729, 710, 379, 5, 310, 179, 117, 438, -552, 208, 318, 329, -1258, 313, 719, 585, 853, -150, 1021, -376, 960, -732, 205, 1085, -120, 39, 11, -245, -17, -586, 333, 488, -99, 394, -694, -849, -339, -576, 388, 1537, 93, 95, 1344, -958, -1795, 1203, 1122, 214, 612, 110, -685, 255, 585, 400, 315, 238, 1283, 83, 358, 1656, 670, 56, 205, -879, -752, 659, 486, 53, 106, 306, 181, 499, -1172, 189, 256, 313, -1458, 246, 686, 293, 830, -126, 1075, 85, 1237, -748, 264, 882, -53, 97, 136, -220, -68, -438, 371, 461, 71, 363, -658, -1049, -293, -569, 654, 1534, -183, 157, 1349, -580, -1752, 1148, 1101, 331, 689, -106, -210, 5, -263, 878, -762, 812, 1497, 81, -1760, 1124, 243, 1025, -253, 17, 409, 502, 398, 601, -972, 661, 271, -69, -1337, 1726, -353, 1624, -1385, 979, 483, -376, 612, 822, -480, -627, 5, -337, 541, 249, -407, 670, 287, 1186, -121, -1441, 1528, -503, 572, 150, 80, -948, 105, -197, 1001, -263, -321, 457, 312, 227, -580, -1358, -933, 391, 609, 168, -180, 30, 96, 221, -757, 1099, 1452, 800, -1767, 951, 71, 1067, -110, -147, 336, 438, 219, 589, -1144, 748, 517, -178, -1724, 1728, -314, 1617, -1107, 858, 522, -1011, 489, 842, -497, -378, -43, -204, 492, -75, -468, 606, 315, 1431, -64, -1422, 1547, -553, 603, 110, 232, -732, -37, -231, 767, -249, -258, 486, 323, 102, -558, -1392, -1015, -586, 1167, -4, 159, 76, -1091, 661, -165, 1100, -339, -54, 177, 769, -119, 180, -239, 208, 146, -1268, 692, 1976, -805, 1230, -659, 809, 79, 828, -397, 490, -1792, 479, -332, -947, 791, 428, 306, 518, 1109, 363, 797, 650, -633, 521, -827, 680, -193, -89, 65, 80, -292, 444, 814, -1512, -314, -424, 763, -96, 381, 518, 377, -48, -171, -769, -683, -610, 1224, 94, 298, 713, -215, 510, -254, 1005, -356, 244, 166, 730, 34, 160, -99, 81, 135, -1615, 978, 2013, -1207, 1325, -497, 827, -21, 805, -474, 471, -1929, 432, -363, -1168, 433, 443, 356, 656, 1294, 255, 749, 375, -619, 940, -851, 740, -201, 113, 94, 30, -313, 414, 840, -1769, -571, -435, 640, -136, 60, 781, 431, -137, -101, -800, -720, 79, -523, -20, -160, 667, -267, -763, -632, 1435, 43, -436, 428, 475, -883, 1732, -289, 161, 1145, -1377, 1233, 215, -1610, 1038, -404, -467, 187, 730, -550, 512, 1621, 1102, -125, -666, 94, 454, 963, -194, -104, 121, 368, 775, -199, 539, 337, -199, -378, -483, -1169, 1834, 409, 738, 898, -1079, 414, 948, 415, 1457, 709, 782, 789, -84, -757, 290, -234, 29, -534, 56, -491, 778, -334, -608, -718, 1448, -3, -175, 402, 457, -328, 1681, -54, -43, 1122, -1426, 1086, 261, -1475, 1148, -302, -384, 95, 687, -548, 517, 1387, 973, -192, -946, -2, 523, 1000, 87, -14, 305, 309, 661, -116, 958, 297, -489, -488, -561, -1141, 1824, 452, 727, 908, -920, 114, 960, 464, 1430, 465, 688, 912, -407, -778, 260, -273, 866, -694, 233, 261, 636, 533, -293, 208, 1528, -558, -657, -26, -208, -714, -1447, 608, -288, 117, -408, -624, 281, -894, 233, -329, 420, -871, 91, 1, 33, 1741, 390, 650, -2368, -334, -1310, 925, -746, 1199, 154, 171, 57, 400, 691, -193, 1355, -417, 830, 612, 1193, -608, -574, 786, 51, 970, -377, -120, 420, 1052, 16, -306, 156, -1486, -728, 893, 916, -754, 540, 706, 1129, 691, -16, 118, 1792, -588, -189, 7, -315, -972, -1479, 714, -407, 61, -455, -525, 282, -813, 322, -355, 298, -496, 106, 123, 34, 1475, 286, 638, -2675, -385, -1070, 927, -719, 1300, 443, 292, 153, 456, -62, -204, 1587, -595, 783, 609, 1173, -840, -570, 958, -88, 1298, -418, 94, 408, 987, 156, -271, 199, -1392, -788, 802, 218, 1664, -137, -1812, 757, -29, -1688, 2, 543, -579, 330, -455, -123, -340, -673, 692, -340, 1256, 251, 1293, 151, -342, -165, -578, -351, 28, 1447, 44, -963, 346, 1914, 155, -451, -155, 390, -880, -1361, 483, 469, 1840, -620, 386, 423, 461, -1155, 365, -209, 670, 1267, -599, 1359, -868, 647, -329, 9, 279, -1090, 81, 172, 246, 1067, 7, 1368, 838, 240, 1708, -209, -1522, 332, 319, -1167, -86, 620, -610, 167, -462, -51, -253, -847, 695, -516, 1219, -94, 1257, 217, -519, -10, -524, -326, -54, 1451, -22, -950, 94, 1822, 149, -1124, -368, 441, -830, -911, 583, 341, 1933, -428, 424, 597, 604, -781, 51, 76, 710, 1243, -922, 1321, -706, 594, -470, 51, 119, -1111, -95, 225, 321, 693, 61, 1382, 798, -1714, -508, 273, -461, -585, 1333, 10, -265, 411, 1264, -864, 2284, 1297, -670, -407, -1904, -406, 56, 402, 193, 1530, -461, 1589, 306, 1561, -682, -2143, -541, -1285, -147, -604, -211, -2033, 106, -2288, -833, 2705, 453, -1616, 357, 262, -832, -74, -68, 1094, -269, -1369, -15, -643, 89, 1543, -100, -1213, 225, -134, 2651, 488, 674, -1166, -559, -921, -139, -487, -1121, -1714, -508, 273, -461, -585, 1333, 10, -265, 411, 1264, -864, 2284, 1297, -670, -407, -1904, -406, 56, 402, 193, 1530, -461, 1589, 306, 1561, -682, -2143, -541, -1285, -147, -604, -211, -2033, 106, -2288, -833, 2705, 453, -1616, 357, 262, -832, -74, -68, 1094, -269, -1369, -15, -643, 89, 1543, -100, -1213, 225, -134, 2651, 488, 674, -1166, -559, -921, -139, -487, -1121, -565, -367, 12, -126, 216, 352, 729, -797, -81, 1510, 1309, 6, 1701, -795, -1583, -299, -334, -476, -97, -970, 2034, 139, 1185, 801, -1053, -1164, 372, 646, -1346, 588, 91, -1703, 1980, -1596, 1331, -621, -22, 2442, -1221, 1462, -939, -90, 331, 591, 220, 790, 220, -1233, -1183, 882, -1488, -159, 1019, -57, 797, 2490, 632, 566, -409, -23, -1412, 362, -578, 1696, -565, -367, 12, -126, 216, 352, 729, -797, -81, 1510, 1309, 6, 1701, -795, -1583, -299, -334, -476, -97, -970, 2034, 139, 1185, 801, -1053, -1164, 372, 646, -1346, 588, 91, -1703, 1980, -1596, 1331, -621, -22, 2442, -1221, 1462, -939, -90, 331, 591, 220, 790, 220, -1233, -1183, 882, -1488, -159, 1019, -57, 797, 2490, 632, 566, -409, -23, -1412, 362, -578, 1696, -861, -117, -146, -887, -1154, 1240, -612, 640, 383, -842, 150, 1025, 549, 229, 495, -614, -489, 1925, 923, 1907, 352, -1257, -1251, 1273, -1503, 1126, -1359, 339, 125, -1127, 257, -525, -356, 1139, 1695, -1033, -1905, -2131, -1060, 1699, 444, -851, 422, -2429, 980, 195, 602, 1373, 346, -719, -78, 495, 102, 690, -1419, -865, 1505, -853, 1066, -817, 914, 2531, -194, -1543, -861, -117, -146, -887, -1154, 1240, -612, 640, 383, -842, 150, 1025, 549, 229, 495, -614, -489, 1925, 923, 1907, 352, -1257, -1251, 1273, -1503, 1126, -1359, 339, 125, -1127, 257, -525, -356, 1139, 1695, -1033, -1905, -2131, -1060, 1699, 444, -851, 422, -2429, 980, 195, 602, 1373, 346, -719, -78, 495, 102, 690, -1419, -865, 1505, -853, 1066, -817, 914, 2531, -194, -1543, 10, 176, 219, -43, 781, 1106, -689, 1919, 759, 1030, -1967, 964, -47, -1182, 343, -1400, -116, -238, 1053, -244, -545, -396, -2031, 689, -1215, 277, -319, -1119, -602, -702, 741, -992, 1030, 239, 1712, 1814, -1330, -100, 1062, -599, -425, -2606, -194, -178, 2042, -2387, -20, 2333, 813, -315, -745, -698, -1777, -704, -291, 470, 1314, 43, 618, 755, 880, 1017, -529, 1054, 10, 176, 219, -43, 781, 1106, -689, 1919, 759, 1030, -1967, 964, -47, -1182, 343, -1400, -116, -238, 1053, -244, -545, -396, -2031, 689, -1215, 277, -319, -1119, -602, -702, 741, -992, 1030, 239, 1712, 1814, -1330, -100, 1062, -599, -425, -2606, -194, -178, 2042, -2387, -20, 2333, 813, -315, -745, -698, -1777, -704, -291, 470, 1314, 43, 618, 755, 880, 1017, -529, 1054, -769, 915, -1380, 182, 806, 35, -737, -214, 1444, 71, 512, 500, -146, 1179, -1012, 1109, 793, -248, -918, 346, -1205, 557, 1969, 504, -1308, -883, 175, 1728, -268, -798, -45, -1444, -1036, 1503, 724, 942, 1050, 2404, -525, 1309, 793, -1614, -1282, 622, -473, 183, -868, 823, 660, 1704, 841, 486, 1456, -1323, -2470, -170, 205, 1278, 796, 1634, -753, -372, -477, 882, -769, 915, -1380, 182, 806, 35, -737, -214, 1444, 71, 512, 500, -146, 1179, -1012, 1109, 793, -248, -918, 346, -1205, 557, 1969, 504, -1308, -883, 175, 1728, -268, -798, -45, -1444, -1036, 1503, 724, 942, 1050, 2404, -525, 1309, 793, -1614, -1282, 622, -473, 183, -868, 823, 660, 1704, 841, 486, 1456, -1323, -2470, -170, 205, 1278, 796, 1634, -753, -372, -477, 882, 223, 196, -1533, 1036, -466, -446, -84, 816, -991, -1699, 1432, -730, -843, -2228, 1179, 2154, -781, 845, 132, -1280, -18, -291, -491, -1075, -498, 39, 75, -142, 832, 1048, -1416, -1915, 564, -1287, -73, 1055, -1311, -666, -673, -1652, 291, 463, 2318, -220, 254, 273, -471, 661, -458, 155, 412, -283, -1227, -952, 952, 129, 69, -1000, 176, 1753, -1239, 725, 1475, -42, 223, 196, -1533, 1036, -466, -446, -84, 816, -991, -1699, 1432, -730, -843, -2228, 1179, 2154, -781, 845, 132, -1280, -18, -291, -491, -1075, -498, 39, 75, -142, 832, 1048, -1416, -1915, 564, -1287, -73, 1055, -1311, -666, -673, -1652, 291, 463, 2318, -220, 254, 273, -471, 661, -458, 155, 412, -283, -1227, -952, 952, 129, 69, -1000, 176, 1753, -1239, 725, 1475, -42, 68, -1530, 158, 1013, -1123, -355, -1340, 779, -1496, 1074, -37, -401, -135, -1548, 574, -27, 1532, 2247, 1002, -668, 276, 1163, -408, -176, -1023, 1271, -1842, 1546, -1761, -845, -1932, 1165, -134, 1271, 164, 1378, -951, 666, -869, 1399, 154, -970, -286, 386, -652, -155, 586, -666, -394, 309, 907, 453, -500, -1302, -752, 472, -794, 717, -1050, -1411, -384, 978, -562, -1346, 68, -1530, 158, 1013, -1123, -355, -1340, 779, -1496, 1074, -37, -401, -135, -1548, 574, -27, 1532, 2247, 1002, -668, 276, 1163, -408, -176, -1023, 1271, -1842, 1546, -1761, -845, -1932, 1165, -134, 1271, 164, 1378, -951, 666, -869, 1399, 154, -970, -286, 386, -652, -155, 586, -666, -394, 309, 907, 453, -500, -1302, -752, 472, -794, 717, -1050, -1411, -384, 978, -562, -1346, -24, -976, -262, 1075, 174, 1856, 326, -1062, 559, 2832, 619, 838, 1835, 164, 418, 1078, -121, -1272, 1347, -1661, -310, -883, -768, 102, -379, 367, -483, 273, -179, -756, 1811, -1618, -777, 205, -625, -27, 861, -98, 1096, 555, 111, 1138, -1363, 632, -661, -774, 1098, 169, -297, -942, -2155, 617, -77, 1206, 236, -16, -370, -1170, -860, -1048, 855, 840, 234, 644, -24, -976, -262, 1075, 174, 1856, 326, -1062, 559, 2832, 619, 838, 1835, 164, 418, 1078, -121, -1272, 1347, -1661, -310, -883, -768, 102, -379, 367, -483, 273, -179, -756, 1811, -1618, -777, 205, -625, -27, 861, -98, 1096, 555, 111, 1138, -1363, 632, -661, -774, 1098, 169, -297, -942, -2155, 617, -77, 1206, 236, -16, -370, -1170, -860, -1048, 855, 840, 234, 644, -2232, 932, -2283, 145, -161, -1752, -920, -735, -77, -859, -2025, 874, -1056, 562, 36, -561, -38, 1510, 414, -1268, -820, 1224, 1532, 1011, 11, 153, -875, 1785, 206, -316, 460, 2029, -501, -2272, 1332, -89, 334, 707, 1936, -843, -1096, 782, -468, 456, -116, 89, -863, 1330, 1409, 60, -161, -210, 634, -1549, -206, -1041, 671, -2201, -127, 453, -156, 408, -1135, 1125, -1594, 996, -2013, -398, 178, -1544, -676, -654, 138, -843, -1357, 638, -484, 921, -108, -700, -242, 1577, 498, -777, -668, 1269, 1426, 972, -112, -179, -1003, 1733, 203, -538, 437, 1904, -352, -2387, 1365, 22, 38, 1223, 1851, -1083, -1152, 878, -561, 431, -378, 231, -502, 1418, 1455, 35, -222, -418, 464, -1189, -61, -1236, 744, -1776, 21, 599, -673, 499, -1103, 1233, -922, 949, -2111, -471, -396, -1069, -174, 268, 100, -481, -1594, 247, 987, 61, 1116, -352, 607, 848, 2386, -574, 374, 532, 1575, -1425, -443, -437, -1559, 1519, 513, 840, -755, 1457, -9, -575, -969, -951, 77, -825, 1265, -2160, -1154, -205, -755, -517, -1443, -1184, 1906, -109, -32, -72, 999, 191, 779, 606, 774, -1165, -47, -2124, -685, 950, -1492, -756, -1278, -45, -898, 907, -1740, -329, -302, -1117, -68, 245, 278, -478, -1631, 227, 921, 483, 1089, -467, 579, 832, 2195, -500, 371, 681, 1627, -1363, -287, -1249, -1510, 1532, 494, 705, -799, 1478, -259, -512, -893, -913, -5, -928, 1294, -2155, -1034, -236, -695, -437, -1428, -1251, 1751, -152, -152, -140, 994, 198, 849, 432, 742, -757, -118, -2063, -759, 1083, -1551, -904, -1225, -98, -1099, 237, -1744, 1287, -230, -2911, -874, 1004, -593, -614, -1406, 1751, 384, -456, 1855, 263, 1063, 318, -242, -70, -275, 1175, -128, -2079, 272, -864, -942, 1832, 961, -164, 26, -19, 340, -2192, 93, -121, -377, 1977, 1834, -1694, -758, 1718, 83, -252, 111, 809, 287, 905, 1505, -3154, 429, -211, 1484, -427, 283, -345, -1090, -1009, -1100, -802, -606, -1241, 635, 1436, -1553, 317, -1456, 1605, 126, -2657, -1069, 821, -1254, -653, -1309, 1755, 456, -626, 1876, 194, 1012, 213, -81, -112, -249, 1276, 317, -2162, -34, -357, -1031, 1904, 1051, -549, -133, -73, 45, -2516, 131, -154, -426, 1675, 1626, -1636, -889, 1780, -102, -143, 197, 511, 422, 862, 1604, -3351, 487, -194, 1283, -356, 357, -647, -1072, -1338, -1085, -870, -1012, -1430, 577, 1337, 465, -516, -1671, 1949, -1105, -595, -804, 751, -37, -1074, -1811, 1880, 31, -636, 1045, -555, 786, 2480, 1359, -434, 414, 1617, 2609, -1113, 214, -550, 1001, 1949, 1290, 193, 1679, -506, -632, -1286, 200, -150, 1629, 384, 1601, -986, -958, -809, -478, 127, -39, 11, -1115, 1855, -229, -166, 354, 1873, 2853, -1041, 1093, -1471, 1384, -1956, -984, -938, -564, -414, -1107, -20, 827, -524, -1074, 2030, -749, -592, -1182, 479, 222, -1084, -1370, 1771, 333, 19, 961, -1099, 497, 2461, 816, -221, 517, 1913, 2642, -1780, 171, -759, 895, 1852, 1253, -80, 1703, -492, -1050, -1326, 69, -205, 1828, 867, 1587, -697, -981, -728, -724, 158, 548, -462, -1221, 1935, -299, -214, 263, 2025, 2869, -909, 1101, -770, 1423, -1959, -1329, -543, -1000, -88, -1134, 78, 1094, 415, -1323, -1208, -1205, -1514, 906, 560, -521, -61, -1689, 1432, -41, -563, 2163, -1073, 212, 1784, 1598, 1436, 296, 2209, 2296, -1009, 742, -225, -578, 507, 727, -491, -22, -160, -729, -1737, 309, -710, -282, 768, 2452, 117, -753, -1137, -692, 593, -101, 349, -864, 2094, -285, 370, 39, -1079, 1277, 456, -278, -1719, -895, -2250, 305, -1878, -1421, -1614, 662, 758, 772, 309, -1299, -280, -1420, -1854, 1384, 667, -218, -85, -1035, 1388, 93, -285, 1942, -512, 516, 1706, 1183, 1820, 386, 1936, 2144, -1335, 535, -95, -633, 630, 813, -821, -113, -147, -744, -1984, 386, -716, -218, 852, 2011, 227, -783, -941, -1181, 491, -40, 348, -874, 2075, -158, 9, 62, -755, 935, 564, -307, -1729, -852, -2669, 400, -1787, -1222, -1076, 561, 728, -83, 1193, -1070, 1988, -858, -994, 2300, 897, 60, -129, -1691, 837, -2467, -1414, -151, 496, -1261, 1804, 142, 1398, -1243, 1046, 2142, -1867, -964, -2311, -127, 675, 731, 1177, -715, -286, 578, -465, 515, -201, 1105, -423, 1141, 311, -721, -1161, -1524, -250, 446, -554, 323, 508, 1205, 897, 990, -1401, 3469, -344, -248, -1591, -242, -2560, -683, 1199, 225, -2937, -887, 575, -344, 922, -1260, 1643, -753, -751, 2203, 1062, -458, -172, -1598, 647, -2338, -1245, -479, 699, -2040, 1798, 99, 1345, -1088, 863, 2130, -1497, -469, -2503, -261, 574, 664, 871, -778, -261, 527, -1214, 777, -149, 1051, -197, 1308, 344, -527, -860, -820, -305, 510, -1141, 769, 493, 1210, 1078, 1006, -1203, 2726, -593, -182, -1681, -184, -2527, -760, 1184, 278, -2973, -848, 638, -617, 1206, -1939, 393, -629, -1611, 2520, 406, 235, -166, -2287, 639, 590, -543, -534, -591, 383, 199, 1148, -642, 47, 1815, -163, -1447, 758, 502, -1169, 1333, 145, 341, -613, 1030, -616, -1519, 1245, -194, 690, -655, 1536, -573, -491, -210, -1925, -278, -772, 556, -1022, 316, -1362, 99, 1124, 2616, 1340, -749, -359, -1734, 925, -1484, 144, -781, 1184, -240, -2780, 658, -548, 1156, -1680, 291, -114, -1391, 2515, 342, 245, -188, -1857, 587, 543, -550, -729, -480, 350, 184, 1062, -445, 56, 1901, -71, -1343, 922, 141, -1198, 1367, 151, 60, -654, 1043, -662, -1519, 1381, -196, 644, -337, 1464, -521, -367, -179, -1932, -244, -567, 677, -1296, 291, -1396, 203, 1108, 2626, 1415, -776, -377, -1650, 890, -1446, 361, -571, 1083, -311, -2802, 593, -46, 2120, -1309, 1042, -1074, -2124, 2092, -818, 459, 389, -2437, 1582, -186, -1278, 79, -735, -3035, -418, 977, 1495, -853, 686, 903, -1737, 1273, 680, -500, 195, 549, 1119, 165, 104, 187, -1364, 939, -832, 1584, 790, 1166, 27, -2683, -1276, -1166, -506, -10, -364, -433, 897, 236, -396, 514, 721, 1473, -304, 750, -1325, 1967, -1669, -705, -262, 1171, -1970, -432, -47, 266, 1966, -1306, 1082, -958, -1948, 1890, -424, 361, 321, -2871, 1638, -129, -1096, 39, -709, -3157, -397, 673, 1198, -878, -55, 984, -1465, 1177, 492, -438, 175, 522, 1055, 85, 182, 144, -1434, 826, -918, 1056, 744, 1145, 110, -2056, -1247, -1182, -383, 218, -951, -754, 912, 128, -738, 532, 865, 1501, -591, 590, -1367, 2075, -2191, -474, -39, 1425, -1720, -455, -105, -2309, -41, -1760, -749, -221, -2199, -1219, -190, -694, -411, -1671, 1254, -17, 178, 137, -1252, 965, 408, 1492, -810, -131, -241, 1529, 157, -927, -489, -61, 2110, 315, -403, -173, 2161, 88, -1793, 1435, -309, 416, -1318, 1408, -1143, -1423, -13, -543, 536, 40, 489, 1484, 514, 161, -1670, 1061, 1098, 984, -598, -412, -583, -356, -1632, -887, 1254, -1469, -268, -1057, 1431, -2468, -78, -1566, -380, -685, -1984, -923, 184, -962, -520, -1402, 1213, -200, -150, 132, -1070, 770, 237, 1594, -616, -56, 490, 1791, 495, -538, -827, 64, 2037, 341, 18, -365, 2105, -277, -1995, 1477, -318, 594, -1079, 1752, -665, -1320, 237, -902, 579, 61, 59, 1202, 532, 225, -1758, 1191, 1379, 773, -511, -303, -224, -372, -1236, 70, 1283, -1936, -37, -1029, 1347, -2448, 1059, -1825, 653, -95, -1805, -1022, 2062, 2323, -931, -532, 924, 1165, 246, 2118, 651, 609, 1101, 410, -570, -1679, 1333, 908, 642, 137, -1372, -240, 601, -139, 1068, 56, 1350, 798, -2429, -1112, -1954, 251, 288, 2485, -1089, -492, -1270, 525, 281, 82, 1305, 1819, 1037, 950, -1537, 1265, -89, 